,lat,long,cluster
1,30.550045,-97.861763,87
2,30.595955,-97.873341,913
3,30.537706,-97.842574,1149
4,30.531993,-97.967226,689
5,30.49655,-97.901257,496
6,30.460701,-97.882086,750
7,30.498174,-97.827879,46
8,30.434403,-98.083907,539
9,30.488843,-98.053644,27
10,30.405429,-97.968645,480
11,30.367501,-98.056627,1454
12,30.421566,-97.941993,581
13,30.416288,-97.888347,1400
14,30.449261,-97.839977,1297
15,30.398674,-97.83899,92
16,30.33372,-98.076591,314
17,30.320471,-97.972406,342
18,30.349621,-98.009337,864
19,30.367501,-97.984566,58
20,30.382464,-97.926677,396
21,30.351176,-97.937276,1467
22,30.373525,-97.86814,217
23,30.374974,-97.834683,812
24,30.351794,-97.845706,1716
25,30.221922,-97.974997,1718
26,30.292875,-97.964299,788
27,30.32358,-97.939978,110
28,30.343668,-97.905759,1078
29,30.321831,-97.89921,1230
30,30.653697,-97.705243,1469
31,30.344763,-97.869942,1188
32,30.332143,-97.858595,1188
33,30.318718,-97.841425,607
34,30.30131,-97.832125,1571
35,30.304379,-97.919182,350
36,30.298805,-97.888816,21
37,30.352597,-97.921387,1247
38,30.308173,-97.871556,1024
39,30.351189,-97.779089,1065
40,30.384802,-97.744053,1402
41,30.288711,-97.833651,273
42,30.286234,-97.902792,1196
43,30.272366,-98.013199,1186
44,30.286428,-97.879621,601
45,30.267169,-97.899068,975
46,30.287223,-97.86426,1499
47,30.513457,-97.665825,1501
48,30.308846,-97.703502,114
49,30.286457,-97.843688,640
50,30.279555,-97.836009,640
51,30.205053,-97.932402,71
52,30.273341,-97.873192,601
53,30.196482,-97.909655,1658
54,30.172804,-97.901713,1375
55,30.260857,-97.851746,1640
56,30.259205,-97.829376,1413
57,30.247459,-97.825581,719
58,30.235346,-97.819398,719
59,30.25396,-97.895281,1657
60,30.24144,-97.879541,210
61,30.246756,-97.872037,644
62,30.245081,-97.858211,644
63,30.240247,-97.852166,102
64,30.267416,-97.928478,1435
65,30.237106,-97.93101,866
66,30.244016,-97.915824,1157
67,30.249879,-97.909155,61
68,30.238308,-97.892018,1714
69,30.244942,-97.985156,1509
70,30.250014,-97.943499,617
71,30.209143,-97.954558,1653
72,30.21593,-97.947086,1653
73,30.221875,-97.905353,1546
74,30.210384,-97.884729,1597
75,30.222138,-97.883969,352
76,30.22221,-97.928999,1580
77,30.230631,-97.858915,1453
78,30.229226,-97.850001,102
79,30.232836,-97.839501,526
80,30.224841,-97.835974,776
81,30.225853,-97.862221,577
82,30.217987,-97.865677,577
83,30.220626,-97.849136,921
84,30.214768,-97.858294,5
85,30.214574,-97.836175,361
86,30.206238,-97.845563,1408
87,30.39592,-97.773059,1045
88,30.20472,-97.872225,406
89,30.188692,-97.858353,730
90,30.194893,-97.937337,71
91,30.209985,-97.920445,1658
92,30.191616,-97.895714,747
93,30.179056,-97.914187,392
94,30.183883,-97.890011,747
95,30.342242,-97.809077,331
96,30.166515,-97.868659,1310
97,30.152804,-97.866404,467
98,30.204417,-97.829257,1488
99,30.188004,-97.841393,179
100,30.17107,-97.842194,296
101,30.164297,-97.854535,1310
102,30.133666,-97.842915,82
103,30.599148,-97.832171,4
104,30.579994,-97.799189,1262
105,30.589421,-97.756155,131
106,30.614041,-97.692748,47
107,30.627603,-97.663039,155
108,30.575265,-97.671384,1459
109,30.569989,-97.644672,1589
110,30.522036,-97.803089,181
111,30.518674,-97.768768,190
112,30.527329,-97.737027,119
113,30.542739,-97.739952,1528
114,30.540723,-97.693987,1323
115,30.544608,-97.683218,1323
116,30.550837,-97.664092,1483
117,30.480535,-97.811989,1097
118,30.471692,-97.806242,80
119,30.500992,-97.793977,1307
120,30.483751,-97.758083,1174
121,30.506262,-97.733466,508
122,30.516396,-97.710151,647
123,30.526432,-97.699474,1288
124,30.529538,-97.693185,1204
125,30.530948,-97.677935,1377
126,30.537547,-97.657977,413
127,30.537873,-97.628339,1095
128,30.525447,-97.687699,1204
129,30.522907,-97.674702,1377
130,30.527937,-97.660354,363
131,30.514658,-97.684306,614
132,30.517125,-97.675414,1501
133,30.468471,-97.609093,1300
134,30.51606,-97.649805,201
135,30.520364,-97.690696,614
136,30.510451,-97.681971,1267
137,30.512392,-97.675429,1267
138,30.516269,-97.659832,1712
139,30.477235,-97.748408,1174
140,30.499365,-97.699917,1172
141,30.506831,-97.681264,1267
142,30.489825,-97.687935,1379
143,30.500887,-97.678514,982
144,30.503811,-97.668835,483
145,30.505463,-97.648706,1145
146,30.512273,-97.621085,1252
147,30.481309,-97.698393,981
148,30.482178,-97.683939,717
149,30.488674,-97.669035,67
150,30.492029,-97.631009,1
151,30.454371,-97.816014,831
152,30.460688,-97.804425,80
153,30.463568,-97.786828,849
154,30.469152,-97.769391,11
155,30.465101,-97.734708,884
156,30.473658,-97.703262,1659
157,30.460659,-97.68639,1444
158,30.453786,-97.671883,132
159,30.467254,-97.654187,333
160,30.460126,-97.635163,1293
161,30.452107,-97.799555,1398
162,30.443651,-97.78093,1635
163,30.45527,-97.785175,1645
164,30.458188,-97.771871,659
165,30.449527,-97.776564,659
166,30.452449,-97.763846,870
167,30.453141,-97.704426,281
168,30.446519,-97.76236,870
169,30.442063,-97.755978,870
170,30.442247,-97.731102,1447
171,30.43446,-97.712671,1582
172,30.444289,-97.681327,694
173,30.431584,-97.679807,519
174,30.43806,-97.654831,804
175,30.429712,-97.632319,1719
176,30.446884,-97.613692,1500
177,30.412276,-97.756928,798
178,30.440343,-97.825646,1297
179,30.433092,-97.812579,430
180,30.426198,-97.80419,1134
181,30.440545,-97.792283,212
182,30.430965,-97.790268,782
183,30.432578,-97.745077,1572
184,30.419188,-97.836201,591
185,30.409079,-97.806945,1406
186,30.418049,-97.785683,1274
187,30.44012,-97.782925,1635
188,30.427536,-97.772391,1424
189,30.416096,-97.776502,1424
190,30.421041,-97.757609,643
191,30.422727,-97.734935,1507
192,30.421209,-97.724833,500
193,30.419626,-97.687169,477
194,30.474927,-97.628126,374
195,30.402543,-97.774264,439
196,30.393165,-97.763188,18
197,30.405087,-97.764003,798
198,30.40121,-97.75365,1386
199,30.407812,-97.737938,897
200,30.416374,-97.713136,168
201,30.401368,-97.723123,1050
202,30.400383,-97.71107,653
203,30.412333,-97.7016,1575
204,30.406628,-97.684758,1446
205,30.396503,-97.676128,9
206,30.402956,-97.652095,1403
207,30.385822,-97.629909,231
208,30.398609,-97.616178,371
209,30.420193,-97.603293,1638
210,30.396551,-97.82942,92
211,30.271191,-97.642884,409
212,30.395144,-97.78675,1045
213,30.393237,-97.800872,1301
214,30.391578,-97.752089,579
215,30.394219,-97.74096,1217
216,30.38687,-97.738158,121
217,30.384116,-97.728635,1085
218,30.379353,-97.722328,1085
219,30.380339,-97.706944,764
220,30.395126,-97.69242,1191
221,30.384254,-97.678624,447
222,30.380068,-97.668098,1143
223,30.383394,-97.660601,203
224,30.373993,-97.650303,1599
225,30.371901,-97.636824,746
226,30.357638,-97.621547,1073
227,30.347504,-97.604697,1371
228,30.360871,-97.581717,135
229,30.369183,-97.77245,1122
230,30.383082,-97.754946,1701
231,30.370937,-97.748874,873
232,30.372799,-97.738426,1705
233,30.368742,-97.732737,502
234,30.365825,-97.723827,552
235,30.367008,-97.712527,825
236,30.374445,-97.714456,764
237,30.362717,-97.703016,313
238,30.365978,-97.701017,313
239,30.374479,-97.696226,1681
240,30.368666,-97.687912,1227
241,30.362402,-97.676517,1248
242,30.35801,-97.662114,752
243,30.340503,-97.634953,1504
244,30.335824,-97.616902,308
245,30.3645,-97.740699,824
246,30.361619,-97.735446,149
247,30.357612,-97.724918,1552
248,30.355442,-97.7182,615
249,30.356542,-97.710188,615
250,30.354451,-97.69626,887
251,30.348438,-97.685483,1485
252,30.338319,-97.690935,728
253,30.337807,-97.664499,1292
254,30.333871,-97.675748,1550
255,30.333513,-97.647877,421
256,30.361286,-97.757804,343
257,30.35516,-97.743801,1631
258,30.350866,-97.738792,840
259,30.355362,-97.734401,149
260,30.351559,-97.727219,1084
261,30.346115,-97.729428,1690
262,30.348204,-97.718429,324
263,30.342425,-97.721317,324
264,30.340669,-97.709102,1728
265,30.33247,-97.696583,1735
266,30.32667,-97.685099,20
267,30.324017,-97.664095,148
268,30.32257,-97.651571,956
269,30.3202,-97.639453,109
270,30.325044,-97.617448,1573
271,30.327527,-97.57601,1529
272,30.34417,-97.558384,468
273,30.347874,-97.76121,923
274,30.341089,-97.750211,235
275,30.34102,-97.742547,1421
276,30.337612,-97.733307,1421
277,30.334246,-97.725896,556
278,30.328946,-97.720367,802
279,30.329197,-97.711138,802
280,30.324755,-97.698623,1298
281,30.308832,-97.854872,607
282,30.353876,-97.789916,1131
283,30.338864,-97.78138,59
284,30.333799,-97.76676,1472
285,30.331953,-97.759891,1472
286,30.332227,-97.751829,235
287,30.330139,-97.742742,45
288,30.330061,-97.735351,45
289,30.325264,-97.730682,1337
290,30.320679,-97.720953,785
291,30.316483,-97.711051,1581
292,30.318649,-97.702866,251
293,30.316705,-97.693892,365
294,30.316931,-97.684863,1216
295,30.307248,-97.690083,365
296,30.316758,-97.672491,148
297,30.310034,-97.680821,1299
298,30.300761,-97.67833,521
299,30.303255,-97.666683,1026
300,30.311495,-97.65656,1741
301,30.295066,-97.655743,265
302,30.305169,-97.6301,855
303,30.28759,-97.640662,1210
304,30.296238,-97.606829,1224
305,30.35485,-97.821754,452
306,30.339491,-97.799011,882
307,30.344399,-97.79414,555
308,30.334694,-97.786917,515
309,30.330049,-97.804386,1090
310,30.32969,-97.794461,515
311,30.323452,-97.784862,515
312,30.322771,-97.790383,1169
313,30.309286,-97.779878,1742
314,30.319513,-97.773295,1054
315,30.316399,-97.76201,139
316,30.322827,-97.748686,545
317,30.318928,-97.741563,835
318,30.318134,-97.735161,1337
319,30.312636,-97.726851,388
320,30.309394,-97.719694,1286
321,30.308606,-97.713911,1286
322,30.291673,-97.694168,100
323,30.289535,-97.685312,751
324,30.289232,-97.674631,751
325,30.325211,-97.753043,545
326,30.312346,-97.755063,139
327,30.314377,-97.750453,1616
328,30.311422,-97.745119,1616
329,30.314075,-97.73437,388
330,30.307788,-97.737685,1538
331,30.304357,-97.731148,1538
332,30.299796,-97.723839,1004
333,30.29537,-97.712677,377
334,30.320631,-97.809788,147
335,30.312617,-97.819504,709
336,30.309044,-97.806541,315
337,30.321536,-97.80207,1169
338,30.316334,-97.798815,1169
339,30.30976,-97.788871,1064
340,30.306907,-97.770739,766
341,30.306124,-97.760175,1511
342,30.304992,-97.756618,1059
343,30.303114,-97.751664,1059
344,30.302486,-97.747239,229
345,30.299443,-97.742797,1668
346,30.29791,-97.735674,649
347,30.293084,-97.731181,649
348,30.292608,-97.727363,1505
349,30.289092,-97.719395,1505
350,30.287942,-97.71165,704
351,30.285307,-97.701787,100
352,30.297498,-97.777043,766
353,30.291148,-97.765987,99
354,30.296874,-97.762541,505
355,30.294723,-97.754442,505
356,30.291274,-97.745937,758
357,30.285813,-97.759194,1029
358,30.285682,-97.747977,758
359,30.284903,-97.743151,0
360,30.290562,-97.742966,758
361,30.291737,-97.738284,1357
362,30.285008,-97.735154,1123
363,30.286926,-97.730248,1647
364,30.302516,-97.818543,1093
365,30.290736,-97.81223,1093
366,30.300199,-97.799899,1306
367,30.282386,-97.785116,629
368,30.283673,-97.780701,629
369,30.291216,-97.778414,629
370,30.283819,-97.77024,1451
371,30.276309,-97.760494,1311
372,30.271814,-97.752313,988
373,30.27412,-97.749925,988
374,30.276649,-97.744971,671
375,30.279904,-97.743468,0
376,30.27864,-97.738873,1123
377,30.274993,-97.740269,1696
378,30.271875,-97.743373,1431
379,30.270625,-97.740184,1696
380,30.268129,-97.744601,1431
381,30.267364,-97.741182,1431
382,30.266557,-97.738381,587
383,30.270537,-97.736137,98
384,30.27371,-97.733763,98
385,30.277326,-97.734167,859
386,30.282229,-97.731517,1647
387,30.280795,-97.726061,187
388,30.281401,-97.723909,187
389,30.281893,-97.719348,1544
390,30.283713,-97.710834,1107
391,30.275893,-97.725163,859
392,30.277056,-97.718792,1544
393,30.277541,-97.713445,1107
394,30.278174,-97.705986,845
395,30.280929,-97.693411,322
396,30.283335,-97.680221,751
397,30.273431,-97.678189,1692
398,30.271453,-97.658848,688
399,30.258811,-97.625628,695
400,30.275689,-97.620276,1646
401,30.261466,-97.586183,561
402,30.271327,-97.762089,1311
403,30.267524,-97.752761,988
404,30.266418,-97.749402,223
405,30.265461,-97.74621,223
406,30.264483,-97.742416,1431
407,30.26393,-97.739258,587
408,30.259453,-97.741275,1676
409,30.256691,-97.729877,301
410,30.261901,-97.728685,457
411,30.26616,-97.727423,1613
412,30.267962,-97.722003,184
413,30.271109,-97.724436,184
414,30.272163,-97.71745,184
415,30.274171,-97.70587,845
416,30.26789,-97.709691,845
417,30.267381,-97.717513,184
418,30.264093,-97.717284,1249
419,30.258199,-97.7169,1249
420,30.25203,-97.722292,1384
421,30.255176,-97.707214,1598
422,30.261117,-97.705899,367
423,30.267416,-97.701265,845
424,30.275623,-97.694831,1343
425,30.269491,-97.693985,1343
426,30.257898,-97.696217,631
427,30.250378,-97.698255,858
428,30.258971,-97.683975,84
429,30.252393,-97.675294,1096
430,30.292047,-97.826542,273
431,30.28751,-97.822447,1005
432,30.279794,-97.813683,32
433,30.273914,-97.80577,1473
434,30.281114,-97.79798,530
435,30.274313,-97.785524,261
436,30.269571,-97.770276,165
437,30.26379,-97.760172,636
438,30.260843,-97.753126,1356
439,30.260153,-97.747288,1676
440,30.256479,-97.743315,1676
441,30.242798,-97.723846,997
442,30.236178,-97.713168,1491
443,30.237023,-97.699893,627
444,30.231273,-97.690977,1318
445,30.247651,-97.650627,1365
446,30.583031,-97.893907,1731
447,30.223538,-97.612743,1099
448,30.267841,-97.795414,915
449,30.263639,-97.781663,952
450,30.254015,-97.779408,953
451,30.258468,-97.76513,636
452,30.254583,-97.756802,1356
453,30.251548,-97.750714,875
454,30.249125,-97.74487,875
455,30.245798,-97.737968,1285
456,30.241422,-97.733277,75
457,30.235658,-97.72957,997
458,30.228055,-97.720917,1112
459,30.218025,-97.701277,1335
460,30.268739,-97.812312,971
461,30.262467,-97.80009,1234
462,30.257482,-97.807261,471
463,30.247294,-97.799248,1656
464,30.258186,-97.789672,915
465,30.250663,-97.791535,953
466,30.240428,-97.794477,1660
467,30.236384,-97.787768,340
468,30.23376,-97.779795,340
469,30.243976,-97.774117,898
470,30.251311,-97.772077,898
471,30.246241,-97.762422,69
472,30.240171,-97.766963,69
473,30.23169,-97.771333,1225
474,30.227782,-97.764302,248
475,30.235703,-97.759859,924
476,30.243373,-97.754573,1046
477,30.241194,-97.744361,385
478,30.238356,-97.748602,385
479,30.231751,-97.751904,1464
480,30.223802,-97.757112,1464
481,30.218675,-97.746881,1641
482,30.22543,-97.739635,605
483,30.226569,-97.732462,503
484,30.219904,-97.725743,1112
485,30.274722,-97.824877,32
486,30.255952,-97.814911,471
487,30.235591,-97.807971,55
488,30.227237,-97.795844,1695
489,30.222209,-97.784683,945
490,30.219404,-97.77595,1268
491,30.219174,-97.770121,1268
492,30.213479,-97.762511,1351
493,30.203546,-97.749497,1566
494,30.211973,-97.741725,1289
495,30.199342,-97.739267,1326
496,30.199427,-97.727805,1326
497,30.185219,-97.702259,1349
498,30.207604,-97.705674,417
499,30.200401,-97.668694,1457
500,30.224758,-97.664314,1497
501,30.207631,-97.603752,827
502,30.229851,-97.806673,55
503,30.223724,-97.812739,55
504,30.213238,-97.819622,1245
505,30.211461,-97.808543,527
506,30.219912,-97.800719,1695
507,30.21642,-97.7932,1642
508,30.207136,-97.801517,652
509,30.205816,-97.794697,137
510,30.214075,-97.788886,1061
511,30.211162,-97.783613,1061
512,30.204494,-97.787716,137
513,30.201568,-97.781077,391
514,30.209973,-97.775986,1637
515,30.198303,-97.771828,391
516,30.192167,-97.76229,623
517,30.19005,-97.752272,1184
518,30.191559,-97.741838,238
519,30.183884,-97.735419,828
520,30.179088,-97.714023,78
521,30.168372,-97.676869,1001
522,30.128184,-97.613068,934
523,30.166566,-97.569847,1486
524,30.204201,-97.575259,1553
525,30.195468,-97.820597,1007
526,30.192671,-97.79731,652
527,30.190192,-97.786001,465
528,30.188088,-97.777584,1359
529,30.182413,-97.772149,96
530,30.179217,-97.759163,1037
531,30.170457,-97.748821,675
532,30.16781,-97.730989,1082
533,30.160499,-97.709547,1148
534,30.143493,-97.687533,779
535,30.182246,-97.830203,1740
536,30.180777,-97.806741,382
537,30.178806,-97.78988,743
538,30.174277,-97.783503,241
539,30.170566,-97.77519,1232
540,30.171015,-97.763446,1232
541,30.164418,-97.745521,157
542,30.160598,-97.815586,1568
543,30.161894,-97.781648,658
544,30.134292,-97.724486,475
545,30.123992,-97.702255,1604
546,30.118841,-97.815712,1625
547,30.138629,-97.789007,705
548,30.1398,-97.779669,368
549,30.122344,-97.793243,594
550,30.11474,-97.761745,1367
551,30.10091,-97.742406,204
552,30.10704,-97.711796,1199
553,30.099935,-97.644403,1603
554,30.099777,-97.794275,1233
555,30.079091,-97.708895,321
556,30.061879,-97.67384,1265
557,30.45357,-97.57921,992
558,30.44074,-97.596368,405
559,30.384952,-97.572308,1576
560,30.371482,-97.546382,243
561,30.316307,-97.498617,1591
562,30.30919,-97.550996,1387
563,30.277114,-97.57567,612
564,30.264,-97.537069,863
565,30.239086,-97.53474,1628
566,30.149404,-97.877778,1175
567,30.562892,-97.81444,1104
568,30.556527,-97.784048,1317
569,30.560541,-97.747161,359
570,30.565681,-97.707149,1087
571,30.543998,-97.702414,800
572,30.426107,-97.404165,470
573,30.494096,-97.797771,1307
574,30.479701,-97.776675,1521
575,30.474974,-97.690281,981
576,30.42248,-97.862996,1032
577,30.130563,-97.947983,1422
578,30.113558,-97.857472,1706
579,30.095669,-97.82522,1348
580,30.079619,-97.796332,1229
581,30.054632,-97.768528,1382
582,30.03508,-97.739866,1651
583,30.044241,-97.823901,906
584,30.064542,-97.813059,928
585,30.067321,-97.837672,661
586,30.081642,-97.956989,1644
587,29.886396,-97.922651,494
588,30.028229,-97.982658,1309
589,30.002999,-97.878479,150
590,30.001839,-97.785715,1075
591,29.979146,-97.846817,1605
592,30.34613,-97.703574,101
593,30.488497,-97.600807,1555
594,30.48319,-97.56746,1022
595,30.463281,-97.525215,1702
596,30.087585,-97.751571,698
597,30.058818,-97.723985,1092
598,30.438973,-97.543138,433
599,30.428163,-97.513846,1704
600,30.144669,-97.747936,1520
601,30.132946,-97.82476,970
602,30.145593,-97.817215,431
603,30.199903,-97.523203,990
604,30.114833,-97.680519,1559
605,30.131976,-97.668147,118
606,30.145238,-97.583182,499
607,30.467008,-97.489938,334
608,30.152791,-97.651583,1449
609,30.165474,-97.640056,1449
610,30.237554,-97.674932,1318
611,30.183483,-97.637009,62
612,30.172582,-97.602786,1562
613,30.442805,-97.462556,122
614,30.230896,-97.570828,1304
615,30.254773,-97.510731,1137
616,30.274879,-97.472702,1231
617,30.297379,-97.511156,76
618,30.327288,-97.527973,1235
619,30.311798,-97.470836,214
620,30.345114,-97.524893,768
621,30.332948,-97.468369,1153
622,30.35486,-97.554176,298
623,30.400775,-97.566228,899
624,30.39936,-97.440864,789
625,30.367707,-97.520502,700
626,30.362081,-97.455986,1734
627,30.389228,-97.501275,635
628,30.408462,-97.527893,1563
629,30.419177,-97.556499,899
630,30.417448,-97.486022,328
631,30.51116,-97.432012,1540
632,30.758933,-97.61981,848
633,30.787235,-97.461624,1404
634,30.762333,-97.570963,1256
635,30.714855,-97.635692,1121
636,30.721902,-97.655039,1041
637,30.721962,-97.43449,1475
638,30.7155,-97.453439,1364
639,30.659308,-97.591075,683
640,30.645536,-97.648227,240
641,30.688991,-97.697896,1129
642,30.70538,-97.717715,1190
643,30.688418,-97.290934,531
644,30.708185,-97.434506,22
645,30.707375,-97.44851,1364
646,30.617408,-97.492335,1593
647,30.63058,-97.608464,23
648,30.670268,-97.365601,578
649,30.614327,-97.438935,1708
650,30.556867,-97.534104,1385
651,30.549309,-97.552697,427
652,30.585801,-97.403788,1303
653,30.593637,-97.422708,3
654,30.589385,-97.4345,1086
655,30.417908,-97.324987,767
656,30.454708,-97.409402,1436
657,30.519091,-97.37656,1194
658,30.548378,-97.339944,464
659,30.543711,-97.426921,742
660,30.564158,-97.412627,415
661,30.544213,-97.502359,1154
662,30.518844,-97.603226,807
663,30.553467,-97.632417,989
664,30.37016,-97.793486,191
665,30.52616,-97.553431,408
666,29.896453,-98.064179,901
667,29.955213,-98.126496,716
668,29.956289,-98.065857,871
669,29.950139,-98.009999,1428
670,29.868981,-97.990969,582
671,29.857558,-98.012298,327
672,29.832913,-98.018237,1098
673,29.979552,-98.108467,938
674,29.997999,-98.058955,258
675,30.019846,-98.0279,414
676,29.967048,-97.95913,710
677,29.952026,-97.983606,1170
678,29.979371,-98.082087,1636
679,30.030066,-98.080249,1139
680,29.918913,-97.948067,355
681,30.043596,-98.053382,1238
682,29.877956,-97.952311,292
683,29.87017,-97.962849,1015
684,29.878492,-97.965586,734
685,30.177624,-98.067552,1583
686,30.183656,-98.035565,559
687,30.204068,-98.063961,390
688,30.132727,-98.066773,529
689,30.142357,-98.017092,435
690,30.123464,-98.013422,152
691,30.103535,-97.972025,1236
692,30.156158,-97.922656,1060
693,30.083197,-98.064494,874
694,30.046219,-97.956417,151
695,30.249732,-98.090132,517
696,30.221504,-98.001452,1409
697,30.232619,-98.041958,1746
698,30.256626,-98.041382,551
699,30.188322,-97.952201,1595
700,29.890125,-97.944039,1535
701,29.889557,-97.938971,90
702,29.887069,-97.939213,90
703,29.887943,-97.936567,736
704,29.881756,-97.942358,1527
705,29.88051,-97.945474,729
706,29.87795,-97.943205,1527
707,29.875888,-97.949028,729
708,29.882519,-97.927999,357
709,29.881815,-97.932862,357
710,29.887993,-97.932527,736
711,29.886075,-97.93607,736
712,29.893192,-97.93209,736
713,29.888441,-97.926399,494
714,29.893447,-97.938495,1101
715,29.896727,-97.936225,1101
716,29.886506,-97.942882,90
717,29.887606,-97.948487,1535
718,29.884797,-97.945336,1535
719,29.884042,-97.942473,90
720,29.881787,-97.947927,729
721,29.884353,-97.901427,1164
722,29.873067,-97.90967,1439
723,29.883636,-97.91573,1545
724,29.892753,-97.908106,44
725,29.864351,-97.902071,1587
726,29.867046,-97.923945,183
727,29.880741,-97.917204,610
728,29.875409,-97.92325,1255
729,30.207493,-98.032242,1711
730,29.889728,-97.918411,1545
731,29.898736,-97.913953,44
732,30.06917,-98.022446,1205
733,30.079967,-97.990787,226
734,30.055404,-97.91209,816
735,29.886781,-97.991968,1495
736,29.908987,-97.972402,1620
737,29.889408,-97.970463,734
738,29.863587,-97.978738,1218
739,29.897388,-97.954655,129
740,29.85407,-97.978959,196
741,29.842171,-97.996419,1014
742,30.139214,-98.214295,495
743,30.190007,-98.168253,256
744,30.174555,-98.153721,964
745,30.1517,-98.154464,806
746,30.212417,-98.172451,1053
747,30.22956,-98.135289,763
748,30.220277,-98.100548,1312
749,30.158316,-98.110565,896
750,30.0445,-98.141486,1025
751,30.072636,-98.204517,351
752,30.115504,-98.192023,1567
753,30.019708,-98.232533,416
754,29.995598,-98.167437,1023
755,30.1139,-98.246902,145
756,29.996347,-98.122024,173
757,30.02551,-98.111827,31
758,30.067054,-98.102025,1178
759,30.10241,-98.14819,1340
760,30.133525,-98.106678,765
761,30.271372,-98.086092,1251
762,29.908768,-97.917075,1585
763,30.277913,-98.137608,497
764,30.3165,-98.139466,337
765,30.291503,-98.177276,174
766,30.24439,-98.18288,1163
767,30.167197,-98.235175,369
768,30.185976,-98.229548,1443
769,30.191844,-98.103685,70
770,30.184616,-98.091417,1410
771,29.876772,-97.898031,348
772,29.850646,-97.932248,1663
773,29.850705,-97.913015,781
774,29.859432,-97.925423,1069
775,29.835223,-97.937747,156
776,29.855514,-97.945814,310
777,29.832686,-97.918297,312
778,29.826014,-97.932603,156
779,29.807481,-97.955,1038
780,29.773576,-97.997444,857
781,29.786936,-97.976479,1031
782,29.845097,-97.972475,1539
783,29.855842,-97.963431,1590
784,29.836644,-97.955373,1494
785,29.837248,-97.982015,1678
786,29.825153,-97.995132,596
787,29.859848,-97.970835,1218
788,29.814299,-98.008047,1079
789,29.826534,-97.980837,43
790,29.813303,-97.980242,713
791,29.805415,-98.002584,1079
792,29.947011,-97.918627,1344
793,29.928589,-97.917713,225
794,30.501019,-97.716276,1586
795,29.89784,-97.928405,1699
796,29.837992,-97.945905,1494
797,29.871145,-97.9443,2
798,29.868781,-97.942805,2
799,29.863849,-97.941585,2
800,29.863564,-97.948336,2
801,29.860725,-97.944829,310
802,29.846717,-97.954871,1590
803,30.012564,-97.752352,489
804,30.067731,-97.825872,1258
805,30.01983,-97.868262,1383
806,30.038809,-97.873747,931
807,30.067665,-97.849967,661
808,30.08096,-97.83664,819
809,30.083844,-97.815399,1348
810,30.142626,-97.856741,1418
811,30.126275,-97.877768,180
812,30.103692,-97.899298,437
813,30.090338,-97.88967,437
814,29.959885,-97.801203,347
815,29.989355,-97.816935,893
816,29.953982,-97.862871,1209
817,29.993338,-97.863652,1321
818,30.005026,-97.844911,1503
819,30.017435,-97.826144,1621
820,30.093477,-97.86188,637
821,30.080607,-97.8601,282
822,30.070587,-97.864712,282
823,29.953701,-97.889945,1456
824,29.973582,-97.882525,24
825,29.983051,-97.900371,554
826,29.985158,-97.879181,424
827,29.987072,-97.887542,894
828,30.040951,-97.895792,453
829,30.021565,-97.896007,1136
830,29.994624,-97.874248,424
831,29.991428,-97.879703,424
832,29.996685,-97.8902,894
833,29.927373,-97.884313,1579
834,29.898203,-97.896467,1433
835,29.900537,-97.901977,744
836,29.909386,-97.905904,253
837,29.936266,-97.889216,1579
838,29.900711,-97.942748,1101
839,29.904187,-97.949324,513
840,29.894799,-97.945184,513
841,29.932993,-97.839249,1198
842,29.909249,-97.869469,889
843,29.893191,-97.890449,386
844,29.9514,-97.81998,1003
845,30.012707,-97.90673,1136
846,30.276044,-97.858429,259
847,30.226363,-97.874022,1629
848,30.174384,-97.984925,279
849,30.269483,-97.748407,988
850,30.629693,-97.936611,1223
851,30.56515,-97.878483,504
852,30.671293,-97.949297,1336
853,30.639453,-97.894479,1519
854,30.561981,-97.854201,1062
855,30.683345,-97.94289,1498
856,30.766585,-97.9192,1547
857,30.629598,-97.845097,1237
858,30.639299,-97.6662,1691
859,30.642343,-97.674662,1322
860,30.668799,-97.659879,197
861,30.628872,-97.671426,839
862,30.668363,-97.686088,628
863,30.880283,-97.824754,941
864,30.470096,-97.449694,446
865,30.74618,-97.845772,972
866,30.689129,-97.862864,1167
867,30.575118,-97.820445,1551
868,30.876242,-97.77401,37
869,30.840902,-97.747424,326
870,30.78796,-97.831057,1106
871,30.685782,-97.776485,1278
872,30.658614,-97.695213,628
873,30.637172,-97.681379,1322
874,30.629455,-97.700115,1601
875,30.627732,-97.68395,543
876,30.852528,-97.680214,721
877,30.831092,-97.612867,1179
878,30.625071,-97.676133,839
879,30.616469,-97.686217,47
880,30.623086,-97.697171,47
881,30.834316,-97.589673,1662
882,30.656402,-97.262914,284
883,30.631001,-97.410462,307
884,30.577103,-97.332716,727
885,30.577643,-97.392433,1592
886,30.539989,-97.216877,389
887,30.549645,-97.386987,291
888,30.567615,-97.398214,1619
889,30.572072,-97.41793,1606
890,30.460507,-97.1884,419
891,30.54927,-97.453586,905
892,29.861169,-97.937891,1743
893,29.864771,-97.935216,1743
894,29.867991,-97.937213,1330
895,29.870864,-97.934639,1330
896,29.864473,-97.916837,183
897,29.862569,-97.930338,1069
898,29.857715,-97.936981,506
899,29.877395,-97.931265,357
900,29.871417,-97.93772,1330
901,29.875356,-97.933272,645
902,29.870438,-97.94043,1330
903,29.874089,-97.937071,645
904,29.879425,-97.934873,357
905,29.873855,-97.941696,645
906,29.882817,-97.936327,357
907,29.888777,-97.953068,1250
908,29.881982,-97.94009,1527
909,29.884244,-97.940672,90
910,29.875972,-97.939316,645
911,29.880838,-97.938202,1527
912,29.88466,-97.938557,90
913,29.88739,-97.941105,90
914,29.866701,-97.955129,1015
915,29.859982,-97.953523,310
916,29.871867,-97.948372,292
917,29.87049,-97.955337,292
918,29.892357,-97.94926,513
919,29.877414,-97.937005,645
920,29.846154,-97.898921,458
921,29.883181,-97.956601,1250
922,29.890512,-97.962115,734
923,30.581871,-97.431543,1086
924,30.570241,-97.845304,1150
925,30.547881,-97.832053,1549
926,30.516189,-97.819854,411
927,30.498781,-97.810987,1222
928,30.476706,-97.789975,566
929,30.526117,-97.8279,411
930,30.532518,-97.804664,1693
931,30.537807,-97.790202,40
932,30.52354,-97.78296,534
933,30.65866,-97.776031,349
934,30.658855,-97.849323,394
935,30.678669,-97.678827,1561
936,30.69052,-97.662227,12
937,30.69345,-97.644873,1254
938,30.70634,-97.676452,1425
939,30.717388,-97.745749,295
940,30.756782,-97.762274,8
941,30.84433,-97.792283,134
942,30.83935,-97.791475,134
943,30.84407,-97.797976,134
944,30.833925,-97.833141,1114
945,30.820892,-97.877474,263
946,30.809086,-97.788775,1533
947,30.787546,-97.733844,914
948,30.594021,-97.681147,488
949,30.592574,-97.705395,1542
950,30.610956,-97.746309,1347
951,30.624548,-97.751006,255
952,30.603434,-97.659525,423
953,30.605496,-97.646404,1100
954,30.633028,-97.636136,240
955,30.623878,-97.634323,240
956,30.6491,-97.637474,1011
957,30.675787,-97.63588,1700
958,30.67039,-97.646313,1722
959,30.659924,-97.615333,1284
960,30.68416,-97.648796,912
961,30.580698,-97.634348,664
962,30.688393,-97.56823,460
963,30.605618,-97.407175,558
964,30.547251,-97.412218,1687
965,30.572237,-97.424569,242
966,30.650184,-97.46063,670
967,30.675472,-97.416823,1161
968,30.749076,-97.498686,141
969,30.728051,-97.451663,1727
970,30.75436,-97.408646,895
971,30.570439,-97.411401,415
972,30.43632,-97.251463,442
973,30.472299,-97.262528,1058
974,30.48328,-97.224474,1287
975,30.445868,-97.232566,1077
976,30.479296,-97.306116,563
977,30.43847,-97.286145,725
978,30.443943,-97.370321,973
979,30.455046,-97.339311,1080
980,30.515092,-97.408642,786
981,30.488553,-97.410368,209
982,30.479036,-97.392374,966
983,30.493829,-97.35547,186
984,30.522277,-97.308176,393
985,30.505589,-97.247565,666
986,30.504025,-97.182869,138
987,30.565058,-97.259618,929
988,30.62155,-97.263684,117
989,30.631593,-97.319296,575
990,30.660884,-97.299336,1281
991,30.599844,-97.309353,441
992,30.590803,-97.346743,302
993,30.621102,-97.369973,696
994,30.65527,-97.346524,1213
995,30.584139,-97.4234,1749
996,30.560575,-97.423818,742
997,30.555834,-97.41098,124
998,30.581104,-97.381876,65
999,30.511418,-97.468827,939
1000,30.526407,-97.530192,1415
1001,30.517308,-97.502997,1437
1002,30.509986,-97.55816,1282
1003,30.477489,-97.481873,838
1004,30.575191,-97.510374,1076
1005,30.578301,-97.465299,1319
1006,30.58379,-97.592003,410
1007,30.581783,-97.6213,916
1008,30.603935,-97.594838,1189
1009,30.593494,-97.559051,275
1010,30.571888,-97.562385,1360
1011,30.550444,-97.586759,1339
1012,30.544585,-97.60774,1455
1013,30.559709,-97.615336,1460
1014,30.612544,-97.569962,219
1015,30.603709,-97.521503,909
1016,30.657724,-97.497322,373
1017,30.681438,-97.518758,620
1018,30.684143,-97.475931,1420
1019,30.727033,-97.485999,1523
1020,30.741662,-97.534252,1448
1021,30.707529,-97.522309,498
1022,30.767866,-97.516497,1578
1023,30.804915,-97.569578,564
1024,30.750264,-97.681406,1324
1025,30.791238,-97.642916,257
1026,30.69837,-97.627671,1176
1027,30.682848,-97.597727,987
1028,30.715183,-97.599677,341
1029,30.726483,-97.560001,1051
1030,30.652202,-97.567221,166
1031,30.658509,-97.527026,720
1032,30.744464,-97.349428,790
1033,30.723527,-97.294568,1083
1034,30.718481,-97.340303,160
1035,30.711832,-97.41274,796
1036,30.699874,-97.356277,944
1037,30.721099,-97.804395,1012
1038,30.713284,-97.917453,172
1039,30.707511,-97.937796,986
1040,30.505476,-97.850632,814
1041,30.502098,-97.831932,784
1042,30.511753,-97.834159,784
1043,30.043099,-97.852821,13
1044,30.521169,-97.847519,290
1045,30.524123,-97.837526,1149
1046,30.550258,-97.847503,731
1047,30.536438,-97.857691,1478
1048,30.465145,-97.829934,917
1049,30.740886,-97.717294,1748
1050,30.476281,-97.719732,381
1051,30.489708,-97.655412,1128
1052,30.587174,-97.415829,402
1053,30.405887,-98.02832,714
1054,30.49147,-97.824934,46
1055,30.47081,-97.820694,1097
1056,30.530568,-97.821047,557
1057,30.539373,-97.783615,1392
1058,30.527955,-97.767089,190
1059,30.506117,-97.763655,665
1060,30.491587,-97.764424,549
1061,30.48459,-97.794481,960
1062,30.498519,-97.782491,300
1063,30.488025,-97.78106,1521
1064,30.48333,-97.840841,1208
1065,30.545795,-97.825633,1549
1066,30.546888,-97.806481,570
1067,30.600584,-97.804895,606
1068,30.628699,-97.811,1295
1069,30.508377,-97.815848,1624
1070,30.52396,-97.791741,662
1071,30.507357,-97.806002,202
1072,30.511773,-97.789939,867
1073,30.486395,-97.805868,1220
1074,30.492048,-97.5281,34
1075,30.905132,-97.800454,1399
1076,30.887022,-97.703803,891
1077,30.857003,-97.589002,425
1078,30.837785,-97.539898,387
1079,30.670972,-97.244333,1044
1080,30.794371,-97.425623,777
1081,30.826011,-97.51054,116
1082,30.747149,-97.300292,434
1083,30.171221,-97.519633,108
1084,30.136738,-97.560852,1468
1085,30.217666,-97.479311,332
1086,30.32676,-97.419806,641
1087,30.359273,-97.397532,50
1088,30.351976,-97.39802,50
1089,30.397006,-97.36545,1370
1090,30.42561,-97.259456,442
1091,30.529067,-97.185122,726
1092,30.474429,-97.162178,1269
1093,30.609838,-97.218848,293
1094,29.934113,-98.150473,360
1095,29.82497,-97.918829,312
1096,29.800449,-98.015358,1263
1097,29.812023,-98.018414,1263
1098,29.806018,-97.944241,1038
1099,29.835521,-97.9049,1680
1100,29.930219,-97.813404,1162
1101,30.0113,-97.687029,83
1102,29.988874,-97.742832,616
1103,29.9607,-97.773983,930
1104,30.030532,-97.672595,1126
1105,30.102202,-97.609481,338
1106,29.994705,-98.236289,1013
1107,30.106389,-98.270406,771
1108,30.270539,-98.206818,583
1109,30.15493,-98.251617,1055
1110,30.193282,-98.236528,216
1111,30.320581,-98.18806,999
1112,30.422055,-98.127277,1116
1113,30.530257,-98.103332,401
1114,30.659689,-98.030267,244
1115,30.709085,-98.002919,618
1116,30.840504,-97.903407,907
1117,29.869985,-97.892405,1587
1118,30.43398,-98.04384,404
1119,30.4147,-97.974328,480
1120,30.406566,-97.85219,932
1121,30.416801,-97.846884,591
1122,30.407083,-97.761927,798
1123,30.409064,-97.764124,798
1124,30.408449,-97.758688,798
1125,30.408061,-97.744922,897
1126,30.41402,-97.745725,176
1127,30.407847,-97.744691,897
1128,30.415637,-97.745701,176
1129,30.412533,-97.731664,1720
1130,30.407919,-97.715814,653
1131,30.40912,-97.716095,653
1132,30.410378,-97.684787,1446
1133,30.407524,-97.677913,507
1134,30.415302,-97.676469,1689
1135,30.409447,-97.647814,1403
1136,30.231017,-97.516594,142
1137,30.236316,-97.520151,142
1138,30.401773,-97.634956,1039
1139,30.413554,-97.623711,598
1140,30.395078,-97.589682,1115
1141,30.416815,-97.575833,1158
1142,30.30344,-97.526112,1730
1143,30.307684,-97.514671,76
1144,30.33638,-97.51792,10
1145,30.334995,-97.509891,562
1146,30.375385,-97.528483,700
1147,30.397315,-97.519255,1144
1148,30.408455,-97.512478,1737
1149,30.409589,-98.109364,230
1150,30.385513,-98.086011,1201
1151,30.406921,-98.058975,1378
1152,30.407793,-97.874061,436
1153,30.439673,-97.873379,1043
1154,30.403618,-97.853717,932
1155,30.410956,-97.791897,237
1156,30.399573,-97.783123,1045
1157,30.411092,-97.768154,439
1158,30.404545,-97.768691,439
1159,30.409917,-97.747504,897
1160,30.407781,-97.747856,897
1161,30.414459,-97.746412,176
1162,30.407968,-97.745632,897
1163,30.413568,-97.745912,176
1164,30.405556,-97.745455,897
1165,30.406374,-97.724071,1050
1166,30.408849,-97.7147,653
1167,30.407206,-97.721641,1050
1168,30.408731,-97.712834,168
1169,30.407364,-97.714123,653
1170,30.409801,-97.711471,168
1171,30.408358,-97.715529,653
1172,30.407968,-97.696596,1575
1173,30.412293,-97.67463,1689
1174,30.40787,-97.675483,507
1175,30.4133,-97.673628,1689
1176,30.403298,-97.675161,507
1177,30.414308,-97.672668,1689
1178,30.406589,-97.674045,507
1179,30.412976,-97.672042,1689
1180,30.407529,-97.673112,507
1181,30.403013,-97.605632,371
1182,30.400877,-97.545066,525
1183,30.425266,-97.532488,787
1184,30.407188,-97.541096,525
1185,30.505154,-97.519605,911
1186,30.51811,-97.517307,911
1187,30.539446,-97.527361,1609
1188,30.537219,-97.513917,215
1189,30.546126,-97.526327,1609
1190,30.550371,-97.502511,1154
1191,30.593317,-97.519759,909
1192,30.59844,-97.503766,501
1193,30.637256,-97.519283,1019
1194,30.637913,-97.503543,89
1195,30.674133,-97.519584,620
1196,30.655746,-97.51178,1522
1197,30.715859,-97.509234,1146
1198,30.736201,-97.517674,886
1199,30.72774,-97.51612,886
1200,30.786327,-97.570382,1020
1201,30.813891,-97.514762,116
1202,30.753481,-97.522255,1070
1203,30.759103,-97.502626,592
1204,30.276789,-97.502484,485
1205,30.294375,-97.524078,1730
1206,30.350266,-97.500359,687
1207,30.410372,-97.51129,1737
1208,30.397977,-97.470816,969
1209,30.405153,-97.499596,1325
1210,30.418875,-97.427254,1042
1211,30.415024,-97.460113,533
1212,30.399374,-97.381992,182
1213,30.410031,-97.37493,182
1214,30.417783,-97.521358,63
1215,30.443669,-97.517121,955
1216,30.440796,-97.521724,955
1217,30.493528,-97.493465,550
1218,30.589415,-97.53659,1160
1219,30.607574,-97.506741,1350
1220,30.615287,-97.542575,1159
1221,30.666963,-97.495278,373
1222,30.687437,-97.492532,826
1223,30.690823,-97.524148,620
1224,30.729133,-97.531196,54
1225,30.783688,-97.524716,922
1226,30.740209,-97.493845,141
1227,30.766484,-97.479858,426
1228,30.410299,-97.695637,1575
1229,30.412131,-97.702847,1575
1230,30.408633,-97.70461,168
1231,30.410893,-97.709342,168
1232,30.413835,-97.661196,741
1233,30.405328,-97.66238,1195
1234,30.42208,-97.625593,598
1235,30.40409,-97.637802,1039
1236,29.987074,-98.049768,1047
1237,29.984562,-98.038465,1047
1238,30.026318,-98.043982,739
1239,30.03215,-98.039656,739
1240,30.052957,-98.049297,113
1241,30.047991,-98.025834,1260
1242,30.1098,-98.068304,14
1243,30.123192,-98.031115,769
1244,30.131643,-98.031699,769
1245,30.149237,-98.051563,1089
1246,30.153385,-98.016194,435
1247,30.286319,-98.064664,732
1248,30.291368,-98.034598,192
1249,30.355722,-98.066735,697
1250,30.331214,-98.024116,757
1251,30.37458,-98.041928,289
1252,29.883707,-97.965652,734
1253,29.893214,-97.964866,734
1254,29.886653,-97.962478,734
1255,29.887965,-97.953982,1250
1256,29.884175,-97.948286,1535
1257,29.884944,-97.949509,1535
1258,29.885791,-97.945866,1535
1259,29.884912,-97.942571,90
1260,29.88521,-97.940536,90
1261,29.884527,-97.923961,494
1262,29.885258,-97.929695,357
1263,29.882201,-97.921188,610
1264,29.886173,-97.918068,1545
1265,29.883649,-97.922986,610
1266,29.882561,-97.921502,610
1267,29.887678,-97.917035,1545
1268,29.887809,-97.916563,1545
1269,29.884282,-97.908492,1439
1270,29.888212,-97.9054,1439
1271,29.882033,-97.895876,1164
1272,29.888655,-97.886721,386
1273,29.940677,-98.022744,590
1274,29.908608,-98.008721,1736
1275,29.917247,-98.051817,1574
1276,29.885597,-97.946803,1535
1277,29.884687,-97.943954,1535
1278,29.883846,-97.94376,1535
1279,29.885079,-97.941552,90
1280,29.884391,-97.941438,90
1281,29.885267,-97.940102,90
1282,29.884481,-97.940026,90
1283,29.883169,-97.93868,90
1284,29.884754,-97.936819,90
1285,29.883316,-97.93731,90
1286,29.884907,-97.930244,357
1287,29.88435,-97.931116,357
1288,29.886723,-97.919149,1545
1289,29.883183,-97.922476,610
1290,29.888646,-97.916622,1545
1291,29.882931,-97.92178,610
1292,30.193978,-98.03592,559
1293,30.194871,-98.049602,1726
1294,30.245989,-98.027316,440
1295,30.246378,-98.043262,551
1296,30.345872,-98.027208,1438
1297,30.159975,-98.178438,860
1298,30.129515,-98.173062,451
1299,30.143223,-98.135221,175
1300,30.157746,-98.131657,1458
1301,30.144817,-98.089328,1068
1302,30.16069,-98.090996,221
1303,30.167313,-98.085854,221
1304,30.13787,-98.157966,1608
1305,29.967769,-98.189493,772
1306,29.981565,-98.147097,711
1307,30.035229,-98.179821,677
1308,30.058892,-98.162858,822
1309,30.089786,-98.19487,810
1310,30.08205,-98.171247,1445
1311,30.104379,-98.17688,38
1312,30.126281,-98.170259,451
1313,30.004317,-98.18761,1733
1314,30.012098,-98.120381,1057
1315,30.019125,-98.130309,686
1316,29.999239,-98.101129,985
1317,30.02115,-98.101837,31
1318,30.009134,-98.077175,681
1319,30.015618,-98.070197,681
1320,30.008634,-98.051193,258
1321,30.020471,-98.153274,353
1322,30.094404,-98.170976,38
1323,30.000072,-98.200099,104
1324,30.101001,-98.223676,580
1325,30.047826,-98.198919,1305
1326,30.097785,-98.239317,1362
1327,30.096546,-98.216512,580
1328,30.099451,-98.18839,810
1329,29.974506,-98.092413,205
1330,29.980102,-98.093545,205
1331,29.994609,-98.090602,1649
1332,29.987964,-98.111264,938
1333,30.002568,-98.105036,985
1334,29.941015,-98.091712,574
1335,30.008008,-98.117772,1057
1336,29.938804,-98.081782,574
1337,29.981565,-98.139629,711
1338,29.986542,-98.120568,173
1339,29.92891,-98.069342,128
1340,29.925171,-98.064188,128
1341,29.985071,-98.089903,205
1342,29.985865,-98.075657,1636
1343,29.998843,-98.084241,1649
1344,30.081168,-98.171429,1445
1345,30.072243,-98.140645,450
1346,30.107668,-98.131384,448
1347,30.045394,-98.101753,249
1348,30.03475,-98.118658,686
1349,30.06887,-98.125564,1510
1350,30.069955,-98.090106,1178
1351,30.102064,-98.096006,1000
1352,30.12629,-98.112328,765
1353,30.121344,-98.088327,486
1354,30.061194,-98.075962,690
1355,30.027515,-98.128455,686
1356,30.116391,-98.137431,448
1357,30.129918,-98.135692,1156
1358,30.123076,-98.135616,1156
1359,30.048688,-98.097949,249
1360,30.058309,-98.049009,113
1361,30.055926,-98.092073,249
1362,30.058932,-98.080648,690
1363,30.10984,-98.090537,1000
1364,30.131976,-98.08916,486
1365,30.179424,-98.191269,79
1366,30.182829,-98.162832,256
1367,30.257611,-98.169802,7
1368,30.22719,-98.169205,1584
1369,30.272555,-98.179416,1373
1370,30.300608,-98.166031,174
1371,30.300407,-98.170914,174
1372,30.162056,-98.141627,1458
1373,30.199549,-98.184398,1441
1374,30.197855,-98.162057,1648
1375,30.198206,-98.179426,1441
1376,30.200172,-98.194485,876
1377,30.27055,-98.068497,1430
1378,30.280318,-98.155751,1264
1379,30.256065,-98.154836,1698
1380,30.255864,-98.132785,706
1381,30.285707,-98.103249,125
1382,30.256388,-98.109119,323
1383,30.173312,-98.240938,369
1384,30.178501,-98.232143,1443
1385,30.159139,-98.245775,1055
1386,30.179132,-98.230195,1443
1387,30.188182,-98.214616,803
1388,30.193112,-98.214579,803
1389,30.189203,-98.109283,1541
1390,30.189269,-98.102602,70
1391,30.221912,-98.151964,362
1392,30.205816,-98.144811,957
1393,30.205308,-98.133052,957
1394,30.219776,-98.118518,1652
1395,30.20463,-98.11855,674
1396,30.198217,-98.107129,70
1397,30.210052,-98.087482,667
1398,30.213293,-98.084826,667
1399,30.191588,-98.095033,565
1400,30.246396,-98.12472,706
1401,30.254291,-98.082014,517
1402,30.182808,-98.124873,878
1403,30.198168,-98.161836,1648
1404,30.191378,-98.162277,256
1405,30.18744,-98.115318,1541
1406,30.205647,-98.128349,957
1407,30.227215,-98.154469,362
1408,30.256152,-98.143003,1698
1409,30.233872,-98.124752,763
1410,30.167629,-98.086571,221
1411,30.179423,-98.087313,1410
1412,30.159349,-98.068204,1132
1413,30.191384,-98.081811,565
1414,30.191338,-98.087434,565
1415,30.193977,-98.102295,70
1416,30.181782,-98.087413,1410
1417,30.19133,-98.093042,565
1418,30.189304,-98.099051,565
1419,30.192514,-98.064321,390
1420,30.237465,-98.065915,30
1421,30.249399,-98.058146,1588
1422,30.246189,-98.047347,551
1423,30.299922,-98.088865,604
1424,30.368436,-98.072766,697
1425,30.393322,-98.067956,106
1426,29.841741,-97.912779,781
1427,29.848594,-97.905366,458
1428,29.869138,-97.91176,183
1429,29.869205,-97.902758,348
1430,29.883152,-97.909806,1439
1431,29.880615,-97.912757,1439
1432,29.878232,-97.907425,1439
1433,29.818075,-97.998524,596
1434,29.823262,-98.005313,272
1435,29.817127,-97.99684,596
1436,29.818931,-97.994699,596
1437,29.823926,-97.980733,43
1438,29.82181,-98.007133,272
1439,29.81739,-98.012155,272
1440,29.819486,-97.994863,596
1441,29.818343,-97.996504,596
1442,29.814034,-98.000977,1079
1443,29.820301,-97.993655,596
1444,29.814105,-98.000616,1079
1445,29.822026,-97.99246,596
1446,29.815446,-97.96404,330
1447,29.830284,-97.96121,821
1448,29.828849,-97.983841,43
1449,29.835607,-97.976302,599
1450,29.834256,-97.978198,599
1451,29.841971,-97.974684,1539
1452,29.846351,-97.979676,1557
1453,29.842559,-97.975355,1539
1454,29.850844,-97.974942,196
1455,29.813421,-97.967589,330
1456,29.806774,-97.978529,713
1457,29.838967,-97.973318,1539
1458,29.834027,-97.978787,599
1459,29.840191,-97.972651,1539
1460,29.836078,-97.976833,599
1461,29.840025,-97.97189,1539
1462,29.84932,-97.976323,196
1463,29.820649,-97.955213,1416
1464,29.825662,-97.942213,546
1465,29.810918,-98.003617,1079
1466,29.797524,-97.994277,224
1467,29.780004,-97.992683,857
1468,29.80978,-98.005157,1079
1469,29.810878,-98.004831,1079
1470,29.804461,-97.982193,713
1471,29.816411,-97.996523,596
1472,29.80115,-97.994277,224
1473,29.810904,-98.003892,1079
1474,29.815126,-97.999061,1079
1475,29.815366,-97.999757,1079
1476,29.812963,-98.00256,1079
1477,29.817537,-97.997344,596
1478,29.862223,-97.998377,1412
1479,29.85096,-97.984969,1557
1480,29.860719,-97.996498,1412
1481,29.850231,-97.984131,1557
1482,29.824507,-97.988654,43
1483,29.831786,-97.995633,1014
1484,29.847718,-97.981245,1557
1485,29.821828,-97.992251,596
1486,29.823465,-97.990057,596
1487,29.834039,-97.992218,1014
1488,29.83723,-97.989055,1014
1489,29.835006,-97.9781,599
1490,29.827288,-97.985579,43
1491,29.827121,-97.984705,43
1492,29.827685,-97.98604,43
1493,29.825198,-97.988915,43
1494,29.829455,-97.984188,43
1495,29.830066,-97.982813,43
1496,29.830282,-97.98298,43
1497,29.82378,-97.990143,596
1498,29.82846,-97.986415,43
1499,29.796368,-97.968037,1031
1500,29.846826,-97.963812,799
1501,29.85373,-97.956148,1590
1502,29.828217,-97.944615,546
1503,29.828578,-97.941912,546
1504,29.833369,-97.946962,546
1505,29.832843,-97.941569,546
1506,29.848735,-97.943496,795
1507,29.843343,-97.940454,795
1508,29.855146,-97.971213,1218
1509,29.85336,-97.957648,1590
1510,29.85126,-97.959659,1590
1511,29.847441,-97.964333,799
1512,29.853528,-97.957082,1590
1513,29.853599,-97.956728,1590
1514,29.84383,-97.967646,1539
1515,29.852997,-97.948412,310
1516,29.859231,-97.95031,310
1517,29.865634,-97.943201,2
1518,29.854864,-97.939497,506
1519,29.863038,-97.945704,2
1520,29.865021,-97.943426,2
1521,29.856628,-97.939361,506
1522,29.876116,-97.943103,1527
1523,29.869203,-97.940235,1330
1524,29.872973,-97.939549,645
1525,29.87758,-97.945016,729
1526,29.879629,-97.94301,1527
1527,29.876869,-97.944064,1527
1528,29.881903,-97.943378,1527
1529,29.883538,-97.943689,1527
1530,29.882495,-97.943449,1527
1531,29.845758,-97.940197,795
1532,29.854604,-97.930246,1663
1533,29.860255,-97.940449,506
1534,29.862253,-97.944222,2
1535,29.866176,-97.943259,2
1536,29.865091,-97.944442,2
1537,29.866953,-97.941952,2
1538,29.861566,-97.948009,310
1539,29.849604,-97.924394,1663
1540,29.882041,-97.945704,1535
1541,29.823166,-97.952518,1416
1542,29.839462,-97.971821,1539
1543,29.844947,-97.959837,799
1544,29.839028,-97.953008,1494
1545,29.846832,-97.964546,799
1546,29.842668,-97.968462,1539
1547,29.844076,-97.967651,1539
1548,29.843249,-97.968908,1539
1549,29.862841,-97.959953,1015
1550,29.861112,-97.957928,1015
1551,29.874544,-97.955576,292
1552,29.868395,-97.961723,1015
1553,29.867764,-97.961879,1015
1554,29.87309,-97.9555,292
1555,29.876557,-97.957934,292
1556,29.880121,-97.961806,734
1557,29.857091,-97.969138,1218
1558,29.859917,-97.966063,1218
1559,29.865419,-97.962971,1015
1560,29.881201,-97.962979,734
1561,29.856668,-97.952744,310
1562,29.858371,-97.950815,310
1563,29.858727,-97.955116,310
1564,29.858642,-97.951706,310
1565,29.857214,-97.953331,310
1566,29.860948,-97.947894,310
1567,29.857198,-97.952916,310
1568,29.862274,-97.947591,310
1569,29.874772,-97.955843,292
1570,29.880348,-97.950762,729
1571,29.880895,-97.949407,729
1572,29.877075,-97.951105,292
1573,29.87622,-97.952048,292
1574,29.877722,-97.950392,729
1575,29.873806,-97.95471,292
1576,29.879877,-97.94805,729
1577,29.878314,-97.94591,729
1578,29.880721,-97.949175,729
1579,29.882637,-97.946433,1535
1580,29.880975,-97.946805,729
1581,29.880625,-97.947202,729
1582,29.882953,-97.946819,1535
1583,29.881193,-97.949803,729
1584,29.883234,-97.94931,1535
1585,29.841662,-97.936114,795
1586,29.834243,-97.928599,312
1587,29.83758,-97.921594,312
1588,29.847286,-97.941906,795
1589,29.845039,-97.918815,781
1590,29.868707,-97.939662,1330
1591,29.866108,-97.94225,2
1592,29.868541,-97.938929,1330
1593,29.867505,-97.938735,1330
1594,29.870902,-97.936456,1330
1595,29.867945,-97.935361,1330
1596,29.868963,-97.931929,1330
1597,29.866739,-97.942596,2
1598,29.868758,-97.939972,1330
1599,29.876506,-97.929006,1255
1600,29.878542,-97.926102,1255
1601,29.88122,-97.92453,610
1602,29.856022,-97.931812,1663
1603,29.869094,-97.925668,183
1604,29.872084,-97.91934,183
1605,29.871191,-97.918273,183
1606,29.870111,-97.928014,1255
1607,29.874672,-97.9286,1255
1608,29.87846,-97.927101,1255
1609,29.876501,-97.929761,1255
1610,29.879317,-97.926499,1255
1611,29.877335,-97.929068,1255
1612,29.880004,-97.924818,1255
1613,29.87679,-97.928989,1255
1614,29.857879,-97.933204,506
1615,29.859559,-97.939136,506
1616,29.86196,-97.938952,1743
1617,29.859356,-97.938419,506
1618,29.860462,-97.935727,506
1619,29.85872,-97.934025,506
1620,29.859132,-97.93763,506
1621,29.866104,-97.937439,1743
1622,29.862164,-97.937389,1743
1623,29.857033,-97.93933,506
1624,29.865529,-97.938682,1743
1625,29.865203,-97.938703,1743
1626,29.863338,-97.937733,1743
1627,29.866078,-97.938666,1743
1628,29.872465,-97.934293,645
1629,29.876948,-97.935627,645
1630,29.874456,-97.934677,645
1631,29.876274,-97.939969,645
1632,29.875412,-97.93981,645
1633,29.876448,-97.9387,645
1634,29.875464,-97.938568,645
1635,29.877058,-97.934952,645
1636,29.872558,-97.935146,645
1637,29.871952,-97.936352,1330
1638,29.873279,-97.934553,645
1639,29.874938,-97.934728,645
1640,29.879132,-97.936033,645
1641,29.883692,-97.935194,357
1642,29.871325,-97.936415,1330
1643,29.87528,-97.931813,645
1644,29.871376,-97.939427,1330
1645,29.871593,-97.939456,1330
1646,29.870143,-97.939265,1330
1647,29.869401,-97.940087,1330
1648,29.874302,-97.93838,645
1649,29.874166,-97.939576,645
1650,29.873541,-97.939562,645
1651,29.870384,-97.937174,1330
1652,29.88011,-97.939989,1527
1653,29.880182,-97.939324,1527
1654,29.88144,-97.943323,1527
1655,29.879804,-97.942005,1527
1656,29.882041,-97.941035,1527
1657,29.880037,-97.940663,1527
1658,29.88177,-97.939579,1527
1659,29.88305,-97.939784,90
1660,29.880724,-97.93681,357
1661,29.882252,-97.939656,1527
1662,29.879754,-97.942292,1527
1663,29.878688,-97.940413,1527
1664,29.88265,-97.942749,1527
1665,29.882348,-97.941092,1527
1666,29.882869,-97.941188,1527
1667,29.882698,-97.942407,1527
1668,29.882965,-97.940445,1527
1669,29.876883,-97.936028,645
1670,29.877932,-97.938963,645
1671,29.883228,-97.938129,90
1672,29.882553,-97.937165,90
1673,29.877473,-97.932861,357
1674,29.878668,-97.930725,357
1675,29.877842,-97.929681,1255
1676,29.882305,-97.931934,357
1677,29.88393,-97.933255,357
1678,29.879275,-97.918292,610
1679,29.88104,-97.920099,610
1680,29.881947,-97.92016,610
1681,29.882011,-97.917562,610
1682,29.877475,-97.916194,610
1683,29.873535,-97.921075,183
1684,29.872239,-97.922415,183
1685,29.880316,-97.923785,610
1686,29.881773,-97.923014,610
1687,29.87959,-97.913879,1439
1688,29.852885,-97.898439,458
1689,29.869256,-97.89591,1587
1690,29.870444,-97.895752,1587
1691,29.878486,-97.901872,348
1692,29.87339,-97.900478,348
1693,30.131698,-98.010044,152
1694,30.147484,-97.983461,669
1695,30.152035,-97.971907,669
1696,29.971708,-97.787475,347
1697,29.963481,-97.777722,930
1698,30.008939,-97.764874,428
1699,30.027667,-97.785745,632
1700,30.033957,-97.778844,632
1701,30.013464,-97.769916,428
1702,30.113119,-97.784722,509
1703,30.116689,-97.781607,509
1704,30.113119,-97.782165,509
1705,30.101967,-97.759692,1596
1706,30.148253,-97.854836,1418
1707,30.145025,-97.852244,1418
1708,30.149554,-97.832825,1389
1709,30.140349,-97.832826,970
1710,30.146979,-97.794565,26
1711,30.140553,-97.797024,705
1712,30.148136,-97.793388,26
1713,30.13889,-97.796827,705
1714,30.149231,-97.79128,26
1715,30.144042,-97.793174,26
1716,30.155776,-97.790058,861
1717,30.145684,-97.793334,26
1718,30.164578,-97.77902,658
1719,30.166859,-97.784401,241
1720,30.17234,-97.782741,241
1721,30.178169,-97.778888,1359
1722,30.178354,-97.779637,1359
1723,30.204722,-97.774484,391
1724,30.227454,-97.779953,576
1725,30.227656,-97.778749,576
1726,30.227437,-97.779343,576
1727,30.230105,-97.788895,1675
1728,30.26528,-97.784538,952
1729,30.267711,-97.779086,952
1730,30.265256,-97.783519,952
1731,30.267761,-97.778362,952
1732,30.26533,-97.782286,952
1733,30.266689,-97.779575,952
1734,30.268797,-97.777774,952
1735,30.267535,-97.771498,636
1736,30.325587,-97.779934,1054
1737,30.311853,-97.782363,1742
1738,30.341,-97.77894,59
1739,30.341546,-97.781731,59
1740,30.399031,-97.782486,1045
1741,30.392306,-97.777798,1045
1742,29.95748,-97.786545,347
1743,30.044544,-97.794242,1713
1744,30.061135,-97.780788,817
1745,30.085718,-97.767393,698
1746,30.092449,-97.781509,60
1747,30.145501,-97.765776,1352
1748,30.14972,-97.766207,1352
1749,30.153347,-97.711128,1148
1750,30.158266,-97.681272,1001
1751,30.137567,-97.584342,35
1752,30.147217,-97.577793,499
1753,30.140648,-97.567176,1468
1754,30.159513,-97.555305,813
1755,30.158348,-97.776137,658
1756,30.157205,-97.781488,658
1757,30.172017,-97.783811,241
1758,30.179544,-97.782873,1359
1759,30.18261,-97.774018,96
1760,30.171832,-97.781082,241
1761,30.183546,-97.77423,96
1762,30.17127,-97.782507,241
1763,30.187451,-97.780446,1359
1764,30.192997,-97.778594,465
1765,30.194254,-97.78212,465
1766,30.188994,-97.77993,465
1767,30.206957,-97.778439,1637
1768,30.208275,-97.781155,1637
1769,30.211058,-97.778963,1637
1770,30.210002,-97.779795,1637
1771,30.154302,-97.735082,1493
1772,30.142173,-97.728856,475
1773,30.22782,-97.774012,1225
1774,30.227927,-97.780151,576
1775,30.246641,-97.777001,898
1776,30.244055,-97.781187,340
1777,30.257205,-97.7808,953
1778,30.247075,-97.784821,953
1779,30.260413,-97.770657,636
1780,30.267311,-97.780537,952
1781,30.145195,-97.699584,779
1782,30.149434,-97.696636,779
1783,30.143977,-97.69652,779
1784,30.152491,-97.670395,962
1785,30.145534,-97.673128,962
1786,30.153362,-97.668847,962
1787,30.153831,-97.639306,833
1788,30.283155,-97.776483,629
1789,30.288501,-97.78036,629
1790,30.293797,-97.783106,629
1791,30.295908,-97.783359,629
1792,30.357981,-97.785307,1131
1793,30.38252,-97.771031,773
1794,30.146457,-97.624194,280
1795,30.294852,-97.781125,629
1796,30.291665,-97.774304,99
1797,30.297507,-97.780138,766
1798,30.300641,-97.775754,766
1799,30.228138,-97.778887,576
1800,30.228226,-97.781444,576
1801,30.223421,-97.781914,576
1802,30.14862,-97.807197,1569
1803,30.144604,-97.808804,1569
1804,29.891123,-97.914054,1338
1805,29.896446,-97.909096,44
1806,29.893021,-97.911456,44
1807,29.895908,-97.909218,44
1808,29.896952,-97.909541,44
1809,29.904764,-97.912,1585
1810,29.915818,-97.910772,1081
1811,29.918339,-97.90818,1081
1812,29.956683,-97.903285,611
1813,30.028014,-97.910045,524
1814,29.893886,-97.912702,44
1815,29.900771,-97.905448,744
1816,29.894057,-97.911678,44
1817,30.016504,-97.897091,1136
1818,29.990932,-97.892708,894
1819,29.966324,-97.926509,977
1820,30.011987,-97.891282,247
1821,30.020791,-97.889466,1560
1822,30.014425,-97.859689,294
1823,30.019364,-97.856183,294
1824,30.028356,-97.854691,589
1825,30.014248,-97.85921,294
1826,30.019858,-97.855075,940
1827,30.016986,-97.847265,940
1828,30.014363,-97.812917,318
1829,30.01829,-97.80929,318
1830,30.028376,-97.926097,1484
1831,30.015748,-97.859108,294
1832,30.00581,-97.865017,1381
1833,30.004704,-97.82677,680
1834,30.095394,-97.895715,437
1835,30.09644,-97.930063,42
1836,30.018492,-97.871239,1383
1837,29.89864,-97.973549,1183
1838,29.925388,-97.947524,355
1839,29.956176,-97.969228,1334
1840,29.937726,-97.932325,841
1841,29.969026,-97.989404,74
1842,29.900238,-97.982998,1183
1843,29.983412,-98.00407,1294
1844,29.888059,-97.942108,90
1845,29.892343,-97.941204,1101
1846,29.884842,-97.943001,90
1847,29.886138,-97.944191,1535
1848,29.887377,-97.944393,1535
1849,29.891347,-97.941083,1101
1850,29.892214,-97.944405,513
1851,29.894504,-97.942072,1101
1852,29.896304,-97.944082,513
1853,29.896828,-97.94477,513
1854,29.90526,-97.929784,1699
1855,29.917193,-97.933274,1602
1856,29.921256,-97.93543,1602
1857,29.887756,-97.961289,734
1858,29.891718,-97.95702,1250
1859,29.896152,-97.964475,129
1860,29.900516,-97.958233,129
1861,29.896785,-97.948392,513
1862,29.898021,-97.947013,513
1863,29.888057,-97.951664,1250
1864,29.889125,-97.950476,1535
1865,29.890261,-97.951863,1250
1866,29.895617,-97.949694,513
1867,29.893969,-97.951532,513
1868,29.891572,-97.953462,1250
1869,29.889994,-97.95523,1250
1870,29.890985,-97.952746,1250
1871,29.888145,-97.945395,1535
1872,29.888858,-97.946341,1535
1873,29.890193,-97.947309,1535
1874,29.897713,-97.947357,513
1875,29.888328,-97.93012,494
1876,29.885608,-97.926853,494
1877,29.89445,-97.923727,933
1878,29.900543,-97.926663,1699
1879,29.891716,-97.926737,494
1880,29.889409,-97.931367,736
1881,29.891985,-97.926032,494
1882,29.89425,-97.928245,494
1883,29.898973,-97.918589,933
1884,29.903718,-97.91319,1585
1885,29.892871,-97.941268,1101
1886,29.889904,-97.935206,736
1887,29.891224,-97.936081,736
1888,29.894618,-97.935685,1101
1889,29.896258,-97.936477,1101
1890,29.888698,-97.934407,736
1891,29.887445,-97.935513,736
1892,29.89017,-97.935888,736
1893,29.888847,-97.933304,736
1894,29.895579,-97.932475,736
1895,29.897822,-97.938325,1101
1896,29.885398,-97.93914,90
1897,29.88764,-97.939234,90
1898,29.888443,-97.940612,90
1899,29.890831,-97.940999,90
1900,29.887845,-97.93802,90
1901,29.89031,-97.936246,736
1902,29.886562,-97.941802,90
1903,29.885175,-97.940808,90
1904,29.886157,-97.940243,90
1905,29.886604,-97.940314,90
1906,29.888282,-97.941299,90
1907,29.887342,-97.941936,90
1908,29.88561,-97.937555,90
1909,29.886856,-97.937814,90
1910,29.885949,-97.936406,90
1911,29.8872,-97.937886,90
1912,29.885461,-97.938676,90
1913,29.889151,-97.93708,736
1914,29.895984,-97.941451,1101
1915,29.887415,-97.923324,494
1916,29.891811,-97.918543,1338
1917,29.896415,-97.921533,933
1918,29.88842,-97.917542,1545
1919,29.892288,-97.922507,933
1920,29.892966,-97.915739,1338
1921,29.892884,-97.917288,1338
1922,29.891351,-97.913416,1338
1923,29.892317,-97.921909,933
1924,29.893086,-97.91346,44
1925,29.891997,-97.914136,1338
1926,29.891126,-97.914385,1338
1927,29.885393,-97.925649,494
1928,29.886585,-97.924278,494
1929,29.890532,-97.915493,1338
1930,29.887113,-97.917196,1545
1931,29.896288,-97.915415,1338
1932,30.03879,-97.948547,151
1933,30.047178,-97.988048,444
1934,30.044053,-97.964363,151
1935,30.084815,-98.013181,226
1936,30.075656,-98.001528,226
1937,30.12097,-97.966499,250
1938,30.068102,-97.95782,673
1939,30.059516,-97.989525,1721
1940,30.117416,-98.027066,769
1941,30.124197,-98.031112,769
1942,30.131151,-98.015189,152
1943,30.12078,-97.957285,250
1944,29.938037,-97.893994,1320
1945,29.950238,-97.884295,1456
1946,29.94924,-97.87881,1456
1947,29.950177,-97.878941,1456
1948,29.957876,-97.876596,568
1949,29.915845,-97.848869,412
1950,29.926522,-97.83059,169
1951,29.947856,-97.880945,1456
1952,29.942481,-97.882516,107
1953,29.95831,-97.877762,568
1954,29.959461,-97.877099,568
1955,29.947617,-97.880283,1456
1956,29.94602,-97.844755,1198
1957,29.987605,-97.836644,398
1958,29.997898,-97.850285,1503
1959,29.992531,-97.842281,398
1960,29.940408,-97.846714,1198
1961,29.942311,-97.82705,1003
1962,29.952679,-97.837463,267
1963,29.955021,-97.83949,267
1964,29.963873,-97.849113,954
1965,29.941387,-97.80234,655
1966,29.953695,-97.808346,1003
1967,29.944065,-97.798207,655
1968,29.914969,-97.896677,1417
1969,29.925772,-97.891058,356
1970,29.916378,-97.895242,1417
1971,29.922265,-97.892317,356
1972,29.893323,-97.88093,386
1973,29.90875,-97.859715,889
1974,29.916639,-97.878747,1221
1975,29.918328,-97.876762,1221
1976,29.917495,-97.895689,1417
1977,29.910342,-97.899412,253
1978,29.9187,-97.895591,1417
1979,29.946666,-97.879885,107
1980,29.928819,-97.864431,412
1981,29.92182,-97.856035,412
1982,29.899395,-97.905689,744
1983,29.901008,-97.904288,744
1984,29.900499,-97.905254,744
1985,29.903743,-97.902465,744
1986,29.895047,-97.899234,1433
1987,29.900391,-97.889634,1710
1988,29.902267,-97.90481,744
1989,29.900165,-97.906472,744
1990,29.902384,-97.904131,744
1991,29.894185,-97.900996,1433
1992,29.895378,-97.904373,1433
1993,29.902694,-97.902857,744
1994,29.906661,-97.900582,253
1995,29.909831,-97.900124,253
1996,29.907766,-97.900401,253
1997,29.932,-97.888354,1579
1998,29.932101,-97.888748,1579
1999,29.93194,-97.88714,1579
2000,29.942942,-97.88172,107
2001,29.943195,-97.882564,107
2002,29.944055,-97.88247,107
2003,29.926976,-97.86222,412
2004,29.967815,-97.875762,568
2005,29.969687,-97.89606,1715
2006,29.980784,-97.89222,554
2007,29.988604,-97.877025,424
2008,29.98734,-97.881341,424
2009,29.980893,-97.88974,554
2010,29.991005,-97.87655,424
2011,29.998405,-97.875004,150
2012,29.955968,-97.877251,568
2013,29.960048,-97.877361,568
2014,29.961741,-97.879345,568
2015,29.977884,-97.8736,1094
2016,29.983903,-97.872529,1094
2017,29.980909,-97.869032,1094
2018,29.989237,-97.881134,424
2019,29.98842,-97.874175,424
2020,29.979466,-97.874473,1094
2021,29.984511,-97.872966,1094
2022,29.976854,-97.873979,1094
2023,29.984943,-97.873281,424
2024,29.978504,-97.874173,1094
2025,29.995007,-97.875758,424
2026,29.993397,-97.880581,424
2027,29.98998,-97.859024,1321
2028,29.97571,-97.893847,554
2029,29.991391,-97.883102,894
2030,29.990351,-97.888739,894
2031,29.98995,-97.885996,894
2032,29.989498,-97.882908,424
2033,29.964168,-97.87511,568
2034,29.968051,-97.874544,568
2035,29.967861,-97.875366,568
2036,29.962752,-97.87637,568
2037,29.96523,-97.875565,568
2038,29.971791,-97.858385,954
2039,29.973956,-97.874605,1094
2040,29.973379,-97.87508,1094
2041,29.999674,-97.872733,150
2042,29.994143,-97.870195,150
2043,29.999144,-97.868018,150
2044,29.99763,-97.86942,150
2045,29.999883,-97.868179,150
2046,30.004292,-97.856041,1503
2047,29.999739,-97.86852,150
2048,29.998763,-97.869521,150
2049,30.003548,-97.866759,150
2050,30.005121,-97.865053,1381
2051,30.009416,-97.862153,1381
2052,30.012584,-97.860204,294
2053,30.013012,-97.861302,294
2054,30.007356,-97.864561,1381
2055,29.988217,-97.872226,424
2056,29.988055,-97.871805,424
2057,29.988493,-97.87533,424
2058,29.992077,-97.873158,424
2059,30.005926,-97.864224,1381
2060,29.934329,-97.81764,1162
2061,29.968192,-97.82357,1724
2062,29.95593,-97.810699,1003
2063,29.971545,-97.818273,1724
2064,29.976888,-97.808745,53
2065,29.989278,-97.80845,893
2066,29.993819,-97.813678,893
2067,29.984568,-97.817677,893
2068,29.961303,-97.832749,1355
2069,29.99912,-97.834605,680
2070,30.000962,-97.821896,680
2071,29.965926,-97.795661,347
2072,29.964911,-97.794449,347
2073,30.0323,-97.847014,589
2074,30.041811,-97.842152,1074
2075,30.032835,-97.846357,589
2076,30.035577,-97.844714,589
2077,30.035737,-97.846154,589
2078,30.056751,-97.844468,277
2079,30.079887,-97.874335,1110
2080,30.085233,-97.874376,1110
2081,30.057411,-97.859417,1525
2082,30.057888,-97.844172,277
2083,30.085233,-97.849017,1481
2084,30.071266,-97.84389,661
2085,30.038451,-97.84427,1074
2086,30.032572,-97.847181,589
2087,30.040561,-97.843567,1074
2088,30.078846,-97.843981,819
2089,30.081515,-97.842408,819
2090,30.072526,-97.855312,282
2091,30.087256,-97.830648,1618
2092,30.07893,-97.823356,94
2093,30.08137,-97.821978,94
2094,30.070274,-97.810744,928
2095,30.094569,-97.810998,491
2096,30.084451,-97.781297,60
2097,30.086583,-97.848656,1481
2098,30.081757,-97.823239,94
2099,30.079485,-97.824447,94
2100,30.08252,-97.822475,94
2101,30.076016,-97.825784,94
2102,30.082232,-97.822216,94
2103,30.077746,-97.824566,94
2104,30.092478,-97.848376,1481
2105,30.141052,-97.839895,970
2106,30.140901,-97.846645,82
2107,30.042635,-97.884639,453
2108,30.049961,-97.874437,1525
2109,30.02744,-97.88916,1560
2110,30.027821,-97.874967,931
2111,30.034703,-97.874957,931
2112,30.019116,-97.899698,1136
2113,30.021271,-97.854719,940
2114,30.029776,-97.848174,589
2115,30.029759,-97.849023,589
2116,30.02232,-97.853646,940
2117,30.022693,-97.854123,940
2118,30.01694,-97.858252,294
2119,30.068251,-97.873629,1110
2120,30.104231,-97.874942,180
2121,30.092148,-97.874553,979
2122,30.097269,-97.874777,979
2123,30.095573,-97.891498,437
2124,30.114723,-97.874813,180
2125,30.124805,-97.862555,775
2126,30.100671,-97.848911,1481
2127,30.100605,-97.860949,637
2128,30.117934,-97.872072,180
2129,30.048613,-97.838751,277
2130,30.044463,-97.840432,1074
2131,30.04977,-97.837808,277
2132,30.030178,-97.8244,1621
2133,30.024867,-97.789988,632
2134,30.058252,-97.821052,928
2135,30.046184,-97.80319,1202
2136,30.0519,-97.838021,277
2137,30.046293,-97.840771,277
2138,30.050612,-97.838215,277
2139,30.046387,-97.840289,277
2140,30.058509,-97.803453,380
2141,30.071613,-97.821368,1258
2142,30.039995,-97.842572,1074
2143,30.04291,-97.842069,1074
2144,30.041884,-97.842901,1074
2145,30.066202,-97.843692,661
2146,30.058164,-97.833704,1066
2147,30.062222,-97.831705,1066
2148,30.070839,-97.827419,1258
2149,30.057803,-97.840129,1066
2150,30.07068,-97.828798,1258
2151,30.07683,-97.834637,819
2152,30.077186,-97.82572,94
2153,30.065182,-97.821221,1258
2154,30.062529,-97.832814,1066
2155,30.07175,-97.82791,1258
2156,30.062354,-97.832455,1066
2157,30.075844,-97.825589,94
2158,30.057454,-97.834413,1066
2159,30.057939,-97.836082,1066
2160,30.076801,-97.835362,819
2161,30.077202,-97.824359,94
2162,30.077346,-97.821442,94
2163,30.06067,-97.804117,380
2164,30.070329,-97.806658,928
2165,30.094963,-97.813585,491
2166,30.099335,-97.811285,491
2167,30.098435,-97.81269,491
2168,30.108909,-97.807884,167
2169,30.112057,-97.808283,167
2170,30.108447,-97.8089,167
2171,30.09896,-97.813399,491
2172,30.118369,-97.804675,167
2173,30.109649,-97.809274,167
2174,30.099359,-97.81391,491
2175,30.114252,-97.804835,167
2176,30.112147,-97.805531,167
2177,30.115732,-97.805049,167
2178,30.117582,-97.805905,167
2179,30.142797,-97.802155,1569
2180,30.140481,-97.822986,431
2181,30.112819,-97.795296,1487
2182,30.088967,-97.819233,1348
2183,30.097371,-97.814901,491
2184,30.086778,-97.820047,1348
2185,30.095201,-97.81455,491
2186,30.088498,-97.817877,1348
2187,30.095267,-97.815648,491
2188,30.08977,-97.817858,1348
2189,30.094513,-97.794342,1233
2190,30.100245,-97.781725,60
2191,30.109372,-97.806761,167
2192,30.112981,-97.792339,1487
2193,30.130465,-97.798256,594
2194,30.129586,-97.799486,594
2195,30.136987,-97.798363,705
2196,30.126556,-97.802268,594
2197,30.138052,-97.796223,705
2198,30.138468,-97.795207,705
2199,30.129632,-97.800342,594
2200,30.13634,-97.796009,705
2201,30.141058,-97.7951,705
2202,30.125677,-97.801787,594
2203,30.136175,-97.791399,705
2204,30.290398,-98.020961,948
2205,30.187541,-97.912924,392
2206,30.182088,-97.89988,1375
2207,30.203564,-97.915917,1658
2208,30.218164,-97.894051,1102
2209,30.234304,-97.910849,1707
2210,30.230046,-97.895393,648
2211,30.275312,-97.91381,522
2212,30.28033,-97.904212,1196
2213,30.307708,-97.927441,920
2214,30.307834,-97.892772,21
2215,30.289788,-97.917446,350
2216,30.181256,-97.90037,1375
2217,30.186433,-97.913792,392
2218,30.201796,-97.918388,1658
2219,30.260021,-97.907067,975
2220,30.251859,-97.918722,61
2221,30.282704,-97.876244,601
2222,30.2734,-97.862617,259
2223,30.284143,-97.875022,601
2224,30.277539,-97.819556,32
2225,30.27584,-97.815575,32
2226,30.283842,-97.824162,1005
2227,30.276482,-97.803384,1473
2228,30.279916,-97.807103,877
2229,30.262313,-97.888867,520
2230,30.386976,-97.903719,41
2231,30.281131,-97.842637,640
2232,30.269707,-97.850778,1640
2233,30.274195,-97.812513,32
2234,30.272939,-97.798176,1473
2235,30.215547,-98.02279,586
2236,30.196676,-98.013609,88
2237,30.179153,-97.965435,560
2238,30.228909,-97.95054,246
2239,30.208494,-97.972777,432
2240,30.215089,-97.964775,1489
2241,30.196532,-97.997346,976
2242,30.217079,-97.962868,1489
2243,30.233343,-97.980853,171
2244,30.221726,-97.955777,949
2245,30.153427,-98.008778,435
2246,30.167389,-98.008567,1328
2247,30.178509,-98.002331,1328
2248,30.194559,-98.029824,559
2249,30.153575,-97.994535,669
2250,30.23749,-98.026025,440
2251,30.24336,-98.021496,440
2252,30.217224,-98.02376,586
2253,30.234439,-98.005382,1570
2254,30.232748,-97.991675,171
2255,30.231634,-97.999975,1570
2256,30.180144,-97.966104,560
2257,30.174159,-97.929221,890
2258,30.161605,-97.952457,712
2259,30.189131,-97.926918,567
2260,30.197962,-97.920828,567
2261,30.194456,-97.923225,567
2262,30.193069,-97.924096,567
2263,30.225762,-97.946665,246
2264,30.230666,-97.931553,866
2265,30.241088,-97.94163,617
2266,30.240527,-97.920292,1157
2267,30.246061,-97.92715,866
2268,30.241424,-97.940784,617
2269,30.223176,-97.952875,949
2270,30.231228,-97.928424,866
2271,30.238639,-97.918139,1157
2272,30.303727,-97.997469,1411
2273,30.306929,-97.970205,1280
2274,30.315871,-97.97799,342
2275,30.309794,-97.965369,1280
2276,30.334263,-97.968559,1316
2277,30.357365,-97.978713,1109
2278,30.354141,-97.96117,548
2279,30.354964,-97.986207,1109
2280,30.308263,-97.94502,1246
2281,30.304819,-97.935671,920
2282,30.307893,-97.956127,1246
2283,30.32185,-97.955313,1664
2284,30.359059,-97.954035,548
2285,30.391435,-97.937119,396
2286,30.153247,-97.833034,1389
2287,30.183334,-97.849577,179
2288,30.190407,-97.845121,179
2289,30.210837,-97.858899,5
2290,30.218765,-97.838342,776
2291,30.21052,-97.858555,5
2292,30.217492,-97.838693,776
2293,30.202866,-97.837208,1488
2294,30.214383,-97.850213,921
2295,30.208101,-97.888666,1597
2296,30.219574,-97.843778,921
2297,30.232333,-97.840227,526
2298,30.227366,-97.831071,195
2299,30.248549,-97.850943,963
2300,30.245545,-97.845201,963
2301,30.169901,-97.859566,1310
2302,30.176355,-97.835481,1140
2303,30.211092,-97.831757,361
2304,30.21668,-97.845643,921
2305,30.211544,-97.825433,361
2306,30.213668,-97.830107,361
2307,30.218339,-97.805362,527
2308,30.213589,-97.814537,1245
2309,30.215206,-97.797393,1642
2310,30.213555,-97.794039,1642
2311,30.223141,-97.841448,776
2312,30.224641,-97.85483,1461
2313,30.233736,-97.84074,526
2314,30.23635,-97.832664,1490
2315,30.236609,-97.83963,526
2316,30.237141,-97.831908,1490
2317,30.237639,-97.83963,526
2318,30.206976,-97.815059,1245
2319,30.208596,-97.80447,527
2320,30.213597,-97.850916,921
2321,30.204062,-97.858604,5
2322,30.206944,-97.84541,1408
2323,30.23683,-97.837139,526
2324,30.237161,-97.837182,526
2325,30.23695,-97.842302,526
2326,30.236655,-97.842259,526
2327,30.174337,-97.888236,143
2328,30.180271,-97.878955,1524
2329,30.199346,-97.867275,978
2330,30.180052,-97.878449,1524
2331,30.185813,-97.874961,622
2332,30.199122,-97.865671,978
2333,30.200434,-97.877747,406
2334,30.175337,-97.85482,993
2335,30.190033,-97.89058,747
2336,30.188385,-97.89214,747
2337,30.157165,-97.859768,467
2338,30.16629,-97.860619,1310
2339,30.165113,-97.860279,1310
2340,30.193757,-97.85882,730
2341,30.199057,-97.871973,978
2342,30.198771,-97.852364,730
2343,30.207564,-97.860569,5
2344,30.20827,-97.861604,5
2345,30.220789,-97.872676,1629
2346,30.23047,-97.87927,1272
2347,30.227623,-97.872836,1629
2348,30.243252,-97.883117,210
2349,30.247218,-97.888438,1168
2350,30.240749,-97.880658,210
2351,30.236775,-97.877965,1272
2352,30.243905,-97.879527,210
2353,30.25574,-97.890434,520
2354,30.242347,-97.878275,210
2355,30.2569,-97.871023,1667
2356,30.245212,-97.864037,644
2357,30.244091,-97.863216,644
2358,30.240407,-97.8914,1714
2359,30.236802,-97.8836,210
2360,30.221946,-97.892219,1102
2361,30.236646,-97.900652,648
2362,30.238761,-97.890584,1714
2363,30.260195,-97.902225,975
2364,30.256776,-97.893795,1657
2365,30.257265,-97.88907,520
2366,30.25114,-97.896549,1657
2367,30.257047,-97.904199,975
2368,30.216061,-97.8624,5
2369,30.220274,-97.85766,1461
2370,30.225608,-97.868584,1629
2371,30.229763,-97.864518,1453
2372,30.227832,-97.861267,577
2373,30.222852,-97.862833,577
2374,30.227426,-97.860449,577
2375,30.236052,-97.854532,102
2376,30.23514,-97.854813,102
2377,30.223181,-97.871649,1629
2378,30.223243,-97.863618,577
2379,30.217862,-97.852537,1461
2380,30.223843,-97.855347,1461
2381,30.218741,-97.854334,1461
2382,30.273753,-97.856936,259
2383,30.251431,-97.85779,644
2384,30.254374,-97.864878,1667
2385,30.249645,-97.853226,963
2386,30.173459,-97.823559,888
2387,30.179605,-97.819921,888
2388,30.173662,-97.816884,888
2389,30.173886,-97.809477,382
2390,30.176355,-97.832375,1140
2391,30.185679,-97.816079,271
2392,30.185283,-97.810546,271
2393,30.179238,-97.795686,743
2394,30.180182,-97.79517,743
2395,30.182422,-97.788699,1359
2396,30.172747,-97.785005,241
2397,30.199803,-97.80716,652
2398,30.191134,-97.812608,271
2399,30.202665,-97.806668,652
2400,30.180485,-97.802237,382
2401,30.180831,-97.807529,382
2402,30.178514,-97.808159,382
2403,30.177279,-97.803448,382
2404,30.202762,-97.812793,1007
2405,30.18864,-97.828925,1740
2406,30.176355,-97.833872,1140
2407,30.1607,-97.802057,1568
2408,30.164189,-97.830006,888
2409,30.169231,-97.825103,888
2410,30.187778,-97.827104,1740
2411,30.194472,-97.830519,983
2412,30.199763,-97.820203,1007
2413,30.201214,-97.838303,1488
2414,30.195122,-97.842094,179
2415,30.191706,-97.814837,271
2416,30.197267,-97.816427,1007
2417,30.195762,-97.821196,1007
2418,30.189681,-97.824843,1740
2419,30.198839,-97.819117,1007
2420,30.172226,-97.799273,743
2421,30.166962,-97.788279,241
2422,30.173904,-97.798642,743
2423,30.174077,-97.790784,743
2424,30.163204,-97.788333,861
2425,30.155768,-97.790981,861
2426,30.162464,-97.78959,861
2427,30.166939,-97.787129,241
2428,30.160891,-97.787557,861
2429,30.162002,-97.787985,861
2430,30.173786,-97.80677,382
2431,30.157098,-97.79141,861
2432,30.149732,-97.793656,26
2433,30.156987,-97.788798,861
2434,30.165459,-97.787076,241
2435,30.185486,-97.802486,382
2436,30.183698,-97.792438,743
2437,30.198722,-97.791851,1266
2438,30.192877,-97.790057,1266
2439,30.194474,-97.783017,465
2440,30.19698,-97.787501,1266
2441,30.199096,-97.793366,1266
2442,30.200171,-97.798499,652
2443,30.194362,-97.789132,1266
2444,30.207745,-97.794017,137
2445,30.202191,-97.804482,652
2446,30.199384,-97.805942,652
2447,30.198903,-97.802201,652
2448,30.189777,-97.790227,1266
2449,30.182928,-97.786171,1359
2450,30.191804,-97.783996,465
2451,30.180322,-97.790013,743
2452,30.183114,-97.781832,1359
2453,30.204353,-97.791199,137
2454,30.21132,-97.789122,1061
2455,30.210516,-97.786904,1061
2456,30.198363,-97.790864,1266
2457,30.202228,-97.784275,1266
2458,30.205473,-97.790072,137
2459,30.209203,-97.784479,1061
2460,30.222801,-97.805243,1695
2461,30.22805,-97.809223,55
2462,30.233858,-97.821453,719
2463,30.23245,-97.808305,55
2464,30.232666,-97.818097,719
2465,30.231455,-97.806939,55
2466,30.238975,-97.819349,719
2467,30.244234,-97.808808,1259
2468,30.240218,-97.82839,1490
2469,30.238702,-97.82134,719
2470,30.257974,-97.812264,971
2471,30.218583,-97.806739,527
2472,30.215003,-97.813629,1245
2473,30.23355,-97.810437,55
2474,30.236386,-97.825435,1490
2475,30.233955,-97.810455,55
2476,30.233651,-97.818327,719
2477,30.244695,-97.807022,1259
2478,30.24515,-97.80612,1656
2479,30.237759,-97.820834,719
2480,30.243412,-97.782109,340
2481,30.245978,-97.807716,1259
2482,30.249719,-97.806316,471
2483,30.251923,-97.802314,136
2484,30.263752,-97.816613,971
2485,30.218206,-97.82717,361
2486,30.233436,-97.826613,195
2487,30.227029,-97.830077,195
2488,30.232864,-97.825502,195
2489,30.23606,-97.829883,1490
2490,30.235193,-97.825605,1490
2491,30.236837,-97.825746,1490
2492,30.236089,-97.824203,719
2493,30.219506,-97.826329,361
2494,30.236495,-97.830177,1490
2495,30.236772,-97.830217,1490
2496,30.231272,-97.827504,195
2497,30.222202,-97.835212,776
2498,30.221992,-97.834969,776
2499,30.231272,-97.826983,195
2500,30.219835,-97.836259,776
2501,30.220703,-97.836875,776
2502,30.217456,-97.834436,776
2503,30.23648,-97.824848,719
2504,30.237683,-97.823722,719
2505,30.234639,-97.824175,719
2506,30.236251,-97.822684,719
2507,30.237186,-97.821308,719
2508,30.237333,-97.822571,719
2509,30.237105,-97.822005,719
2510,30.234337,-97.820512,719
2511,30.23579,-97.823091,719
2512,30.260888,-97.814364,971
2513,30.263578,-97.816797,971
2514,30.266143,-97.817979,971
2515,30.2716,-97.817588,32
2516,30.271717,-97.817882,32
2517,30.267828,-97.81834,32
2518,30.265414,-97.818023,971
2519,30.218078,-97.795323,1642
2520,30.227708,-97.808527,55
2521,30.232107,-97.800515,528
2522,30.233286,-97.796057,1660
2523,30.232689,-97.798636,528
2524,30.235575,-97.793702,1660
2525,30.23398,-97.797025,1660
2526,30.23697,-97.798816,1660
2527,30.232953,-97.794725,1660
2528,30.220448,-97.793757,1642
2529,30.222744,-97.798451,1695
2530,30.229003,-97.801013,528
2531,30.230355,-97.789878,1675
2532,30.223115,-97.799201,1695
2533,30.230378,-97.788003,1675
2534,30.229342,-97.78654,1675
2535,30.234377,-97.796031,1660
2536,30.235927,-97.79778,1660
2537,30.232603,-97.800213,528
2538,30.235198,-97.794501,1660
2539,30.233339,-97.798214,528
2540,30.232583,-97.793235,1660
2541,30.229617,-97.788557,1675
2542,30.228047,-97.801512,528
2543,30.228254,-97.789269,1675
2544,30.229025,-97.799467,528
2545,30.230386,-97.793822,1675
2546,30.230122,-97.797975,528
2547,30.217546,-97.801713,527
2548,30.225331,-97.803685,1695
2549,30.231462,-97.804014,528
2550,30.231804,-97.804853,55
2551,30.232967,-97.800718,528
2552,30.232413,-97.80632,55
2553,30.232432,-97.807216,55
2554,30.238041,-97.798967,1656
2555,30.232875,-97.808476,55
2556,30.233151,-97.807964,55
2557,30.232009,-97.806884,55
2558,30.237916,-97.79928,1656
2559,30.225517,-97.790699,945
2560,30.236651,-97.792052,1660
2561,30.237902,-97.789945,1660
2562,30.233587,-97.785525,340
2563,30.230721,-97.789249,1675
2564,30.232393,-97.792418,1660
2565,30.236646,-97.78352,340
2566,30.233574,-97.794596,1660
2567,30.23119,-97.791055,1675
2568,30.233917,-97.795234,1660
2569,30.260056,-97.805347,1234
2570,30.261715,-97.80888,971
2571,30.256001,-97.80054,136
2572,30.260262,-97.794047,915
2573,30.258713,-97.79617,915
2574,30.260209,-97.79324,915
2575,30.260195,-97.810167,971
2576,30.258993,-97.797666,915
2577,30.272563,-97.797651,1473
2578,30.270391,-97.791447,261
2579,30.263095,-97.788804,915
2580,30.260676,-97.794025,915
2581,30.25742,-97.799849,136
2582,30.26073,-97.792218,915
2583,30.262343,-97.789257,915
2584,30.266681,-97.805797,1234
2585,30.262226,-97.791986,915
2586,30.263327,-97.789245,915
2587,30.24763,-97.804075,1656
2588,30.251005,-97.806613,471
2589,30.252168,-97.805827,471
2590,30.255017,-97.803706,136
2591,30.258601,-97.802677,1234
2592,30.250175,-97.802627,136
2593,30.253313,-97.801443,136
2594,30.255686,-97.803534,136
2595,30.256627,-97.802043,136
2596,30.272874,-97.801035,1473
2597,30.274274,-97.80014,1473
2598,30.252789,-97.784927,953
2599,30.264663,-97.78723,261
2600,30.26362,-97.787056,261
2601,30.266277,-97.782899,952
2602,30.264301,-97.788165,261
2603,30.263404,-97.789885,915
2604,30.264583,-97.784744,952
2605,30.265011,-97.786332,261
2606,30.289039,-97.86919,1499
2607,30.303022,-97.843429,1571
2608,30.33747,-97.864691,1188
2609,30.341261,-97.881847,537
2610,30.35662,-97.832265,452
2611,30.394252,-97.845181,92
2612,30.398789,-97.844551,92
2613,30.309888,-97.844822,607
2614,30.313104,-97.852347,607
2615,30.370289,-97.860451,217
2616,30.312663,-97.881033,1024
2617,30.316056,-97.872294,270
2618,30.331027,-97.885542,537
2619,30.322847,-97.87288,270
2620,30.377304,-97.884445,510
2621,30.377412,-97.879879,510
2622,30.382368,-97.871525,217
2623,30.394185,-97.868841,1111
2624,30.389427,-97.882163,996
2625,30.394712,-97.866069,1111
2626,30.283109,-97.810687,877
2627,30.298997,-97.81519,1093
2628,30.298207,-97.802389,1306
2629,30.314974,-97.826522,709
2630,30.309577,-97.826156,709
2631,30.316063,-97.825211,709
2632,30.309545,-97.825762,709
2633,30.321072,-97.816305,147
2634,30.290013,-97.819354,1005
2635,30.310491,-97.801552,315
2636,30.308132,-97.796794,315
2637,30.313248,-97.79433,315
2638,30.322091,-97.815584,147
2639,30.305985,-97.782053,1742
2640,30.300892,-97.839075,1571
2641,30.295865,-97.82877,273
2642,30.283963,-97.832888,640
2643,30.293077,-97.82808,273
2644,30.298267,-97.827853,273
2645,30.295467,-97.827438,273
2646,30.29285,-97.822481,1005
2647,30.299516,-97.818977,1093
2648,30.293223,-97.82844,273
2649,30.297657,-97.828157,273
2650,30.281643,-97.842091,640
2651,30.284166,-97.83342,640
2652,30.304314,-97.840649,1571
2653,30.290327,-97.828309,273
2654,30.287733,-97.826976,273
2655,30.305178,-97.825485,709
2656,30.30455,-97.825413,709
2657,30.292344,-97.797985,1306
2658,30.289988,-97.790063,629
2659,30.304525,-97.794835,315
2660,30.290906,-97.801329,1306
2661,30.281367,-97.808305,877
2662,30.291352,-97.782574,629
2663,30.303467,-97.786596,1064
2664,30.316944,-97.792957,1169
2665,30.321771,-97.794192,1169
2666,30.333169,-97.792225,515
2667,30.332832,-97.800471,1090
2668,30.328719,-97.790419,515
2669,30.323684,-97.794141,1169
2670,30.331043,-97.788907,515
2671,30.335185,-97.806284,1090
2672,30.334512,-97.804247,1090
2673,30.331682,-97.789923,515
2674,30.379096,-97.827727,812
2675,30.365612,-97.79694,1131
2676,30.364429,-97.828657,452
2677,30.369555,-97.801644,701
2678,30.377974,-97.796726,1301
2679,30.37739,-97.805007,701
2680,30.387687,-97.824323,812
2681,30.392014,-97.838754,92
2682,30.359284,-97.79047,1131
2683,30.366071,-97.789691,191
2684,30.35956,-97.792073,1131
2685,30.356715,-97.792832,1131
2686,30.363111,-97.790418,1131
2687,30.356539,-97.792341,1131
2688,30.385861,-97.798527,1301
2689,30.021253,-97.742644,489
2690,30.009015,-97.72796,1002
2691,30.024991,-97.699893,456
2692,30.091222,-97.655379,213
2693,30.099121,-97.636677,1603
2694,30.126139,-97.640916,1056
2695,30.110472,-97.65021,1103
2696,30.112969,-97.649334,1103
2697,29.994679,-97.749232,616
2698,29.97976,-97.764403,207
2699,30.061381,-97.7375,1650
2700,30.063897,-97.710553,1021
2701,30.079628,-97.754532,130
2702,30.089855,-97.734261,1127
2703,30.080573,-97.735104,383
2704,30.088539,-97.71432,1173
2705,30.09333,-97.693648,6
2706,30.120769,-97.714933,1199
2707,30.112132,-97.694721,619
2708,30.069984,-97.685891,1617
2709,30.081814,-97.665963,1067
2710,30.08621,-97.671268,1067
2711,30.108393,-97.722686,621
2712,30.089301,-97.693484,6
2713,30.128798,-97.709943,1199
2714,30.032842,-97.767823,72
2715,30.024813,-97.746917,489
2716,30.076519,-97.748151,130
2717,30.074841,-97.735035,626
2718,30.046374,-97.755827,72
2719,30.058424,-97.746461,1650
2720,30.066423,-97.732168,626
2721,30.100159,-97.755922,1596
2722,30.126941,-97.774975,1452
2723,30.111202,-97.749035,1517
2724,30.106093,-97.738208,204
2725,30.133965,-97.755881,584
2726,30.114963,-97.746603,1517
2727,30.123976,-97.740532,584
2728,30.113733,-97.719341,1199
2729,30.093566,-97.761764,698
2730,30.138118,-97.773374,368
2731,30.100934,-97.727371,621
2732,30.135335,-97.733256,475
2733,30.058231,-97.703773,1021
2734,30.027369,-97.688502,456
2735,30.098475,-97.683197,797
2736,30.106732,-97.674058,454
2737,30.115064,-97.694848,619
2738,30.12938,-97.683977,811
2739,30.135807,-97.680223,811
2740,30.121538,-97.667553,678
2741,30.097144,-97.684563,797
2742,30.119328,-97.690349,619
2743,30.106856,-97.694471,619
2744,30.129184,-97.69566,254
2745,30.095123,-97.660082,213
2746,30.138109,-97.678447,811
2747,30.120507,-97.634975,1056
2748,30.109931,-97.622726,759
2749,30.141786,-97.615924,280
2750,30.132645,-97.621771,934
2751,30.104783,-97.628491,759
2752,30.274283,-97.771166,1451
2753,30.279042,-97.767623,165
2754,30.2773,-97.770504,1451
2755,30.278347,-97.772898,1451
2756,30.275636,-97.76678,165
2757,30.278952,-97.767164,165
2758,30.275212,-97.765354,165
2759,30.279888,-97.758443,1611
2760,30.276683,-97.751107,988
2761,30.277965,-97.750506,1611
2762,30.27809,-97.744172,671
2763,30.277798,-97.736099,1123
2764,30.278945,-97.724252,187
2765,30.279808,-97.718872,1544
2766,30.277082,-97.716191,1107
2767,30.280124,-97.716795,1544
2768,30.190898,-97.647323,299
2769,30.280604,-97.713907,1107
2770,30.283767,-97.656039,646
2771,30.278209,-97.768537,1451
2772,30.276552,-97.76984,1451
2773,30.280874,-97.768257,1451
2774,30.28204,-97.766402,1029
2775,30.277098,-97.768748,165
2776,30.278562,-97.74592,671
2777,30.277598,-97.746279,671
2778,30.277633,-97.742615,671
2779,30.276069,-97.743195,671
2780,30.276807,-97.739643,1696
2781,30.276002,-97.736773,1696
2782,30.278717,-97.731664,859
2783,30.277162,-97.73278,859
2784,30.278471,-97.73074,859
2785,30.275649,-97.731733,859
2786,30.279502,-97.729157,859
2787,30.273559,-97.731662,98
2788,30.280034,-97.729494,859
2789,30.278252,-97.728161,859
2790,30.274963,-97.729499,859
2791,30.28001,-97.728054,187
2792,30.272944,-97.731,98
2793,30.280392,-97.727442,187
2794,30.279509,-97.720765,1544
2795,30.276829,-97.72021,1544
2796,30.275982,-97.70408,845
2797,30.279486,-97.701825,100
2798,30.276636,-97.699985,1343
2799,30.278268,-97.69086,322
2800,30.27744,-97.695931,1343
2801,30.278712,-97.686804,322
2802,30.275847,-97.688679,322
2803,30.282652,-97.653111,646
2804,30.280765,-97.648133,1210
2805,30.292329,-97.653084,1432
2806,30.299934,-97.648122,1432
2807,30.352318,-97.646396,603
2808,30.389402,-97.656381,203
2809,30.38679,-97.648404,1035
2810,30.155885,-97.638011,833
2811,30.161242,-97.649013,1449
2812,30.18045,-97.64624,1526
2813,30.166537,-97.65984,523
2814,30.278334,-97.641634,409
2815,30.276595,-97.636962,409
2816,30.285972,-97.630927,286
2817,30.280296,-97.609429,57
2818,30.27574,-97.59952,57
2819,30.28876,-97.574784,612
2820,30.267849,-97.5478,863
2821,30.302651,-97.653749,265
2822,30.328642,-97.654765,956
2823,30.333212,-97.652719,421
2824,30.336064,-97.65136,421
2825,30.377272,-97.658636,203
2826,30.276726,-97.739351,1696
2827,30.27895,-97.738418,1123
2828,30.277378,-97.741699,671
2829,30.279511,-97.740918,1123
2830,30.275694,-97.735708,1696
2831,30.279407,-97.734201,1123
2832,30.283954,-97.656965,646
2833,30.276671,-97.659168,688
2834,30.278136,-97.662454,688
2835,30.279302,-97.673771,751
2836,30.279751,-97.680314,751
2837,30.274242,-97.680401,1692
2838,30.278018,-97.684679,322
2839,30.211935,-97.657026,1187
2840,30.202928,-97.639066,535
2841,30.337559,-97.719007,1372
2842,30.387485,-97.64909,1035
2843,30.384563,-97.644702,1035
2844,30.209457,-97.652986,1187
2845,30.209191,-97.653118,1187
2846,30.211133,-97.657961,1187
2847,30.208625,-97.7725,1637
2848,30.214937,-97.768502,1268
2849,30.179253,-97.720695,1212
2850,30.189539,-97.703901,1349
2851,30.212605,-97.745592,346
2852,30.212424,-97.736708,1289
2853,30.205211,-97.716385,1518
2854,30.203097,-97.712016,417
2855,30.21781,-97.774575,1268
2856,30.205546,-97.759339,17
2857,30.212804,-97.754536,684
2858,30.209693,-97.756356,17
2859,30.213221,-97.753358,684
2860,30.208861,-97.756035,17
2861,30.212735,-97.752689,684
2862,30.210491,-97.754054,17
2863,30.212319,-97.7521,684
2864,30.211787,-97.752395,684
2865,30.209953,-97.74713,346
2866,30.206682,-97.740275,1289
2867,30.214518,-97.735299,1729
2868,30.208496,-97.723017,1518
2869,30.22924,-97.712447,1491
2870,30.230142,-97.714194,1491
2871,30.242277,-97.716967,595
2872,30.252756,-97.712431,1598
2873,30.25478,-97.718293,1384
2874,30.25639,-97.710716,367
2875,30.261275,-97.717085,1249
2876,30.259778,-97.709095,367
2877,30.261683,-97.716147,1249
2878,30.263203,-97.712655,1249
2879,30.270125,-97.714709,184
2880,30.270516,-97.712249,845
2881,30.158589,-97.728433,429
2882,30.172365,-97.700983,78
2883,30.172286,-97.721729,1212
2884,30.214782,-97.710248,417
2885,30.23855,-97.719287,595
2886,30.253619,-97.711994,1598
2887,30.255881,-97.718546,1384
2888,30.273736,-97.715494,184
2889,30.274602,-97.712717,1107
2890,30.274147,-97.715578,184
2891,30.210789,-97.748887,346
2892,30.208545,-97.744127,346
2893,30.213391,-97.745062,346
2894,30.214327,-97.766695,1268
2895,30.207615,-97.765238,1558
2896,30.205739,-97.769721,391
2897,30.213517,-97.733596,1729
2898,30.21865,-97.717933,1112
2899,30.21391,-97.701229,1335
2900,30.211305,-97.712535,417
2901,30.212359,-97.711892,417
2902,30.216178,-97.665134,376
2903,30.212026,-97.714789,1518
2904,30.211582,-97.709216,417
2905,30.212058,-97.709253,417
2906,30.212438,-97.714752,1518
2907,30.215163,-97.698437,1335
2908,30.213843,-97.661824,376
2909,30.2136,-97.662104,376
2910,30.21491,-97.73356,1729
2911,30.212168,-97.717869,1518
2912,30.213182,-97.717795,1518
2913,30.212153,-97.70643,417
2914,30.213072,-97.70698,417
2915,30.215511,-97.698621,1335
2916,30.220985,-97.676929,15
2917,30.186796,-97.773082,96
2918,30.177514,-97.769536,96
2919,30.183475,-97.768677,96
2920,30.159699,-97.759613,1643
2921,30.158249,-97.745726,157
2922,30.184813,-97.756169,1037
2923,30.184613,-97.768251,96
2924,30.173972,-97.741951,828
2925,30.186753,-97.774095,96
2926,30.184933,-97.744809,828
2927,30.200126,-97.741997,1326
2928,30.179624,-97.74658,828
2929,30.172862,-97.751399,675
2930,30.196782,-97.743914,238
2931,30.201675,-97.751597,1566
2932,30.193563,-97.749468,1184
2933,30.193815,-97.744422,238
2934,30.186709,-97.751639,1184
2935,30.169612,-97.745832,675
2936,30.170586,-97.752905,675
2937,30.180834,-97.750023,828
2938,30.179624,-97.75661,1037
2939,30.180521,-97.76206,1037
2940,30.157315,-97.769031,1352
2941,30.165894,-97.769101,1232
2942,30.160402,-97.769391,658
2943,30.170108,-97.768355,1232
2944,30.197649,-97.776586,391
2945,30.188966,-97.767462,1480
2946,30.187447,-97.76254,1037
2947,30.192625,-97.768854,1480
2948,30.198488,-97.764091,1558
2949,30.190751,-97.771316,1480
2950,30.198881,-97.764733,1558
2951,30.197713,-97.762753,1558
2952,30.192532,-97.769871,1480
2953,30.200095,-97.763796,1558
2954,30.200477,-97.762512,1558
2955,30.195427,-97.764599,623
2956,30.203414,-97.759112,1558
2957,30.192255,-97.768212,1480
2958,30.193442,-97.75189,1184
2959,30.194952,-97.757931,623
2960,30.200557,-97.753974,1566
2961,30.182765,-97.760827,1037
2962,30.181699,-97.764201,1037
2963,30.187735,-97.773447,96
2964,30.18712,-97.771021,96
2965,30.186796,-97.772118,96
2966,30.185189,-97.772304,96
2967,30.190404,-97.77062,1480
2968,30.191645,-97.774397,1480
2969,30.18971,-97.769175,1480
2970,30.191283,-97.767944,1480
2971,30.193356,-97.766271,623
2972,30.192585,-97.76472,623
2973,30.201081,-97.769338,391
2974,30.203904,-97.765663,1558
2975,30.193329,-97.754146,1184
2976,30.191947,-97.748455,1184
2977,30.186275,-97.758745,1037
2978,30.205669,-97.758283,17
2979,30.204917,-97.756918,17
2980,30.202489,-97.758898,1558
2981,30.210792,-97.75301,684
2982,30.203236,-97.753715,1566
2983,30.165435,-97.74138,1082
2984,30.162431,-97.735733,1082
2985,30.159963,-97.736012,1082
2986,30.162941,-97.725755,429
2987,30.166247,-97.736779,1082
2988,30.168772,-97.738198,1082
2989,30.194831,-97.737524,1326
2990,30.198516,-97.73521,1326
2991,30.183938,-97.744425,828
2992,30.193114,-97.738624,238
2993,30.189512,-97.740932,238
2994,30.187287,-97.74233,238
2995,30.188594,-97.745234,238
2996,30.184367,-97.744456,828
2997,30.190794,-97.744502,238
2998,30.201952,-97.742026,1326
2999,30.246417,-97.768935,898
3000,30.244162,-97.764886,69
3001,30.215595,-97.749437,684
3002,30.216208,-97.743861,1641
3003,30.222241,-97.748085,1641
3004,30.226878,-97.745301,605
3005,30.223675,-97.748112,1641
3006,30.222218,-97.746211,1641
3007,30.244504,-97.757351,1046
3008,30.246369,-97.756137,1046
3009,30.229559,-97.744644,605
3010,30.236584,-97.74855,385
3011,30.233874,-97.741993,942
3012,30.245581,-97.753343,1046
3013,30.244013,-97.75133,385
3014,30.244906,-97.750998,385
3015,30.234455,-97.741698,942
3016,30.244336,-97.757454,1046
3017,30.243417,-97.763581,69
3018,30.252084,-97.748325,875
3019,30.256886,-97.746562,1676
3020,30.25834,-97.748045,1676
3021,30.258882,-97.745798,1676
3022,30.260412,-97.745264,1676
3023,30.268103,-97.747413,223
3024,30.267783,-97.746287,1431
3025,30.275468,-97.747072,671
3026,30.275151,-97.745968,671
3027,30.219391,-97.747937,1641
3028,30.220853,-97.747121,1641
3029,30.227688,-97.745702,605
3030,30.226161,-97.744819,605
3031,30.221709,-97.747469,1641
3032,30.238012,-97.745263,385
3033,30.239417,-97.747327,385
3034,30.244258,-97.745091,385
3035,30.245881,-97.750651,875
3036,30.242209,-97.736312,75
3037,30.246302,-97.735297,1285
3038,30.244603,-97.730201,997
3039,30.247625,-97.733949,1285
3040,30.241989,-97.739073,1285
3041,30.243388,-97.736482,1285
3042,30.245383,-97.735998,1285
3043,30.249646,-97.735046,1285
3044,30.243739,-97.734619,1285
3045,30.244364,-97.733628,1285
3046,30.26374,-97.746417,223
3047,30.264089,-97.747649,223
3048,30.265967,-97.746952,223
3049,30.269688,-97.745592,1431
3050,30.270073,-97.746957,1431
3051,30.271522,-97.744895,1431
3052,30.272419,-97.748213,988
3053,30.26867,-97.745963,1431
3054,30.269643,-97.749236,988
3055,30.247997,-97.749857,875
3056,30.244676,-97.741499,1285
3057,30.231102,-97.750867,1464
3058,30.24814,-97.761886,69
3059,30.243776,-97.764056,69
3060,30.214749,-97.750702,684
3061,30.215717,-97.746356,1641
3062,30.216605,-97.746448,1641
3063,30.215896,-97.750057,684
3064,30.215955,-97.738253,1729
3065,30.215163,-97.749692,684
3066,30.21567,-97.738473,1729
3067,30.226916,-97.769235,1225
3068,30.229124,-97.767801,1225
3069,30.222301,-97.763968,248
3070,30.219675,-97.758024,1351
3071,30.224811,-97.766818,248
3072,30.226014,-97.762072,248
3073,30.229425,-97.759921,1464
3074,30.228159,-97.772839,1225
3075,30.231228,-97.763595,924
3076,30.237344,-97.762197,924
3077,30.215975,-97.767869,1268
3078,30.223341,-97.763346,248
3079,30.220488,-97.758067,1351
3080,30.217623,-97.754222,684
3081,30.224466,-97.765626,248
3082,30.227055,-97.761335,248
3083,30.227403,-97.755667,1464
3084,30.236474,-97.762743,924
3085,30.232191,-97.76542,924
3086,30.241908,-97.759332,1046
3087,30.226803,-97.754404,1464
3088,30.220734,-97.761195,248
3089,30.227326,-97.773819,1225
3090,30.220474,-97.772887,1268
3091,30.227575,-97.77301,1225
3092,30.226355,-97.769166,1225
3093,30.227121,-97.771768,1225
3094,30.226116,-97.769714,1225
3095,30.225108,-97.768011,1225
3096,30.225608,-97.767387,1225
3097,30.223715,-97.76601,248
3098,30.224153,-97.76475,248
3099,30.225515,-97.766549,248
3100,30.226387,-97.76808,1225
3101,30.230372,-97.76703,1225
3102,30.216303,-97.753438,684
3103,30.216093,-97.752553,684
3104,30.217618,-97.75082,684
3105,30.222102,-97.749075,1641
3106,30.218656,-97.751083,1641
3107,30.217349,-97.749986,1641
3108,30.216268,-97.753942,684
3109,30.218203,-97.75433,684
3110,30.215828,-97.752679,684
3111,30.215324,-97.750381,684
3112,30.217507,-97.748987,1641
3113,30.215515,-97.752872,684
3114,30.216563,-97.752281,684
3115,30.234048,-97.757043,1464
3116,30.23655,-97.749671,385
3117,30.238542,-97.753282,385
3118,30.24062,-97.756728,1046
3119,30.235642,-97.755709,1464
3120,30.239617,-97.747665,385
3121,30.239536,-97.752609,385
3122,30.241627,-97.752119,385
3123,30.264656,-97.764502,636
3124,30.255943,-97.761283,1356
3125,30.261799,-97.761214,636
3126,30.271128,-97.763498,1311
3127,30.266302,-97.755922,988
3128,30.272814,-97.761144,1311
3129,30.248643,-97.76842,898
3130,30.251061,-97.764882,69
3131,30.262459,-97.752404,223
3132,30.260728,-97.748355,1676
3133,30.260731,-97.758134,1356
3134,30.264263,-97.756722,1356
3135,30.259477,-97.748904,1676
3136,30.27479,-97.7625,1311
3137,30.2594,-97.753305,1356
3138,30.248227,-97.769715,898
3139,30.252865,-97.767484,898
3140,30.255461,-97.771131,898
3141,30.251596,-97.773734,898
3142,30.272246,-97.772982,1451
3143,30.269114,-97.775092,952
3144,30.274527,-97.771376,1451
3145,30.272073,-97.772771,1451
3146,30.268661,-97.776954,952
3147,30.266998,-97.770573,636
3148,30.275147,-97.768986,165
3149,30.274037,-97.766178,165
3150,30.275657,-97.76766,165
3151,30.276461,-97.767721,165
3152,30.27369,-97.765701,165
3153,30.275266,-97.771121,1451
3154,30.247433,-97.759366,1046
3155,30.254656,-97.751991,875
3156,30.258218,-97.749749,1676
3157,30.267988,-97.755246,988
3158,30.270135,-97.75433,988
3159,30.272527,-97.760478,1311
3160,30.273364,-97.752701,988
3161,30.26532,-97.751945,223
3162,30.269553,-97.752925,988
3163,30.269,-97.750614,988
3164,30.26872,-97.749576,988
3165,30.271281,-97.753752,988
3166,30.265618,-97.748341,223
3167,30.264429,-97.748791,223
3168,30.267428,-97.748816,223
3169,30.267777,-97.749757,223
3170,30.275697,-97.747864,671
3171,30.273271,-97.747888,671
3172,30.269871,-97.749152,988
3173,30.270614,-97.748878,988
3174,30.228297,-97.742712,605
3175,30.230359,-97.741504,605
3176,30.232103,-97.7367,942
3177,30.215239,-97.734904,1729
3178,30.230568,-97.7327,503
3179,30.231548,-97.742566,605
3180,30.231308,-97.741794,942
3181,30.231527,-97.735892,942
3182,30.222423,-97.734428,1729
3183,30.229603,-97.730613,503
3184,30.227057,-97.727271,503
3185,30.237979,-97.732728,75
3186,30.233703,-97.722868,595
3187,30.242973,-97.729018,997
3188,30.239866,-97.731566,75
3189,30.225227,-97.723983,1112
3190,30.232282,-97.720065,595
3191,30.235904,-97.728267,997
3192,30.237491,-97.730967,75
3193,30.241534,-97.727952,997
3194,30.237507,-97.725383,997
3195,30.230786,-97.733625,503
3196,30.22426,-97.741515,605
3197,30.215068,-97.729893,159
3198,30.215543,-97.733633,1729
3199,30.214656,-97.734,1729
3200,30.214118,-97.730187,159
3201,30.215227,-97.733413,1729
3202,30.219415,-97.743776,1641
3203,30.215486,-97.739626,1729
3204,30.214796,-97.735151,1729
3205,30.21579,-97.735121,1729
3206,30.216303,-97.739133,1729
3207,30.216699,-97.743772,1641
3208,30.215777,-97.74392,1641
3209,30.2263,-97.743882,605
3210,30.215704,-97.734644,1729
3211,30.234424,-97.740886,942
3212,30.237959,-97.738734,942
3213,30.233297,-97.739706,942
3214,30.232527,-97.737741,942
3215,30.237483,-97.739947,942
3216,30.235517,-97.741125,942
3217,30.23864,-97.737457,75
3218,30.234153,-97.740107,942
3219,30.237784,-97.737082,75
3220,30.234338,-97.73909,942
3221,30.241126,-97.737859,75
3222,30.237736,-97.744974,385
3223,30.231238,-97.743695,605
3224,30.23369,-97.741312,942
3225,30.243819,-97.742821,1285
3226,30.243436,-97.742037,1285
3227,30.239761,-97.735931,75
3228,30.224843,-97.723539,1112
3229,30.223308,-97.72218,1112
3230,30.219776,-97.720171,1112
3231,30.213466,-97.719567,1518
3232,30.214341,-97.724986,159
3233,30.213179,-97.724969,159
3234,30.238597,-97.725762,997
3235,30.244446,-97.72341,997
3236,30.23738,-97.716893,595
3237,30.24099,-97.726318,997
3238,30.240026,-97.726834,997
3239,30.244489,-97.72411,997
3240,30.262435,-97.74181,587
3241,30.259309,-97.736984,1155
3242,30.262292,-97.735939,1155
3243,30.261136,-97.737225,1155
3244,30.261503,-97.738556,1155
3245,30.263117,-97.744226,223
3246,30.261922,-97.73693,1155
3247,30.262686,-97.734949,1155
3248,30.258013,-97.736368,301
3249,30.261274,-97.734654,1155
3250,30.260557,-97.734895,1155
3251,30.266039,-97.73278,1613
3252,30.265185,-97.730157,1613
3253,30.254688,-97.730026,301
3254,30.255132,-97.731286,301
3255,30.260012,-97.730377,1155
3256,30.260602,-97.732048,1155
3257,30.259558,-97.723115,457
3258,30.264178,-97.733534,1155
3259,30.268289,-97.731956,98
3260,30.268219,-97.726867,1613
3261,30.269839,-97.73132,98
3262,30.272687,-97.730293,98
3263,30.271992,-97.73057,98
3264,30.272001,-97.731404,98
3265,30.273985,-97.729822,859
3266,30.274632,-97.732152,859
3267,30.272534,-97.725722,184
3268,30.271738,-97.730707,98
3269,30.262296,-97.721809,457
3270,30.260661,-97.722589,457
3271,30.263777,-97.725985,457
3272,30.259151,-97.727914,457
3273,30.259687,-97.732432,1155
3274,30.258439,-97.728899,457
3275,30.265715,-97.741958,1431
3276,30.263406,-97.730909,1613
3277,30.261483,-97.734547,1155
3278,30.253329,-97.743494,875
3279,30.257424,-97.738028,301
3280,30.24904,-97.737261,1285
3281,30.253677,-97.737412,301
3282,30.248151,-97.736441,1285
3283,30.255319,-97.736877,301
3284,30.253005,-97.73648,301
3285,30.253538,-97.735806,301
3286,30.252937,-97.734868,301
3287,30.256563,-97.735497,301
3288,30.254135,-97.744043,875
3289,30.250375,-97.734429,1285
3290,30.24774,-97.735529,1285
3291,30.254487,-97.737626,301
3292,30.257782,-97.737171,301
3293,30.258846,-97.735457,1155
3294,30.256081,-97.734078,301
3295,30.260211,-97.737573,1155
3296,30.254915,-97.734552,301
3297,30.269081,-97.74345,1431
3298,30.263283,-97.737973,587
3299,30.265681,-97.738673,587
3300,30.268686,-97.742113,1431
3301,30.270576,-97.741431,1696
3302,30.266163,-97.740418,587
3303,30.270825,-97.738686,1696
3304,30.268341,-97.740772,1431
3305,30.269922,-97.739018,1696
3306,30.268034,-97.739711,587
3307,30.272069,-97.739349,1696
3308,30.271784,-97.738346,1696
3309,30.275019,-97.73713,1696
3310,30.261952,-97.740066,587
3311,30.267027,-97.740092,587
3312,30.267616,-97.738174,587
3313,30.26906,-97.735775,98
3314,30.269638,-97.73793,1696
3315,30.269824,-97.735483,98
3316,30.270582,-97.733666,98
3317,30.269031,-97.734221,98
3318,30.272194,-97.732144,98
3319,30.269277,-97.733254,98
3320,30.269176,-97.732426,98
3321,30.270216,-97.740084,1696
3322,30.27095,-97.742775,1431
3323,30.266163,-97.736837,587
3324,30.265003,-97.743505,1431
3325,30.267205,-97.744177,1431
3326,30.266818,-97.742828,1431
3327,30.267767,-97.74247,1431
3328,30.26276,-97.742929,223
3329,30.26646,-97.74156,1431
3330,30.265988,-97.743145,1431
3331,30.264046,-97.741224,587
3332,30.268102,-97.743829,1431
3333,30.263496,-97.745553,223
3334,30.266364,-97.744489,1431
3335,30.267456,-97.745092,1431
3336,30.267373,-97.741155,1431
3337,30.272779,-97.742107,1696
3338,30.274555,-97.743757,671
3339,30.27337,-97.74421,671
3340,30.273096,-97.743234,671
3341,30.272475,-97.744542,671
3342,30.272424,-97.740737,1696
3343,30.271477,-97.741096,1696
3344,30.265257,-97.737169,587
3345,30.265964,-97.73691,587
3346,30.2632,-97.735644,1155
3347,30.263141,-97.734737,1155
3348,30.263787,-97.733695,1155
3349,30.264355,-97.736052,587
3350,30.264848,-97.735859,587
3351,30.266748,-97.73509,587
3352,30.268684,-97.734359,98
3353,30.267143,-97.736477,587
3354,30.272936,-97.73789,1696
3355,30.271024,-97.735044,98
3356,30.272046,-97.734673,98
3357,30.273141,-97.734578,98
3358,30.271702,-97.733194,98
3359,30.272827,-97.732781,98
3360,30.275323,-97.734383,859
3361,30.273521,-97.732531,98
