,lat,long,cluster
1,30.550045,-97.861763,645
2,30.595955,-97.873341,197
3,30.537706,-97.842574,90
4,30.531993,-97.967226,821
5,30.49655,-97.901257,1249
6,30.460701,-97.882086,906
7,30.498174,-97.827879,564
8,30.434403,-98.083907,576
9,30.488843,-98.053644,174
10,30.405429,-97.968645,2017
11,30.367501,-98.056627,790
12,30.421566,-97.941993,522
13,30.416288,-97.888347,1193
14,30.449261,-97.839977,1930
15,30.398674,-97.83899,161
16,30.33372,-98.076591,675
17,30.320471,-97.972406,472
18,30.349621,-98.009337,1376
19,30.367501,-97.984566,1588
20,30.382464,-97.926677,1543
21,30.351176,-97.937276,1210
22,30.373525,-97.86814,689
23,30.374974,-97.834683,1076
24,30.351794,-97.845706,1610
25,30.221922,-97.974997,1896
26,30.292875,-97.964299,957
27,30.32358,-97.939978,1624
28,30.343668,-97.905759,1504
29,30.321831,-97.89921,265
30,30.653697,-97.705243,1462
31,30.344763,-97.869942,1584
32,30.332143,-97.858595,136
33,30.318718,-97.841425,1437
34,30.30131,-97.832125,1686
35,30.304379,-97.919182,672
36,30.298805,-97.888816,2113
37,30.352597,-97.921387,1604
38,30.308173,-97.871556,746
39,30.351189,-97.779089,858
40,30.384802,-97.744053,1740
41,30.288711,-97.833651,166
42,30.286234,-97.902792,1480
43,30.272366,-98.013199,822
44,30.286428,-97.879621,1357
45,30.267169,-97.899068,1007
46,30.287223,-97.86426,868
47,30.513457,-97.665825,1654
48,30.308846,-97.703502,2091
49,30.286457,-97.843688,1118
50,30.279555,-97.836009,1118
51,30.205053,-97.932402,1351
52,30.273341,-97.873192,647
53,30.196482,-97.909655,773
54,30.172804,-97.901713,757
55,30.260857,-97.851746,1830
56,30.259205,-97.829376,2000
57,30.247459,-97.825581,1553
58,30.235346,-97.819398,42
59,30.25396,-97.895281,1752
60,30.24144,-97.879541,1182
61,30.246756,-97.872037,1675
62,30.245081,-97.858211,533
63,30.240247,-97.852166,1109
64,30.267416,-97.928478,1226
65,30.237106,-97.93101,364
66,30.244016,-97.915824,1196
67,30.249879,-97.909155,129
68,30.238308,-97.892018,1347
69,30.244942,-97.985156,1070
70,30.250014,-97.943499,816
71,30.209143,-97.954558,1339
72,30.21593,-97.947086,1339
73,30.221875,-97.905353,2072
74,30.210384,-97.884729,1548
75,30.222138,-97.883969,246
76,30.22221,-97.928999,364
77,30.230631,-97.858915,81
78,30.229226,-97.850001,2115
79,30.232836,-97.839501,325
80,30.224841,-97.835974,503
81,30.225853,-97.862221,81
82,30.217987,-97.865677,1521
83,30.220626,-97.849136,528
84,30.214768,-97.858294,1521
85,30.214574,-97.836175,1308
86,30.206238,-97.845563,1934
87,30.39592,-97.773059,1670
88,30.20472,-97.872225,1760
89,30.188692,-97.858353,1813
90,30.194893,-97.937337,2225
91,30.209985,-97.920445,1351
92,30.191616,-97.895714,1207
93,30.179056,-97.914187,1013
94,30.183883,-97.890011,1207
95,30.342242,-97.809077,1020
96,30.166515,-97.868659,1893
97,30.152804,-97.866404,2026
98,30.204417,-97.829257,209
99,30.188004,-97.841393,496
100,30.17107,-97.842194,2167
101,30.164297,-97.854535,33
102,30.133666,-97.842915,879
103,30.599148,-97.832171,1242
104,30.579994,-97.799189,1084
105,30.589421,-97.756155,298
106,30.614041,-97.692748,1534
107,30.627603,-97.663039,264
108,30.575265,-97.671384,1072
109,30.569989,-97.644672,980
110,30.522036,-97.803089,1598
111,30.518674,-97.768768,1991
112,30.527329,-97.737027,1898
113,30.542739,-97.739952,257
114,30.540723,-97.693987,1503
115,30.544608,-97.683218,2050
116,30.550837,-97.664092,1641
117,30.480535,-97.811989,2169
118,30.471692,-97.806242,2169
119,30.500992,-97.793977,1894
120,30.483751,-97.758083,2248
121,30.506262,-97.733466,164
122,30.516396,-97.710151,433
123,30.526432,-97.699474,2109
124,30.529538,-97.693185,2109
125,30.530948,-97.677935,2214
126,30.537547,-97.657977,2190
127,30.537873,-97.628339,1951
128,30.525447,-97.687699,56
129,30.522907,-97.674702,194
130,30.527937,-97.660354,1890
131,30.514658,-97.684306,1879
132,30.517125,-97.675414,194
133,30.468471,-97.609093,2209
134,30.51606,-97.649805,1221
135,30.520364,-97.690696,967
136,30.510451,-97.681971,1844
137,30.512392,-97.675429,1844
138,30.516269,-97.659832,601
139,30.477235,-97.748408,208
140,30.499365,-97.699917,2076
141,30.506831,-97.681264,1844
142,30.489825,-97.687935,1039
143,30.500887,-97.678514,466
144,30.503811,-97.668835,903
145,30.505463,-97.648706,22
146,30.512273,-97.621085,1069
147,30.481309,-97.698393,1853
148,30.482178,-97.683939,1174
149,30.488674,-97.669035,1421
150,30.492029,-97.631009,1391
151,30.454371,-97.816014,484
152,30.460688,-97.804425,482
153,30.463568,-97.786828,141
154,30.469152,-97.769391,66
155,30.465101,-97.734708,730
156,30.473658,-97.703262,110
157,30.460659,-97.68639,1514
158,30.453786,-97.671883,2051
159,30.467254,-97.654187,723
160,30.460126,-97.635163,1589
161,30.452107,-97.799555,1792
162,30.443651,-97.78093,2085
163,30.45527,-97.785175,475
164,30.458188,-97.771871,1009
165,30.449527,-97.776564,29
166,30.452449,-97.763846,445
167,30.453141,-97.704426,1
168,30.446519,-97.76236,445
169,30.442063,-97.755978,445
170,30.442247,-97.731102,1276
171,30.43446,-97.712671,2120
172,30.444289,-97.681327,1099
173,30.431584,-97.679807,1708
174,30.43806,-97.654831,1948
175,30.429712,-97.632319,499
176,30.446884,-97.613692,1077
177,30.412276,-97.756928,387
178,30.440343,-97.825646,1680
179,30.433092,-97.812579,1253
180,30.426198,-97.80419,424
181,30.440545,-97.792283,1054
182,30.430965,-97.790268,1824
183,30.432578,-97.745077,2145
184,30.419188,-97.836201,451
185,30.409079,-97.806945,782
186,30.418049,-97.785683,690
187,30.44012,-97.782925,2085
188,30.427536,-97.772391,262
189,30.416096,-97.776502,1940
190,30.421041,-97.757609,578
191,30.422727,-97.734935,2170
192,30.421209,-97.724833,734
193,30.419626,-97.687169,463
194,30.474927,-97.628126,1735
195,30.402543,-97.774264,1670
196,30.393165,-97.763188,328
197,30.405087,-97.764003,387
198,30.40121,-97.75365,1475
199,30.407812,-97.737938,1636
200,30.416374,-97.713136,1672
201,30.401368,-97.723123,206
202,30.400383,-97.71107,1136
203,30.412333,-97.7016,1496
204,30.406628,-97.684758,1596
205,30.396503,-97.676128,354
206,30.402956,-97.652095,1304
207,30.385822,-97.629909,575
208,30.398609,-97.616178,1663
209,30.420193,-97.603293,2058
210,30.396551,-97.82942,1956
211,30.271191,-97.642884,333
212,30.395144,-97.78675,115
213,30.393237,-97.800872,815
214,30.391578,-97.752089,1057
215,30.394219,-97.74096,2193
216,30.38687,-97.738158,440
217,30.384116,-97.728635,2005
218,30.379353,-97.722328,1212
219,30.380339,-97.706944,984
220,30.395126,-97.69242,1223
221,30.384254,-97.678624,1075
222,30.380068,-97.668098,211
223,30.383394,-97.660601,1033
224,30.373993,-97.650303,1984
225,30.371901,-97.636824,1546
226,30.357638,-97.621547,910
227,30.347504,-97.604697,1405
228,30.360871,-97.581717,2106
229,30.369183,-97.77245,2242
230,30.383082,-97.754946,328
231,30.370937,-97.748874,669
232,30.372799,-97.738426,817
233,30.368742,-97.732737,711
234,30.365825,-97.723827,1785
235,30.367008,-97.712527,583
236,30.374445,-97.714456,630
237,30.362717,-97.703016,1184
238,30.365978,-97.701017,1184
239,30.374479,-97.696226,15
240,30.368666,-97.687912,809
241,30.362402,-97.676517,1042
242,30.35801,-97.662114,1042
243,30.340503,-97.634953,2019
244,30.335824,-97.616902,1315
245,30.3645,-97.740699,1644
246,30.361619,-97.735446,1887
247,30.357612,-97.724918,1348
248,30.355442,-97.7182,703
249,30.356542,-97.710188,1409
250,30.354451,-97.69626,712
251,30.348438,-97.685483,183
252,30.338319,-97.690935,1232
253,30.337807,-97.664499,684
254,30.333871,-97.675748,1061
255,30.333513,-97.647877,435
256,30.361286,-97.757804,1125
257,30.35516,-97.743801,428
258,30.350866,-97.738792,1943
259,30.355362,-97.734401,233
260,30.351559,-97.727219,1634
261,30.346115,-97.729428,909
262,30.348204,-97.718429,1886
263,30.342425,-97.721317,909
264,30.340669,-97.709102,1600
265,30.33247,-97.696583,2238
266,30.32667,-97.685099,1277
267,30.324017,-97.664095,131
268,30.32257,-97.651571,1189
269,30.3202,-97.639453,214
270,30.325044,-97.617448,293
271,30.327527,-97.57601,1568
272,30.34417,-97.558384,369
273,30.347874,-97.76121,1768
274,30.341089,-97.750211,350
275,30.34102,-97.742547,900
276,30.337612,-97.733307,1582
277,30.334246,-97.725896,1582
278,30.328946,-97.720367,557
279,30.329197,-97.711138,1519
280,30.324755,-97.698623,41
281,30.308832,-97.854872,516
282,30.353876,-97.789916,144
283,30.338864,-97.78138,731
284,30.333799,-97.76676,2088
285,30.331953,-97.759891,2096
286,30.332227,-97.751829,1089
287,30.330139,-97.742742,1238
288,30.330061,-97.735351,281
289,30.325264,-97.730682,1472
290,30.320679,-97.720953,1342
291,30.316483,-97.711051,1005
292,30.318649,-97.702866,1178
293,30.316705,-97.693892,1601
294,30.316931,-97.684863,342
295,30.307248,-97.690083,678
296,30.316758,-97.672491,1297
297,30.310034,-97.680821,342
298,30.300761,-97.67833,543
299,30.303255,-97.666683,212
300,30.311495,-97.65656,1344
301,30.295066,-97.655743,927
302,30.305169,-97.6301,2071
303,30.28759,-97.640662,2194
304,30.296238,-97.606829,442
305,30.35485,-97.821754,398
306,30.339491,-97.799011,1020
307,30.344399,-97.79414,932
308,30.334694,-97.786917,368
309,30.330049,-97.804386,225
310,30.32969,-97.794461,368
311,30.323452,-97.784862,1384
312,30.322771,-97.790383,709
313,30.309286,-97.779878,55
314,30.319513,-97.773295,1583
315,30.316399,-97.76201,1230
316,30.322827,-97.748686,108
317,30.318928,-97.741563,883
318,30.318134,-97.735161,883
319,30.312636,-97.726851,406
320,30.309394,-97.719694,1192
321,30.308606,-97.713911,159
322,30.291673,-97.694168,1590
323,30.289535,-97.685312,737
324,30.289232,-97.674631,1911
325,30.325211,-97.753043,1998
326,30.312346,-97.755063,2013
327,30.314377,-97.750453,2013
328,30.311422,-97.745119,2057
329,30.314075,-97.73437,1666
330,30.307788,-97.737685,1942
331,30.304357,-97.731148,1891
332,30.299796,-97.723839,1336
333,30.29537,-97.712677,1569
334,30.320631,-97.809788,960
335,30.312617,-97.819504,69
336,30.309044,-97.806541,1484
337,30.321536,-97.80207,709
338,30.316334,-97.798815,2053
339,30.30976,-97.788871,55
340,30.306907,-97.770739,1869
341,30.306124,-97.760175,318
342,30.304992,-97.756618,318
343,30.303114,-97.751664,1506
344,30.302486,-97.747239,561
345,30.299443,-97.742797,1278
346,30.29791,-97.735674,2243
347,30.293084,-97.731181,2
348,30.292608,-97.727363,2
349,30.289092,-97.719395,301
350,30.287942,-97.71165,1041
351,30.285307,-97.701787,156
352,30.297498,-97.777043,1595
353,30.291148,-97.765987,204
354,30.296874,-97.762541,204
355,30.294723,-97.754442,1191
356,30.291274,-97.745937,1278
357,30.285813,-97.759194,1873
358,30.285682,-97.747977,1567
359,30.284903,-97.743151,165
360,30.290562,-97.742966,165
361,30.291737,-97.738284,2111
362,30.285008,-97.735154,1661
363,30.286926,-97.730248,2102
364,30.302516,-97.818543,1097
365,30.290736,-97.81223,1044
366,30.300199,-97.799899,584
367,30.282386,-97.785116,1100
368,30.283673,-97.780701,1100
369,30.291216,-97.778414,422
370,30.283819,-97.77024,796
371,30.276309,-97.760494,221
372,30.271814,-97.752313,467
373,30.27412,-97.749925,467
374,30.276649,-97.744971,1721
375,30.279904,-97.743468,705
376,30.27864,-97.738873,694
377,30.274993,-97.740269,414
378,30.271875,-97.743373,1721
379,30.270625,-97.740184,73
380,30.268129,-97.744601,1113
381,30.267364,-97.741182,73
382,30.266557,-97.738381,73
383,30.270537,-97.736137,1987
384,30.27371,-97.733763,1987
385,30.277326,-97.734167,2081
386,30.282229,-97.731517,2102
387,30.280795,-97.726061,1842
388,30.281401,-97.723909,1842
389,30.281893,-97.719348,1788
390,30.283713,-97.710834,1041
391,30.275893,-97.725163,1669
392,30.277056,-97.718792,801
393,30.277541,-97.713445,801
394,30.278174,-97.705986,1554
395,30.280929,-97.693411,2063
396,30.283335,-97.680221,1015
397,30.273431,-97.678189,446
398,30.271453,-97.658848,806
399,30.258811,-97.625628,1738
400,30.275689,-97.620276,1310
401,30.261466,-97.586183,82
402,30.271327,-97.762089,221
403,30.267524,-97.752761,1867
404,30.266418,-97.749402,1113
405,30.265461,-97.74621,1113
406,30.264483,-97.742416,1839
407,30.26393,-97.739258,1839
408,30.259453,-97.741275,1839
409,30.256691,-97.729877,1976
410,30.261901,-97.728685,1505
411,30.26616,-97.727423,1505
412,30.267962,-97.722003,976
413,30.271109,-97.724436,1669
414,30.272163,-97.71745,1669
415,30.274171,-97.70587,1554
416,30.26789,-97.709691,399
417,30.267381,-97.717513,976
418,30.264093,-97.717284,1355
419,30.258199,-97.7169,1807
420,30.25203,-97.722292,1807
421,30.255176,-97.707214,1098
422,30.261117,-97.705899,2010
423,30.267416,-97.701265,663
424,30.275623,-97.694831,2063
425,30.269491,-97.693985,2229
426,30.257898,-97.696217,1269
427,30.250378,-97.698255,820
428,30.258971,-97.683975,157
429,30.252393,-97.675294,1950
430,30.292047,-97.826542,568
431,30.28751,-97.822447,1387
432,30.279794,-97.813683,1044
433,30.273914,-97.80577,1990
434,30.281114,-97.79798,249
435,30.274313,-97.785524,2084
436,30.269571,-97.770276,1577
437,30.26379,-97.760172,838
438,30.260843,-97.753126,1246
439,30.260153,-97.747288,676
440,30.256479,-97.743315,676
441,30.242798,-97.723846,696
442,30.236178,-97.713168,313
443,30.237023,-97.699893,897
444,30.231273,-97.690977,2002
445,30.247651,-97.650627,659
446,30.583031,-97.893907,1535
447,30.223538,-97.612743,219
448,30.267841,-97.795414,2084
449,30.263639,-97.781663,486
450,30.254015,-97.779408,1967
451,30.258468,-97.76513,838
452,30.254583,-97.756802,2004
453,30.251548,-97.750714,1229
454,30.249125,-97.74487,1229
455,30.245798,-97.737968,1222
456,30.241422,-97.733277,1222
457,30.235658,-97.72957,2181
458,30.228055,-97.720917,1688
459,30.218025,-97.701277,92
460,30.268739,-97.812312,744
461,30.262467,-97.80009,1354
462,30.257482,-97.807261,1730
463,30.247294,-97.799248,493
464,30.258186,-97.789672,379
465,30.250663,-97.791535,379
466,30.240428,-97.794477,2094
467,30.236384,-97.787768,551
468,30.23376,-97.779795,551
469,30.243976,-97.774117,1185
470,30.251311,-97.772077,24
471,30.246241,-97.762422,384
472,30.240171,-97.766963,1695
473,30.23169,-97.771333,840
474,30.227782,-97.764302,1836
475,30.235703,-97.759859,2008
476,30.243373,-97.754573,1372
477,30.241194,-97.744361,1825
478,30.238356,-97.748602,885
479,30.231751,-97.751904,1307
480,30.223802,-97.757112,1307
481,30.218675,-97.746881,284
482,30.22543,-97.739635,1112
483,30.226569,-97.732462,1398
484,30.219904,-97.725743,1037
485,30.274722,-97.824877,420
486,30.255952,-97.814911,1626
487,30.235591,-97.807971,494
488,30.227237,-97.795844,2016
489,30.222209,-97.784683,1422
490,30.219404,-97.77595,441
491,30.219174,-97.770121,2216
492,30.213479,-97.762511,102
493,30.203546,-97.749497,1681
494,30.211973,-97.741725,2075
495,30.199342,-97.739267,1104
496,30.199427,-97.727805,2029
497,30.185219,-97.702259,948
498,30.207604,-97.705674,443
499,30.200401,-97.668694,2178
500,30.224758,-97.664314,1798
501,30.207631,-97.603752,848
502,30.229851,-97.806673,494
503,30.223724,-97.812739,2062
504,30.213238,-97.819622,749
505,30.211461,-97.808543,813
506,30.219912,-97.800719,1311
507,30.21642,-97.7932,135
508,30.207136,-97.801517,813
509,30.205816,-97.794697,357
510,30.214075,-97.788886,135
511,30.211162,-97.783613,1254
512,30.204494,-97.787716,357
513,30.201568,-97.781077,2132
514,30.209973,-97.775986,841
515,30.198303,-97.771828,1737
516,30.192167,-97.76229,1561
517,30.19005,-97.752272,11
518,30.191559,-97.741838,547
519,30.183884,-97.735419,547
520,30.179088,-97.714023,2077
521,30.168372,-97.676869,380
522,30.128184,-97.613068,2211
523,30.166566,-97.569847,1491
524,30.204201,-97.575259,1283
525,30.195468,-97.820597,1164
526,30.192671,-97.79731,1383
527,30.190192,-97.786001,1383
528,30.188088,-97.777584,192
529,30.182413,-97.772149,1900
530,30.179217,-97.759163,1906
531,30.170457,-97.748821,819
532,30.16781,-97.730989,1774
533,30.160499,-97.709547,1211
534,30.143493,-97.687533,687
535,30.182246,-97.830203,179
536,30.180777,-97.806741,1667
537,30.178806,-97.78988,947
538,30.174277,-97.783503,824
539,30.170566,-97.77519,370
540,30.171015,-97.763446,1592
541,30.164418,-97.745521,2074
542,30.160598,-97.815586,1919
543,30.161894,-97.781648,2174
544,30.134292,-97.724486,658
545,30.123992,-97.702255,2042
546,30.118841,-97.815712,1994
547,30.138629,-97.789007,224
548,30.1398,-97.779669,894
549,30.122344,-97.793243,2213
550,30.11474,-97.761745,1954
551,30.10091,-97.742406,271
552,30.10704,-97.711796,2207
553,30.099935,-97.644403,176
554,30.099777,-97.794275,1170
555,30.079091,-97.708895,2201
556,30.061879,-97.67384,1291
557,30.45357,-97.57921,756
558,30.44074,-97.596368,1832
559,30.384952,-97.572308,1435
560,30.371482,-97.546382,1011
561,30.316307,-97.498617,1635
562,30.30919,-97.550996,1367
563,30.277114,-97.57567,1467
564,30.264,-97.537069,1441
565,30.239086,-97.53474,743
566,30.149404,-97.877778,1095
567,30.562892,-97.81444,1734
568,30.556527,-97.784048,1515
569,30.560541,-97.747161,1710
570,30.565681,-97.707149,1449
571,30.543998,-97.702414,1003
572,30.426107,-97.404165,1027
573,30.494096,-97.797771,1777
574,30.479701,-97.776675,1939
575,30.474974,-97.690281,651
576,30.42248,-97.862996,700
577,30.130563,-97.947983,203
578,30.113558,-97.857472,1691
579,30.095669,-97.82522,240
580,30.079619,-97.796332,1364
581,30.054632,-97.768528,1619
582,30.03508,-97.739866,1313
583,30.044241,-97.823901,1955
584,30.064542,-97.813059,913
585,30.067321,-97.837672,1227
586,30.081642,-97.956989,753
587,29.886396,-97.922651,1850
588,30.028229,-97.982658,454
589,30.002999,-97.878479,65
590,30.001839,-97.785715,931
591,29.979146,-97.846817,1022
592,30.34613,-97.703574,1030
593,30.488497,-97.600807,1630
594,30.48319,-97.56746,922
595,30.463281,-97.525215,1607
596,30.087585,-97.751571,1937
597,30.058818,-97.723985,1870
598,30.438973,-97.543138,1427
599,30.428163,-97.513846,1776
600,30.144669,-97.747936,383
601,30.132946,-97.82476,2160
602,30.145593,-97.817215,444
603,30.199903,-97.523203,91
604,30.114833,-97.680519,1639
605,30.131976,-97.668147,96
606,30.145238,-97.583182,2129
607,30.467008,-97.489938,1502
608,30.152791,-97.651583,1206
609,30.165474,-97.640056,1206
610,30.237554,-97.674932,1766
611,30.183483,-97.637009,978
612,30.172582,-97.602786,1507
613,30.442805,-97.462556,985
614,30.230896,-97.570828,429
615,30.254773,-97.510731,220
616,30.274879,-97.472702,1294
617,30.297379,-97.511156,1215
618,30.327288,-97.527973,571
619,30.311798,-97.470836,1974
620,30.345114,-97.524893,1876
621,30.332948,-97.468369,1138
622,30.35486,-97.554176,2043
623,30.400775,-97.566228,2156
624,30.39936,-97.440864,1159
625,30.367707,-97.520502,487
626,30.362081,-97.455986,1712
627,30.389228,-97.501275,1899
628,30.408462,-97.527893,1622
629,30.419177,-97.556499,892
630,30.417448,-97.486022,1865
631,30.51116,-97.432012,857
632,30.758933,-97.61981,1529
633,30.787235,-97.461624,1218
634,30.762333,-97.570963,1474
635,30.714855,-97.635692,1881
636,30.721902,-97.655039,2241
637,30.721962,-97.43449,1056
638,30.7155,-97.453439,633
639,30.659308,-97.591075,1946
640,30.645536,-97.648227,1786
641,30.688991,-97.697896,1784
642,30.70538,-97.717715,1201
643,30.688418,-97.290934,1979
644,30.708185,-97.434506,1056
645,30.707375,-97.44851,2204
646,30.617408,-97.492335,101
647,30.63058,-97.608464,964
648,30.670268,-97.365601,562
649,30.614327,-97.438935,1586
650,30.556867,-97.534104,2171
651,30.549309,-97.552697,1608
652,30.585801,-97.403788,1412
653,30.593637,-97.422708,238
654,30.589385,-97.4345,973
655,30.417908,-97.324987,334
656,30.454708,-97.409402,1578
657,30.519091,-97.37656,1456
658,30.548378,-97.339944,352
659,30.543711,-97.426921,2018
660,30.564158,-97.412627,1643
661,30.544213,-97.502359,193
662,30.518844,-97.603226,2152
663,30.553467,-97.632417,735
664,30.37016,-97.793486,560
665,30.52616,-97.553431,2208
666,29.896453,-98.064179,987
667,29.955213,-98.126496,794
668,29.956289,-98.065857,990
669,29.950139,-98.009999,1539
670,29.868981,-97.990969,1123
671,29.857558,-98.012298,412
672,29.832913,-98.018237,1282
673,29.979552,-98.108467,2107
674,29.997999,-98.058955,1841
675,30.019846,-98.0279,508
676,29.967048,-97.95913,898
677,29.952026,-97.983606,321
678,29.979371,-98.082087,1043
679,30.030066,-98.080249,1243
680,29.918913,-97.948067,276
681,30.043596,-98.053382,1385
682,29.877956,-97.952311,732
683,29.87017,-97.962849,4
684,29.878492,-97.965586,1970
685,30.177624,-98.067552,1031
686,30.183656,-98.035565,1949
687,30.204068,-98.063961,1190
688,30.132727,-98.066773,986
689,30.142357,-98.017092,1831
690,30.123464,-98.013422,35
691,30.103535,-97.972025,708
692,30.156158,-97.922656,1157
693,30.083197,-98.064494,1199
694,30.046219,-97.956417,71
695,30.249732,-98.090132,725
696,30.221504,-98.001452,2140
697,30.232619,-98.041958,1129
698,30.256626,-98.041382,1764
699,30.188322,-97.952201,1566
700,29.890125,-97.944039,991
701,29.889557,-97.938971,991
702,29.887069,-97.939213,1141
703,29.887943,-97.936567,43
704,29.881756,-97.942358,260
705,29.88051,-97.945474,260
706,29.87795,-97.943205,2240
707,29.875888,-97.949028,732
708,29.882519,-97.927999,933
709,29.881815,-97.932862,2078
710,29.887993,-97.932527,43
711,29.886075,-97.93607,1141
712,29.893192,-97.93209,43
713,29.888441,-97.926399,933
714,29.893447,-97.938495,666
715,29.896727,-97.936225,1817
716,29.886506,-97.942882,991
717,29.887606,-97.948487,1997
718,29.884797,-97.945336,1997
719,29.884042,-97.942473,1819
720,29.881787,-97.947927,1997
721,29.884353,-97.901427,1292
722,29.873067,-97.90967,1389
723,29.883636,-97.91573,1326
724,29.892753,-97.908106,849
725,29.864351,-97.902071,1761
726,29.867046,-97.923945,2237
727,29.880741,-97.917204,1326
728,29.875409,-97.92325,385
729,30.207493,-98.032242,1995
730,29.889728,-97.918411,195
731,29.898736,-97.913953,1753
732,30.06917,-98.022446,1443
733,30.079967,-97.990787,263
734,30.055404,-97.91209,865
735,29.886781,-97.991968,755
736,29.908987,-97.972402,905
737,29.889408,-97.970463,2031
738,29.863587,-97.978738,1852
739,29.897388,-97.954655,205
740,29.85407,-97.978959,2141
741,29.842171,-97.996419,2230
742,30.139214,-98.214295,718
743,30.190007,-98.168253,483
744,30.174555,-98.153721,1770
745,30.1517,-98.154464,237
746,30.212417,-98.172451,62
747,30.22956,-98.135289,786
748,30.220277,-98.100548,1366
749,30.158316,-98.110565,44
750,30.0445,-98.141486,348
751,30.072636,-98.204517,438
752,30.115504,-98.192023,1341
753,30.019708,-98.232533,949
754,29.995598,-98.167437,928
755,30.1139,-98.246902,30
756,29.996347,-98.122024,1538
757,30.02551,-98.111827,1926
758,30.067054,-98.102025,107
759,30.10241,-98.14819,1493
760,30.133525,-98.106678,471
761,30.271372,-98.086092,1274
762,29.908768,-97.917075,1753
763,30.277913,-98.137608,665
764,30.3165,-98.139466,109
765,30.291503,-98.177276,256
766,30.24439,-98.18288,859
767,30.167197,-98.235175,1720
768,30.185976,-98.229548,128
769,30.191844,-98.103685,1794
770,30.184616,-98.091417,1563
771,29.876772,-97.898031,258
772,29.850646,-97.932248,1647
773,29.850705,-97.913015,1266
774,29.859432,-97.925423,1783
775,29.835223,-97.937747,1053
776,29.855514,-97.945814,1048
777,29.832686,-97.918297,98
778,29.826014,-97.932603,1053
779,29.807481,-97.955,870
780,29.773576,-97.997444,449
781,29.786936,-97.976479,1993
782,29.845097,-97.972475,243
783,29.855842,-97.963431,1160
784,29.836644,-97.955373,2168
785,29.837248,-97.982015,2217
786,29.825153,-97.995132,1203
787,29.859848,-97.970835,1160
788,29.814299,-98.008047,919
789,29.826534,-97.980837,323
790,29.813303,-97.980242,2179
791,29.805415,-98.002584,699
792,29.947011,-97.918627,177
793,29.928589,-97.917713,1727
794,30.501019,-97.716276,1231
795,29.89784,-97.928405,1209
796,29.837992,-97.945905,269
797,29.871145,-97.9443,153
798,29.868781,-97.942805,153
799,29.863849,-97.941585,1002
800,29.863564,-97.948336,1862
801,29.860725,-97.944829,1862
802,29.846717,-97.954871,455
803,30.012564,-97.752352,556
804,30.067731,-97.825872,924
805,30.01983,-97.868262,1703
806,30.038809,-97.873747,1433
807,30.067665,-97.849967,1227
808,30.08096,-97.83664,0
809,30.083844,-97.815399,1498
810,30.142626,-97.856741,1804
811,30.126275,-97.877768,2146
812,30.103692,-97.899298,577
813,30.090338,-97.88967,1225
814,29.959885,-97.801203,989
815,29.989355,-97.816935,317
816,29.953982,-97.862871,1388
817,29.993338,-97.863652,1883
818,30.005026,-97.844911,302
819,30.017435,-97.826144,1726
820,30.093477,-97.86188,1377
821,30.080607,-97.8601,391
822,30.070587,-97.864712,2189
823,29.953701,-97.889945,1117
824,29.973582,-97.882525,1980
825,29.983051,-97.900371,2219
826,29.985158,-97.879181,360
827,29.987072,-97.887542,1743
828,30.040951,-97.895792,1747
829,30.021565,-97.896007,227
830,29.994624,-97.874248,1220
831,29.991428,-97.879703,360
832,29.996685,-97.8902,1743
833,29.927373,-97.884313,235
834,29.898203,-97.896467,1744
835,29.900537,-97.901977,530
836,29.909386,-97.905904,1362
837,29.936266,-97.889216,235
838,29.900711,-97.942748,1616
839,29.904187,-97.949324,1616
840,29.894799,-97.945184,1616
841,29.932993,-97.839249,825
842,29.909249,-97.869469,312
843,29.893191,-97.890449,2068
844,29.9514,-97.81998,2162
845,30.012707,-97.90673,1638
846,30.276044,-97.858429,351
847,30.226363,-97.874022,1585
848,30.174384,-97.984925,1375
849,30.269483,-97.748407,1113
850,30.629693,-97.936611,1179
851,30.56515,-97.878483,2012
852,30.671293,-97.949297,785
853,30.639453,-97.894479,795
854,30.561981,-97.854201,1837
855,30.683345,-97.94289,1450
856,30.766585,-97.9192,1525
857,30.629598,-97.845097,123
858,30.639299,-97.6662,1513
859,30.642343,-97.674662,1513
860,30.668799,-97.659879,555
861,30.628872,-97.671426,2038
862,30.668363,-97.686088,875
863,30.880283,-97.824754,935
864,30.470096,-97.449694,688
865,30.74618,-97.845772,955
866,30.689129,-97.862864,1272
867,30.575118,-97.820445,1451
868,30.876242,-97.77401,993
869,30.840902,-97.747424,324
870,30.78796,-97.831057,554
871,30.685782,-97.776485,878
872,30.658614,-97.695213,875
873,30.637172,-97.681379,1633
874,30.629455,-97.700115,386
875,30.627732,-97.68395,1143
876,30.852528,-97.680214,724
877,30.831092,-97.612867,188
878,30.625071,-97.676133,2038
879,30.616469,-97.686217,28
880,30.623086,-97.697171,1534
881,30.834316,-97.589673,1346
882,30.656402,-97.262914,685
883,30.631001,-97.410462,2023
884,30.577103,-97.332716,752
885,30.577643,-97.392433,1702
886,30.539989,-97.216877,1236
887,30.549645,-97.386987,1411
888,30.567615,-97.398214,1762
889,30.572072,-97.41793,1280
890,30.460507,-97.1884,1147
891,30.54927,-97.453586,1723
892,29.861169,-97.937891,1002
893,29.864771,-97.935216,1912
894,29.867991,-97.937213,1912
895,29.870864,-97.934639,1338
896,29.864473,-97.916837,1389
897,29.862569,-97.930338,1783
898,29.857715,-97.936981,478
899,29.877395,-97.931265,1732
900,29.871417,-97.93772,1338
901,29.875356,-97.933272,615
902,29.870438,-97.94043,153
903,29.874089,-97.937071,1338
904,29.879425,-97.934873,615
905,29.873855,-97.941696,1338
906,29.882817,-97.936327,1141
907,29.888777,-97.953068,1128
908,29.881982,-97.94009,1819
909,29.884244,-97.940672,1819
910,29.875972,-97.939316,1338
911,29.880838,-97.938202,1819
912,29.88466,-97.938557,1141
913,29.88739,-97.941105,991
914,29.866701,-97.955129,2124
915,29.859982,-97.953523,1048
916,29.871867,-97.948372,153
917,29.87049,-97.955337,1080
918,29.892357,-97.94926,1128
919,29.877414,-97.937005,615
920,29.846154,-97.898921,1855
921,29.883181,-97.956601,1970
922,29.890512,-97.962115,846
923,30.581871,-97.431543,2009
924,30.570241,-97.845304,517
925,30.547881,-97.832053,1334
926,30.516189,-97.819854,1801
927,30.498781,-97.810987,1828
928,30.476706,-97.789975,2222
929,30.526117,-97.8279,1406
930,30.532518,-97.804664,763
931,30.537807,-97.790202,652
932,30.52354,-97.78296,553
933,30.65866,-97.776031,1045
934,30.658855,-97.849323,1208
935,30.678669,-97.678827,2166
936,30.69052,-97.662227,332
937,30.69345,-97.644873,1711
938,30.70634,-97.676452,2126
939,30.717388,-97.745749,1114
940,30.756782,-97.762274,5
941,30.84433,-97.792283,1081
942,30.83935,-97.791475,1081
943,30.84407,-97.797976,880
944,30.833925,-97.833141,788
945,30.820892,-97.877474,1173
946,30.809086,-97.788775,602
947,30.787546,-97.733844,1105
948,30.594021,-97.681147,2024
949,30.592574,-97.705395,1571
950,30.610956,-97.746309,979
951,30.624548,-97.751006,2226
952,30.603434,-97.659525,662
953,30.605496,-97.646404,1694
954,30.633028,-97.636136,95
955,30.623878,-97.634323,1432
956,30.6491,-97.637474,1088
957,30.675787,-97.63588,1444
958,30.67039,-97.646313,178
959,30.659924,-97.615333,1110
960,30.68416,-97.648796,1618
961,30.580698,-97.634348,488
962,30.688393,-97.56823,654
963,30.605618,-97.407175,1240
964,30.547251,-97.412218,447
965,30.572237,-97.424569,1280
966,30.650184,-97.46063,917
967,30.675472,-97.416823,911
968,30.749076,-97.498686,2090
969,30.728051,-97.451663,37
970,30.75436,-97.408646,748
971,30.570439,-97.411401,170
972,30.43632,-97.251463,374
973,30.472299,-97.262528,1874
974,30.48328,-97.224474,1151
975,30.445868,-97.232566,1268
976,30.479296,-97.306116,812
977,30.43847,-97.286145,1187
978,30.443943,-97.370321,1463
979,30.455046,-97.339311,1216
980,30.515092,-97.408642,236
981,30.488553,-97.410368,866
982,30.479036,-97.392374,1981
983,30.493829,-97.35547,1796
984,30.522277,-97.308176,1289
985,30.505589,-97.247565,252
986,30.504025,-97.182869,1754
987,30.565058,-97.259618,618
988,30.62155,-97.263684,619
989,30.631593,-97.319296,117
990,30.660884,-97.299336,1335
991,30.599844,-97.309353,1273
992,30.590803,-97.346743,2239
993,30.621102,-97.369973,856
994,30.65527,-97.346524,1233
995,30.584139,-97.4234,970
996,30.560575,-97.423818,692
997,30.555834,-97.41098,1006
998,30.581104,-97.381876,2218
999,30.511418,-97.468827,772
1000,30.526407,-97.530192,1882
1001,30.517308,-97.502997,1214
1002,30.509986,-97.55816,1963
1003,30.477489,-97.481873,31
1004,30.575191,-97.510374,1575
1005,30.578301,-97.465299,1508
1006,30.58379,-97.592003,143
1007,30.581783,-97.6213,945
1008,30.603935,-97.594838,1403
1009,30.593494,-97.559051,1895
1010,30.571888,-97.562385,2236
1011,30.550444,-97.586759,12
1012,30.544585,-97.60774,2064
1013,30.559709,-97.615336,1826
1014,30.612544,-97.569962,286
1015,30.603709,-97.521503,1101
1016,30.657724,-97.497322,247
1017,30.681438,-97.518758,591
1018,30.684143,-97.475931,994
1019,30.727033,-97.485999,1657
1020,30.741662,-97.534252,1574
1021,30.707529,-97.522309,207
1022,30.767866,-97.516497,1665
1023,30.804915,-97.569578,116
1024,30.750264,-97.681406,1270
1025,30.791238,-97.642916,1648
1026,30.69837,-97.627671,1195
1027,30.682848,-97.597727,2173
1028,30.715183,-97.599677,950
1029,30.726483,-97.560001,581
1030,30.652202,-97.567221,1673
1031,30.658509,-97.527026,1757
1032,30.744464,-97.349428,2056
1033,30.723527,-97.294568,1049
1034,30.718481,-97.340303,1060
1035,30.711832,-97.41274,1848
1036,30.699874,-97.356277,891
1037,30.721099,-97.804395,529
1038,30.713284,-97.917453,476
1039,30.707511,-97.937796,417
1040,30.505476,-97.850632,1516
1041,30.502098,-97.831932,1522
1042,30.511753,-97.834159,1522
1043,30.043099,-97.852821,1687
1044,30.521169,-97.847519,1717
1045,30.524123,-97.837526,563
1046,30.550258,-97.847503,90
1047,30.536438,-97.857691,1116
1048,30.465145,-97.829934,1386
1049,30.740886,-97.717294,410
1050,30.476281,-97.719732,388
1051,30.489708,-97.655412,882
1052,30.587174,-97.415829,1047
1053,30.405887,-98.02832,640
1054,30.49147,-97.824934,564
1055,30.47081,-97.820694,657
1056,30.530568,-97.821047,2249
1057,30.539373,-97.783615,49
1058,30.527955,-97.767089,791
1059,30.506117,-97.763655,1557
1060,30.491587,-97.764424,1905
1061,30.48459,-97.794481,2222
1062,30.498519,-97.782491,648
1063,30.488025,-97.78106,2202
1064,30.48333,-97.840841,800
1065,30.545795,-97.825633,1334
1066,30.546888,-97.806481,1698
1067,30.600584,-97.804895,356
1068,30.628699,-97.811,916
1069,30.508377,-97.815848,1258
1070,30.52396,-97.791741,1134
1071,30.507357,-97.806002,8
1072,30.511773,-97.789939,457
1073,30.486395,-97.805868,702
1074,30.492048,-97.5281,2137
1075,30.905132,-97.800454,268
1076,30.887022,-97.703803,1067
1077,30.857003,-97.589002,299
1078,30.837785,-97.539898,616
1079,30.670972,-97.244333,958
1080,30.794371,-97.425623,624
1081,30.826011,-97.51054,1652
1082,30.747149,-97.300292,373
1083,30.171221,-97.519633,1925
1084,30.136738,-97.560852,137
1085,30.217666,-97.479311,514
1086,30.32676,-97.419806,792
1087,30.359273,-97.397532,830
1088,30.351976,-97.39802,830
1089,30.397006,-97.36545,1438
1090,30.42561,-97.259456,2192
1091,30.529067,-97.185122,180
1092,30.474429,-97.162178,327
1093,30.609838,-97.218848,1536
1094,29.934113,-98.150473,527
1095,29.82497,-97.918829,1499
1096,29.800449,-98.015358,565
1097,29.812023,-98.018414,919
1098,29.806018,-97.944241,2044
1099,29.835521,-97.9049,1096
1100,29.930219,-97.813404,1317
1101,30.0113,-97.687029,942
1102,29.988874,-97.742832,2205
1103,29.9607,-97.773983,63
1104,30.030532,-97.672595,1066
1105,30.102202,-97.609481,614
1106,29.994705,-98.236289,452
1107,30.106389,-98.270406,867
1108,30.270539,-98.206818,574
1109,30.15493,-98.251617,549
1110,30.193282,-98.236528,1180
1111,30.320581,-98.18806,861
1112,30.422055,-98.127277,864
1113,30.530257,-98.103332,349
1114,30.659689,-98.030267,1646
1115,30.709085,-98.002919,629
1116,30.840504,-97.903407,966
1117,29.869985,-97.892405,1761
1118,30.43398,-98.04384,307
1119,30.4147,-97.974328,627
1120,30.406566,-97.85219,1034
1121,30.416801,-97.846884,451
1122,30.407083,-97.761927,387
1123,30.409064,-97.764124,387
1124,30.408449,-97.758688,387
1125,30.408061,-97.744922,419
1126,30.41402,-97.745725,1121
1127,30.407847,-97.744691,419
1128,30.415637,-97.745701,1121
1129,30.412533,-97.731664,1938
1130,30.407919,-97.715814,622
1131,30.40912,-97.716095,622
1132,30.410378,-97.684787,1596
1133,30.407524,-97.677913,1790
1134,30.415302,-97.676469,85
1135,30.409447,-97.647814,1304
1136,30.231017,-97.516594,887
1137,30.236316,-97.520151,887
1138,30.401773,-97.634956,134
1139,30.413554,-97.623711,254
1140,30.395078,-97.589682,1659
1141,30.416815,-97.575833,600
1142,30.30344,-97.526112,26
1143,30.307684,-97.514671,1215
1144,30.33638,-97.51792,1436
1145,30.334995,-97.509891,1436
1146,30.375385,-97.528483,487
1147,30.397315,-97.519255,760
1148,30.408455,-97.512478,1847
1149,30.409589,-98.109364,68
1150,30.385513,-98.086011,1263
1151,30.406921,-98.058975,1394
1152,30.407793,-97.874061,1838
1153,30.439673,-97.873379,1126
1154,30.403618,-97.853717,1034
1155,30.410956,-97.791897,1699
1156,30.399573,-97.783123,115
1157,30.411092,-97.768154,387
1158,30.404545,-97.768691,387
1159,30.409917,-97.747504,419
1160,30.407781,-97.747856,419
1161,30.414459,-97.746412,1121
1162,30.407968,-97.745632,419
1163,30.413568,-97.745912,1121
1164,30.405556,-97.745455,419
1165,30.406374,-97.724071,952
1166,30.408849,-97.7147,622
1167,30.407206,-97.721641,952
1168,30.408731,-97.712834,622
1169,30.407364,-97.714123,622
1170,30.409801,-97.711471,622
1171,30.408358,-97.715529,622
1172,30.407968,-97.696596,1496
1173,30.412293,-97.67463,85
1174,30.40787,-97.675483,1790
1175,30.4133,-97.673628,85
1176,30.403298,-97.675161,1237
1177,30.414308,-97.672668,85
1178,30.406589,-97.674045,1790
1179,30.412976,-97.672042,85
1180,30.407529,-97.673112,1790
1181,30.403013,-97.605632,701
1182,30.400877,-97.545066,716
1183,30.425266,-97.532488,1658
1184,30.407188,-97.541096,2048
1185,30.505154,-97.519605,94
1186,30.51811,-97.517307,2247
1187,30.539446,-97.527361,814
1188,30.537219,-97.513917,1303
1189,30.546126,-97.526327,814
1190,30.550371,-97.502511,193
1191,30.593317,-97.519759,1101
1192,30.59844,-97.503766,893
1193,30.637256,-97.519283,637
1194,30.637913,-97.503543,1055
1195,30.674133,-97.519584,591
1196,30.655746,-97.51178,1537
1197,30.715859,-97.509234,1944
1198,30.736201,-97.517674,1004
1199,30.72774,-97.51612,1004
1200,30.786327,-97.570382,901
1201,30.813891,-97.514762,199
1202,30.753481,-97.522255,13
1203,30.759103,-97.502626,741
1204,30.276789,-97.502484,1697
1205,30.294375,-97.524078,26
1206,30.350266,-97.500359,404
1207,30.410372,-97.51129,1847
1208,30.397977,-97.470816,1018
1209,30.405153,-97.499596,2035
1210,30.418875,-97.427254,523
1211,30.415024,-97.460113,191
1212,30.399374,-97.381992,1924
1213,30.410031,-97.37493,148
1214,30.417783,-97.521358,88
1215,30.443669,-97.517121,300
1216,30.440796,-97.521724,300
1217,30.493528,-97.493465,1183
1218,30.589415,-97.53659,394
1219,30.607574,-97.506741,893
1220,30.615287,-97.542575,747
1221,30.666963,-97.495278,247
1222,30.687437,-97.492532,1612
1223,30.690823,-97.524148,1416
1224,30.729133,-97.531196,650
1225,30.783688,-97.524716,1918
1226,30.740209,-97.493845,605
1227,30.766484,-97.479858,1457
1228,30.410299,-97.695637,1496
1229,30.412131,-97.702847,1496
1230,30.408633,-97.70461,1496
1231,30.410893,-97.709342,1672
1232,30.413835,-97.661196,1471
1233,30.405328,-97.66238,1040
1234,30.42208,-97.625593,2199
1235,30.40409,-97.637802,134
1236,29.987074,-98.049768,2028
1237,29.984562,-98.038465,97
1238,30.026318,-98.043982,826
1239,30.03215,-98.039656,826
1240,30.052957,-98.049297,190
1241,30.047991,-98.025834,1149
1242,30.1098,-98.068304,620
1243,30.123192,-98.031115,573
1244,30.131643,-98.031699,573
1245,30.149237,-98.051563,320
1246,30.153385,-98.016194,459
1247,30.286319,-98.064664,646
1248,30.291368,-98.034598,306
1249,30.355722,-98.066735,1705
1250,30.331214,-98.024116,210
1251,30.37458,-98.041928,1945
1252,29.883707,-97.965652,1970
1253,29.893214,-97.964866,2031
1254,29.886653,-97.962478,846
1255,29.887965,-97.953982,1128
1256,29.884175,-97.948286,1997
1257,29.884944,-97.949509,1997
1258,29.885791,-97.945866,1997
1259,29.884912,-97.942571,1819
1260,29.88521,-97.940536,1819
1261,29.884527,-97.923961,1850
1262,29.885258,-97.929695,933
1263,29.882201,-97.921188,1850
1264,29.886173,-97.918068,195
1265,29.883649,-97.922986,1850
1266,29.882561,-97.921502,1850
1267,29.887678,-97.917035,195
1268,29.887809,-97.916563,195
1269,29.884282,-97.908492,1292
1270,29.888212,-97.9054,1292
1271,29.882033,-97.895876,1420
1272,29.888655,-97.886721,2068
1273,29.940677,-98.022744,579
1274,29.908608,-98.008721,1814
1275,29.917247,-98.051817,149
1276,29.885597,-97.946803,1997
1277,29.884687,-97.943954,1819
1278,29.883846,-97.94376,260
1279,29.885079,-97.941552,1819
1280,29.884391,-97.941438,1819
1281,29.885267,-97.940102,1819
1282,29.884481,-97.940026,1819
1283,29.883169,-97.93868,1141
1284,29.884754,-97.936819,1141
1285,29.883316,-97.93731,1141
1286,29.884907,-97.930244,933
1287,29.88435,-97.931116,2078
1288,29.886723,-97.919149,195
1289,29.883183,-97.922476,1850
1290,29.888646,-97.916622,195
1291,29.882931,-97.92178,1850
1292,30.193978,-98.03592,679
1293,30.194871,-98.049602,125
1294,30.245989,-98.027316,2185
1295,30.246378,-98.043262,1181
1296,30.345872,-98.027208,1528
1297,30.159975,-98.178438,1008
1298,30.129515,-98.173062,409
1299,30.143223,-98.135221,1623
1300,30.157746,-98.131657,1091
1301,30.144817,-98.089328,1808
1302,30.16069,-98.090996,580
1303,30.167313,-98.085854,580
1304,30.13787,-98.157966,1512
1305,29.967769,-98.189493,798
1306,29.981565,-98.147097,242
1307,30.035229,-98.179821,598
1308,30.058892,-98.162858,767
1309,30.089786,-98.19487,1992
1310,30.08205,-98.171247,76
1311,30.104379,-98.17688,597
1312,30.126281,-98.170259,409
1313,30.004317,-98.18761,1812
1314,30.012098,-98.120381,1133
1315,30.019125,-98.130309,610
1316,29.999239,-98.101129,14
1317,30.02115,-98.101837,347
1318,30.009134,-98.077175,877
1319,30.015618,-98.070197,340
1320,30.008634,-98.051193,783
1321,30.020471,-98.153274,956
1322,30.094404,-98.170976,1880
1323,30.000072,-98.200099,145
1324,30.101001,-98.223676,588
1325,30.047826,-98.198919,1167
1326,30.097785,-98.239317,1281
1327,30.096546,-98.216512,588
1328,30.099451,-98.18839,1108
1329,29.974506,-98.092413,314
1330,29.980102,-98.093545,314
1331,29.994609,-98.090602,1693
1332,29.987964,-98.111264,827
1333,30.002568,-98.105036,14
1334,29.941015,-98.091712,436
1335,30.008008,-98.117772,1133
1336,29.938804,-98.081782,436
1337,29.981565,-98.139629,242
1338,29.986542,-98.120568,2034
1339,29.92891,-98.069342,998
1340,29.925171,-98.064188,998
1341,29.985071,-98.089903,314
1342,29.985865,-98.075657,1043
1343,29.998843,-98.084241,1693
1344,30.081168,-98.171429,76
1345,30.072243,-98.140645,1431
1346,30.107668,-98.131384,939
1347,30.045394,-98.101753,1458
1348,30.03475,-98.118658,1926
1349,30.06887,-98.125564,881
1350,30.069955,-98.090106,1935
1351,30.102064,-98.096006,253
1352,30.12629,-98.112328,2164
1353,30.121344,-98.088327,691
1354,30.061194,-98.075962,1025
1355,30.027515,-98.128455,610
1356,30.116391,-98.137431,2025
1357,30.129918,-98.135692,345
1358,30.123076,-98.135616,345
1359,30.048688,-98.097949,1458
1360,30.058309,-98.049009,190
1361,30.055926,-98.092073,667
1362,30.058932,-98.080648,1025
1363,30.10984,-98.090537,253
1364,30.131976,-98.08916,691
1365,30.179424,-98.191269,925
1366,30.182829,-98.162832,483
1367,30.257611,-98.169802,1399
1368,30.22719,-98.169205,1678
1369,30.272555,-98.179416,1288
1370,30.300608,-98.166031,1301
1371,30.300407,-98.170914,1301
1372,30.162056,-98.141627,1892
1373,30.199549,-98.184398,717
1374,30.197855,-98.162057,946
1375,30.198206,-98.179426,717
1376,30.200172,-98.194485,1620
1377,30.27055,-98.068497,1370
1378,30.280318,-98.155751,1345
1379,30.256065,-98.154836,167
1380,30.255864,-98.132785,2065
1381,30.285707,-98.103249,244
1382,30.256388,-98.109119,1337
1383,30.173312,-98.240938,1720
1384,30.178501,-98.232143,128
1385,30.159139,-98.245775,549
1386,30.179132,-98.230195,128
1387,30.188182,-98.214616,644
1388,30.193112,-98.214579,644
1389,30.189203,-98.109283,1137
1390,30.189269,-98.102602,155
1391,30.221912,-98.151964,997
1392,30.205816,-98.144811,1300
1393,30.205308,-98.133052,305
1394,30.219776,-98.118518,1332
1395,30.20463,-98.11855,305
1396,30.198217,-98.107129,1794
1397,30.210052,-98.087482,636
1398,30.213293,-98.084826,636
1399,30.191588,-98.095033,155
1400,30.246396,-98.12472,439
1401,30.254291,-98.082014,725
1402,30.182808,-98.124873,740
1403,30.198168,-98.161836,946
1404,30.191378,-98.162277,946
1405,30.18744,-98.115318,1137
1406,30.205647,-98.128349,305
1407,30.227215,-98.154469,997
1408,30.256152,-98.143003,1489
1409,30.233872,-98.124752,1969
1410,30.167629,-98.086571,580
1411,30.179423,-98.087313,1563
1412,30.159349,-98.068204,1492
1413,30.191384,-98.081811,1146
1414,30.191338,-98.087434,1146
1415,30.193977,-98.102295,1794
1416,30.181782,-98.087413,1563
1417,30.19133,-98.093042,155
1418,30.189304,-98.099051,155
1419,30.192514,-98.064321,1845
1420,30.237465,-98.065915,6
1421,30.249399,-98.058146,585
1422,30.246189,-98.047347,1181
1423,30.299922,-98.088865,1473
1424,30.368436,-98.072766,1322
1425,30.393322,-98.067956,393
1426,29.841741,-97.912779,2234
1427,29.848594,-97.905366,1855
1428,29.869138,-97.91176,1389
1429,29.869205,-97.902758,258
1430,29.883152,-97.909806,1292
1431,29.880615,-97.912757,1326
1432,29.878232,-97.907425,1292
1433,29.818075,-97.998524,111
1434,29.823262,-98.005313,1914
1435,29.817127,-97.99684,111
1436,29.818931,-97.994699,111
1437,29.823926,-97.980733,2179
1438,29.82181,-98.007133,1914
1439,29.81739,-98.012155,919
1440,29.819486,-97.994863,111
1441,29.818343,-97.996504,111
1442,29.814034,-98.000977,2134
1443,29.820301,-97.993655,111
1444,29.814105,-98.000616,2134
1445,29.822026,-97.99246,1203
1446,29.815446,-97.96404,58
1447,29.830284,-97.96121,1024
1448,29.828849,-97.983841,323
1449,29.835607,-97.976302,1580
1450,29.834256,-97.978198,1580
1451,29.841971,-97.974684,1010
1452,29.846351,-97.979676,1410
1453,29.842559,-97.975355,1010
1454,29.850844,-97.974942,2141
1455,29.813421,-97.967589,58
1456,29.806774,-97.978529,721
1457,29.838967,-97.973318,1010
1458,29.834027,-97.978787,1580
1459,29.840191,-97.972651,1010
1460,29.836078,-97.976833,1580
1461,29.840025,-97.97189,1010
1462,29.84932,-97.976323,2141
1463,29.820649,-97.955213,1606
1464,29.825662,-97.942213,1417
1465,29.810918,-98.003617,699
1466,29.797524,-97.994277,1262
1467,29.780004,-97.992683,449
1468,29.80978,-98.005157,699
1469,29.810878,-98.004831,699
1470,29.804461,-97.982193,721
1471,29.816411,-97.996523,111
1472,29.80115,-97.994277,1262
1473,29.810904,-98.003892,699
1474,29.815126,-97.999061,2134
1475,29.815366,-97.999757,2134
1476,29.812963,-98.00256,2134
1477,29.817537,-97.997344,111
1478,29.862223,-97.998377,1483
1479,29.85096,-97.984969,140
1480,29.860719,-97.996498,1483
1481,29.850231,-97.984131,140
1482,29.824507,-97.988654,1203
1483,29.831786,-97.995633,972
1484,29.847718,-97.981245,1410
1485,29.821828,-97.992251,1203
1486,29.823465,-97.990057,1203
1487,29.834039,-97.992218,972
1488,29.83723,-97.989055,972
1489,29.835006,-97.9781,1580
1490,29.827288,-97.985579,323
1491,29.827121,-97.984705,323
1492,29.827685,-97.98604,323
1493,29.825198,-97.988915,1203
1494,29.829455,-97.984188,323
1495,29.830066,-97.982813,323
1496,29.830282,-97.98298,323
1497,29.82378,-97.990143,1203
1498,29.82846,-97.986415,323
1499,29.796368,-97.968037,1115
1500,29.846826,-97.963812,2176
1501,29.85373,-97.956148,455
1502,29.828217,-97.944615,1417
1503,29.828578,-97.941912,1417
1504,29.833369,-97.946962,269
1505,29.832843,-97.941569,1417
1506,29.848735,-97.943496,1330
1507,29.843343,-97.940454,1330
1508,29.855146,-97.971213,1160
1509,29.85336,-97.957648,455
1510,29.85126,-97.959659,455
1511,29.847441,-97.964333,2176
1512,29.853528,-97.957082,455
1513,29.853599,-97.956728,455
1514,29.84383,-97.967646,243
1515,29.852997,-97.948412,1048
1516,29.859231,-97.95031,1048
1517,29.865634,-97.943201,153
1518,29.854864,-97.939497,478
1519,29.863038,-97.945704,1862
1520,29.865021,-97.943426,153
1521,29.856628,-97.939361,478
1522,29.876116,-97.943103,2240
1523,29.869203,-97.940235,153
1524,29.872973,-97.939549,1338
1525,29.87758,-97.945016,2240
1526,29.879629,-97.94301,260
1527,29.876869,-97.944064,2240
1528,29.881903,-97.943378,260
1529,29.883538,-97.943689,260
1530,29.882495,-97.943449,260
1531,29.845758,-97.940197,1330
1532,29.854604,-97.930246,1647
1533,29.860255,-97.940449,1002
1534,29.862253,-97.944222,1862
1535,29.866176,-97.943259,153
1536,29.865091,-97.944442,1862
1537,29.866953,-97.941952,153
1538,29.861566,-97.948009,1862
1539,29.849604,-97.924394,1795
1540,29.882041,-97.945704,260
1541,29.823166,-97.952518,1606
1542,29.839462,-97.971821,1010
1543,29.844947,-97.959837,2176
1544,29.839028,-97.953008,2168
1545,29.846832,-97.964546,2176
1546,29.842668,-97.968462,243
1547,29.844076,-97.967651,243
1548,29.843249,-97.968908,243
1549,29.862841,-97.959953,2124
1550,29.861112,-97.957928,2124
1551,29.874544,-97.955576,1080
1552,29.868395,-97.961723,4
1553,29.867764,-97.961879,4
1554,29.87309,-97.9555,1080
1555,29.876557,-97.957934,1080
1556,29.880121,-97.961806,1970
1557,29.857091,-97.969138,1160
1558,29.859917,-97.966063,1160
1559,29.865419,-97.962971,4
1560,29.881201,-97.962979,1970
1561,29.856668,-97.952744,1048
1562,29.858371,-97.950815,1048
1563,29.858727,-97.955116,2124
1564,29.858642,-97.951706,1048
1565,29.857214,-97.953331,1048
1566,29.860948,-97.947894,1862
1567,29.857198,-97.952916,1048
1568,29.862274,-97.947591,1862
1569,29.874772,-97.955843,1080
1570,29.880348,-97.950762,732
1571,29.880895,-97.949407,732
1572,29.877075,-97.951105,732
1573,29.87622,-97.952048,732
1574,29.877722,-97.950392,732
1575,29.873806,-97.95471,1080
1576,29.879877,-97.94805,732
1577,29.878314,-97.94591,2240
1578,29.880721,-97.949175,732
1579,29.882637,-97.946433,1997
1580,29.880975,-97.946805,260
1581,29.880625,-97.947202,260
1582,29.882953,-97.946819,1997
1583,29.881193,-97.949803,732
1584,29.883234,-97.94931,1997
1585,29.841662,-97.936114,1330
1586,29.834243,-97.928599,1053
1587,29.83758,-97.921594,98
1588,29.847286,-97.941906,1330
1589,29.845039,-97.918815,1795
1590,29.868707,-97.939662,153
1591,29.866108,-97.94225,153
1592,29.868541,-97.938929,1912
1593,29.867505,-97.938735,1912
1594,29.870902,-97.936456,1338
1595,29.867945,-97.935361,1912
1596,29.868963,-97.931929,1912
1597,29.866739,-97.942596,153
1598,29.868758,-97.939972,153
1599,29.876506,-97.929006,1732
1600,29.878542,-97.926102,1732
1601,29.88122,-97.92453,1850
1602,29.856022,-97.931812,1647
1603,29.869094,-97.925668,2237
1604,29.872084,-97.91934,385
1605,29.871191,-97.918273,385
1606,29.870111,-97.928014,2237
1607,29.874672,-97.9286,1732
1608,29.87846,-97.927101,1732
1609,29.876501,-97.929761,1732
1610,29.879317,-97.926499,1732
1611,29.877335,-97.929068,1732
1612,29.880004,-97.924818,1850
1613,29.87679,-97.928989,1732
1614,29.857879,-97.933204,1647
1615,29.859559,-97.939136,1002
1616,29.86196,-97.938952,1002
1617,29.859356,-97.938419,1002
1618,29.860462,-97.935727,1002
1619,29.85872,-97.934025,1647
1620,29.859132,-97.93763,1002
1621,29.866104,-97.937439,1912
1622,29.862164,-97.937389,1002
1623,29.857033,-97.93933,478
1624,29.865529,-97.938682,1912
1625,29.865203,-97.938703,1912
1626,29.863338,-97.937733,1002
1627,29.866078,-97.938666,1912
1628,29.872465,-97.934293,615
1629,29.876948,-97.935627,615
1630,29.874456,-97.934677,615
1631,29.876274,-97.939969,1338
1632,29.875412,-97.93981,1338
1633,29.876448,-97.9387,1338
1634,29.875464,-97.938568,1338
1635,29.877058,-97.934952,615
1636,29.872558,-97.935146,1338
1637,29.871952,-97.936352,1338
1638,29.873279,-97.934553,615
1639,29.874938,-97.934728,615
1640,29.879132,-97.936033,615
1641,29.883692,-97.935194,1141
1642,29.871325,-97.936415,1338
1643,29.87528,-97.931813,615
1644,29.871376,-97.939427,1338
1645,29.871593,-97.939456,1338
1646,29.870143,-97.939265,1338
1647,29.869401,-97.940087,153
1648,29.874302,-97.93838,1338
1649,29.874166,-97.939576,1338
1650,29.873541,-97.939562,1338
1651,29.870384,-97.937174,1338
1652,29.88011,-97.939989,1819
1653,29.880182,-97.939324,1819
1654,29.88144,-97.943323,260
1655,29.879804,-97.942005,260
1656,29.882041,-97.941035,1819
1657,29.880037,-97.940663,260
1658,29.88177,-97.939579,1819
1659,29.88305,-97.939784,1819
1660,29.880724,-97.93681,2078
1661,29.882252,-97.939656,1819
1662,29.879754,-97.942292,260
1663,29.878688,-97.940413,2240
1664,29.88265,-97.942749,260
1665,29.882348,-97.941092,1819
1666,29.882869,-97.941188,1819
1667,29.882698,-97.942407,1819
1668,29.882965,-97.940445,1819
1669,29.876883,-97.936028,615
1670,29.877932,-97.938963,1338
1671,29.883228,-97.938129,1141
1672,29.882553,-97.937165,1141
1673,29.877473,-97.932861,615
1674,29.878668,-97.930725,1732
1675,29.877842,-97.929681,1732
1676,29.882305,-97.931934,2078
1677,29.88393,-97.933255,2078
1678,29.879275,-97.918292,1326
1679,29.88104,-97.920099,1326
1680,29.881947,-97.92016,1850
1681,29.882011,-97.917562,1326
1682,29.877475,-97.916194,1326
1683,29.873535,-97.921075,385
1684,29.872239,-97.922415,385
1685,29.880316,-97.923785,1850
1686,29.881773,-97.923014,1850
1687,29.87959,-97.913879,1326
1688,29.852885,-97.898439,539
1689,29.869256,-97.89591,1761
1690,29.870444,-97.895752,1761
1691,29.878486,-97.901872,258
1692,29.87339,-97.900478,258
1693,30.131698,-98.010044,35
1694,30.147484,-97.983461,1736
1695,30.152035,-97.971907,715
1696,29.971708,-97.787475,989
1697,29.963481,-97.777722,63
1698,30.008939,-97.764874,1158
1699,30.027667,-97.785745,706
1700,30.033957,-97.778844,1868
1701,30.013464,-97.769916,1158
1702,30.113119,-97.784722,52
1703,30.116689,-97.781607,52
1704,30.113119,-97.782165,52
1705,30.101967,-97.759692,1562
1706,30.148253,-97.854836,1804
1707,30.145025,-97.852244,1804
1708,30.149554,-97.832825,1541
1709,30.140349,-97.832826,992
1710,30.146979,-97.794565,2200
1711,30.140553,-97.797024,1259
1712,30.148136,-97.793388,2200
1713,30.13889,-97.796827,1259
1714,30.149231,-97.79128,2200
1715,30.144042,-97.793174,224
1716,30.155776,-97.790058,310
1717,30.145684,-97.793334,2200
1718,30.164578,-97.77902,2174
1719,30.166859,-97.784401,1756
1720,30.17234,-97.782741,824
1721,30.178169,-97.778888,1579
1722,30.178354,-97.779637,1579
1723,30.204722,-97.774484,841
1724,30.227454,-97.779953,1422
1725,30.227656,-97.778749,1422
1726,30.227437,-97.779343,1422
1727,30.230105,-97.788895,1779
1728,30.26528,-97.784538,1533
1729,30.267711,-97.779086,486
1730,30.265256,-97.783519,486
1731,30.267761,-97.778362,486
1732,30.26533,-97.782286,486
1733,30.266689,-97.779575,486
1734,30.268797,-97.777774,486
1735,30.267535,-97.771498,1577
1736,30.325587,-97.779934,1384
1737,30.311853,-97.782363,55
1738,30.341,-97.77894,731
1739,30.341546,-97.781731,731
1740,30.399031,-97.782486,115
1741,30.392306,-97.777798,1670
1742,29.95748,-97.786545,2161
1743,30.044544,-97.794242,537
1744,30.061135,-97.780788,1111
1745,30.085718,-97.767393,621
1746,30.092449,-97.781509,1380
1747,30.145501,-97.765776,1426
1748,30.14972,-97.766207,1426
1749,30.153347,-97.711128,1211
1750,30.158266,-97.681272,1556
1751,30.137567,-97.584342,1155
1752,30.147217,-97.577793,2129
1753,30.140648,-97.567176,137
1754,30.159513,-97.555305,854
1755,30.158348,-97.776137,2174
1756,30.157205,-97.781488,2174
1757,30.172017,-97.783811,824
1758,30.179544,-97.782873,1579
1759,30.18261,-97.774018,1900
1760,30.171832,-97.781082,824
1761,30.183546,-97.77423,1900
1762,30.17127,-97.782507,824
1763,30.187451,-97.780446,192
1764,30.192997,-97.778594,1290
1765,30.194254,-97.78212,1290
1766,30.188994,-97.77993,192
1767,30.206957,-97.778439,841
1768,30.208275,-97.781155,1254
1769,30.211058,-97.778963,1254
1770,30.210002,-97.779795,1254
1771,30.154302,-97.735082,1107
1772,30.142173,-97.728856,658
1773,30.22782,-97.774012,840
1774,30.227927,-97.780151,1422
1775,30.246641,-97.777001,1185
1776,30.244055,-97.781187,1185
1777,30.257205,-97.7808,1967
1778,30.247075,-97.784821,1185
1779,30.260413,-97.770657,838
1780,30.267311,-97.780537,486
1781,30.145195,-97.699584,275
1782,30.149434,-97.696636,275
1783,30.143977,-97.69652,275
1784,30.152491,-97.670395,713
1785,30.145534,-97.673128,713
1786,30.153362,-97.668847,713
1787,30.153831,-97.639306,2099
1788,30.283155,-97.776483,1100
1789,30.288501,-97.78036,1100
1790,30.293797,-97.783106,422
1791,30.295908,-97.783359,422
1792,30.357981,-97.785307,144
1793,30.38252,-97.771031,1327
1794,30.146457,-97.624194,784
1795,30.294852,-97.781125,422
1796,30.291665,-97.774304,1453
1797,30.297507,-97.780138,422
1798,30.300641,-97.775754,1595
1799,30.228138,-97.778887,1422
1800,30.228226,-97.781444,1422
1801,30.223421,-97.781914,1422
1802,30.14862,-97.807197,1685
1803,30.144604,-97.808804,1685
1804,29.891123,-97.914054,2136
1805,29.896446,-97.909096,849
1806,29.893021,-97.911456,849
1807,29.895908,-97.909218,849
1808,29.896952,-97.909541,849
1809,29.904764,-97.912,1753
1810,29.915818,-97.910772,500
1811,29.918339,-97.90818,500
1812,29.956683,-97.903285,1434
1813,30.028014,-97.910045,1497
1814,29.893886,-97.912702,849
1815,29.900771,-97.905448,530
1816,29.894057,-97.911678,849
1817,30.016504,-97.897091,227
1818,29.990932,-97.892708,1743
1819,29.966324,-97.926509,1051
1820,30.011987,-97.891282,2155
1821,30.020791,-97.889466,1988
1822,30.014425,-97.859689,405
1823,30.019364,-97.856183,126
1824,30.028356,-97.854691,126
1825,30.014248,-97.85921,405
1826,30.019858,-97.855075,126
1827,30.016986,-97.847265,1500
1828,30.014363,-97.812917,124
1829,30.01829,-97.80929,124
1830,30.028376,-97.926097,774
1831,30.015748,-97.859108,405
1832,30.00581,-97.865017,823
1833,30.004704,-97.82677,1012
1834,30.095394,-97.895715,1225
1835,30.09644,-97.930063,926
1836,30.018492,-97.871239,1703
1837,29.89864,-97.973549,1719
1838,29.925388,-97.947524,276
1839,29.956176,-97.969228,1363
1840,29.937726,-97.932325,1019
1841,29.969026,-97.989404,1252
1842,29.900238,-97.982998,2231
1843,29.983412,-98.00407,608
1844,29.888059,-97.942108,991
1845,29.892343,-97.941204,666
1846,29.884842,-97.943001,1819
1847,29.886138,-97.944191,991
1848,29.887377,-97.944393,991
1849,29.891347,-97.941083,666
1850,29.892214,-97.944405,666
1851,29.894504,-97.942072,666
1852,29.896304,-97.944082,1616
1853,29.896828,-97.94477,1616
1854,29.90526,-97.929784,759
1855,29.917193,-97.933274,1816
1856,29.921256,-97.93543,1816
1857,29.887756,-97.961289,846
1858,29.891718,-97.95702,1128
1859,29.896152,-97.964475,2031
1860,29.900516,-97.958233,205
1861,29.896785,-97.948392,1616
1862,29.898021,-97.947013,1616
1863,29.888057,-97.951664,1128
1864,29.889125,-97.950476,1128
1865,29.890261,-97.951863,1128
1866,29.895617,-97.949694,1616
1867,29.893969,-97.951532,1128
1868,29.891572,-97.953462,1128
1869,29.889994,-97.95523,1128
1870,29.890985,-97.952746,1128
1871,29.888145,-97.945395,991
1872,29.888858,-97.946341,1997
1873,29.890193,-97.947309,1997
1874,29.897713,-97.947357,1616
1875,29.888328,-97.93012,933
1876,29.885608,-97.926853,933
1877,29.89445,-97.923727,1509
1878,29.900543,-97.926663,1209
1879,29.891716,-97.926737,1509
1880,29.889409,-97.931367,43
1881,29.891985,-97.926032,1509
1882,29.89425,-97.928245,1209
1883,29.898973,-97.918589,1753
1884,29.903718,-97.91319,1753
1885,29.892871,-97.941268,666
1886,29.889904,-97.935206,43
1887,29.891224,-97.936081,43
1888,29.894618,-97.935685,1817
1889,29.896258,-97.936477,1817
1890,29.888698,-97.934407,43
1891,29.887445,-97.935513,43
1892,29.89017,-97.935888,43
1893,29.888847,-97.933304,43
1894,29.895579,-97.932475,1817
1895,29.897822,-97.938325,1817
1896,29.885398,-97.93914,1141
1897,29.88764,-97.939234,991
1898,29.888443,-97.940612,991
1899,29.890831,-97.940999,666
1900,29.887845,-97.93802,1141
1901,29.89031,-97.936246,43
1902,29.886562,-97.941802,991
1903,29.885175,-97.940808,1819
1904,29.886157,-97.940243,991
1905,29.886604,-97.940314,991
1906,29.888282,-97.941299,991
1907,29.887342,-97.941936,991
1908,29.88561,-97.937555,1141
1909,29.886856,-97.937814,1141
1910,29.885949,-97.936406,1141
1911,29.8872,-97.937886,1141
1912,29.885461,-97.938676,1141
1913,29.889151,-97.93708,43
1914,29.895984,-97.941451,666
1915,29.887415,-97.923324,1850
1916,29.891811,-97.918543,1509
1917,29.896415,-97.921533,1509
1918,29.88842,-97.917542,195
1919,29.892288,-97.922507,1509
1920,29.892966,-97.915739,2136
1921,29.892884,-97.917288,2136
1922,29.891351,-97.913416,2136
1923,29.892317,-97.921909,1509
1924,29.893086,-97.91346,2136
1925,29.891997,-97.914136,2136
1926,29.891126,-97.914385,2136
1927,29.885393,-97.925649,933
1928,29.886585,-97.924278,1850
1929,29.890532,-97.915493,2136
1930,29.887113,-97.917196,195
1931,29.896288,-97.915415,2136
1932,30.03879,-97.948547,1985
1933,30.047178,-97.988048,1613
1934,30.044053,-97.964363,71
1935,30.084815,-98.013181,710
1936,30.075656,-98.001528,1690
1937,30.12097,-97.966499,1150
1938,30.068102,-97.95782,1671
1939,30.059516,-97.989525,884
1940,30.117416,-98.027066,573
1941,30.124197,-98.031112,573
1942,30.131151,-98.015189,35
1943,30.12078,-97.957285,2014
1944,29.938037,-97.893994,954
1945,29.950238,-97.884295,558
1946,29.94924,-97.87881,558
1947,29.950177,-97.878941,558
1948,29.957876,-97.876596,20
1949,29.915845,-97.848869,2197
1950,29.926522,-97.83059,1971
1951,29.947856,-97.880945,558
1952,29.942481,-97.882516,1978
1953,29.95831,-97.877762,20
1954,29.959461,-97.877099,20
1955,29.947617,-97.880283,558
1956,29.94602,-97.844755,1448
1957,29.987605,-97.836644,1476
1958,29.997898,-97.850285,1340
1959,29.992531,-97.842281,1476
1960,29.940408,-97.846714,1448
1961,29.942311,-97.82705,160
1962,29.952679,-97.837463,754
1963,29.955021,-97.83949,754
1964,29.963873,-97.849113,572
1965,29.941387,-97.80234,940
1966,29.953695,-97.808346,525
1967,29.944065,-97.798207,940
1968,29.914969,-97.896677,2103
1969,29.925772,-97.891058,586
1970,29.916378,-97.895242,2103
1971,29.922265,-97.892317,586
1972,29.893323,-97.88093,714
1973,29.90875,-97.859715,312
1974,29.916639,-97.878747,1131
1975,29.918328,-97.876762,1131
1976,29.917495,-97.895689,2103
1977,29.910342,-97.899412,1362
1978,29.9187,-97.895591,2103
1979,29.946666,-97.879885,558
1980,29.928819,-97.864431,836
1981,29.92182,-97.856035,1765
1982,29.899395,-97.905689,530
1983,29.901008,-97.904288,530
1984,29.900499,-97.905254,530
1985,29.903743,-97.902465,530
1986,29.895047,-97.899234,1744
1987,29.900391,-97.889634,80
1988,29.902267,-97.90481,530
1989,29.900165,-97.906472,530
1990,29.902384,-97.904131,530
1991,29.894185,-97.900996,1744
1992,29.895378,-97.904373,1744
1993,29.902694,-97.902857,530
1994,29.906661,-97.900582,1362
1995,29.909831,-97.900124,1362
1996,29.907766,-97.900401,1362
1997,29.932,-97.888354,235
1998,29.932101,-97.888748,235
1999,29.93194,-97.88714,235
2000,29.942942,-97.88172,1978
2001,29.943195,-97.882564,1978
2002,29.944055,-97.88247,1978
2003,29.926976,-97.86222,836
2004,29.967815,-97.875762,1611
2005,29.969687,-97.89606,835
2006,29.980784,-97.89222,835
2007,29.988604,-97.877025,1220
2008,29.98734,-97.881341,360
2009,29.980893,-97.88974,835
2010,29.991005,-97.87655,1220
2011,29.998405,-97.875004,65
2012,29.955968,-97.877251,20
2013,29.960048,-97.877361,20
2014,29.961741,-97.879345,20
2015,29.977884,-97.8736,498
2016,29.983903,-97.872529,498
2017,29.980909,-97.869032,498
2018,29.989237,-97.881134,360
2019,29.98842,-97.874175,1220
2020,29.979466,-97.874473,498
2021,29.984511,-97.872966,1220
2022,29.976854,-97.873979,498
2023,29.984943,-97.873281,1220
2024,29.978504,-97.874173,498
2025,29.995007,-97.875758,1220
2026,29.993397,-97.880581,360
2027,29.98998,-97.859024,1883
2028,29.97571,-97.893847,835
2029,29.991391,-97.883102,360
2030,29.990351,-97.888739,1743
2031,29.98995,-97.885996,1743
2032,29.989498,-97.882908,360
2033,29.964168,-97.87511,20
2034,29.968051,-97.874544,1611
2035,29.967861,-97.875366,1611
2036,29.962752,-97.87637,20
2037,29.96523,-97.875565,1611
2038,29.971791,-97.858385,1933
2039,29.973956,-97.874605,1611
2040,29.973379,-97.87508,1611
2041,29.999674,-97.872733,1555
2042,29.994143,-97.870195,1555
2043,29.999144,-97.868018,1555
2044,29.99763,-97.86942,1555
2045,29.999883,-97.868179,1555
2046,30.004292,-97.856041,1340
2047,29.999739,-97.86852,1555
2048,29.998763,-97.869521,1555
2049,30.003548,-97.866759,823
2050,30.005121,-97.865053,823
2051,30.009416,-97.862153,405
2052,30.012584,-97.860204,405
2053,30.013012,-97.861302,405
2054,30.007356,-97.864561,823
2055,29.988217,-97.872226,1220
2056,29.988055,-97.871805,1220
2057,29.988493,-97.87533,1220
2058,29.992077,-97.873158,1220
2059,30.005926,-97.864224,823
2060,29.934329,-97.81764,1317
2061,29.968192,-97.82357,888
2062,29.95593,-97.810699,525
2063,29.971545,-97.818273,888
2064,29.976888,-97.808745,2022
2065,29.989278,-97.80845,317
2066,29.993819,-97.813678,317
2067,29.984568,-97.817677,317
2068,29.961303,-97.832749,754
2069,29.99912,-97.834605,1012
2070,30.000962,-97.821896,1012
2071,29.965926,-97.795661,989
2072,29.964911,-97.794449,989
2073,30.0323,-97.847014,643
2074,30.041811,-97.842152,1687
2075,30.032835,-97.846357,643
2076,30.035577,-97.844714,1687
2077,30.035737,-97.846154,1687
2078,30.056751,-97.844468,1858
2079,30.079887,-97.874335,843
2080,30.085233,-97.874376,843
2081,30.057411,-97.859417,1481
2082,30.057888,-97.844172,1858
2083,30.085233,-97.849017,2142
2084,30.071266,-97.84389,1227
2085,30.038451,-97.84427,1687
2086,30.032572,-97.847181,643
2087,30.040561,-97.843567,1687
2088,30.078846,-97.843981,1959
2089,30.081515,-97.842408,1959
2090,30.072526,-97.855312,391
2091,30.087256,-97.830648,240
2092,30.07893,-97.823356,1696
2093,30.08137,-97.821978,1696
2094,30.070274,-97.810744,913
2095,30.094569,-97.810998,462
2096,30.084451,-97.781297,2117
2097,30.086583,-97.848656,2142
2098,30.081757,-97.823239,1696
2099,30.079485,-97.824447,1696
2100,30.08252,-97.822475,1696
2101,30.076016,-97.825784,924
2102,30.082232,-97.822216,1696
2103,30.077746,-97.824566,1696
2104,30.092478,-97.848376,1177
2105,30.141052,-97.839895,879
2106,30.140901,-97.846645,879
2107,30.042635,-97.884639,485
2108,30.049961,-97.874437,1716
2109,30.02744,-97.88916,1988
2110,30.027821,-97.874967,1433
2111,30.034703,-97.874957,1433
2112,30.019116,-97.899698,227
2113,30.021271,-97.854719,126
2114,30.029776,-97.848174,643
2115,30.029759,-97.849023,643
2116,30.02232,-97.853646,126
2117,30.022693,-97.854123,126
2118,30.01694,-97.858252,405
2119,30.068251,-97.873629,1875
2120,30.104231,-97.874942,112
2121,30.092148,-97.874553,1968
2122,30.097269,-97.874777,1968
2123,30.095573,-97.891498,1225
2124,30.114723,-97.874813,1103
2125,30.124805,-97.862555,473
2126,30.100671,-97.848911,609
2127,30.100605,-97.860949,1377
2128,30.117934,-97.872072,1103
2129,30.048613,-97.838751,1154
2130,30.044463,-97.840432,1154
2131,30.04977,-97.837808,285
2132,30.030178,-97.8244,902
2133,30.024867,-97.789988,706
2134,30.058252,-97.821052,363
2135,30.046184,-97.80319,537
2136,30.0519,-97.838021,285
2137,30.046293,-97.840771,1154
2138,30.050612,-97.838215,285
2139,30.046387,-97.840289,1154
2140,30.058509,-97.803453,738
2141,30.071613,-97.821368,924
2142,30.039995,-97.842572,1687
2143,30.04291,-97.842069,1687
2144,30.041884,-97.842901,1687
2145,30.066202,-97.843692,1227
2146,30.058164,-97.833704,1312
2147,30.062222,-97.831705,1312
2148,30.070839,-97.827419,924
2149,30.057803,-97.840129,1858
2150,30.07068,-97.828798,924
2151,30.07683,-97.834637,0
2152,30.077186,-97.82572,1696
2153,30.065182,-97.821221,363
2154,30.062529,-97.832814,1312
2155,30.07175,-97.82791,924
2156,30.062354,-97.832455,1312
2157,30.075844,-97.825589,924
2158,30.057454,-97.834413,1312
2159,30.057939,-97.836082,1312
2160,30.076801,-97.835362,0
2161,30.077202,-97.824359,1696
2162,30.077346,-97.821442,1696
2163,30.06067,-97.804117,738
2164,30.070329,-97.806658,913
2165,30.094963,-97.813585,462
2166,30.099335,-97.811285,462
2167,30.098435,-97.81269,462
2168,30.108909,-97.807884,1526
2169,30.112057,-97.808283,1526
2170,30.108447,-97.8089,1526
2171,30.09896,-97.813399,462
2172,30.118369,-97.804675,130
2173,30.109649,-97.809274,1526
2174,30.099359,-97.81391,462
2175,30.114252,-97.804835,130
2176,30.112147,-97.805531,130
2177,30.115732,-97.805049,130
2178,30.117582,-97.805905,130
2179,30.142797,-97.802155,1685
2180,30.140481,-97.822986,444
2181,30.112819,-97.795296,1550
2182,30.088967,-97.819233,1498
2183,30.097371,-97.814901,462
2184,30.086778,-97.820047,1498
2185,30.095201,-97.81455,462
2186,30.088498,-97.817877,1498
2187,30.095267,-97.815648,462
2188,30.08977,-97.817858,1498
2189,30.094513,-97.794342,1170
2190,30.100245,-97.781725,359
2191,30.109372,-97.806761,1526
2192,30.112981,-97.792339,1550
2193,30.130465,-97.798256,661
2194,30.129586,-97.799486,661
2195,30.136987,-97.798363,1259
2196,30.126556,-97.802268,661
2197,30.138052,-97.796223,1259
2198,30.138468,-97.795207,1259
2199,30.129632,-97.800342,661
2200,30.13634,-97.796009,1259
2201,30.141058,-97.7951,224
2202,30.125677,-97.801787,661
2203,30.136175,-97.791399,1259
2204,30.290398,-98.020961,1715
2205,30.187541,-97.912924,1013
2206,30.182088,-97.89988,757
2207,30.203564,-97.915917,2235
2208,30.218164,-97.894051,1032
2209,30.234304,-97.910849,833
2210,30.230046,-97.895393,2079
2211,30.275312,-97.91381,336
2212,30.28033,-97.904212,1480
2213,30.307708,-97.927441,999
2214,30.307834,-97.892772,674
2215,30.289788,-97.917446,1241
2216,30.181256,-97.90037,757
2217,30.186433,-97.913792,1013
2218,30.201796,-97.918388,2235
2219,30.260021,-97.907067,1007
2220,30.251859,-97.918722,1196
2221,30.282704,-97.876244,1357
2222,30.2734,-97.862617,351
2223,30.284143,-97.875022,1357
2224,30.277539,-97.819556,420
2225,30.27584,-97.815575,420
2226,30.283842,-97.824162,1387
2227,30.276482,-97.803384,249
2228,30.279916,-97.807103,1990
2229,30.262313,-97.888867,1393
2230,30.386976,-97.903719,1161
2231,30.281131,-97.842637,1118
2232,30.269707,-97.850778,2112
2233,30.274195,-97.812513,1990
2234,30.272939,-97.798176,249
2235,30.215547,-98.02279,807
2236,30.196676,-98.013609,1001
2237,30.179153,-97.965435,366
2238,30.228909,-97.95054,670
2239,30.208494,-97.972777,983
2240,30.215089,-97.964775,53
2241,30.196532,-97.997346,267
2242,30.217079,-97.962868,53
2243,30.233343,-97.980853,1781
2244,30.221726,-97.955777,1549
2245,30.153427,-98.008778,459
2246,30.167389,-98.008567,1975
2247,30.178509,-98.002331,860
2248,30.194559,-98.029824,679
2249,30.153575,-97.994535,1591
2250,30.23749,-98.026025,413
2251,30.24336,-98.021496,2185
2252,30.217224,-98.02376,807
2253,30.234439,-98.005382,198
2254,30.232748,-97.991675,198
2255,30.231634,-97.999975,198
2256,30.180144,-97.966104,366
2257,30.174159,-97.929221,680
2258,30.161605,-97.952457,1219
2259,30.189131,-97.926918,114
2260,30.197962,-97.920828,2235
2261,30.194456,-97.923225,114
2262,30.193069,-97.924096,114
2263,30.225762,-97.946665,670
2264,30.230666,-97.931553,364
2265,30.241088,-97.94163,816
2266,30.240527,-97.920292,1196
2267,30.246061,-97.92715,1655
2268,30.241424,-97.940784,816
2269,30.223176,-97.952875,1549
2270,30.231228,-97.928424,364
2271,30.238639,-97.918139,1196
2272,30.303727,-97.997469,1625
2273,30.306929,-97.970205,1442
2274,30.315871,-97.97799,472
2275,30.309794,-97.965369,1442
2276,30.334263,-97.968559,377
2277,30.357365,-97.978713,274
2278,30.354141,-97.96117,202
2279,30.354964,-97.986207,274
2280,30.308263,-97.94502,25
2281,30.304819,-97.935671,999
2282,30.307893,-97.956127,25
2283,30.32185,-97.955313,829
2284,30.359059,-97.954035,202
2285,30.391435,-97.937119,150
2286,30.153247,-97.833034,1541
2287,30.183334,-97.849577,1148
2288,30.190407,-97.845121,1148
2289,30.210837,-97.858899,1521
2290,30.218765,-97.838342,1308
2291,30.21052,-97.858555,1521
2292,30.217492,-97.838693,1308
2293,30.202866,-97.837208,1017
2294,30.214383,-97.850213,2172
2295,30.208101,-97.888666,1548
2296,30.219574,-97.843778,2172
2297,30.232333,-97.840227,325
2298,30.227366,-97.831071,1144
2299,30.248549,-97.850943,533
2300,30.245545,-97.845201,1864
2301,30.169901,-97.859566,1893
2302,30.176355,-97.835481,1078
2303,30.211092,-97.831757,209
2304,30.21668,-97.845643,2172
2305,30.211544,-97.825433,209
2306,30.213668,-97.830107,209
2307,30.218339,-97.805362,1311
2308,30.213589,-97.814537,749
2309,30.215206,-97.797393,135
2310,30.213555,-97.794039,135
2311,30.223141,-97.841448,503
2312,30.224641,-97.85483,528
2313,30.233736,-97.84074,325
2314,30.23635,-97.832664,780
2315,30.236609,-97.83963,325
2316,30.237141,-97.831908,780
2317,30.237639,-97.83963,325
2318,30.206976,-97.815059,749
2319,30.208596,-97.80447,813
2320,30.213597,-97.850916,2172
2321,30.204062,-97.858604,802
2322,30.206944,-97.84541,1934
2323,30.23683,-97.837139,325
2324,30.237161,-97.837182,325
2325,30.23695,-97.842302,325
2326,30.236655,-97.842259,325
2327,30.174337,-97.888236,218
2328,30.180271,-97.878955,1455
2329,30.199346,-97.867275,151
2330,30.180052,-97.878449,1455
2331,30.185813,-97.874961,915
2332,30.199122,-97.865671,151
2333,30.200434,-97.877747,2061
2334,30.175337,-97.85482,1893
2335,30.190033,-97.89058,1207
2336,30.188385,-97.89214,1207
2337,30.157165,-97.859768,33
2338,30.16629,-97.860619,1893
2339,30.165113,-97.860279,33
2340,30.193757,-97.85882,1813
2341,30.199057,-97.871973,151
2342,30.198771,-97.852364,802
2343,30.207564,-97.860569,1521
2344,30.20827,-97.861604,1521
2345,30.220789,-97.872676,1585
2346,30.23047,-97.87927,631
2347,30.227623,-97.872836,1585
2348,30.243252,-97.883117,1182
2349,30.247218,-97.888438,453
2350,30.240749,-97.880658,1182
2351,30.236775,-97.877965,2224
2352,30.243905,-97.879527,1182
2353,30.25574,-97.890434,1393
2354,30.242347,-97.878275,1182
2355,30.2569,-97.871023,10
2356,30.245212,-97.864037,1675
2357,30.244091,-97.863216,1675
2358,30.240407,-97.8914,1347
2359,30.236802,-97.8836,2224
2360,30.221946,-97.892219,1032
2361,30.236646,-97.900652,2079
2362,30.238761,-97.890584,1347
2363,30.260195,-97.902225,1007
2364,30.256776,-97.893795,1752
2365,30.257265,-97.88907,1393
2366,30.25114,-97.896549,1752
2367,30.257047,-97.904199,1007
2368,30.216061,-97.8624,1521
2369,30.220274,-97.85766,528
2370,30.225608,-97.868584,1585
2371,30.229763,-97.864518,81
2372,30.227832,-97.861267,81
2373,30.222852,-97.862833,81
2374,30.227426,-97.860449,81
2375,30.236052,-97.854532,1109
2376,30.23514,-97.854813,1109
2377,30.223181,-97.871649,1585
2378,30.223243,-97.863618,81
2379,30.217862,-97.852537,528
2380,30.223843,-97.855347,528
2381,30.218741,-97.854334,528
2382,30.273753,-97.856936,351
2383,30.251431,-97.85779,533
2384,30.254374,-97.864878,10
2385,30.249645,-97.853226,533
2386,30.173459,-97.823559,2092
2387,30.179605,-97.819921,1651
2388,30.173662,-97.816884,2092
2389,30.173886,-97.809477,921
2390,30.176355,-97.832375,1078
2391,30.185679,-97.816079,469
2392,30.185283,-97.810546,1667
2393,30.179238,-97.795686,947
2394,30.180182,-97.79517,947
2395,30.182422,-97.788699,947
2396,30.172747,-97.785005,824
2397,30.199803,-97.80716,1257
2398,30.191134,-97.812608,469
2399,30.202665,-97.806668,1257
2400,30.180485,-97.802237,1667
2401,30.180831,-97.807529,1667
2402,30.178514,-97.808159,1667
2403,30.177279,-97.803448,1667
2404,30.202762,-97.812793,1164
2405,30.18864,-97.828925,179
2406,30.176355,-97.833872,1078
2407,30.1607,-97.802057,1928
2408,30.164189,-97.830006,470
2409,30.169231,-97.825103,470
2410,30.187778,-97.827104,179
2411,30.194472,-97.830519,179
2412,30.199763,-97.820203,1164
2413,30.201214,-97.838303,1017
2414,30.195122,-97.842094,1017
2415,30.191706,-97.814837,469
2416,30.197267,-97.816427,1164
2417,30.195762,-97.821196,1164
2418,30.189681,-97.824843,179
2419,30.198839,-97.819117,1164
2420,30.172226,-97.799273,79
2421,30.166962,-97.788279,1756
2422,30.173904,-97.798642,79
2423,30.174077,-97.790784,824
2424,30.163204,-97.788333,1756
2425,30.155768,-97.790981,310
2426,30.162464,-97.78959,1756
2427,30.166939,-97.787129,1756
2428,30.160891,-97.787557,1756
2429,30.162002,-97.787985,1756
2430,30.173786,-97.80677,921
2431,30.157098,-97.79141,310
2432,30.149732,-97.793656,2200
2433,30.156987,-97.788798,310
2434,30.165459,-97.787076,1756
2435,30.185486,-97.802486,1667
2436,30.183698,-97.792438,947
2437,30.198722,-97.791851,1383
2438,30.192877,-97.790057,1383
2439,30.194474,-97.783017,1290
2440,30.19698,-97.787501,1383
2441,30.199096,-97.793366,357
2442,30.200171,-97.798499,2165
2443,30.194362,-97.789132,1383
2444,30.207745,-97.794017,357
2445,30.202191,-97.804482,1257
2446,30.199384,-97.805942,1257
2447,30.198903,-97.802201,2165
2448,30.189777,-97.790227,1383
2449,30.182928,-97.786171,1579
2450,30.191804,-97.783996,1290
2451,30.180322,-97.790013,947
2452,30.183114,-97.781832,1579
2453,30.204353,-97.791199,357
2454,30.21132,-97.789122,1254
2455,30.210516,-97.786904,1254
2456,30.198363,-97.790864,1383
2457,30.202228,-97.784275,2132
2458,30.205473,-97.790072,357
2459,30.209203,-97.784479,1254
2460,30.222801,-97.805243,1311
2461,30.22805,-97.809223,2062
2462,30.233858,-97.821453,42
2463,30.23245,-97.808305,494
2464,30.232666,-97.818097,42
2465,30.231455,-97.806939,494
2466,30.238975,-97.819349,1265
2467,30.244234,-97.808808,1741
2468,30.240218,-97.82839,780
2469,30.238702,-97.82134,1382
2470,30.257974,-97.812264,1626
2471,30.218583,-97.806739,1311
2472,30.215003,-97.813629,749
2473,30.23355,-97.810437,494
2474,30.236386,-97.825435,1382
2475,30.233955,-97.810455,494
2476,30.233651,-97.818327,42
2477,30.244695,-97.807022,1741
2478,30.24515,-97.80612,1741
2479,30.237759,-97.820834,1382
2480,30.243412,-97.782109,1185
2481,30.245978,-97.807716,1741
2482,30.249719,-97.806316,1730
2483,30.251923,-97.802314,1354
2484,30.263752,-97.816613,744
2485,30.218206,-97.82717,209
2486,30.233436,-97.826613,1382
2487,30.227029,-97.830077,1144
2488,30.232864,-97.825502,1382
2489,30.23606,-97.829883,780
2490,30.235193,-97.825605,1382
2491,30.236837,-97.825746,1382
2492,30.236089,-97.824203,1382
2493,30.219506,-97.826329,209
2494,30.236495,-97.830177,780
2495,30.236772,-97.830217,780
2496,30.231272,-97.827504,1144
2497,30.222202,-97.835212,1308
2498,30.221992,-97.834969,1308
2499,30.231272,-97.826983,1144
2500,30.219835,-97.836259,1308
2501,30.220703,-97.836875,1308
2502,30.217456,-97.834436,1308
2503,30.23648,-97.824848,1382
2504,30.237683,-97.823722,1382
2505,30.234639,-97.824175,1382
2506,30.236251,-97.822684,1382
2507,30.237186,-97.821308,1382
2508,30.237333,-97.822571,1382
2509,30.237105,-97.822005,1382
2510,30.234337,-97.820512,42
2511,30.23579,-97.823091,1382
2512,30.260888,-97.814364,1626
2513,30.263578,-97.816797,744
2514,30.266143,-97.817979,744
2515,30.2716,-97.817588,744
2516,30.271717,-97.817882,744
2517,30.267828,-97.81834,744
2518,30.265414,-97.818023,744
2519,30.218078,-97.795323,135
2520,30.227708,-97.808527,2062
2521,30.232107,-97.800515,232
2522,30.233286,-97.796057,1350
2523,30.232689,-97.798636,232
2524,30.235575,-97.793702,2094
2525,30.23398,-97.797025,232
2526,30.23697,-97.798816,232
2527,30.232953,-97.794725,1350
2528,30.220448,-97.793757,135
2529,30.222744,-97.798451,2016
2530,30.229003,-97.801013,2016
2531,30.230355,-97.789878,1779
2532,30.223115,-97.799201,2016
2533,30.230378,-97.788003,1779
2534,30.229342,-97.78654,1779
2535,30.234377,-97.796031,232
2536,30.235927,-97.79778,232
2537,30.232603,-97.800213,232
2538,30.235198,-97.794501,2094
2539,30.233339,-97.798214,232
2540,30.232583,-97.793235,1350
2541,30.229617,-97.788557,1779
2542,30.228047,-97.801512,2016
2543,30.228254,-97.789269,1779
2544,30.229025,-97.799467,2016
2545,30.230386,-97.793822,1350
2546,30.230122,-97.797975,2016
2547,30.217546,-97.801713,1311
2548,30.225331,-97.803685,2062
2549,30.231462,-97.804014,494
2550,30.231804,-97.804853,494
2551,30.232967,-97.800718,232
2552,30.232413,-97.80632,494
2553,30.232432,-97.807216,494
2554,30.238041,-97.798967,232
2555,30.232875,-97.808476,494
2556,30.233151,-97.807964,494
2557,30.232009,-97.806884,494
2558,30.237916,-97.79928,232
2559,30.225517,-97.790699,1779
2560,30.236651,-97.792052,2094
2561,30.237902,-97.789945,2094
2562,30.233587,-97.785525,551
2563,30.230721,-97.789249,1779
2564,30.232393,-97.792418,1350
2565,30.236646,-97.78352,551
2566,30.233574,-97.794596,1350
2567,30.23119,-97.791055,1350
2568,30.233917,-97.795234,1350
2569,30.260056,-97.805347,106
2570,30.261715,-97.80888,106
2571,30.256001,-97.80054,1354
2572,30.260262,-97.794047,2158
2573,30.258713,-97.79617,2158
2574,30.260209,-97.79324,2158
2575,30.260195,-97.810167,1626
2576,30.258993,-97.797666,1354
2577,30.272563,-97.797651,249
2578,30.270391,-97.791447,2084
2579,30.263095,-97.788804,1533
2580,30.260676,-97.794025,2158
2581,30.25742,-97.799849,1354
2582,30.26073,-97.792218,2158
2583,30.262343,-97.789257,1533
2584,30.266681,-97.805797,106
2585,30.262226,-97.791986,2158
2586,30.263327,-97.789245,1533
2587,30.24763,-97.804075,493
2588,30.251005,-97.806613,1730
2589,30.252168,-97.805827,1730
2590,30.255017,-97.803706,1354
2591,30.258601,-97.802677,1354
2592,30.250175,-97.802627,493
2593,30.253313,-97.801443,1354
2594,30.255686,-97.803534,1354
2595,30.256627,-97.802043,1354
2596,30.272874,-97.801035,249
2597,30.274274,-97.80014,249
2598,30.252789,-97.784927,1967
2599,30.264663,-97.78723,1533
2600,30.26362,-97.787056,1533
2601,30.266277,-97.782899,486
2602,30.264301,-97.788165,1533
2603,30.263404,-97.789885,1533
2604,30.264583,-97.784744,1533
2605,30.265011,-97.786332,1533
2606,30.289039,-97.86919,868
2607,30.303022,-97.843429,962
2608,30.33747,-97.864691,136
2609,30.341261,-97.881847,769
2610,30.35662,-97.832265,398
2611,30.394252,-97.845181,161
2612,30.398789,-97.844551,161
2613,30.309888,-97.844822,962
2614,30.313104,-97.852347,516
2615,30.370289,-97.860451,689
2616,30.312663,-97.881033,2159
2617,30.316056,-97.872294,1977
2618,30.331027,-97.885542,2083
2619,30.322847,-97.87288,1478
2620,30.377304,-97.884445,929
2621,30.377412,-97.879879,929
2622,30.382368,-97.871525,2177
2623,30.394185,-97.868841,943
2624,30.389427,-97.882163,40
2625,30.394712,-97.866069,943
2626,30.283109,-97.810687,1044
2627,30.298997,-97.81519,1097
2628,30.298207,-97.802389,584
2629,30.314974,-97.826522,1750
2630,30.309577,-97.826156,1820
2631,30.316063,-97.825211,1750
2632,30.309545,-97.825762,1820
2633,30.321072,-97.816305,960
2634,30.290013,-97.819354,568
2635,30.310491,-97.801552,1484
2636,30.308132,-97.796794,1484
2637,30.313248,-97.79433,2053
2638,30.322091,-97.815584,960
2639,30.305985,-97.782053,55
2640,30.300892,-97.839075,962
2641,30.295865,-97.82877,1686
2642,30.283963,-97.832888,166
2643,30.293077,-97.82808,568
2644,30.298267,-97.827853,1686
2645,30.295467,-97.827438,1686
2646,30.29285,-97.822481,568
2647,30.299516,-97.818977,1097
2648,30.293223,-97.82844,568
2649,30.297657,-97.828157,1686
2650,30.281643,-97.842091,1118
2651,30.284166,-97.83342,166
2652,30.304314,-97.840649,962
2653,30.290327,-97.828309,568
2654,30.287733,-97.826976,568
2655,30.305178,-97.825485,1820
2656,30.30455,-97.825413,1820
2657,30.292344,-97.797985,1821
2658,30.289988,-97.790063,422
2659,30.304525,-97.794835,584
2660,30.290906,-97.801329,1821
2661,30.281367,-97.808305,1044
2662,30.291352,-97.782574,422
2663,30.303467,-97.786596,55
2664,30.316944,-97.792957,2053
2665,30.321771,-97.794192,709
2666,30.333169,-97.792225,368
2667,30.332832,-97.800471,225
2668,30.328719,-97.790419,368
2669,30.323684,-97.794141,709
2670,30.331043,-97.788907,368
2671,30.335185,-97.806284,225
2672,30.334512,-97.804247,225
2673,30.331682,-97.789923,368
2674,30.379096,-97.827727,1076
2675,30.365612,-97.79694,1419
2676,30.364429,-97.828657,398
2677,30.369555,-97.801644,1419
2678,30.377974,-97.796726,815
2679,30.37739,-97.805007,1419
2680,30.387687,-97.824323,589
2681,30.392014,-97.838754,161
2682,30.359284,-97.79047,144
2683,30.366071,-97.789691,560
2684,30.35956,-97.792073,144
2685,30.356715,-97.792832,144
2686,30.363111,-97.790418,144
2687,30.356539,-97.792341,144
2688,30.385861,-97.798527,815
2689,30.021253,-97.742644,1323
2690,30.009015,-97.72796,1369
2691,30.024991,-97.699893,2047
2692,30.091222,-97.655379,1245
2693,30.099121,-97.636677,176
2694,30.126139,-97.640916,1124
2695,30.110472,-97.65021,750
2696,30.112969,-97.649334,750
2697,29.994679,-97.749232,283
2698,29.97976,-97.764403,1063
2699,30.061381,-97.7375,818
2700,30.063897,-97.710553,1285
2701,30.079628,-97.754532,378
2702,30.089855,-97.734261,728
2703,30.080573,-97.735104,1846
2704,30.088539,-97.71432,850
2705,30.09333,-97.693648,1166
2706,30.120769,-97.714933,259
2707,30.112132,-97.694721,17
2708,30.069984,-97.685891,1518
2709,30.081814,-97.665963,733
2710,30.08621,-97.671268,733
2711,30.108393,-97.722686,1642
2712,30.089301,-97.693484,1166
2713,30.128798,-97.709943,1558
2714,30.032842,-97.767823,187
2715,30.024813,-97.746917,1323
2716,30.076519,-97.748151,2095
2717,30.074841,-97.735035,1846
2718,30.046374,-97.755827,895
2719,30.058424,-97.746461,818
2720,30.066423,-97.732168,87
2721,30.100159,-97.755922,1562
2722,30.126941,-97.774975,1617
2723,30.111202,-97.749035,1445
2724,30.106093,-97.738208,271
2725,30.133965,-97.755881,2030
2726,30.114963,-97.746603,1445
2727,30.123976,-97.740532,1983
2728,30.113733,-97.719341,259
2729,30.093566,-97.761764,621
2730,30.138118,-97.773374,894
2731,30.100934,-97.727371,1642
2732,30.135335,-97.733256,658
2733,30.058231,-97.703773,1285
2734,30.027369,-97.688502,1524
2735,30.098475,-97.683197,2054
2736,30.106732,-97.674058,1958
2737,30.115064,-97.694848,17
2738,30.12938,-97.683977,2180
2739,30.135807,-97.680223,687
2740,30.121538,-97.667553,1407
2741,30.097144,-97.684563,2054
2742,30.119328,-97.690349,17
2743,30.106856,-97.694471,1897
2744,30.129184,-97.69566,969
2745,30.095123,-97.660082,1245
2746,30.138109,-97.678447,687
2747,30.120507,-97.634975,1124
2748,30.109931,-97.622726,1920
2749,30.141786,-97.615924,381
2750,30.132645,-97.621771,1430
2751,30.104783,-97.628491,1920
2752,30.274283,-97.771166,1271
2753,30.279042,-97.767623,1271
2754,30.2773,-97.770504,1271
2755,30.278347,-97.772898,1271
2756,30.275636,-97.76678,221
2757,30.278952,-97.767164,1271
2758,30.275212,-97.765354,221
2759,30.279888,-97.758443,1873
2760,30.276683,-97.751107,467
2761,30.277965,-97.750506,467
2762,30.27809,-97.744172,705
2763,30.277798,-97.736099,2081
2764,30.278945,-97.724252,1842
2765,30.279808,-97.718872,801
2766,30.277082,-97.716191,801
2767,30.280124,-97.716795,801
2768,30.190898,-97.647323,272
2769,30.280604,-97.713907,801
2770,30.283767,-97.656039,1461
2771,30.278209,-97.768537,1271
2772,30.276552,-97.76984,1271
2773,30.280874,-97.768257,796
2774,30.28204,-97.766402,796
2775,30.277098,-97.768748,1271
2776,30.278562,-97.74592,705
2777,30.277598,-97.746279,705
2778,30.277633,-97.742615,694
2779,30.276069,-97.743195,1721
2780,30.276807,-97.739643,694
2781,30.276002,-97.736773,2081
2782,30.278717,-97.731664,171
2783,30.277162,-97.73278,2081
2784,30.278471,-97.73074,171
2785,30.275649,-97.731733,2081
2786,30.279502,-97.729157,171
2787,30.273559,-97.731662,982
2788,30.280034,-97.729494,171
2789,30.278252,-97.728161,171
2790,30.274963,-97.729499,171
2791,30.28001,-97.728054,171
2792,30.272944,-97.731,982
2793,30.280392,-97.727442,1842
2794,30.279509,-97.720765,1788
2795,30.276829,-97.72021,1669
2796,30.275982,-97.70408,1554
2797,30.279486,-97.701825,156
2798,30.276636,-97.699985,1554
2799,30.278268,-97.69086,2063
2800,30.27744,-97.695931,2063
2801,30.278712,-97.686804,896
2802,30.275847,-97.688679,896
2803,30.282652,-97.653111,1461
2804,30.280765,-97.648133,1461
2805,30.292329,-97.653084,927
2806,30.299934,-97.648122,1396
2807,30.352318,-97.646396,671
2808,30.389402,-97.656381,2055
2809,30.38679,-97.648404,1581
2810,30.155885,-97.638011,2099
2811,30.161242,-97.649013,1206
2812,30.18045,-97.64624,1470
2813,30.166537,-97.65984,871
2814,30.278334,-97.641634,333
2815,30.276595,-97.636962,333
2816,30.285972,-97.630927,524
2817,30.280296,-97.609429,1861
2818,30.27574,-97.59952,2131
2819,30.28876,-97.574784,152
2820,30.267849,-97.5478,1999
2821,30.302651,-97.653749,212
2822,30.328642,-97.654765,1189
2823,30.333212,-97.652719,435
2824,30.336064,-97.65136,435
2825,30.377272,-97.658636,1033
2826,30.276726,-97.739351,694
2827,30.27895,-97.738418,694
2828,30.277378,-97.741699,694
2829,30.279511,-97.740918,694
2830,30.275694,-97.735708,2081
2831,30.279407,-97.734201,2081
2832,30.283954,-97.656965,1461
2833,30.276671,-97.659168,806
2834,30.278136,-97.662454,806
2835,30.279302,-97.673771,1439
2836,30.279751,-97.680314,896
2837,30.274242,-97.680401,446
2838,30.278018,-97.684679,896
2839,30.211935,-97.657026,510
2840,30.202928,-97.639066,401
2841,30.337559,-97.719007,1713
2842,30.387485,-97.64909,1581
2843,30.384563,-97.644702,278
2844,30.209457,-97.652986,510
2845,30.209191,-97.653118,510
2846,30.211133,-97.657961,510
2847,30.208625,-97.7725,841
2848,30.214937,-97.768502,2216
2849,30.179253,-97.720695,847
2850,30.189539,-97.703901,948
2851,30.212605,-97.745592,2075
2852,30.212424,-97.736708,201
2853,30.205211,-97.716385,1884
2854,30.203097,-97.712016,1884
2855,30.21781,-97.774575,441
2856,30.205546,-97.759339,638
2857,30.212804,-97.754536,604
2858,30.209693,-97.756356,604
2859,30.213221,-97.753358,604
2860,30.208861,-97.756035,604
2861,30.212735,-97.752689,604
2862,30.210491,-97.754054,604
2863,30.212319,-97.7521,604
2864,30.211787,-97.752395,604
2865,30.209953,-97.74713,2075
2866,30.206682,-97.740275,2075
2867,30.214518,-97.735299,201
2868,30.208496,-97.723017,1163
2869,30.22924,-97.712447,1901
2870,30.230142,-97.714194,1901
2871,30.242277,-97.716967,313
2872,30.252756,-97.712431,1098
2873,30.25478,-97.718293,1807
2874,30.25639,-97.710716,1098
2875,30.261275,-97.717085,1355
2876,30.259778,-97.709095,2010
2877,30.261683,-97.716147,1355
2878,30.263203,-97.712655,1355
2879,30.270125,-97.714709,399
2880,30.270516,-97.712249,399
2881,30.158589,-97.728433,1774
2882,30.172365,-97.700983,121
2883,30.172286,-97.721729,847
2884,30.214782,-97.710248,443
2885,30.23855,-97.719287,313
2886,30.253619,-97.711994,1098
2887,30.255881,-97.718546,1807
2888,30.273736,-97.715494,801
2889,30.274602,-97.712717,399
2890,30.274147,-97.715578,801
2891,30.210789,-97.748887,2075
2892,30.208545,-97.744127,2075
2893,30.213391,-97.745062,839
2894,30.214327,-97.766695,2216
2895,30.207615,-97.765238,102
2896,30.205739,-97.769721,841
2897,30.213517,-97.733596,201
2898,30.21865,-97.717933,639
2899,30.21391,-97.701229,92
2900,30.211305,-97.712535,443
2901,30.212359,-97.711892,443
2902,30.216178,-97.665134,2221
2903,30.212026,-97.714789,1811
2904,30.211582,-97.709216,443
2905,30.212058,-97.709253,443
2906,30.212438,-97.714752,1811
2907,30.215163,-97.698437,92
2908,30.213843,-97.661824,1728
2909,30.2136,-97.662104,1728
2910,30.21491,-97.73356,201
2911,30.212168,-97.717869,1811
2912,30.213182,-97.717795,1811
2913,30.212153,-97.70643,443
2914,30.213072,-97.70698,443
2915,30.215511,-97.698621,92
2916,30.220985,-97.676929,1936
2917,30.186796,-97.773082,1900
2918,30.177514,-97.769536,1171
2919,30.183475,-97.768677,1171
2920,30.159699,-97.759613,1217
2921,30.158249,-97.745726,2074
2922,30.184813,-97.756169,770
2923,30.184613,-97.768251,1171
2924,30.173972,-97.741951,819
2925,30.186753,-97.774095,1900
2926,30.184933,-97.744809,1674
2927,30.200126,-97.741997,1104
2928,30.179624,-97.74658,1674
2929,30.172862,-97.751399,2175
2930,30.196782,-97.743914,1104
2931,30.201675,-97.751597,1681
2932,30.193563,-97.749468,11
2933,30.193815,-97.744422,547
2934,30.186709,-97.751639,11
2935,30.169612,-97.745832,819
2936,30.170586,-97.752905,2175
2937,30.180834,-97.750023,1674
2938,30.179624,-97.75661,770
2939,30.180521,-97.76206,1906
2940,30.157315,-97.769031,497
2941,30.165894,-97.769101,1592
2942,30.160402,-97.769391,497
2943,30.170108,-97.768355,1592
2944,30.197649,-97.776586,1290
2945,30.188966,-97.767462,432
2946,30.187447,-97.76254,1561
2947,30.192625,-97.768854,432
2948,30.198488,-97.764091,1737
2949,30.190751,-97.771316,432
2950,30.198881,-97.764733,1737
2951,30.197713,-97.762753,1737
2952,30.192532,-97.769871,432
2953,30.200095,-97.763796,1737
2954,30.200477,-97.762512,1737
2955,30.195427,-97.764599,1561
2956,30.203414,-97.759112,638
2957,30.192255,-97.768212,432
2958,30.193442,-97.75189,11
2959,30.194952,-97.757931,1561
2960,30.200557,-97.753974,1681
2961,30.182765,-97.760827,1906
2962,30.181699,-97.764201,1906
2963,30.187735,-97.773447,1900
2964,30.18712,-97.771021,1900
2965,30.186796,-97.772118,1900
2966,30.185189,-97.772304,1900
2967,30.190404,-97.77062,432
2968,30.191645,-97.774397,432
2969,30.18971,-97.769175,432
2970,30.191283,-97.767944,432
2971,30.193356,-97.766271,1561
2972,30.192585,-97.76472,1561
2973,30.201081,-97.769338,1737
2974,30.203904,-97.765663,1737
2975,30.193329,-97.754146,11
2976,30.191947,-97.748455,11
2977,30.186275,-97.758745,770
2978,30.205669,-97.758283,638
2979,30.204917,-97.756918,638
2980,30.202489,-97.758898,638
2981,30.210792,-97.75301,604
2982,30.203236,-97.753715,1681
2983,30.165435,-97.74138,2074
2984,30.162431,-97.735733,158
2985,30.159963,-97.736012,158
2986,30.162941,-97.725755,1774
2987,30.166247,-97.736779,158
2988,30.168772,-97.738198,158
2989,30.194831,-97.737524,2029
2990,30.198516,-97.73521,2029
2991,30.183938,-97.744425,1674
2992,30.193114,-97.738624,547
2993,30.189512,-97.740932,547
2994,30.187287,-97.74233,547
2995,30.188594,-97.745234,547
2996,30.184367,-97.744456,1674
2997,30.190794,-97.744502,547
2998,30.201952,-97.742026,1104
2999,30.246417,-97.768935,1379
3000,30.244162,-97.764886,384
3001,30.215595,-97.749437,1358
3002,30.216208,-97.743861,839
3003,30.222241,-97.748085,284
3004,30.226878,-97.745301,1112
3005,30.223675,-97.748112,284
3006,30.222218,-97.746211,284
3007,30.244504,-97.757351,384
3008,30.246369,-97.756137,384
3009,30.229559,-97.744644,1112
3010,30.236584,-97.74855,885
3011,30.233874,-97.741993,60
3012,30.245581,-97.753343,1372
3013,30.244013,-97.75133,1372
3014,30.244906,-97.750998,1372
3015,30.234455,-97.741698,60
3016,30.244336,-97.757454,384
3017,30.243417,-97.763581,384
3018,30.252084,-97.748325,1229
3019,30.256886,-97.746562,676
3020,30.25834,-97.748045,676
3021,30.258882,-97.745798,676
3022,30.260412,-97.745264,676
3023,30.268103,-97.747413,1113
3024,30.267783,-97.746287,1113
3025,30.275468,-97.747072,1721
3026,30.275151,-97.745968,1721
3027,30.219391,-97.747937,284
3028,30.220853,-97.747121,284
3029,30.227688,-97.745702,1112
3030,30.226161,-97.744819,1112
3031,30.221709,-97.747469,284
3032,30.238012,-97.745263,885
3033,30.239417,-97.747327,885
3034,30.244258,-97.745091,1825
3035,30.245881,-97.750651,1229
3036,30.242209,-97.736312,1222
3037,30.246302,-97.735297,1222
3038,30.244603,-97.730201,696
3039,30.247625,-97.733949,407
3040,30.241989,-97.739073,1222
3041,30.243388,-97.736482,1222
3042,30.245383,-97.735998,1222
3043,30.249646,-97.735046,407
3044,30.243739,-97.734619,1222
3045,30.244364,-97.733628,1222
3046,30.26374,-97.746417,1113
3047,30.264089,-97.747649,1113
3048,30.265967,-97.746952,1113
3049,30.269688,-97.745592,1113
3050,30.270073,-97.746957,1113
3051,30.271522,-97.744895,1721
3052,30.272419,-97.748213,1721
3053,30.26867,-97.745963,1113
3054,30.269643,-97.749236,1113
3055,30.247997,-97.749857,1229
3056,30.244676,-97.741499,1825
3057,30.231102,-97.750867,1307
3058,30.24814,-97.761886,384
3059,30.243776,-97.764056,384
3060,30.214749,-97.750702,1358
3061,30.215717,-97.746356,839
3062,30.216605,-97.746448,839
3063,30.215896,-97.750057,1358
3064,30.215955,-97.738253,201
3065,30.215163,-97.749692,1358
3066,30.21567,-97.738473,201
3067,30.226916,-97.769235,1836
3068,30.229124,-97.767801,1836
3069,30.222301,-97.763968,862
3070,30.219675,-97.758024,1964
3071,30.224811,-97.766818,1836
3072,30.226014,-97.762072,862
3073,30.229425,-97.759921,282
3074,30.228159,-97.772839,840
3075,30.231228,-97.763595,282
3076,30.237344,-97.762197,1695
3077,30.215975,-97.767869,2216
3078,30.223341,-97.763346,862
3079,30.220488,-97.758067,1964
3080,30.217623,-97.754222,1358
3081,30.224466,-97.765626,1836
3082,30.227055,-97.761335,282
3083,30.227403,-97.755667,1307
3084,30.236474,-97.762743,1695
3085,30.232191,-97.76542,282
3086,30.241908,-97.759332,384
3087,30.226803,-97.754404,1307
3088,30.220734,-97.761195,862
3089,30.227326,-97.773819,840
3090,30.220474,-97.772887,441
3091,30.227575,-97.77301,840
3092,30.226355,-97.769166,1836
3093,30.227121,-97.771768,840
3094,30.226116,-97.769714,1836
3095,30.225108,-97.768011,1836
3096,30.225608,-97.767387,1836
3097,30.223715,-97.76601,1836
3098,30.224153,-97.76475,862
3099,30.225515,-97.766549,1836
3100,30.226387,-97.76808,1836
3101,30.230372,-97.76703,1836
3102,30.216303,-97.753438,1358
3103,30.216093,-97.752553,1358
3104,30.217618,-97.75082,1358
3105,30.222102,-97.749075,284
3106,30.218656,-97.751083,1358
3107,30.217349,-97.749986,1358
3108,30.216268,-97.753942,1358
3109,30.218203,-97.75433,1964
3110,30.215828,-97.752679,1358
3111,30.215324,-97.750381,1358
3112,30.217507,-97.748987,284
3113,30.215515,-97.752872,1358
3114,30.216563,-97.752281,1358
3115,30.234048,-97.757043,2008
3116,30.23655,-97.749671,885
3117,30.238542,-97.753282,1372
3118,30.24062,-97.756728,1372
3119,30.235642,-97.755709,2008
3120,30.239617,-97.747665,885
3121,30.239536,-97.752609,1372
3122,30.241627,-97.752119,1372
3123,30.264656,-97.764502,838
3124,30.255943,-97.761283,2004
3125,30.261799,-97.761214,838
3126,30.271128,-97.763498,221
3127,30.266302,-97.755922,1867
3128,30.272814,-97.761144,221
3129,30.248643,-97.76842,1379
3130,30.251061,-97.764882,1379
3131,30.262459,-97.752404,1246
3132,30.260728,-97.748355,676
3133,30.260731,-97.758134,1246
3134,30.264263,-97.756722,1867
3135,30.259477,-97.748904,676
3136,30.27479,-97.7625,221
3137,30.2594,-97.753305,1246
3138,30.248227,-97.769715,1379
3139,30.252865,-97.767484,1379
3140,30.255461,-97.771131,24
3141,30.251596,-97.773734,24
3142,30.272246,-97.772982,1577
3143,30.269114,-97.775092,1577
3144,30.274527,-97.771376,1271
3145,30.272073,-97.772771,1577
3146,30.268661,-97.776954,1577
3147,30.266998,-97.770573,1577
3148,30.275147,-97.768986,1271
3149,30.274037,-97.766178,221
3150,30.275657,-97.76766,1271
3151,30.276461,-97.767721,1271
3152,30.27369,-97.765701,221
3153,30.275266,-97.771121,1271
3154,30.247433,-97.759366,384
3155,30.254656,-97.751991,1246
3156,30.258218,-97.749749,676
3157,30.267988,-97.755246,1867
3158,30.270135,-97.75433,1867
3159,30.272527,-97.760478,221
3160,30.273364,-97.752701,467
3161,30.26532,-97.751945,1867
3162,30.269553,-97.752925,1867
3163,30.269,-97.750614,1867
3164,30.26872,-97.749576,1113
3165,30.271281,-97.753752,467
3166,30.265618,-97.748341,1113
3167,30.264429,-97.748791,1113
3168,30.267428,-97.748816,1113
3169,30.267777,-97.749757,1113
3170,30.275697,-97.747864,1721
3171,30.273271,-97.747888,1721
3172,30.269871,-97.749152,1113
3173,30.270614,-97.748878,467
3174,30.228297,-97.742712,1112
3175,30.230359,-97.741504,1112
3176,30.232103,-97.7367,60
3177,30.215239,-97.734904,201
3178,30.230568,-97.7327,1398
3179,30.231548,-97.742566,1112
3180,30.231308,-97.741794,1112
3181,30.231527,-97.735892,1398
3182,30.222423,-97.734428,1037
3183,30.229603,-97.730613,1398
3184,30.227057,-97.727271,1688
3185,30.237979,-97.732728,2181
3186,30.233703,-97.722868,1725
3187,30.242973,-97.729018,696
3188,30.239866,-97.731566,2181
3189,30.225227,-97.723983,1688
3190,30.232282,-97.720065,313
3191,30.235904,-97.728267,2181
3192,30.237491,-97.730967,2181
3193,30.241534,-97.727952,696
3194,30.237507,-97.725383,1725
3195,30.230786,-97.733625,1398
3196,30.22426,-97.741515,1112
3197,30.215068,-97.729893,201
3198,30.215543,-97.733633,201
3199,30.214656,-97.734,201
3200,30.214118,-97.730187,201
3201,30.215227,-97.733413,201
3202,30.219415,-97.743776,839
3203,30.215486,-97.739626,839
3204,30.214796,-97.735151,201
3205,30.21579,-97.735121,201
3206,30.216303,-97.739133,839
3207,30.216699,-97.743772,839
3208,30.215777,-97.74392,839
3209,30.2263,-97.743882,1112
3210,30.215704,-97.734644,201
3211,30.234424,-97.740886,60
3212,30.237959,-97.738734,60
3213,30.233297,-97.739706,60
3214,30.232527,-97.737741,60
3215,30.237483,-97.739947,60
3216,30.235517,-97.741125,60
3217,30.23864,-97.737457,60
3218,30.234153,-97.740107,60
3219,30.237784,-97.737082,60
3220,30.234338,-97.73909,60
3221,30.241126,-97.737859,1222
3222,30.237736,-97.744974,885
3223,30.231238,-97.743695,1112
3224,30.23369,-97.741312,60
3225,30.243819,-97.742821,1825
3226,30.243436,-97.742037,1825
3227,30.239761,-97.735931,1222
3228,30.224843,-97.723539,1688
3229,30.223308,-97.72218,1688
3230,30.219776,-97.720171,639
3231,30.213466,-97.719567,1811
3232,30.214341,-97.724986,1163
3233,30.213179,-97.724969,1163
3234,30.238597,-97.725762,1725
3235,30.244446,-97.72341,696
3236,30.23738,-97.716893,313
3237,30.24099,-97.726318,696
3238,30.240026,-97.726834,696
3239,30.244489,-97.72411,696
3240,30.262435,-97.74181,1839
3241,30.259309,-97.736984,851
3242,30.262292,-97.735939,1907
3243,30.261136,-97.737225,851
3244,30.261503,-97.738556,1839
3245,30.263117,-97.744226,1839
3246,30.261922,-97.73693,1907
3247,30.262686,-97.734949,1907
3248,30.258013,-97.736368,851
3249,30.261274,-97.734654,1907
3250,30.260557,-97.734895,851
3251,30.266039,-97.73278,552
3252,30.265185,-97.730157,552
3253,30.254688,-97.730026,1976
3254,30.255132,-97.731286,1976
3255,30.260012,-97.730377,1976
3256,30.260602,-97.732048,1976
3257,30.259558,-97.723115,241
3258,30.264178,-97.733534,552
3259,30.268289,-97.731956,552
3260,30.268219,-97.726867,1505
3261,30.269839,-97.73132,982
3262,30.272687,-97.730293,982
3263,30.271992,-97.73057,982
3264,30.272001,-97.731404,982
3265,30.273985,-97.729822,982
3266,30.274632,-97.732152,1987
3267,30.272534,-97.725722,1669
3268,30.271738,-97.730707,982
3269,30.262296,-97.721809,241
3270,30.260661,-97.722589,241
3271,30.263777,-97.725985,1505
3272,30.259151,-97.727914,1976
3273,30.259687,-97.732432,1976
3274,30.258439,-97.728899,1976
3275,30.265715,-97.741958,1839
3276,30.263406,-97.730909,552
3277,30.261483,-97.734547,1907
3278,30.253329,-97.743494,676
3279,30.257424,-97.738028,851
3280,30.24904,-97.737261,407
3281,30.253677,-97.737412,407
3282,30.248151,-97.736441,407
3283,30.255319,-97.736877,851
3284,30.253005,-97.73648,407
3285,30.253538,-97.735806,407
3286,30.252937,-97.734868,407
3287,30.256563,-97.735497,851
3288,30.254135,-97.744043,676
3289,30.250375,-97.734429,407
3290,30.24774,-97.735529,407
3291,30.254487,-97.737626,851
3292,30.257782,-97.737171,851
3293,30.258846,-97.735457,851
3294,30.256081,-97.734078,851
3295,30.260211,-97.737573,851
3296,30.254915,-97.734552,851
3297,30.269081,-97.74345,73
3298,30.263283,-97.737973,1907
3299,30.265681,-97.738673,1907
3300,30.268686,-97.742113,73
3301,30.270576,-97.741431,73
3302,30.266163,-97.740418,73
3303,30.270825,-97.738686,414
3304,30.268341,-97.740772,73
3305,30.269922,-97.739018,73
3306,30.268034,-97.739711,73
3307,30.272069,-97.739349,414
3308,30.271784,-97.738346,414
3309,30.275019,-97.73713,414
3310,30.261952,-97.740066,1839
3311,30.267027,-97.740092,73
3312,30.267616,-97.738174,73
3313,30.26906,-97.735775,1987
3314,30.269638,-97.73793,73
3315,30.269824,-97.735483,1987
3316,30.270582,-97.733666,1987
3317,30.269031,-97.734221,1987
3318,30.272194,-97.732144,982
3319,30.269277,-97.733254,982
3320,30.269176,-97.732426,982
3321,30.270216,-97.740084,73
3322,30.27095,-97.742775,73
3323,30.266163,-97.736837,1907
3324,30.265003,-97.743505,1839
3325,30.267205,-97.744177,1113
3326,30.266818,-97.742828,73
3327,30.267767,-97.74247,73
3328,30.26276,-97.742929,1839
3329,30.26646,-97.74156,73
3330,30.265988,-97.743145,1839
3331,30.264046,-97.741224,1839
3332,30.268102,-97.743829,1113
3333,30.263496,-97.745553,1113
3334,30.266364,-97.744489,1113
3335,30.267456,-97.745092,1113
3336,30.267373,-97.741155,73
3337,30.272779,-97.742107,414
3338,30.274555,-97.743757,1721
3339,30.27337,-97.74421,1721
3340,30.273096,-97.743234,1721
3341,30.272475,-97.744542,1721
