,lat,long,cluster
1,30.550045,-97.861763,914
2,30.595955,-97.873341,392
3,30.537706,-97.842574,830
4,30.531993,-97.967226,748
5,30.49655,-97.901257,50
6,30.460701,-97.882086,373
7,30.498174,-97.827879,578
8,30.434403,-98.083907,505
9,30.488843,-98.053644,273
10,30.405429,-97.968645,309
11,30.367501,-98.056627,19
12,30.421566,-97.941993,581
13,30.416288,-97.888347,95
14,30.449261,-97.839977,643
15,30.398674,-97.83899,691
16,30.33372,-98.076591,667
17,30.320471,-97.972406,61
18,30.349621,-98.009337,769
19,30.367501,-97.984566,165
20,30.382464,-97.926677,437
21,30.351176,-97.937276,572
22,30.373525,-97.86814,222
23,30.374974,-97.834683,855
24,30.351794,-97.845706,313
25,30.221922,-97.974997,584
26,30.292875,-97.964299,61
27,30.32358,-97.939978,303
28,30.343668,-97.905759,572
29,30.321831,-97.89921,5
30,30.653697,-97.705243,865
31,30.344763,-97.869942,715
32,30.332143,-97.858595,715
33,30.318718,-97.841425,351
34,30.30131,-97.832125,730
35,30.304379,-97.919182,428
36,30.298805,-97.888816,338
37,30.352597,-97.921387,572
38,30.308173,-97.871556,659
39,30.351189,-97.779089,335
40,30.384802,-97.744053,4
41,30.288711,-97.833651,942
42,30.286234,-97.902792,138
43,30.272366,-98.013199,852
44,30.286428,-97.879621,701
45,30.267169,-97.899068,343
46,30.287223,-97.86426,701
47,30.513457,-97.665825,125
48,30.308846,-97.703502,726
49,30.286457,-97.843688,436
50,30.279555,-97.836009,436
51,30.205053,-97.932402,807
52,30.273341,-97.873192,701
53,30.196482,-97.909655,166
54,30.172804,-97.901713,330
55,30.260857,-97.851746,539
56,30.259205,-97.829376,612
57,30.247459,-97.825581,996
58,30.235346,-97.819398,996
59,30.25396,-97.895281,343
60,30.24144,-97.879541,448
61,30.246756,-97.872037,235
62,30.245081,-97.858211,539
63,30.240247,-97.852166,825
64,30.267416,-97.928478,138
65,30.237106,-97.93101,263
66,30.244016,-97.915824,879
67,30.249879,-97.909155,506
68,30.238308,-97.892018,666
69,30.244942,-97.985156,613
70,30.250014,-97.943499,749
71,30.209143,-97.954558,63
72,30.21593,-97.947086,63
73,30.221875,-97.905353,666
74,30.210384,-97.884729,464
75,30.222138,-97.883969,11
76,30.22221,-97.928999,263
77,30.230631,-97.858915,204
78,30.229226,-97.850001,825
79,30.232836,-97.839501,82
80,30.224841,-97.835974,381
81,30.225853,-97.862221,204
82,30.217987,-97.865677,204
83,30.220626,-97.849136,381
84,30.214768,-97.858294,204
85,30.214574,-97.836175,381
86,30.206238,-97.845563,295
87,30.39592,-97.773059,582
88,30.20472,-97.872225,464
89,30.188692,-97.858353,731
90,30.194893,-97.937337,807
91,30.209985,-97.920445,807
92,30.191616,-97.895714,330
93,30.179056,-97.914187,166
94,30.183883,-97.890011,330
95,30.342242,-97.809077,69
96,30.166515,-97.868659,68
97,30.152804,-97.866404,68
98,30.204417,-97.829257,915
99,30.188004,-97.841393,731
100,30.17107,-97.842194,304
101,30.164297,-97.854535,68
102,30.133666,-97.842915,854
103,30.599148,-97.832171,16
104,30.579994,-97.799189,188
105,30.589421,-97.756155,90
106,30.614041,-97.692748,547
107,30.627603,-97.663039,531
108,30.575265,-97.671384,835
109,30.569989,-97.644672,933
110,30.522036,-97.803089,443
111,30.518674,-97.768768,710
112,30.527329,-97.737027,611
113,30.542739,-97.739952,644
114,30.540723,-97.693987,121
115,30.544608,-97.683218,121
116,30.550837,-97.664092,489
117,30.480535,-97.811989,438
118,30.471692,-97.806242,133
119,30.500992,-97.793977,940
120,30.483751,-97.758083,529
121,30.506262,-97.733466,757
122,30.516396,-97.710151,249
123,30.526432,-97.699474,856
124,30.529538,-97.693185,347
125,30.530948,-97.677935,125
126,30.537547,-97.657977,489
127,30.537873,-97.628339,932
128,30.525447,-97.687699,347
129,30.522907,-97.674702,125
130,30.527937,-97.660354,462
131,30.514658,-97.684306,554
132,30.517125,-97.675414,125
133,30.468471,-97.609093,703
134,30.51606,-97.649805,462
135,30.520364,-97.690696,347
136,30.510451,-97.681971,554
137,30.512392,-97.675429,125
138,30.516269,-97.659832,462
139,30.477235,-97.748408,219
140,30.499365,-97.699917,962
141,30.506831,-97.681264,389
142,30.489825,-97.687935,829
143,30.500887,-97.678514,389
144,30.503811,-97.668835,389
145,30.505463,-97.648706,662
146,30.512273,-97.621085,534
147,30.481309,-97.698393,293
148,30.482178,-97.683939,829
149,30.488674,-97.669035,15
150,30.492029,-97.631009,785
151,30.454371,-97.816014,41
152,30.460688,-97.804425,133
153,30.463568,-97.786828,449
154,30.469152,-97.769391,929
155,30.465101,-97.734708,867
156,30.473658,-97.703262,815
157,30.460659,-97.68639,698
158,30.453786,-97.671883,176
159,30.467254,-97.654187,921
160,30.460126,-97.635163,395
161,30.452107,-97.799555,734
162,30.443651,-97.78093,617
163,30.45527,-97.785175,281
164,30.458188,-97.771871,895
165,30.449527,-97.776564,617
166,30.452449,-97.763846,895
167,30.453141,-97.704426,73
168,30.446519,-97.76236,895
169,30.442063,-97.755978,65
170,30.442247,-97.731102,191
171,30.43446,-97.712671,266
172,30.444289,-97.681327,497
173,30.431584,-97.679807,376
174,30.43806,-97.654831,760
175,30.429712,-97.632319,78
176,30.446884,-97.613692,642
177,30.412276,-97.756928,735
178,30.440343,-97.825646,643
179,30.433092,-97.812579,439
180,30.426198,-97.80419,439
181,30.440545,-97.792283,281
182,30.430965,-97.790268,223
183,30.432578,-97.745077,571
184,30.419188,-97.836201,897
185,30.409079,-97.806945,223
186,30.418049,-97.785683,223
187,30.44012,-97.782925,617
188,30.427536,-97.772391,479
189,30.416096,-97.776502,479
190,30.421041,-97.757609,571
191,30.422727,-97.734935,970
192,30.421209,-97.724833,970
193,30.419626,-97.687169,507
194,30.474927,-97.628126,395
195,30.402543,-97.774264,582
196,30.393165,-97.763188,244
197,30.405087,-97.764003,735
198,30.40121,-97.75365,959
199,30.407812,-97.737938,970
200,30.416374,-97.713136,266
201,30.401368,-97.723123,664
202,30.400383,-97.71107,987
203,30.412333,-97.7016,733
204,30.406628,-97.684758,507
205,30.396503,-97.676128,42
206,30.402956,-97.652095,943
207,30.385822,-97.629909,445
208,30.398609,-97.616178,508
209,30.420193,-97.603293,161
210,30.396551,-97.82942,548
211,30.271191,-97.642884,889
212,30.395144,-97.78675,582
213,30.393237,-97.800872,134
214,30.391578,-97.752089,429
215,30.394219,-97.74096,959
216,30.38687,-97.738158,861
217,30.384116,-97.728635,861
218,30.379353,-97.722328,399
219,30.380339,-97.706944,129
220,30.395126,-97.69242,576
221,30.384254,-97.678624,446
222,30.380068,-97.668098,131
223,30.383394,-97.660601,131
224,30.373993,-97.650303,342
225,30.371901,-97.636824,883
226,30.357638,-97.621547,997
227,30.347504,-97.604697,692
228,30.360871,-97.581717,694
229,30.369183,-97.77245,786
230,30.383082,-97.754946,244
231,30.370937,-97.748874,639
232,30.372799,-97.738426,837
233,30.368742,-97.732737,837
234,30.365825,-97.723827,597
235,30.367008,-97.712527,129
236,30.374445,-97.714456,129
237,30.362717,-97.703016,602
238,30.365978,-97.701017,602
239,30.374479,-97.696226,744
240,30.368666,-97.687912,744
241,30.362402,-97.676517,200
242,30.35801,-97.662114,592
243,30.340503,-97.634953,270
244,30.335824,-97.616902,196
245,30.3645,-97.740699,538
246,30.361619,-97.735446,91
247,30.357612,-97.724918,345
248,30.355442,-97.7182,345
249,30.356542,-97.710188,453
250,30.354451,-97.69626,863
251,30.348438,-97.685483,863
252,30.338319,-97.690935,25
253,30.337807,-97.664499,258
254,30.333871,-97.675748,500
255,30.333513,-97.647877,712
256,30.361286,-97.757804,440
257,30.35516,-97.743801,155
258,30.350866,-97.738792,91
259,30.355362,-97.734401,91
260,30.351559,-97.727219,345
261,30.346115,-97.729428,669
262,30.348204,-97.718429,453
263,30.342425,-97.721317,209
264,30.340669,-97.709102,936
265,30.33247,-97.696583,685
266,30.32667,-97.685099,907
267,30.324017,-97.664095,958
268,30.32257,-97.651571,712
269,30.3202,-97.639453,270
270,30.325044,-97.617448,196
271,30.327527,-97.57601,818
272,30.34417,-97.558384,135
273,30.347874,-97.76121,440
274,30.341089,-97.750211,660
275,30.34102,-97.742547,669
276,30.337612,-97.733307,669
277,30.334246,-97.725896,209
278,30.328946,-97.720367,858
279,30.329197,-97.711138,858
280,30.324755,-97.698623,411
281,30.308832,-97.854872,351
282,30.353876,-97.789916,335
283,30.338864,-97.78138,558
284,30.333799,-97.76676,822
285,30.331953,-97.759891,822
286,30.332227,-97.751829,660
287,30.330139,-97.742742,217
288,30.330061,-97.735351,217
289,30.325264,-97.730682,695
290,30.320679,-97.720953,695
291,30.316483,-97.711051,256
292,30.318649,-97.702866,411
293,30.316705,-97.693892,916
294,30.316931,-97.684863,115
295,30.307248,-97.690083,348
296,30.316758,-97.672491,115
297,30.310034,-97.680821,348
298,30.300761,-97.67833,321
299,30.303255,-97.666683,556
300,30.311495,-97.65656,13
301,30.295066,-97.655743,470
302,30.305169,-97.6301,821
303,30.28759,-97.640662,225
304,30.296238,-97.606829,49
305,30.35485,-97.821754,855
306,30.339491,-97.799011,69
307,30.344399,-97.79414,335
308,30.334694,-97.786917,558
309,30.330049,-97.804386,69
310,30.32969,-97.794461,558
311,30.323452,-97.784862,558
312,30.322771,-97.790383,925
313,30.309286,-97.779878,44
314,30.319513,-97.773295,512
315,30.316399,-97.76201,512
316,30.322827,-97.748686,765
317,30.318928,-97.741563,307
318,30.318134,-97.735161,307
319,30.312636,-97.726851,159
320,30.309394,-97.719694,159
321,30.308606,-97.713911,159
322,30.291673,-97.694168,678
323,30.289535,-97.685312,321
324,30.289232,-97.674631,321
325,30.325211,-97.753043,765
326,30.312346,-97.755063,687
327,30.314377,-97.750453,765
328,30.311422,-97.745119,765
329,30.314075,-97.73437,307
330,30.307788,-97.737685,514
331,30.304357,-97.731148,514
332,30.299796,-97.723839,875
333,30.29537,-97.712677,53
334,30.320631,-97.809788,473
335,30.312617,-97.819504,185
336,30.309044,-97.806541,925
337,30.321536,-97.80207,925
338,30.316334,-97.798815,925
339,30.30976,-97.788871,441
340,30.306907,-97.770739,44
341,30.306124,-97.760175,687
342,30.304992,-97.756618,687
343,30.303114,-97.751664,51
344,30.302486,-97.747239,51
345,30.299443,-97.742797,51
346,30.29791,-97.735674,326
347,30.293084,-97.731181,875
348,30.292608,-97.727363,875
349,30.289092,-97.719395,557
350,30.287942,-97.71165,53
351,30.285307,-97.701787,678
352,30.297498,-97.777043,44
353,30.291148,-97.765987,782
354,30.296874,-97.762541,224
355,30.294723,-97.754442,224
356,30.291274,-97.745937,993
357,30.285813,-97.759194,532
358,30.285682,-97.747977,993
359,30.284903,-97.743151,993
360,30.290562,-97.742966,326
361,30.291737,-97.738284,326
362,30.285008,-97.735154,555
363,30.286926,-97.730248,555
364,30.302516,-97.818543,185
365,30.290736,-97.81223,632
366,30.300199,-97.799899,441
367,30.282386,-97.785116,658
368,30.283673,-97.780701,658
369,30.291216,-97.778414,658
370,30.283819,-97.77024,98
371,30.276309,-97.760494,966
372,30.271814,-97.752313,944
373,30.27412,-97.749925,944
374,30.276649,-97.744971,276
375,30.279904,-97.743468,276
376,30.27864,-97.738873,117
377,30.274993,-97.740269,117
378,30.271875,-97.743373,276
379,30.270625,-97.740184,627
380,30.268129,-97.744601,0
381,30.267364,-97.741182,0
382,30.266557,-97.738381,627
383,30.270537,-97.736137,627
384,30.27371,-97.733763,117
385,30.277326,-97.734167,117
386,30.282229,-97.731517,555
387,30.280795,-97.726061,555
388,30.281401,-97.723909,557
389,30.281893,-97.719348,557
390,30.283713,-97.710834,53
391,30.275893,-97.725163,721
392,30.277056,-97.718792,557
393,30.277541,-97.713445,557
394,30.278174,-97.705986,197
395,30.280929,-97.693411,418
396,30.283335,-97.680221,105
397,30.273431,-97.678189,105
398,30.271453,-97.658848,419
399,30.258811,-97.625628,215
400,30.275689,-97.620276,215
401,30.261466,-97.586183,827
402,30.271327,-97.762089,966
403,30.267524,-97.752761,944
404,30.266418,-97.749402,944
405,30.265461,-97.74621,0
406,30.264483,-97.742416,0
407,30.26393,-97.739258,0
408,30.259453,-97.741275,629
409,30.256691,-97.729877,629
410,30.261901,-97.728685,184
411,30.26616,-97.727423,184
412,30.267962,-97.722003,721
413,30.271109,-97.724436,721
414,30.272163,-97.71745,721
415,30.274171,-97.70587,197
416,30.26789,-97.709691,197
417,30.267381,-97.717513,721
418,30.264093,-97.717284,721
419,30.258199,-97.7169,469
420,30.25203,-97.722292,469
421,30.255176,-97.707214,386
422,30.261117,-97.705899,386
423,30.267416,-97.701265,197
424,30.275623,-97.694831,418
425,30.269491,-97.693985,418
426,30.257898,-97.696217,779
427,30.250378,-97.698255,779
428,30.258971,-97.683975,130
429,30.252393,-97.675294,742
430,30.292047,-97.826542,942
431,30.28751,-97.822447,632
432,30.279794,-97.813683,32
433,30.273914,-97.80577,502
434,30.281114,-97.79798,502
435,30.274313,-97.785524,784
436,30.269571,-97.770276,966
437,30.26379,-97.760172,595
438,30.260843,-97.753126,595
439,30.260153,-97.747288,0
440,30.256479,-97.743315,774
441,30.242798,-97.723846,994
442,30.236178,-97.713168,67
443,30.237023,-97.699893,739
444,30.231273,-97.690977,465
445,30.247651,-97.650627,845
446,30.583031,-97.893907,137
447,30.223538,-97.612743,157
448,30.267841,-97.795414,337
449,30.263639,-97.781663,784
450,30.254015,-97.779408,410
451,30.258468,-97.76513,595
452,30.254583,-97.756802,595
453,30.251548,-97.750714,774
454,30.249125,-97.74487,774
455,30.245798,-97.737968,340
456,30.241422,-97.733277,340
457,30.235658,-97.72957,994
458,30.228055,-97.720917,901
459,30.218025,-97.701277,203
460,30.268739,-97.812312,612
461,30.262467,-97.80009,151
462,30.257482,-97.807261,151
463,30.247294,-97.799248,711
464,30.258186,-97.789672,337
465,30.250663,-97.791535,337
466,30.240428,-97.794477,372
467,30.236384,-97.787768,187
468,30.23376,-97.779795,851
469,30.243976,-97.774117,410
470,30.251311,-97.772077,410
471,30.246241,-97.762422,787
472,30.240171,-97.766963,787
473,30.23169,-97.771333,851
474,30.227782,-97.764302,36
475,30.235703,-97.759859,226
476,30.243373,-97.754573,226
477,30.241194,-97.744361,647
478,30.238356,-97.748602,226
479,30.231751,-97.751904,226
480,30.223802,-97.757112,36
481,30.218675,-97.746881,387
482,30.22543,-97.739635,136
483,30.226569,-97.732462,136
484,30.219904,-97.725743,162
485,30.274722,-97.824877,32
486,30.255952,-97.814911,612
487,30.235591,-97.807971,758
488,30.227237,-97.795844,372
489,30.222209,-97.784683,851
490,30.219404,-97.77595,601
491,30.219174,-97.770121,601
492,30.213479,-97.762511,864
493,30.203546,-97.749497,864
494,30.211973,-97.741725,387
495,30.199342,-97.739267,699
496,30.199427,-97.727805,699
497,30.185219,-97.702259,292
498,30.207604,-97.705674,568
499,30.200401,-97.668694,754
500,30.224758,-97.664314,27
501,30.207631,-97.603752,72
502,30.229851,-97.806673,758
503,30.223724,-97.812739,80
504,30.213238,-97.819622,915
505,30.211461,-97.808543,80
506,30.219912,-97.800719,912
507,30.21642,-97.7932,912
508,30.207136,-97.801517,47
509,30.205816,-97.794697,633
510,30.214075,-97.788886,912
511,30.211162,-97.783613,365
512,30.204494,-97.787716,633
513,30.201568,-97.781077,365
514,30.209973,-97.775986,365
515,30.198303,-97.771828,700
516,30.192167,-97.76229,147
517,30.19005,-97.752272,269
518,30.191559,-97.741838,269
519,30.183884,-97.735419,269
520,30.179088,-97.714023,935
521,30.168372,-97.676869,83
522,30.128184,-97.613068,14
523,30.166566,-97.569847,798
524,30.204201,-97.575259,317
525,30.195468,-97.820597,232
526,30.192671,-97.79731,945
527,30.190192,-97.786001,102
528,30.188088,-97.777584,102
529,30.182413,-97.772149,808
530,30.179217,-97.759163,808
531,30.170457,-97.748821,550
532,30.16781,-97.730989,435
533,30.160499,-97.709547,935
534,30.143493,-97.687533,212
535,30.182246,-97.830203,304
536,30.180777,-97.806741,945
537,30.178806,-97.78988,680
538,30.174277,-97.783503,680
539,30.170566,-97.77519,680
540,30.171015,-97.763446,808
541,30.164418,-97.745521,33
542,30.160598,-97.815586,847
543,30.161894,-97.781648,902
544,30.134292,-97.724486,708
545,30.123992,-97.702255,708
546,30.118841,-97.815712,8
547,30.138629,-97.789007,792
548,30.1398,-97.779669,750
549,30.122344,-97.793243,169
550,30.11474,-97.761745,400
551,30.10091,-97.742406,688
552,30.10704,-97.711796,409
553,30.099935,-97.644403,898
554,30.099777,-97.794275,476
555,30.079091,-97.708895,954
556,30.061879,-97.67384,474
557,30.45357,-97.57921,621
558,30.44074,-97.596368,161
559,30.384952,-97.572308,168
560,30.371482,-97.546382,416
561,30.316307,-97.498617,747
562,30.30919,-97.550996,442
563,30.277114,-97.57567,154
564,30.264,-97.537069,767
565,30.239086,-97.53474,767
566,30.149404,-97.877778,68
567,30.562892,-97.81444,363
568,30.556527,-97.784048,494
569,30.560541,-97.747161,644
570,30.565681,-97.707149,318
571,30.543998,-97.702414,121
572,30.426107,-97.404165,780
573,30.494096,-97.797771,940
574,30.479701,-97.776675,929
575,30.474974,-97.690281,829
576,30.42248,-97.862996,980
577,30.130563,-97.947983,86
578,30.113558,-97.857472,334
579,30.095669,-97.82522,352
580,30.079619,-97.796332,982
581,30.054632,-97.768528,840
582,30.03508,-97.739866,426
583,30.044241,-97.823901,48
584,30.064542,-97.813059,982
585,30.067321,-97.837672,636
586,30.081642,-97.956989,485
587,29.886396,-97.922651,367
588,30.028229,-97.982658,106
589,30.002999,-97.878479,22
590,30.001839,-97.785715,995
591,29.979146,-97.846817,651
592,30.34613,-97.703574,936
593,30.488497,-97.600807,703
594,30.48319,-97.56746,415
595,30.463281,-97.525215,645
596,30.087585,-97.751571,70
597,30.058818,-97.723985,745
598,30.438973,-97.543138,645
599,30.428163,-97.513846,458
600,30.144669,-97.747936,812
601,30.132946,-97.82476,186
602,30.145593,-97.817215,543
603,30.199903,-97.523203,884
604,30.114833,-97.680519,167
605,30.131976,-97.668147,360
606,30.145238,-97.583182,229
607,30.467008,-97.489938,671
608,30.152791,-97.651583,891
609,30.165474,-97.640056,241
610,30.237554,-97.674932,327
611,30.183483,-97.637009,590
612,30.172582,-97.602786,753
613,30.442805,-97.462556,452
614,30.230896,-97.570828,673
615,30.254773,-97.510731,62
616,30.274879,-97.472702,528
617,30.297379,-97.511156,119
618,30.327288,-97.527973,569
619,30.311798,-97.470836,190
620,30.345114,-97.524893,332
621,30.332948,-97.468369,402
622,30.35486,-97.554176,810
623,30.400775,-97.566228,540
624,30.39936,-97.440864,580
625,30.367707,-97.520502,297
626,30.362081,-97.455986,89
627,30.389228,-97.501275,741
628,30.408462,-97.527893,6
629,30.419177,-97.556499,540
630,30.417448,-97.486022,849
631,30.51116,-97.432012,848
632,30.758933,-97.61981,573
633,30.787235,-97.461624,530
634,30.762333,-97.570963,605
635,30.714855,-97.635692,740
636,30.721902,-97.655039,740
637,30.721962,-97.43449,277
638,30.7155,-97.453439,29
639,30.659308,-97.591075,510
640,30.645536,-97.648227,272
641,30.688991,-97.697896,18
642,30.70538,-97.717715,690
643,30.688418,-97.290934,649
644,30.708185,-97.434506,277
645,30.707375,-97.44851,29
646,30.617408,-97.492335,707
647,30.63058,-97.608464,99
648,30.670268,-97.365601,451
649,30.614327,-97.438935,624
650,30.556867,-97.534104,160
651,30.549309,-97.552697,626
652,30.585801,-97.403788,3
653,30.593637,-97.422708,981
654,30.589385,-97.4345,981
655,30.417908,-97.324987,950
656,30.454708,-97.409402,513
657,30.519091,-97.37656,275
658,30.548378,-97.339944,801
659,30.543711,-97.426921,824
660,30.564158,-97.412627,969
661,30.544213,-97.502359,394
662,30.518844,-97.603226,534
663,30.553467,-97.632417,468
664,30.37016,-97.793486,211
665,30.52616,-97.553431,998
666,29.896453,-98.064179,783
667,29.955213,-98.126496,795
668,29.956289,-98.065857,122
669,29.950139,-98.009999,316
670,29.868981,-97.990969,178
671,29.857558,-98.012298,619
672,29.832913,-98.018237,278
673,29.979552,-98.108467,833
674,29.997999,-98.058955,630
675,30.019846,-98.0279,31
676,29.967048,-97.95913,175
677,29.952026,-97.983606,175
678,29.979371,-98.082087,591
679,30.030066,-98.080249,938
680,29.918913,-97.948067,716
681,30.043596,-98.053382,322
682,29.877956,-97.952311,407
683,29.87017,-97.962849,953
684,29.878492,-97.965586,85
685,30.177624,-98.067552,672
686,30.183656,-98.035565,928
687,30.204068,-98.063961,899
688,30.132727,-98.066773,923
689,30.142357,-98.017092,28
690,30.123464,-98.013422,908
691,30.103535,-97.972025,714
692,30.156158,-97.922656,515
693,30.083197,-98.064494,951
694,30.046219,-97.956417,781
695,30.249732,-98.090132,238
696,30.221504,-98.001452,285
697,30.232619,-98.041958,665
698,30.256626,-98.041382,198
699,30.188322,-97.952201,518
700,29.890125,-97.944039,653
701,29.889557,-97.938971,803
702,29.887069,-97.939213,653
703,29.887943,-97.936567,803
704,29.881756,-97.942358,653
705,29.88051,-97.945474,407
706,29.87795,-97.943205,221
707,29.875888,-97.949028,407
708,29.882519,-97.927999,171
709,29.881815,-97.932862,171
710,29.887993,-97.932527,171
711,29.886075,-97.93607,171
712,29.893192,-97.93209,803
713,29.888441,-97.926399,40
714,29.893447,-97.938495,803
715,29.896727,-97.936225,803
716,29.886506,-97.942882,653
717,29.887606,-97.948487,653
718,29.884797,-97.945336,653
719,29.884042,-97.942473,653
720,29.881787,-97.947927,407
721,29.884353,-97.901427,257
722,29.873067,-97.90967,107
723,29.883636,-97.91573,367
724,29.892753,-97.908106,2
725,29.864351,-97.902071,657
726,29.867046,-97.923945,107
727,29.880741,-97.917204,367
728,29.875409,-97.92325,107
729,30.207493,-98.032242,76
730,29.889728,-97.918411,417
731,29.898736,-97.913953,417
732,30.06917,-98.022446,977
733,30.079967,-97.990787,284
734,30.055404,-97.91209,788
735,29.886781,-97.991968,638
736,29.908987,-97.972402,356
737,29.889408,-97.970463,789
738,29.863587,-97.978738,195
739,29.897388,-97.954655,471
740,29.85407,-97.978959,195
741,29.842171,-97.996419,910
742,30.139214,-98.214295,652
743,30.190007,-98.168253,233
744,30.174555,-98.153721,233
745,30.1517,-98.154464,384
746,30.212417,-98.172451,475
747,30.22956,-98.135289,775
748,30.220277,-98.100548,623
749,30.158316,-98.110565,559
750,30.0445,-98.141486,300
751,30.072636,-98.204517,732
752,30.115504,-98.192023,267
753,30.019708,-98.232533,887
754,29.995598,-98.167437,894
755,30.1139,-98.246902,333
756,29.996347,-98.122024,587
757,30.02551,-98.111827,480
758,30.067054,-98.102025,123
759,30.10241,-98.14819,931
760,30.133525,-98.106678,104
761,30.271372,-98.086092,238
762,29.908768,-97.917075,826
763,30.277913,-98.137608,872
764,30.3165,-98.139466,180
765,30.291503,-98.177276,370
766,30.24439,-98.18288,859
767,30.167197,-98.235175,81
768,30.185976,-98.229548,637
769,30.191844,-98.103685,491
770,30.184616,-98.091417,142
771,29.876772,-97.898031,257
772,29.850646,-97.932248,614
773,29.850705,-97.913015,413
774,29.859432,-97.925423,614
775,29.835223,-97.937747,900
776,29.855514,-97.945814,467
777,29.832686,-97.918297,298
778,29.826014,-97.932603,900
779,29.807481,-97.955,607
780,29.773576,-97.997444,594
781,29.786936,-97.976479,286
782,29.845097,-97.972475,725
783,29.855842,-97.963431,896
784,29.836644,-97.955373,17
785,29.837248,-97.982015,289
786,29.825153,-97.995132,57
787,29.859848,-97.970835,195
788,29.814299,-98.008047,675
789,29.826534,-97.980837,762
790,29.813303,-97.980242,286
791,29.805415,-98.002584,675
792,29.947011,-97.918627,279
793,29.928589,-97.917713,826
794,30.501019,-97.716276,599
795,29.89784,-97.928405,40
796,29.837992,-97.945905,17
797,29.871145,-97.9443,221
798,29.868781,-97.942805,221
799,29.863849,-97.941585,364
800,29.863564,-97.948336,467
801,29.860725,-97.944829,467
802,29.846717,-97.954871,896
803,30.012564,-97.752352,426
804,30.067731,-97.825872,636
805,30.01983,-97.868262,299
806,30.038809,-97.873747,199
807,30.067665,-97.849967,913
808,30.08096,-97.83664,350
809,30.083844,-97.815399,352
810,30.142626,-97.856741,854
811,30.126275,-97.877768,992
812,30.103692,-97.899298,521
813,30.090338,-97.88967,521
814,29.959885,-97.801203,620
815,29.989355,-97.816935,52
816,29.953982,-97.862871,756
817,29.993338,-97.863652,22
818,30.005026,-97.844911,369
819,30.017435,-97.826144,585
820,30.093477,-97.86188,618
821,30.080607,-97.8601,618
822,30.070587,-97.864712,913
823,29.953701,-97.889945,87
824,29.973582,-97.882525,355
825,29.983051,-97.900371,790
826,29.985158,-97.879181,919
827,29.987072,-97.887542,214
828,30.040951,-97.895792,315
829,30.021565,-97.896007,398
830,29.994624,-97.874248,919
831,29.991428,-97.879703,214
832,29.996685,-97.8902,214
833,29.927373,-97.884313,301
834,29.898203,-97.896467,2
835,29.900537,-97.901977,2
836,29.909386,-97.905904,2
837,29.936266,-97.889216,888
838,29.900711,-97.942748,262
839,29.904187,-97.949324,262
840,29.894799,-97.945184,262
841,29.932993,-97.839249,868
842,29.909249,-97.869469,205
843,29.893191,-97.890449,549
844,29.9514,-97.81998,173
845,30.012707,-97.90673,398
846,30.276044,-97.858429,701
847,30.226363,-97.874022,204
848,30.174384,-97.984925,239
849,30.269483,-97.748407,944
850,30.629693,-97.936611,882
851,30.56515,-97.878483,137
852,30.671293,-97.949297,702
853,30.639453,-97.894479,34
854,30.561981,-97.854201,236
855,30.683345,-97.94289,702
856,30.766585,-97.9192,181
857,30.629598,-97.845097,193
858,30.639299,-97.6662,957
859,30.642343,-97.674662,957
860,30.668799,-97.659879,192
861,30.628872,-97.671426,501
862,30.668363,-97.686088,804
863,30.880283,-97.824754,305
864,30.470096,-97.449694,325
865,30.74618,-97.845772,454
866,30.689129,-97.862864,814
867,30.575118,-97.820445,363
868,30.876242,-97.77401,634
869,30.840902,-97.747424,206
870,30.78796,-97.831057,9
871,30.685782,-97.776485,911
872,30.658614,-97.695213,804
873,30.637172,-97.681379,957
874,30.629455,-97.700115,140
875,30.627732,-97.68395,140
876,30.852528,-97.680214,689
877,30.831092,-97.612867,38
878,30.625071,-97.676133,501
879,30.616469,-97.686217,547
880,30.623086,-97.697171,140
881,30.834316,-97.589673,308
882,30.656402,-97.262914,261
883,30.631001,-97.410462,713
884,30.577103,-97.332716,248
885,30.577643,-97.392433,382
886,30.539989,-97.216877,604
887,30.549645,-97.386987,663
888,30.567615,-97.398214,663
889,30.572072,-97.41793,414
890,30.460507,-97.1884,296
891,30.54927,-97.453586,755
892,29.861169,-97.937891,364
893,29.864771,-97.935216,364
894,29.867991,-97.937213,364
895,29.870864,-97.934639,221
896,29.864473,-97.916837,107
897,29.862569,-97.930338,364
898,29.857715,-97.936981,614
899,29.877395,-97.931265,972
900,29.871417,-97.93772,221
901,29.875356,-97.933272,972
902,29.870438,-97.94043,221
903,29.874089,-97.937071,221
904,29.879425,-97.934873,171
905,29.873855,-97.941696,221
906,29.882817,-97.936327,171
907,29.888777,-97.953068,471
908,29.881982,-97.94009,653
909,29.884244,-97.940672,653
910,29.875972,-97.939316,221
911,29.880838,-97.938202,653
912,29.88466,-97.938557,653
913,29.88739,-97.941105,653
914,29.866701,-97.955129,953
915,29.859982,-97.953523,467
916,29.871867,-97.948372,221
917,29.87049,-97.955337,953
918,29.892357,-97.94926,262
919,29.877414,-97.937005,221
920,29.846154,-97.898921,413
921,29.883181,-97.956601,85
922,29.890512,-97.962115,789
923,30.581871,-97.431543,981
924,30.570241,-97.845304,564
925,30.547881,-97.832053,174
926,30.516189,-97.819854,55
927,30.498781,-97.810987,603
928,30.476706,-97.789975,319
929,30.526117,-97.8279,110
930,30.532518,-97.804664,443
931,30.537807,-97.790202,494
932,30.52354,-97.78296,116
933,30.65866,-97.776031,288
934,30.658855,-97.849323,144
935,30.678669,-97.678827,18
936,30.69052,-97.662227,583
937,30.69345,-97.644873,59
938,30.70634,-97.676452,492
939,30.717388,-97.745749,145
940,30.756782,-97.762274,282
941,30.84433,-97.792283,58
942,30.83935,-97.791475,58
943,30.84407,-97.797976,58
944,30.833925,-97.833141,358
945,30.820892,-97.877474,149
946,30.809086,-97.788775,526
947,30.787546,-97.733844,282
948,30.594021,-97.681147,965
949,30.592574,-97.705395,1
950,30.610956,-97.746309,542
951,30.624548,-97.751006,542
952,30.603434,-97.659525,271
953,30.605496,-97.646404,421
954,30.633028,-97.636136,272
955,30.623878,-97.634323,272
956,30.6491,-97.637474,738
957,30.675787,-97.63588,763
958,30.67039,-97.646313,192
959,30.659924,-97.615333,948
960,30.68416,-97.648796,583
961,30.580698,-97.634348,933
962,30.688393,-97.56823,481
963,30.605618,-97.407175,455
964,30.547251,-97.412218,207
965,30.572237,-97.424569,414
966,30.650184,-97.46063,880
967,30.675472,-97.416823,853
968,30.749076,-97.498686,641
969,30.728051,-97.451663,844
970,30.75436,-97.408646,218
971,30.570439,-97.411401,414
972,30.43632,-97.251463,375
973,30.472299,-97.262528,280
974,30.48328,-97.224474,820
975,30.445868,-97.232566,26
976,30.479296,-97.306116,71
977,30.43847,-97.286145,811
978,30.443943,-97.370321,490
979,30.455046,-97.339311,520
980,30.515092,-97.408642,823
981,30.488553,-97.410368,60
982,30.479036,-97.392374,813
983,30.493829,-97.35547,967
984,30.522277,-97.308176,674
985,30.505589,-97.247565,820
986,30.504025,-97.182869,368
987,30.565058,-97.259618,401
988,30.62155,-97.263684,37
989,30.631593,-97.319296,64
990,30.660884,-97.299336,210
991,30.599844,-97.309353,990
992,30.590803,-97.346743,836
993,30.621102,-97.369973,493
994,30.65527,-97.346524,893
995,30.584139,-97.4234,457
996,30.560575,-97.423818,414
997,30.555834,-97.41098,969
998,30.581104,-97.381876,724
999,30.511418,-97.468827,717
1000,30.526407,-97.530192,92
1001,30.517308,-97.502997,693
1002,30.509986,-97.55816,998
1003,30.477489,-97.481873,84
1004,30.575191,-97.510374,46
1005,30.578301,-97.465299,755
1006,30.58379,-97.592003,344
1007,30.581783,-97.6213,202
1008,30.603935,-97.594838,344
1009,30.593494,-97.559051,124
1010,30.571888,-97.562385,194
1011,30.550444,-97.586759,761
1012,30.544585,-97.60774,24
1013,30.559709,-97.615336,885
1014,30.612544,-97.569962,828
1015,30.603709,-97.521503,312
1016,30.657724,-97.497322,383
1017,30.681438,-97.518758,118
1018,30.684143,-97.475931,941
1019,30.727033,-97.485999,306
1020,30.741662,-97.534252,170
1021,30.707529,-97.522309,746
1022,30.767866,-97.516497,570
1023,30.804915,-97.569578,682
1024,30.750264,-97.681406,577
1025,30.791238,-97.642916,628
1026,30.69837,-97.627671,498
1027,30.682848,-97.597727,393
1028,30.715183,-97.599677,260
1029,30.726483,-97.560001,403
1030,30.652202,-97.567221,986
1031,30.658509,-97.527026,420
1032,30.744464,-97.349428,503
1033,30.723527,-97.294568,616
1034,30.718481,-97.340303,120
1035,30.711832,-97.41274,866
1036,30.699874,-97.356277,551
1037,30.721099,-97.804395,722
1038,30.713284,-97.917453,230
1039,30.707511,-97.937796,230
1040,30.505476,-97.850632,243
1041,30.502098,-97.831932,578
1042,30.511753,-97.834159,846
1043,30.043099,-97.852821,566
1044,30.521169,-97.847519,830
1045,30.524123,-97.837526,830
1046,30.550258,-97.847503,236
1047,30.536438,-97.857691,560
1048,30.465145,-97.829934,968
1049,30.740886,-97.717294,487
1050,30.476281,-97.719732,126
1051,30.489708,-97.655412,797
1052,30.587174,-97.415829,457
1053,30.405887,-98.02832,766
1054,30.49147,-97.824934,578
1055,30.47081,-97.820694,41
1056,30.530568,-97.821047,588
1057,30.539373,-97.783615,116
1058,30.527955,-97.767089,710
1059,30.506117,-97.763655,247
1060,30.491587,-97.764424,12
1061,30.48459,-97.794481,319
1062,30.498519,-97.782491,988
1063,30.488025,-97.78106,988
1064,30.48333,-97.840841,380
1065,30.545795,-97.825633,174
1066,30.546888,-97.806481,443
1067,30.600584,-97.804895,610
1068,30.628699,-97.811,336
1069,30.508377,-97.815848,55
1070,30.52396,-97.791741,422
1071,30.507357,-97.806002,603
1072,30.511773,-97.789939,422
1073,30.486395,-97.805868,438
1074,30.492048,-97.5281,650
1075,30.905132,-97.800454,655
1076,30.887022,-97.703803,460
1077,30.857003,-97.589002,308
1078,30.837785,-97.539898,431
1079,30.670972,-97.244333,718
1080,30.794371,-97.425623,341
1081,30.826011,-97.51054,163
1082,30.747149,-97.300292,949
1083,30.171221,-97.519633,661
1084,30.136738,-97.560852,886
1085,30.217666,-97.479311,314
1086,30.32676,-97.419806,323
1087,30.359273,-97.397532,182
1088,30.351976,-97.39802,182
1089,30.397006,-97.36545,23
1090,30.42561,-97.259456,375
1091,30.529067,-97.185122,947
1092,30.474429,-97.162178,706
1093,30.609838,-97.218848,504
1094,29.934113,-98.150473,472
1095,29.82497,-97.918829,298
1096,29.800449,-98.015358,675
1097,29.812023,-98.018414,675
1098,29.806018,-97.944241,607
1099,29.835521,-97.9049,413
1100,29.930219,-97.813404,173
1101,30.0113,-97.687029,477
1102,29.988874,-97.742832,143
1103,29.9607,-97.773983,251
1104,30.030532,-97.672595,477
1105,30.102202,-97.609481,593
1106,29.994705,-98.236289,100
1107,30.106389,-98.270406,729
1108,30.270539,-98.206818,816
1109,30.15493,-98.251617,81
1110,30.193282,-98.236528,637
1111,30.320581,-98.18806,971
1112,30.422055,-98.127277,976
1113,30.530257,-98.103332,97
1114,30.659689,-98.030267,955
1115,30.709085,-98.002919,391
1116,30.840504,-97.903407,461
1117,29.869985,-97.892405,657
1118,30.43398,-98.04384,817
1119,30.4147,-97.974328,309
1120,30.406566,-97.85219,172
1121,30.416801,-97.846884,897
1122,30.407083,-97.761927,735
1123,30.409064,-97.764124,735
1124,30.408449,-97.758688,735
1125,30.408061,-97.744922,152
1126,30.41402,-97.745725,152
1127,30.407847,-97.744691,152
1128,30.415637,-97.745701,152
1129,30.412533,-97.731664,970
1130,30.407919,-97.715814,101
1131,30.40912,-97.716095,101
1132,30.410378,-97.684787,507
1133,30.407524,-97.677913,946
1134,30.415302,-97.676469,946
1135,30.409447,-97.647814,608
1136,30.231017,-97.516594,586
1137,30.236316,-97.520151,586
1138,30.401773,-97.634956,445
1139,30.413554,-97.623711,78
1140,30.395078,-97.589682,168
1141,30.416815,-97.575833,575
1142,30.30344,-97.526112,119
1143,30.307684,-97.514671,119
1144,30.33638,-97.51792,569
1145,30.334995,-97.509891,569
1146,30.375385,-97.528483,297
1147,30.397315,-97.519255,974
1148,30.408455,-97.512478,377
1149,30.409589,-98.109364,156
1150,30.385513,-98.086011,524
1151,30.406921,-98.058975,346
1152,30.407793,-97.874061,980
1153,30.439673,-97.873379,980
1154,30.403618,-97.853717,172
1155,30.410956,-97.791897,223
1156,30.399573,-97.783123,582
1157,30.411092,-97.768154,735
1158,30.404545,-97.768691,582
1159,30.409917,-97.747504,152
1160,30.407781,-97.747856,152
1161,30.414459,-97.746412,152
1162,30.407968,-97.745632,152
1163,30.413568,-97.745912,152
1164,30.405556,-97.745455,959
1165,30.406374,-97.724071,664
1166,30.408849,-97.7147,101
1167,30.407206,-97.721641,664
1168,30.408731,-97.712834,101
1169,30.407364,-97.714123,101
1170,30.409801,-97.711471,101
1171,30.408358,-97.715529,101
1172,30.407968,-97.696596,507
1173,30.412293,-97.67463,946
1174,30.40787,-97.675483,946
1175,30.4133,-97.673628,946
1176,30.403298,-97.675161,946
1177,30.414308,-97.672668,946
1178,30.406589,-97.674045,946
1179,30.412976,-97.672042,946
1180,30.407529,-97.673112,946
1181,30.403013,-97.605632,508
1182,30.400877,-97.545066,540
1183,30.425266,-97.532488,6
1184,30.407188,-97.541096,540
1185,30.505154,-97.519605,693
1186,30.51811,-97.517307,693
1187,30.539446,-97.527361,394
1188,30.537219,-97.513917,394
1189,30.546126,-97.526327,394
1190,30.550371,-97.502511,394
1191,30.593317,-97.519759,312
1192,30.59844,-97.503766,964
1193,30.637256,-97.519283,609
1194,30.637913,-97.503543,609
1195,30.674133,-97.519584,118
1196,30.655746,-97.51178,420
1197,30.715859,-97.509234,484
1198,30.736201,-97.517674,874
1199,30.72774,-97.51612,874
1200,30.786327,-97.570382,682
1201,30.813891,-97.514762,163
1202,30.753481,-97.522255,570
1203,30.759103,-97.502626,570
1204,30.276789,-97.502484,565
1205,30.294375,-97.524078,509
1206,30.350266,-97.500359,21
1207,30.410372,-97.51129,377
1208,30.397977,-97.470816,177
1209,30.405153,-97.499596,377
1210,30.418875,-97.427254,780
1211,30.415024,-97.460113,177
1212,30.399374,-97.381992,23
1213,30.410031,-97.37493,23
1214,30.417783,-97.521358,6
1215,30.443669,-97.517121,458
1216,30.440796,-97.521724,458
1217,30.493528,-97.493465,937
1218,30.589415,-97.53659,523
1219,30.607574,-97.506741,964
1220,30.615287,-97.542575,366
1221,30.666963,-97.495278,383
1222,30.687437,-97.492532,941
1223,30.690823,-97.524148,118
1224,30.729133,-97.531196,874
1225,30.783688,-97.524716,10
1226,30.740209,-97.493845,641
1227,30.766484,-97.479858,132
1228,30.410299,-97.695637,507
1229,30.412131,-97.702847,733
1230,30.408633,-97.70461,101
1231,30.410893,-97.709342,101
1232,30.413835,-97.661196,608
1233,30.405328,-97.66238,943
1234,30.42208,-97.625593,78
1235,30.40409,-97.637802,445
1236,29.987074,-98.049768,353
1237,29.984562,-98.038465,353
1238,30.026318,-98.043982,31
1239,30.03215,-98.039656,31
1240,30.052957,-98.049297,322
1241,30.047991,-98.025834,977
1242,30.1098,-98.068304,339
1243,30.123192,-98.031115,544
1244,30.131643,-98.031699,544
1245,30.149237,-98.051563,408
1246,30.153385,-98.016194,28
1247,30.286319,-98.064664,444
1248,30.291368,-98.034598,423
1249,30.355722,-98.066735,19
1250,30.331214,-98.024116,328
1251,30.37458,-98.041928,19
1252,29.883707,-97.965652,789
1253,29.893214,-97.964866,789
1254,29.886653,-97.962478,789
1255,29.887965,-97.953982,471
1256,29.884175,-97.948286,407
1257,29.884944,-97.949509,407
1258,29.885791,-97.945866,653
1259,29.884912,-97.942571,653
1260,29.88521,-97.940536,653
1261,29.884527,-97.923961,367
1262,29.885258,-97.929695,171
1263,29.882201,-97.921188,367
1264,29.886173,-97.918068,367
1265,29.883649,-97.922986,367
1266,29.882561,-97.921502,367
1267,29.887678,-97.917035,417
1268,29.887809,-97.916563,417
1269,29.884282,-97.908492,257
1270,29.888212,-97.9054,257
1271,29.882033,-97.895876,257
1272,29.888655,-97.886721,549
1273,29.940677,-98.022744,316
1274,29.908608,-98.008721,638
1275,29.917247,-98.051817,354
1276,29.885597,-97.946803,653
1277,29.884687,-97.943954,653
1278,29.883846,-97.94376,653
1279,29.885079,-97.941552,653
1280,29.884391,-97.941438,653
1281,29.885267,-97.940102,653
1282,29.884481,-97.940026,653
1283,29.883169,-97.93868,653
1284,29.884754,-97.936819,171
1285,29.883316,-97.93731,171
1286,29.884907,-97.930244,171
1287,29.88435,-97.931116,171
1288,29.886723,-97.919149,367
1289,29.883183,-97.922476,367
1290,29.888646,-97.916622,417
1291,29.882931,-97.92178,367
1292,30.193978,-98.03592,928
1293,30.194871,-98.049602,899
1294,30.245989,-98.027316,764
1295,30.246378,-98.043262,198
1296,30.345872,-98.027208,328
1297,30.159975,-98.178438,926
1298,30.129515,-98.173062,541
1299,30.143223,-98.135221,406
1300,30.157746,-98.131657,805
1301,30.144817,-98.089328,559
1302,30.16069,-98.090996,559
1303,30.167313,-98.085854,559
1304,30.13787,-98.157966,384
1305,29.967769,-98.189493,656
1306,29.981565,-98.147097,255
1307,30.035229,-98.179821,404
1308,30.058892,-98.162858,999
1309,30.089786,-98.19487,732
1310,30.08205,-98.171247,7
1311,30.104379,-98.17688,267
1312,30.126281,-98.170259,541
1313,30.004317,-98.18761,201
1314,30.012098,-98.120381,587
1315,30.019125,-98.130309,587
1316,29.999239,-98.101129,54
1317,30.02115,-98.101837,480
1318,30.009134,-98.077175,405
1319,30.015618,-98.070197,405
1320,30.008634,-98.051193,630
1321,30.020471,-98.153274,860
1322,30.094404,-98.170976,7
1323,30.000072,-98.200099,201
1324,30.101001,-98.223676,333
1325,30.047826,-98.198919,404
1326,30.097785,-98.239317,333
1327,30.096546,-98.216512,732
1328,30.099451,-98.18839,732
1329,29.974506,-98.092413,591
1330,29.980102,-98.093545,591
1331,29.994609,-98.090602,54
1332,29.987964,-98.111264,833
1333,30.002568,-98.105036,54
1334,29.941015,-98.091712,122
1335,30.008008,-98.117772,587
1336,29.938804,-98.081782,122
1337,29.981565,-98.139629,255
1338,29.986542,-98.120568,833
1339,29.92891,-98.069342,354
1340,29.925171,-98.064188,354
1341,29.985071,-98.089903,591
1342,29.985865,-98.075657,591
1343,29.998843,-98.084241,405
1344,30.081168,-98.171429,7
1345,30.072243,-98.140645,719
1346,30.107668,-98.131384,931
1347,30.045394,-98.101753,123
1348,30.03475,-98.118658,705
1349,30.06887,-98.125564,719
1350,30.069955,-98.090106,553
1351,30.102064,-98.096006,339
1352,30.12629,-98.112328,104
1353,30.121344,-98.088327,339
1354,30.061194,-98.075962,553
1355,30.027515,-98.128455,705
1356,30.116391,-98.137431,931
1357,30.129918,-98.135692,406
1358,30.123076,-98.135616,931
1359,30.048688,-98.097949,123
1360,30.058309,-98.049009,322
1361,30.055926,-98.092073,123
1362,30.058932,-98.080648,553
1363,30.10984,-98.090537,339
1364,30.131976,-98.08916,104
1365,30.179424,-98.191269,681
1366,30.182829,-98.162832,233
1367,30.257611,-98.169802,859
1368,30.22719,-98.169205,475
1369,30.272555,-98.179416,35
1370,30.300608,-98.166031,370
1371,30.300407,-98.170914,370
1372,30.162056,-98.141627,805
1373,30.199549,-98.184398,681
1374,30.197855,-98.162057,233
1375,30.198206,-98.179426,681
1376,30.200172,-98.194485,681
1377,30.27055,-98.068497,444
1378,30.280318,-98.155751,872
1379,30.256065,-98.154836,859
1380,30.255864,-98.132785,450
1381,30.285707,-98.103249,128
1382,30.256388,-98.109119,238
1383,30.173312,-98.240938,81
1384,30.178501,-98.232143,637
1385,30.159139,-98.245775,81
1386,30.179132,-98.230195,637
1387,30.188182,-98.214616,189
1388,30.193112,-98.214579,189
1389,30.189203,-98.109283,491
1390,30.189269,-98.102602,491
1391,30.221912,-98.151964,475
1392,30.205816,-98.144811,43
1393,30.205308,-98.133052,43
1394,30.219776,-98.118518,775
1395,30.20463,-98.11855,43
1396,30.198217,-98.107129,491
1397,30.210052,-98.087482,623
1398,30.213293,-98.084826,623
1399,30.191588,-98.095033,142
1400,30.246396,-98.12472,450
1401,30.254291,-98.082014,238
1402,30.182808,-98.124873,920
1403,30.198168,-98.161836,233
1404,30.191378,-98.162277,233
1405,30.18744,-98.115318,920
1406,30.205647,-98.128349,43
1407,30.227215,-98.154469,475
1408,30.256152,-98.143003,450
1409,30.233872,-98.124752,775
1410,30.167629,-98.086571,559
1411,30.179423,-98.087313,142
1412,30.159349,-98.068204,408
1413,30.191384,-98.081811,142
1414,30.191338,-98.087434,142
1415,30.193977,-98.102295,491
1416,30.181782,-98.087413,142
1417,30.19133,-98.093042,142
1418,30.189304,-98.099051,491
1419,30.192514,-98.064321,672
1420,30.237465,-98.065915,983
1421,30.249399,-98.058146,983
1422,30.246189,-98.047347,198
1423,30.299922,-98.088865,128
1424,30.368436,-98.072766,524
1425,30.393322,-98.067956,346
1426,29.841741,-97.912779,413
1427,29.848594,-97.905366,413
1428,29.869138,-97.91176,107
1429,29.869205,-97.902758,657
1430,29.883152,-97.909806,257
1431,29.880615,-97.912757,367
1432,29.878232,-97.907425,257
1433,29.818075,-97.998524,57
1434,29.823262,-98.005313,675
1435,29.817127,-97.99684,57
1436,29.818931,-97.994699,57
1437,29.823926,-97.980733,762
1438,29.82181,-98.007133,675
1439,29.81739,-98.012155,675
1440,29.819486,-97.994863,57
1441,29.818343,-97.996504,57
1442,29.814034,-98.000977,675
1443,29.820301,-97.993655,57
1444,29.814105,-98.000616,675
1445,29.822026,-97.99246,57
1446,29.815446,-97.96404,843
1447,29.830284,-97.96121,17
1448,29.828849,-97.983841,762
1449,29.835607,-97.976302,289
1450,29.834256,-97.978198,289
1451,29.841971,-97.974684,725
1452,29.846351,-97.979676,725
1453,29.842559,-97.975355,725
1454,29.850844,-97.974942,725
1455,29.813421,-97.967589,843
1456,29.806774,-97.978529,286
1457,29.838967,-97.973318,289
1458,29.834027,-97.978787,289
1459,29.840191,-97.972651,289
1460,29.836078,-97.976833,289
1461,29.840025,-97.97189,289
1462,29.84932,-97.976323,725
1463,29.820649,-97.955213,843
1464,29.825662,-97.942213,900
1465,29.810918,-98.003617,675
1466,29.797524,-97.994277,286
1467,29.780004,-97.992683,594
1468,29.80978,-98.005157,675
1469,29.810878,-98.004831,675
1470,29.804461,-97.982193,286
1471,29.816411,-97.996523,57
1472,29.80115,-97.994277,286
1473,29.810904,-98.003892,675
1474,29.815126,-97.999061,57
1475,29.815366,-97.999757,57
1476,29.812963,-98.00256,675
1477,29.817537,-97.997344,57
1478,29.862223,-97.998377,178
1479,29.85096,-97.984969,910
1480,29.860719,-97.996498,178
1481,29.850231,-97.984131,910
1482,29.824507,-97.988654,762
1483,29.831786,-97.995633,762
1484,29.847718,-97.981245,910
1485,29.821828,-97.992251,57
1486,29.823465,-97.990057,57
1487,29.834039,-97.992218,762
1488,29.83723,-97.989055,910
1489,29.835006,-97.9781,289
1490,29.827288,-97.985579,762
1491,29.827121,-97.984705,762
1492,29.827685,-97.98604,762
1493,29.825198,-97.988915,762
1494,29.829455,-97.984188,762
1495,29.830066,-97.982813,762
1496,29.830282,-97.98298,762
1497,29.82378,-97.990143,57
1498,29.82846,-97.986415,762
1499,29.796368,-97.968037,286
1500,29.846826,-97.963812,896
1501,29.85373,-97.956148,896
1502,29.828217,-97.944615,900
1503,29.828578,-97.941912,900
1504,29.833369,-97.946962,17
1505,29.832843,-97.941569,900
1506,29.848735,-97.943496,614
1507,29.843343,-97.940454,614
1508,29.855146,-97.971213,195
1509,29.85336,-97.957648,896
1510,29.85126,-97.959659,896
1511,29.847441,-97.964333,896
1512,29.853528,-97.957082,896
1513,29.853599,-97.956728,896
1514,29.84383,-97.967646,725
1515,29.852997,-97.948412,467
1516,29.859231,-97.95031,467
1517,29.865634,-97.943201,364
1518,29.854864,-97.939497,614
1519,29.863038,-97.945704,467
1520,29.865021,-97.943426,364
1521,29.856628,-97.939361,614
1522,29.876116,-97.943103,221
1523,29.869203,-97.940235,221
1524,29.872973,-97.939549,221
1525,29.87758,-97.945016,407
1526,29.879629,-97.94301,653
1527,29.876869,-97.944064,221
1528,29.881903,-97.943378,653
1529,29.883538,-97.943689,653
1530,29.882495,-97.943449,653
1531,29.845758,-97.940197,614
1532,29.854604,-97.930246,614
1533,29.860255,-97.940449,364
1534,29.862253,-97.944222,467
1535,29.866176,-97.943259,364
1536,29.865091,-97.944442,364
1537,29.866953,-97.941952,364
1538,29.861566,-97.948009,467
1539,29.849604,-97.924394,614
1540,29.882041,-97.945704,407
1541,29.823166,-97.952518,17
1542,29.839462,-97.971821,289
1543,29.844947,-97.959837,896
1544,29.839028,-97.953008,17
1545,29.846832,-97.964546,896
1546,29.842668,-97.968462,725
1547,29.844076,-97.967651,725
1548,29.843249,-97.968908,725
1549,29.862841,-97.959953,953
1550,29.861112,-97.957928,953
1551,29.874544,-97.955576,85
1552,29.868395,-97.961723,953
1553,29.867764,-97.961879,953
1554,29.87309,-97.9555,85
1555,29.876557,-97.957934,85
1556,29.880121,-97.961806,85
1557,29.857091,-97.969138,195
1558,29.859917,-97.966063,953
1559,29.865419,-97.962971,953
1560,29.881201,-97.962979,85
1561,29.856668,-97.952744,467
1562,29.858371,-97.950815,467
1563,29.858727,-97.955116,467
1564,29.858642,-97.951706,467
1565,29.857214,-97.953331,467
1566,29.860948,-97.947894,467
1567,29.857198,-97.952916,467
1568,29.862274,-97.947591,467
1569,29.874772,-97.955843,85
1570,29.880348,-97.950762,407
1571,29.880895,-97.949407,407
1572,29.877075,-97.951105,407
1573,29.87622,-97.952048,407
1574,29.877722,-97.950392,407
1575,29.873806,-97.95471,85
1576,29.879877,-97.94805,407
1577,29.878314,-97.94591,407
1578,29.880721,-97.949175,407
1579,29.882637,-97.946433,407
1580,29.880975,-97.946805,407
1581,29.880625,-97.947202,407
1582,29.882953,-97.946819,407
1583,29.881193,-97.949803,407
1584,29.883234,-97.94931,407
1585,29.841662,-97.936114,614
1586,29.834243,-97.928599,298
1587,29.83758,-97.921594,298
1588,29.847286,-97.941906,614
1589,29.845039,-97.918815,413
1590,29.868707,-97.939662,221
1591,29.866108,-97.94225,364
1592,29.868541,-97.938929,364
1593,29.867505,-97.938735,364
1594,29.870902,-97.936456,221
1595,29.867945,-97.935361,364
1596,29.868963,-97.931929,364
1597,29.866739,-97.942596,364
1598,29.868758,-97.939972,221
1599,29.876506,-97.929006,972
1600,29.878542,-97.926102,972
1601,29.88122,-97.92453,367
1602,29.856022,-97.931812,614
1603,29.869094,-97.925668,107
1604,29.872084,-97.91934,107
1605,29.871191,-97.918273,107
1606,29.870111,-97.928014,107
1607,29.874672,-97.9286,972
1608,29.87846,-97.927101,972
1609,29.876501,-97.929761,972
1610,29.879317,-97.926499,972
1611,29.877335,-97.929068,972
1612,29.880004,-97.924818,367
1613,29.87679,-97.928989,972
1614,29.857879,-97.933204,614
1615,29.859559,-97.939136,364
1616,29.86196,-97.938952,364
1617,29.859356,-97.938419,364
1618,29.860462,-97.935727,364
1619,29.85872,-97.934025,614
1620,29.859132,-97.93763,364
1621,29.866104,-97.937439,364
1622,29.862164,-97.937389,364
1623,29.857033,-97.93933,614
1624,29.865529,-97.938682,364
1625,29.865203,-97.938703,364
1626,29.863338,-97.937733,364
1627,29.866078,-97.938666,364
1628,29.872465,-97.934293,972
1629,29.876948,-97.935627,972
1630,29.874456,-97.934677,972
1631,29.876274,-97.939969,221
1632,29.875412,-97.93981,221
1633,29.876448,-97.9387,221
1634,29.875464,-97.938568,221
1635,29.877058,-97.934952,972
1636,29.872558,-97.935146,221
1637,29.871952,-97.936352,221
1638,29.873279,-97.934553,972
1639,29.874938,-97.934728,972
1640,29.879132,-97.936033,171
1641,29.883692,-97.935194,171
1642,29.871325,-97.936415,221
1643,29.87528,-97.931813,972
1644,29.871376,-97.939427,221
1645,29.871593,-97.939456,221
1646,29.870143,-97.939265,221
1647,29.869401,-97.940087,221
1648,29.874302,-97.93838,221
1649,29.874166,-97.939576,221
1650,29.873541,-97.939562,221
1651,29.870384,-97.937174,221
1652,29.88011,-97.939989,653
1653,29.880182,-97.939324,653
1654,29.88144,-97.943323,653
1655,29.879804,-97.942005,653
1656,29.882041,-97.941035,653
1657,29.880037,-97.940663,653
1658,29.88177,-97.939579,653
1659,29.88305,-97.939784,653
1660,29.880724,-97.93681,171
1661,29.882252,-97.939656,653
1662,29.879754,-97.942292,653
1663,29.878688,-97.940413,653
1664,29.88265,-97.942749,653
1665,29.882348,-97.941092,653
1666,29.882869,-97.941188,653
1667,29.882698,-97.942407,653
1668,29.882965,-97.940445,653
1669,29.876883,-97.936028,972
1670,29.877932,-97.938963,221
1671,29.883228,-97.938129,653
1672,29.882553,-97.937165,171
1673,29.877473,-97.932861,972
1674,29.878668,-97.930725,972
1675,29.877842,-97.929681,972
1676,29.882305,-97.931934,171
1677,29.88393,-97.933255,171
1678,29.879275,-97.918292,367
1679,29.88104,-97.920099,367
1680,29.881947,-97.92016,367
1681,29.882011,-97.917562,367
1682,29.877475,-97.916194,367
1683,29.873535,-97.921075,107
1684,29.872239,-97.922415,107
1685,29.880316,-97.923785,367
1686,29.881773,-97.923014,367
1687,29.87959,-97.913879,367
1688,29.852885,-97.898439,413
1689,29.869256,-97.89591,657
1690,29.870444,-97.895752,657
1691,29.878486,-97.901872,257
1692,29.87339,-97.900478,657
1693,30.131698,-98.010044,908
1694,30.147484,-97.983461,737
1695,30.152035,-97.971907,737
1696,29.971708,-97.787475,251
1697,29.963481,-97.777722,251
1698,30.008939,-97.764874,819
1699,30.027667,-97.785745,253
1700,30.033957,-97.778844,535
1701,30.013464,-97.769916,819
1702,30.113119,-97.784722,169
1703,30.116689,-97.781607,169
1704,30.113119,-97.782165,169
1705,30.101967,-97.759692,400
1706,30.148253,-97.854836,854
1707,30.145025,-97.852244,854
1708,30.149554,-97.832825,186
1709,30.140349,-97.832826,186
1710,30.146979,-97.794565,179
1711,30.140553,-97.797024,792
1712,30.148136,-97.793388,179
1713,30.13889,-97.796827,792
1714,30.149231,-97.79128,179
1715,30.144042,-97.793174,179
1716,30.155776,-97.790058,902
1717,30.145684,-97.793334,179
1718,30.164578,-97.77902,902
1719,30.166859,-97.784401,220
1720,30.17234,-97.782741,680
1721,30.178169,-97.778888,680
1722,30.178354,-97.779637,680
1723,30.204722,-97.774484,365
1724,30.227454,-97.779953,851
1725,30.227656,-97.778749,851
1726,30.227437,-97.779343,851
1727,30.230105,-97.788895,187
1728,30.26528,-97.784538,784
1729,30.267711,-97.779086,784
1730,30.265256,-97.783519,784
1731,30.267761,-97.778362,784
1732,30.26533,-97.782286,784
1733,30.266689,-97.779575,784
1734,30.268797,-97.777774,784
1735,30.267535,-97.771498,966
1736,30.325587,-97.779934,558
1737,30.311853,-97.782363,44
1738,30.341,-97.77894,558
1739,30.341546,-97.781731,558
1740,30.399031,-97.782486,582
1741,30.392306,-97.777798,582
1742,29.95748,-97.786545,251
1743,30.044544,-97.794242,253
1744,30.061135,-97.780788,840
1745,30.085718,-97.767393,476
1746,30.092449,-97.781509,476
1747,30.145501,-97.765776,427
1748,30.14972,-97.766207,427
1749,30.153347,-97.711128,466
1750,30.158266,-97.681272,83
1751,30.137567,-97.584342,229
1752,30.147217,-97.577793,229
1753,30.140648,-97.567176,886
1754,30.159513,-97.555305,798
1755,30.158348,-97.776137,902
1756,30.157205,-97.781488,902
1757,30.172017,-97.783811,680
1758,30.179544,-97.782873,680
1759,30.18261,-97.774018,700
1760,30.171832,-97.781082,680
1761,30.183546,-97.77423,700
1762,30.17127,-97.782507,680
1763,30.187451,-97.780446,102
1764,30.192997,-97.778594,102
1765,30.194254,-97.78212,102
1766,30.188994,-97.77993,102
1767,30.206957,-97.778439,365
1768,30.208275,-97.781155,365
1769,30.211058,-97.778963,365
1770,30.210002,-97.779795,365
1771,30.154302,-97.735082,654
1772,30.142173,-97.728856,654
1773,30.22782,-97.774012,851
1774,30.227927,-97.780151,851
1775,30.246641,-97.777001,410
1776,30.244055,-97.781187,410
1777,30.257205,-97.7808,784
1778,30.247075,-97.784821,410
1779,30.260413,-97.770657,595
1780,30.267311,-97.780537,784
1781,30.145195,-97.699584,466
1782,30.149434,-97.696636,466
1783,30.143977,-97.69652,466
1784,30.152491,-97.670395,905
1785,30.145534,-97.673128,905
1786,30.153362,-97.668847,905
1787,30.153831,-97.639306,891
1788,30.283155,-97.776483,98
1789,30.288501,-97.78036,658
1790,30.293797,-97.783106,658
1791,30.295908,-97.783359,658
1792,30.357981,-97.785307,335
1793,30.38252,-97.771031,786
1794,30.146457,-97.624194,14
1795,30.294852,-97.781125,658
1796,30.291665,-97.774304,658
1797,30.297507,-97.780138,658
1798,30.300641,-97.775754,44
1799,30.228138,-97.778887,851
1800,30.228226,-97.781444,851
1801,30.223421,-97.781914,851
1802,30.14862,-97.807197,543
1803,30.144604,-97.808804,543
1804,29.891123,-97.914054,417
1805,29.896446,-97.909096,2
1806,29.893021,-97.911456,417
1807,29.895908,-97.909218,2
1808,29.896952,-97.909541,2
1809,29.904764,-97.912,2
1810,29.915818,-97.910772,826
1811,29.918339,-97.90818,826
1812,29.956683,-97.903285,279
1813,30.028014,-97.910045,315
1814,29.893886,-97.912702,417
1815,29.900771,-97.905448,2
1816,29.894057,-97.911678,417
1817,30.016504,-97.897091,398
1818,29.990932,-97.892708,214
1819,29.966324,-97.926509,279
1820,30.011987,-97.891282,398
1821,30.020791,-97.889466,398
1822,30.014425,-97.859689,299
1823,30.019364,-97.856183,299
1824,30.028356,-97.854691,566
1825,30.014248,-97.85921,299
1826,30.019858,-97.855075,299
1827,30.016986,-97.847265,299
1828,30.014363,-97.812917,585
1829,30.01829,-97.80929,585
1830,30.028376,-97.926097,315
1831,30.015748,-97.859108,299
1832,30.00581,-97.865017,22
1833,30.004704,-97.82677,585
1834,30.095394,-97.895715,521
1835,30.09644,-97.930063,361
1836,30.018492,-97.871239,299
1837,29.89864,-97.973549,356
1838,29.925388,-97.947524,716
1839,29.956176,-97.969228,175
1840,29.937726,-97.932325,359
1841,29.969026,-97.989404,676
1842,29.900238,-97.982998,356
1843,29.983412,-98.00407,676
1844,29.888059,-97.942108,653
1845,29.892343,-97.941204,803
1846,29.884842,-97.943001,653
1847,29.886138,-97.944191,653
1848,29.887377,-97.944393,653
1849,29.891347,-97.941083,803
1850,29.892214,-97.944405,262
1851,29.894504,-97.942072,262
1852,29.896304,-97.944082,262
1853,29.896828,-97.94477,262
1854,29.90526,-97.929784,40
1855,29.917193,-97.933274,359
1856,29.921256,-97.93543,359
1857,29.887756,-97.961289,789
1858,29.891718,-97.95702,471
1859,29.896152,-97.964475,789
1860,29.900516,-97.958233,471
1861,29.896785,-97.948392,262
1862,29.898021,-97.947013,262
1863,29.888057,-97.951664,407
1864,29.889125,-97.950476,471
1865,29.890261,-97.951863,471
1866,29.895617,-97.949694,262
1867,29.893969,-97.951532,471
1868,29.891572,-97.953462,471
1869,29.889994,-97.95523,471
1870,29.890985,-97.952746,471
1871,29.888145,-97.945395,653
1872,29.888858,-97.946341,653
1873,29.890193,-97.947309,262
1874,29.897713,-97.947357,262
1875,29.888328,-97.93012,171
1876,29.885608,-97.926853,171
1877,29.89445,-97.923727,40
1878,29.900543,-97.926663,40
1879,29.891716,-97.926737,40
1880,29.889409,-97.931367,803
1881,29.891985,-97.926032,40
1882,29.89425,-97.928245,40
1883,29.898973,-97.918589,417
1884,29.903718,-97.91319,2
1885,29.892871,-97.941268,803
1886,29.889904,-97.935206,803
1887,29.891224,-97.936081,803
1888,29.894618,-97.935685,803
1889,29.896258,-97.936477,803
1890,29.888698,-97.934407,803
1891,29.887445,-97.935513,803
1892,29.89017,-97.935888,803
1893,29.888847,-97.933304,803
1894,29.895579,-97.932475,803
1895,29.897822,-97.938325,262
1896,29.885398,-97.93914,653
1897,29.88764,-97.939234,653
1898,29.888443,-97.940612,653
1899,29.890831,-97.940999,803
1900,29.887845,-97.93802,803
1901,29.89031,-97.936246,803
1902,29.886562,-97.941802,653
1903,29.885175,-97.940808,653
1904,29.886157,-97.940243,653
1905,29.886604,-97.940314,653
1906,29.888282,-97.941299,653
1907,29.887342,-97.941936,653
1908,29.88561,-97.937555,653
1909,29.886856,-97.937814,803
1910,29.885949,-97.936406,171
1911,29.8872,-97.937886,803
1912,29.885461,-97.938676,653
1913,29.889151,-97.93708,803
1914,29.895984,-97.941451,262
1915,29.887415,-97.923324,367
1916,29.891811,-97.918543,417
1917,29.896415,-97.921533,40
1918,29.88842,-97.917542,417
1919,29.892288,-97.922507,40
1920,29.892966,-97.915739,417
1921,29.892884,-97.917288,417
1922,29.891351,-97.913416,417
1923,29.892317,-97.921909,40
1924,29.893086,-97.91346,417
1925,29.891997,-97.914136,417
1926,29.891126,-97.914385,417
1927,29.885393,-97.925649,367
1928,29.886585,-97.924278,367
1929,29.890532,-97.915493,417
1930,29.887113,-97.917196,367
1931,29.896288,-97.915415,417
1932,30.03879,-97.948547,781
1933,30.047178,-97.988048,106
1934,30.044053,-97.964363,781
1935,30.084815,-98.013181,284
1936,30.075656,-98.001528,284
1937,30.12097,-97.966499,714
1938,30.068102,-97.95782,485
1939,30.059516,-97.989525,106
1940,30.117416,-98.027066,544
1941,30.124197,-98.031112,544
1942,30.131151,-98.015189,908
1943,30.12078,-97.957285,86
1944,29.938037,-97.893994,888
1945,29.950238,-97.884295,87
1946,29.94924,-97.87881,87
1947,29.950177,-97.878941,87
1948,29.957876,-97.876596,756
1949,29.915845,-97.848869,567
1950,29.926522,-97.83059,173
1951,29.947856,-97.880945,87
1952,29.942481,-97.882516,87
1953,29.95831,-97.877762,756
1954,29.959461,-97.877099,756
1955,29.947617,-97.880283,87
1956,29.94602,-97.844755,868
1957,29.987605,-97.836644,369
1958,29.997898,-97.850285,369
1959,29.992531,-97.842281,369
1960,29.940408,-97.846714,868
1961,29.942311,-97.82705,173
1962,29.952679,-97.837463,868
1963,29.955021,-97.83949,868
1964,29.963873,-97.849113,651
1965,29.941387,-97.80234,362
1966,29.953695,-97.808346,620
1967,29.944065,-97.798207,362
1968,29.914969,-97.896677,301
1969,29.925772,-97.891058,301
1970,29.916378,-97.895242,301
1971,29.922265,-97.892317,301
1972,29.893323,-97.88093,549
1973,29.90875,-97.859715,567
1974,29.916639,-97.878747,205
1975,29.918328,-97.876762,205
1976,29.917495,-97.895689,301
1977,29.910342,-97.899412,2
1978,29.9187,-97.895591,301
1979,29.946666,-97.879885,87
1980,29.928819,-97.864431,567
1981,29.92182,-97.856035,567
1982,29.899395,-97.905689,2
1983,29.901008,-97.904288,2
1984,29.900499,-97.905254,2
1985,29.903743,-97.902465,2
1986,29.895047,-97.899234,2
1987,29.900391,-97.889634,549
1988,29.902267,-97.90481,2
1989,29.900165,-97.906472,2
1990,29.902384,-97.904131,2
1991,29.894185,-97.900996,2
1992,29.895378,-97.904373,2
1993,29.902694,-97.902857,2
1994,29.906661,-97.900582,2
1995,29.909831,-97.900124,2
1996,29.907766,-97.900401,2
1997,29.932,-97.888354,888
1998,29.932101,-97.888748,888
1999,29.93194,-97.88714,888
2000,29.942942,-97.88172,87
2001,29.943195,-97.882564,87
2002,29.944055,-97.88247,87
2003,29.926976,-97.86222,567
2004,29.967815,-97.875762,355
2005,29.969687,-97.89606,790
2006,29.980784,-97.89222,790
2007,29.988604,-97.877025,919
2008,29.98734,-97.881341,214
2009,29.980893,-97.88974,790
2010,29.991005,-97.87655,919
2011,29.998405,-97.875004,22
2012,29.955968,-97.877251,756
2013,29.960048,-97.877361,756
2014,29.961741,-97.879345,756
2015,29.977884,-97.8736,355
2016,29.983903,-97.872529,919
2017,29.980909,-97.869032,919
2018,29.989237,-97.881134,214
2019,29.98842,-97.874175,919
2020,29.979466,-97.874473,355
2021,29.984511,-97.872966,919
2022,29.976854,-97.873979,355
2023,29.984943,-97.873281,919
2024,29.978504,-97.874173,355
2025,29.995007,-97.875758,919
2026,29.993397,-97.880581,214
2027,29.98998,-97.859024,22
2028,29.97571,-97.893847,790
2029,29.991391,-97.883102,214
2030,29.990351,-97.888739,214
2031,29.98995,-97.885996,214
2032,29.989498,-97.882908,214
2033,29.964168,-97.87511,756
2034,29.968051,-97.874544,355
2035,29.967861,-97.875366,355
2036,29.962752,-97.87637,756
2037,29.96523,-97.875565,756
2038,29.971791,-97.858385,651
2039,29.973956,-97.874605,355
2040,29.973379,-97.87508,355
2041,29.999674,-97.872733,22
2042,29.994143,-97.870195,22
2043,29.999144,-97.868018,22
2044,29.99763,-97.86942,22
2045,29.999883,-97.868179,22
2046,30.004292,-97.856041,299
2047,29.999739,-97.86852,22
2048,29.998763,-97.869521,22
2049,30.003548,-97.866759,22
2050,30.005121,-97.865053,22
2051,30.009416,-97.862153,299
2052,30.012584,-97.860204,299
2053,30.013012,-97.861302,299
2054,30.007356,-97.864561,299
2055,29.988217,-97.872226,919
2056,29.988055,-97.871805,919
2057,29.988493,-97.87533,919
2058,29.992077,-97.873158,919
2059,30.005926,-97.864224,22
2060,29.934329,-97.81764,173
2061,29.968192,-97.82357,771
2062,29.95593,-97.810699,620
2063,29.971545,-97.818273,771
2064,29.976888,-97.808745,771
2065,29.989278,-97.80845,52
2066,29.993819,-97.813678,52
2067,29.984568,-97.817677,52
2068,29.961303,-97.832749,868
2069,29.99912,-97.834605,369
2070,30.000962,-97.821896,585
2071,29.965926,-97.795661,620
2072,29.964911,-97.794449,620
2073,30.0323,-97.847014,566
2074,30.041811,-97.842152,566
2075,30.032835,-97.846357,566
2076,30.035577,-97.844714,566
2077,30.035737,-97.846154,566
2078,30.056751,-97.844468,237
2079,30.079887,-97.874335,618
2080,30.085233,-97.874376,618
2081,30.057411,-97.859417,913
2082,30.057888,-97.844172,237
2083,30.085233,-97.849017,800
2084,30.071266,-97.84389,350
2085,30.038451,-97.84427,566
2086,30.032572,-97.847181,566
2087,30.040561,-97.843567,566
2088,30.078846,-97.843981,350
2089,30.081515,-97.842408,350
2090,30.072526,-97.855312,913
2091,30.087256,-97.830648,991
2092,30.07893,-97.823356,108
2093,30.08137,-97.821978,991
2094,30.070274,-97.810744,982
2095,30.094569,-97.810998,352
2096,30.084451,-97.781297,476
2097,30.086583,-97.848656,800
2098,30.081757,-97.823239,991
2099,30.079485,-97.824447,991
2100,30.08252,-97.822475,991
2101,30.076016,-97.825784,108
2102,30.082232,-97.822216,991
2103,30.077746,-97.824566,108
2104,30.092478,-97.848376,800
2105,30.141052,-97.839895,186
2106,30.140901,-97.846645,854
2107,30.042635,-97.884639,199
2108,30.049961,-97.874437,199
2109,30.02744,-97.88916,398
2110,30.027821,-97.874967,199
2111,30.034703,-97.874957,199
2112,30.019116,-97.899698,398
2113,30.021271,-97.854719,299
2114,30.029776,-97.848174,566
2115,30.029759,-97.849023,566
2116,30.02232,-97.853646,299
2117,30.022693,-97.854123,299
2118,30.01694,-97.858252,299
2119,30.068251,-97.873629,913
2120,30.104231,-97.874942,113
2121,30.092148,-97.874553,113
2122,30.097269,-97.874777,113
2123,30.095573,-97.891498,521
2124,30.114723,-97.874813,992
2125,30.124805,-97.862555,334
2126,30.100671,-97.848911,800
2127,30.100605,-97.860949,113
2128,30.117934,-97.872072,992
2129,30.048613,-97.838751,237
2130,30.044463,-97.840432,237
2131,30.04977,-97.837808,237
2132,30.030178,-97.8244,48
2133,30.024867,-97.789988,253
2134,30.058252,-97.821052,636
2135,30.046184,-97.80319,679
2136,30.0519,-97.838021,237
2137,30.046293,-97.840771,237
2138,30.050612,-97.838215,237
2139,30.046387,-97.840289,237
2140,30.058509,-97.803453,982
2141,30.071613,-97.821368,108
2142,30.039995,-97.842572,566
2143,30.04291,-97.842069,566
2144,30.041884,-97.842901,566
2145,30.066202,-97.843692,350
2146,30.058164,-97.833704,636
2147,30.062222,-97.831705,636
2148,30.070839,-97.827419,108
2149,30.057803,-97.840129,237
2150,30.07068,-97.828798,108
2151,30.07683,-97.834637,350
2152,30.077186,-97.82572,108
2153,30.065182,-97.821221,636
2154,30.062529,-97.832814,636
2155,30.07175,-97.82791,108
2156,30.062354,-97.832455,636
2157,30.075844,-97.825589,108
2158,30.057454,-97.834413,237
2159,30.057939,-97.836082,237
2160,30.076801,-97.835362,350
2161,30.077202,-97.824359,108
2162,30.077346,-97.821442,108
2163,30.06067,-97.804117,982
2164,30.070329,-97.806658,982
2165,30.094963,-97.813585,352
2166,30.099335,-97.811285,352
2167,30.098435,-97.81269,352
2168,30.108909,-97.807884,8
2169,30.112057,-97.808283,8
2170,30.108447,-97.8089,8
2171,30.09896,-97.813399,352
2172,30.118369,-97.804675,8
2173,30.109649,-97.809274,8
2174,30.099359,-97.81391,352
2175,30.114252,-97.804835,8
2176,30.112147,-97.805531,8
2177,30.115732,-97.805049,8
2178,30.117582,-97.805905,8
2179,30.142797,-97.802155,792
2180,30.140481,-97.822986,186
2181,30.112819,-97.795296,169
2182,30.088967,-97.819233,352
2183,30.097371,-97.814901,352
2184,30.086778,-97.820047,352
2185,30.095201,-97.81455,352
2186,30.088498,-97.817877,352
2187,30.095267,-97.815648,352
2188,30.08977,-97.817858,352
2189,30.094513,-97.794342,476
2190,30.100245,-97.781725,476
2191,30.109372,-97.806761,8
2192,30.112981,-97.792339,169
2193,30.130465,-97.798256,792
2194,30.129586,-97.799486,792
2195,30.136987,-97.798363,792
2196,30.126556,-97.802268,792
2197,30.138052,-97.796223,792
2198,30.138468,-97.795207,792
2199,30.129632,-97.800342,792
2200,30.13634,-97.796009,792
2201,30.141058,-97.7951,792
2202,30.125677,-97.801787,792
2203,30.136175,-97.791399,792
2204,30.290398,-98.020961,423
2205,30.187541,-97.912924,166
2206,30.182088,-97.89988,330
2207,30.203564,-97.915917,166
2208,30.218164,-97.894051,11
2209,30.234304,-97.910849,879
2210,30.230046,-97.895393,666
2211,30.275312,-97.91381,138
2212,30.28033,-97.904212,138
2213,30.307708,-97.927441,428
2214,30.307834,-97.892772,338
2215,30.289788,-97.917446,138
2216,30.181256,-97.90037,330
2217,30.186433,-97.913792,166
2218,30.201796,-97.918388,166
2219,30.260021,-97.907067,506
2220,30.251859,-97.918722,506
2221,30.282704,-97.876244,701
2222,30.2734,-97.862617,701
2223,30.284143,-97.875022,701
2224,30.277539,-97.819556,32
2225,30.27584,-97.815575,32
2226,30.283842,-97.824162,632
2227,30.276482,-97.803384,502
2228,30.279916,-97.807103,502
2229,30.262313,-97.888867,343
2230,30.386976,-97.903719,294
2231,30.281131,-97.842637,436
2232,30.269707,-97.850778,436
2233,30.274195,-97.812513,32
2234,30.272939,-97.798176,502
2235,30.215547,-98.02279,76
2236,30.196676,-98.013609,903
2237,30.179153,-97.965435,518
2238,30.228909,-97.95054,63
2239,30.208494,-97.972777,584
2240,30.215089,-97.964775,584
2241,30.196532,-97.997346,606
2242,30.217079,-97.962868,63
2243,30.233343,-97.980853,613
2244,30.221726,-97.955777,63
2245,30.153427,-98.008778,28
2246,30.167389,-98.008567,890
2247,30.178509,-98.002331,890
2248,30.194559,-98.029824,928
2249,30.153575,-97.994535,737
2250,30.23749,-98.026025,764
2251,30.24336,-98.021496,764
2252,30.217224,-98.02376,76
2253,30.234439,-98.005382,285
2254,30.232748,-97.991675,613
2255,30.231634,-97.999975,285
2256,30.180144,-97.966104,518
2257,30.174159,-97.929221,985
2258,30.161605,-97.952457,791
2259,30.189131,-97.926918,166
2260,30.197962,-97.920828,166
2261,30.194456,-97.923225,166
2262,30.193069,-97.924096,166
2263,30.225762,-97.946665,63
2264,30.230666,-97.931553,263
2265,30.241088,-97.94163,749
2266,30.240527,-97.920292,879
2267,30.246061,-97.92715,263
2268,30.241424,-97.940784,749
2269,30.223176,-97.952875,63
2270,30.231228,-97.928424,263
2271,30.238639,-97.918139,879
2272,30.303727,-97.997469,794
2273,30.306929,-97.970205,61
2274,30.315871,-97.97799,61
2275,30.309794,-97.965369,61
2276,30.334263,-97.968559,357
2277,30.357365,-97.978713,165
2278,30.354141,-97.96117,486
2279,30.354964,-97.986207,769
2280,30.308263,-97.94502,686
2281,30.304819,-97.935671,428
2282,30.307893,-97.956127,686
2283,30.32185,-97.955313,963
2284,30.359059,-97.954035,486
2285,30.391435,-97.937119,437
2286,30.153247,-97.833034,186
2287,30.183334,-97.849577,731
2288,30.190407,-97.845121,731
2289,30.210837,-97.858899,600
2290,30.218765,-97.838342,381
2291,30.21052,-97.858555,600
2292,30.217492,-97.838693,381
2293,30.202866,-97.837208,295
2294,30.214383,-97.850213,381
2295,30.208101,-97.888666,464
2296,30.219574,-97.843778,381
2297,30.232333,-97.840227,82
2298,30.227366,-97.831071,589
2299,30.248549,-97.850943,539
2300,30.245545,-97.845201,539
2301,30.169901,-97.859566,68
2302,30.176355,-97.835481,304
2303,30.211092,-97.831757,915
2304,30.21668,-97.845643,381
2305,30.211544,-97.825433,915
2306,30.213668,-97.830107,915
2307,30.218339,-97.805362,80
2308,30.213589,-97.814537,80
2309,30.215206,-97.797393,912
2310,30.213555,-97.794039,912
2311,30.223141,-97.841448,381
2312,30.224641,-97.85483,204
2313,30.233736,-97.84074,82
2314,30.23635,-97.832664,589
2315,30.236609,-97.83963,82
2316,30.237141,-97.831908,589
2317,30.237639,-97.83963,82
2318,30.206976,-97.815059,47
2319,30.208596,-97.80447,47
2320,30.213597,-97.850916,381
2321,30.204062,-97.858604,600
2322,30.206944,-97.84541,295
2323,30.23683,-97.837139,82
2324,30.237161,-97.837182,82
2325,30.23695,-97.842302,82
2326,30.236655,-97.842259,82
2327,30.174337,-97.888236,683
2328,30.180271,-97.878955,683
2329,30.199346,-97.867275,600
2330,30.180052,-97.878449,683
2331,30.185813,-97.874961,146
2332,30.199122,-97.865671,600
2333,30.200434,-97.877747,464
2334,30.175337,-97.85482,731
2335,30.190033,-97.89058,330
2336,30.188385,-97.89214,330
2337,30.157165,-97.859768,68
2338,30.16629,-97.860619,68
2339,30.165113,-97.860279,68
2340,30.193757,-97.85882,600
2341,30.199057,-97.871973,146
2342,30.198771,-97.852364,295
2343,30.207564,-97.860569,600
2344,30.20827,-97.861604,600
2345,30.220789,-97.872676,204
2346,30.23047,-97.87927,448
2347,30.227623,-97.872836,204
2348,30.243252,-97.883117,448
2349,30.247218,-97.888438,343
2350,30.240749,-97.880658,448
2351,30.236775,-97.877965,448
2352,30.243905,-97.879527,448
2353,30.25574,-97.890434,343
2354,30.242347,-97.878275,448
2355,30.2569,-97.871023,235
2356,30.245212,-97.864037,235
2357,30.244091,-97.863216,235
2358,30.240407,-97.8914,666
2359,30.236802,-97.8836,448
2360,30.221946,-97.892219,11
2361,30.236646,-97.900652,666
2362,30.238761,-97.890584,666
2363,30.260195,-97.902225,506
2364,30.256776,-97.893795,343
2365,30.257265,-97.88907,343
2366,30.25114,-97.896549,343
2367,30.257047,-97.904199,506
2368,30.216061,-97.8624,204
2369,30.220274,-97.85766,204
2370,30.225608,-97.868584,204
2371,30.229763,-97.864518,204
2372,30.227832,-97.861267,204
2373,30.222852,-97.862833,204
2374,30.227426,-97.860449,204
2375,30.236052,-97.854532,825
2376,30.23514,-97.854813,825
2377,30.223181,-97.871649,204
2378,30.223243,-97.863618,204
2379,30.217862,-97.852537,381
2380,30.223843,-97.855347,204
2381,30.218741,-97.854334,204
2382,30.273753,-97.856936,701
2383,30.251431,-97.85779,539
2384,30.254374,-97.864878,235
2385,30.249645,-97.853226,539
2386,30.173459,-97.823559,847
2387,30.179605,-97.819921,847
2388,30.173662,-97.816884,847
2389,30.173886,-97.809477,371
2390,30.176355,-97.832375,304
2391,30.185679,-97.816079,232
2392,30.185283,-97.810546,945
2393,30.179238,-97.795686,680
2394,30.180182,-97.79517,680
2395,30.182422,-97.788699,680
2396,30.172747,-97.785005,680
2397,30.199803,-97.80716,47
2398,30.191134,-97.812608,232
2399,30.202665,-97.806668,47
2400,30.180485,-97.802237,945
2401,30.180831,-97.807529,945
2402,30.178514,-97.808159,945
2403,30.177279,-97.803448,945
2404,30.202762,-97.812793,47
2405,30.18864,-97.828925,304
2406,30.176355,-97.833872,304
2407,30.1607,-97.802057,371
2408,30.164189,-97.830006,847
2409,30.169231,-97.825103,847
2410,30.187778,-97.827104,232
2411,30.194472,-97.830519,232
2412,30.199763,-97.820203,232
2413,30.201214,-97.838303,295
2414,30.195122,-97.842094,295
2415,30.191706,-97.814837,232
2416,30.197267,-97.816427,232
2417,30.195762,-97.821196,232
2418,30.189681,-97.824843,232
2419,30.198839,-97.819117,232
2420,30.172226,-97.799273,371
2421,30.166962,-97.788279,220
2422,30.173904,-97.798642,371
2423,30.174077,-97.790784,680
2424,30.163204,-97.788333,220
2425,30.155768,-97.790981,902
2426,30.162464,-97.78959,220
2427,30.166939,-97.787129,220
2428,30.160891,-97.787557,902
2429,30.162002,-97.787985,220
2430,30.173786,-97.80677,371
2431,30.157098,-97.79141,902
2432,30.149732,-97.793656,179
2433,30.156987,-97.788798,902
2434,30.165459,-97.787076,220
2435,30.185486,-97.802486,945
2436,30.183698,-97.792438,680
2437,30.198722,-97.791851,633
2438,30.192877,-97.790057,102
2439,30.194474,-97.783017,102
2440,30.19698,-97.787501,633
2441,30.199096,-97.793366,633
2442,30.200171,-97.798499,633
2443,30.194362,-97.789132,102
2444,30.207745,-97.794017,633
2445,30.202191,-97.804482,47
2446,30.199384,-97.805942,47
2447,30.198903,-97.802201,47
2448,30.189777,-97.790227,102
2449,30.182928,-97.786171,680
2450,30.191804,-97.783996,102
2451,30.180322,-97.790013,680
2452,30.183114,-97.781832,680
2453,30.204353,-97.791199,633
2454,30.21132,-97.789122,633
2455,30.210516,-97.786904,633
2456,30.198363,-97.790864,633
2457,30.202228,-97.784275,633
2458,30.205473,-97.790072,633
2459,30.209203,-97.784479,365
2460,30.222801,-97.805243,80
2461,30.22805,-97.809223,758
2462,30.233858,-97.821453,996
2463,30.23245,-97.808305,758
2464,30.232666,-97.818097,996
2465,30.231455,-97.806939,758
2466,30.238975,-97.819349,150
2467,30.244234,-97.808808,711
2468,30.240218,-97.82839,996
2469,30.238702,-97.82134,996
2470,30.257974,-97.812264,612
2471,30.218583,-97.806739,80
2472,30.215003,-97.813629,80
2473,30.23355,-97.810437,758
2474,30.236386,-97.825435,996
2475,30.233955,-97.810455,758
2476,30.233651,-97.818327,996
2477,30.244695,-97.807022,711
2478,30.24515,-97.80612,711
2479,30.237759,-97.820834,996
2480,30.243412,-97.782109,410
2481,30.245978,-97.807716,711
2482,30.249719,-97.806316,711
2483,30.251923,-97.802314,711
2484,30.263752,-97.816613,612
2485,30.218206,-97.82717,915
2486,30.233436,-97.826613,589
2487,30.227029,-97.830077,589
2488,30.232864,-97.825502,589
2489,30.23606,-97.829883,589
2490,30.235193,-97.825605,996
2491,30.236837,-97.825746,996
2492,30.236089,-97.824203,996
2493,30.219506,-97.826329,915
2494,30.236495,-97.830177,589
2495,30.236772,-97.830217,589
2496,30.231272,-97.827504,589
2497,30.222202,-97.835212,381
2498,30.221992,-97.834969,381
2499,30.231272,-97.826983,589
2500,30.219835,-97.836259,381
2501,30.220703,-97.836875,381
2502,30.217456,-97.834436,381
2503,30.23648,-97.824848,996
2504,30.237683,-97.823722,996
2505,30.234639,-97.824175,996
2506,30.236251,-97.822684,996
2507,30.237186,-97.821308,996
2508,30.237333,-97.822571,996
2509,30.237105,-97.822005,996
2510,30.234337,-97.820512,996
2511,30.23579,-97.823091,996
2512,30.260888,-97.814364,612
2513,30.263578,-97.816797,612
2514,30.266143,-97.817979,612
2515,30.2716,-97.817588,32
2516,30.271717,-97.817882,32
2517,30.267828,-97.81834,612
2518,30.265414,-97.818023,612
2519,30.218078,-97.795323,912
2520,30.227708,-97.808527,758
2521,30.232107,-97.800515,372
2522,30.233286,-97.796057,372
2523,30.232689,-97.798636,372
2524,30.235575,-97.793702,372
2525,30.23398,-97.797025,372
2526,30.23697,-97.798816,372
2527,30.232953,-97.794725,372
2528,30.220448,-97.793757,912
2529,30.222744,-97.798451,912
2530,30.229003,-97.801013,372
2531,30.230355,-97.789878,187
2532,30.223115,-97.799201,912
2533,30.230378,-97.788003,187
2534,30.229342,-97.78654,187
2535,30.234377,-97.796031,372
2536,30.235927,-97.79778,372
2537,30.232603,-97.800213,372
2538,30.235198,-97.794501,372
2539,30.233339,-97.798214,372
2540,30.232583,-97.793235,372
2541,30.229617,-97.788557,187
2542,30.228047,-97.801512,372
2543,30.228254,-97.789269,187
2544,30.229025,-97.799467,372
2545,30.230386,-97.793822,372
2546,30.230122,-97.797975,372
2547,30.217546,-97.801713,912
2548,30.225331,-97.803685,758
2549,30.231462,-97.804014,758
2550,30.231804,-97.804853,758
2551,30.232967,-97.800718,372
2552,30.232413,-97.80632,758
2553,30.232432,-97.807216,758
2554,30.238041,-97.798967,372
2555,30.232875,-97.808476,758
2556,30.233151,-97.807964,758
2557,30.232009,-97.806884,758
2558,30.237916,-97.79928,372
2559,30.225517,-97.790699,187
2560,30.236651,-97.792052,187
2561,30.237902,-97.789945,187
2562,30.233587,-97.785525,187
2563,30.230721,-97.789249,187
2564,30.232393,-97.792418,187
2565,30.236646,-97.78352,187
2566,30.233574,-97.794596,372
2567,30.23119,-97.791055,187
2568,30.233917,-97.795234,372
2569,30.260056,-97.805347,151
2570,30.261715,-97.80888,151
2571,30.256001,-97.80054,151
2572,30.260262,-97.794047,337
2573,30.258713,-97.79617,337
2574,30.260209,-97.79324,337
2575,30.260195,-97.810167,151
2576,30.258993,-97.797666,337
2577,30.272563,-97.797651,502
2578,30.270391,-97.791447,337
2579,30.263095,-97.788804,337
2580,30.260676,-97.794025,337
2581,30.25742,-97.799849,151
2582,30.26073,-97.792218,337
2583,30.262343,-97.789257,337
2584,30.266681,-97.805797,151
2585,30.262226,-97.791986,337
2586,30.263327,-97.789245,337
2587,30.24763,-97.804075,711
2588,30.251005,-97.806613,711
2589,30.252168,-97.805827,151
2590,30.255017,-97.803706,151
2591,30.258601,-97.802677,151
2592,30.250175,-97.802627,711
2593,30.253313,-97.801443,151
2594,30.255686,-97.803534,151
2595,30.256627,-97.802043,151
2596,30.272874,-97.801035,502
2597,30.274274,-97.80014,502
2598,30.252789,-97.784927,410
2599,30.264663,-97.78723,784
2600,30.26362,-97.787056,784
2601,30.266277,-97.782899,784
2602,30.264301,-97.788165,337
2603,30.263404,-97.789885,337
2604,30.264583,-97.784744,784
2605,30.265011,-97.786332,784
2606,30.289039,-97.86919,701
2607,30.303022,-97.843429,730
2608,30.33747,-97.864691,715
2609,30.341261,-97.881847,5
2610,30.35662,-97.832265,855
2611,30.394252,-97.845181,691
2612,30.398789,-97.844551,691
2613,30.309888,-97.844822,351
2614,30.313104,-97.852347,351
2615,30.370289,-97.860451,222
2616,30.312663,-97.881033,659
2617,30.316056,-97.872294,659
2618,30.331027,-97.885542,5
2619,30.322847,-97.87288,659
2620,30.377304,-97.884445,222
2621,30.377412,-97.879879,222
2622,30.382368,-97.871525,222
2623,30.394185,-97.868841,222
2624,30.389427,-97.882163,222
2625,30.394712,-97.866069,222
2626,30.283109,-97.810687,502
2627,30.298997,-97.81519,185
2628,30.298207,-97.802389,441
2629,30.314974,-97.826522,185
2630,30.309577,-97.826156,185
2631,30.316063,-97.825211,185
2632,30.309545,-97.825762,185
2633,30.321072,-97.816305,473
2634,30.290013,-97.819354,632
2635,30.310491,-97.801552,925
2636,30.308132,-97.796794,441
2637,30.313248,-97.79433,925
2638,30.322091,-97.815584,473
2639,30.305985,-97.782053,44
2640,30.300892,-97.839075,730
2641,30.295865,-97.82877,942
2642,30.283963,-97.832888,436
2643,30.293077,-97.82808,942
2644,30.298267,-97.827853,942
2645,30.295467,-97.827438,942
2646,30.29285,-97.822481,632
2647,30.299516,-97.818977,185
2648,30.293223,-97.82844,942
2649,30.297657,-97.828157,942
2650,30.281643,-97.842091,436
2651,30.284166,-97.83342,436
2652,30.304314,-97.840649,730
2653,30.290327,-97.828309,942
2654,30.287733,-97.826976,942
2655,30.305178,-97.825485,185
2656,30.30455,-97.825413,185
2657,30.292344,-97.797985,441
2658,30.289988,-97.790063,658
2659,30.304525,-97.794835,441
2660,30.290906,-97.801329,502
2661,30.281367,-97.808305,502
2662,30.291352,-97.782574,658
2663,30.303467,-97.786596,441
2664,30.316944,-97.792957,925
2665,30.321771,-97.794192,925
2666,30.333169,-97.792225,558
2667,30.332832,-97.800471,69
2668,30.328719,-97.790419,558
2669,30.323684,-97.794141,925
2670,30.331043,-97.788907,558
2671,30.335185,-97.806284,69
2672,30.334512,-97.804247,69
2673,30.331682,-97.789923,558
2674,30.379096,-97.827727,548
2675,30.365612,-97.79694,211
2676,30.364429,-97.828657,855
2677,30.369555,-97.801644,134
2678,30.377974,-97.796726,134
2679,30.37739,-97.805007,134
2680,30.387687,-97.824323,548
2681,30.392014,-97.838754,691
2682,30.359284,-97.79047,335
2683,30.366071,-97.789691,211
2684,30.35956,-97.792073,335
2685,30.356715,-97.792832,335
2686,30.363111,-97.790418,211
2687,30.356539,-97.792341,335
2688,30.385861,-97.798527,134
2689,30.021253,-97.742644,426
2690,30.009015,-97.72796,143
2691,30.024991,-97.699893,857
2692,30.091222,-97.655379,898
2693,30.099121,-97.636677,898
2694,30.126139,-97.640916,240
2695,30.110472,-97.65021,898
2696,30.112969,-97.649334,898
2697,29.994679,-97.749232,143
2698,29.97976,-97.764403,934
2699,30.061381,-97.7375,745
2700,30.063897,-97.710553,562
2701,30.079628,-97.754532,70
2702,30.089855,-97.734261,688
2703,30.080573,-97.735104,311
2704,30.088539,-97.71432,876
2705,30.09333,-97.693648,20
2706,30.120769,-97.714933,708
2707,30.112132,-97.694721,596
2708,30.069984,-97.685891,522
2709,30.081814,-97.665963,743
2710,30.08621,-97.671268,743
2711,30.108393,-97.722686,409
2712,30.089301,-97.693484,20
2713,30.128798,-97.709943,708
2714,30.032842,-97.767823,535
2715,30.024813,-97.746917,426
2716,30.076519,-97.748151,70
2717,30.074841,-97.735035,311
2718,30.046374,-97.755827,840
2719,30.058424,-97.746461,745
2720,30.066423,-97.732168,745
2721,30.100159,-97.755922,400
2722,30.126941,-97.774975,750
2723,30.111202,-97.749035,400
2724,30.106093,-97.738208,688
2725,30.133965,-97.755881,812
2726,30.114963,-97.746603,234
2727,30.123976,-97.740532,234
2728,30.113733,-97.719341,409
2729,30.093566,-97.761764,400
2730,30.138118,-97.773374,750
2731,30.100934,-97.727371,688
2732,30.135335,-97.733256,234
2733,30.058231,-97.703773,562
2734,30.027369,-97.688502,477
2735,30.098475,-97.683197,20
2736,30.106732,-97.674058,167
2737,30.115064,-97.694848,596
2738,30.12938,-97.683977,212
2739,30.135807,-97.680223,212
2740,30.121538,-97.667553,360
2741,30.097144,-97.684563,20
2742,30.119328,-97.690349,596
2743,30.106856,-97.694471,596
2744,30.129184,-97.69566,212
2745,30.095123,-97.660082,743
2746,30.138109,-97.678447,212
2747,30.120507,-97.634975,240
2748,30.109931,-97.622726,593
2749,30.141786,-97.615924,14
2750,30.132645,-97.621771,14
2751,30.104783,-97.628491,593
2752,30.274283,-97.771166,98
2753,30.279042,-97.767623,98
2754,30.2773,-97.770504,98
2755,30.278347,-97.772898,98
2756,30.275636,-97.76678,966
2757,30.278952,-97.767164,98
2758,30.275212,-97.765354,966
2759,30.279888,-97.758443,532
2760,30.276683,-97.751107,276
2761,30.277965,-97.750506,276
2762,30.27809,-97.744172,276
2763,30.277798,-97.736099,117
2764,30.278945,-97.724252,557
2765,30.279808,-97.718872,557
2766,30.277082,-97.716191,557
2767,30.280124,-97.716795,557
2768,30.190898,-97.647323,590
2769,30.280604,-97.713907,557
2770,30.283767,-97.656039,470
2771,30.278209,-97.768537,98
2772,30.276552,-97.76984,98
2773,30.280874,-97.768257,98
2774,30.28204,-97.766402,98
2775,30.277098,-97.768748,98
2776,30.278562,-97.74592,276
2777,30.277598,-97.746279,276
2778,30.277633,-97.742615,276
2779,30.276069,-97.743195,276
2780,30.276807,-97.739643,117
2781,30.276002,-97.736773,117
2782,30.278717,-97.731664,117
2783,30.277162,-97.73278,117
2784,30.278471,-97.73074,117
2785,30.275649,-97.731733,117
2786,30.279502,-97.729157,555
2787,30.273559,-97.731662,117
2788,30.280034,-97.729494,555
2789,30.278252,-97.728161,555
2790,30.274963,-97.729499,117
2791,30.28001,-97.728054,555
2792,30.272944,-97.731,627
2793,30.280392,-97.727442,555
2794,30.279509,-97.720765,557
2795,30.276829,-97.72021,557
2796,30.275982,-97.70408,197
2797,30.279486,-97.701825,678
2798,30.276636,-97.699985,418
2799,30.278268,-97.69086,418
2800,30.27744,-97.695931,418
2801,30.278712,-97.686804,418
2802,30.275847,-97.688679,418
2803,30.282652,-97.653111,419
2804,30.280765,-97.648133,419
2805,30.292329,-97.653084,470
2806,30.299934,-97.648122,13
2807,30.352318,-97.646396,434
2808,30.389402,-97.656381,342
2809,30.38679,-97.648404,342
2810,30.155885,-97.638011,891
2811,30.161242,-97.649013,241
2812,30.18045,-97.64624,590
2813,30.166537,-97.65984,622
2814,30.278334,-97.641634,889
2815,30.276595,-97.636962,889
2816,30.285972,-97.630927,225
2817,30.280296,-97.609429,215
2818,30.27574,-97.59952,827
2819,30.28876,-97.574784,154
2820,30.267849,-97.5478,264
2821,30.302651,-97.653749,13
2822,30.328642,-97.654765,712
2823,30.333212,-97.652719,712
2824,30.336064,-97.65136,712
2825,30.377272,-97.658636,131
2826,30.276726,-97.739351,117
2827,30.27895,-97.738418,117
2828,30.277378,-97.741699,276
2829,30.279511,-97.740918,276
2830,30.275694,-97.735708,117
2831,30.279407,-97.734201,117
2832,30.283954,-97.656965,470
2833,30.276671,-97.659168,419
2834,30.278136,-97.662454,419
2835,30.279302,-97.673771,105
2836,30.279751,-97.680314,105
2837,30.274242,-97.680401,105
2838,30.278018,-97.684679,418
2839,30.211935,-97.657026,379
2840,30.202928,-97.639066,433
2841,30.337559,-97.719007,209
2842,30.387485,-97.64909,342
2843,30.384563,-97.644702,342
2844,30.209457,-97.652986,379
2845,30.209191,-97.653118,379
2846,30.211133,-97.657961,379
2847,30.208625,-97.7725,365
2848,30.214937,-97.768502,601
2849,30.179253,-97.720695,935
2850,30.189539,-97.703901,292
2851,30.212605,-97.745592,387
2852,30.212424,-97.736708,495
2853,30.205211,-97.716385,568
2854,30.203097,-97.712016,568
2855,30.21781,-97.774575,601
2856,30.205546,-97.759339,864
2857,30.212804,-97.754536,864
2858,30.209693,-97.756356,864
2859,30.213221,-97.753358,387
2860,30.208861,-97.756035,864
2861,30.212735,-97.752689,387
2862,30.210491,-97.754054,864
2863,30.212319,-97.7521,387
2864,30.211787,-97.752395,387
2865,30.209953,-97.74713,387
2866,30.206682,-97.740275,699
2867,30.214518,-97.735299,495
2868,30.208496,-97.723017,162
2869,30.22924,-97.712447,901
2870,30.230142,-97.714194,901
2871,30.242277,-97.716967,67
2872,30.252756,-97.712431,386
2873,30.25478,-97.718293,469
2874,30.25639,-97.710716,386
2875,30.261275,-97.717085,469
2876,30.259778,-97.709095,386
2877,30.261683,-97.716147,469
2878,30.263203,-97.712655,197
2879,30.270125,-97.714709,721
2880,30.270516,-97.712249,197
2881,30.158589,-97.728433,435
2882,30.172365,-97.700983,935
2883,30.172286,-97.721729,935
2884,30.214782,-97.710248,568
2885,30.23855,-97.719287,67
2886,30.253619,-97.711994,386
2887,30.255881,-97.718546,469
2888,30.273736,-97.715494,721
2889,30.274602,-97.712717,197
2890,30.274147,-97.715578,721
2891,30.210789,-97.748887,387
2892,30.208545,-97.744127,387
2893,30.213391,-97.745062,387
2894,30.214327,-97.766695,601
2895,30.207615,-97.765238,864
2896,30.205739,-97.769721,365
2897,30.213517,-97.733596,495
2898,30.21865,-97.717933,162
2899,30.21391,-97.701229,203
2900,30.211305,-97.712535,568
2901,30.212359,-97.711892,568
2902,30.216178,-97.665134,809
2903,30.212026,-97.714789,568
2904,30.211582,-97.709216,568
2905,30.212058,-97.709253,568
2906,30.212438,-97.714752,568
2907,30.215163,-97.698437,203
2908,30.213843,-97.661824,379
2909,30.2136,-97.662104,379
2910,30.21491,-97.73356,495
2911,30.212168,-97.717869,162
2912,30.213182,-97.717795,162
2913,30.212153,-97.70643,568
2914,30.213072,-97.70698,568
2915,30.215511,-97.698621,203
2916,30.220985,-97.676929,809
2917,30.186796,-97.773082,700
2918,30.177514,-97.769536,808
2919,30.183475,-97.768677,808
2920,30.159699,-97.759613,427
2921,30.158249,-97.745726,33
2922,30.184813,-97.756169,808
2923,30.184613,-97.768251,808
2924,30.173972,-97.741951,550
2925,30.186753,-97.774095,700
2926,30.184933,-97.744809,269
2927,30.200126,-97.741997,699
2928,30.179624,-97.74658,550
2929,30.172862,-97.751399,550
2930,30.196782,-97.743914,699
2931,30.201675,-97.751597,864
2932,30.193563,-97.749468,269
2933,30.193815,-97.744422,269
2934,30.186709,-97.751639,269
2935,30.169612,-97.745832,550
2936,30.170586,-97.752905,550
2937,30.180834,-97.750023,550
2938,30.179624,-97.75661,808
2939,30.180521,-97.76206,808
2940,30.157315,-97.769031,427
2941,30.165894,-97.769101,427
2942,30.160402,-97.769391,427
2943,30.170108,-97.768355,808
2944,30.197649,-97.776586,700
2945,30.188966,-97.767462,700
2946,30.187447,-97.76254,808
2947,30.192625,-97.768854,700
2948,30.198488,-97.764091,147
2949,30.190751,-97.771316,700
2950,30.198881,-97.764733,147
2951,30.197713,-97.762753,147
2952,30.192532,-97.769871,700
2953,30.200095,-97.763796,147
2954,30.200477,-97.762512,147
2955,30.195427,-97.764599,147
2956,30.203414,-97.759112,864
2957,30.192255,-97.768212,700
2958,30.193442,-97.75189,269
2959,30.194952,-97.757931,147
2960,30.200557,-97.753974,864
2961,30.182765,-97.760827,808
2962,30.181699,-97.764201,808
2963,30.187735,-97.773447,700
2964,30.18712,-97.771021,700
2965,30.186796,-97.772118,700
2966,30.185189,-97.772304,700
2967,30.190404,-97.77062,700
2968,30.191645,-97.774397,700
2969,30.18971,-97.769175,700
2970,30.191283,-97.767944,700
2971,30.193356,-97.766271,147
2972,30.192585,-97.76472,147
2973,30.201081,-97.769338,147
2974,30.203904,-97.765663,147
2975,30.193329,-97.754146,269
2976,30.191947,-97.748455,269
2977,30.186275,-97.758745,808
2978,30.205669,-97.758283,864
2979,30.204917,-97.756918,864
2980,30.202489,-97.758898,864
2981,30.210792,-97.75301,864
2982,30.203236,-97.753715,864
2983,30.165435,-97.74138,33
2984,30.162431,-97.735733,435
2985,30.159963,-97.736012,435
2986,30.162941,-97.725755,435
2987,30.166247,-97.736779,435
2988,30.168772,-97.738198,435
2989,30.194831,-97.737524,699
2990,30.198516,-97.73521,699
2991,30.183938,-97.744425,269
2992,30.193114,-97.738624,699
2993,30.189512,-97.740932,269
2994,30.187287,-97.74233,269
2995,30.188594,-97.745234,269
2996,30.184367,-97.744456,269
2997,30.190794,-97.744502,269
2998,30.201952,-97.742026,699
2999,30.246417,-97.768935,787
3000,30.244162,-97.764886,787
3001,30.215595,-97.749437,387
3002,30.216208,-97.743861,387
3003,30.222241,-97.748085,387
3004,30.226878,-97.745301,136
3005,30.223675,-97.748112,387
3006,30.222218,-97.746211,387
3007,30.244504,-97.757351,787
3008,30.246369,-97.756137,787
3009,30.229559,-97.744644,136
3010,30.236584,-97.74855,226
3011,30.233874,-97.741993,647
3012,30.245581,-97.753343,226
3013,30.244013,-97.75133,226
3014,30.244906,-97.750998,226
3015,30.234455,-97.741698,647
3016,30.244336,-97.757454,787
3017,30.243417,-97.763581,787
3018,30.252084,-97.748325,774
3019,30.256886,-97.746562,774
3020,30.25834,-97.748045,774
3021,30.258882,-97.745798,774
3022,30.260412,-97.745264,0
3023,30.268103,-97.747413,0
3024,30.267783,-97.746287,0
3025,30.275468,-97.747072,276
3026,30.275151,-97.745968,276
3027,30.219391,-97.747937,387
3028,30.220853,-97.747121,387
3029,30.227688,-97.745702,136
3030,30.226161,-97.744819,136
3031,30.221709,-97.747469,387
3032,30.238012,-97.745263,647
3033,30.239417,-97.747327,226
3034,30.244258,-97.745091,647
3035,30.245881,-97.750651,774
3036,30.242209,-97.736312,340
3037,30.246302,-97.735297,340
3038,30.244603,-97.730201,340
3039,30.247625,-97.733949,340
3040,30.241989,-97.739073,647
3041,30.243388,-97.736482,340
3042,30.245383,-97.735998,340
3043,30.249646,-97.735046,340
3044,30.243739,-97.734619,340
3045,30.244364,-97.733628,340
3046,30.26374,-97.746417,0
3047,30.264089,-97.747649,0
3048,30.265967,-97.746952,0
3049,30.269688,-97.745592,0
3050,30.270073,-97.746957,944
3051,30.271522,-97.744895,0
3052,30.272419,-97.748213,944
3053,30.26867,-97.745963,0
3054,30.269643,-97.749236,944
3055,30.247997,-97.749857,774
3056,30.244676,-97.741499,340
3057,30.231102,-97.750867,226
3058,30.24814,-97.761886,787
3059,30.243776,-97.764056,787
3060,30.214749,-97.750702,387
3061,30.215717,-97.746356,387
3062,30.216605,-97.746448,387
3063,30.215896,-97.750057,387
3064,30.215955,-97.738253,495
3065,30.215163,-97.749692,387
3066,30.21567,-97.738473,495
3067,30.226916,-97.769235,601
3068,30.229124,-97.767801,36
3069,30.222301,-97.763968,36
3070,30.219675,-97.758024,36
3071,30.224811,-97.766818,601
3072,30.226014,-97.762072,36
3073,30.229425,-97.759921,36
3074,30.228159,-97.772839,851
3075,30.231228,-97.763595,36
3076,30.237344,-97.762197,787
3077,30.215975,-97.767869,601
3078,30.223341,-97.763346,36
3079,30.220488,-97.758067,36
3080,30.217623,-97.754222,387
3081,30.224466,-97.765626,36
3082,30.227055,-97.761335,36
3083,30.227403,-97.755667,36
3084,30.236474,-97.762743,787
3085,30.232191,-97.76542,36
3086,30.241908,-97.759332,787
3087,30.226803,-97.754404,36
3088,30.220734,-97.761195,36
3089,30.227326,-97.773819,851
3090,30.220474,-97.772887,601
3091,30.227575,-97.77301,851
3092,30.226355,-97.769166,601
3093,30.227121,-97.771768,851
3094,30.226116,-97.769714,601
3095,30.225108,-97.768011,601
3096,30.225608,-97.767387,601
3097,30.223715,-97.76601,601
3098,30.224153,-97.76475,36
3099,30.225515,-97.766549,36
3100,30.226387,-97.76808,601
3101,30.230372,-97.76703,36
3102,30.216303,-97.753438,387
3103,30.216093,-97.752553,387
3104,30.217618,-97.75082,387
3105,30.222102,-97.749075,387
3106,30.218656,-97.751083,387
3107,30.217349,-97.749986,387
3108,30.216268,-97.753942,387
3109,30.218203,-97.75433,387
3110,30.215828,-97.752679,387
3111,30.215324,-97.750381,387
3112,30.217507,-97.748987,387
3113,30.215515,-97.752872,387
3114,30.216563,-97.752281,387
3115,30.234048,-97.757043,226
3116,30.23655,-97.749671,226
3117,30.238542,-97.753282,226
3118,30.24062,-97.756728,226
3119,30.235642,-97.755709,226
3120,30.239617,-97.747665,226
3121,30.239536,-97.752609,226
3122,30.241627,-97.752119,226
3123,30.264656,-97.764502,595
3124,30.255943,-97.761283,595
3125,30.261799,-97.761214,595
3126,30.271128,-97.763498,966
3127,30.266302,-97.755922,944
3128,30.272814,-97.761144,966
3129,30.248643,-97.76842,787
3130,30.251061,-97.764882,787
3131,30.262459,-97.752404,944
3132,30.260728,-97.748355,0
3133,30.260731,-97.758134,595
3134,30.264263,-97.756722,595
3135,30.259477,-97.748904,774
3136,30.27479,-97.7625,966
3137,30.2594,-97.753305,595
3138,30.248227,-97.769715,787
3139,30.252865,-97.767484,787
3140,30.255461,-97.771131,410
3141,30.251596,-97.773734,410
3142,30.272246,-97.772982,98
3143,30.269114,-97.775092,784
3144,30.274527,-97.771376,98
3145,30.272073,-97.772771,98
3146,30.268661,-97.776954,784
3147,30.266998,-97.770573,966
3148,30.275147,-97.768986,966
3149,30.274037,-97.766178,966
3150,30.275657,-97.76766,966
3151,30.276461,-97.767721,966
3152,30.27369,-97.765701,966
3153,30.275266,-97.771121,98
3154,30.247433,-97.759366,787
3155,30.254656,-97.751991,774
3156,30.258218,-97.749749,774
3157,30.267988,-97.755246,944
3158,30.270135,-97.75433,944
3159,30.272527,-97.760478,966
3160,30.273364,-97.752701,944
3161,30.26532,-97.751945,944
3162,30.269553,-97.752925,944
3163,30.269,-97.750614,944
3164,30.26872,-97.749576,944
3165,30.271281,-97.753752,944
3166,30.265618,-97.748341,0
3167,30.264429,-97.748791,0
3168,30.267428,-97.748816,944
3169,30.267777,-97.749757,944
3170,30.275697,-97.747864,276
3171,30.273271,-97.747888,944
3172,30.269871,-97.749152,944
3173,30.270614,-97.748878,944
3174,30.228297,-97.742712,136
3175,30.230359,-97.741504,136
3176,30.232103,-97.7367,136
3177,30.215239,-97.734904,495
3178,30.230568,-97.7327,136
3179,30.231548,-97.742566,136
3180,30.231308,-97.741794,136
3181,30.231527,-97.735892,136
3182,30.222423,-97.734428,136
3183,30.229603,-97.730613,136
3184,30.227057,-97.727271,901
3185,30.237979,-97.732728,994
3186,30.233703,-97.722868,901
3187,30.242973,-97.729018,994
3188,30.239866,-97.731566,994
3189,30.225227,-97.723983,901
3190,30.232282,-97.720065,901
3191,30.235904,-97.728267,994
3192,30.237491,-97.730967,994
3193,30.241534,-97.727952,994
3194,30.237507,-97.725383,994
3195,30.230786,-97.733625,136
3196,30.22426,-97.741515,136
3197,30.215068,-97.729893,495
3198,30.215543,-97.733633,495
3199,30.214656,-97.734,495
3200,30.214118,-97.730187,495
3201,30.215227,-97.733413,495
3202,30.219415,-97.743776,387
3203,30.215486,-97.739626,495
3204,30.214796,-97.735151,495
3205,30.21579,-97.735121,495
3206,30.216303,-97.739133,495
3207,30.216699,-97.743772,387
3208,30.215777,-97.74392,387
3209,30.2263,-97.743882,136
3210,30.215704,-97.734644,495
3211,30.234424,-97.740886,647
3212,30.237959,-97.738734,647
3213,30.233297,-97.739706,647
3214,30.232527,-97.737741,136
3215,30.237483,-97.739947,647
3216,30.235517,-97.741125,647
3217,30.23864,-97.737457,647
3218,30.234153,-97.740107,647
3219,30.237784,-97.737082,647
3220,30.234338,-97.73909,647
3221,30.241126,-97.737859,647
3222,30.237736,-97.744974,647
3223,30.231238,-97.743695,136
3224,30.23369,-97.741312,647
3225,30.243819,-97.742821,647
3226,30.243436,-97.742037,647
3227,30.239761,-97.735931,647
3228,30.224843,-97.723539,901
3229,30.223308,-97.72218,901
3230,30.219776,-97.720171,162
3231,30.213466,-97.719567,162
3232,30.214341,-97.724986,162
3233,30.213179,-97.724969,162
3234,30.238597,-97.725762,994
3235,30.244446,-97.72341,994
3236,30.23738,-97.716893,67
3237,30.24099,-97.726318,994
3238,30.240026,-97.726834,994
3239,30.244489,-97.72411,994
3240,30.262435,-97.74181,0
3241,30.259309,-97.736984,629
3242,30.262292,-97.735939,629
3243,30.261136,-97.737225,629
3244,30.261503,-97.738556,629
3245,30.263117,-97.744226,0
3246,30.261922,-97.73693,629
3247,30.262686,-97.734949,629
3248,30.258013,-97.736368,629
3249,30.261274,-97.734654,629
3250,30.260557,-97.734895,629
3251,30.266039,-97.73278,627
3252,30.265185,-97.730157,184
3253,30.254688,-97.730026,629
3254,30.255132,-97.731286,629
3255,30.260012,-97.730377,184
3256,30.260602,-97.732048,184
3257,30.259558,-97.723115,469
3258,30.264178,-97.733534,184
3259,30.268289,-97.731956,627
3260,30.268219,-97.726867,184
3261,30.269839,-97.73132,627
3262,30.272687,-97.730293,627
3263,30.271992,-97.73057,627
3264,30.272001,-97.731404,627
3265,30.273985,-97.729822,117
3266,30.274632,-97.732152,117
3267,30.272534,-97.725722,721
3268,30.271738,-97.730707,627
3269,30.262296,-97.721809,469
3270,30.260661,-97.722589,469
3271,30.263777,-97.725985,184
3272,30.259151,-97.727914,184
3273,30.259687,-97.732432,629
3274,30.258439,-97.728899,184
3275,30.265715,-97.741958,0
3276,30.263406,-97.730909,184
3277,30.261483,-97.734547,629
3278,30.253329,-97.743494,774
3279,30.257424,-97.738028,629
3280,30.24904,-97.737261,340
3281,30.253677,-97.737412,629
3282,30.248151,-97.736441,340
3283,30.255319,-97.736877,629
3284,30.253005,-97.73648,629
3285,30.253538,-97.735806,629
3286,30.252937,-97.734868,629
3287,30.256563,-97.735497,629
3288,30.254135,-97.744043,774
3289,30.250375,-97.734429,340
3290,30.24774,-97.735529,340
3291,30.254487,-97.737626,629
3292,30.257782,-97.737171,629
3293,30.258846,-97.735457,629
3294,30.256081,-97.734078,629
3295,30.260211,-97.737573,629
3296,30.254915,-97.734552,629
3297,30.269081,-97.74345,0
3298,30.263283,-97.737973,629
3299,30.265681,-97.738673,627
3300,30.268686,-97.742113,0
3301,30.270576,-97.741431,627
3302,30.266163,-97.740418,0
3303,30.270825,-97.738686,627
3304,30.268341,-97.740772,0
3305,30.269922,-97.739018,627
3306,30.268034,-97.739711,627
3307,30.272069,-97.739349,627
3308,30.271784,-97.738346,627
3309,30.275019,-97.73713,117
3310,30.261952,-97.740066,629
3311,30.267027,-97.740092,0
3312,30.267616,-97.738174,627
3313,30.26906,-97.735775,627
3314,30.269638,-97.73793,627
3315,30.269824,-97.735483,627
3316,30.270582,-97.733666,627
3317,30.269031,-97.734221,627
3318,30.272194,-97.732144,627
3319,30.269277,-97.733254,627
3320,30.269176,-97.732426,627
3321,30.270216,-97.740084,627
3322,30.27095,-97.742775,0
3323,30.266163,-97.736837,627
3324,30.265003,-97.743505,0
3325,30.267205,-97.744177,0
3326,30.266818,-97.742828,0
3327,30.267767,-97.74247,0
3328,30.26276,-97.742929,0
3329,30.26646,-97.74156,0
3330,30.265988,-97.743145,0
3331,30.264046,-97.741224,0
3332,30.268102,-97.743829,0
3333,30.263496,-97.745553,0
3334,30.266364,-97.744489,0
3335,30.267456,-97.745092,0
3336,30.267373,-97.741155,0
3337,30.272779,-97.742107,276
3338,30.274555,-97.743757,276
3339,30.27337,-97.74421,276
3340,30.273096,-97.743234,276
3341,30.272475,-97.744542,276
3342,30.272424,-97.740737,627
3343,30.271477,-97.741096,627
3344,30.265257,-97.737169,627
3345,30.265964,-97.73691,627
3346,30.2632,-97.735644,629
3347,30.263141,-97.734737,629
3348,30.263787,-97.733695,184
3349,30.264355,-97.736052,627
3350,30.264848,-97.735859,627
3351,30.266748,-97.73509,627
3352,30.268684,-97.734359,627
3353,30.267143,-97.736477,627
3354,30.272936,-97.73789,627
3355,30.271024,-97.735044,627
3356,30.272046,-97.734673,627
3357,30.273141,-97.734578,627
3358,30.271702,-97.733194,627
3359,30.272827,-97.732781,627
3360,30.275323,-97.734383,117
3361,30.273521,-97.732531,117
3362,30.272631,-97.736834,627
3363,30.271514,-97.737172,627
3364,30.271252,-97.736033,627
3365,30.256858,-97.724363,469
3366,30.255577,-97.720672,469
3367,30.25325,-97.726013,469
3368,30.256435,-97.720152,469
3369,30.257768,-97.723926,469
3370,30.259281,-97.718769,469
3371,30.251795,-97.722087,469
3372,30.255296,-97.725077,469
3373,30.263936,-97.721037,721
3374,30.269041,-97.721462,721
3375,30.266879,-97.72301,721
3376,30.265864,-97.720123,721
3377,30.271889,-97.719184,721
3378,30.276541,-97.72015,557
3379,30.269488,-97.71867,721
3380,30.269656,-97.717612,721
3381,30.267497,-97.719366,721
3382,30.273537,-97.719529,721
3383,30.272903,-97.723513,721
3384,30.271738,-97.72337,721
3385,30.264371,-97.727658,184
3386,30.264512,-97.728091,184
3387,30.264609,-97.720718,721
3388,30.273843,-97.717525,721
3389,30.272056,-97.715149,721
3390,30.163989,-97.692796,973
3391,30.182739,-97.687376,579
3392,30.174147,-97.673885,622
3393,30.157232,-97.694989,973
3394,30.196714,-97.704164,292
3395,30.191629,-97.698218,292
3396,30.197945,-97.683804,754
3397,30.157627,-97.665818,905
3398,30.166184,-97.660261,622
3399,30.206832,-97.662192,379
3400,30.221104,-97.684974,870
3401,30.247504,-97.690449,779
3402,30.241302,-97.689139,465
3403,30.246108,-97.67251,742
3404,30.255812,-97.685311,130
3405,30.254057,-97.681349,742
3406,30.237691,-97.662404,27
3407,30.261601,-97.679194,130
3408,30.221473,-97.677105,809
3409,30.245344,-97.690379,465
3410,30.225911,-97.68134,327
3411,30.228968,-97.682592,327
