,lat,long,cluster
1,30.550045,-97.861763,695
2,30.595955,-97.873341,187
3,30.537706,-97.842574,184
4,30.531993,-97.967226,544
5,30.49655,-97.901257,571
6,30.460701,-97.882086,431
7,30.498174,-97.827879,240
8,30.434403,-98.083907,78
9,30.488843,-98.053644,242
10,30.405429,-97.968645,54
11,30.367501,-98.056627,153
12,30.421566,-97.941993,644
13,30.416288,-97.888347,677
14,30.449261,-97.839977,126
15,30.398674,-97.83899,30
16,30.33372,-98.076591,153
17,30.320471,-97.972406,20
18,30.349621,-98.009337,46
19,30.367501,-97.984566,357
20,30.382464,-97.926677,350
21,30.351176,-97.937276,309
22,30.373525,-97.86814,200
23,30.374974,-97.834683,288
24,30.351794,-97.845706,625
25,30.221922,-97.974997,43
26,30.292875,-97.964299,20
27,30.32358,-97.939978,724
28,30.343668,-97.905759,309
29,30.321831,-97.89921,648
30,30.653697,-97.705243,576
31,30.344763,-97.869942,425
32,30.332143,-97.858595,425
33,30.318718,-97.841425,311
34,30.30131,-97.832125,522
35,30.304379,-97.919182,214
36,30.298805,-97.888816,648
37,30.352597,-97.921387,309
38,30.308173,-97.871556,110
39,30.351189,-97.779089,346
40,30.384802,-97.744053,640
41,30.288711,-97.833651,620
42,30.286234,-97.902792,438
43,30.272366,-98.013199,347
44,30.286428,-97.879621,328
45,30.267169,-97.899068,388
46,30.287223,-97.86426,328
47,30.513457,-97.665825,385
48,30.308846,-97.703502,189
49,30.286457,-97.843688,620
50,30.279555,-97.836009,620
51,30.205053,-97.932402,413
52,30.273341,-97.873192,328
53,30.196482,-97.909655,596
54,30.172804,-97.901713,746
55,30.260857,-97.851746,737
56,30.259205,-97.829376,163
57,30.247459,-97.825581,119
58,30.235346,-97.819398,119
59,30.25396,-97.895281,388
60,30.24144,-97.879541,353
61,30.246756,-97.872037,353
62,30.245081,-97.858211,9
63,30.240247,-97.852166,9
64,30.267416,-97.928478,438
65,30.237106,-97.93101,584
66,30.244016,-97.915824,70
67,30.249879,-97.909155,70
68,30.238308,-97.892018,135
69,30.244942,-97.985156,367
70,30.250014,-97.943499,248
71,30.209143,-97.954558,704
72,30.21593,-97.947086,704
73,30.221875,-97.905353,577
74,30.210384,-97.884729,581
75,30.222138,-97.883969,577
76,30.22221,-97.928999,584
77,30.230631,-97.858915,600
78,30.229226,-97.850001,631
79,30.232836,-97.839501,631
80,30.224841,-97.835974,460
81,30.225853,-97.862221,600
82,30.217987,-97.865677,600
83,30.220626,-97.849136,460
84,30.214768,-97.858294,195
85,30.214574,-97.836175,460
86,30.206238,-97.845563,732
87,30.39592,-97.773059,530
88,30.20472,-97.872225,581
89,30.188692,-97.858353,45
90,30.194893,-97.937337,413
91,30.209985,-97.920445,596
92,30.191616,-97.895714,746
93,30.179056,-97.914187,132
94,30.183883,-97.890011,477
95,30.342242,-97.809077,47
96,30.166515,-97.868659,370
97,30.152804,-97.866404,257
98,30.204417,-97.829257,227
99,30.188004,-97.841393,732
100,30.17107,-97.842194,583
101,30.164297,-97.854535,370
102,30.133666,-97.842915,499
103,30.599148,-97.832171,275
104,30.579994,-97.799189,518
105,30.589421,-97.756155,391
106,30.614041,-97.692748,48
107,30.627603,-97.663039,361
108,30.575265,-97.671384,556
109,30.569989,-97.644672,597
110,30.522036,-97.803089,665
111,30.518674,-97.768768,525
112,30.527329,-97.737027,212
113,30.542739,-97.739952,212
114,30.540723,-97.693987,741
115,30.544608,-97.683218,741
116,30.550837,-97.664092,549
117,30.480535,-97.811989,465
118,30.471692,-97.806242,457
119,30.500992,-97.793977,66
120,30.483751,-97.758083,626
121,30.506262,-97.733466,603
122,30.516396,-97.710151,628
123,30.526432,-97.699474,628
124,30.529538,-97.693185,168
125,30.530948,-97.677935,168
126,30.537547,-97.657977,549
127,30.537873,-97.628339,10
128,30.525447,-97.687699,168
129,30.522907,-97.674702,385
130,30.527937,-97.660354,385
131,30.514658,-97.684306,32
132,30.517125,-97.675414,385
133,30.468471,-97.609093,360
134,30.51606,-97.649805,435
135,30.520364,-97.690696,168
136,30.510451,-97.681971,32
137,30.512392,-97.675429,385
138,30.516269,-97.659832,435
139,30.477235,-97.748408,447
140,30.499365,-97.699917,368
141,30.506831,-97.681264,32
142,30.489825,-97.687935,604
143,30.500887,-97.678514,472
144,30.503811,-97.668835,472
145,30.505463,-97.648706,435
146,30.512273,-97.621085,420
147,30.481309,-97.698393,83
148,30.482178,-97.683939,604
149,30.488674,-97.669035,152
150,30.492029,-97.631009,80
151,30.454371,-97.816014,643
152,30.460688,-97.804425,457
153,30.463568,-97.786828,6
154,30.469152,-97.769391,237
155,30.465101,-97.734708,663
156,30.473658,-97.703262,83
157,30.460659,-97.68639,730
158,30.453786,-97.671883,18
159,30.467254,-97.654187,627
160,30.460126,-97.635163,546
161,30.452107,-97.799555,731
162,30.443651,-97.78093,143
163,30.45527,-97.785175,437
164,30.458188,-97.771871,237
165,30.449527,-97.776564,143
166,30.452449,-97.763846,496
167,30.453141,-97.704426,730
168,30.446519,-97.76236,496
169,30.442063,-97.755978,61
170,30.442247,-97.731102,691
171,30.43446,-97.712671,411
172,30.444289,-97.681327,179
173,30.431584,-97.679807,252
174,30.43806,-97.654831,595
175,30.429712,-97.632319,259
176,30.446884,-97.613692,155
177,30.412276,-97.756928,566
178,30.440343,-97.825646,643
179,30.433092,-97.812579,286
180,30.426198,-97.80419,286
181,30.440545,-97.792283,437
182,30.430965,-97.790268,401
183,30.432578,-97.745077,61
184,30.419188,-97.836201,621
185,30.409079,-97.806945,401
186,30.418049,-97.785683,401
187,30.44012,-97.782925,143
188,30.427536,-97.772391,325
189,30.416096,-97.776502,566
190,30.421041,-97.757609,325
191,30.422727,-97.734935,479
192,30.421209,-97.724833,456
193,30.419626,-97.687169,623
194,30.474927,-97.628126,360
195,30.402543,-97.774264,530
196,30.393165,-97.763188,422
197,30.405087,-97.764003,566
198,30.40121,-97.75365,113
199,30.407812,-97.737938,113
200,30.416374,-97.713136,456
201,30.401368,-97.723123,582
202,30.400383,-97.71107,504
203,30.412333,-97.7016,92
204,30.406628,-97.684758,64
205,30.396503,-97.676128,589
206,30.402956,-97.652095,557
207,30.385822,-97.629909,310
208,30.398609,-97.616178,542
209,30.420193,-97.603293,421
210,30.396551,-97.82942,288
211,30.271191,-97.642884,469
212,30.395144,-97.78675,530
213,30.393237,-97.800872,253
214,30.391578,-97.752089,422
215,30.394219,-97.74096,278
216,30.38687,-97.738158,618
217,30.384116,-97.728635,618
218,30.379353,-97.722328,1
219,30.380339,-97.706944,494
220,30.395126,-97.69242,494
221,30.384254,-97.678624,273
222,30.380068,-97.668098,605
223,30.383394,-97.660601,605
224,30.373993,-97.650303,605
225,30.371901,-97.636824,310
226,30.357638,-97.621547,26
227,30.347504,-97.604697,26
228,30.360871,-97.581717,540
229,30.369183,-97.77245,72
230,30.383082,-97.754946,422
231,30.370937,-97.748874,193
232,30.372799,-97.738426,471
233,30.368742,-97.732737,575
234,30.365825,-97.723827,458
235,30.367008,-97.712527,123
236,30.374445,-97.714456,458
237,30.362717,-97.703016,657
238,30.365978,-97.701017,657
239,30.374479,-97.696226,494
240,30.368666,-97.687912,567
241,30.362402,-97.676517,567
242,30.35801,-97.662114,723
243,30.340503,-97.634953,139
244,30.335824,-97.616902,467
245,30.3645,-97.740699,575
246,30.361619,-97.735446,575
247,30.357612,-97.724918,615
248,30.355442,-97.7182,615
249,30.356542,-97.710188,222
250,30.354451,-97.69626,657
251,30.348438,-97.685483,164
252,30.338319,-97.690935,369
253,30.337807,-97.664499,49
254,30.333871,-97.675748,418
255,30.333513,-97.647877,733
256,30.361286,-97.757804,532
257,30.35516,-97.743801,102
258,30.350866,-97.738792,667
259,30.355362,-97.734401,575
260,30.351559,-97.727219,615
261,30.346115,-97.729428,667
262,30.348204,-97.718429,222
263,30.342425,-97.721317,324
264,30.340669,-97.709102,749
265,30.33247,-97.696583,369
266,30.32667,-97.685099,418
267,30.324017,-97.664095,49
268,30.32257,-97.651571,312
269,30.3202,-97.639453,139
270,30.325044,-97.617448,467
271,30.327527,-97.57601,526
272,30.34417,-97.558384,147
273,30.347874,-97.76121,532
274,30.341089,-97.750211,279
275,30.34102,-97.742547,667
276,30.337612,-97.733307,667
277,30.334246,-97.725896,324
278,30.328946,-97.720367,486
279,30.329197,-97.711138,12
280,30.324755,-97.698623,181
281,30.308832,-97.854872,311
282,30.353876,-97.789916,346
283,30.338864,-97.78138,629
284,30.333799,-97.76676,279
285,30.331953,-97.759891,279
286,30.332227,-97.751829,279
287,30.330139,-97.742742,50
288,30.330061,-97.735351,50
289,30.325264,-97.730682,486
290,30.320679,-97.720953,587
291,30.316483,-97.711051,587
292,30.318649,-97.702866,709
293,30.316705,-97.693892,181
294,30.316931,-97.684863,650
295,30.307248,-97.690083,650
296,30.316758,-97.672491,264
297,30.310034,-97.680821,264
298,30.300761,-97.67833,264
299,30.303255,-97.666683,355
300,30.311495,-97.65656,312
301,30.295066,-97.655743,355
302,30.305169,-97.6301,225
303,30.28759,-97.640662,225
304,30.296238,-97.606829,183
305,30.35485,-97.821754,625
306,30.339491,-97.799011,197
307,30.344399,-97.79414,197
308,30.334694,-97.786917,629
309,30.330049,-97.804386,47
310,30.32969,-97.794461,629
311,30.323452,-97.784862,629
312,30.322771,-97.790383,629
313,30.309286,-97.779878,250
314,30.319513,-97.773295,712
315,30.316399,-97.76201,712
316,30.322827,-97.748686,647
317,30.318928,-97.741563,647
318,30.318134,-97.735161,245
319,30.312636,-97.726851,245
320,30.309394,-97.719694,587
321,30.308606,-97.713911,189
322,30.291673,-97.694168,299
323,30.289535,-97.685312,715
324,30.289232,-97.674631,715
325,30.325211,-97.753043,279
326,30.312346,-97.755063,340
327,30.314377,-97.750453,97
328,30.311422,-97.745119,97
329,30.314075,-97.73437,245
330,30.307788,-97.737685,561
331,30.304357,-97.731148,561
332,30.299796,-97.723839,633
333,30.29537,-97.712677,58
334,30.320631,-97.809788,47
335,30.312617,-97.819504,522
336,30.309044,-97.806541,464
337,30.321536,-97.80207,464
338,30.316334,-97.798815,464
339,30.30976,-97.788871,464
340,30.306907,-97.770739,250
341,30.306124,-97.760175,340
342,30.304992,-97.756618,340
343,30.303114,-97.751664,97
344,30.302486,-97.747239,97
345,30.299443,-97.742797,97
346,30.29791,-97.735674,561
347,30.293084,-97.731181,633
348,30.292608,-97.727363,633
349,30.289092,-97.719395,633
350,30.287942,-97.71165,58
351,30.285307,-97.701787,299
352,30.297498,-97.777043,250
353,30.291148,-97.765987,381
354,30.296874,-97.762541,381
355,30.294723,-97.754442,381
356,30.291274,-97.745937,241
357,30.285813,-97.759194,381
358,30.285682,-97.747977,241
359,30.284903,-97.743151,241
360,30.290562,-97.742966,241
361,30.291737,-97.738284,241
362,30.285008,-97.735154,639
363,30.286926,-97.730248,306
364,30.302516,-97.818543,522
365,30.290736,-97.81223,33
366,30.300199,-97.799899,464
367,30.282386,-97.785116,683
368,30.283673,-97.780701,683
369,30.291216,-97.778414,683
370,30.283819,-97.77024,740
371,30.276309,-97.760494,261
372,30.271814,-97.752313,22
373,30.27412,-97.749925,428
374,30.276649,-97.744971,428
375,30.279904,-97.743468,428
376,30.27864,-97.738873,639
377,30.274993,-97.740269,639
378,30.271875,-97.743373,558
379,30.270625,-97.740184,558
380,30.268129,-97.744601,558
381,30.267364,-97.741182,558
382,30.266557,-97.738381,133
383,30.270537,-97.736137,106
384,30.27371,-97.733763,106
385,30.277326,-97.734167,106
386,30.282229,-97.731517,306
387,30.280795,-97.726061,306
388,30.281401,-97.723909,306
389,30.281893,-97.719348,306
390,30.283713,-97.710834,196
391,30.275893,-97.725163,106
392,30.277056,-97.718792,196
393,30.277541,-97.713445,196
394,30.278174,-97.705986,196
395,30.280929,-97.693411,299
396,30.283335,-97.680221,715
397,30.273431,-97.678189,427
398,30.271453,-97.658848,469
399,30.258811,-97.625628,55
400,30.275689,-97.620276,55
401,30.261466,-97.586183,708
402,30.271327,-97.762089,261
403,30.267524,-97.752761,22
404,30.266418,-97.749402,558
405,30.265461,-97.74621,558
406,30.264483,-97.742416,558
407,30.26393,-97.739258,133
408,30.259453,-97.741275,133
409,30.256691,-97.729877,739
410,30.261901,-97.728685,739
411,30.26616,-97.727423,739
412,30.267962,-97.722003,300
413,30.271109,-97.724436,106
414,30.272163,-97.71745,196
415,30.274171,-97.70587,196
416,30.26789,-97.709691,196
417,30.267381,-97.717513,300
418,30.264093,-97.717284,300
419,30.258199,-97.7169,300
420,30.25203,-97.722292,300
421,30.255176,-97.707214,710
422,30.261117,-97.705899,710
423,30.267416,-97.701265,427
424,30.275623,-97.694831,427
425,30.269491,-97.693985,427
426,30.257898,-97.696217,393
427,30.250378,-97.698255,393
428,30.258971,-97.683975,41
429,30.252393,-97.675294,41
430,30.292047,-97.826542,33
431,30.28751,-97.822447,33
432,30.279794,-97.813683,533
433,30.273914,-97.80577,374
434,30.281114,-97.79798,374
435,30.274313,-97.785524,84
436,30.269571,-97.770276,740
437,30.26379,-97.760172,696
438,30.260843,-97.753126,206
439,30.260153,-97.747288,206
440,30.256479,-97.743315,206
441,30.242798,-97.723846,572
442,30.236178,-97.713168,207
443,30.237023,-97.699893,536
444,30.231273,-97.690977,536
445,30.247651,-97.650627,744
446,30.583031,-97.893907,362
447,30.223538,-97.612743,287
448,30.267841,-97.795414,434
449,30.263639,-97.781663,84
450,30.254015,-97.779408,335
451,30.258468,-97.76513,696
452,30.254583,-97.756802,206
453,30.251548,-97.750714,206
454,30.249125,-97.74487,206
455,30.245798,-97.737968,269
456,30.241422,-97.733277,269
457,30.235658,-97.72957,572
458,30.228055,-97.720917,111
459,30.218025,-97.701277,705
460,30.268739,-97.812312,163
461,30.262467,-97.80009,434
462,30.257482,-97.807261,359
463,30.247294,-97.799248,359
464,30.258186,-97.789672,434
465,30.250663,-97.791535,434
466,30.240428,-97.794477,508
467,30.236384,-97.787768,52
468,30.23376,-97.779795,52
469,30.243976,-97.774117,335
470,30.251311,-97.772077,335
471,30.246241,-97.762422,529
472,30.240171,-97.766963,529
473,30.23169,-97.771333,235
474,30.227782,-97.764302,452
475,30.235703,-97.759859,685
476,30.243373,-97.754573,685
477,30.241194,-97.744361,685
478,30.238356,-97.748602,685
479,30.231751,-97.751904,685
480,30.223802,-97.757112,452
481,30.218675,-97.746881,375
482,30.22543,-97.739635,4
483,30.226569,-97.732462,111
484,30.219904,-97.725743,111
485,30.274722,-97.824877,533
486,30.255952,-97.814911,163
487,30.235591,-97.807971,678
488,30.227237,-97.795844,508
489,30.222209,-97.784683,52
490,30.219404,-97.77595,652
491,30.219174,-97.770121,652
492,30.213479,-97.762511,652
493,30.203546,-97.749497,117
494,30.211973,-97.741725,375
495,30.199342,-97.739267,573
496,30.199427,-97.727805,676
497,30.185219,-97.702259,483
498,30.207604,-97.705674,265
499,30.200401,-97.668694,17
500,30.224758,-97.664314,507
501,30.207631,-97.603752,287
502,30.229851,-97.806673,678
503,30.223724,-97.812739,678
504,30.213238,-97.819622,227
505,30.211461,-97.808543,337
506,30.219912,-97.800719,231
507,30.21642,-97.7932,231
508,30.207136,-97.801517,337
509,30.205816,-97.794697,498
510,30.214075,-97.788886,231
511,30.211162,-97.783613,291
512,30.204494,-97.787716,498
513,30.201568,-97.781077,291
514,30.209973,-97.775986,291
515,30.198303,-97.771828,215
516,30.192167,-97.76229,607
517,30.19005,-97.752272,198
518,30.191559,-97.741838,573
519,30.183884,-97.735419,198
520,30.179088,-97.714023,483
521,30.168372,-97.676869,476
522,30.128184,-97.613068,602
523,30.166566,-97.569847,534
524,30.204201,-97.575259,316
525,30.195468,-97.820597,161
526,30.192671,-97.79731,498
527,30.190192,-97.786001,498
528,30.188088,-97.777584,215
529,30.182413,-97.772149,607
530,30.179217,-97.759163,607
531,30.170457,-97.748821,548
532,30.16781,-97.730989,82
533,30.160499,-97.709547,140
534,30.143493,-97.687533,272
535,30.182246,-97.830203,161
536,30.180777,-97.806741,461
537,30.178806,-97.78988,28
538,30.174277,-97.783503,28
539,30.170566,-97.77519,221
540,30.171015,-97.763446,221
541,30.164418,-97.745521,548
542,30.160598,-97.815586,136
543,30.161894,-97.781648,470
544,30.134292,-97.724486,380
545,30.123992,-97.702255,380
546,30.118841,-97.815712,51
547,30.138629,-97.789007,344
548,30.1398,-97.779669,344
549,30.122344,-97.793243,632
550,30.11474,-97.761745,511
551,30.10091,-97.742406,559
552,30.10704,-97.711796,380
553,30.099935,-97.644403,154
554,30.099777,-97.794275,203
555,30.079091,-97.708895,14
556,30.061879,-97.67384,79
557,30.45357,-97.57921,296
558,30.44074,-97.596368,421
559,30.384952,-97.572308,280
560,30.371482,-97.546382,433
561,30.316307,-97.498617,474
562,30.30919,-97.550996,363
563,30.277114,-97.57567,98
564,30.264,-97.537069,664
565,30.239086,-97.53474,426
566,30.149404,-97.877778,257
567,30.562892,-97.81444,419
568,30.556527,-97.784048,518
569,30.560541,-97.747161,412
570,30.565681,-97.707149,150
571,30.543998,-97.702414,741
572,30.426107,-97.404165,736
573,30.494096,-97.797771,66
574,30.479701,-97.776675,626
575,30.474974,-97.690281,604
576,30.42248,-97.862996,677
577,30.130563,-97.947983,397
578,30.113558,-97.857472,112
579,30.095669,-97.82522,568
580,30.079619,-97.796332,203
581,30.054632,-97.768528,681
582,30.03508,-97.739866,336
583,30.044241,-97.823901,379
584,30.064542,-97.813059,608
585,30.067321,-97.837672,7
586,30.081642,-97.956989,703
587,29.886396,-97.922651,679
588,30.028229,-97.982658,682
589,30.002999,-97.878479,138
590,30.001839,-97.785715,713
591,29.979146,-97.846817,326
592,30.34613,-97.703574,749
593,30.488497,-97.600807,53
594,30.48319,-97.56746,659
595,30.463281,-97.525215,334
596,30.087585,-97.751571,511
597,30.058818,-97.723985,475
598,30.438973,-97.543138,334
599,30.428163,-97.513846,233
600,30.144669,-97.747936,614
601,30.132946,-97.82476,499
602,30.145593,-97.817215,136
603,30.199903,-97.523203,545
604,30.114833,-97.680519,329
605,30.131976,-97.668147,272
606,30.145238,-97.583182,40
607,30.467008,-97.489938,16
608,30.152791,-97.651583,62
609,30.165474,-97.640056,62
610,30.237554,-97.674932,744
611,30.183483,-97.637009,720
612,30.172582,-97.602786,505
613,30.442805,-97.462556,598
614,30.230896,-97.570828,289
615,30.254773,-97.510731,229
616,30.274879,-97.472702,668
617,30.297379,-97.511156,474
618,30.327288,-97.527973,8
619,30.311798,-97.470836,394
620,30.345114,-97.524893,224
621,30.332948,-97.468369,116
622,30.35486,-97.554176,147
623,30.400775,-97.566228,174
624,30.39936,-97.440864,662
625,30.367707,-97.520502,624
626,30.362081,-97.455986,283
627,30.389228,-97.501275,495
628,30.408462,-97.527893,127
629,30.419177,-97.556499,34
630,30.417448,-97.486022,694
631,30.51116,-97.432012,192
632,30.758933,-97.61981,159
633,30.787235,-97.461624,453
634,30.762333,-97.570963,208
635,30.714855,-97.635692,338
636,30.721902,-97.655039,338
637,30.721962,-97.43449,19
638,30.7155,-97.453439,230
639,30.659308,-97.591075,323
640,30.645536,-97.648227,707
641,30.688991,-97.697896,330
642,30.70538,-97.717715,63
643,30.688418,-97.290934,74
644,30.708185,-97.434506,19
645,30.707375,-97.44851,230
646,30.617408,-97.492335,726
647,30.63058,-97.608464,276
648,30.670268,-97.365601,578
649,30.614327,-97.438935,440
650,30.556867,-97.534104,554
651,30.549309,-97.552697,284
652,30.585801,-97.403788,308
653,30.593637,-97.422708,182
654,30.589385,-97.4345,579
655,30.417908,-97.324987,376
656,30.454708,-97.409402,90
657,30.519091,-97.37656,384
658,30.548378,-97.339944,188
659,30.543711,-97.426921,613
660,30.564158,-97.412627,23
661,30.544213,-97.502359,85
662,30.518844,-97.603226,292
663,30.553467,-97.632417,10
664,30.37016,-97.793486,527
665,30.52616,-97.553431,305
666,29.896453,-98.064179,463
667,29.955213,-98.126496,630
668,29.956289,-98.065857,226
669,29.950139,-98.009999,99
670,29.868981,-97.990969,277
671,29.857558,-98.012298,684
672,29.832913,-98.018237,619
673,29.979552,-98.108467,282
674,29.997999,-98.058955,365
675,30.019846,-98.0279,160
676,29.967048,-97.95913,342
677,29.952026,-97.983606,99
678,29.979371,-98.082087,37
679,30.030066,-98.080249,232
680,29.918913,-97.948067,448
681,30.043596,-98.053382,564
682,29.877956,-97.952311,553
683,29.87017,-97.962849,348
684,29.878492,-97.965586,354
685,30.177624,-98.067552,513
686,30.183656,-98.035565,244
687,30.204068,-98.063961,513
688,30.132727,-98.066773,588
689,30.142357,-98.017092,210
690,30.123464,-98.013422,210
691,30.103535,-97.972025,59
692,30.156158,-97.922656,132
693,30.083197,-98.064494,446
694,30.046219,-97.956417,220
695,30.249732,-98.090132,656
696,30.221504,-98.001452,367
697,30.232619,-98.041958,91
698,30.256626,-98.041382,91
699,30.188322,-97.952201,450
700,29.890125,-97.944039,219
701,29.889557,-97.938971,670
702,29.887069,-97.939213,219
703,29.887943,-97.936567,2
704,29.881756,-97.942358,219
705,29.88051,-97.945474,219
706,29.87795,-97.943205,219
707,29.875888,-97.949028,553
708,29.882519,-97.927999,2
709,29.881815,-97.932862,2
710,29.887993,-97.932527,2
711,29.886075,-97.93607,2
712,29.893192,-97.93209,670
713,29.888441,-97.926399,2
714,29.893447,-97.938495,670
715,29.896727,-97.936225,670
716,29.886506,-97.942882,219
717,29.887606,-97.948487,734
718,29.884797,-97.945336,219
719,29.884042,-97.942473,219
720,29.881787,-97.947927,219
721,29.884353,-97.901427,484
722,29.873067,-97.90967,166
723,29.883636,-97.91573,679
724,29.892753,-97.908106,484
725,29.864351,-97.902071,166
726,29.867046,-97.923945,500
727,29.880741,-97.917204,679
728,29.875409,-97.92325,500
729,30.207493,-98.032242,727
730,29.889728,-97.918411,223
731,29.898736,-97.913953,223
732,30.06917,-98.022446,352
733,30.079967,-97.990787,682
734,30.055404,-97.91209,165
735,29.886781,-97.991968,202
736,29.908987,-97.972402,146
737,29.889408,-97.970463,354
738,29.863587,-97.978738,277
739,29.897388,-97.954655,146
740,29.85407,-97.978959,73
741,29.842171,-97.996419,387
742,30.139214,-98.214295,478
743,30.190007,-98.168253,423
744,30.174555,-98.153721,423
745,30.1517,-98.154464,405
746,30.212417,-98.172451,320
747,30.22956,-98.135289,175
748,30.220277,-98.100548,574
749,30.158316,-98.110565,405
750,30.0445,-98.141486,178
751,30.072636,-98.204517,688
752,30.115504,-98.192023,503
753,30.019708,-98.232533,246
754,29.995598,-98.167437,514
755,30.1139,-98.246902,57
756,29.996347,-98.122024,282
757,30.02551,-98.111827,510
758,30.067054,-98.102025,232
759,30.10241,-98.14819,167
760,30.133525,-98.106678,13
761,30.271372,-98.086092,656
762,29.908768,-97.917075,223
763,30.277913,-98.137608,400
764,30.3165,-98.139466,267
765,30.291503,-98.177276,0
766,30.24439,-98.18288,599
767,30.167197,-98.235175,172
768,30.185976,-98.229548,172
769,30.191844,-98.103685,122
770,30.184616,-98.091417,122
771,29.876772,-97.898031,166
772,29.850646,-97.932248,617
773,29.850705,-97.913015,521
774,29.859432,-97.925423,617
775,29.835223,-97.937747,249
776,29.855514,-97.945814,107
777,29.832686,-97.918297,302
778,29.826014,-97.932603,249
779,29.807481,-97.955,386
780,29.773576,-97.997444,395
781,29.786936,-97.976479,395
782,29.845097,-97.972475,73
783,29.855842,-97.963431,348
784,29.836644,-97.955373,716
785,29.837248,-97.982015,387
786,29.825153,-97.995132,21
787,29.859848,-97.970835,348
788,29.814299,-98.008047,591
789,29.826534,-97.980837,387
790,29.813303,-97.980242,386
791,29.805415,-98.002584,591
792,29.947011,-97.918627,322
793,29.928589,-97.917713,322
794,30.501019,-97.716276,368
795,29.89784,-97.928405,670
796,29.837992,-97.945905,249
797,29.871145,-97.9443,156
798,29.868781,-97.942805,156
799,29.863849,-97.941585,156
800,29.863564,-97.948336,156
801,29.860725,-97.944829,156
802,29.846717,-97.954871,716
803,30.012564,-97.752352,336
804,30.067731,-97.825872,674
805,30.01983,-97.868262,77
806,30.038809,-97.873747,436
807,30.067665,-97.849967,7
808,30.08096,-97.83664,185
809,30.083844,-97.815399,568
810,30.142626,-97.856741,257
811,30.126275,-97.877768,112
812,30.103692,-97.899298,228
813,30.090338,-97.88967,228
814,29.959885,-97.801203,209
815,29.989355,-97.816935,87
816,29.953982,-97.862871,31
817,29.993338,-97.863652,138
818,30.005026,-97.844911,416
819,30.017435,-97.826144,372
820,30.093477,-97.86188,485
821,30.080607,-97.8601,689
822,30.070587,-97.864712,689
823,29.953701,-97.889945,31
824,29.973582,-97.882525,455
825,29.983051,-97.900371,523
826,29.985158,-97.879181,455
827,29.987072,-97.887542,523
828,30.040951,-97.895792,436
829,30.021565,-97.896007,313
830,29.994624,-97.874248,138
831,29.991428,-97.879703,138
832,29.996685,-97.8902,523
833,29.927373,-97.884313,669
834,29.898203,-97.896467,484
835,29.900537,-97.901977,484
836,29.909386,-97.905904,105
837,29.936266,-97.889216,669
838,29.900711,-97.942748,670
839,29.904187,-97.949324,146
840,29.894799,-97.945184,670
841,29.932993,-97.839249,190
842,29.909249,-97.869469,255
843,29.893191,-97.890449,487
844,29.9514,-97.81998,429
845,30.012707,-97.90673,313
846,30.276044,-97.858429,328
847,30.226363,-97.874022,600
848,30.174384,-97.984925,450
849,30.269483,-97.748407,22
850,30.629693,-97.936611,295
851,30.56515,-97.878483,649
852,30.671293,-97.949297,492
853,30.639453,-97.894479,124
854,30.561981,-97.854201,321
855,30.683345,-97.94289,492
856,30.766585,-97.9192,698
857,30.629598,-97.845097,317
858,30.639299,-97.6662,361
859,30.642343,-97.674662,551
860,30.668799,-97.659879,701
861,30.628872,-97.671426,361
862,30.668363,-97.686088,356
863,30.880283,-97.824754,285
864,30.470096,-97.449694,173
865,30.74618,-97.845772,11
866,30.689129,-97.862864,297
867,30.575118,-97.820445,419
868,30.876242,-97.77401,675
869,30.840902,-97.747424,38
870,30.78796,-97.831057,722
871,30.685782,-97.776485,145
872,30.658614,-97.695213,356
873,30.637172,-97.681379,551
874,30.629455,-97.700115,48
875,30.627732,-97.68395,725
876,30.852528,-97.680214,332
877,30.831092,-97.612867,75
878,30.625071,-97.676133,725
879,30.616469,-97.686217,48
880,30.623086,-97.697171,48
881,30.834316,-97.589673,301
882,30.656402,-97.262914,516
883,30.631001,-97.410462,94
884,30.577103,-97.332716,373
885,30.577643,-97.392433,327
886,30.539989,-97.216877,466
887,30.549645,-97.386987,130
888,30.567615,-97.398214,130
889,30.572072,-97.41793,23
890,30.460507,-97.1884,638
891,30.54927,-97.453586,409
892,29.861169,-97.937891,617
893,29.864771,-97.935216,617
894,29.867991,-97.937213,404
895,29.870864,-97.934639,404
896,29.864473,-97.916837,500
897,29.862569,-97.930338,617
898,29.857715,-97.936981,617
899,29.877395,-97.931265,404
900,29.871417,-97.93772,404
901,29.875356,-97.933272,404
902,29.870438,-97.94043,404
903,29.874089,-97.937071,404
904,29.879425,-97.934873,404
905,29.873855,-97.941696,404
906,29.882817,-97.936327,2
907,29.888777,-97.953068,734
908,29.881982,-97.94009,219
909,29.884244,-97.940672,219
910,29.875972,-97.939316,404
911,29.880838,-97.938202,219
912,29.88466,-97.938557,219
913,29.88739,-97.941105,219
914,29.866701,-97.955129,348
915,29.859982,-97.953523,348
916,29.871867,-97.948372,553
917,29.87049,-97.955337,553
918,29.892357,-97.94926,734
919,29.877414,-97.937005,404
920,29.846154,-97.898921,521
921,29.883181,-97.956601,354
922,29.890512,-97.962115,354
923,30.581871,-97.431543,579
924,30.570241,-97.845304,565
925,30.547881,-97.832053,114
926,30.516189,-97.819854,364
927,30.498781,-97.810987,66
928,30.476706,-97.789975,247
929,30.526117,-97.8279,570
930,30.532518,-97.804664,665
931,30.537807,-97.790202,44
932,30.52354,-97.78296,481
933,30.65866,-97.776031,692
934,30.658855,-97.849323,69
935,30.678669,-97.678827,377
936,30.69052,-97.662227,377
937,30.69345,-97.644873,3
938,30.70634,-97.676452,506
939,30.717388,-97.745749,145
940,30.756782,-97.762274,88
941,30.84433,-97.792283,89
942,30.83935,-97.791475,89
943,30.84407,-97.797976,89
944,30.833925,-97.833141,399
945,30.820892,-97.877474,93
946,30.809086,-97.788775,645
947,30.787546,-97.733844,592
948,30.594021,-97.681147,331
949,30.592574,-97.705395,491
950,30.610956,-97.746309,144
951,30.624548,-97.751006,144
952,30.603434,-97.659525,199
953,30.605496,-97.646404,199
954,30.633028,-97.636136,96
955,30.623878,-97.634323,96
956,30.6491,-97.637474,96
957,30.675787,-97.63588,213
958,30.67039,-97.646313,213
959,30.659924,-97.615333,468
960,30.68416,-97.648796,213
961,30.580698,-97.634348,597
962,30.688393,-97.56823,410
963,30.605618,-97.407175,743
964,30.547251,-97.412218,417
965,30.572237,-97.424569,314
966,30.650184,-97.46063,389
967,30.675472,-97.416823,406
968,30.749076,-97.498686,67
969,30.728051,-97.451663,462
970,30.75436,-97.408646,451
971,30.570439,-97.411401,23
972,30.43632,-97.251463,120
973,30.472299,-97.262528,351
974,30.48328,-97.224474,194
975,30.445868,-97.232566,260
976,30.479296,-97.306116,594
977,30.43847,-97.286145,690
978,30.443943,-97.370321,489
979,30.455046,-97.339311,68
980,30.515092,-97.408642,307
981,30.488553,-97.410368,563
982,30.479036,-97.392374,699
983,30.493829,-97.35547,384
984,30.522277,-97.308176,547
985,30.505589,-97.247565,194
986,30.504025,-97.182869,24
987,30.565058,-97.259618,672
988,30.62155,-97.263684,654
989,30.631593,-97.319296,5
990,30.660884,-97.299336,211
991,30.599844,-97.309353,5
992,30.590803,-97.346743,569
993,30.621102,-97.369973,217
994,30.65527,-97.346524,578
995,30.584139,-97.4234,182
996,30.560575,-97.423818,314
997,30.555834,-97.41098,417
998,30.581104,-97.381876,327
999,30.511418,-97.468827,294
1000,30.526407,-97.530192,305
1001,30.517308,-97.502997,658
1002,30.509986,-97.55816,305
1003,30.477489,-97.481873,636
1004,30.575191,-97.510374,39
1005,30.578301,-97.465299,666
1006,30.58379,-97.592003,454
1007,30.581783,-97.6213,562
1008,30.603935,-97.594838,76
1009,30.593494,-97.559051,383
1010,30.571888,-97.562385,383
1011,30.550444,-97.586759,103
1012,30.544585,-97.60774,719
1013,30.559709,-97.615336,719
1014,30.612544,-97.569962,76
1015,30.603709,-97.521503,39
1016,30.657724,-97.497322,263
1017,30.681438,-97.518758,339
1018,30.684143,-97.475931,137
1019,30.727033,-97.485999,509
1020,30.741662,-97.534252,439
1021,30.707529,-97.522309,131
1022,30.767866,-97.516497,693
1023,30.804915,-97.569578,609
1024,30.750264,-97.681406,125
1025,30.791238,-97.642916,480
1026,30.69837,-97.627671,251
1027,30.682848,-97.597727,468
1028,30.715183,-97.599677,612
1029,30.726483,-97.560001,208
1030,30.652202,-97.567221,502
1031,30.658509,-97.527026,339
1032,30.744464,-97.349428,407
1033,30.723527,-97.294568,642
1034,30.718481,-97.340303,747
1035,30.711832,-97.41274,19
1036,30.699874,-97.356277,747
1037,30.721099,-97.804395,585
1038,30.713284,-97.917453,36
1039,30.707511,-97.937796,36
1040,30.505476,-97.850632,459
1041,30.502098,-97.831932,240
1042,30.511753,-97.834159,735
1043,30.043099,-97.852821,271
1044,30.521169,-97.847519,184
1045,30.524123,-97.837526,570
1046,30.550258,-97.847503,321
1047,30.536438,-97.857691,695
1048,30.465145,-97.829934,126
1049,30.740886,-97.717294,543
1050,30.476281,-97.719732,318
1051,30.489708,-97.655412,239
1052,30.587174,-97.415829,308
1053,30.405887,-98.02832,258
1054,30.49147,-97.824934,240
1055,30.47081,-97.820694,126
1056,30.530568,-97.821047,201
1057,30.539373,-97.783615,44
1058,30.527955,-97.767089,525
1059,30.506117,-97.763655,216
1060,30.491587,-97.764424,626
1061,30.48459,-97.794481,247
1062,30.498519,-97.782491,541
1063,30.488025,-97.78106,247
1064,30.48333,-97.840841,671
1065,30.545795,-97.825633,201
1066,30.546888,-97.806481,665
1067,30.600584,-97.804895,275
1068,30.628699,-97.811,366
1069,30.508377,-97.815848,646
1070,30.52396,-97.791741,481
1071,30.507357,-97.806002,66
1072,30.511773,-97.789939,481
1073,30.486395,-97.805868,465
1074,30.492048,-97.5281,658
1075,30.905132,-97.800454,285
1076,30.887022,-97.703803,497
1077,30.857003,-97.589002,301
1078,30.837785,-97.539898,402
1079,30.670972,-97.244333,516
1080,30.794371,-97.425623,169
1081,30.826011,-97.51054,298
1082,30.747149,-97.300292,642
1083,30.171221,-97.519633,162
1084,30.136738,-97.560852,534
1085,30.217666,-97.479311,86
1086,30.32676,-97.419806,729
1087,30.359273,-97.397532,104
1088,30.351976,-97.39802,104
1089,30.397006,-97.36545,35
1090,30.42561,-97.259456,120
1091,30.529067,-97.185122,24
1092,30.474429,-97.162178,382
1093,30.609838,-97.218848,432
1094,29.934113,-98.150473,520
1095,29.82497,-97.918829,302
1096,29.800449,-98.015358,591
1097,29.812023,-98.018414,591
1098,29.806018,-97.944241,249
1099,29.835521,-97.9049,521
1100,29.930219,-97.813404,718
1101,30.0113,-97.687029,262
1102,29.988874,-97.742832,65
1103,29.9607,-97.773983,209
1104,30.030532,-97.672595,392
1105,30.102202,-97.609481,408
1106,29.994705,-98.236289,246
1107,30.106389,-98.270406,57
1108,30.270539,-98.206818,635
1109,30.15493,-98.251617,172
1110,30.193282,-98.236528,172
1111,30.320581,-98.18806,0
1112,30.422055,-98.127277,349
1113,30.530257,-98.103332,315
1114,30.659689,-98.030267,270
1115,30.709085,-98.002919,490
1116,30.840504,-97.903407,449
1117,29.869985,-97.892405,166
1118,30.43398,-98.04384,528
1119,30.4147,-97.974328,54
1120,30.406566,-97.85219,30
1121,30.416801,-97.846884,621
1122,30.407083,-97.761927,566
1123,30.409064,-97.764124,566
1124,30.408449,-97.758688,566
1125,30.408061,-97.744922,113
1126,30.41402,-97.745725,479
1127,30.407847,-97.744691,113
1128,30.415637,-97.745701,479
1129,30.412533,-97.731664,582
1130,30.407919,-97.715814,582
1131,30.40912,-97.716095,582
1132,30.410378,-97.684787,64
1133,30.407524,-97.677913,64
1134,30.415302,-97.676469,64
1135,30.409447,-97.647814,557
1136,30.231017,-97.516594,426
1137,30.236316,-97.520151,426
1138,30.401773,-97.634956,616
1139,30.413554,-97.623711,616
1140,30.395078,-97.589682,174
1141,30.416815,-97.575833,34
1142,30.30344,-97.526112,363
1143,30.307684,-97.514671,474
1144,30.33638,-97.51792,8
1145,30.334995,-97.509891,8
1146,30.375385,-97.528483,624
1147,30.397315,-97.519255,495
1148,30.408455,-97.512478,495
1149,30.409589,-98.109364,349
1150,30.385513,-98.086011,697
1151,30.406921,-98.058975,528
1152,30.407793,-97.874061,677
1153,30.439673,-97.873379,677
1154,30.403618,-97.853717,30
1155,30.410956,-97.791897,401
1156,30.399573,-97.783123,530
1157,30.411092,-97.768154,566
1158,30.404545,-97.768691,566
1159,30.409917,-97.747504,113
1160,30.407781,-97.747856,113
1161,30.414459,-97.746412,479
1162,30.407968,-97.745632,113
1163,30.413568,-97.745912,479
1164,30.405556,-97.745455,113
1165,30.406374,-97.724071,582
1166,30.408849,-97.7147,504
1167,30.407206,-97.721641,582
1168,30.408731,-97.712834,504
1169,30.407364,-97.714123,504
1170,30.409801,-97.711471,504
1171,30.408358,-97.715529,582
1172,30.407968,-97.696596,92
1173,30.412293,-97.67463,64
1174,30.40787,-97.675483,64
1175,30.4133,-97.673628,64
1176,30.403298,-97.675161,64
1177,30.414308,-97.672668,64
1178,30.406589,-97.674045,64
1179,30.412976,-97.672042,64
1180,30.407529,-97.673112,64
1181,30.403013,-97.605632,542
1182,30.400877,-97.545066,127
1183,30.425266,-97.532488,488
1184,30.407188,-97.541096,127
1185,30.505154,-97.519605,658
1186,30.51811,-97.517307,658
1187,30.539446,-97.527361,85
1188,30.537219,-97.513917,85
1189,30.546126,-97.526327,85
1190,30.550371,-97.502511,85
1191,30.593317,-97.519759,39
1192,30.59844,-97.503766,39
1193,30.637256,-97.519283,263
1194,30.637913,-97.503543,263
1195,30.674133,-97.519584,339
1196,30.655746,-97.51178,263
1197,30.715859,-97.509234,398
1198,30.736201,-97.517674,439
1199,30.72774,-97.51612,439
1200,30.786327,-97.570382,609
1201,30.813891,-97.514762,298
1202,30.753481,-97.522255,693
1203,30.759103,-97.502626,67
1204,30.276789,-97.502484,229
1205,30.294375,-97.524078,474
1206,30.350266,-97.500359,186
1207,30.410372,-97.51129,495
1208,30.397977,-97.470816,71
1209,30.405153,-97.499596,495
1210,30.418875,-97.427254,610
1211,30.415024,-97.460113,343
1212,30.399374,-97.381992,35
1213,30.410031,-97.37493,35
1214,30.417783,-97.521358,488
1215,30.443669,-97.517121,233
1216,30.440796,-97.521724,233
1217,30.493528,-97.493465,636
1218,30.589415,-97.53659,39
1219,30.607574,-97.506741,726
1220,30.615287,-97.542575,218
1221,30.666963,-97.495278,263
1222,30.687437,-97.492532,398
1223,30.690823,-97.524148,339
1224,30.729133,-97.531196,439
1225,30.783688,-97.524716,396
1226,30.740209,-97.493845,67
1227,30.766484,-97.479858,67
1228,30.410299,-97.695637,92
1229,30.412131,-97.702847,92
1230,30.408633,-97.70461,92
1231,30.410893,-97.709342,92
1232,30.413835,-97.661196,557
1233,30.405328,-97.66238,557
1234,30.42208,-97.625593,661
1235,30.40409,-97.637802,616
1236,29.987074,-98.049768,365
1237,29.984562,-98.038465,365
1238,30.026318,-98.043982,160
1239,30.03215,-98.039656,160
1240,30.052957,-98.049297,564
1241,30.047991,-98.025834,564
1242,30.1098,-98.068304,588
1243,30.123192,-98.031115,210
1244,30.131643,-98.031699,210
1245,30.149237,-98.051563,588
1246,30.153385,-98.016194,142
1247,30.286319,-98.064664,171
1248,30.291368,-98.034598,680
1249,30.355722,-98.066735,153
1250,30.331214,-98.024116,46
1251,30.37458,-98.041928,560
1252,29.883707,-97.965652,354
1253,29.893214,-97.964866,354
1254,29.886653,-97.962478,354
1255,29.887965,-97.953982,734
1256,29.884175,-97.948286,219
1257,29.884944,-97.949509,219
1258,29.885791,-97.945866,219
1259,29.884912,-97.942571,219
1260,29.88521,-97.940536,219
1261,29.884527,-97.923961,679
1262,29.885258,-97.929695,2
1263,29.882201,-97.921188,679
1264,29.886173,-97.918068,679
1265,29.883649,-97.922986,679
1266,29.882561,-97.921502,679
1267,29.887678,-97.917035,679
1268,29.887809,-97.916563,679
1269,29.884282,-97.908492,679
1270,29.888212,-97.9054,484
1271,29.882033,-97.895876,166
1272,29.888655,-97.886721,487
1273,29.940677,-98.022744,99
1274,29.908608,-98.008721,202
1275,29.917247,-98.051817,463
1276,29.885597,-97.946803,219
1277,29.884687,-97.943954,219
1278,29.883846,-97.94376,219
1279,29.885079,-97.941552,219
1280,29.884391,-97.941438,219
1281,29.885267,-97.940102,219
1282,29.884481,-97.940026,219
1283,29.883169,-97.93868,219
1284,29.884754,-97.936819,2
1285,29.883316,-97.93731,2
1286,29.884907,-97.930244,2
1287,29.88435,-97.931116,2
1288,29.886723,-97.919149,679
1289,29.883183,-97.922476,679
1290,29.888646,-97.916622,223
1291,29.882931,-97.92178,679
1292,30.193978,-98.03592,244
1293,30.194871,-98.049602,513
1294,30.245989,-98.027316,641
1295,30.246378,-98.043262,91
1296,30.345872,-98.027208,46
1297,30.159975,-98.178438,748
1298,30.129515,-98.173062,266
1299,30.143223,-98.135221,405
1300,30.157746,-98.131657,405
1301,30.144817,-98.089328,60
1302,30.16069,-98.090996,60
1303,30.167313,-98.085854,60
1304,30.13787,-98.157966,266
1305,29.967769,-98.189493,29
1306,29.981565,-98.147097,371
1307,30.035229,-98.179821,333
1308,30.058892,-98.162858,81
1309,30.089786,-98.19487,503
1310,30.08205,-98.171247,81
1311,30.104379,-98.17688,503
1312,30.126281,-98.170259,266
1313,30.004317,-98.18761,514
1314,30.012098,-98.120381,510
1315,30.019125,-98.130309,178
1316,29.999239,-98.101129,282
1317,30.02115,-98.101837,510
1318,30.009134,-98.077175,37
1319,30.015618,-98.070197,365
1320,30.008634,-98.051193,365
1321,30.020471,-98.153274,178
1322,30.094404,-98.170976,81
1323,30.000072,-98.200099,514
1324,30.101001,-98.223676,57
1325,30.047826,-98.198919,688
1326,30.097785,-98.239317,57
1327,30.096546,-98.216512,503
1328,30.099451,-98.18839,503
1329,29.974506,-98.092413,282
1330,29.980102,-98.093545,282
1331,29.994609,-98.090602,37
1332,29.987964,-98.111264,282
1333,30.002568,-98.105036,282
1334,29.941015,-98.091712,226
1335,30.008008,-98.117772,510
1336,29.938804,-98.081782,226
1337,29.981565,-98.139629,371
1338,29.986542,-98.120568,282
1339,29.92891,-98.069342,226
1340,29.925171,-98.064188,463
1341,29.985071,-98.089903,37
1342,29.985865,-98.075657,37
1343,29.998843,-98.084241,37
1344,30.081168,-98.171429,81
1345,30.072243,-98.140645,601
1346,30.107668,-98.131384,167
1347,30.045394,-98.101753,232
1348,30.03475,-98.118658,510
1349,30.06887,-98.125564,601
1350,30.069955,-98.090106,446
1351,30.102064,-98.096006,13
1352,30.12629,-98.112328,13
1353,30.121344,-98.088327,13
1354,30.061194,-98.075962,446
1355,30.027515,-98.128455,178
1356,30.116391,-98.137431,167
1357,30.129918,-98.135692,167
1358,30.123076,-98.135616,167
1359,30.048688,-98.097949,232
1360,30.058309,-98.049009,564
1361,30.055926,-98.092073,232
1362,30.058932,-98.080648,446
1363,30.10984,-98.090537,13
1364,30.131976,-98.08916,13
1365,30.179424,-98.191269,42
1366,30.182829,-98.162832,423
1367,30.257611,-98.169802,400
1368,30.22719,-98.169205,320
1369,30.272555,-98.179416,0
1370,30.300608,-98.166031,0
1371,30.300407,-98.170914,0
1372,30.162056,-98.141627,405
1373,30.199549,-98.184398,42
1374,30.197855,-98.162057,423
1375,30.198206,-98.179426,42
1376,30.200172,-98.194485,42
1377,30.27055,-98.068497,171
1378,30.280318,-98.155751,0
1379,30.256065,-98.154836,400
1380,30.255864,-98.132785,400
1381,30.285707,-98.103249,714
1382,30.256388,-98.109119,656
1383,30.173312,-98.240938,172
1384,30.178501,-98.232143,172
1385,30.159139,-98.245775,172
1386,30.179132,-98.230195,172
1387,30.188182,-98.214616,538
1388,30.193112,-98.214579,538
1389,30.189203,-98.109283,122
1390,30.189269,-98.102602,122
1391,30.221912,-98.151964,320
1392,30.205816,-98.144811,517
1393,30.205308,-98.133052,517
1394,30.219776,-98.118518,175
1395,30.20463,-98.11855,517
1396,30.198217,-98.107129,122
1397,30.210052,-98.087482,574
1398,30.213293,-98.084826,574
1399,30.191588,-98.095033,122
1400,30.246396,-98.12472,175
1401,30.254291,-98.082014,656
1402,30.182808,-98.124873,517
1403,30.198168,-98.161836,423
1404,30.191378,-98.162277,423
1405,30.18744,-98.115318,122
1406,30.205647,-98.128349,517
1407,30.227215,-98.154469,320
1408,30.256152,-98.143003,400
1409,30.233872,-98.124752,175
1410,30.167629,-98.086571,60
1411,30.179423,-98.087313,60
1412,30.159349,-98.068204,60
1413,30.191384,-98.081811,513
1414,30.191338,-98.087434,122
1415,30.193977,-98.102295,122
1416,30.181782,-98.087413,60
1417,30.19133,-98.093042,122
1418,30.189304,-98.099051,122
1419,30.192514,-98.064321,513
1420,30.237465,-98.065915,91
1421,30.249399,-98.058146,91
1422,30.246189,-98.047347,91
1423,30.299922,-98.088865,281
1424,30.368436,-98.072766,153
1425,30.393322,-98.067956,697
1426,29.841741,-97.912779,302
1427,29.848594,-97.905366,521
1428,29.869138,-97.91176,500
1429,29.869205,-97.902758,166
1430,29.883152,-97.909806,679
1431,29.880615,-97.912757,679
1432,29.878232,-97.907425,166
1433,29.818075,-97.998524,21
1434,29.823262,-98.005313,619
1435,29.817127,-97.99684,21
1436,29.818931,-97.994699,21
1437,29.823926,-97.980733,387
1438,29.82181,-98.007133,619
1439,29.81739,-98.012155,619
1440,29.819486,-97.994863,21
1441,29.818343,-97.996504,21
1442,29.814034,-98.000977,21
1443,29.820301,-97.993655,21
1444,29.814105,-98.000616,21
1445,29.822026,-97.99246,21
1446,29.815446,-97.96404,386
1447,29.830284,-97.96121,249
1448,29.828849,-97.983841,387
1449,29.835607,-97.976302,387
1450,29.834256,-97.978198,387
1451,29.841971,-97.974684,73
1452,29.846351,-97.979676,73
1453,29.842559,-97.975355,73
1454,29.850844,-97.974942,73
1455,29.813421,-97.967589,386
1456,29.806774,-97.978529,386
1457,29.838967,-97.973318,73
1458,29.834027,-97.978787,387
1459,29.840191,-97.972651,73
1460,29.836078,-97.976833,387
1461,29.840025,-97.97189,73
1462,29.84932,-97.976323,73
1463,29.820649,-97.955213,249
1464,29.825662,-97.942213,249
1465,29.810918,-98.003617,591
1466,29.797524,-97.994277,395
1467,29.780004,-97.992683,395
1468,29.80978,-98.005157,591
1469,29.810878,-98.004831,591
1470,29.804461,-97.982193,386
1471,29.816411,-97.996523,21
1472,29.80115,-97.994277,591
1473,29.810904,-98.003892,591
1474,29.815126,-97.999061,21
1475,29.815366,-97.999757,21
1476,29.812963,-98.00256,591
1477,29.817537,-97.997344,21
1478,29.862223,-97.998377,684
1479,29.85096,-97.984969,73
1480,29.860719,-97.996498,684
1481,29.850231,-97.984131,73
1482,29.824507,-97.988654,21
1483,29.831786,-97.995633,387
1484,29.847718,-97.981245,73
1485,29.821828,-97.992251,21
1486,29.823465,-97.990057,21
1487,29.834039,-97.992218,387
1488,29.83723,-97.989055,387
1489,29.835006,-97.9781,387
1490,29.827288,-97.985579,387
1491,29.827121,-97.984705,387
1492,29.827685,-97.98604,387
1493,29.825198,-97.988915,21
1494,29.829455,-97.984188,387
1495,29.830066,-97.982813,387
1496,29.830282,-97.98298,387
1497,29.82378,-97.990143,21
1498,29.82846,-97.986415,387
1499,29.796368,-97.968037,386
1500,29.846826,-97.963812,716
1501,29.85373,-97.956148,716
1502,29.828217,-97.944615,249
1503,29.828578,-97.941912,249
1504,29.833369,-97.946962,249
1505,29.832843,-97.941569,249
1506,29.848735,-97.943496,107
1507,29.843343,-97.940454,107
1508,29.855146,-97.971213,73
1509,29.85336,-97.957648,716
1510,29.85126,-97.959659,716
1511,29.847441,-97.964333,716
1512,29.853528,-97.957082,716
1513,29.853599,-97.956728,716
1514,29.84383,-97.967646,716
1515,29.852997,-97.948412,107
1516,29.859231,-97.95031,107
1517,29.865634,-97.943201,156
1518,29.854864,-97.939497,617
1519,29.863038,-97.945704,156
1520,29.865021,-97.943426,156
1521,29.856628,-97.939361,617
1522,29.876116,-97.943103,404
1523,29.869203,-97.940235,156
1524,29.872973,-97.939549,404
1525,29.87758,-97.945016,553
1526,29.879629,-97.94301,219
1527,29.876869,-97.944064,219
1528,29.881903,-97.943378,219
1529,29.883538,-97.943689,219
1530,29.882495,-97.943449,219
1531,29.845758,-97.940197,107
1532,29.854604,-97.930246,617
1533,29.860255,-97.940449,617
1534,29.862253,-97.944222,156
1535,29.866176,-97.943259,156
1536,29.865091,-97.944442,156
1537,29.866953,-97.941952,156
1538,29.861566,-97.948009,156
1539,29.849604,-97.924394,302
1540,29.882041,-97.945704,219
1541,29.823166,-97.952518,249
1542,29.839462,-97.971821,73
1543,29.844947,-97.959837,716
1544,29.839028,-97.953008,716
1545,29.846832,-97.964546,716
1546,29.842668,-97.968462,716
1547,29.844076,-97.967651,716
1548,29.843249,-97.968908,716
1549,29.862841,-97.959953,348
1550,29.861112,-97.957928,348
1551,29.874544,-97.955576,553
1552,29.868395,-97.961723,348
1553,29.867764,-97.961879,348
1554,29.87309,-97.9555,553
1555,29.876557,-97.957934,553
1556,29.880121,-97.961806,354
1557,29.857091,-97.969138,348
1558,29.859917,-97.966063,348
1559,29.865419,-97.962971,348
1560,29.881201,-97.962979,354
1561,29.856668,-97.952744,107
1562,29.858371,-97.950815,107
1563,29.858727,-97.955116,348
1564,29.858642,-97.951706,107
1565,29.857214,-97.953331,107
1566,29.860948,-97.947894,156
1567,29.857198,-97.952916,107
1568,29.862274,-97.947591,156
1569,29.874772,-97.955843,553
1570,29.880348,-97.950762,553
1571,29.880895,-97.949407,553
1572,29.877075,-97.951105,553
1573,29.87622,-97.952048,553
1574,29.877722,-97.950392,553
1575,29.873806,-97.95471,553
1576,29.879877,-97.94805,553
1577,29.878314,-97.94591,553
1578,29.880721,-97.949175,553
1579,29.882637,-97.946433,219
1580,29.880975,-97.946805,219
1581,29.880625,-97.947202,219
1582,29.882953,-97.946819,219
1583,29.881193,-97.949803,553
1584,29.883234,-97.94931,553
1585,29.841662,-97.936114,107
1586,29.834243,-97.928599,302
1587,29.83758,-97.921594,302
1588,29.847286,-97.941906,107
1589,29.845039,-97.918815,302
1590,29.868707,-97.939662,156
1591,29.866108,-97.94225,156
1592,29.868541,-97.938929,156
1593,29.867505,-97.938735,156
1594,29.870902,-97.936456,404
1595,29.867945,-97.935361,404
1596,29.868963,-97.931929,404
1597,29.866739,-97.942596,156
1598,29.868758,-97.939972,156
1599,29.876506,-97.929006,500
1600,29.878542,-97.926102,500
1601,29.88122,-97.92453,679
1602,29.856022,-97.931812,617
1603,29.869094,-97.925668,500
1604,29.872084,-97.91934,500
1605,29.871191,-97.918273,500
1606,29.870111,-97.928014,500
1607,29.874672,-97.9286,500
1608,29.87846,-97.927101,500
1609,29.876501,-97.929761,500
1610,29.879317,-97.926499,500
1611,29.877335,-97.929068,500
1612,29.880004,-97.924818,500
1613,29.87679,-97.928989,500
1614,29.857879,-97.933204,617
1615,29.859559,-97.939136,617
1616,29.86196,-97.938952,617
1617,29.859356,-97.938419,617
1618,29.860462,-97.935727,617
1619,29.85872,-97.934025,617
1620,29.859132,-97.93763,617
1621,29.866104,-97.937439,156
1622,29.862164,-97.937389,617
1623,29.857033,-97.93933,617
1624,29.865529,-97.938682,156
1625,29.865203,-97.938703,156
1626,29.863338,-97.937733,617
1627,29.866078,-97.938666,156
1628,29.872465,-97.934293,404
1629,29.876948,-97.935627,404
1630,29.874456,-97.934677,404
1631,29.876274,-97.939969,404
1632,29.875412,-97.93981,404
1633,29.876448,-97.9387,404
1634,29.875464,-97.938568,404
1635,29.877058,-97.934952,404
1636,29.872558,-97.935146,404
1637,29.871952,-97.936352,404
1638,29.873279,-97.934553,404
1639,29.874938,-97.934728,404
1640,29.879132,-97.936033,404
1641,29.883692,-97.935194,2
1642,29.871325,-97.936415,404
1643,29.87528,-97.931813,404
1644,29.871376,-97.939427,404
1645,29.871593,-97.939456,404
1646,29.870143,-97.939265,404
1647,29.869401,-97.940087,156
1648,29.874302,-97.93838,404
1649,29.874166,-97.939576,404
1650,29.873541,-97.939562,404
1651,29.870384,-97.937174,404
1652,29.88011,-97.939989,219
1653,29.880182,-97.939324,219
1654,29.88144,-97.943323,219
1655,29.879804,-97.942005,219
1656,29.882041,-97.941035,219
1657,29.880037,-97.940663,219
1658,29.88177,-97.939579,219
1659,29.88305,-97.939784,219
1660,29.880724,-97.93681,2
1661,29.882252,-97.939656,219
1662,29.879754,-97.942292,219
1663,29.878688,-97.940413,404
1664,29.88265,-97.942749,219
1665,29.882348,-97.941092,219
1666,29.882869,-97.941188,219
1667,29.882698,-97.942407,219
1668,29.882965,-97.940445,219
1669,29.876883,-97.936028,404
1670,29.877932,-97.938963,404
1671,29.883228,-97.938129,219
1672,29.882553,-97.937165,2
1673,29.877473,-97.932861,404
1674,29.878668,-97.930725,2
1675,29.877842,-97.929681,500
1676,29.882305,-97.931934,2
1677,29.88393,-97.933255,2
1678,29.879275,-97.918292,679
1679,29.88104,-97.920099,679
1680,29.881947,-97.92016,679
1681,29.882011,-97.917562,679
1682,29.877475,-97.916194,679
1683,29.873535,-97.921075,500
1684,29.872239,-97.922415,500
1685,29.880316,-97.923785,500
1686,29.881773,-97.923014,679
1687,29.87959,-97.913879,679
1688,29.852885,-97.898439,521
1689,29.869256,-97.89591,166
1690,29.870444,-97.895752,166
1691,29.878486,-97.901872,166
1692,29.87339,-97.900478,166
1693,30.131698,-98.010044,210
1694,30.147484,-97.983461,531
1695,30.152035,-97.971907,531
1696,29.971708,-97.787475,209
1697,29.963481,-97.777722,209
1698,30.008939,-97.764874,713
1699,30.027667,-97.785745,180
1700,30.033957,-97.778844,180
1701,30.013464,-97.769916,713
1702,30.113119,-97.784722,632
1703,30.116689,-97.781607,632
1704,30.113119,-97.782165,632
1705,30.101967,-97.759692,511
1706,30.148253,-97.854836,257
1707,30.145025,-97.852244,257
1708,30.149554,-97.832825,499
1709,30.140349,-97.832826,499
1710,30.146979,-97.794565,344
1711,30.140553,-97.797024,717
1712,30.148136,-97.793388,344
1713,30.13889,-97.796827,717
1714,30.149231,-97.79128,344
1715,30.144042,-97.793174,344
1716,30.155776,-97.790058,470
1717,30.145684,-97.793334,344
1718,30.164578,-97.77902,470
1719,30.166859,-97.784401,470
1720,30.17234,-97.782741,470
1721,30.178169,-97.778888,28
1722,30.178354,-97.779637,28
1723,30.204722,-97.774484,291
1724,30.227454,-97.779953,52
1725,30.227656,-97.778749,235
1726,30.227437,-97.779343,235
1727,30.230105,-97.788895,52
1728,30.26528,-97.784538,84
1729,30.267711,-97.779086,84
1730,30.265256,-97.783519,84
1731,30.267761,-97.778362,84
1732,30.26533,-97.782286,84
1733,30.266689,-97.779575,84
1734,30.268797,-97.777774,84
1735,30.267535,-97.771498,740
1736,30.325587,-97.779934,629
1737,30.311853,-97.782363,250
1738,30.341,-97.77894,629
1739,30.341546,-97.781731,629
1740,30.399031,-97.782486,530
1741,30.392306,-97.777798,530
1742,29.95748,-97.786545,209
1743,30.044544,-97.794242,180
1744,30.061135,-97.780788,681
1745,30.085718,-97.767393,511
1746,30.092449,-97.781509,203
1747,30.145501,-97.765776,742
1748,30.14972,-97.766207,742
1749,30.153347,-97.711128,140
1750,30.158266,-97.681272,140
1751,30.137567,-97.584342,40
1752,30.147217,-97.577793,40
1753,30.140648,-97.567176,534
1754,30.159513,-97.555305,534
1755,30.158348,-97.776137,221
1756,30.157205,-97.781488,470
1757,30.172017,-97.783811,470
1758,30.179544,-97.782873,28
1759,30.18261,-97.774018,215
1760,30.171832,-97.781082,470
1761,30.183546,-97.77423,215
1762,30.17127,-97.782507,470
1763,30.187451,-97.780446,215
1764,30.192997,-97.778594,215
1765,30.194254,-97.78212,498
1766,30.188994,-97.77993,215
1767,30.206957,-97.778439,291
1768,30.208275,-97.781155,291
1769,30.211058,-97.778963,291
1770,30.210002,-97.779795,291
1771,30.154302,-97.735082,82
1772,30.142173,-97.728856,82
1773,30.22782,-97.774012,235
1774,30.227927,-97.780151,52
1775,30.246641,-97.777001,335
1776,30.244055,-97.781187,335
1777,30.257205,-97.7808,335
1778,30.247075,-97.784821,335
1779,30.260413,-97.770657,696
1780,30.267311,-97.780537,84
1781,30.145195,-97.699584,524
1782,30.149434,-97.696636,140
1783,30.143977,-97.69652,524
1784,30.152491,-97.670395,476
1785,30.145534,-97.673128,272
1786,30.153362,-97.668847,476
1787,30.153831,-97.639306,62
1788,30.283155,-97.776483,683
1789,30.288501,-97.78036,683
1790,30.293797,-97.783106,683
1791,30.295908,-97.783359,683
1792,30.357981,-97.785307,346
1793,30.38252,-97.771031,72
1794,30.146457,-97.624194,602
1795,30.294852,-97.781125,683
1796,30.291665,-97.774304,683
1797,30.297507,-97.780138,250
1798,30.300641,-97.775754,250
1799,30.228138,-97.778887,235
1800,30.228226,-97.781444,52
1801,30.223421,-97.781914,52
1802,30.14862,-97.807197,136
1803,30.144604,-97.808804,136
1804,29.891123,-97.914054,223
1805,29.896446,-97.909096,484
1806,29.893021,-97.911456,223
1807,29.895908,-97.909218,484
1808,29.896952,-97.909541,484
1809,29.904764,-97.912,223
1810,29.915818,-97.910772,105
1811,29.918339,-97.90818,105
1812,29.956683,-97.903285,31
1813,30.028014,-97.910045,728
1814,29.893886,-97.912702,223
1815,29.900771,-97.905448,484
1816,29.894057,-97.911678,223
1817,30.016504,-97.897091,313
1818,29.990932,-97.892708,523
1819,29.966324,-97.926509,606
1820,30.011987,-97.891282,313
1821,30.020791,-97.889466,313
1822,30.014425,-97.859689,416
1823,30.019364,-97.856183,416
1824,30.028356,-97.854691,271
1825,30.014248,-97.85921,416
1826,30.019858,-97.855075,416
1827,30.016986,-97.847265,271
1828,30.014363,-97.812917,372
1829,30.01829,-97.80929,372
1830,30.028376,-97.926097,728
1831,30.015748,-97.859108,416
1832,30.00581,-97.865017,416
1833,30.004704,-97.82677,372
1834,30.095394,-97.895715,228
1835,30.09644,-97.930063,535
1836,30.018492,-97.871239,77
1837,29.89864,-97.973549,354
1838,29.925388,-97.947524,448
1839,29.956176,-97.969228,342
1840,29.937726,-97.932325,322
1841,29.969026,-97.989404,580
1842,29.900238,-97.982998,202
1843,29.983412,-98.00407,580
1844,29.888059,-97.942108,219
1845,29.892343,-97.941204,670
1846,29.884842,-97.943001,219
1847,29.886138,-97.944191,219
1848,29.887377,-97.944393,219
1849,29.891347,-97.941083,670
1850,29.892214,-97.944405,670
1851,29.894504,-97.942072,670
1852,29.896304,-97.944082,670
1853,29.896828,-97.94477,670
1854,29.90526,-97.929784,670
1855,29.917193,-97.933274,448
1856,29.921256,-97.93543,448
1857,29.887756,-97.961289,354
1858,29.891718,-97.95702,734
1859,29.896152,-97.964475,354
1860,29.900516,-97.958233,146
1861,29.896785,-97.948392,734
1862,29.898021,-97.947013,146
1863,29.888057,-97.951664,734
1864,29.889125,-97.950476,734
1865,29.890261,-97.951863,734
1866,29.895617,-97.949694,734
1867,29.893969,-97.951532,734
1868,29.891572,-97.953462,734
1869,29.889994,-97.95523,734
1870,29.890985,-97.952746,734
1871,29.888145,-97.945395,219
1872,29.888858,-97.946341,219
1873,29.890193,-97.947309,734
1874,29.897713,-97.947357,146
1875,29.888328,-97.93012,2
1876,29.885608,-97.926853,2
1877,29.89445,-97.923727,223
1878,29.900543,-97.926663,223
1879,29.891716,-97.926737,2
1880,29.889409,-97.931367,2
1881,29.891985,-97.926032,223
1882,29.89425,-97.928245,2
1883,29.898973,-97.918589,223
1884,29.903718,-97.91319,223
1885,29.892871,-97.941268,670
1886,29.889904,-97.935206,2
1887,29.891224,-97.936081,670
1888,29.894618,-97.935685,670
1889,29.896258,-97.936477,670
1890,29.888698,-97.934407,2
1891,29.887445,-97.935513,2
1892,29.89017,-97.935888,670
1893,29.888847,-97.933304,2
1894,29.895579,-97.932475,670
1895,29.897822,-97.938325,670
1896,29.885398,-97.93914,219
1897,29.88764,-97.939234,219
1898,29.888443,-97.940612,219
1899,29.890831,-97.940999,670
1900,29.887845,-97.93802,2
1901,29.89031,-97.936246,670
1902,29.886562,-97.941802,219
1903,29.885175,-97.940808,219
1904,29.886157,-97.940243,219
1905,29.886604,-97.940314,219
1906,29.888282,-97.941299,219
1907,29.887342,-97.941936,219
1908,29.88561,-97.937555,2
1909,29.886856,-97.937814,2
1910,29.885949,-97.936406,2
1911,29.8872,-97.937886,2
1912,29.885461,-97.938676,219
1913,29.889151,-97.93708,2
1914,29.895984,-97.941451,670
1915,29.887415,-97.923324,679
1916,29.891811,-97.918543,223
1917,29.896415,-97.921533,223
1918,29.88842,-97.917542,223
1919,29.892288,-97.922507,223
1920,29.892966,-97.915739,223
1921,29.892884,-97.917288,223
1922,29.891351,-97.913416,223
1923,29.892317,-97.921909,223
1924,29.893086,-97.91346,223
1925,29.891997,-97.914136,223
1926,29.891126,-97.914385,223
1927,29.885393,-97.925649,2
1928,29.886585,-97.924278,679
1929,29.890532,-97.915493,223
1930,29.887113,-97.917196,679
1931,29.896288,-97.915415,223
1932,30.03879,-97.948547,220
1933,30.047178,-97.988048,682
1934,30.044053,-97.964363,220
1935,30.084815,-98.013181,352
1936,30.075656,-98.001528,352
1937,30.12097,-97.966499,59
1938,30.068102,-97.95782,703
1939,30.059516,-97.989525,682
1940,30.117416,-98.027066,210
1941,30.124197,-98.031112,210
1942,30.131151,-98.015189,210
1943,30.12078,-97.957285,397
1944,29.938037,-97.893994,669
1945,29.950238,-97.884295,31
1946,29.94924,-97.87881,31
1947,29.950177,-97.878941,31
1948,29.957876,-97.876596,31
1949,29.915845,-97.848869,444
1950,29.926522,-97.83059,190
1951,29.947856,-97.880945,31
1952,29.942481,-97.882516,31
1953,29.95831,-97.877762,31
1954,29.959461,-97.877099,31
1955,29.947617,-97.880283,31
1956,29.94602,-97.844755,190
1957,29.987605,-97.836644,326
1958,29.997898,-97.850285,416
1959,29.992531,-97.842281,326
1960,29.940408,-97.846714,190
1961,29.942311,-97.82705,190
1962,29.952679,-97.837463,429
1963,29.955021,-97.83949,429
1964,29.963873,-97.849113,326
1965,29.941387,-97.80234,718
1966,29.953695,-97.808346,718
1967,29.944065,-97.798207,718
1968,29.914969,-97.896677,105
1969,29.925772,-97.891058,669
1970,29.916378,-97.895242,105
1971,29.922265,-97.892317,669
1972,29.893323,-97.88093,487
1973,29.90875,-97.859715,444
1974,29.916639,-97.878747,255
1975,29.918328,-97.876762,255
1976,29.917495,-97.895689,105
1977,29.910342,-97.899412,105
1978,29.9187,-97.895591,105
1979,29.946666,-97.879885,31
1980,29.928819,-97.864431,444
1981,29.92182,-97.856035,444
1982,29.899395,-97.905689,484
1983,29.901008,-97.904288,484
1984,29.900499,-97.905254,484
1985,29.903743,-97.902465,105
1986,29.895047,-97.899234,484
1987,29.900391,-97.889634,487
1988,29.902267,-97.90481,484
1989,29.900165,-97.906472,484
1990,29.902384,-97.904131,484
1991,29.894185,-97.900996,484
1992,29.895378,-97.904373,484
1993,29.902694,-97.902857,484
1994,29.906661,-97.900582,105
1995,29.909831,-97.900124,105
1996,29.907766,-97.900401,105
1997,29.932,-97.888354,669
1998,29.932101,-97.888748,669
1999,29.93194,-97.88714,669
2000,29.942942,-97.88172,31
2001,29.943195,-97.882564,31
2002,29.944055,-97.88247,31
2003,29.926976,-97.86222,444
2004,29.967815,-97.875762,455
2005,29.969687,-97.89606,523
2006,29.980784,-97.89222,523
2007,29.988604,-97.877025,138
2008,29.98734,-97.881341,523
2009,29.980893,-97.88974,523
2010,29.991005,-97.87655,138
2011,29.998405,-97.875004,138
2012,29.955968,-97.877251,31
2013,29.960048,-97.877361,31
2014,29.961741,-97.879345,31
2015,29.977884,-97.8736,455
2016,29.983903,-97.872529,455
2017,29.980909,-97.869032,455
2018,29.989237,-97.881134,523
2019,29.98842,-97.874175,138
2020,29.979466,-97.874473,455
2021,29.984511,-97.872966,455
2022,29.976854,-97.873979,455
2023,29.984943,-97.873281,455
2024,29.978504,-97.874173,455
2025,29.995007,-97.875758,138
2026,29.993397,-97.880581,138
2027,29.98998,-97.859024,326
2028,29.97571,-97.893847,523
2029,29.991391,-97.883102,523
2030,29.990351,-97.888739,523
2031,29.98995,-97.885996,523
2032,29.989498,-97.882908,523
2033,29.964168,-97.87511,31
2034,29.968051,-97.874544,455
2035,29.967861,-97.875366,455
2036,29.962752,-97.87637,31
2037,29.96523,-97.875565,31
2038,29.971791,-97.858385,326
2039,29.973956,-97.874605,455
2040,29.973379,-97.87508,455
2041,29.999674,-97.872733,138
2042,29.994143,-97.870195,138
2043,29.999144,-97.868018,138
2044,29.99763,-97.86942,138
2045,29.999883,-97.868179,138
2046,30.004292,-97.856041,416
2047,29.999739,-97.86852,138
2048,29.998763,-97.869521,138
2049,30.003548,-97.866759,416
2050,30.005121,-97.865053,416
2051,30.009416,-97.862153,416
2052,30.012584,-97.860204,416
2053,30.013012,-97.861302,416
2054,30.007356,-97.864561,416
2055,29.988217,-97.872226,138
2056,29.988055,-97.871805,138
2057,29.988493,-97.87533,138
2058,29.992077,-97.873158,138
2059,30.005926,-97.864224,416
2060,29.934329,-97.81764,718
2061,29.968192,-97.82357,429
2062,29.95593,-97.810699,429
2063,29.971545,-97.818273,429
2064,29.976888,-97.808745,87
2065,29.989278,-97.80845,87
2066,29.993819,-97.813678,87
2067,29.984568,-97.817677,87
2068,29.961303,-97.832749,429
2069,29.99912,-97.834605,87
2070,30.000962,-97.821896,87
2071,29.965926,-97.795661,209
2072,29.964911,-97.794449,209
2073,30.0323,-97.847014,271
2074,30.041811,-97.842152,379
2075,30.032835,-97.846357,271
2076,30.035577,-97.844714,271
2077,30.035737,-97.846154,271
2078,30.056751,-97.844468,379
2079,30.079887,-97.874335,689
2080,30.085233,-97.874376,228
2081,30.057411,-97.859417,689
2082,30.057888,-97.844172,379
2083,30.085233,-97.849017,485
2084,30.071266,-97.84389,7
2085,30.038451,-97.84427,271
2086,30.032572,-97.847181,271
2087,30.040561,-97.843567,379
2088,30.078846,-97.843981,485
2089,30.081515,-97.842408,485
2090,30.072526,-97.855312,689
2091,30.087256,-97.830648,185
2092,30.07893,-97.823356,185
2093,30.08137,-97.821978,185
2094,30.070274,-97.810744,608
2095,30.094569,-97.810998,568
2096,30.084451,-97.781297,203
2097,30.086583,-97.848656,485
2098,30.081757,-97.823239,185
2099,30.079485,-97.824447,185
2100,30.08252,-97.822475,185
2101,30.076016,-97.825784,185
2102,30.082232,-97.822216,185
2103,30.077746,-97.824566,185
2104,30.092478,-97.848376,485
2105,30.141052,-97.839895,499
2106,30.140901,-97.846645,257
2107,30.042635,-97.884639,436
2108,30.049961,-97.874437,436
2109,30.02744,-97.88916,313
2110,30.027821,-97.874967,77
2111,30.034703,-97.874957,436
2112,30.019116,-97.899698,313
2113,30.021271,-97.854719,416
2114,30.029776,-97.848174,271
2115,30.029759,-97.849023,271
2116,30.02232,-97.853646,271
2117,30.022693,-97.854123,271
2118,30.01694,-97.858252,416
2119,30.068251,-97.873629,689
2120,30.104231,-97.874942,112
2121,30.092148,-97.874553,228
2122,30.097269,-97.874777,228
2123,30.095573,-97.891498,228
2124,30.114723,-97.874813,112
2125,30.124805,-97.862555,112
2126,30.100671,-97.848911,485
2127,30.100605,-97.860949,112
2128,30.117934,-97.872072,112
2129,30.048613,-97.838751,379
2130,30.044463,-97.840432,379
2131,30.04977,-97.837808,379
2132,30.030178,-97.8244,372
2133,30.024867,-97.789988,180
2134,30.058252,-97.821052,608
2135,30.046184,-97.80319,180
2136,30.0519,-97.838021,379
2137,30.046293,-97.840771,379
2138,30.050612,-97.838215,379
2139,30.046387,-97.840289,379
2140,30.058509,-97.803453,608
2141,30.071613,-97.821368,608
2142,30.039995,-97.842572,379
2143,30.04291,-97.842069,379
2144,30.041884,-97.842901,379
2145,30.066202,-97.843692,7
2146,30.058164,-97.833704,379
2147,30.062222,-97.831705,674
2148,30.070839,-97.827419,674
2149,30.057803,-97.840129,379
2150,30.07068,-97.828798,674
2151,30.07683,-97.834637,674
2152,30.077186,-97.82572,185
2153,30.065182,-97.821221,608
2154,30.062529,-97.832814,674
2155,30.07175,-97.82791,674
2156,30.062354,-97.832455,674
2157,30.075844,-97.825589,674
2158,30.057454,-97.834413,379
2159,30.057939,-97.836082,379
2160,30.076801,-97.835362,674
2161,30.077202,-97.824359,185
2162,30.077346,-97.821442,185
2163,30.06067,-97.804117,608
2164,30.070329,-97.806658,608
2165,30.094963,-97.813585,568
2166,30.099335,-97.811285,568
2167,30.098435,-97.81269,568
2168,30.108909,-97.807884,51
2169,30.112057,-97.808283,51
2170,30.108447,-97.8089,51
2171,30.09896,-97.813399,568
2172,30.118369,-97.804675,51
2173,30.109649,-97.809274,51
2174,30.099359,-97.81391,568
2175,30.114252,-97.804835,51
2176,30.112147,-97.805531,51
2177,30.115732,-97.805049,51
2178,30.117582,-97.805905,51
2179,30.142797,-97.802155,717
2180,30.140481,-97.822986,499
2181,30.112819,-97.795296,632
2182,30.088967,-97.819233,568
2183,30.097371,-97.814901,568
2184,30.086778,-97.820047,568
2185,30.095201,-97.81455,568
2186,30.088498,-97.817877,568
2187,30.095267,-97.815648,568
2188,30.08977,-97.817858,568
2189,30.094513,-97.794342,203
2190,30.100245,-97.781725,203
2191,30.109372,-97.806761,51
2192,30.112981,-97.792339,632
2193,30.130465,-97.798256,717
2194,30.129586,-97.799486,717
2195,30.136987,-97.798363,717
2196,30.126556,-97.802268,717
2197,30.138052,-97.796223,717
2198,30.138468,-97.795207,717
2199,30.129632,-97.800342,717
2200,30.13634,-97.796009,717
2201,30.141058,-97.7951,344
2202,30.125677,-97.801787,717
2203,30.136175,-97.791399,344
2204,30.290398,-98.020961,680
2205,30.187541,-97.912924,132
2206,30.182088,-97.89988,746
2207,30.203564,-97.915917,596
2208,30.218164,-97.894051,577
2209,30.234304,-97.910849,70
2210,30.230046,-97.895393,135
2211,30.275312,-97.91381,438
2212,30.28033,-97.904212,438
2213,30.307708,-97.927441,214
2214,30.307834,-97.892772,648
2215,30.289788,-97.917446,438
2216,30.181256,-97.90037,746
2217,30.186433,-97.913792,132
2218,30.201796,-97.918388,596
2219,30.260021,-97.907067,388
2220,30.251859,-97.918722,70
2221,30.282704,-97.876244,328
2222,30.2734,-97.862617,328
2223,30.284143,-97.875022,328
2224,30.277539,-97.819556,533
2225,30.27584,-97.815575,533
2226,30.283842,-97.824162,33
2227,30.276482,-97.803384,374
2228,30.279916,-97.807103,374
2229,30.262313,-97.888867,388
2230,30.386976,-97.903719,501
2231,30.281131,-97.842637,620
2232,30.269707,-97.850778,737
2233,30.274195,-97.812513,533
2234,30.272939,-97.798176,374
2235,30.215547,-98.02279,727
2236,30.196676,-98.013609,637
2237,30.179153,-97.965435,450
2238,30.228909,-97.95054,248
2239,30.208494,-97.972777,43
2240,30.215089,-97.964775,43
2241,30.196532,-97.997346,637
2242,30.217079,-97.962868,704
2243,30.233343,-97.980853,367
2244,30.221726,-97.955777,704
2245,30.153427,-98.008778,142
2246,30.167389,-98.008567,142
2247,30.178509,-98.002331,142
2248,30.194559,-98.029824,244
2249,30.153575,-97.994535,531
2250,30.23749,-98.026025,641
2251,30.24336,-98.021496,641
2252,30.217224,-98.02376,727
2253,30.234439,-98.005382,367
2254,30.232748,-97.991675,367
2255,30.231634,-97.999975,367
2256,30.180144,-97.966104,450
2257,30.174159,-97.929221,132
2258,30.161605,-97.952457,450
2259,30.189131,-97.926918,413
2260,30.197962,-97.920828,596
2261,30.194456,-97.923225,413
2262,30.193069,-97.924096,413
2263,30.225762,-97.946665,248
2264,30.230666,-97.931553,584
2265,30.241088,-97.94163,248
2266,30.240527,-97.920292,70
2267,30.246061,-97.92715,70
2268,30.241424,-97.940784,248
2269,30.223176,-97.952875,704
2270,30.231228,-97.928424,584
2271,30.238639,-97.918139,70
2272,30.303727,-97.997469,680
2273,30.306929,-97.970205,20
2274,30.315871,-97.97799,20
2275,30.309794,-97.965369,20
2276,30.334263,-97.968559,290
2277,30.357365,-97.978713,357
2278,30.354141,-97.96117,176
2279,30.354964,-97.986207,357
2280,30.308263,-97.94502,724
2281,30.304819,-97.935671,214
2282,30.307893,-97.956127,724
2283,30.32185,-97.955313,724
2284,30.359059,-97.954035,176
2285,30.391435,-97.937119,350
2286,30.153247,-97.833034,499
2287,30.183334,-97.849577,370
2288,30.190407,-97.845121,732
2289,30.210837,-97.858899,195
2290,30.218765,-97.838342,460
2291,30.21052,-97.858555,195
2292,30.217492,-97.838693,460
2293,30.202866,-97.837208,732
2294,30.214383,-97.850213,195
2295,30.208101,-97.888666,581
2296,30.219574,-97.843778,460
2297,30.232333,-97.840227,631
2298,30.227366,-97.831071,119
2299,30.248549,-97.850943,9
2300,30.245545,-97.845201,9
2301,30.169901,-97.859566,370
2302,30.176355,-97.835481,583
2303,30.211092,-97.831757,227
2304,30.21668,-97.845643,460
2305,30.211544,-97.825433,227
2306,30.213668,-97.830107,227
2307,30.218339,-97.805362,231
2308,30.213589,-97.814537,337
2309,30.215206,-97.797393,231
2310,30.213555,-97.794039,231
2311,30.223141,-97.841448,460
2312,30.224641,-97.85483,600
2313,30.233736,-97.84074,631
2314,30.23635,-97.832664,119
2315,30.236609,-97.83963,631
2316,30.237141,-97.831908,119
2317,30.237639,-97.83963,631
2318,30.206976,-97.815059,337
2319,30.208596,-97.80447,337
2320,30.213597,-97.850916,195
2321,30.204062,-97.858604,195
2322,30.206944,-97.84541,732
2323,30.23683,-97.837139,631
2324,30.237161,-97.837182,631
2325,30.23695,-97.842302,631
2326,30.236655,-97.842259,631
2327,30.174337,-97.888236,477
2328,30.180271,-97.878955,477
2329,30.199346,-97.867275,45
2330,30.180052,-97.878449,477
2331,30.185813,-97.874961,477
2332,30.199122,-97.865671,45
2333,30.200434,-97.877747,581
2334,30.175337,-97.85482,370
2335,30.190033,-97.89058,746
2336,30.188385,-97.89214,746
2337,30.157165,-97.859768,257
2338,30.16629,-97.860619,370
2339,30.165113,-97.860279,370
2340,30.193757,-97.85882,45
2341,30.199057,-97.871973,45
2342,30.198771,-97.852364,195
2343,30.207564,-97.860569,195
2344,30.20827,-97.861604,195
2345,30.220789,-97.872676,600
2346,30.23047,-97.87927,353
2347,30.227623,-97.872836,600
2348,30.243252,-97.883117,353
2349,30.247218,-97.888438,388
2350,30.240749,-97.880658,353
2351,30.236775,-97.877965,353
2352,30.243905,-97.879527,353
2353,30.25574,-97.890434,388
2354,30.242347,-97.878275,353
2355,30.2569,-97.871023,737
2356,30.245212,-97.864037,9
2357,30.244091,-97.863216,9
2358,30.240407,-97.8914,135
2359,30.236802,-97.8836,353
2360,30.221946,-97.892219,577
2361,30.236646,-97.900652,135
2362,30.238761,-97.890584,135
2363,30.260195,-97.902225,388
2364,30.256776,-97.893795,388
2365,30.257265,-97.88907,388
2366,30.25114,-97.896549,388
2367,30.257047,-97.904199,388
2368,30.216061,-97.8624,600
2369,30.220274,-97.85766,600
2370,30.225608,-97.868584,600
2371,30.229763,-97.864518,600
2372,30.227832,-97.861267,600
2373,30.222852,-97.862833,600
2374,30.227426,-97.860449,600
2375,30.236052,-97.854532,9
2376,30.23514,-97.854813,9
2377,30.223181,-97.871649,600
2378,30.223243,-97.863618,600
2379,30.217862,-97.852537,195
2380,30.223843,-97.855347,600
2381,30.218741,-97.854334,600
2382,30.273753,-97.856936,737
2383,30.251431,-97.85779,737
2384,30.254374,-97.864878,737
2385,30.249645,-97.853226,9
2386,30.173459,-97.823559,583
2387,30.179605,-97.819921,461
2388,30.173662,-97.816884,461
2389,30.173886,-97.809477,461
2390,30.176355,-97.832375,583
2391,30.185679,-97.816079,461
2392,30.185283,-97.810546,461
2393,30.179238,-97.795686,28
2394,30.180182,-97.79517,28
2395,30.182422,-97.788699,28
2396,30.172747,-97.785005,28
2397,30.199803,-97.80716,337
2398,30.191134,-97.812608,461
2399,30.202665,-97.806668,337
2400,30.180485,-97.802237,461
2401,30.180831,-97.807529,461
2402,30.178514,-97.808159,461
2403,30.177279,-97.803448,461
2404,30.202762,-97.812793,337
2405,30.18864,-97.828925,161
2406,30.176355,-97.833872,583
2407,30.1607,-97.802057,136
2408,30.164189,-97.830006,583
2409,30.169231,-97.825103,583
2410,30.187778,-97.827104,161
2411,30.194472,-97.830519,161
2412,30.199763,-97.820203,337
2413,30.201214,-97.838303,732
2414,30.195122,-97.842094,732
2415,30.191706,-97.814837,461
2416,30.197267,-97.816427,337
2417,30.195762,-97.821196,161
2418,30.189681,-97.824843,161
2419,30.198839,-97.819117,337
2420,30.172226,-97.799273,28
2421,30.166962,-97.788279,470
2422,30.173904,-97.798642,28
2423,30.174077,-97.790784,28
2424,30.163204,-97.788333,470
2425,30.155768,-97.790981,470
2426,30.162464,-97.78959,470
2427,30.166939,-97.787129,470
2428,30.160891,-97.787557,470
2429,30.162002,-97.787985,470
2430,30.173786,-97.80677,461
2431,30.157098,-97.79141,470
2432,30.149732,-97.793656,344
2433,30.156987,-97.788798,470
2434,30.165459,-97.787076,470
2435,30.185486,-97.802486,461
2436,30.183698,-97.792438,28
2437,30.198722,-97.791851,498
2438,30.192877,-97.790057,498
2439,30.194474,-97.783017,498
2440,30.19698,-97.787501,498
2441,30.199096,-97.793366,498
2442,30.200171,-97.798499,498
2443,30.194362,-97.789132,498
2444,30.207745,-97.794017,231
2445,30.202191,-97.804482,337
2446,30.199384,-97.805942,337
2447,30.198903,-97.802201,337
2448,30.189777,-97.790227,498
2449,30.182928,-97.786171,28
2450,30.191804,-97.783996,498
2451,30.180322,-97.790013,28
2452,30.183114,-97.781832,215
2453,30.204353,-97.791199,498
2454,30.21132,-97.789122,231
2455,30.210516,-97.786904,291
2456,30.198363,-97.790864,498
2457,30.202228,-97.784275,291
2458,30.205473,-97.790072,498
2459,30.209203,-97.784479,291
2460,30.222801,-97.805243,678
2461,30.22805,-97.809223,678
2462,30.233858,-97.821453,119
2463,30.23245,-97.808305,678
2464,30.232666,-97.818097,119
2465,30.231455,-97.806939,678
2466,30.238975,-97.819349,119
2467,30.244234,-97.808808,359
2468,30.240218,-97.82839,119
2469,30.238702,-97.82134,119
2470,30.257974,-97.812264,163
2471,30.218583,-97.806739,231
2472,30.215003,-97.813629,337
2473,30.23355,-97.810437,678
2474,30.236386,-97.825435,119
2475,30.233955,-97.810455,678
2476,30.233651,-97.818327,119
2477,30.244695,-97.807022,359
2478,30.24515,-97.80612,359
2479,30.237759,-97.820834,119
2480,30.243412,-97.782109,335
2481,30.245978,-97.807716,359
2482,30.249719,-97.806316,359
2483,30.251923,-97.802314,359
2484,30.263752,-97.816613,163
2485,30.218206,-97.82717,227
2486,30.233436,-97.826613,119
2487,30.227029,-97.830077,119
2488,30.232864,-97.825502,119
2489,30.23606,-97.829883,119
2490,30.235193,-97.825605,119
2491,30.236837,-97.825746,119
2492,30.236089,-97.824203,119
2493,30.219506,-97.826329,227
2494,30.236495,-97.830177,119
2495,30.236772,-97.830217,119
2496,30.231272,-97.827504,119
2497,30.222202,-97.835212,460
2498,30.221992,-97.834969,460
2499,30.231272,-97.826983,119
2500,30.219835,-97.836259,460
2501,30.220703,-97.836875,460
2502,30.217456,-97.834436,460
2503,30.23648,-97.824848,119
2504,30.237683,-97.823722,119
2505,30.234639,-97.824175,119
2506,30.236251,-97.822684,119
2507,30.237186,-97.821308,119
2508,30.237333,-97.822571,119
2509,30.237105,-97.822005,119
2510,30.234337,-97.820512,119
2511,30.23579,-97.823091,119
2512,30.260888,-97.814364,163
2513,30.263578,-97.816797,163
2514,30.266143,-97.817979,163
2515,30.2716,-97.817588,533
2516,30.271717,-97.817882,533
2517,30.267828,-97.81834,163
2518,30.265414,-97.818023,163
2519,30.218078,-97.795323,231
2520,30.227708,-97.808527,678
2521,30.232107,-97.800515,508
2522,30.233286,-97.796057,508
2523,30.232689,-97.798636,508
2524,30.235575,-97.793702,508
2525,30.23398,-97.797025,508
2526,30.23697,-97.798816,508
2527,30.232953,-97.794725,508
2528,30.220448,-97.793757,231
2529,30.222744,-97.798451,231
2530,30.229003,-97.801013,678
2531,30.230355,-97.789878,52
2532,30.223115,-97.799201,231
2533,30.230378,-97.788003,52
2534,30.229342,-97.78654,52
2535,30.234377,-97.796031,508
2536,30.235927,-97.79778,508
2537,30.232603,-97.800213,508
2538,30.235198,-97.794501,508
2539,30.233339,-97.798214,508
2540,30.232583,-97.793235,508
2541,30.229617,-97.788557,52
2542,30.228047,-97.801512,678
2543,30.228254,-97.789269,52
2544,30.229025,-97.799467,508
2545,30.230386,-97.793822,508
2546,30.230122,-97.797975,508
2547,30.217546,-97.801713,231
2548,30.225331,-97.803685,678
2549,30.231462,-97.804014,678
2550,30.231804,-97.804853,678
2551,30.232967,-97.800718,508
2552,30.232413,-97.80632,678
2553,30.232432,-97.807216,678
2554,30.238041,-97.798967,508
2555,30.232875,-97.808476,678
2556,30.233151,-97.807964,678
2557,30.232009,-97.806884,678
2558,30.237916,-97.79928,508
2559,30.225517,-97.790699,52
2560,30.236651,-97.792052,508
2561,30.237902,-97.789945,508
2562,30.233587,-97.785525,52
2563,30.230721,-97.789249,52
2564,30.232393,-97.792418,508
2565,30.236646,-97.78352,52
2566,30.233574,-97.794596,508
2567,30.23119,-97.791055,52
2568,30.233917,-97.795234,508
2569,30.260056,-97.805347,359
2570,30.261715,-97.80888,163
2571,30.256001,-97.80054,359
2572,30.260262,-97.794047,434
2573,30.258713,-97.79617,434
2574,30.260209,-97.79324,434
2575,30.260195,-97.810167,163
2576,30.258993,-97.797666,434
2577,30.272563,-97.797651,374
2578,30.270391,-97.791447,84
2579,30.263095,-97.788804,84
2580,30.260676,-97.794025,434
2581,30.25742,-97.799849,359
2582,30.26073,-97.792218,434
2583,30.262343,-97.789257,434
2584,30.266681,-97.805797,163
2585,30.262226,-97.791986,434
2586,30.263327,-97.789245,434
2587,30.24763,-97.804075,359
2588,30.251005,-97.806613,359
2589,30.252168,-97.805827,359
2590,30.255017,-97.803706,359
2591,30.258601,-97.802677,359
2592,30.250175,-97.802627,359
2593,30.253313,-97.801443,359
2594,30.255686,-97.803534,359
2595,30.256627,-97.802043,359
2596,30.272874,-97.801035,374
2597,30.274274,-97.80014,374
2598,30.252789,-97.784927,335
2599,30.264663,-97.78723,84
2600,30.26362,-97.787056,84
2601,30.266277,-97.782899,84
2602,30.264301,-97.788165,84
2603,30.263404,-97.789885,434
2604,30.264583,-97.784744,84
2605,30.265011,-97.786332,84
2606,30.289039,-97.86919,328
2607,30.303022,-97.843429,311
2608,30.33747,-97.864691,425
2609,30.341261,-97.881847,425
2610,30.35662,-97.832265,625
2611,30.394252,-97.845181,30
2612,30.398789,-97.844551,30
2613,30.309888,-97.844822,311
2614,30.313104,-97.852347,311
2615,30.370289,-97.860451,200
2616,30.312663,-97.881033,110
2617,30.316056,-97.872294,110
2618,30.331027,-97.885542,425
2619,30.322847,-97.87288,110
2620,30.377304,-97.884445,501
2621,30.377412,-97.879879,501
2622,30.382368,-97.871525,200
2623,30.394185,-97.868841,200
2624,30.389427,-97.882163,501
2625,30.394712,-97.866069,200
2626,30.283109,-97.810687,374
2627,30.298997,-97.81519,522
2628,30.298207,-97.802389,464
2629,30.314974,-97.826522,522
2630,30.309577,-97.826156,522
2631,30.316063,-97.825211,522
2632,30.309545,-97.825762,522
2633,30.321072,-97.816305,522
2634,30.290013,-97.819354,33
2635,30.310491,-97.801552,464
2636,30.308132,-97.796794,464
2637,30.313248,-97.79433,464
2638,30.322091,-97.815584,47
2639,30.305985,-97.782053,250
2640,30.300892,-97.839075,311
2641,30.295865,-97.82877,33
2642,30.283963,-97.832888,620
2643,30.293077,-97.82808,33
2644,30.298267,-97.827853,33
2645,30.295467,-97.827438,33
2646,30.29285,-97.822481,33
2647,30.299516,-97.818977,522
2648,30.293223,-97.82844,33
2649,30.297657,-97.828157,33
2650,30.281643,-97.842091,620
2651,30.284166,-97.83342,620
2652,30.304314,-97.840649,311
2653,30.290327,-97.828309,33
2654,30.287733,-97.826976,33
2655,30.305178,-97.825485,522
2656,30.30455,-97.825413,522
2657,30.292344,-97.797985,374
2658,30.289988,-97.790063,683
2659,30.304525,-97.794835,464
2660,30.290906,-97.801329,374
2661,30.281367,-97.808305,374
2662,30.291352,-97.782574,683
2663,30.303467,-97.786596,250
2664,30.316944,-97.792957,464
2665,30.321771,-97.794192,464
2666,30.333169,-97.792225,629
2667,30.332832,-97.800471,47
2668,30.328719,-97.790419,629
2669,30.323684,-97.794141,629
2670,30.331043,-97.788907,629
2671,30.335185,-97.806284,47
2672,30.334512,-97.804247,47
2673,30.331682,-97.789923,629
2674,30.379096,-97.827727,288
2675,30.365612,-97.79694,527
2676,30.364429,-97.828657,625
2677,30.369555,-97.801644,253
2678,30.377974,-97.796726,253
2679,30.37739,-97.805007,253
2680,30.387687,-97.824323,288
2681,30.392014,-97.838754,288
2682,30.359284,-97.79047,346
2683,30.366071,-97.789691,527
2684,30.35956,-97.792073,346
2685,30.356715,-97.792832,346
2686,30.363111,-97.790418,346
2687,30.356539,-97.792341,346
2688,30.385861,-97.798527,253
2689,30.021253,-97.742644,336
2690,30.009015,-97.72796,660
2691,30.024991,-97.699893,262
2692,30.091222,-97.655379,154
2693,30.099121,-97.636677,154
2694,30.126139,-97.640916,555
2695,30.110472,-97.65021,234
2696,30.112969,-97.649334,234
2697,29.994679,-97.749232,65
2698,29.97976,-97.764403,65
2699,30.061381,-97.7375,134
2700,30.063897,-97.710553,475
2701,30.079628,-97.754532,134
2702,30.089855,-97.734261,559
2703,30.080573,-97.735104,134
2704,30.088539,-97.71432,14
2705,30.09333,-97.693648,128
2706,30.120769,-97.714933,380
2707,30.112132,-97.694721,380
2708,30.069984,-97.685891,430
2709,30.081814,-97.665963,329
2710,30.08621,-97.671268,329
2711,30.108393,-97.722686,559
2712,30.089301,-97.693484,128
2713,30.128798,-97.709943,380
2714,30.032842,-97.767823,681
2715,30.024813,-97.746917,336
2716,30.076519,-97.748151,134
2717,30.074841,-97.735035,134
2718,30.046374,-97.755827,681
2719,30.058424,-97.746461,134
2720,30.066423,-97.732168,134
2721,30.100159,-97.755922,511
2722,30.126941,-97.774975,632
2723,30.111202,-97.749035,256
2724,30.106093,-97.738208,559
2725,30.133965,-97.755881,614
2726,30.114963,-97.746603,256
2727,30.123976,-97.740532,256
2728,30.113733,-97.719341,380
2729,30.093566,-97.761764,511
2730,30.138118,-97.773374,742
2731,30.100934,-97.727371,559
2732,30.135335,-97.733256,614
2733,30.058231,-97.703773,475
2734,30.027369,-97.688502,392
2735,30.098475,-97.683197,128
2736,30.106732,-97.674058,329
2737,30.115064,-97.694848,380
2738,30.12938,-97.683977,272
2739,30.135807,-97.680223,272
2740,30.121538,-97.667553,234
2741,30.097144,-97.684563,128
2742,30.119328,-97.690349,380
2743,30.106856,-97.694471,128
2744,30.129184,-97.69566,524
2745,30.095123,-97.660082,329
2746,30.138109,-97.678447,272
2747,30.120507,-97.634975,602
2748,30.109931,-97.622726,408
2749,30.141786,-97.615924,602
2750,30.132645,-97.621771,602
2751,30.104783,-97.628491,408
2752,30.274283,-97.771166,740
2753,30.279042,-97.767623,740
2754,30.2773,-97.770504,740
2755,30.278347,-97.772898,740
2756,30.275636,-97.76678,740
2757,30.278952,-97.767164,740
2758,30.275212,-97.765354,740
2759,30.279888,-97.758443,261
2760,30.276683,-97.751107,428
2761,30.277965,-97.750506,428
2762,30.27809,-97.744172,428
2763,30.277798,-97.736099,639
2764,30.278945,-97.724252,306
2765,30.279808,-97.718872,196
2766,30.277082,-97.716191,196
2767,30.280124,-97.716795,196
2768,30.190898,-97.647323,720
2769,30.280604,-97.713907,196
2770,30.283767,-97.656039,108
2771,30.278209,-97.768537,740
2772,30.276552,-97.76984,740
2773,30.280874,-97.768257,740
2774,30.28204,-97.766402,740
2775,30.277098,-97.768748,740
2776,30.278562,-97.74592,428
2777,30.277598,-97.746279,428
2778,30.277633,-97.742615,428
2779,30.276069,-97.743195,428
2780,30.276807,-97.739643,639
2781,30.276002,-97.736773,106
2782,30.278717,-97.731664,106
2783,30.277162,-97.73278,106
2784,30.278471,-97.73074,106
2785,30.275649,-97.731733,106
2786,30.279502,-97.729157,306
2787,30.273559,-97.731662,106
2788,30.280034,-97.729494,306
2789,30.278252,-97.728161,306
2790,30.274963,-97.729499,106
2791,30.28001,-97.728054,306
2792,30.272944,-97.731,106
2793,30.280392,-97.727442,306
2794,30.279509,-97.720765,306
2795,30.276829,-97.72021,196
2796,30.275982,-97.70408,196
2797,30.279486,-97.701825,299
2798,30.276636,-97.699985,299
2799,30.278268,-97.69086,427
2800,30.27744,-97.695931,427
2801,30.278712,-97.686804,427
2802,30.275847,-97.688679,427
2803,30.282652,-97.653111,469
2804,30.280765,-97.648133,469
2805,30.292329,-97.653084,108
2806,30.299934,-97.648122,355
2807,30.352318,-97.646396,358
2808,30.389402,-97.656381,95
2809,30.38679,-97.648404,95
2810,30.155885,-97.638011,62
2811,30.161242,-97.649013,62
2812,30.18045,-97.64624,720
2813,30.166537,-97.65984,476
2814,30.278334,-97.641634,469
2815,30.276595,-97.636962,469
2816,30.285972,-97.630927,225
2817,30.280296,-97.609429,55
2818,30.27574,-97.59952,708
2819,30.28876,-97.574784,98
2820,30.267849,-97.5478,664
2821,30.302651,-97.653749,355
2822,30.328642,-97.654765,733
2823,30.333212,-97.652719,733
2824,30.336064,-97.65136,733
2825,30.377272,-97.658636,605
2826,30.276726,-97.739351,639
2827,30.27895,-97.738418,639
2828,30.277378,-97.741699,639
2829,30.279511,-97.740918,639
2830,30.275694,-97.735708,106
2831,30.279407,-97.734201,639
2832,30.283954,-97.656965,108
2833,30.276671,-97.659168,108
2834,30.278136,-97.662454,108
2835,30.279302,-97.673771,108
2836,30.279751,-97.680314,715
2837,30.274242,-97.680401,427
2838,30.278018,-97.684679,427
2839,30.211935,-97.657026,552
2840,30.202928,-97.639066,109
2841,30.337559,-97.719007,324
2842,30.387485,-97.64909,95
2843,30.384563,-97.644702,95
2844,30.209457,-97.652986,552
2845,30.209191,-97.653118,552
2846,30.211133,-97.657961,552
2847,30.208625,-97.7725,291
2848,30.214937,-97.768502,652
2849,30.179253,-97.720695,483
2850,30.189539,-97.703901,483
2851,30.212605,-97.745592,375
2852,30.212424,-97.736708,676
2853,30.205211,-97.716385,265
2854,30.203097,-97.712016,265
2855,30.21781,-97.774575,652
2856,30.205546,-97.759339,117
2857,30.212804,-97.754536,375
2858,30.209693,-97.756356,117
2859,30.213221,-97.753358,375
2860,30.208861,-97.756035,117
2861,30.212735,-97.752689,375
2862,30.210491,-97.754054,375
2863,30.212319,-97.7521,375
2864,30.211787,-97.752395,375
2865,30.209953,-97.74713,375
2866,30.206682,-97.740275,375
2867,30.214518,-97.735299,676
2868,30.208496,-97.723017,676
2869,30.22924,-97.712447,207
2870,30.230142,-97.714194,207
2871,30.242277,-97.716967,572
2872,30.252756,-97.712431,710
2873,30.25478,-97.718293,300
2874,30.25639,-97.710716,710
2875,30.261275,-97.717085,300
2876,30.259778,-97.709095,710
2877,30.261683,-97.716147,300
2878,30.263203,-97.712655,300
2879,30.270125,-97.714709,196
2880,30.270516,-97.712249,196
2881,30.158589,-97.728433,82
2882,30.172365,-97.700983,140
2883,30.172286,-97.721729,483
2884,30.214782,-97.710248,265
2885,30.23855,-97.719287,572
2886,30.253619,-97.711994,710
2887,30.255881,-97.718546,300
2888,30.273736,-97.715494,196
2889,30.274602,-97.712717,196
2890,30.274147,-97.715578,196
2891,30.210789,-97.748887,375
2892,30.208545,-97.744127,375
2893,30.213391,-97.745062,375
2894,30.214327,-97.766695,652
2895,30.207615,-97.765238,117
2896,30.205739,-97.769721,291
2897,30.213517,-97.733596,676
2898,30.21865,-97.717933,265
2899,30.21391,-97.701229,705
2900,30.211305,-97.712535,265
2901,30.212359,-97.711892,265
2902,30.216178,-97.665134,507
2903,30.212026,-97.714789,265
2904,30.211582,-97.709216,265
2905,30.212058,-97.709253,265
2906,30.212438,-97.714752,265
2907,30.215163,-97.698437,705
2908,30.213843,-97.661824,552
2909,30.2136,-97.662104,552
2910,30.21491,-97.73356,676
2911,30.212168,-97.717869,265
2912,30.213182,-97.717795,265
2913,30.212153,-97.70643,265
2914,30.213072,-97.70698,265
2915,30.215511,-97.698621,705
2916,30.220985,-97.676929,507
2917,30.186796,-97.773082,215
2918,30.177514,-97.769536,607
2919,30.183475,-97.768677,607
2920,30.159699,-97.759613,221
2921,30.158249,-97.745726,548
2922,30.184813,-97.756169,607
2923,30.184613,-97.768251,607
2924,30.173972,-97.741951,548
2925,30.186753,-97.774095,215
2926,30.184933,-97.744809,198
2927,30.200126,-97.741997,573
2928,30.179624,-97.74658,198
2929,30.172862,-97.751399,548
2930,30.196782,-97.743914,573
2931,30.201675,-97.751597,117
2932,30.193563,-97.749468,198
2933,30.193815,-97.744422,573
2934,30.186709,-97.751639,198
2935,30.169612,-97.745832,548
2936,30.170586,-97.752905,548
2937,30.180834,-97.750023,198
2938,30.179624,-97.75661,607
2939,30.180521,-97.76206,607
2940,30.157315,-97.769031,221
2941,30.165894,-97.769101,221
2942,30.160402,-97.769391,221
2943,30.170108,-97.768355,221
2944,30.197649,-97.776586,215
2945,30.188966,-97.767462,607
2946,30.187447,-97.76254,607
2947,30.192625,-97.768854,215
2948,30.198488,-97.764091,117
2949,30.190751,-97.771316,215
2950,30.198881,-97.764733,117
2951,30.197713,-97.762753,117
2952,30.192532,-97.769871,215
2953,30.200095,-97.763796,117
2954,30.200477,-97.762512,117
2955,30.195427,-97.764599,215
2956,30.203414,-97.759112,117
2957,30.192255,-97.768212,215
2958,30.193442,-97.75189,198
2959,30.194952,-97.757931,117
2960,30.200557,-97.753974,117
2961,30.182765,-97.760827,607
2962,30.181699,-97.764201,607
2963,30.187735,-97.773447,215
2964,30.18712,-97.771021,215
2965,30.186796,-97.772118,215
2966,30.185189,-97.772304,215
2967,30.190404,-97.77062,215
2968,30.191645,-97.774397,215
2969,30.18971,-97.769175,215
2970,30.191283,-97.767944,215
2971,30.193356,-97.766271,215
2972,30.192585,-97.76472,215
2973,30.201081,-97.769338,215
2974,30.203904,-97.765663,117
2975,30.193329,-97.754146,198
2976,30.191947,-97.748455,198
2977,30.186275,-97.758745,607
2978,30.205669,-97.758283,117
2979,30.204917,-97.756918,117
2980,30.202489,-97.758898,117
2981,30.210792,-97.75301,375
2982,30.203236,-97.753715,117
2983,30.165435,-97.74138,548
2984,30.162431,-97.735733,82
2985,30.159963,-97.736012,82
2986,30.162941,-97.725755,82
2987,30.166247,-97.736779,82
2988,30.168772,-97.738198,548
2989,30.194831,-97.737524,573
2990,30.198516,-97.73521,573
2991,30.183938,-97.744425,198
2992,30.193114,-97.738624,573
2993,30.189512,-97.740932,573
2994,30.187287,-97.74233,198
2995,30.188594,-97.745234,198
2996,30.184367,-97.744456,198
2997,30.190794,-97.744502,573
2998,30.201952,-97.742026,573
2999,30.246417,-97.768935,529
3000,30.244162,-97.764886,529
3001,30.215595,-97.749437,375
3002,30.216208,-97.743861,375
3003,30.222241,-97.748085,375
3004,30.226878,-97.745301,4
3005,30.223675,-97.748112,4
3006,30.222218,-97.746211,4
3007,30.244504,-97.757351,529
3008,30.246369,-97.756137,529
3009,30.229559,-97.744644,4
3010,30.236584,-97.74855,685
3011,30.233874,-97.741993,4
3012,30.245581,-97.753343,685
3013,30.244013,-97.75133,685
3014,30.244906,-97.750998,685
3015,30.234455,-97.741698,4
3016,30.244336,-97.757454,529
3017,30.243417,-97.763581,529
3018,30.252084,-97.748325,206
3019,30.256886,-97.746562,206
3020,30.25834,-97.748045,206
3021,30.258882,-97.745798,206
3022,30.260412,-97.745264,558
3023,30.268103,-97.747413,558
3024,30.267783,-97.746287,558
3025,30.275468,-97.747072,428
3026,30.275151,-97.745968,428
3027,30.219391,-97.747937,375
3028,30.220853,-97.747121,375
3029,30.227688,-97.745702,4
3030,30.226161,-97.744819,4
3031,30.221709,-97.747469,375
3032,30.238012,-97.745263,685
3033,30.239417,-97.747327,685
3034,30.244258,-97.745091,685
3035,30.245881,-97.750651,685
3036,30.242209,-97.736312,269
3037,30.246302,-97.735297,269
3038,30.244603,-97.730201,269
3039,30.247625,-97.733949,269
3040,30.241989,-97.739073,269
3041,30.243388,-97.736482,269
3042,30.245383,-97.735998,269
3043,30.249646,-97.735046,269
3044,30.243739,-97.734619,269
3045,30.244364,-97.733628,269
3046,30.26374,-97.746417,558
3047,30.264089,-97.747649,558
3048,30.265967,-97.746952,558
3049,30.269688,-97.745592,558
3050,30.270073,-97.746957,558
3051,30.271522,-97.744895,558
3052,30.272419,-97.748213,22
3053,30.26867,-97.745963,558
3054,30.269643,-97.749236,22
3055,30.247997,-97.749857,206
3056,30.244676,-97.741499,269
3057,30.231102,-97.750867,685
3058,30.24814,-97.761886,529
3059,30.243776,-97.764056,529
3060,30.214749,-97.750702,375
3061,30.215717,-97.746356,375
3062,30.216605,-97.746448,375
3063,30.215896,-97.750057,375
3064,30.215955,-97.738253,676
3065,30.215163,-97.749692,375
3066,30.21567,-97.738473,676
3067,30.226916,-97.769235,235
3068,30.229124,-97.767801,235
3069,30.222301,-97.763968,452
3070,30.219675,-97.758024,452
3071,30.224811,-97.766818,235
3072,30.226014,-97.762072,452
3073,30.229425,-97.759921,452
3074,30.228159,-97.772839,235
3075,30.231228,-97.763595,452
3076,30.237344,-97.762197,529
3077,30.215975,-97.767869,652
3078,30.223341,-97.763346,452
3079,30.220488,-97.758067,452
3080,30.217623,-97.754222,375
3081,30.224466,-97.765626,452
3082,30.227055,-97.761335,452
3083,30.227403,-97.755667,452
3084,30.236474,-97.762743,529
3085,30.232191,-97.76542,235
3086,30.241908,-97.759332,529
3087,30.226803,-97.754404,452
3088,30.220734,-97.761195,452
3089,30.227326,-97.773819,235
3090,30.220474,-97.772887,652
3091,30.227575,-97.77301,235
3092,30.226355,-97.769166,235
3093,30.227121,-97.771768,235
3094,30.226116,-97.769714,235
3095,30.225108,-97.768011,235
3096,30.225608,-97.767387,235
3097,30.223715,-97.76601,452
3098,30.224153,-97.76475,452
3099,30.225515,-97.766549,235
3100,30.226387,-97.76808,235
3101,30.230372,-97.76703,235
3102,30.216303,-97.753438,375
3103,30.216093,-97.752553,375
3104,30.217618,-97.75082,375
3105,30.222102,-97.749075,375
3106,30.218656,-97.751083,375
3107,30.217349,-97.749986,375
3108,30.216268,-97.753942,375
3109,30.218203,-97.75433,375
3110,30.215828,-97.752679,375
3111,30.215324,-97.750381,375
3112,30.217507,-97.748987,375
3113,30.215515,-97.752872,375
3114,30.216563,-97.752281,375
3115,30.234048,-97.757043,685
3116,30.23655,-97.749671,685
3117,30.238542,-97.753282,685
3118,30.24062,-97.756728,685
3119,30.235642,-97.755709,685
3120,30.239617,-97.747665,685
3121,30.239536,-97.752609,685
3122,30.241627,-97.752119,685
3123,30.264656,-97.764502,696
3124,30.255943,-97.761283,696
3125,30.261799,-97.761214,696
3126,30.271128,-97.763498,261
3127,30.266302,-97.755922,22
3128,30.272814,-97.761144,261
3129,30.248643,-97.76842,529
3130,30.251061,-97.764882,529
3131,30.262459,-97.752404,22
3132,30.260728,-97.748355,206
3133,30.260731,-97.758134,696
3134,30.264263,-97.756722,22
3135,30.259477,-97.748904,206
3136,30.27479,-97.7625,261
3137,30.2594,-97.753305,206
3138,30.248227,-97.769715,529
3139,30.252865,-97.767484,696
3140,30.255461,-97.771131,696
3141,30.251596,-97.773734,335
3142,30.272246,-97.772982,740
3143,30.269114,-97.775092,740
3144,30.274527,-97.771376,740
3145,30.272073,-97.772771,740
3146,30.268661,-97.776954,84
3147,30.266998,-97.770573,696
3148,30.275147,-97.768986,740
3149,30.274037,-97.766178,740
3150,30.275657,-97.76766,740
3151,30.276461,-97.767721,740
3152,30.27369,-97.765701,740
3153,30.275266,-97.771121,740
3154,30.247433,-97.759366,529
3155,30.254656,-97.751991,206
3156,30.258218,-97.749749,206
3157,30.267988,-97.755246,22
3158,30.270135,-97.75433,22
3159,30.272527,-97.760478,261
3160,30.273364,-97.752701,22
3161,30.26532,-97.751945,22
3162,30.269553,-97.752925,22
3163,30.269,-97.750614,22
3164,30.26872,-97.749576,22
3165,30.271281,-97.753752,22
3166,30.265618,-97.748341,558
3167,30.264429,-97.748791,558
3168,30.267428,-97.748816,558
3169,30.267777,-97.749757,22
3170,30.275697,-97.747864,428
3171,30.273271,-97.747888,428
3172,30.269871,-97.749152,22
3173,30.270614,-97.748878,22
3174,30.228297,-97.742712,4
3175,30.230359,-97.741504,4
3176,30.232103,-97.7367,4
3177,30.215239,-97.734904,676
3178,30.230568,-97.7327,111
3179,30.231548,-97.742566,4
3180,30.231308,-97.741794,4
3181,30.231527,-97.735892,4
3182,30.222423,-97.734428,111
3183,30.229603,-97.730613,111
3184,30.227057,-97.727271,111
3185,30.237979,-97.732728,572
3186,30.233703,-97.722868,572
3187,30.242973,-97.729018,572
3188,30.239866,-97.731566,572
3189,30.225227,-97.723983,111
3190,30.232282,-97.720065,572
3191,30.235904,-97.728267,572
3192,30.237491,-97.730967,572
3193,30.241534,-97.727952,572
3194,30.237507,-97.725383,572
3195,30.230786,-97.733625,111
3196,30.22426,-97.741515,4
3197,30.215068,-97.729893,676
3198,30.215543,-97.733633,676
3199,30.214656,-97.734,676
3200,30.214118,-97.730187,676
3201,30.215227,-97.733413,676
3202,30.219415,-97.743776,375
3203,30.215486,-97.739626,375
3204,30.214796,-97.735151,676
3205,30.21579,-97.735121,676
3206,30.216303,-97.739133,375
3207,30.216699,-97.743772,375
3208,30.215777,-97.74392,375
3209,30.2263,-97.743882,4
3210,30.215704,-97.734644,676
3211,30.234424,-97.740886,4
3212,30.237959,-97.738734,269
3213,30.233297,-97.739706,4
3214,30.232527,-97.737741,4
3215,30.237483,-97.739947,4
3216,30.235517,-97.741125,4
3217,30.23864,-97.737457,269
3218,30.234153,-97.740107,4
3219,30.237784,-97.737082,269
3220,30.234338,-97.73909,4
3221,30.241126,-97.737859,269
3222,30.237736,-97.744974,685
3223,30.231238,-97.743695,4
3224,30.23369,-97.741312,4
3225,30.243819,-97.742821,269
3226,30.243436,-97.742037,269
3227,30.239761,-97.735931,269
3228,30.224843,-97.723539,111
3229,30.223308,-97.72218,111
3230,30.219776,-97.720171,111
3231,30.213466,-97.719567,265
3232,30.214341,-97.724986,676
3233,30.213179,-97.724969,676
3234,30.238597,-97.725762,572
3235,30.244446,-97.72341,572
3236,30.23738,-97.716893,572
3237,30.24099,-97.726318,572
3238,30.240026,-97.726834,572
3239,30.244489,-97.72411,572
3240,30.262435,-97.74181,133
3241,30.259309,-97.736984,133
3242,30.262292,-97.735939,133
3243,30.261136,-97.737225,133
3244,30.261503,-97.738556,133
3245,30.263117,-97.744226,558
3246,30.261922,-97.73693,133
3247,30.262686,-97.734949,133
3248,30.258013,-97.736368,133
3249,30.261274,-97.734654,133
3250,30.260557,-97.734895,133
3251,30.266039,-97.73278,133
3252,30.265185,-97.730157,739
3253,30.254688,-97.730026,739
3254,30.255132,-97.731286,739
3255,30.260012,-97.730377,739
3256,30.260602,-97.732048,739
3257,30.259558,-97.723115,300
3258,30.264178,-97.733534,133
3259,30.268289,-97.731956,106
3260,30.268219,-97.726867,106
3261,30.269839,-97.73132,106
3262,30.272687,-97.730293,106
3263,30.271992,-97.73057,106
3264,30.272001,-97.731404,106
3265,30.273985,-97.729822,106
3266,30.274632,-97.732152,106
3267,30.272534,-97.725722,106
3268,30.271738,-97.730707,106
3269,30.262296,-97.721809,300
3270,30.260661,-97.722589,300
3271,30.263777,-97.725985,739
3272,30.259151,-97.727914,739
3273,30.259687,-97.732432,739
3274,30.258439,-97.728899,739
3275,30.265715,-97.741958,558
3276,30.263406,-97.730909,739
3277,30.261483,-97.734547,133
3278,30.253329,-97.743494,206
3279,30.257424,-97.738028,133
3280,30.24904,-97.737261,269
3281,30.253677,-97.737412,269
3282,30.248151,-97.736441,269
3283,30.255319,-97.736877,133
3284,30.253005,-97.73648,269
3285,30.253538,-97.735806,269
3286,30.252937,-97.734868,269
3287,30.256563,-97.735497,133
3288,30.254135,-97.744043,206
3289,30.250375,-97.734429,269
3290,30.24774,-97.735529,269
3291,30.254487,-97.737626,269
3292,30.257782,-97.737171,133
3293,30.258846,-97.735457,133
3294,30.256081,-97.734078,739
3295,30.260211,-97.737573,133
3296,30.254915,-97.734552,739
3297,30.269081,-97.74345,558
3298,30.263283,-97.737973,133
3299,30.265681,-97.738673,133
3300,30.268686,-97.742113,558
3301,30.270576,-97.741431,558
3302,30.266163,-97.740418,133
3303,30.270825,-97.738686,106
3304,30.268341,-97.740772,558
3305,30.269922,-97.739018,133
3306,30.268034,-97.739711,133
3307,30.272069,-97.739349,106
3308,30.271784,-97.738346,106
3309,30.275019,-97.73713,106
3310,30.261952,-97.740066,133
3311,30.267027,-97.740092,133
3312,30.267616,-97.738174,133
3313,30.26906,-97.735775,106
3314,30.269638,-97.73793,133
3315,30.269824,-97.735483,106
3316,30.270582,-97.733666,106
3317,30.269031,-97.734221,106
3318,30.272194,-97.732144,106
3319,30.269277,-97.733254,106
3320,30.269176,-97.732426,106
3321,30.270216,-97.740084,558
3322,30.27095,-97.742775,558
3323,30.266163,-97.736837,133
3324,30.265003,-97.743505,558
3325,30.267205,-97.744177,558
3326,30.266818,-97.742828,558
3327,30.267767,-97.74247,558
3328,30.26276,-97.742929,558
3329,30.26646,-97.74156,558
3330,30.265988,-97.743145,558
3331,30.264046,-97.741224,133
3332,30.268102,-97.743829,558
3333,30.263496,-97.745553,558
3334,30.266364,-97.744489,558
3335,30.267456,-97.745092,558
3336,30.267373,-97.741155,558
3337,30.272779,-97.742107,558
3338,30.274555,-97.743757,428
3339,30.27337,-97.74421,428
3340,30.273096,-97.743234,428
3341,30.272475,-97.744542,558
3342,30.272424,-97.740737,558
3343,30.271477,-97.741096,558
3344,30.265257,-97.737169,133
3345,30.265964,-97.73691,133
3346,30.2632,-97.735644,133
3347,30.263141,-97.734737,133
3348,30.263787,-97.733695,133
3349,30.264355,-97.736052,133
3350,30.264848,-97.735859,133
3351,30.266748,-97.73509,133
3352,30.268684,-97.734359,106
3353,30.267143,-97.736477,133
3354,30.272936,-97.73789,106
3355,30.271024,-97.735044,106
3356,30.272046,-97.734673,106
3357,30.273141,-97.734578,106
3358,30.271702,-97.733194,106
3359,30.272827,-97.732781,106
3360,30.275323,-97.734383,106
3361,30.273521,-97.732531,106
3362,30.272631,-97.736834,106
3363,30.271514,-97.737172,106
3364,30.271252,-97.736033,106
3365,30.256858,-97.724363,739
3366,30.255577,-97.720672,300
3367,30.25325,-97.726013,739
3368,30.256435,-97.720152,300
3369,30.257768,-97.723926,739
3370,30.259281,-97.718769,300
3371,30.251795,-97.722087,300
3372,30.255296,-97.725077,739
3373,30.263936,-97.721037,300
3374,30.269041,-97.721462,300
3375,30.266879,-97.72301,300
3376,30.265864,-97.720123,300
3377,30.271889,-97.719184,196
3378,30.276541,-97.72015,196
3379,30.269488,-97.71867,300
3380,30.269656,-97.717612,300
3381,30.267497,-97.719366,300
3382,30.273537,-97.719529,196
3383,30.272903,-97.723513,106
3384,30.271738,-97.72337,106
3385,30.264371,-97.727658,739
3386,30.264512,-97.728091,739
3387,30.264609,-97.720718,300
3388,30.273843,-97.717525,196
3389,30.272056,-97.715149,196
3390,30.163989,-97.692796,140
3391,30.182739,-97.687376,473
3392,30.174147,-97.673885,476
3393,30.157232,-97.694989,140
3394,30.196714,-97.704164,673
3395,30.191629,-97.698218,673
3396,30.197945,-97.683804,17
3397,30.157627,-97.665818,476
3398,30.166184,-97.660261,476
3399,30.206832,-97.662192,552
3400,30.221104,-97.684974,177
3401,30.247504,-97.690449,393
3402,30.241302,-97.689139,536
3403,30.246108,-97.67251,744
3404,30.255812,-97.685311,41
3405,30.254057,-97.681349,41
3406,30.237691,-97.662404,744
3407,30.261601,-97.679194,41
3408,30.221473,-97.677105,507
3409,30.245344,-97.690379,536
3410,30.225911,-97.68134,177
3411,30.228968,-97.682592,177
3412,30.222792,-97.682168,177
3413,30.241969,-97.689965,536
3414,30.25011,-97.687174,41
3415,30.247318,-97.691644,393
