,lat,long,cluster
1,30.550045,-97.861763,652
2,30.595955,-97.873341,14
3,30.537706,-97.842574,40
4,30.531993,-97.967226,293
5,30.49655,-97.901257,264
6,30.460701,-97.882086,836
7,30.498174,-97.827879,872
8,30.434403,-98.083907,1028
9,30.488843,-98.053644,307
10,30.405429,-97.968645,406
11,30.367501,-98.056627,396
12,30.421566,-97.941993,152
13,30.416288,-97.888347,1221
14,30.449261,-97.839977,113
15,30.398674,-97.83899,43
16,30.33372,-98.076591,978
17,30.320471,-97.972406,977
18,30.349621,-98.009337,1161
19,30.367501,-97.984566,165
20,30.382464,-97.926677,581
21,30.351176,-97.937276,570
22,30.373525,-97.86814,778
23,30.374974,-97.834683,541
24,30.351794,-97.845706,323
25,30.221922,-97.974997,853
26,30.292875,-97.964299,347
27,30.32358,-97.939978,389
28,30.343668,-97.905759,743
29,30.321831,-97.89921,1027
30,30.653697,-97.705243,1022
31,30.344763,-97.869942,586
32,30.332143,-97.858595,1165
33,30.318718,-97.841425,1088
34,30.30131,-97.832125,133
35,30.304379,-97.919182,543
36,30.298805,-97.888816,1027
37,30.352597,-97.921387,743
38,30.308173,-97.871556,182
39,30.351189,-97.779089,666
40,30.384802,-97.744053,76
41,30.288711,-97.833651,133
42,30.286234,-97.902792,99
43,30.272366,-98.013199,453
44,30.286428,-97.879621,506
45,30.267169,-97.899068,270
46,30.287223,-97.86426,506
47,30.513457,-97.665825,613
48,30.308846,-97.703502,181
49,30.286457,-97.843688,633
50,30.279555,-97.836009,633
51,30.205053,-97.932402,588
52,30.273341,-97.873192,506
53,30.196482,-97.909655,90
54,30.172804,-97.901713,521
55,30.260857,-97.851746,253
56,30.259205,-97.829376,604
57,30.247459,-97.825581,604
58,30.235346,-97.819398,989
59,30.25396,-97.895281,270
60,30.24144,-97.879541,564
61,30.246756,-97.872037,564
62,30.245081,-97.858211,410
63,30.240247,-97.852166,688
64,30.267416,-97.928478,1181
65,30.237106,-97.93101,167
66,30.244016,-97.915824,509
67,30.249879,-97.909155,810
68,30.238308,-97.892018,1085
69,30.244942,-97.985156,853
70,30.250014,-97.943499,683
71,30.209143,-97.954558,440
72,30.21593,-97.947086,440
73,30.221875,-97.905353,1241
74,30.210384,-97.884729,476
75,30.222138,-97.883969,54
76,30.22221,-97.928999,167
77,30.230631,-97.858915,163
78,30.229226,-97.850001,803
79,30.232836,-97.839501,1021
80,30.224841,-97.835974,2
81,30.225853,-97.862221,163
82,30.217987,-97.865677,163
83,30.220626,-97.849136,803
84,30.214768,-97.858294,371
85,30.214574,-97.836175,2
86,30.206238,-97.845563,1013
87,30.39592,-97.773059,461
88,30.20472,-97.872225,784
89,30.188692,-97.858353,266
90,30.194893,-97.937337,756
91,30.209985,-97.920445,588
92,30.191616,-97.895714,708
93,30.179056,-97.914187,90
94,30.183883,-97.890011,708
95,30.342242,-97.809077,445
96,30.166515,-97.868659,259
97,30.152804,-97.866404,1050
98,30.204417,-97.829257,443
99,30.188004,-97.841393,266
100,30.17107,-97.842194,822
101,30.164297,-97.854535,259
102,30.133666,-97.842915,25
103,30.599148,-97.832171,124
104,30.579994,-97.799189,192
105,30.589421,-97.756155,893
106,30.614041,-97.692748,868
107,30.627603,-97.663039,1124
108,30.575265,-97.671384,1126
109,30.569989,-97.644672,701
110,30.522036,-97.803089,359
111,30.518674,-97.768768,296
112,30.527329,-97.737027,1155
113,30.542739,-97.739952,771
114,30.540723,-97.693987,35
115,30.544608,-97.683218,35
116,30.550837,-97.664092,697
117,30.480535,-97.811989,17
118,30.471692,-97.806242,1130
119,30.500992,-97.793977,825
120,30.483751,-97.758083,805
121,30.506262,-97.733466,210
122,30.516396,-97.710151,969
123,30.526432,-97.699474,454
124,30.529538,-97.693185,454
125,30.530948,-97.677935,835
126,30.537547,-97.657977,249
127,30.537873,-97.628339,621
128,30.525447,-97.687699,454
129,30.522907,-97.674702,835
130,30.527937,-97.660354,249
131,30.514658,-97.684306,786
132,30.517125,-97.675414,835
133,30.468471,-97.609093,187
134,30.51606,-97.649805,1199
135,30.520364,-97.690696,454
136,30.510451,-97.681971,474
137,30.512392,-97.675429,474
138,30.516269,-97.659832,613
139,30.477235,-97.748408,199
140,30.499365,-97.699917,123
141,30.506831,-97.681264,1010
142,30.489825,-97.687935,206
143,30.500887,-97.678514,1010
144,30.503811,-97.668835,474
145,30.505463,-97.648706,96
146,30.512273,-97.621085,512
147,30.481309,-97.698393,206
148,30.482178,-97.683939,739
149,30.488674,-97.669035,326
150,30.492029,-97.631009,211
151,30.454371,-97.816014,1149
152,30.460688,-97.804425,1130
153,30.463568,-97.786828,501
154,30.469152,-97.769391,273
155,30.465101,-97.734708,776
156,30.473658,-97.703262,1000
157,30.460659,-97.68639,801
158,30.453786,-97.671883,966
159,30.467254,-97.654187,847
160,30.460126,-97.635163,291
161,30.452107,-97.799555,459
162,30.443651,-97.78093,644
163,30.45527,-97.785175,121
164,30.458188,-97.771871,526
165,30.449527,-97.776564,644
166,30.452449,-97.763846,526
167,30.453141,-97.704426,232
168,30.446519,-97.76236,526
169,30.442063,-97.755978,782
170,30.442247,-97.731102,401
171,30.43446,-97.712671,1228
172,30.444289,-97.681327,1133
173,30.431584,-97.679807,926
174,30.43806,-97.654831,1131
175,30.429712,-97.632319,283
176,30.446884,-97.613692,1239
177,30.412276,-97.756928,622
178,30.440343,-97.825646,113
179,30.433092,-97.812579,1101
180,30.426198,-97.80419,1101
181,30.440545,-97.792283,840
182,30.430965,-97.790268,241
183,30.432578,-97.745077,1
184,30.419188,-97.836201,635
185,30.409079,-97.806945,1247
186,30.418049,-97.785683,1247
187,30.44012,-97.782925,644
188,30.427536,-97.772391,203
189,30.416096,-97.776502,1030
190,30.421041,-97.757609,782
191,30.422727,-97.734935,514
192,30.421209,-97.724833,514
193,30.419626,-97.687169,357
194,30.474927,-97.628126,291
195,30.402543,-97.774264,461
196,30.393165,-97.763188,879
197,30.405087,-97.764003,622
198,30.40121,-97.75365,272
199,30.407812,-97.737938,724
200,30.416374,-97.713136,39
201,30.401368,-97.723123,996
202,30.400383,-97.71107,405
203,30.412333,-97.7016,39
204,30.406628,-97.684758,797
205,30.396503,-97.676128,87
206,30.402956,-97.652095,964
207,30.385822,-97.629909,46
208,30.398609,-97.616178,855
209,30.420193,-97.603293,332
210,30.396551,-97.82942,866
211,30.271191,-97.642884,798
212,30.395144,-97.78675,461
213,30.393237,-97.800872,695
214,30.391578,-97.752089,492
215,30.394219,-97.74096,462
216,30.38687,-97.738158,462
217,30.384116,-97.728635,901
218,30.379353,-97.722328,901
219,30.380339,-97.706944,1070
220,30.395126,-97.69242,465
221,30.384254,-97.678624,913
222,30.380068,-97.668098,377
223,30.383394,-97.660601,839
224,30.373993,-97.650303,1158
225,30.371901,-97.636824,1158
226,30.357638,-97.621547,1211
227,30.347504,-97.604697,606
228,30.360871,-97.581717,367
229,30.369183,-97.77245,789
230,30.383082,-97.754946,879
231,30.370937,-97.748874,1235
232,30.372799,-97.738426,649
233,30.368742,-97.732737,471
234,30.365825,-97.723827,471
235,30.367008,-97.712527,37
236,30.374445,-97.714456,37
237,30.362717,-97.703016,488
238,30.365978,-97.701017,488
239,30.374479,-97.696226,830
240,30.368666,-97.687912,151
241,30.362402,-97.676517,968
242,30.35801,-97.662114,968
243,30.340503,-97.634953,384
244,30.335824,-97.616902,186
245,30.3645,-97.740699,649
246,30.361619,-97.735446,679
247,30.357612,-97.724918,471
248,30.355442,-97.7182,781
249,30.356542,-97.710188,781
250,30.354451,-97.69626,455
251,30.348438,-97.685483,455
252,30.338319,-97.690935,1097
253,30.337807,-97.664499,717
254,30.333871,-97.675748,397
255,30.333513,-97.647877,384
256,30.361286,-97.757804,789
257,30.35516,-97.743801,185
258,30.350866,-97.738792,679
259,30.355362,-97.734401,679
260,30.351559,-97.727219,265
261,30.346115,-97.729428,265
262,30.348204,-97.718429,265
263,30.342425,-97.721317,265
264,30.340669,-97.709102,353
265,30.33247,-97.696583,1097
266,30.32667,-97.685099,329
267,30.324017,-97.664095,120
268,30.32257,-97.651571,61
269,30.3202,-97.639453,565
270,30.325044,-97.617448,1162
271,30.327527,-97.57601,5
272,30.34417,-97.558384,427
273,30.347874,-97.76121,531
274,30.341089,-97.750211,255
275,30.34102,-97.742547,93
276,30.337612,-97.733307,93
277,30.334246,-97.725896,750
278,30.328946,-97.720367,477
279,30.329197,-97.711138,438
280,30.324755,-97.698623,499
281,30.308832,-97.854872,415
282,30.353876,-97.789916,1177
283,30.338864,-97.78138,494
284,30.333799,-97.76676,877
285,30.331953,-97.759891,877
286,30.332227,-97.751829,255
287,30.330139,-97.742742,1076
288,30.330061,-97.735351,1076
289,30.325264,-97.730682,154
290,30.320679,-97.720953,477
291,30.316483,-97.711051,306
292,30.318649,-97.702866,1202
293,30.316705,-97.693892,499
294,30.316931,-97.684863,1037
295,30.307248,-97.690083,366
296,30.316758,-97.672491,936
297,30.310034,-97.680821,1037
298,30.300761,-97.67833,580
299,30.303255,-97.666683,162
300,30.311495,-97.65656,607
301,30.295066,-97.655743,651
302,30.305169,-97.6301,908
303,30.28759,-97.640662,242
304,30.296238,-97.606829,908
305,30.35485,-97.821754,541
306,30.339491,-97.799011,445
307,30.344399,-97.79414,712
308,30.334694,-97.786917,1238
309,30.330049,-97.804386,445
310,30.32969,-97.794461,1238
311,30.323452,-97.784862,1238
312,30.322771,-97.790383,591
313,30.309286,-97.779878,520
314,30.319513,-97.773295,204
315,30.316399,-97.76201,917
316,30.322827,-97.748686,971
317,30.318928,-97.741563,343
318,30.318134,-97.735161,154
319,30.312636,-97.726851,517
320,30.309394,-97.719694,1064
321,30.308606,-97.713911,1064
322,30.291673,-97.694168,885
323,30.289535,-97.685312,417
324,30.289232,-97.674631,417
325,30.325211,-97.753043,971
326,30.312346,-97.755063,416
327,30.314377,-97.750453,416
328,30.311422,-97.745119,343
329,30.314075,-97.73437,982
330,30.307788,-97.737685,982
331,30.304357,-97.731148,517
332,30.299796,-97.723839,517
333,30.29537,-97.712677,57
334,30.320631,-97.809788,79
335,30.312617,-97.819504,572
336,30.309044,-97.806541,290
337,30.321536,-97.80207,591
338,30.316334,-97.798815,591
339,30.30976,-97.788871,520
340,30.306907,-97.770739,1063
341,30.306124,-97.760175,917
342,30.304992,-97.756618,13
343,30.303114,-97.751664,13
344,30.302486,-97.747239,1047
345,30.299443,-97.742797,527
346,30.29791,-97.735674,335
347,30.293084,-97.731181,335
348,30.292608,-97.727363,662
349,30.289092,-97.719395,662
350,30.287942,-97.71165,57
351,30.285307,-97.701787,885
352,30.297498,-97.777043,1214
353,30.291148,-97.765987,164
354,30.296874,-97.762541,1063
355,30.294723,-97.754442,13
356,30.291274,-97.745937,975
357,30.285813,-97.759194,811
358,30.285682,-97.747977,975
359,30.284903,-97.743151,975
360,30.290562,-97.742966,975
361,30.291737,-97.738284,1121
362,30.285008,-97.735154,1121
363,30.286926,-97.730248,218
364,30.302516,-97.818543,910
365,30.290736,-97.81223,910
366,30.300199,-97.799899,1230
367,30.282386,-97.785116,623
368,30.283673,-97.780701,623
369,30.291216,-97.778414,921
370,30.283819,-97.77024,164
371,30.276309,-97.760494,1191
372,30.271814,-97.752313,802
373,30.27412,-97.749925,802
374,30.276649,-97.744971,36
375,30.279904,-97.743468,36
376,30.27864,-97.738873,890
377,30.274993,-97.740269,890
378,30.271875,-97.743373,962
379,30.270625,-97.740184,962
380,30.268129,-97.744601,962
381,30.267364,-97.741182,962
382,30.266557,-97.738381,392
383,30.270537,-97.736137,1139
384,30.27371,-97.733763,1139
385,30.277326,-97.734167,1139
386,30.282229,-97.731517,218
387,30.280795,-97.726061,218
388,30.281401,-97.723909,911
389,30.281893,-97.719348,911
390,30.283713,-97.710834,533
391,30.275893,-97.725163,887
392,30.277056,-97.718792,911
393,30.277541,-97.713445,911
394,30.278174,-97.705986,533
395,30.280929,-97.693411,223
396,30.283335,-97.680221,417
397,30.273431,-97.678189,723
398,30.271453,-97.658848,29
399,30.258811,-97.625628,530
400,30.275689,-97.620276,530
401,30.261466,-97.586183,1090
402,30.271327,-97.762089,1191
403,30.267524,-97.752761,376
404,30.266418,-97.749402,802
405,30.265461,-97.74621,183
406,30.264483,-97.742416,183
407,30.26393,-97.739258,392
408,30.259453,-97.741275,672
409,30.256691,-97.729877,84
410,30.261901,-97.728685,1083
411,30.26616,-97.727423,1083
412,30.267962,-97.722003,887
413,30.271109,-97.724436,887
414,30.272163,-97.71745,887
415,30.274171,-97.70587,179
416,30.26789,-97.709691,179
417,30.267381,-97.717513,887
418,30.264093,-97.717284,1216
419,30.258199,-97.7169,1216
420,30.25203,-97.722292,84
421,30.255176,-97.707214,628
422,30.261117,-97.705899,628
423,30.267416,-97.701265,994
424,30.275623,-97.694831,223
425,30.269491,-97.693985,994
426,30.257898,-97.696217,311
427,30.250378,-97.698255,311
428,30.258971,-97.683975,116
429,30.252393,-97.675294,746
430,30.292047,-97.826542,133
431,30.28751,-97.822447,1135
432,30.279794,-97.813683,1087
433,30.273914,-97.80577,42
434,30.281114,-97.79798,42
435,30.274313,-97.785524,623
436,30.269571,-97.770276,669
437,30.26379,-97.760172,742
438,30.260843,-97.753126,888
439,30.260153,-97.747288,183
440,30.256479,-97.743315,672
441,30.242798,-97.723846,919
442,30.236178,-97.713168,490
443,30.237023,-97.699893,935
444,30.231273,-97.690977,497
445,30.247651,-97.650627,584
446,30.583031,-97.893907,498
447,30.223538,-97.612743,280
448,30.267841,-97.795414,449
449,30.263639,-97.781663,202
450,30.254015,-97.779408,790
451,30.258468,-97.76513,742
452,30.254583,-97.756802,888
453,30.251548,-97.750714,888
454,30.249125,-97.74487,112
455,30.245798,-97.737968,637
456,30.241422,-97.733277,637
457,30.235658,-97.72957,287
458,30.228055,-97.720917,490
459,30.218025,-97.701277,195
460,30.268739,-97.812312,457
461,30.262467,-97.80009,725
462,30.257482,-97.807261,725
463,30.247294,-97.799248,146
464,30.258186,-97.789672,449
465,30.250663,-97.791535,790
466,30.240428,-97.794477,658
467,30.236384,-97.787768,56
468,30.23376,-97.779795,56
469,30.243976,-97.774117,790
470,30.251311,-97.772077,790
471,30.246241,-97.762422,286
472,30.240171,-97.766963,286
473,30.23169,-97.771333,422
474,30.227782,-97.764302,422
475,30.235703,-97.759859,696
476,30.243373,-97.754573,696
477,30.241194,-97.744361,112
478,30.238356,-97.748602,696
479,30.231751,-97.751904,696
480,30.223802,-97.757112,844
481,30.218675,-97.746881,409
482,30.22543,-97.739635,674
483,30.226569,-97.732462,287
484,30.219904,-97.725743,1212
485,30.274722,-97.824877,295
486,30.255952,-97.814911,457
487,30.235591,-97.807971,1122
488,30.227237,-97.795844,331
489,30.222209,-97.784683,931
490,30.219404,-97.77595,931
491,30.219174,-97.770121,138
492,30.213479,-97.762511,138
493,30.203546,-97.749497,755
494,30.211973,-97.741725,1217
495,30.199342,-97.739267,1011
496,30.199427,-97.727805,1011
497,30.185219,-97.702259,1218
498,30.207604,-97.705674,339
499,30.200401,-97.668694,571
500,30.224758,-97.664314,70
501,30.207631,-97.603752,967
502,30.229851,-97.806673,1122
503,30.223724,-97.812739,681
504,30.213238,-97.819622,443
505,30.211461,-97.808543,681
506,30.219912,-97.800719,1069
507,30.21642,-97.7932,1069
508,30.207136,-97.801517,865
509,30.205816,-97.794697,153
510,30.214075,-97.788886,1069
511,30.211162,-97.783613,980
512,30.204494,-97.787716,153
513,30.201568,-97.781077,647
514,30.209973,-97.775986,980
515,30.198303,-97.771828,647
516,30.192167,-97.76229,222
517,30.19005,-97.752272,765
518,30.191559,-97.741838,336
519,30.183884,-97.735419,336
520,30.179088,-97.714023,513
521,30.168372,-97.676869,1152
522,30.128184,-97.613068,169
523,30.166566,-97.569847,832
524,30.204201,-97.575259,414
525,30.195468,-97.820597,573
526,30.192671,-97.79731,590
527,30.190192,-97.786001,590
528,30.188088,-97.777584,576
529,30.182413,-97.772149,576
530,30.179217,-97.759163,765
531,30.170457,-97.748821,1025
532,30.16781,-97.730989,575
533,30.160499,-97.709547,1053
534,30.143493,-97.687533,691
535,30.182246,-97.830203,319
536,30.180777,-97.806741,1095
537,30.178806,-97.78988,597
538,30.174277,-97.783503,738
539,30.170566,-97.77519,738
540,30.171015,-97.763446,528
541,30.164418,-97.745521,575
542,30.160598,-97.815586,126
543,30.161894,-97.781648,1164
544,30.134292,-97.724486,612
545,30.123992,-97.702255,593
546,30.118841,-97.815712,1156
547,30.138629,-97.789007,111
548,30.1398,-97.779669,1057
549,30.122344,-97.793243,878
550,30.11474,-97.761745,221
551,30.10091,-97.742406,360
552,30.10704,-97.711796,277
553,30.099935,-97.644403,665
554,30.099777,-97.794275,485
555,30.079091,-97.708895,715
556,30.061879,-97.67384,1116
557,30.45357,-97.57921,974
558,30.44074,-97.596368,990
559,30.384952,-97.572308,103
560,30.371482,-97.546382,1220
561,30.316307,-97.498617,873
562,30.30919,-97.550996,845
563,30.277114,-97.57567,751
564,30.264,-97.537069,1103
565,30.239086,-97.53474,638
566,30.149404,-97.877778,1050
567,30.562892,-97.81444,350
568,30.556527,-97.784048,58
569,30.560541,-97.747161,529
570,30.565681,-97.707149,1120
571,30.543998,-97.702414,754
572,30.426107,-97.404165,634
573,30.494096,-97.797771,1134
574,30.479701,-97.776675,1175
575,30.474974,-97.690281,739
576,30.42248,-97.862996,322
577,30.130563,-97.947983,197
578,30.113558,-97.857472,657
579,30.095669,-97.82522,66
580,30.079619,-97.796332,1040
581,30.054632,-97.768528,420
582,30.03508,-97.739866,194
583,30.044241,-97.823901,137
584,30.064542,-97.813059,495
585,30.067321,-97.837672,1062
586,30.081642,-97.956989,561
587,29.886396,-97.922651,1170
588,30.028229,-97.982658,1154
589,30.002999,-97.878479,159
590,30.001839,-97.785715,1205
591,29.979146,-97.846817,72
592,30.34613,-97.703574,353
593,30.488497,-97.600807,187
594,30.48319,-97.56746,735
595,30.463281,-97.525215,671
596,30.087585,-97.751571,47
597,30.058818,-97.723985,1194
598,30.438973,-97.543138,554
599,30.428163,-97.513846,238
600,30.144669,-97.747936,161
601,30.132946,-97.82476,25
602,30.145593,-97.817215,451
603,30.199903,-97.523203,993
604,30.114833,-97.680519,484
605,30.131976,-97.668147,759
606,30.145238,-97.583182,639
607,30.467008,-97.489938,129
608,30.152791,-97.651583,284
609,30.165474,-97.640056,284
610,30.237554,-97.674932,984
611,30.183483,-97.637009,953
612,30.172582,-97.602786,28
613,30.442805,-97.462556,538
614,30.230896,-97.570828,748
615,30.254773,-97.510731,1174
616,30.274879,-97.472702,1113
617,30.297379,-97.511156,388
618,30.327288,-97.527973,1094
619,30.311798,-97.470836,370
620,30.345114,-97.524893,568
621,30.332948,-97.468369,1172
622,30.35486,-97.554176,1115
623,30.400775,-97.566228,680
624,30.39936,-97.440864,753
625,30.367707,-97.520502,557
626,30.362081,-97.455986,407
627,30.389228,-97.501275,487
628,30.408462,-97.527893,24
629,30.419177,-97.556499,680
630,30.417448,-97.486022,447
631,30.51116,-97.432012,393
632,30.758933,-97.61981,616
633,30.787235,-97.461624,168
634,30.762333,-97.570963,1142
635,30.714855,-97.635692,173
636,30.721902,-97.655039,173
637,30.721962,-97.43449,180
638,30.7155,-97.453439,903
639,30.659308,-97.591075,143
640,30.645536,-97.648227,929
641,30.688991,-97.697896,912
642,30.70538,-97.717715,157
643,30.688418,-97.290934,851
644,30.708185,-97.434506,180
645,30.707375,-97.44851,903
646,30.617408,-97.492335,902
647,30.63058,-97.608464,288
648,30.670268,-97.365601,77
649,30.614327,-97.438935,63
650,30.556867,-97.534104,605
651,30.549309,-97.552697,578
652,30.585801,-97.403788,1012
653,30.593637,-97.422708,101
654,30.589385,-97.4345,1107
655,30.417908,-97.324987,534
656,30.454708,-97.409402,365
657,30.519091,-97.37656,428
658,30.548378,-97.339944,957
659,30.543711,-97.426921,171
660,30.564158,-97.412627,312
661,30.544213,-97.502359,997
662,30.518844,-97.603226,932
663,30.553467,-97.632417,69
664,30.37016,-97.793486,55
665,30.52616,-97.553431,1136
666,29.896453,-98.064179,882
667,29.955213,-98.126496,643
668,29.956289,-98.065857,716
669,29.950139,-98.009999,338
670,29.868981,-97.990969,596
671,29.857558,-98.012298,254
672,29.832913,-98.018237,0
673,29.979552,-98.108467,78
674,29.997999,-98.058955,707
675,30.019846,-98.0279,20
676,29.967048,-97.95913,184
677,29.952026,-97.983606,734
678,29.979371,-98.082087,464
679,30.030066,-98.080249,1016
680,29.918913,-97.948067,224
681,30.043596,-98.053382,555
682,29.877956,-97.952311,766
683,29.87017,-97.962849,434
684,29.878492,-97.965586,1007
685,30.177624,-98.067552,947
686,30.183656,-98.035565,1231
687,30.204068,-98.063961,437
688,30.132727,-98.066773,779
689,30.142357,-98.017092,548
690,30.123464,-98.013422,95
691,30.103535,-97.972025,726
692,30.156158,-97.922656,641
693,30.083197,-98.064494,991
694,30.046219,-97.956417,408
695,30.249732,-98.090132,620
696,30.221504,-98.001452,362
697,30.232619,-98.041958,130
698,30.256626,-98.041382,130
699,30.188322,-97.952201,608
700,29.890125,-97.944039,8
701,29.889557,-97.938971,567
702,29.887069,-97.939213,8
703,29.887943,-97.936567,567
704,29.881756,-97.942358,8
705,29.88051,-97.945474,766
706,29.87795,-97.943205,766
707,29.875888,-97.949028,766
708,29.882519,-97.927999,503
709,29.881815,-97.932862,503
710,29.887993,-97.932527,567
711,29.886075,-97.93607,567
712,29.893192,-97.93209,567
713,29.888441,-97.926399,256
714,29.893447,-97.938495,744
715,29.896727,-97.936225,744
716,29.886506,-97.942882,8
717,29.887606,-97.948487,299
718,29.884797,-97.945336,8
719,29.884042,-97.942473,8
720,29.881787,-97.947927,766
721,29.884353,-97.901427,510
722,29.873067,-97.90967,65
723,29.883636,-97.91573,610
724,29.892753,-97.908106,115
725,29.864351,-97.902071,874
726,29.867046,-97.923945,1237
727,29.880741,-97.917204,1170
728,29.875409,-97.92325,1237
729,30.207493,-98.032242,269
730,29.889728,-97.918411,256
731,29.898736,-97.913953,227
732,30.06917,-98.022446,361
733,30.079967,-97.990787,310
734,30.055404,-97.91209,713
735,29.886781,-97.991968,596
736,29.908987,-97.972402,97
737,29.889408,-97.970463,714
738,29.863587,-97.978738,489
739,29.897388,-97.954655,299
740,29.85407,-97.978959,489
741,29.842171,-97.996419,1043
742,30.139214,-98.214295,599
743,30.190007,-98.168253,424
744,30.174555,-98.153721,960
745,30.1517,-98.154464,155
746,30.212417,-98.172451,1248
747,30.22956,-98.135289,316
748,30.220277,-98.100548,1240
749,30.158316,-98.110565,918
750,30.0445,-98.141486,791
751,30.072636,-98.204517,431
752,30.115504,-98.192023,906
753,30.019708,-98.232533,373
754,29.995598,-98.167437,1179
755,30.1139,-98.246902,189
756,29.996347,-98.122024,379
757,30.02551,-98.111827,603
758,30.067054,-98.102025,1002
759,30.10241,-98.14819,736
760,30.133525,-98.106678,920
761,30.271372,-98.086092,1046
762,29.908768,-97.917075,227
763,30.277913,-98.137608,772
764,30.3165,-98.139466,1038
765,30.291503,-98.177276,595
766,30.24439,-98.18288,907
767,30.167197,-98.235175,382
768,30.185976,-98.229548,85
769,30.191844,-98.103685,664
770,30.184616,-98.091417,88
771,29.876772,-97.898031,510
772,29.850646,-97.932248,963
773,29.850705,-97.913015,292
774,29.859432,-97.925423,963
775,29.835223,-97.937747,481
776,29.855514,-97.945814,80
777,29.832686,-97.918297,864
778,29.826014,-97.932603,481
779,29.807481,-97.955,260
780,29.773576,-97.997444,285
781,29.786936,-97.976479,1072
782,29.845097,-97.972475,147
783,29.855842,-97.963431,948
784,29.836644,-97.955373,1080
785,29.837248,-97.982015,646
786,29.825153,-97.995132,777
787,29.859848,-97.970835,948
788,29.814299,-98.008047,402
789,29.826534,-97.980837,313
790,29.813303,-97.980242,654
791,29.805415,-98.002584,402
792,29.947011,-97.918627,1023
793,29.928589,-97.917713,794
794,30.501019,-97.716276,569
795,29.89784,-97.928405,256
796,29.837992,-97.945905,690
797,29.871145,-97.9443,248
798,29.868781,-97.942805,248
799,29.863849,-97.941585,525
800,29.863564,-97.948336,80
801,29.860725,-97.944829,80
802,29.846717,-97.954871,806
803,30.012564,-97.752352,194
804,30.067731,-97.825872,933
805,30.01983,-97.868262,880
806,30.038809,-97.873747,472
807,30.067665,-97.849967,368
808,30.08096,-97.83664,1068
809,30.083844,-97.815399,217
810,30.142626,-97.856741,858
811,30.126275,-97.877768,314
812,30.103692,-97.899298,114
813,30.090338,-97.88967,1160
814,29.959885,-97.801203,363
815,29.989355,-97.816935,491
816,29.953982,-97.862871,31
817,29.993338,-97.863652,159
818,30.005026,-97.844911,1042
819,30.017435,-97.826144,432
820,30.093477,-97.86188,718
821,30.080607,-97.8601,1081
822,30.070587,-97.864712,205
823,29.953701,-97.889945,545
824,29.973582,-97.882525,747
825,29.983051,-97.900371,430
826,29.985158,-97.879181,289
827,29.987072,-97.887542,626
828,30.040951,-97.895792,472
829,30.021565,-97.896007,109
830,29.994624,-97.874248,289
831,29.991428,-97.879703,289
832,29.996685,-97.8902,626
833,29.927373,-97.884313,854
834,29.898203,-97.896467,601
835,29.900537,-97.901977,601
836,29.909386,-97.905904,601
837,29.936266,-97.889216,854
838,29.900711,-97.942748,1186
839,29.904187,-97.949324,1186
840,29.894799,-97.945184,1186
841,29.932993,-97.839249,627
842,29.909249,-97.869469,82
843,29.893191,-97.890449,762
844,29.9514,-97.81998,884
845,30.012707,-97.90673,109
846,30.276044,-97.858429,253
847,30.226363,-97.874022,816
848,30.174384,-97.984925,1243
849,30.269483,-97.748407,802
850,30.629693,-97.936611,540
851,30.56515,-97.878483,498
852,30.671293,-97.949297,1096
853,30.639453,-97.894479,1071
854,30.561981,-97.854201,1232
855,30.683345,-97.94289,653
856,30.766585,-97.9192,328
857,30.629598,-97.845097,632
858,30.639299,-97.6662,849
859,30.642343,-97.674662,26
860,30.668799,-97.659879,515
861,30.628872,-97.671426,448
862,30.668363,-97.686088,354
863,30.880283,-97.824754,243
864,30.470096,-97.449694,230
865,30.74618,-97.845772,721
866,30.689129,-97.862864,364
867,30.575118,-97.820445,1180
868,30.876242,-97.77401,807
869,30.840902,-97.747424,1163
870,30.78796,-97.831057,1067
871,30.685782,-97.776485,229
872,30.658614,-97.695213,1022
873,30.637172,-97.681379,780
874,30.629455,-97.700115,271
875,30.627732,-97.68395,448
876,30.852528,-97.680214,117
877,30.831092,-97.612867,551
878,30.625071,-97.676133,448
879,30.616469,-97.686217,868
880,30.623086,-97.697171,271
881,30.834316,-97.589673,308
882,30.656402,-97.262914,257
883,30.631001,-97.410462,250
884,30.577103,-97.332716,502
885,30.577643,-97.392433,1049
886,30.539989,-97.216877,1242
887,30.549645,-97.386987,7
888,30.567615,-97.398214,1207
889,30.572072,-97.41793,999
890,30.460507,-97.1884,1148
891,30.54927,-97.453586,689
892,29.861169,-97.937891,525
893,29.864771,-97.935216,525
894,29.867991,-97.937213,248
895,29.870864,-97.934639,950
896,29.864473,-97.916837,1237
897,29.862569,-97.930338,963
898,29.857715,-97.936981,525
899,29.877395,-97.931265,503
900,29.871417,-97.93772,950
901,29.875356,-97.933272,950
902,29.870438,-97.94043,248
903,29.874089,-97.937071,950
904,29.879425,-97.934873,950
905,29.873855,-97.941696,248
906,29.882817,-97.936327,567
907,29.888777,-97.953068,299
908,29.881982,-97.94009,8
909,29.884244,-97.940672,8
910,29.875972,-97.939316,950
911,29.880838,-97.938202,8
912,29.88466,-97.938557,8
913,29.88739,-97.941105,8
914,29.866701,-97.955129,434
915,29.859982,-97.953523,80
916,29.871867,-97.948372,248
917,29.87049,-97.955337,434
918,29.892357,-97.94926,299
919,29.877414,-97.937005,950
920,29.846154,-97.898921,761
921,29.883181,-97.956601,1007
922,29.890512,-97.962115,714
923,30.581871,-97.431543,1112
924,30.570241,-97.845304,870
925,30.547881,-97.832053,262
926,30.516189,-97.819854,1089
927,30.498781,-97.810987,702
928,30.476706,-97.789975,973
929,30.526117,-97.8279,196
930,30.532518,-97.804664,359
931,30.537807,-97.790202,58
932,30.52354,-97.78296,1111
933,30.65866,-97.776031,767
934,30.658855,-97.849323,104
935,30.678669,-97.678827,354
936,30.69052,-97.662227,60
937,30.69345,-97.644873,463
938,30.70634,-97.676452,305
939,30.717388,-97.745749,418
940,30.756782,-97.762274,1106
941,30.84433,-97.792283,16
942,30.83935,-97.791475,16
943,30.84407,-97.797976,16
944,30.833925,-97.833141,356
945,30.820892,-97.877474,812
946,30.809086,-97.788775,1208
947,30.787546,-97.733844,959
948,30.594021,-97.681147,773
949,30.592574,-97.705395,188
950,30.610956,-97.746309,6
951,30.624548,-97.751006,1153
952,30.603434,-97.659525,863
953,30.605496,-97.646404,863
954,30.633028,-97.636136,59
955,30.623878,-97.634323,59
956,30.6491,-97.637474,929
957,30.675787,-97.63588,309
958,30.67039,-97.646313,1058
959,30.659924,-97.615333,1026
960,30.68416,-97.648796,60
961,30.580698,-97.634348,701
962,30.688393,-97.56823,71
963,30.605618,-97.407175,1184
964,30.547251,-97.412218,741
965,30.572237,-97.424569,999
966,30.650184,-97.46063,857
967,30.675472,-97.416823,141
968,30.749076,-97.498686,239
969,30.728051,-97.451663,553
970,30.75436,-97.408646,107
971,30.570439,-97.411401,312
972,30.43632,-97.251463,158
973,30.472299,-97.262528,441
974,30.48328,-97.224474,1061
975,30.445868,-97.232566,1048
976,30.479296,-97.306116,470
977,30.43847,-97.286145,670
978,30.443943,-97.370321,846
979,30.455046,-97.339311,48
980,30.515092,-97.408642,1234
981,30.488553,-97.410368,105
982,30.479036,-97.392374,105
983,30.493829,-97.35547,760
984,30.522277,-97.308176,602
985,30.505589,-97.247565,419
986,30.504025,-97.182869,698
987,30.565058,-97.259618,915
988,30.62155,-97.263684,214
989,30.631593,-97.319296,904
990,30.660884,-97.299336,30
991,30.599844,-97.309353,267
992,30.590803,-97.346743,175
993,30.621102,-97.369973,614
994,30.65527,-97.346524,304
995,30.584139,-97.4234,1112
996,30.560575,-97.423818,999
997,30.555834,-97.41098,741
998,30.581104,-97.381876,1049
999,30.511418,-97.468827,693
1000,30.526407,-97.530192,263
1001,30.517308,-97.502997,804
1002,30.509986,-97.55816,1136
1003,30.477489,-97.481873,479
1004,30.575191,-97.510374,841
1005,30.578301,-97.465299,523
1006,30.58379,-97.592003,391
1007,30.581783,-97.6213,352
1008,30.603935,-97.594838,391
1009,30.593494,-97.559051,941
1010,30.571888,-97.562385,140
1011,30.550444,-97.586759,324
1012,30.544585,-97.60774,200
1013,30.559709,-97.615336,442
1014,30.612544,-97.569962,587
1015,30.603709,-97.521503,1123
1016,30.657724,-97.497322,383
1017,30.681438,-97.518758,678
1018,30.684143,-97.475931,1098
1019,30.727033,-97.485999,685
1020,30.741662,-97.534252,394
1021,30.707529,-97.522309,118
1022,30.767866,-97.516497,1190
1023,30.804915,-97.569578,1176
1024,30.750264,-97.681406,732
1025,30.791238,-97.642916,1209
1026,30.69837,-97.627671,1157
1027,30.682848,-97.597727,411
1028,30.715183,-97.599677,198
1029,30.726483,-97.560001,785
1030,30.652202,-97.567221,710
1031,30.658509,-97.527026,1140
1032,30.744464,-97.349428,552
1033,30.723527,-97.294568,938
1034,30.718481,-97.340303,235
1035,30.711832,-97.41274,770
1036,30.699874,-97.356277,940
1037,30.721099,-97.804395,828
1038,30.713284,-97.917453,213
1039,30.707511,-97.937796,1092
1040,30.505476,-97.850632,837
1041,30.502098,-97.831932,704
1042,30.511753,-97.834159,704
1043,30.043099,-97.852821,630
1044,30.521169,-97.847519,535
1045,30.524123,-97.837526,1129
1046,30.550258,-97.847503,40
1047,30.536438,-97.857691,1077
1048,30.465145,-97.829934,731
1049,30.740886,-97.717294,1015
1050,30.476281,-97.719732,444
1051,30.489708,-97.655412,1039
1052,30.587174,-97.415829,101
1053,30.405887,-98.02832,737
1054,30.49147,-97.824934,872
1055,30.47081,-97.820694,800
1056,30.530568,-97.821047,559
1057,30.539373,-97.783615,661
1058,30.527955,-97.767089,296
1059,30.506117,-97.763655,466
1060,30.491587,-97.764424,135
1061,30.48459,-97.794481,973
1062,30.498519,-97.782491,825
1063,30.488025,-97.78106,1175
1064,30.48333,-97.840841,301
1065,30.545795,-97.825633,262
1066,30.546888,-97.806481,727
1067,30.600584,-97.804895,563
1068,30.628699,-97.811,334
1069,30.508377,-97.815848,302
1070,30.52396,-97.791741,108
1071,30.507357,-97.806002,702
1072,30.511773,-97.789939,108
1073,30.486395,-97.805868,1134
1074,30.492048,-97.5281,1222
1075,30.905132,-97.800454,1223
1076,30.887022,-97.703803,585
1077,30.857003,-97.589002,308
1078,30.837785,-97.539898,469
1079,30.670972,-97.244333,687
1080,30.794371,-97.425623,511
1081,30.826011,-97.51054,330
1082,30.747149,-97.300292,145
1083,30.171221,-97.519633,827
1084,30.136738,-97.560852,228
1085,30.217666,-97.479311,1104
1086,30.32676,-97.419806,676
1087,30.359273,-97.397532,1020
1088,30.351976,-97.39802,1020
1089,30.397006,-97.36545,215
1090,30.42561,-97.259456,158
1091,30.529067,-97.185122,423
1092,30.474429,-97.162178,965
1093,30.609838,-97.218848,542
1094,29.934113,-98.150473,333
1095,29.82497,-97.918829,481
1096,29.800449,-98.015358,1141
1097,29.812023,-98.018414,1141
1098,29.806018,-97.944241,260
1099,29.835521,-97.9049,809
1100,29.930219,-97.813404,944
1101,30.0113,-97.687029,68
1102,29.988874,-97.742832,460
1103,29.9607,-97.773983,869
1104,30.030532,-97.672595,763
1105,30.102202,-97.609481,937
1106,29.994705,-98.236289,1019
1107,30.106389,-98.270406,663
1108,30.270539,-98.206818,905
1109,30.15493,-98.251617,382
1110,30.193282,-98.236528,85
1111,30.320581,-98.18806,178
1112,30.422055,-98.127277,234
1113,30.530257,-98.103332,45
1114,30.659689,-98.030267,209
1115,30.709085,-98.002919,436
1116,30.840504,-97.903407,245
1117,29.869985,-97.892405,874
1118,30.43398,-98.04384,834
1119,30.4147,-97.974328,406
1120,30.406566,-97.85219,43
1121,30.416801,-97.846884,635
1122,30.407083,-97.761927,622
1123,30.409064,-97.764124,622
1124,30.408449,-97.758688,622
1125,30.408061,-97.744922,724
1126,30.41402,-97.745725,724
1127,30.407847,-97.744691,724
1128,30.415637,-97.745701,724
1129,30.412533,-97.731664,996
1130,30.407919,-97.715814,405
1131,30.40912,-97.716095,405
1132,30.410378,-97.684787,797
1133,30.407524,-97.677913,815
1134,30.415302,-97.676469,815
1135,30.409447,-97.647814,668
1136,30.231017,-97.516594,914
1137,30.236316,-97.520151,914
1138,30.401773,-97.634956,1195
1139,30.413554,-97.623711,283
1140,30.395078,-97.589682,598
1141,30.416815,-97.575833,1074
1142,30.30344,-97.526112,388
1143,30.307684,-97.514671,388
1144,30.33638,-97.51792,110
1145,30.334995,-97.509891,110
1146,30.375385,-97.528483,557
1147,30.397315,-97.519255,1196
1148,30.408455,-97.512478,1203
1149,30.409589,-98.109364,600
1150,30.385513,-98.086011,983
1151,30.406921,-98.058975,52
1152,30.407793,-97.874061,322
1153,30.439673,-97.873379,1099
1154,30.403618,-97.853717,43
1155,30.410956,-97.791897,1247
1156,30.399573,-97.783123,461
1157,30.411092,-97.768154,622
1158,30.404545,-97.768691,622
1159,30.409917,-97.747504,724
1160,30.407781,-97.747856,724
1161,30.414459,-97.746412,724
1162,30.407968,-97.745632,724
1163,30.413568,-97.745912,724
1164,30.405556,-97.745455,724
1165,30.406374,-97.724071,996
1166,30.408849,-97.7147,405
1167,30.407206,-97.721641,996
1168,30.408731,-97.712834,405
1169,30.407364,-97.714123,405
1170,30.409801,-97.711471,39
1171,30.408358,-97.715529,405
1172,30.407968,-97.696596,797
1173,30.412293,-97.67463,815
1174,30.40787,-97.675483,815
1175,30.4133,-97.673628,815
1176,30.403298,-97.675161,815
1177,30.414308,-97.672668,815
1178,30.406589,-97.674045,815
1179,30.412976,-97.672042,815
1180,30.407529,-97.673112,815
1181,30.403013,-97.605632,855
1182,30.400877,-97.545066,1173
1183,30.425266,-97.532488,943
1184,30.407188,-97.541096,1173
1185,30.505154,-97.519605,804
1186,30.51811,-97.517307,804
1187,30.539446,-97.527361,220
1188,30.537219,-97.513917,220
1189,30.546126,-97.526327,220
1190,30.550371,-97.502511,997
1191,30.593317,-97.519759,1123
1192,30.59844,-97.503766,219
1193,30.637256,-97.519283,131
1194,30.637913,-97.503543,1146
1195,30.674133,-97.519584,678
1196,30.655746,-97.51178,383
1197,30.715859,-97.509234,118
1198,30.736201,-97.517674,740
1199,30.72774,-97.51612,740
1200,30.786327,-97.570382,458
1201,30.813891,-97.514762,896
1202,30.753481,-97.522255,1190
1203,30.759103,-97.502626,239
1204,30.276789,-97.502484,478
1205,30.294375,-97.524078,139
1206,30.350266,-97.500359,507
1207,30.410372,-97.51129,1203
1208,30.397977,-97.470816,278
1209,30.405153,-97.499596,487
1210,30.418875,-97.427254,1045
1211,30.415024,-97.460113,86
1212,30.399374,-97.381992,215
1213,30.410031,-97.37493,215
1214,30.417783,-97.521358,24
1215,30.443669,-97.517121,238
1216,30.440796,-97.521724,238
1217,30.493528,-97.493465,1036
1218,30.589415,-97.53659,340
1219,30.607574,-97.506741,219
1220,30.615287,-97.542575,439
1221,30.666963,-97.495278,383
1222,30.687437,-97.492532,706
1223,30.690823,-97.524148,678
1224,30.729133,-97.531196,1114
1225,30.783688,-97.524716,136
1226,30.740209,-97.493845,685
1227,30.766484,-97.479858,582
1228,30.410299,-97.695637,797
1229,30.412131,-97.702847,39
1230,30.408633,-97.70461,39
1231,30.410893,-97.709342,39
1232,30.413835,-97.661196,668
1233,30.405328,-97.66238,964
1234,30.42208,-97.625593,283
1235,30.40409,-97.637802,1195
1236,29.987074,-98.049768,413
1237,29.984562,-98.038465,413
1238,30.026318,-98.043982,942
1239,30.03215,-98.039656,942
1240,30.052957,-98.049297,555
1241,30.047991,-98.025834,1169
1242,30.1098,-98.068304,1004
1243,30.123192,-98.031115,475
1244,30.131643,-98.031699,475
1245,30.149237,-98.051563,615
1246,30.153385,-98.016194,548
1247,30.286319,-98.064664,380
1248,30.291368,-98.034598,787
1249,30.355722,-98.066735,396
1250,30.331214,-98.024116,752
1251,30.37458,-98.041928,233
1252,29.883707,-97.965652,1007
1253,29.893214,-97.964866,714
1254,29.886653,-97.962478,1007
1255,29.887965,-97.953982,299
1256,29.884175,-97.948286,766
1257,29.884944,-97.949509,766
1258,29.885791,-97.945866,8
1259,29.884912,-97.942571,8
1260,29.88521,-97.940536,8
1261,29.884527,-97.923961,1170
1262,29.885258,-97.929695,503
1263,29.882201,-97.921188,1170
1264,29.886173,-97.918068,610
1265,29.883649,-97.922986,1170
1266,29.882561,-97.921502,1170
1267,29.887678,-97.917035,610
1268,29.887809,-97.916563,610
1269,29.884282,-97.908492,610
1270,29.888212,-97.9054,115
1271,29.882033,-97.895876,510
1272,29.888655,-97.886721,762
1273,29.940677,-98.022744,338
1274,29.908608,-98.008721,412
1275,29.917247,-98.051817,148
1276,29.885597,-97.946803,8
1277,29.884687,-97.943954,8
1278,29.883846,-97.94376,8
1279,29.885079,-97.941552,8
1280,29.884391,-97.941438,8
1281,29.885267,-97.940102,8
1282,29.884481,-97.940026,8
1283,29.883169,-97.93868,8
1284,29.884754,-97.936819,567
1285,29.883316,-97.93731,8
1286,29.884907,-97.930244,503
1287,29.88435,-97.931116,503
1288,29.886723,-97.919149,610
1289,29.883183,-97.922476,1170
1290,29.888646,-97.916622,610
1291,29.882931,-97.92178,1170
1292,30.193978,-98.03592,1231
1293,30.194871,-98.049602,437
1294,30.245989,-98.027316,619
1295,30.246378,-98.043262,130
1296,30.345872,-98.027208,752
1297,30.159975,-98.178438,796
1298,30.129515,-98.173062,629
1299,30.143223,-98.135221,375
1300,30.157746,-98.131657,859
1301,30.144817,-98.089328,50
1302,30.16069,-98.090996,468
1303,30.167313,-98.085854,468
1304,30.13787,-98.157966,155
1305,29.967769,-98.189493,624
1306,29.981565,-98.147097,425
1307,30.035229,-98.179821,1109
1308,30.058892,-98.162858,860
1309,30.089786,-98.19487,906
1310,30.08205,-98.171247,44
1311,30.104379,-98.17688,906
1312,30.126281,-98.170259,629
1313,30.004317,-98.18761,156
1314,30.012098,-98.120381,379
1315,30.019125,-98.130309,976
1316,29.999239,-98.101129,1188
1317,30.02115,-98.101837,603
1318,30.009134,-98.077175,237
1319,30.015618,-98.070197,237
1320,30.008634,-98.051193,707
1321,30.020471,-98.153274,631
1322,30.094404,-98.170976,44
1323,30.000072,-98.200099,156
1324,30.101001,-98.223676,886
1325,30.047826,-98.198919,728
1326,30.097785,-98.239317,189
1327,30.096546,-98.216512,886
1328,30.099451,-98.18839,906
1329,29.974506,-98.092413,464
1330,29.980102,-98.093545,464
1331,29.994609,-98.090602,237
1332,29.987964,-98.111264,78
1333,30.002568,-98.105036,1188
1334,29.941015,-98.091712,819
1335,30.008008,-98.117772,379
1336,29.938804,-98.081782,819
1337,29.981565,-98.139629,425
1338,29.986542,-98.120568,78
1339,29.92891,-98.069342,148
1340,29.925171,-98.064188,148
1341,29.985071,-98.089903,464
1342,29.985865,-98.075657,464
1343,29.998843,-98.084241,237
1344,30.081168,-98.171429,44
1345,30.072243,-98.140645,404
1346,30.107668,-98.131384,736
1347,30.045394,-98.101753,32
1348,30.03475,-98.118658,976
1349,30.06887,-98.125564,404
1350,30.069955,-98.090106,1002
1351,30.102064,-98.096006,709
1352,30.12629,-98.112328,920
1353,30.121344,-98.088327,709
1354,30.061194,-98.075962,403
1355,30.027515,-98.128455,976
1356,30.116391,-98.137431,736
1357,30.129918,-98.135692,375
1358,30.123076,-98.135616,736
1359,30.048688,-98.097949,32
1360,30.058309,-98.049009,555
1361,30.055926,-98.092073,32
1362,30.058932,-98.080648,403
1363,30.10984,-98.090537,709
1364,30.131976,-98.08916,50
1365,30.179424,-98.191269,1144
1366,30.182829,-98.162832,960
1367,30.257611,-98.169802,907
1368,30.22719,-98.169205,11
1369,30.272555,-98.179416,172
1370,30.300608,-98.166031,595
1371,30.300407,-98.170914,595
1372,30.162056,-98.141627,859
1373,30.199549,-98.184398,252
1374,30.197855,-98.162057,424
1375,30.198206,-98.179426,252
1376,30.200172,-98.194485,252
1377,30.27055,-98.068497,380
1378,30.280318,-98.155751,772
1379,30.256065,-98.154836,518
1380,30.255864,-98.132785,518
1381,30.285707,-98.103249,74
1382,30.256388,-98.109119,316
1383,30.173312,-98.240938,382
1384,30.178501,-98.232143,85
1385,30.159139,-98.245775,382
1386,30.179132,-98.230195,85
1387,30.188182,-98.214616,928
1388,30.193112,-98.214579,928
1389,30.189203,-98.109283,664
1390,30.189269,-98.102602,664
1391,30.221912,-98.151964,11
1392,30.205816,-98.144811,1082
1393,30.205308,-98.133052,1082
1394,30.219776,-98.118518,387
1395,30.20463,-98.11855,387
1396,30.198217,-98.107129,664
1397,30.210052,-98.087482,768
1398,30.213293,-98.084826,768
1399,30.191588,-98.095033,88
1400,30.246396,-98.12472,316
1401,30.254291,-98.082014,620
1402,30.182808,-98.124873,1044
1403,30.198168,-98.161836,424
1404,30.191378,-98.162277,424
1405,30.18744,-98.115318,1044
1406,30.205647,-98.128349,1082
1407,30.227215,-98.154469,11
1408,30.256152,-98.143003,518
1409,30.233872,-98.124752,316
1410,30.167629,-98.086571,468
1411,30.179423,-98.087313,88
1412,30.159349,-98.068204,947
1413,30.191384,-98.081811,88
1414,30.191338,-98.087434,88
1415,30.193977,-98.102295,664
1416,30.181782,-98.087413,88
1417,30.19133,-98.093042,88
1418,30.189304,-98.099051,664
1419,30.192514,-98.064321,437
1420,30.237465,-98.065915,1093
1421,30.249399,-98.058146,130
1422,30.246189,-98.047347,130
1423,30.299922,-98.088865,342
1424,30.368436,-98.072766,396
1425,30.393322,-98.067956,52
1426,29.841741,-97.912779,864
1427,29.848594,-97.905366,761
1428,29.869138,-97.91176,65
1429,29.869205,-97.902758,65
1430,29.883152,-97.909806,610
1431,29.880615,-97.912757,610
1432,29.878232,-97.907425,65
1433,29.818075,-97.998524,777
1434,29.823262,-98.005313,0
1435,29.817127,-97.99684,777
1436,29.818931,-97.994699,777
1437,29.823926,-97.980733,313
1438,29.82181,-98.007133,0
1439,29.81739,-98.012155,0
1440,29.819486,-97.994863,777
1441,29.818343,-97.996504,777
1442,29.814034,-98.000977,402
1443,29.820301,-97.993655,777
1444,29.814105,-98.000616,402
1445,29.822026,-97.99246,777
1446,29.815446,-97.96404,1060
1447,29.830284,-97.96121,1080
1448,29.828849,-97.983841,313
1449,29.835607,-97.976302,646
1450,29.834256,-97.978198,646
1451,29.841971,-97.974684,147
1452,29.846351,-97.979676,489
1453,29.842559,-97.975355,147
1454,29.850844,-97.974942,489
1455,29.813421,-97.967589,1060
1456,29.806774,-97.978529,654
1457,29.838967,-97.973318,147
1458,29.834027,-97.978787,646
1459,29.840191,-97.972651,147
1460,29.836078,-97.976833,646
1461,29.840025,-97.97189,147
1462,29.84932,-97.976323,489
1463,29.820649,-97.955213,1060
1464,29.825662,-97.942213,690
1465,29.810918,-98.003617,402
1466,29.797524,-97.994277,1206
1467,29.780004,-97.992683,285
1468,29.80978,-98.005157,402
1469,29.810878,-98.004831,402
1470,29.804461,-97.982193,654
1471,29.816411,-97.996523,777
1472,29.80115,-97.994277,1206
1473,29.810904,-98.003892,402
1474,29.815126,-97.999061,777
1475,29.815366,-97.999757,777
1476,29.812963,-98.00256,402
1477,29.817537,-97.997344,777
1478,29.862223,-97.998377,924
1479,29.85096,-97.984969,489
1480,29.860719,-97.996498,924
1481,29.850231,-97.984131,489
1482,29.824507,-97.988654,313
1483,29.831786,-97.995633,1043
1484,29.847718,-97.981245,489
1485,29.821828,-97.992251,777
1486,29.823465,-97.990057,313
1487,29.834039,-97.992218,1043
1488,29.83723,-97.989055,1043
1489,29.835006,-97.9781,646
1490,29.827288,-97.985579,313
1491,29.827121,-97.984705,313
1492,29.827685,-97.98604,313
1493,29.825198,-97.988915,313
1494,29.829455,-97.984188,313
1495,29.830066,-97.982813,313
1496,29.830282,-97.98298,313
1497,29.82378,-97.990143,313
1498,29.82846,-97.986415,313
1499,29.796368,-97.968037,1072
1500,29.846826,-97.963812,806
1501,29.85373,-97.956148,806
1502,29.828217,-97.944615,690
1503,29.828578,-97.941912,690
1504,29.833369,-97.946962,690
1505,29.832843,-97.941569,690
1506,29.848735,-97.943496,176
1507,29.843343,-97.940454,176
1508,29.855146,-97.971213,489
1509,29.85336,-97.957648,806
1510,29.85126,-97.959659,806
1511,29.847441,-97.964333,806
1512,29.853528,-97.957082,806
1513,29.853599,-97.956728,806
1514,29.84383,-97.967646,147
1515,29.852997,-97.948412,80
1516,29.859231,-97.95031,80
1517,29.865634,-97.943201,248
1518,29.854864,-97.939497,525
1519,29.863038,-97.945704,80
1520,29.865021,-97.943426,248
1521,29.856628,-97.939361,525
1522,29.876116,-97.943103,766
1523,29.869203,-97.940235,248
1524,29.872973,-97.939549,950
1525,29.87758,-97.945016,766
1526,29.879629,-97.94301,8
1527,29.876869,-97.944064,766
1528,29.881903,-97.943378,8
1529,29.883538,-97.943689,8
1530,29.882495,-97.943449,8
1531,29.845758,-97.940197,176
1532,29.854604,-97.930246,963
1533,29.860255,-97.940449,525
1534,29.862253,-97.944222,80
1535,29.866176,-97.943259,248
1536,29.865091,-97.944442,248
1537,29.866953,-97.941952,248
1538,29.861566,-97.948009,80
1539,29.849604,-97.924394,963
1540,29.882041,-97.945704,766
1541,29.823166,-97.952518,690
1542,29.839462,-97.971821,147
1543,29.844947,-97.959837,806
1544,29.839028,-97.953008,1080
1545,29.846832,-97.964546,806
1546,29.842668,-97.968462,147
1547,29.844076,-97.967651,147
1548,29.843249,-97.968908,147
1549,29.862841,-97.959953,948
1550,29.861112,-97.957928,948
1551,29.874544,-97.955576,434
1552,29.868395,-97.961723,434
1553,29.867764,-97.961879,948
1554,29.87309,-97.9555,434
1555,29.876557,-97.957934,434
1556,29.880121,-97.961806,1007
1557,29.857091,-97.969138,948
1558,29.859917,-97.966063,948
1559,29.865419,-97.962971,948
1560,29.881201,-97.962979,1007
1561,29.856668,-97.952744,80
1562,29.858371,-97.950815,80
1563,29.858727,-97.955116,80
1564,29.858642,-97.951706,80
1565,29.857214,-97.953331,80
1566,29.860948,-97.947894,80
1567,29.857198,-97.952916,80
1568,29.862274,-97.947591,80
1569,29.874772,-97.955843,434
1570,29.880348,-97.950762,766
1571,29.880895,-97.949407,766
1572,29.877075,-97.951105,766
1573,29.87622,-97.952048,766
1574,29.877722,-97.950392,766
1575,29.873806,-97.95471,434
1576,29.879877,-97.94805,766
1577,29.878314,-97.94591,766
1578,29.880721,-97.949175,766
1579,29.882637,-97.946433,766
1580,29.880975,-97.946805,766
1581,29.880625,-97.947202,766
1582,29.882953,-97.946819,766
1583,29.881193,-97.949803,766
1584,29.883234,-97.94931,766
1585,29.841662,-97.936114,176
1586,29.834243,-97.928599,481
1587,29.83758,-97.921594,864
1588,29.847286,-97.941906,176
1589,29.845039,-97.918815,864
1590,29.868707,-97.939662,248
1591,29.866108,-97.94225,248
1592,29.868541,-97.938929,248
1593,29.867505,-97.938735,248
1594,29.870902,-97.936456,950
1595,29.867945,-97.935361,525
1596,29.868963,-97.931929,950
1597,29.866739,-97.942596,248
1598,29.868758,-97.939972,248
1599,29.876506,-97.929006,503
1600,29.878542,-97.926102,503
1601,29.88122,-97.92453,1170
1602,29.856022,-97.931812,963
1603,29.869094,-97.925668,1237
1604,29.872084,-97.91934,1237
1605,29.871191,-97.918273,1237
1606,29.870111,-97.928014,1237
1607,29.874672,-97.9286,503
1608,29.87846,-97.927101,503
1609,29.876501,-97.929761,503
1610,29.879317,-97.926499,503
1611,29.877335,-97.929068,503
1612,29.880004,-97.924818,503
1613,29.87679,-97.928989,503
1614,29.857879,-97.933204,963
1615,29.859559,-97.939136,525
1616,29.86196,-97.938952,525
1617,29.859356,-97.938419,525
1618,29.860462,-97.935727,525
1619,29.85872,-97.934025,963
1620,29.859132,-97.93763,525
1621,29.866104,-97.937439,525
1622,29.862164,-97.937389,525
1623,29.857033,-97.93933,525
1624,29.865529,-97.938682,525
1625,29.865203,-97.938703,525
1626,29.863338,-97.937733,525
1627,29.866078,-97.938666,525
1628,29.872465,-97.934293,950
1629,29.876948,-97.935627,950
1630,29.874456,-97.934677,950
1631,29.876274,-97.939969,950
1632,29.875412,-97.93981,950
1633,29.876448,-97.9387,950
1634,29.875464,-97.938568,950
1635,29.877058,-97.934952,950
1636,29.872558,-97.935146,950
1637,29.871952,-97.936352,950
1638,29.873279,-97.934553,950
1639,29.874938,-97.934728,950
1640,29.879132,-97.936033,950
1641,29.883692,-97.935194,567
1642,29.871325,-97.936415,950
1643,29.87528,-97.931813,950
1644,29.871376,-97.939427,248
1645,29.871593,-97.939456,248
1646,29.870143,-97.939265,248
1647,29.869401,-97.940087,248
1648,29.874302,-97.93838,950
1649,29.874166,-97.939576,950
1650,29.873541,-97.939562,950
1651,29.870384,-97.937174,950
1652,29.88011,-97.939989,8
1653,29.880182,-97.939324,8
1654,29.88144,-97.943323,8
1655,29.879804,-97.942005,8
1656,29.882041,-97.941035,8
1657,29.880037,-97.940663,8
1658,29.88177,-97.939579,8
1659,29.88305,-97.939784,8
1660,29.880724,-97.93681,950
1661,29.882252,-97.939656,8
1662,29.879754,-97.942292,8
1663,29.878688,-97.940413,950
1664,29.88265,-97.942749,8
1665,29.882348,-97.941092,8
1666,29.882869,-97.941188,8
1667,29.882698,-97.942407,8
1668,29.882965,-97.940445,8
1669,29.876883,-97.936028,950
1670,29.877932,-97.938963,950
1671,29.883228,-97.938129,8
1672,29.882553,-97.937165,8
1673,29.877473,-97.932861,503
1674,29.878668,-97.930725,503
1675,29.877842,-97.929681,503
1676,29.882305,-97.931934,503
1677,29.88393,-97.933255,567
1678,29.879275,-97.918292,1170
1679,29.88104,-97.920099,1170
1680,29.881947,-97.92016,1170
1681,29.882011,-97.917562,1170
1682,29.877475,-97.916194,1170
1683,29.873535,-97.921075,1237
1684,29.872239,-97.922415,1237
1685,29.880316,-97.923785,1170
1686,29.881773,-97.923014,1170
1687,29.87959,-97.913879,1170
1688,29.852885,-97.898439,761
1689,29.869256,-97.89591,874
1690,29.870444,-97.895752,874
1691,29.878486,-97.901872,65
1692,29.87339,-97.900478,65
1693,30.131698,-98.010044,95
1694,30.147484,-97.983461,925
1695,30.152035,-97.971907,925
1696,29.971708,-97.787475,363
1697,29.963481,-97.777722,869
1698,30.008939,-97.764874,699
1699,30.027667,-97.785745,128
1700,30.033957,-97.778844,128
1701,30.013464,-97.769916,699
1702,30.113119,-97.784722,385
1703,30.116689,-97.781607,385
1704,30.113119,-97.782165,385
1705,30.101967,-97.759692,221
1706,30.148253,-97.854836,858
1707,30.145025,-97.852244,858
1708,30.149554,-97.832825,1171
1709,30.140349,-97.832826,25
1710,30.146979,-97.794565,1041
1711,30.140553,-97.797024,111
1712,30.148136,-97.793388,1041
1713,30.13889,-97.796827,111
1714,30.149231,-97.79128,1041
1715,30.144042,-97.793174,1041
1716,30.155776,-97.790058,374
1717,30.145684,-97.793334,1041
1718,30.164578,-97.77902,1164
1719,30.166859,-97.784401,1164
1720,30.17234,-97.782741,738
1721,30.178169,-97.778888,38
1722,30.178354,-97.779637,38
1723,30.204722,-97.774484,647
1724,30.227454,-97.779953,931
1725,30.227656,-97.778749,931
1726,30.227437,-97.779343,931
1727,30.230105,-97.788895,56
1728,30.26528,-97.784538,202
1729,30.267711,-97.779086,202
1730,30.265256,-97.783519,202
1731,30.267761,-97.778362,202
1732,30.26533,-97.782286,202
1733,30.266689,-97.779575,202
1734,30.268797,-97.777774,202
1735,30.267535,-97.771498,669
1736,30.325587,-97.779934,204
1737,30.311853,-97.782363,520
1738,30.341,-97.77894,494
1739,30.341546,-97.781731,494
1740,30.399031,-97.782486,461
1741,30.392306,-97.777798,461
1742,29.95748,-97.786545,363
1743,30.044544,-97.794242,749
1744,30.061135,-97.780788,420
1745,30.085718,-97.767393,221
1746,30.092449,-97.781509,485
1747,30.145501,-97.765776,349
1748,30.14972,-97.766207,349
1749,30.153347,-97.711128,1053
1750,30.158266,-97.681272,496
1751,30.137567,-97.584342,1193
1752,30.147217,-97.577793,639
1753,30.140648,-97.567176,228
1754,30.159513,-97.555305,832
1755,30.158348,-97.776137,349
1756,30.157205,-97.781488,1164
1757,30.172017,-97.783811,738
1758,30.179544,-97.782873,38
1759,30.18261,-97.774018,576
1760,30.171832,-97.781082,738
1761,30.183546,-97.77423,576
1762,30.17127,-97.782507,738
1763,30.187451,-97.780446,38
1764,30.192997,-97.778594,576
1765,30.194254,-97.78212,590
1766,30.188994,-97.77993,576
1767,30.206957,-97.778439,980
1768,30.208275,-97.781155,980
1769,30.211058,-97.778963,980
1770,30.210002,-97.779795,980
1771,30.154302,-97.735082,1150
1772,30.142173,-97.728856,612
1773,30.22782,-97.774012,422
1774,30.227927,-97.780151,931
1775,30.246641,-97.777001,790
1776,30.244055,-97.781187,790
1777,30.257205,-97.7808,202
1778,30.247075,-97.784821,790
1779,30.260413,-97.770657,742
1780,30.267311,-97.780537,202
1781,30.145195,-97.699584,691
1782,30.149434,-97.696636,691
1783,30.143977,-97.69652,691
1784,30.152491,-97.670395,496
1785,30.145534,-97.673128,496
1786,30.153362,-97.668847,496
1787,30.153831,-97.639306,284
1788,30.283155,-97.776483,623
1789,30.288501,-97.78036,921
1790,30.293797,-97.783106,1214
1791,30.295908,-97.783359,1214
1792,30.357981,-97.785307,1177
1793,30.38252,-97.771031,160
1794,30.146457,-97.624194,945
1795,30.294852,-97.781125,1214
1796,30.291665,-97.774304,921
1797,30.297507,-97.780138,1214
1798,30.300641,-97.775754,1214
1799,30.228138,-97.778887,931
1800,30.228226,-97.781444,931
1801,30.223421,-97.781914,931
1802,30.14862,-97.807197,451
1803,30.144604,-97.808804,451
1804,29.891123,-97.914054,610
1805,29.896446,-97.909096,227
1806,29.893021,-97.911456,227
1807,29.895908,-97.909218,227
1808,29.896952,-97.909541,227
1809,29.904764,-97.912,227
1810,29.915818,-97.910772,794
1811,29.918339,-97.90818,794
1812,29.956683,-97.903285,430
1813,30.028014,-97.910045,831
1814,29.893886,-97.912702,227
1815,29.900771,-97.905448,601
1816,29.894057,-97.911678,227
1817,30.016504,-97.897091,109
1818,29.990932,-97.892708,626
1819,29.966324,-97.926509,505
1820,30.011987,-97.891282,109
1821,30.020791,-97.889466,109
1822,30.014425,-97.859689,648
1823,30.019364,-97.856183,648
1824,30.028356,-97.854691,630
1825,30.014248,-97.85921,648
1826,30.019858,-97.855075,12
1827,30.016986,-97.847265,12
1828,30.014363,-97.812917,894
1829,30.01829,-97.80929,894
1830,30.028376,-97.926097,831
1831,30.015748,-97.859108,648
1832,30.00581,-97.865017,159
1833,30.004704,-97.82677,432
1834,30.095394,-97.895715,1160
1835,30.09644,-97.930063,560
1836,30.018492,-97.871239,880
1837,29.89864,-97.973549,714
1838,29.925388,-97.947524,224
1839,29.956176,-97.969228,184
1840,29.937726,-97.932325,1132
1841,29.969026,-97.989404,1182
1842,29.900238,-97.982998,1159
1843,29.983412,-98.00407,522
1844,29.888059,-97.942108,8
1845,29.892343,-97.941204,744
1846,29.884842,-97.943001,8
1847,29.886138,-97.944191,8
1848,29.887377,-97.944393,8
1849,29.891347,-97.941083,744
1850,29.892214,-97.944405,744
1851,29.894504,-97.942072,744
1852,29.896304,-97.944082,1186
1853,29.896828,-97.94477,1186
1854,29.90526,-97.929784,645
1855,29.917193,-97.933274,645
1856,29.921256,-97.93543,645
1857,29.887756,-97.961289,1007
1858,29.891718,-97.95702,299
1859,29.896152,-97.964475,714
1860,29.900516,-97.958233,714
1861,29.896785,-97.948392,1186
1862,29.898021,-97.947013,1186
1863,29.888057,-97.951664,299
1864,29.889125,-97.950476,299
1865,29.890261,-97.951863,299
1866,29.895617,-97.949694,1186
1867,29.893969,-97.951532,299
1868,29.891572,-97.953462,299
1869,29.889994,-97.95523,299
1870,29.890985,-97.952746,299
1871,29.888145,-97.945395,8
1872,29.888858,-97.946341,8
1873,29.890193,-97.947309,299
1874,29.897713,-97.947357,1186
1875,29.888328,-97.93012,567
1876,29.885608,-97.926853,503
1877,29.89445,-97.923727,256
1878,29.900543,-97.926663,256
1879,29.891716,-97.926737,256
1880,29.889409,-97.931367,567
1881,29.891985,-97.926032,256
1882,29.89425,-97.928245,256
1883,29.898973,-97.918589,227
1884,29.903718,-97.91319,227
1885,29.892871,-97.941268,744
1886,29.889904,-97.935206,567
1887,29.891224,-97.936081,567
1888,29.894618,-97.935685,744
1889,29.896258,-97.936477,744
1890,29.888698,-97.934407,567
1891,29.887445,-97.935513,567
1892,29.89017,-97.935888,567
1893,29.888847,-97.933304,567
1894,29.895579,-97.932475,744
1895,29.897822,-97.938325,744
1896,29.885398,-97.93914,8
1897,29.88764,-97.939234,567
1898,29.888443,-97.940612,8
1899,29.890831,-97.940999,744
1900,29.887845,-97.93802,567
1901,29.89031,-97.936246,567
1902,29.886562,-97.941802,8
1903,29.885175,-97.940808,8
1904,29.886157,-97.940243,8
1905,29.886604,-97.940314,8
1906,29.888282,-97.941299,8
1907,29.887342,-97.941936,8
1908,29.88561,-97.937555,567
1909,29.886856,-97.937814,567
1910,29.885949,-97.936406,567
1911,29.8872,-97.937886,567
1912,29.885461,-97.938676,8
1913,29.889151,-97.93708,567
1914,29.895984,-97.941451,744
1915,29.887415,-97.923324,256
1916,29.891811,-97.918543,256
1917,29.896415,-97.921533,256
1918,29.88842,-97.917542,610
1919,29.892288,-97.922507,256
1920,29.892966,-97.915739,256
1921,29.892884,-97.917288,256
1922,29.891351,-97.913416,610
1923,29.892317,-97.921909,256
1924,29.893086,-97.91346,227
1925,29.891997,-97.914136,610
1926,29.891126,-97.914385,610
1927,29.885393,-97.925649,1170
1928,29.886585,-97.924278,1170
1929,29.890532,-97.915493,610
1930,29.887113,-97.917196,610
1931,29.896288,-97.915415,227
1932,30.03879,-97.948547,408
1933,30.047178,-97.988048,132
1934,30.044053,-97.964363,408
1935,30.084815,-98.013181,1246
1936,30.075656,-98.001528,310
1937,30.12097,-97.966499,726
1938,30.068102,-97.95782,561
1939,30.059516,-97.989525,132
1940,30.117416,-98.027066,475
1941,30.124197,-98.031112,475
1942,30.131151,-98.015189,95
1943,30.12078,-97.957285,197
1944,29.938037,-97.893994,854
1945,29.950238,-97.884295,545
1946,29.94924,-97.87881,545
1947,29.950177,-97.878941,545
1948,29.957876,-97.876596,31
1949,29.915845,-97.848869,500
1950,29.926522,-97.83059,627
1951,29.947856,-97.880945,545
1952,29.942481,-97.882516,545
1953,29.95831,-97.877762,31
1954,29.959461,-97.877099,31
1955,29.947617,-97.880283,545
1956,29.94602,-97.844755,246
1957,29.987605,-97.836644,72
1958,29.997898,-97.850285,1042
1959,29.992531,-97.842281,72
1960,29.940408,-97.846714,627
1961,29.942311,-97.82705,884
1962,29.952679,-97.837463,246
1963,29.955021,-97.83949,246
1964,29.963873,-97.849113,1145
1965,29.941387,-97.80234,134
1966,29.953695,-97.808346,884
1967,29.944065,-97.798207,134
1968,29.914969,-97.896677,320
1969,29.925772,-97.891058,320
1970,29.916378,-97.895242,320
1971,29.922265,-97.892317,320
1972,29.893323,-97.88093,762
1973,29.90875,-97.859715,500
1974,29.916639,-97.878747,82
1975,29.918328,-97.876762,82
1976,29.917495,-97.895689,320
1977,29.910342,-97.899412,601
1978,29.9187,-97.895591,320
1979,29.946666,-97.879885,545
1980,29.928819,-97.864431,500
1981,29.92182,-97.856035,500
1982,29.899395,-97.905689,601
1983,29.901008,-97.904288,601
1984,29.900499,-97.905254,601
1985,29.903743,-97.902465,601
1986,29.895047,-97.899234,115
1987,29.900391,-97.889634,762
1988,29.902267,-97.90481,601
1989,29.900165,-97.906472,601
1990,29.902384,-97.904131,601
1991,29.894185,-97.900996,115
1992,29.895378,-97.904373,115
1993,29.902694,-97.902857,601
1994,29.906661,-97.900582,601
1995,29.909831,-97.900124,601
1996,29.907766,-97.900401,601
1997,29.932,-97.888354,854
1998,29.932101,-97.888748,854
1999,29.93194,-97.88714,854
2000,29.942942,-97.88172,545
2001,29.943195,-97.882564,545
2002,29.944055,-97.88247,545
2003,29.926976,-97.86222,500
2004,29.967815,-97.875762,747
2005,29.969687,-97.89606,430
2006,29.980784,-97.89222,430
2007,29.988604,-97.877025,289
2008,29.98734,-97.881341,289
2009,29.980893,-97.88974,626
2010,29.991005,-97.87655,289
2011,29.998405,-97.875004,159
2012,29.955968,-97.877251,31
2013,29.960048,-97.877361,31
2014,29.961741,-97.879345,31
2015,29.977884,-97.8736,939
2016,29.983903,-97.872529,939
2017,29.980909,-97.869032,939
2018,29.989237,-97.881134,289
2019,29.98842,-97.874175,289
2020,29.979466,-97.874473,939
2021,29.984511,-97.872966,939
2022,29.976854,-97.873979,939
2023,29.984943,-97.873281,939
2024,29.978504,-97.874173,939
2025,29.995007,-97.875758,289
2026,29.993397,-97.880581,289
2027,29.98998,-97.859024,1042
2028,29.97571,-97.893847,430
2029,29.991391,-97.883102,626
2030,29.990351,-97.888739,626
2031,29.98995,-97.885996,626
2032,29.989498,-97.882908,289
2033,29.964168,-97.87511,31
2034,29.968051,-97.874544,747
2035,29.967861,-97.875366,747
2036,29.962752,-97.87637,31
2037,29.96523,-97.875565,747
2038,29.971791,-97.858385,1145
2039,29.973956,-97.874605,747
2040,29.973379,-97.87508,747
2041,29.999674,-97.872733,159
2042,29.994143,-97.870195,159
2043,29.999144,-97.868018,159
2044,29.99763,-97.86942,159
2045,29.999883,-97.868179,159
2046,30.004292,-97.856041,1042
2047,29.999739,-97.86852,159
2048,29.998763,-97.869521,159
2049,30.003548,-97.866759,159
2050,30.005121,-97.865053,159
2051,30.009416,-97.862153,648
2052,30.012584,-97.860204,648
2053,30.013012,-97.861302,648
2054,30.007356,-97.864561,648
2055,29.988217,-97.872226,289
2056,29.988055,-97.871805,289
2057,29.988493,-97.87533,289
2058,29.992077,-97.873158,289
2059,30.005926,-97.864224,159
2060,29.934329,-97.81764,944
2061,29.968192,-97.82357,788
2062,29.95593,-97.810699,884
2063,29.971545,-97.818273,788
2064,29.976888,-97.808745,788
2065,29.989278,-97.80845,491
2066,29.993819,-97.813678,491
2067,29.984568,-97.817677,491
2068,29.961303,-97.832749,246
2069,29.99912,-97.834605,72
2070,30.000962,-97.821896,491
2071,29.965926,-97.795661,363
2072,29.964911,-97.794449,363
2073,30.0323,-97.847014,630
2074,30.041811,-97.842152,630
2075,30.032835,-97.846357,630
2076,30.035577,-97.844714,630
2077,30.035737,-97.846154,630
2078,30.056751,-97.844468,1062
2079,30.079887,-97.874335,1081
2080,30.085233,-97.874376,1081
2081,30.057411,-97.859417,1229
2082,30.057888,-97.844172,1062
2083,30.085233,-97.849017,368
2084,30.071266,-97.84389,368
2085,30.038451,-97.84427,630
2086,30.032572,-97.847181,630
2087,30.040561,-97.843567,630
2088,30.078846,-97.843981,368
2089,30.081515,-97.842408,368
2090,30.072526,-97.855312,368
2091,30.087256,-97.830648,1068
2092,30.07893,-97.823356,217
2093,30.08137,-97.821978,217
2094,30.070274,-97.810744,495
2095,30.094569,-97.810998,66
2096,30.084451,-97.781297,485
2097,30.086583,-97.848656,368
2098,30.081757,-97.823239,217
2099,30.079485,-97.824447,217
2100,30.08252,-97.822475,217
2101,30.076016,-97.825784,933
2102,30.082232,-97.822216,217
2103,30.077746,-97.824566,217
2104,30.092478,-97.848376,486
2105,30.141052,-97.839895,25
2106,30.140901,-97.846645,858
2107,30.042635,-97.884639,472
2108,30.049961,-97.874437,472
2109,30.02744,-97.88916,109
2110,30.027821,-97.874967,880
2111,30.034703,-97.874957,472
2112,30.019116,-97.899698,109
2113,30.021271,-97.854719,12
2114,30.029776,-97.848174,630
2115,30.029759,-97.849023,630
2116,30.02232,-97.853646,12
2117,30.022693,-97.854123,12
2118,30.01694,-97.858252,648
2119,30.068251,-97.873629,205
2120,30.104231,-97.874942,314
2121,30.092148,-97.874553,718
2122,30.097269,-97.874777,718
2123,30.095573,-97.891498,1160
2124,30.114723,-97.874813,314
2125,30.124805,-97.862555,657
2126,30.100671,-97.848911,486
2127,30.100605,-97.860949,486
2128,30.117934,-97.872072,314
2129,30.048613,-97.838751,137
2130,30.044463,-97.840432,137
2131,30.04977,-97.837808,137
2132,30.030178,-97.8244,432
2133,30.024867,-97.789988,128
2134,30.058252,-97.821052,495
2135,30.046184,-97.80319,749
2136,30.0519,-97.838021,137
2137,30.046293,-97.840771,137
2138,30.050612,-97.838215,137
2139,30.046387,-97.840289,137
2140,30.058509,-97.803453,495
2141,30.071613,-97.821368,933
2142,30.039995,-97.842572,630
2143,30.04291,-97.842069,630
2144,30.041884,-97.842901,630
2145,30.066202,-97.843692,1062
2146,30.058164,-97.833704,1062
2147,30.062222,-97.831705,1062
2148,30.070839,-97.827419,933
2149,30.057803,-97.840129,1062
2150,30.07068,-97.828798,933
2151,30.07683,-97.834637,1068
2152,30.077186,-97.82572,933
2153,30.065182,-97.821221,495
2154,30.062529,-97.832814,1062
2155,30.07175,-97.82791,933
2156,30.062354,-97.832455,1062
2157,30.075844,-97.825589,933
2158,30.057454,-97.834413,1062
2159,30.057939,-97.836082,1062
2160,30.076801,-97.835362,1068
2161,30.077202,-97.824359,933
2162,30.077346,-97.821442,217
2163,30.06067,-97.804117,495
2164,30.070329,-97.806658,495
2165,30.094963,-97.813585,66
2166,30.099335,-97.811285,66
2167,30.098435,-97.81269,66
2168,30.108909,-97.807884,294
2169,30.112057,-97.808283,294
2170,30.108447,-97.8089,294
2171,30.09896,-97.813399,66
2172,30.118369,-97.804675,294
2173,30.109649,-97.809274,294
2174,30.099359,-97.81391,66
2175,30.114252,-97.804835,294
2176,30.112147,-97.805531,294
2177,30.115732,-97.805049,294
2178,30.117582,-97.805905,294
2179,30.142797,-97.802155,1041
2180,30.140481,-97.822986,25
2181,30.112819,-97.795296,385
2182,30.088967,-97.819233,66
2183,30.097371,-97.814901,66
2184,30.086778,-97.820047,217
2185,30.095201,-97.81455,66
2186,30.088498,-97.817877,66
2187,30.095267,-97.815648,66
2188,30.08977,-97.817858,66
2189,30.094513,-97.794342,485
2190,30.100245,-97.781725,485
2191,30.109372,-97.806761,294
2192,30.112981,-97.792339,385
2193,30.130465,-97.798256,878
2194,30.129586,-97.799486,878
2195,30.136987,-97.798363,111
2196,30.126556,-97.802268,878
2197,30.138052,-97.796223,111
2198,30.138468,-97.795207,111
2199,30.129632,-97.800342,878
2200,30.13634,-97.796009,111
2201,30.141058,-97.7951,111
2202,30.125677,-97.801787,878
2203,30.136175,-97.791399,111
2204,30.290398,-98.020961,787
2205,30.187541,-97.912924,90
2206,30.182088,-97.89988,708
2207,30.203564,-97.915917,588
2208,30.218164,-97.894051,1241
2209,30.234304,-97.910849,509
2210,30.230046,-97.895393,54
2211,30.275312,-97.91381,1073
2212,30.28033,-97.904212,99
2213,30.307708,-97.927441,1051
2214,30.307834,-97.892772,1027
2215,30.289788,-97.917446,543
2216,30.181256,-97.90037,708
2217,30.186433,-97.913792,90
2218,30.201796,-97.918388,588
2219,30.260021,-97.907067,810
2220,30.251859,-97.918722,810
2221,30.282704,-97.876244,506
2222,30.2734,-97.862617,253
2223,30.284143,-97.875022,506
2224,30.277539,-97.819556,295
2225,30.27584,-97.815575,295
2226,30.283842,-97.824162,1135
2227,30.276482,-97.803384,42
2228,30.279916,-97.807103,1087
2229,30.262313,-97.888867,270
2230,30.386976,-97.903719,1033
2231,30.281131,-97.842637,633
2232,30.269707,-97.850778,253
2233,30.274195,-97.812513,295
2234,30.272939,-97.798176,42
2235,30.215547,-98.02279,269
2236,30.196676,-98.013609,722
2237,30.179153,-97.965435,608
2238,30.228909,-97.95054,440
2239,30.208494,-97.972777,27
2240,30.215089,-97.964775,27
2241,30.196532,-97.997346,1014
2242,30.217079,-97.962868,440
2243,30.233343,-97.980853,853
2244,30.221726,-97.955777,440
2245,30.153427,-98.008778,548
2246,30.167389,-98.008567,177
2247,30.178509,-98.002331,177
2248,30.194559,-98.029824,1231
2249,30.153575,-97.994535,925
2250,30.23749,-98.026025,619
2251,30.24336,-98.021496,619
2252,30.217224,-98.02376,269
2253,30.234439,-98.005382,362
2254,30.232748,-97.991675,362
2255,30.231634,-97.999975,362
2256,30.180144,-97.966104,608
2257,30.174159,-97.929221,729
2258,30.161605,-97.952457,381
2259,30.189131,-97.926918,756
2260,30.197962,-97.920828,588
2261,30.194456,-97.923225,756
2262,30.193069,-97.924096,756
2263,30.225762,-97.946665,440
2264,30.230666,-97.931553,167
2265,30.241088,-97.94163,683
2266,30.240527,-97.920292,509
2267,30.246061,-97.92715,509
2268,30.241424,-97.940784,683
2269,30.223176,-97.952875,440
2270,30.231228,-97.928424,167
2271,30.238639,-97.918139,509
2272,30.303727,-97.997469,279
2273,30.306929,-97.970205,977
2274,30.315871,-97.97799,977
2275,30.309794,-97.965369,977
2276,30.334263,-97.968559,609
2277,30.357365,-97.978713,165
2278,30.354141,-97.96117,1017
2279,30.354964,-97.986207,165
2280,30.308263,-97.94502,1056
2281,30.304819,-97.935671,1051
2282,30.307893,-97.956127,1056
2283,30.32185,-97.955313,9
2284,30.359059,-97.954035,1017
2285,30.391435,-97.937119,581
2286,30.153247,-97.833034,1171
2287,30.183334,-97.849577,266
2288,30.190407,-97.845121,266
2289,30.210837,-97.858899,371
2290,30.218765,-97.838342,2
2291,30.21052,-97.858555,371
2292,30.217492,-97.838693,2
2293,30.202866,-97.837208,1013
2294,30.214383,-97.850213,803
2295,30.208101,-97.888666,476
2296,30.219574,-97.843778,2
2297,30.232333,-97.840227,1021
2298,30.227366,-97.831071,191
2299,30.248549,-97.850943,688
2300,30.245545,-97.845201,688
2301,30.169901,-97.859566,259
2302,30.176355,-97.835481,822
2303,30.211092,-97.831757,443
2304,30.21668,-97.845643,803
2305,30.211544,-97.825433,443
2306,30.213668,-97.830107,443
2307,30.218339,-97.805362,681
2308,30.213589,-97.814537,681
2309,30.215206,-97.797393,1069
2310,30.213555,-97.794039,1069
2311,30.223141,-97.841448,2
2312,30.224641,-97.85483,803
2313,30.233736,-97.84074,1021
2314,30.23635,-97.832664,191
2315,30.236609,-97.83963,1021
2316,30.237141,-97.831908,191
2317,30.237639,-97.83963,1021
2318,30.206976,-97.815059,573
2319,30.208596,-97.80447,865
2320,30.213597,-97.850916,803
2321,30.204062,-97.858604,371
2322,30.206944,-97.84541,1013
2323,30.23683,-97.837139,1021
2324,30.237161,-97.837182,1021
2325,30.23695,-97.842302,1021
2326,30.236655,-97.842259,1021
2327,30.174337,-97.888236,521
2328,30.180271,-97.878955,142
2329,30.199346,-97.867275,895
2330,30.180052,-97.878449,142
2331,30.185813,-97.874961,142
2332,30.199122,-97.865671,895
2333,30.200434,-97.877747,784
2334,30.175337,-97.85482,259
2335,30.190033,-97.89058,708
2336,30.188385,-97.89214,708
2337,30.157165,-97.859768,259
2338,30.16629,-97.860619,259
2339,30.165113,-97.860279,259
2340,30.193757,-97.85882,895
2341,30.199057,-97.871973,895
2342,30.198771,-97.852364,266
2343,30.207564,-97.860569,371
2344,30.20827,-97.861604,371
2345,30.220789,-97.872676,163
2346,30.23047,-97.87927,816
2347,30.227623,-97.872836,816
2348,30.243252,-97.883117,564
2349,30.247218,-97.888438,270
2350,30.240749,-97.880658,564
2351,30.236775,-97.877965,816
2352,30.243905,-97.879527,564
2353,30.25574,-97.890434,270
2354,30.242347,-97.878275,564
2355,30.2569,-97.871023,410
2356,30.245212,-97.864037,410
2357,30.244091,-97.863216,410
2358,30.240407,-97.8914,1085
2359,30.236802,-97.8836,564
2360,30.221946,-97.892219,1241
2361,30.236646,-97.900652,1085
2362,30.238761,-97.890584,1085
2363,30.260195,-97.902225,810
2364,30.256776,-97.893795,270
2365,30.257265,-97.88907,270
2366,30.25114,-97.896549,270
2367,30.257047,-97.904199,810
2368,30.216061,-97.8624,371
2369,30.220274,-97.85766,803
2370,30.225608,-97.868584,163
2371,30.229763,-97.864518,163
2372,30.227832,-97.861267,163
2373,30.222852,-97.862833,163
2374,30.227426,-97.860449,163
2375,30.236052,-97.854532,688
2376,30.23514,-97.854813,688
2377,30.223181,-97.871649,163
2378,30.223243,-97.863618,163
2379,30.217862,-97.852537,803
2380,30.223843,-97.855347,803
2381,30.218741,-97.854334,803
2382,30.273753,-97.856936,253
2383,30.251431,-97.85779,410
2384,30.254374,-97.864878,410
2385,30.249645,-97.853226,688
2386,30.173459,-97.823559,126
2387,30.179605,-97.819921,126
2388,30.173662,-97.816884,126
2389,30.173886,-97.809477,126
2390,30.176355,-97.832375,822
2391,30.185679,-97.816079,1095
2392,30.185283,-97.810546,1095
2393,30.179238,-97.795686,597
2394,30.180182,-97.79517,597
2395,30.182422,-97.788699,38
2396,30.172747,-97.785005,738
2397,30.199803,-97.80716,865
2398,30.191134,-97.812608,1095
2399,30.202665,-97.806668,865
2400,30.180485,-97.802237,597
2401,30.180831,-97.807529,1095
2402,30.178514,-97.808159,1095
2403,30.177279,-97.803448,597
2404,30.202762,-97.812793,573
2405,30.18864,-97.828925,319
2406,30.176355,-97.833872,822
2407,30.1607,-97.802057,374
2408,30.164189,-97.830006,1171
2409,30.169231,-97.825103,126
2410,30.187778,-97.827104,319
2411,30.194472,-97.830519,319
2412,30.199763,-97.820203,573
2413,30.201214,-97.838303,1013
2414,30.195122,-97.842094,266
2415,30.191706,-97.814837,1095
2416,30.197267,-97.816427,573
2417,30.195762,-97.821196,573
2418,30.189681,-97.824843,319
2419,30.198839,-97.819117,573
2420,30.172226,-97.799273,597
2421,30.166962,-97.788279,1164
2422,30.173904,-97.798642,597
2423,30.174077,-97.790784,597
2424,30.163204,-97.788333,1164
2425,30.155768,-97.790981,374
2426,30.162464,-97.78959,1164
2427,30.166939,-97.787129,1164
2428,30.160891,-97.787557,1164
2429,30.162002,-97.787985,1164
2430,30.173786,-97.80677,597
2431,30.157098,-97.79141,374
2432,30.149732,-97.793656,1041
2433,30.156987,-97.788798,1164
2434,30.165459,-97.787076,1164
2435,30.185486,-97.802486,1095
2436,30.183698,-97.792438,597
2437,30.198722,-97.791851,153
2438,30.192877,-97.790057,590
2439,30.194474,-97.783017,590
2440,30.19698,-97.787501,590
2441,30.199096,-97.793366,153
2442,30.200171,-97.798499,865
2443,30.194362,-97.789132,590
2444,30.207745,-97.794017,153
2445,30.202191,-97.804482,865
2446,30.199384,-97.805942,865
2447,30.198903,-97.802201,865
2448,30.189777,-97.790227,590
2449,30.182928,-97.786171,38
2450,30.191804,-97.783996,590
2451,30.180322,-97.790013,597
2452,30.183114,-97.781832,38
2453,30.204353,-97.791199,153
2454,30.21132,-97.789122,153
2455,30.210516,-97.786904,980
2456,30.198363,-97.790864,153
2457,30.202228,-97.784275,980
2458,30.205473,-97.790072,153
2459,30.209203,-97.784479,980
2460,30.222801,-97.805243,681
2461,30.22805,-97.809223,1122
2462,30.233858,-97.821453,989
2463,30.23245,-97.808305,1122
2464,30.232666,-97.818097,989
2465,30.231455,-97.806939,1122
2466,30.238975,-97.819349,677
2467,30.244234,-97.808808,146
2468,30.240218,-97.82839,604
2469,30.238702,-97.82134,677
2470,30.257974,-97.812264,457
2471,30.218583,-97.806739,681
2472,30.215003,-97.813629,681
2473,30.23355,-97.810437,1122
2474,30.236386,-97.825435,989
2475,30.233955,-97.810455,1122
2476,30.233651,-97.818327,989
2477,30.244695,-97.807022,146
2478,30.24515,-97.80612,146
2479,30.237759,-97.820834,677
2480,30.243412,-97.782109,790
2481,30.245978,-97.807716,146
2482,30.249719,-97.806316,146
2483,30.251923,-97.802314,725
2484,30.263752,-97.816613,457
2485,30.218206,-97.82717,443
2486,30.233436,-97.826613,191
2487,30.227029,-97.830077,191
2488,30.232864,-97.825502,191
2489,30.23606,-97.829883,191
2490,30.235193,-97.825605,989
2491,30.236837,-97.825746,989
2492,30.236089,-97.824203,989
2493,30.219506,-97.826329,443
2494,30.236495,-97.830177,191
2495,30.236772,-97.830217,191
2496,30.231272,-97.827504,191
2497,30.222202,-97.835212,2
2498,30.221992,-97.834969,2
2499,30.231272,-97.826983,191
2500,30.219835,-97.836259,2
2501,30.220703,-97.836875,2
2502,30.217456,-97.834436,2
2503,30.23648,-97.824848,989
2504,30.237683,-97.823722,989
2505,30.234639,-97.824175,989
2506,30.236251,-97.822684,989
2507,30.237186,-97.821308,989
2508,30.237333,-97.822571,989
2509,30.237105,-97.822005,989
2510,30.234337,-97.820512,989
2511,30.23579,-97.823091,989
2512,30.260888,-97.814364,457
2513,30.263578,-97.816797,457
2514,30.266143,-97.817979,295
2515,30.2716,-97.817588,295
2516,30.271717,-97.817882,295
2517,30.267828,-97.81834,295
2518,30.265414,-97.818023,457
2519,30.218078,-97.795323,1069
2520,30.227708,-97.808527,1122
2521,30.232107,-97.800515,331
2522,30.233286,-97.796057,658
2523,30.232689,-97.798636,331
2524,30.235575,-97.793702,658
2525,30.23398,-97.797025,658
2526,30.23697,-97.798816,658
2527,30.232953,-97.794725,658
2528,30.220448,-97.793757,1069
2529,30.222744,-97.798451,1069
2530,30.229003,-97.801013,331
2531,30.230355,-97.789878,658
2532,30.223115,-97.799201,331
2533,30.230378,-97.788003,56
2534,30.229342,-97.78654,56
2535,30.234377,-97.796031,658
2536,30.235927,-97.79778,658
2537,30.232603,-97.800213,331
2538,30.235198,-97.794501,658
2539,30.233339,-97.798214,331
2540,30.232583,-97.793235,658
2541,30.229617,-97.788557,56
2542,30.228047,-97.801512,331
2543,30.228254,-97.789269,56
2544,30.229025,-97.799467,331
2545,30.230386,-97.793822,658
2546,30.230122,-97.797975,331
2547,30.217546,-97.801713,1069
2548,30.225331,-97.803685,331
2549,30.231462,-97.804014,331
2550,30.231804,-97.804853,1122
2551,30.232967,-97.800718,331
2552,30.232413,-97.80632,1122
2553,30.232432,-97.807216,1122
2554,30.238041,-97.798967,658
2555,30.232875,-97.808476,1122
2556,30.233151,-97.807964,1122
2557,30.232009,-97.806884,1122
2558,30.237916,-97.79928,658
2559,30.225517,-97.790699,1069
2560,30.236651,-97.792052,658
2561,30.237902,-97.789945,658
2562,30.233587,-97.785525,56
2563,30.230721,-97.789249,56
2564,30.232393,-97.792418,658
2565,30.236646,-97.78352,56
2566,30.233574,-97.794596,658
2567,30.23119,-97.791055,658
2568,30.233917,-97.795234,658
2569,30.260056,-97.805347,725
2570,30.261715,-97.80888,457
2571,30.256001,-97.80054,725
2572,30.260262,-97.794047,449
2573,30.258713,-97.79617,449
2574,30.260209,-97.79324,449
2575,30.260195,-97.810167,457
2576,30.258993,-97.797666,725
2577,30.272563,-97.797651,42
2578,30.270391,-97.791447,449
2579,30.263095,-97.788804,449
2580,30.260676,-97.794025,449
2581,30.25742,-97.799849,725
2582,30.26073,-97.792218,449
2583,30.262343,-97.789257,449
2584,30.266681,-97.805797,457
2585,30.262226,-97.791986,449
2586,30.263327,-97.789245,449
2587,30.24763,-97.804075,146
2588,30.251005,-97.806613,725
2589,30.252168,-97.805827,725
2590,30.255017,-97.803706,725
2591,30.258601,-97.802677,725
2592,30.250175,-97.802627,146
2593,30.253313,-97.801443,725
2594,30.255686,-97.803534,725
2595,30.256627,-97.802043,725
2596,30.272874,-97.801035,42
2597,30.274274,-97.80014,42
2598,30.252789,-97.784927,790
2599,30.264663,-97.78723,449
2600,30.26362,-97.787056,449
2601,30.266277,-97.782899,202
2602,30.264301,-97.788165,449
2603,30.263404,-97.789885,449
2604,30.264583,-97.784744,202
2605,30.265011,-97.786332,202
2606,30.289039,-97.86919,506
2607,30.303022,-97.843429,1088
2608,30.33747,-97.864691,1165
2609,30.341261,-97.881847,1117
2610,30.35662,-97.832265,541
2611,30.394252,-97.845181,43
2612,30.398789,-97.844551,43
2613,30.309888,-97.844822,1088
2614,30.313104,-97.852347,415
2615,30.370289,-97.860451,1168
2616,30.312663,-97.881033,182
2617,30.316056,-97.872294,182
2618,30.331027,-97.885542,1117
2619,30.322847,-97.87288,182
2620,30.377304,-97.884445,372
2621,30.377412,-97.879879,372
2622,30.382368,-97.871525,778
2623,30.394185,-97.868841,778
2624,30.389427,-97.882163,1213
2625,30.394712,-97.866069,778
2626,30.283109,-97.810687,1087
2627,30.298997,-97.81519,910
2628,30.298207,-97.802389,1230
2629,30.314974,-97.826522,572
2630,30.309577,-97.826156,572
2631,30.316063,-97.825211,572
2632,30.309545,-97.825762,572
2633,30.321072,-97.816305,79
2634,30.290013,-97.819354,1135
2635,30.310491,-97.801552,290
2636,30.308132,-97.796794,290
2637,30.313248,-97.79433,591
2638,30.322091,-97.815584,79
2639,30.305985,-97.782053,520
2640,30.300892,-97.839075,1088
2641,30.295865,-97.82877,133
2642,30.283963,-97.832888,633
2643,30.293077,-97.82808,133
2644,30.298267,-97.827853,133
2645,30.295467,-97.827438,133
2646,30.29285,-97.822481,1135
2647,30.299516,-97.818977,910
2648,30.293223,-97.82844,133
2649,30.297657,-97.828157,133
2650,30.281643,-97.842091,633
2651,30.284166,-97.83342,633
2652,30.304314,-97.840649,1088
2653,30.290327,-97.828309,133
2654,30.287733,-97.826976,1135
2655,30.305178,-97.825485,572
2656,30.30455,-97.825413,572
2657,30.292344,-97.797985,1230
2658,30.289988,-97.790063,1214
2659,30.304525,-97.794835,290
2660,30.290906,-97.801329,1230
2661,30.281367,-97.808305,1087
2662,30.291352,-97.782574,1214
2663,30.303467,-97.786596,520
2664,30.316944,-97.792957,591
2665,30.321771,-97.794192,591
2666,30.333169,-97.792225,1238
2667,30.332832,-97.800471,445
2668,30.328719,-97.790419,1238
2669,30.323684,-97.794141,591
2670,30.331043,-97.788907,1238
2671,30.335185,-97.806284,445
2672,30.334512,-97.804247,445
2673,30.331682,-97.789923,1238
2674,30.379096,-97.827727,866
2675,30.365612,-97.79694,55
2676,30.364429,-97.828657,541
2677,30.369555,-97.801644,695
2678,30.377974,-97.796726,695
2679,30.37739,-97.805007,695
2680,30.387687,-97.824323,866
2681,30.392014,-97.838754,43
2682,30.359284,-97.79047,1177
2683,30.366071,-97.789691,55
2684,30.35956,-97.792073,1177
2685,30.356715,-97.792832,1177
2686,30.363111,-97.790418,1177
2687,30.356539,-97.792341,1177
2688,30.385861,-97.798527,695
2689,30.021253,-97.742644,194
2690,30.009015,-97.72796,1024
2691,30.024991,-97.699893,795
2692,30.091222,-97.655379,1192
2693,30.099121,-97.636677,665
2694,30.126139,-97.640916,1008
2695,30.110472,-97.65021,665
2696,30.112969,-97.649334,759
2697,29.994679,-97.749232,460
2698,29.97976,-97.764403,1086
2699,30.061381,-97.7375,532
2700,30.063897,-97.710553,1194
2701,30.079628,-97.754532,47
2702,30.089855,-97.734261,686
2703,30.080573,-97.735104,47
2704,30.088539,-97.71432,715
2705,30.09333,-97.693648,18
2706,30.120769,-97.714933,277
2707,30.112132,-97.694721,484
2708,30.069984,-97.685891,150
2709,30.081814,-97.665963,900
2710,30.08621,-97.671268,900
2711,30.108393,-97.722686,277
2712,30.089301,-97.693484,899
2713,30.128798,-97.709943,593
2714,30.032842,-97.767823,583
2715,30.024813,-97.746917,194
2716,30.076519,-97.748151,47
2717,30.074841,-97.735035,47
2718,30.046374,-97.755827,583
2719,30.058424,-97.746461,532
2720,30.066423,-97.732168,532
2721,30.100159,-97.755922,221
2722,30.126941,-97.774975,1057
2723,30.111202,-97.749035,360
2724,30.106093,-97.738208,360
2725,30.133965,-97.755881,450
2726,30.114963,-97.746603,360
2727,30.123976,-97.740532,450
2728,30.113733,-97.719341,277
2729,30.093566,-97.761764,221
2730,30.138118,-97.773374,1057
2731,30.100934,-97.727371,686
2732,30.135335,-97.733256,612
2733,30.058231,-97.703773,1194
2734,30.027369,-97.688502,795
2735,30.098475,-97.683197,18
2736,30.106732,-97.674058,386
2737,30.115064,-97.694848,484
2738,30.12938,-97.683977,327
2739,30.135807,-97.680223,327
2740,30.121538,-97.667553,759
2741,30.097144,-97.684563,18
2742,30.119328,-97.690349,484
2743,30.106856,-97.694471,484
2744,30.129184,-97.69566,593
2745,30.095123,-97.660082,1192
2746,30.138109,-97.678447,327
2747,30.120507,-97.634975,1008
2748,30.109931,-97.622726,321
2749,30.141786,-97.615924,945
2750,30.132645,-97.621771,169
2751,30.104783,-97.628491,321
2752,30.274283,-97.771166,669
2753,30.279042,-97.767623,669
2754,30.2773,-97.770504,669
2755,30.278347,-97.772898,669
2756,30.275636,-97.76678,669
2757,30.278952,-97.767164,669
2758,30.275212,-97.765354,669
2759,30.279888,-97.758443,1191
2760,30.276683,-97.751107,36
2761,30.277965,-97.750506,36
2762,30.27809,-97.744172,36
2763,30.277798,-97.736099,890
2764,30.278945,-97.724252,911
2765,30.279808,-97.718872,911
2766,30.277082,-97.716191,911
2767,30.280124,-97.716795,911
2768,30.190898,-97.647323,190
2769,30.280604,-97.713907,911
2770,30.283767,-97.656039,1118
2771,30.278209,-97.768537,669
2772,30.276552,-97.76984,669
2773,30.280874,-97.768257,669
2774,30.28204,-97.766402,164
2775,30.277098,-97.768748,669
2776,30.278562,-97.74592,36
2777,30.277598,-97.746279,36
2778,30.277633,-97.742615,36
2779,30.276069,-97.743195,36
2780,30.276807,-97.739643,890
2781,30.276002,-97.736773,1139
2782,30.278717,-97.731664,218
2783,30.277162,-97.73278,1139
2784,30.278471,-97.73074,218
2785,30.275649,-97.731733,1139
2786,30.279502,-97.729157,218
2787,30.273559,-97.731662,1139
2788,30.280034,-97.729494,218
2789,30.278252,-97.728161,218
2790,30.274963,-97.729499,1139
2791,30.28001,-97.728054,218
2792,30.272944,-97.731,1139
2793,30.280392,-97.727442,218
2794,30.279509,-97.720765,911
2795,30.276829,-97.72021,911
2796,30.275982,-97.70408,533
2797,30.279486,-97.701825,533
2798,30.276636,-97.699985,994
2799,30.278268,-97.69086,223
2800,30.27744,-97.695931,223
2801,30.278712,-97.686804,223
2802,30.275847,-97.688679,223
2803,30.282652,-97.653111,1118
2804,30.280765,-97.648133,1118
2805,30.292329,-97.653084,651
2806,30.299934,-97.648122,951
2807,30.352318,-97.646396,351
2808,30.389402,-97.656381,839
2809,30.38679,-97.648404,281
2810,30.155885,-97.638011,284
2811,30.161242,-97.649013,284
2812,30.18045,-97.64624,953
2813,30.166537,-97.65984,745
2814,30.278334,-97.641634,798
2815,30.276595,-97.636962,798
2816,30.285972,-97.630927,242
2817,30.280296,-97.609429,720
2818,30.27574,-97.59952,720
2819,30.28876,-97.574784,751
2820,30.267849,-97.5478,1103
2821,30.302651,-97.653749,607
2822,30.328642,-97.654765,61
2823,30.333212,-97.652719,61
2824,30.336064,-97.65136,61
2825,30.377272,-97.658636,839
2826,30.276726,-97.739351,890
2827,30.27895,-97.738418,890
2828,30.277378,-97.741699,890
2829,30.279511,-97.740918,890
2830,30.275694,-97.735708,1139
2831,30.279407,-97.734201,890
2832,30.283954,-97.656965,1118
2833,30.276671,-97.659168,29
2834,30.278136,-97.662454,29
2835,30.279302,-97.673771,417
2836,30.279751,-97.680314,417
2837,30.274242,-97.680401,723
2838,30.278018,-97.684679,223
2839,30.211935,-97.657026,571
2840,30.202928,-97.639066,190
2841,30.337559,-97.719007,961
2842,30.387485,-97.64909,281
2843,30.384563,-97.644702,281
2844,30.209457,-97.652986,571
2845,30.209191,-97.653118,571
2846,30.211133,-97.657961,571
2847,30.208625,-97.7725,647
2848,30.214937,-97.768502,138
2849,30.179253,-97.720695,513
2850,30.189539,-97.703901,1218
2851,30.212605,-97.745592,1217
2852,30.212424,-97.736708,4
2853,30.205211,-97.716385,339
2854,30.203097,-97.712016,339
2855,30.21781,-97.774575,138
2856,30.205546,-97.759339,1105
2857,30.212804,-97.754536,201
2858,30.209693,-97.756356,201
2859,30.213221,-97.753358,201
2860,30.208861,-97.756035,201
2861,30.212735,-97.752689,201
2862,30.210491,-97.754054,201
2863,30.212319,-97.7521,201
2864,30.211787,-97.752395,201
2865,30.209953,-97.74713,201
2866,30.206682,-97.740275,1011
2867,30.214518,-97.735299,4
2868,30.208496,-97.723017,1138
2869,30.22924,-97.712447,490
2870,30.230142,-97.714194,490
2871,30.242277,-97.716967,919
2872,30.252756,-97.712431,1216
2873,30.25478,-97.718293,1216
2874,30.25639,-97.710716,628
2875,30.261275,-97.717085,1216
2876,30.259778,-97.709095,628
2877,30.261683,-97.716147,1216
2878,30.263203,-97.712655,1216
2879,30.270125,-97.714709,179
2880,30.270516,-97.712249,179
2881,30.158589,-97.728433,1150
2882,30.172365,-97.700983,513
2883,30.172286,-97.721729,513
2884,30.214782,-97.710248,719
2885,30.23855,-97.719287,919
2886,30.253619,-97.711994,1216
2887,30.255881,-97.718546,1216
2888,30.273736,-97.715494,179
2889,30.274602,-97.712717,179
2890,30.274147,-97.715578,911
2891,30.210789,-97.748887,201
2892,30.208545,-97.744127,1011
2893,30.213391,-97.745062,1217
2894,30.214327,-97.766695,138
2895,30.207615,-97.765238,1105
2896,30.205739,-97.769721,647
2897,30.213517,-97.733596,4
2898,30.21865,-97.717933,1138
2899,30.21391,-97.701229,195
2900,30.211305,-97.712535,339
2901,30.212359,-97.711892,339
2902,30.216178,-97.665134,70
2903,30.212026,-97.714789,1138
2904,30.211582,-97.709216,339
2905,30.212058,-97.709253,339
2906,30.212438,-97.714752,1138
2907,30.215163,-97.698437,195
2908,30.213843,-97.661824,571
2909,30.2136,-97.662104,571
2910,30.21491,-97.73356,4
2911,30.212168,-97.717869,1138
2912,30.213182,-97.717795,1138
2913,30.212153,-97.70643,339
2914,30.213072,-97.70698,339
2915,30.215511,-97.698621,195
2916,30.220985,-97.676929,1187
2917,30.186796,-97.773082,576
2918,30.177514,-97.769536,528
2919,30.183475,-97.768677,576
2920,30.159699,-97.759613,349
2921,30.158249,-97.745726,161
2922,30.184813,-97.756169,765
2923,30.184613,-97.768251,222
2924,30.173972,-97.741951,1025
2925,30.186753,-97.774095,576
2926,30.184933,-97.744809,336
2927,30.200126,-97.741997,1011
2928,30.179624,-97.74658,1025
2929,30.172862,-97.751399,1025
2930,30.196782,-97.743914,336
2931,30.201675,-97.751597,755
2932,30.193563,-97.749468,336
2933,30.193815,-97.744422,336
2934,30.186709,-97.751639,765
2935,30.169612,-97.745832,1025
2936,30.170586,-97.752905,1025
2937,30.180834,-97.750023,1025
2938,30.179624,-97.75661,765
2939,30.180521,-97.76206,765
2940,30.157315,-97.769031,349
2941,30.165894,-97.769101,528
2942,30.160402,-97.769391,349
2943,30.170108,-97.768355,528
2944,30.197649,-97.776586,647
2945,30.188966,-97.767462,222
2946,30.187447,-97.76254,222
2947,30.192625,-97.768854,222
2948,30.198488,-97.764091,1105
2949,30.190751,-97.771316,576
2950,30.198881,-97.764733,1105
2951,30.197713,-97.762753,1105
2952,30.192532,-97.769871,222
2953,30.200095,-97.763796,1105
2954,30.200477,-97.762512,1105
2955,30.195427,-97.764599,222
2956,30.203414,-97.759112,1105
2957,30.192255,-97.768212,222
2958,30.193442,-97.75189,755
2959,30.194952,-97.757931,1105
2960,30.200557,-97.753974,755
2961,30.182765,-97.760827,765
2962,30.181699,-97.764201,765
2963,30.187735,-97.773447,576
2964,30.18712,-97.771021,576
2965,30.186796,-97.772118,576
2966,30.185189,-97.772304,576
2967,30.190404,-97.77062,576
2968,30.191645,-97.774397,576
2969,30.18971,-97.769175,222
2970,30.191283,-97.767944,222
2971,30.193356,-97.766271,222
2972,30.192585,-97.76472,222
2973,30.201081,-97.769338,647
2974,30.203904,-97.765663,1105
2975,30.193329,-97.754146,755
2976,30.191947,-97.748455,336
2977,30.186275,-97.758745,765
2978,30.205669,-97.758283,1105
2979,30.204917,-97.756918,755
2980,30.202489,-97.758898,1105
2981,30.210792,-97.75301,201
2982,30.203236,-97.753715,755
2983,30.165435,-97.74138,575
2984,30.162431,-97.735733,575
2985,30.159963,-97.736012,1150
2986,30.162941,-97.725755,1150
2987,30.166247,-97.736779,575
2988,30.168772,-97.738198,575
2989,30.194831,-97.737524,336
2990,30.198516,-97.73521,1011
2991,30.183938,-97.744425,336
2992,30.193114,-97.738624,336
2993,30.189512,-97.740932,336
2994,30.187287,-97.74233,336
2995,30.188594,-97.745234,336
2996,30.184367,-97.744456,336
2997,30.190794,-97.744502,336
2998,30.201952,-97.742026,1011
2999,30.246417,-97.768935,286
3000,30.244162,-97.764886,286
3001,30.215595,-97.749437,409
3002,30.216208,-97.743861,1217
3003,30.222241,-97.748085,409
3004,30.226878,-97.745301,674
3005,30.223675,-97.748112,409
3006,30.222218,-97.746211,409
3007,30.244504,-97.757351,286
3008,30.246369,-97.756137,286
3009,30.229559,-97.744644,674
3010,30.236584,-97.74855,696
3011,30.233874,-97.741993,674
3012,30.245581,-97.753343,696
3013,30.244013,-97.75133,696
3014,30.244906,-97.750998,696
3015,30.234455,-97.741698,674
3016,30.244336,-97.757454,286
3017,30.243417,-97.763581,286
3018,30.252084,-97.748325,888
3019,30.256886,-97.746562,888
3020,30.25834,-97.748045,888
3021,30.258882,-97.745798,183
3022,30.260412,-97.745264,183
3023,30.268103,-97.747413,802
3024,30.267783,-97.746287,962
3025,30.275468,-97.747072,36
3026,30.275151,-97.745968,36
3027,30.219391,-97.747937,409
3028,30.220853,-97.747121,409
3029,30.227688,-97.745702,674
3030,30.226161,-97.744819,674
3031,30.221709,-97.747469,409
3032,30.238012,-97.745263,112
3033,30.239417,-97.747327,112
3034,30.244258,-97.745091,112
3035,30.245881,-97.750651,112
3036,30.242209,-97.736312,637
3037,30.246302,-97.735297,637
3038,30.244603,-97.730201,637
3039,30.247625,-97.733949,637
3040,30.241989,-97.739073,112
3041,30.243388,-97.736482,637
3042,30.245383,-97.735998,637
3043,30.249646,-97.735046,637
3044,30.243739,-97.734619,637
3045,30.244364,-97.733628,637
3046,30.26374,-97.746417,183
3047,30.264089,-97.747649,183
3048,30.265967,-97.746952,183
3049,30.269688,-97.745592,962
3050,30.270073,-97.746957,802
3051,30.271522,-97.744895,962
3052,30.272419,-97.748213,802
3053,30.26867,-97.745963,962
3054,30.269643,-97.749236,802
3055,30.247997,-97.749857,888
3056,30.244676,-97.741499,112
3057,30.231102,-97.750867,696
3058,30.24814,-97.761886,286
3059,30.243776,-97.764056,286
3060,30.214749,-97.750702,201
3061,30.215717,-97.746356,1217
3062,30.216605,-97.746448,1217
3063,30.215896,-97.750057,409
3064,30.215955,-97.738253,4
3065,30.215163,-97.749692,409
3066,30.21567,-97.738473,4
3067,30.226916,-97.769235,422
3068,30.229124,-97.767801,422
3069,30.222301,-97.763968,844
3070,30.219675,-97.758024,889
3071,30.224811,-97.766818,422
3072,30.226014,-97.762072,844
3073,30.229425,-97.759921,844
3074,30.228159,-97.772839,422
3075,30.231228,-97.763595,422
3076,30.237344,-97.762197,286
3077,30.215975,-97.767869,138
3078,30.223341,-97.763346,844
3079,30.220488,-97.758067,889
3080,30.217623,-97.754222,889
3081,30.224466,-97.765626,422
3082,30.227055,-97.761335,844
3083,30.227403,-97.755667,844
3084,30.236474,-97.762743,286
3085,30.232191,-97.76542,422
3086,30.241908,-97.759332,286
3087,30.226803,-97.754404,844
3088,30.220734,-97.761195,844
3089,30.227326,-97.773819,422
3090,30.220474,-97.772887,138
3091,30.227575,-97.77301,422
3092,30.226355,-97.769166,422
3093,30.227121,-97.771768,422
3094,30.226116,-97.769714,422
3095,30.225108,-97.768011,422
3096,30.225608,-97.767387,422
3097,30.223715,-97.76601,422
3098,30.224153,-97.76475,844
3099,30.225515,-97.766549,422
3100,30.226387,-97.76808,422
3101,30.230372,-97.76703,422
3102,30.216303,-97.753438,889
3103,30.216093,-97.752553,889
3104,30.217618,-97.75082,409
3105,30.222102,-97.749075,409
3106,30.218656,-97.751083,409
3107,30.217349,-97.749986,409
3108,30.216268,-97.753942,889
3109,30.218203,-97.75433,889
3110,30.215828,-97.752679,889
3111,30.215324,-97.750381,409
3112,30.217507,-97.748987,409
3113,30.215515,-97.752872,889
3114,30.216563,-97.752281,889
3115,30.234048,-97.757043,696
3116,30.23655,-97.749671,696
3117,30.238542,-97.753282,696
3118,30.24062,-97.756728,696
3119,30.235642,-97.755709,696
3120,30.239617,-97.747665,696
3121,30.239536,-97.752609,696
3122,30.241627,-97.752119,696
3123,30.264656,-97.764502,742
3124,30.255943,-97.761283,742
3125,30.261799,-97.761214,742
3126,30.271128,-97.763498,1191
3127,30.266302,-97.755922,376
3128,30.272814,-97.761144,1191
3129,30.248643,-97.76842,286
3130,30.251061,-97.764882,286
3131,30.262459,-97.752404,376
3132,30.260728,-97.748355,183
3133,30.260731,-97.758134,742
3134,30.264263,-97.756722,376
3135,30.259477,-97.748904,888
3136,30.27479,-97.7625,1191
3137,30.2594,-97.753305,888
3138,30.248227,-97.769715,286
3139,30.252865,-97.767484,742
3140,30.255461,-97.771131,742
3141,30.251596,-97.773734,790
3142,30.272246,-97.772982,669
3143,30.269114,-97.775092,202
3144,30.274527,-97.771376,669
3145,30.272073,-97.772771,669
3146,30.268661,-97.776954,202
3147,30.266998,-97.770573,669
3148,30.275147,-97.768986,669
3149,30.274037,-97.766178,669
3150,30.275657,-97.76766,669
3151,30.276461,-97.767721,669
3152,30.27369,-97.765701,669
3153,30.275266,-97.771121,669
3154,30.247433,-97.759366,286
3155,30.254656,-97.751991,888
3156,30.258218,-97.749749,888
3157,30.267988,-97.755246,376
3158,30.270135,-97.75433,376
3159,30.272527,-97.760478,1191
3160,30.273364,-97.752701,802
3161,30.26532,-97.751945,376
3162,30.269553,-97.752925,376
3163,30.269,-97.750614,802
3164,30.26872,-97.749576,802
3165,30.271281,-97.753752,376
3166,30.265618,-97.748341,183
3167,30.264429,-97.748791,183
3168,30.267428,-97.748816,802
3169,30.267777,-97.749757,802
3170,30.275697,-97.747864,36
3171,30.273271,-97.747888,802
3172,30.269871,-97.749152,802
3173,30.270614,-97.748878,802
3174,30.228297,-97.742712,674
3175,30.230359,-97.741504,674
3176,30.232103,-97.7367,287
3177,30.215239,-97.734904,4
3178,30.230568,-97.7327,287
3179,30.231548,-97.742566,674
3180,30.231308,-97.741794,674
3181,30.231527,-97.735892,287
3182,30.222423,-97.734428,4
3183,30.229603,-97.730613,287
3184,30.227057,-97.727271,1212
3185,30.237979,-97.732728,287
3186,30.233703,-97.722868,490
3187,30.242973,-97.729018,637
3188,30.239866,-97.731566,637
3189,30.225227,-97.723983,1212
3190,30.232282,-97.720065,490
3191,30.235904,-97.728267,287
3192,30.237491,-97.730967,287
3193,30.241534,-97.727952,919
3194,30.237507,-97.725383,919
3195,30.230786,-97.733625,287
3196,30.22426,-97.741515,674
3197,30.215068,-97.729893,4
3198,30.215543,-97.733633,4
3199,30.214656,-97.734,4
3200,30.214118,-97.730187,4
3201,30.215227,-97.733413,4
3202,30.219415,-97.743776,1217
3203,30.215486,-97.739626,1217
3204,30.214796,-97.735151,4
3205,30.21579,-97.735121,4
3206,30.216303,-97.739133,1217
3207,30.216699,-97.743772,1217
3208,30.215777,-97.74392,1217
3209,30.2263,-97.743882,674
3210,30.215704,-97.734644,4
3211,30.234424,-97.740886,674
3212,30.237959,-97.738734,112
3213,30.233297,-97.739706,674
3214,30.232527,-97.737741,674
3215,30.237483,-97.739947,112
3216,30.235517,-97.741125,674
3217,30.23864,-97.737457,637
3218,30.234153,-97.740107,674
3219,30.237784,-97.737082,637
3220,30.234338,-97.73909,674
3221,30.241126,-97.737859,637
3222,30.237736,-97.744974,112
3223,30.231238,-97.743695,674
3224,30.23369,-97.741312,674
3225,30.243819,-97.742821,112
3226,30.243436,-97.742037,112
3227,30.239761,-97.735931,637
3228,30.224843,-97.723539,1212
3229,30.223308,-97.72218,1212
3230,30.219776,-97.720171,1212
3231,30.213466,-97.719567,1138
3232,30.214341,-97.724986,1138
3233,30.213179,-97.724969,1138
3234,30.238597,-97.725762,919
3235,30.244446,-97.72341,919
3236,30.23738,-97.716893,490
3237,30.24099,-97.726318,919
3238,30.240026,-97.726834,919
3239,30.244489,-97.72411,919
3240,30.262435,-97.74181,183
3241,30.259309,-97.736984,672
3242,30.262292,-97.735939,392
3243,30.261136,-97.737225,672
3244,30.261503,-97.738556,672
3245,30.263117,-97.744226,183
3246,30.261922,-97.73693,392
3247,30.262686,-97.734949,392
3248,30.258013,-97.736368,672
3249,30.261274,-97.734654,672
3250,30.260557,-97.734895,672
3251,30.266039,-97.73278,392
3252,30.265185,-97.730157,1083
3253,30.254688,-97.730026,84
3254,30.255132,-97.731286,672
3255,30.260012,-97.730377,1083
3256,30.260602,-97.732048,1083
3257,30.259558,-97.723115,84
3258,30.264178,-97.733534,392
3259,30.268289,-97.731956,392
3260,30.268219,-97.726867,887
3261,30.269839,-97.73132,1139
3262,30.272687,-97.730293,1139
3263,30.271992,-97.73057,1139
3264,30.272001,-97.731404,1139
3265,30.273985,-97.729822,1139
3266,30.274632,-97.732152,1139
3267,30.272534,-97.725722,887
3268,30.271738,-97.730707,1139
3269,30.262296,-97.721809,887
3270,30.260661,-97.722589,84
3271,30.263777,-97.725985,1083
3272,30.259151,-97.727914,1083
3273,30.259687,-97.732432,1083
3274,30.258439,-97.728899,1083
3275,30.265715,-97.741958,183
3276,30.263406,-97.730909,1083
3277,30.261483,-97.734547,672
3278,30.253329,-97.743494,888
3279,30.257424,-97.738028,672
3280,30.24904,-97.737261,637
3281,30.253677,-97.737412,672
3282,30.248151,-97.736441,637
3283,30.255319,-97.736877,672
3284,30.253005,-97.73648,672
3285,30.253538,-97.735806,672
3286,30.252937,-97.734868,672
3287,30.256563,-97.735497,672
3288,30.254135,-97.744043,888
3289,30.250375,-97.734429,637
3290,30.24774,-97.735529,637
3291,30.254487,-97.737626,672
3292,30.257782,-97.737171,672
3293,30.258846,-97.735457,672
3294,30.256081,-97.734078,672
3295,30.260211,-97.737573,672
3296,30.254915,-97.734552,672
3297,30.269081,-97.74345,962
3298,30.263283,-97.737973,392
3299,30.265681,-97.738673,392
3300,30.268686,-97.742113,962
3301,30.270576,-97.741431,962
3302,30.266163,-97.740418,962
3303,30.270825,-97.738686,962
3304,30.268341,-97.740772,962
3305,30.269922,-97.739018,962
3306,30.268034,-97.739711,962
3307,30.272069,-97.739349,962
3308,30.271784,-97.738346,962
3309,30.275019,-97.73713,1139
3310,30.261952,-97.740066,183
3311,30.267027,-97.740092,962
3312,30.267616,-97.738174,392
3313,30.26906,-97.735775,392
3314,30.269638,-97.73793,392
3315,30.269824,-97.735483,392
3316,30.270582,-97.733666,1139
3317,30.269031,-97.734221,392
3318,30.272194,-97.732144,1139
3319,30.269277,-97.733254,392
3320,30.269176,-97.732426,392
3321,30.270216,-97.740084,962
3322,30.27095,-97.742775,962
3323,30.266163,-97.736837,392
3324,30.265003,-97.743505,183
3325,30.267205,-97.744177,962
3326,30.266818,-97.742828,962
3327,30.267767,-97.74247,962
3328,30.26276,-97.742929,183
3329,30.26646,-97.74156,962
3330,30.265988,-97.743145,183
3331,30.264046,-97.741224,183
3332,30.268102,-97.743829,962
3333,30.263496,-97.745553,183
3334,30.266364,-97.744489,183
3335,30.267456,-97.745092,962
3336,30.267373,-97.741155,962
3337,30.272779,-97.742107,962
3338,30.274555,-97.743757,36
3339,30.27337,-97.74421,962
3340,30.273096,-97.743234,962
3341,30.272475,-97.744542,962
3342,30.272424,-97.740737,962
3343,30.271477,-97.741096,962
3344,30.265257,-97.737169,392
3345,30.265964,-97.73691,392
3346,30.2632,-97.735644,392
3347,30.263141,-97.734737,392
3348,30.263787,-97.733695,392
3349,30.264355,-97.736052,392
3350,30.264848,-97.735859,392
3351,30.266748,-97.73509,392
3352,30.268684,-97.734359,392
3353,30.267143,-97.736477,392
3354,30.272936,-97.73789,1139
3355,30.271024,-97.735044,1139
3356,30.272046,-97.734673,1139
3357,30.273141,-97.734578,1139
3358,30.271702,-97.733194,1139
3359,30.272827,-97.732781,1139
3360,30.275323,-97.734383,1139
3361,30.273521,-97.732531,1139
3362,30.272631,-97.736834,1139
3363,30.271514,-97.737172,1139
3364,30.271252,-97.736033,1139
3365,30.256858,-97.724363,84
3366,30.255577,-97.720672,84
3367,30.25325,-97.726013,84
3368,30.256435,-97.720152,1216
3369,30.257768,-97.723926,84
3370,30.259281,-97.718769,1216
3371,30.251795,-97.722087,84
3372,30.255296,-97.725077,84
3373,30.263936,-97.721037,887
3374,30.269041,-97.721462,887
3375,30.266879,-97.72301,887
3376,30.265864,-97.720123,887
3377,30.271889,-97.719184,887
3378,30.276541,-97.72015,911
3379,30.269488,-97.71867,887
3380,30.269656,-97.717612,887
3381,30.267497,-97.719366,887
3382,30.273537,-97.719529,887
3383,30.272903,-97.723513,887
3384,30.271738,-97.72337,887
3385,30.264371,-97.727658,1083
3386,30.264512,-97.728091,1083
3387,30.264609,-97.720718,887
3388,30.273843,-97.717525,887
3389,30.272056,-97.715149,179
3390,30.163989,-97.692796,98
3391,30.182739,-97.687376,226
3392,30.174147,-97.673885,1152
