,lat,long,cluster
1,30.550045,-97.861763,1698
2,30.595955,-97.873341,392
3,30.537706,-97.842574,1119
4,30.531993,-97.967226,369
5,30.49655,-97.901257,843
6,30.460701,-97.882086,391
7,30.498174,-97.827879,866
8,30.434403,-98.083907,490
9,30.488843,-98.053644,277
10,30.405429,-97.968645,405
11,30.367501,-98.056627,1533
12,30.421566,-97.941993,1960
13,30.416288,-97.888347,1670
14,30.449261,-97.839977,774
15,30.398674,-97.83899,29
16,30.33372,-98.076591,863
17,30.320471,-97.972406,1288
18,30.349621,-98.009337,1541
19,30.367501,-97.984566,603
20,30.382464,-97.926677,1470
21,30.351176,-97.937276,1354
22,30.373525,-97.86814,737
23,30.374974,-97.834683,514
24,30.351794,-97.845706,814
25,30.221922,-97.974997,2087
26,30.292875,-97.964299,1325
27,30.32358,-97.939978,1566
28,30.343668,-97.905759,1787
29,30.321831,-97.89921,1185
30,30.653697,-97.705243,1714
31,30.344763,-97.869942,1746
32,30.332143,-97.858595,564
33,30.318718,-97.841425,1644
34,30.30131,-97.832125,2014
35,30.304379,-97.919182,1997
36,30.298805,-97.888816,1422
37,30.352597,-97.921387,1511
38,30.308173,-97.871556,2448
39,30.351189,-97.779089,2410
40,30.384802,-97.744053,1327
41,30.288711,-97.833651,1659
42,30.286234,-97.902792,1171
43,30.272366,-98.013199,631
44,30.286428,-97.879621,678
45,30.267169,-97.899068,2275
46,30.287223,-97.86426,1586
47,30.513457,-97.665825,2069
48,30.308846,-97.703502,781
49,30.286457,-97.843688,823
50,30.279555,-97.836009,1659
51,30.205053,-97.932402,1969
52,30.273341,-97.873192,2272
53,30.196482,-97.909655,1472
54,30.172804,-97.901713,2274
55,30.260857,-97.851746,2405
56,30.259205,-97.829376,1758
57,30.247459,-97.825581,2148
58,30.235346,-97.819398,1799
59,30.25396,-97.895281,755
60,30.24144,-97.879541,108
61,30.246756,-97.872037,1088
62,30.245081,-97.858211,1795
63,30.240247,-97.852166,333
64,30.267416,-97.928478,1404
65,30.237106,-97.93101,60
66,30.244016,-97.915824,1194
67,30.249879,-97.909155,435
68,30.238308,-97.892018,1451
69,30.244942,-97.985156,1806
70,30.250014,-97.943499,2364
71,30.209143,-97.954558,2397
72,30.21593,-97.947086,1896
73,30.221875,-97.905353,1871
74,30.210384,-97.884729,254
75,30.222138,-97.883969,2484
76,30.22221,-97.928999,2442
77,30.230631,-97.858915,2025
78,30.229226,-97.850001,1754
79,30.232836,-97.839501,956
80,30.224841,-97.835974,399
81,30.225853,-97.862221,1169
82,30.217987,-97.865677,2137
83,30.220626,-97.849136,22
84,30.214768,-97.858294,1657
85,30.214574,-97.836175,2003
86,30.206238,-97.845563,1481
87,30.39592,-97.773059,1525
88,30.20472,-97.872225,357
89,30.188692,-97.858353,1456
90,30.194893,-97.937337,1516
91,30.209985,-97.920445,293
92,30.191616,-97.895714,195
93,30.179056,-97.914187,544
94,30.183883,-97.890011,195
95,30.342242,-97.809077,146
96,30.166515,-97.868659,77
97,30.152804,-97.866404,1823
98,30.204417,-97.829257,2255
99,30.188004,-97.841393,2126
100,30.17107,-97.842194,747
101,30.164297,-97.854535,77
102,30.133666,-97.842915,233
103,30.599148,-97.832171,833
104,30.579994,-97.799189,236
105,30.589421,-97.756155,2098
106,30.614041,-97.692748,741
107,30.627603,-97.663039,1843
108,30.575265,-97.671384,2479
109,30.569989,-97.644672,348
110,30.522036,-97.803089,2165
111,30.518674,-97.768768,2068
112,30.527329,-97.737027,615
113,30.542739,-97.739952,2095
114,30.540723,-97.693987,439
115,30.544608,-97.683218,2102
116,30.550837,-97.664092,1540
117,30.480535,-97.811989,860
118,30.471692,-97.806242,1510
119,30.500992,-97.793977,1289
120,30.483751,-97.758083,778
121,30.506262,-97.733466,174
122,30.516396,-97.710151,428
123,30.526432,-97.699474,2240
124,30.529538,-97.693185,2471
125,30.530948,-97.677935,1536
126,30.537547,-97.657977,1309
127,30.537873,-97.628339,1146
128,30.525447,-97.687699,601
129,30.522907,-97.674702,871
130,30.527937,-97.660354,1728
131,30.514658,-97.684306,1632
132,30.517125,-97.675414,871
133,30.468471,-97.609093,1927
134,30.51606,-97.649805,270
135,30.520364,-97.690696,1279
136,30.510451,-97.681971,353
137,30.512392,-97.675429,1645
138,30.516269,-97.659832,596
139,30.477235,-97.748408,1712
140,30.499365,-97.699917,1925
141,30.506831,-97.681264,2309
142,30.489825,-97.687935,2373
143,30.500887,-97.678514,589
144,30.503811,-97.668835,1645
145,30.505463,-97.648706,1348
146,30.512273,-97.621085,449
147,30.481309,-97.698393,1867
148,30.482178,-97.683939,1010
149,30.488674,-97.669035,2268
150,30.492029,-97.631009,1157
151,30.454371,-97.816014,2323
152,30.460688,-97.804425,1510
153,30.463568,-97.786828,1278
154,30.469152,-97.769391,381
155,30.465101,-97.734708,1065
156,30.473658,-97.703262,1931
157,30.460659,-97.68639,2269
158,30.453786,-97.671883,102
159,30.467254,-97.654187,1368
160,30.460126,-97.635163,1908
161,30.452107,-97.799555,2162
162,30.443651,-97.78093,735
163,30.45527,-97.785175,895
164,30.458188,-97.771871,13
165,30.449527,-97.776564,2314
166,30.452449,-97.763846,13
167,30.453141,-97.704426,2121
168,30.446519,-97.76236,1217
169,30.442063,-97.755978,2040
170,30.442247,-97.731102,1337
171,30.43446,-97.712671,1926
172,30.444289,-97.681327,861
173,30.431584,-97.679807,2108
174,30.43806,-97.654831,1000
175,30.429712,-97.632319,171
176,30.446884,-97.613692,1583
177,30.412276,-97.756928,731
178,30.440343,-97.825646,1471
179,30.433092,-97.812579,1622
180,30.426198,-97.80419,216
181,30.440545,-97.792283,2353
182,30.430965,-97.790268,2349
183,30.432578,-97.745077,2372
184,30.419188,-97.836201,644
185,30.409079,-97.806945,1554
186,30.418049,-97.785683,1963
187,30.44012,-97.782925,735
188,30.427536,-97.772391,133
189,30.416096,-97.776502,1190
190,30.421041,-97.757609,268
191,30.422727,-97.734935,2093
192,30.421209,-97.724833,1150
193,30.419626,-97.687169,577
194,30.474927,-97.628126,1847
195,30.402543,-97.774264,1525
196,30.393165,-97.763188,981
197,30.405087,-97.764003,731
198,30.40121,-97.75365,579
199,30.407812,-97.737938,1106
200,30.416374,-97.713136,1691
201,30.401368,-97.723123,682
202,30.400383,-97.71107,224
203,30.412333,-97.7016,422
204,30.406628,-97.684758,1827
205,30.396503,-97.676128,790
206,30.402956,-97.652095,2021
207,30.385822,-97.629909,1076
208,30.398609,-97.616178,463
209,30.420193,-97.603293,1940
210,30.396551,-97.82942,2075
211,30.271191,-97.642884,2324
212,30.395144,-97.78675,477
213,30.393237,-97.800872,1204
214,30.391578,-97.752089,1519
215,30.394219,-97.74096,2276
216,30.38687,-97.738158,1631
217,30.384116,-97.728635,2221
218,30.379353,-97.722328,832
219,30.380339,-97.706944,330
220,30.395126,-97.69242,2382
221,30.384254,-97.678624,1495
222,30.380068,-97.668098,940
223,30.383394,-97.660601,1954
224,30.373993,-97.650303,1687
225,30.371901,-97.636824,1980
226,30.357638,-97.621547,825
227,30.347504,-97.604697,2438
228,30.360871,-97.581717,315
229,30.369183,-97.77245,2265
230,30.383082,-97.754946,1519
231,30.370937,-97.748874,1555
232,30.372799,-97.738426,947
233,30.368742,-97.732737,1929
234,30.365825,-97.723827,2312
235,30.367008,-97.712527,2318
236,30.374445,-97.714456,1803
237,30.362717,-97.703016,2368
238,30.365978,-97.701017,598
239,30.374479,-97.696226,1641
240,30.368666,-97.687912,1237
241,30.362402,-97.676517,1872
242,30.35801,-97.662114,989
243,30.340503,-97.634953,2035
244,30.335824,-97.616902,27
245,30.3645,-97.740699,345
246,30.361619,-97.735446,1929
247,30.357612,-97.724918,942
248,30.355442,-97.7182,1669
249,30.356542,-97.710188,124
250,30.354451,-97.69626,990
251,30.348438,-97.685483,1403
252,30.338319,-97.690935,1745
253,30.337807,-97.664499,1798
254,30.333871,-97.675748,1330
255,30.333513,-97.647877,308
256,30.361286,-97.757804,1296
257,30.35516,-97.743801,1048
258,30.350866,-97.738792,2489
259,30.355362,-97.734401,588
260,30.351559,-97.727219,68
261,30.346115,-97.729428,1897
262,30.348204,-97.718429,68
263,30.342425,-97.721317,1602
264,30.340669,-97.709102,2321
265,30.33247,-97.696583,1745
266,30.32667,-97.685099,967
267,30.324017,-97.664095,1152
268,30.32257,-97.651571,1744
269,30.3202,-97.639453,226
270,30.325044,-97.617448,1329
271,30.327527,-97.57601,1455
272,30.34417,-97.558384,1063
273,30.347874,-97.76121,1565
274,30.341089,-97.750211,991
275,30.34102,-97.742547,2386
276,30.337612,-97.733307,829
277,30.334246,-97.725896,829
278,30.328946,-97.720367,521
279,30.329197,-97.711138,1490
280,30.324755,-97.698623,2417
281,30.308832,-97.854872,580
282,30.353876,-97.789916,289
283,30.338864,-97.78138,1239
284,30.333799,-97.76676,946
285,30.331953,-97.759891,197
286,30.332227,-97.751829,2365
287,30.330139,-97.742742,666
288,30.330061,-97.735351,1629
289,30.325264,-97.730682,2329
290,30.320679,-97.720953,1115
291,30.316483,-97.711051,2497
292,30.318649,-97.702866,553
293,30.316705,-97.693892,2231
294,30.316931,-97.684863,967
295,30.307248,-97.690083,582
296,30.316758,-97.672491,2041
297,30.310034,-97.680821,1220
298,30.300761,-97.67833,246
299,30.303255,-97.666683,304
300,30.311495,-97.65656,1168
301,30.295066,-97.655743,1941
302,30.305169,-97.6301,1778
303,30.28759,-97.640662,2135
304,30.296238,-97.606829,1118
305,30.35485,-97.821754,1085
306,30.339491,-97.799011,1973
307,30.344399,-97.79414,1249
308,30.334694,-97.786917,269
309,30.330049,-97.804386,792
310,30.32969,-97.794461,269
311,30.323452,-97.784862,1990
312,30.322771,-97.790383,1475
313,30.309286,-97.779878,1043
314,30.319513,-97.773295,938
315,30.316399,-97.76201,1886
316,30.322827,-97.748686,2308
317,30.318928,-97.741563,122
318,30.318134,-97.735161,2409
319,30.312636,-97.726851,619
320,30.309394,-97.719694,1436
321,30.308606,-97.713911,2083
322,30.291673,-97.694168,2211
323,30.289535,-97.685312,1763
324,30.289232,-97.674631,1577
325,30.325211,-97.753043,2308
326,30.312346,-97.755063,307
327,30.314377,-97.750453,661
328,30.311422,-97.745119,1681
329,30.314075,-97.73437,1039
330,30.307788,-97.737685,2433
331,30.304357,-97.731148,2433
332,30.299796,-97.723839,1607
333,30.29537,-97.712677,1890
334,30.320631,-97.809788,2178
335,30.312617,-97.819504,1620
336,30.309044,-97.806541,1791
337,30.321536,-97.80207,1475
338,30.316334,-97.798815,586
339,30.30976,-97.788871,1043
340,30.306907,-97.770739,4
341,30.306124,-97.760175,952
342,30.304992,-97.756618,952
343,30.303114,-97.751664,2157
344,30.302486,-97.747239,581
345,30.299443,-97.742797,1166
346,30.29791,-97.735674,457
347,30.293084,-97.731181,1407
348,30.292608,-97.727363,722
349,30.289092,-97.719395,319
350,30.287942,-97.71165,2174
351,30.285307,-97.701787,760
352,30.297498,-97.777043,1457
353,30.291148,-97.765987,2280
354,30.296874,-97.762541,2280
355,30.294723,-97.754442,249
356,30.291274,-97.745937,1861
357,30.285813,-97.759194,2179
358,30.285682,-97.747977,723
359,30.284903,-97.743151,2285
360,30.290562,-97.742966,100
361,30.291737,-97.738284,100
362,30.285008,-97.735154,1286
363,30.286926,-97.730248,2062
364,30.302516,-97.818543,1494
365,30.290736,-97.81223,1995
366,30.300199,-97.799899,1759
367,30.282386,-97.785116,498
368,30.283673,-97.780701,498
369,30.291216,-97.778414,1756
370,30.283819,-97.77024,612
371,30.276309,-97.760494,1297
372,30.271814,-97.752313,1360
373,30.27412,-97.749925,1953
374,30.276649,-97.744971,1467
375,30.279904,-97.743468,2198
376,30.27864,-97.738873,334
377,30.274993,-97.740269,1467
378,30.271875,-97.743373,1467
379,30.270625,-97.740184,1122
380,30.268129,-97.744601,1538
381,30.267364,-97.741182,1538
382,30.266557,-97.738381,291
383,30.270537,-97.736137,1122
384,30.27371,-97.733763,1078
385,30.277326,-97.734167,1673
386,30.282229,-97.731517,454
387,30.280795,-97.726061,454
388,30.281401,-97.723909,1218
389,30.281893,-97.719348,1218
390,30.283713,-97.710834,1320
391,30.275893,-97.725163,2022
392,30.277056,-97.718792,132
393,30.277541,-97.713445,132
394,30.278174,-97.705986,1320
395,30.280929,-97.693411,542
396,30.283335,-97.680221,426
397,30.273431,-97.678189,1023
398,30.271453,-97.658848,2461
399,30.258811,-97.625628,64
400,30.275689,-97.620276,1731
401,30.261466,-97.586183,797
402,30.271327,-97.762089,1297
403,30.267524,-97.752761,1360
404,30.266418,-97.749402,2295
405,30.265461,-97.74621,2295
406,30.264483,-97.742416,1725
407,30.26393,-97.739258,25
408,30.259453,-97.741275,25
409,30.256691,-97.729877,742
410,30.261901,-97.728685,1729
411,30.26616,-97.727423,1729
412,30.267962,-97.722003,362
413,30.271109,-97.724436,2022
414,30.272163,-97.71745,1361
415,30.274171,-97.70587,1074
416,30.26789,-97.709691,2028
417,30.267381,-97.717513,362
418,30.264093,-97.717284,362
419,30.258199,-97.7169,2404
420,30.25203,-97.722292,1069
421,30.255176,-97.707214,1805
422,30.261117,-97.705899,509
423,30.267416,-97.701265,1074
424,30.275623,-97.694831,542
425,30.269491,-97.693985,87
426,30.257898,-97.696217,2340
427,30.250378,-97.698255,2117
428,30.258971,-97.683975,883
429,30.252393,-97.675294,177
430,30.292047,-97.826542,44
431,30.28751,-97.822447,848
432,30.279794,-97.813683,953
433,30.273914,-97.80577,953
434,30.281114,-97.79798,2388
435,30.274313,-97.785524,2071
436,30.269571,-97.770276,86
437,30.26379,-97.760172,594
438,30.260843,-97.753126,2059
439,30.260153,-97.747288,559
440,30.256479,-97.743315,559
441,30.242798,-97.723846,2316
442,30.236178,-97.713168,1419
443,30.237023,-97.699893,1382
444,30.231273,-97.690977,1848
445,30.247651,-97.650627,721
446,30.583031,-97.893907,1353
447,30.223538,-97.612743,256
448,30.267841,-97.795414,1283
449,30.263639,-97.781663,911
450,30.254015,-97.779408,2311
451,30.258468,-97.76513,1463
452,30.254583,-97.756802,2059
453,30.251548,-97.750714,2301
454,30.249125,-97.74487,1671
455,30.245798,-97.737968,1019
456,30.241422,-97.733277,2031
457,30.235658,-97.72957,973
458,30.228055,-97.720917,714
459,30.218025,-97.701277,1432
460,30.268739,-97.812312,501
461,30.262467,-97.80009,331
462,30.257482,-97.807261,980
463,30.247294,-97.799248,2420
464,30.258186,-97.789672,627
465,30.250663,-97.791535,949
466,30.240428,-97.794477,507
467,30.236384,-97.787768,1901
468,30.23376,-97.779795,2220
469,30.243976,-97.774117,211
470,30.251311,-97.772077,1674
471,30.246241,-97.762422,2122
472,30.240171,-97.766963,211
473,30.23169,-97.771333,1652
474,30.227782,-97.764302,2369
475,30.235703,-97.759859,1945
476,30.243373,-97.754573,912
477,30.241194,-97.744361,1671
478,30.238356,-97.748602,1592
479,30.231751,-97.751904,1275
480,30.223802,-97.757112,1647
481,30.218675,-97.746881,476
482,30.22543,-97.739635,1444
483,30.226569,-97.732462,1305
484,30.219904,-97.725743,714
485,30.274722,-97.824877,1726
486,30.255952,-97.814911,1718
487,30.235591,-97.807971,1466
488,30.227237,-97.795844,776
489,30.222209,-97.784683,2396
490,30.219404,-97.77595,1777
491,30.219174,-97.770121,1777
492,30.213479,-97.762511,663
493,30.203546,-97.749497,2086
494,30.211973,-97.741725,56
495,30.199342,-97.739267,730
496,30.199427,-97.727805,1504
497,30.185219,-97.702259,1002
498,30.207604,-97.705674,608
499,30.200401,-97.668694,1593
500,30.224758,-97.664314,1254
501,30.207631,-97.603752,1029
502,30.229851,-97.806673,2374
503,30.223724,-97.812739,634
504,30.213238,-97.819622,1001
505,30.211461,-97.808543,1667
506,30.219912,-97.800719,776
507,30.21642,-97.7932,1351
508,30.207136,-97.801517,1667
509,30.205816,-97.794697,1880
510,30.214075,-97.788886,283
511,30.211162,-97.783613,283
512,30.204494,-97.787716,1880
513,30.201568,-97.781077,2191
514,30.209973,-97.775986,1741
515,30.198303,-97.771828,2490
516,30.192167,-97.76229,455
517,30.19005,-97.752272,2436
518,30.191559,-97.741838,281
519,30.183884,-97.735419,2392
520,30.179088,-97.714023,434
521,30.168372,-97.676869,1373
522,30.128184,-97.613068,2451
523,30.166566,-97.569847,851
524,30.204201,-97.575259,1528
525,30.195468,-97.820597,576
526,30.192671,-97.79731,1310
527,30.190192,-97.786001,2092
528,30.188088,-97.777584,2270
529,30.182413,-97.772149,292
530,30.179217,-97.759163,141
531,30.170457,-97.748821,877
532,30.16781,-97.730989,1372
533,30.160499,-97.709547,2352
534,30.143493,-97.687533,2138
535,30.182246,-97.830203,1779
536,30.180777,-97.806741,709
537,30.178806,-97.78988,1683
538,30.174277,-97.783503,784
539,30.170566,-97.77519,1938
540,30.171015,-97.763446,1938
541,30.164418,-97.745521,1774
542,30.160598,-97.815586,1854
543,30.161894,-97.781648,2046
544,30.134292,-97.724486,2197
545,30.123992,-97.702255,1748
546,30.118841,-97.815712,1915
547,30.138629,-97.789007,914
548,30.1398,-97.779669,734
549,30.122344,-97.793243,2294
550,30.11474,-97.761745,162
551,30.10091,-97.742406,1046
552,30.10704,-97.711796,2208
553,30.099935,-97.644403,489
554,30.099777,-97.794275,1234
555,30.079091,-97.708895,808
556,30.061879,-97.67384,907
557,30.45357,-97.57921,1999
558,30.44074,-97.596368,531
559,30.384952,-97.572308,2213
560,30.371482,-97.546382,2063
561,30.316307,-97.498617,1860
562,30.30919,-97.550996,1346
563,30.277114,-97.57567,902
564,30.264,-97.537069,488
565,30.239086,-97.53474,1282
566,30.149404,-97.877778,867
567,30.562892,-97.81444,1383
568,30.556527,-97.784048,2472
569,30.560541,-97.747161,1587
570,30.565681,-97.707149,2151
571,30.543998,-97.702414,1736
572,30.426107,-97.404165,1165
573,30.494096,-97.797771,1939
574,30.479701,-97.776675,2357
575,30.474974,-97.690281,1867
576,30.42248,-97.862996,988
577,30.130563,-97.947983,932
578,30.113558,-97.857472,541
579,30.095669,-97.82522,2105
580,30.079619,-97.796332,1094
581,30.054632,-97.768528,1605
582,30.03508,-97.739866,83
583,30.044241,-97.823901,1524
584,30.064542,-97.813059,606
585,30.067321,-97.837672,719
586,30.081642,-97.956989,587
587,29.886396,-97.922651,235
588,30.028229,-97.982658,1258
589,30.002999,-97.878479,1766
590,30.001839,-97.785715,1015
591,29.979146,-97.846817,1693
592,30.34613,-97.703574,2321
593,30.488497,-97.600807,2136
594,30.48319,-97.56746,1175
595,30.463281,-97.525215,639
596,30.087585,-97.751571,1514
597,30.058818,-97.723985,2084
598,30.438973,-97.543138,625
599,30.428163,-97.513846,2133
600,30.144669,-97.747936,1755
601,30.132946,-97.82476,1916
602,30.145593,-97.817215,600
603,30.199903,-97.523203,840
604,30.114833,-97.680519,1589
605,30.131976,-97.668147,1697
606,30.145238,-97.583182,95
607,30.467008,-97.489938,50
608,30.152791,-97.651583,2233
609,30.165474,-97.640056,1108
610,30.237554,-97.674932,2395
611,30.183483,-97.637009,732
612,30.172582,-97.602786,1550
613,30.442805,-97.462556,545
614,30.230896,-97.570828,1158
615,30.254773,-97.510731,1116
616,30.274879,-97.472702,667
617,30.297379,-97.511156,1919
618,30.327288,-97.527973,2305
619,30.311798,-97.470836,1909
620,30.345114,-97.524893,2262
621,30.332948,-97.468369,807
622,30.35486,-97.554176,301
623,30.400775,-97.566228,119
624,30.39936,-97.440864,1080
625,30.367707,-97.520502,2411
626,30.362081,-97.455986,1724
627,30.389228,-97.501275,1598
628,30.408462,-97.527893,461
629,30.419177,-97.556499,1051
630,30.417448,-97.486022,1815
631,30.51116,-97.432012,1604
632,30.758933,-97.61981,335
633,30.787235,-97.461624,155
634,30.762333,-97.570963,900
635,30.714855,-97.635692,2018
636,30.721902,-97.655039,2296
637,30.721962,-97.43449,1496
638,30.7155,-97.453439,1070
639,30.659308,-97.591075,1829
640,30.645536,-97.648227,2016
641,30.688991,-97.697896,1904
642,30.70538,-97.717715,1435
643,30.688418,-97.290934,1910
644,30.708185,-97.434506,1496
645,30.707375,-97.44851,2333
646,30.617408,-97.492335,1816
647,30.63058,-97.608464,280
648,30.670268,-97.365601,2008
649,30.614327,-97.438935,382
650,30.556867,-97.534104,2097
651,30.549309,-97.552697,2454
652,30.585801,-97.403788,2245
653,30.593637,-97.422708,253
654,30.589385,-97.4345,920
655,30.417908,-97.324987,452
656,30.454708,-97.409402,1326
657,30.519091,-97.37656,931
658,30.548378,-97.339944,1219
659,30.543711,-97.426921,1870
660,30.564158,-97.412627,363
661,30.544213,-97.502359,1183
662,30.518844,-97.603226,2225
663,30.553467,-97.632417,1287
664,30.37016,-97.793486,2244
665,30.52616,-97.553431,2150
666,29.896453,-98.064179,63
667,29.955213,-98.126496,817
668,29.956289,-98.065857,845
669,29.950139,-98.009999,555
670,29.868981,-97.990969,2281
671,29.857558,-98.012298,247
672,29.832913,-98.018237,966
673,29.979552,-98.108467,1626
674,29.997999,-98.058955,1064
675,30.019846,-98.0279,165
676,29.967048,-97.95913,389
677,29.952026,-97.983606,855
678,29.979371,-98.082087,1416
679,30.030066,-98.080249,1341
680,29.918913,-97.948067,2036
681,30.043596,-98.053382,2214
682,29.877956,-97.952311,1976
683,29.87017,-97.962849,2456
684,29.878492,-97.965586,2001
685,30.177624,-98.067552,1469
686,30.183656,-98.035565,617
687,30.204068,-98.063961,2010
688,30.132727,-98.066773,1027
689,30.142357,-98.017092,1636
690,30.123464,-98.013422,749
691,30.103535,-97.972025,1243
692,30.156158,-97.922656,1358
693,30.083197,-98.064494,963
694,30.046219,-97.956417,1772
695,30.249732,-98.090132,571
696,30.221504,-98.001452,2194
697,30.232619,-98.041958,1571
698,30.256626,-98.041382,1809
699,30.188322,-97.952201,573
700,29.890125,-97.944039,2351
701,29.889557,-97.938971,1612
702,29.887069,-97.939213,1612
703,29.887943,-97.936567,2317
704,29.881756,-97.942358,1811
705,29.88051,-97.945474,1811
706,29.87795,-97.943205,1811
707,29.875888,-97.949028,1976
708,29.882519,-97.927999,2477
709,29.881815,-97.932862,149
710,29.887993,-97.932527,1276
711,29.886075,-97.93607,2317
712,29.893192,-97.93209,2
713,29.888441,-97.926399,1276
714,29.893447,-97.938495,800
715,29.896727,-97.936225,2
716,29.886506,-97.942882,513
717,29.887606,-97.948487,2351
718,29.884797,-97.945336,513
719,29.884042,-97.942473,513
720,29.881787,-97.947927,948
721,29.884353,-97.901427,1986
722,29.873067,-97.90967,2111
723,29.883636,-97.91573,2462
724,29.892753,-97.908106,1465
725,29.864351,-97.902071,1184
726,29.867046,-97.923945,2007
727,29.880741,-97.917204,2462
728,29.875409,-97.92325,1321
729,30.207493,-98.032242,1830
730,29.889728,-97.918411,1160
731,29.898736,-97.913953,374
732,30.06917,-98.022446,1356
733,30.079967,-97.990787,1836
734,30.055404,-97.91209,510
735,29.886781,-97.991968,1026
736,29.908987,-97.972402,1568
737,29.889408,-97.970463,1564
738,29.863587,-97.978738,2292
739,29.897388,-97.954655,2242
740,29.85407,-97.978959,1499
741,29.842171,-97.996419,1245
742,30.139214,-98.214295,697
743,30.190007,-98.168253,475
744,30.174555,-98.153721,140
745,30.1517,-98.154464,1633
746,30.212417,-98.172451,1552
747,30.22956,-98.135289,1978
748,30.220277,-98.100548,1480
749,30.158316,-98.110565,1148
750,30.0445,-98.141486,810
751,30.072636,-98.204517,746
752,30.115504,-98.192023,508
753,30.019708,-98.232533,384
754,29.995598,-98.167437,1188
755,30.1139,-98.246902,1400
756,29.996347,-98.122024,2119
757,30.02551,-98.111827,2189
758,30.067054,-98.102025,1899
759,30.10241,-98.14819,1095
760,30.133525,-98.106678,2342
761,30.271372,-98.086092,1399
762,29.908768,-97.917075,1662
763,30.277913,-98.137608,139
764,30.3165,-98.139466,278
765,30.291503,-98.177276,204
766,30.24439,-98.18288,1191
767,30.167197,-98.235175,82
768,30.185976,-98.229548,804
769,30.191844,-98.103685,128
770,30.184616,-98.091417,328
771,29.876772,-97.898031,305
772,29.850646,-97.932248,664
773,29.850705,-97.913015,2437
774,29.859432,-97.925423,664
775,29.835223,-97.937747,1955
776,29.855514,-97.945814,1981
777,29.832686,-97.918297,163
778,29.826014,-97.932603,1955
779,29.807481,-97.955,1985
780,29.773576,-97.997444,705
781,29.786936,-97.976479,1161
782,29.845097,-97.972475,1810
783,29.855842,-97.963431,378
784,29.836644,-97.955373,1357
785,29.837248,-97.982015,609
786,29.825153,-97.995132,1448
787,29.859848,-97.970835,378
788,29.814299,-98.008047,605
789,29.826534,-97.980837,364
790,29.813303,-97.980242,692
791,29.805415,-98.002584,605
792,29.947011,-97.918627,515
793,29.928589,-97.917713,1648
794,30.501019,-97.716276,1032
795,29.89784,-97.928405,1974
796,29.837992,-97.945905,1357
797,29.871145,-97.9443,1509
798,29.868781,-97.942805,1509
799,29.863849,-97.941585,53
800,29.863564,-97.948336,1666
801,29.860725,-97.944829,1666
802,29.846717,-97.954871,425
803,30.012564,-97.752352,1819
804,30.067731,-97.825872,916
805,30.01983,-97.868262,1420
806,30.038809,-97.873747,239
807,30.067665,-97.849967,93
808,30.08096,-97.83664,1699
809,30.083844,-97.815399,1315
810,30.142626,-97.856741,1543
811,30.126275,-97.877768,1887
812,30.103692,-97.899298,2444
813,30.090338,-97.88967,549
814,29.959885,-97.801203,453
815,29.989355,-97.816935,221
816,29.953982,-97.862871,1549
817,29.993338,-97.863652,1942
818,30.005026,-97.844911,2282
819,30.017435,-97.826144,546
820,30.093477,-97.86188,1036
821,30.080607,-97.8601,1913
822,30.070587,-97.864712,1421
823,29.953701,-97.889945,2120
824,29.973582,-97.882525,1989
825,29.983051,-97.900371,1461
826,29.985158,-97.879181,38
827,29.987072,-97.887542,701
828,30.040951,-97.895792,1110
829,30.021565,-97.896007,1933
830,29.994624,-97.874248,1261
831,29.991428,-97.879703,1917
832,29.996685,-97.8902,701
833,29.927373,-97.884313,185
834,29.898203,-97.896467,72
835,29.900537,-97.901977,1132
836,29.909386,-97.905904,696
837,29.936266,-97.889216,185
838,29.900711,-97.942748,896
839,29.904187,-97.949324,896
840,29.894799,-97.945184,896
841,29.932993,-97.839249,2129
842,29.909249,-97.869469,2123
843,29.893191,-97.890449,2380
844,29.9514,-97.81998,2103
845,30.012707,-97.90673,1154
846,30.276044,-97.858429,206
847,30.226363,-97.874022,872
848,30.174384,-97.984925,317
849,30.269483,-97.748407,237
850,30.629693,-97.936611,616
851,30.56515,-97.878483,665
852,30.671293,-97.949297,19
853,30.639453,-97.894479,1343
854,30.561981,-97.854201,2238
855,30.683345,-97.94289,1182
856,30.766585,-97.9192,314
857,30.629598,-97.845097,120
858,30.639299,-97.6662,2406
859,30.642343,-97.674662,961
860,30.668799,-97.659879,798
861,30.628872,-97.671426,45
862,30.668363,-97.686088,327
863,30.880283,-97.824754,893
864,30.470096,-97.449694,275
865,30.74618,-97.845772,1807
866,30.689129,-97.862864,1537
867,30.575118,-97.820445,1468
868,30.876242,-97.77401,767
869,30.840902,-97.747424,1943
870,30.78796,-97.831057,1037
871,30.685782,-97.776485,1058
872,30.658614,-97.695213,327
873,30.637172,-97.681379,2146
874,30.629455,-97.700115,1928
875,30.627732,-97.68395,2131
876,30.852528,-97.680214,676
877,30.831092,-97.612867,2407
878,30.625071,-97.676133,45
879,30.616469,-97.686217,1379
880,30.623086,-97.697171,1410
881,30.834316,-97.589673,1821
882,30.656402,-97.262914,815
883,30.631001,-97.410462,2401
884,30.577103,-97.332716,194
885,30.577643,-97.392433,1582
886,30.539989,-97.216877,23
887,30.549645,-97.386987,1895
888,30.567615,-97.398214,1595
889,30.572072,-97.41793,3
890,30.460507,-97.1884,1265
891,30.54927,-97.453586,1844
892,29.861169,-97.937891,2158
893,29.864771,-97.935216,2158
894,29.867991,-97.937213,2158
895,29.870864,-97.934639,561
896,29.864473,-97.916837,2007
897,29.862569,-97.930338,2158
898,29.857715,-97.936981,1061
899,29.877395,-97.931265,516
900,29.871417,-97.93772,561
901,29.875356,-97.933272,2330
902,29.870438,-97.94043,1509
903,29.874089,-97.937071,561
904,29.879425,-97.934873,2330
905,29.873855,-97.941696,1202
906,29.882817,-97.936327,149
907,29.888777,-97.953068,2055
908,29.881982,-97.94009,2408
909,29.884244,-97.940672,2408
910,29.875972,-97.939316,1202
911,29.880838,-97.938202,2408
912,29.88466,-97.938557,2408
913,29.88739,-97.941105,1612
914,29.866701,-97.955129,1869
915,29.859982,-97.953523,945
916,29.871867,-97.948372,1976
917,29.87049,-97.955337,1869
918,29.892357,-97.94926,187
919,29.877414,-97.937005,2330
920,29.846154,-97.898921,438
921,29.883181,-97.956601,654
922,29.890512,-97.962115,1564
923,30.581871,-97.431543,920
924,30.570241,-97.845304,873
925,30.547881,-97.832053,1489
926,30.516189,-97.819854,1563
927,30.498781,-97.810987,1865
928,30.476706,-97.789975,361
929,30.526117,-97.8279,321
930,30.532518,-97.804664,1247
931,30.537807,-97.790202,1073
932,30.52354,-97.78296,585
933,30.65866,-97.776031,768
934,30.658855,-97.849323,1512
935,30.678669,-97.678827,2186
936,30.69052,-97.662227,336
937,30.69345,-97.644873,2147
938,30.70634,-97.676452,2053
939,30.717388,-97.745749,876
940,30.756782,-97.762274,1178
941,30.84433,-97.792283,799
942,30.83935,-97.791475,799
943,30.84407,-97.797976,41
944,30.833925,-97.833141,1814
945,30.820892,-97.877474,2034
946,30.809086,-97.788775,1660
947,30.787546,-97.733844,994
948,30.594021,-97.681147,2058
949,30.592574,-97.705395,1695
950,30.610956,-97.746309,964
951,30.624548,-97.751006,2160
952,30.603434,-97.659525,610
953,30.605496,-97.646404,350
954,30.633028,-97.636136,2383
955,30.623878,-97.634323,2429
956,30.6491,-97.637474,166
957,30.675787,-97.63588,61
958,30.67039,-97.646313,578
959,30.659924,-97.615333,1389
960,30.68416,-97.648796,1395
961,30.580698,-97.634348,2057
962,30.688393,-97.56823,271
963,30.605618,-97.407175,1102
964,30.547251,-97.412218,2044
965,30.572237,-97.424569,2219
966,30.650184,-97.46063,1045
967,30.675472,-97.416823,474
968,30.749076,-97.498686,2143
969,30.728051,-97.451663,47
970,30.75436,-97.408646,1096
971,30.570439,-97.411401,1911
972,30.43632,-97.251463,417
973,30.472299,-97.262528,1041
974,30.48328,-97.224474,1151
975,30.445868,-97.232566,1124
976,30.479296,-97.306116,1716
977,30.43847,-97.286145,1147
978,30.443943,-97.370321,205
979,30.455046,-97.339311,1588
980,30.515092,-97.408642,686
981,30.488553,-97.410368,110
982,30.479036,-97.392374,1918
983,30.493829,-97.35547,54
984,30.522277,-97.308176,346
985,30.505589,-97.247565,846
986,30.504025,-97.182869,232
987,30.565058,-97.259618,761
988,30.62155,-97.263684,1438
989,30.631593,-97.319296,1520
990,30.660884,-97.299336,1502
991,30.599844,-97.309353,320
992,30.590803,-97.346743,2370
993,30.621102,-97.369973,1846
994,30.65527,-97.346524,950
995,30.584139,-97.4234,2258
996,30.560575,-97.423818,802
997,30.555834,-97.41098,968
998,30.581104,-97.381876,1885
999,30.511418,-97.468827,2076
1000,30.526407,-97.530192,1833
1001,30.517308,-97.502997,1580
1002,30.509986,-97.55816,748
1003,30.477489,-97.481873,2072
1004,30.575191,-97.510374,1294
1005,30.578301,-97.465299,674
1006,30.58379,-97.592003,398
1007,30.581783,-97.6213,903
1008,30.603935,-97.594838,1068
1009,30.593494,-97.559051,2106
1010,30.571888,-97.562385,1617
1011,30.550444,-97.586759,1864
1012,30.544585,-97.60774,1430
1013,30.559709,-97.615336,1103
1014,30.612544,-97.569962,30
1015,30.603709,-97.521503,1162
1016,30.657724,-97.497322,690
1017,30.681438,-97.518758,552
1018,30.684143,-97.475931,1618
1019,30.727033,-97.485999,274
1020,30.741662,-97.534252,1701
1021,30.707529,-97.522309,430
1022,30.767866,-97.516497,1127
1023,30.804915,-97.569578,1425
1024,30.750264,-97.681406,1500
1025,30.791238,-97.642916,1252
1026,30.69837,-97.627671,655
1027,30.682848,-97.597727,2250
1028,30.715183,-97.599677,1380
1029,30.726483,-97.560001,844
1030,30.652202,-97.567221,2019
1031,30.658509,-97.527026,164
1032,30.744464,-97.349428,1727
1033,30.723527,-97.294568,192
1034,30.718481,-97.340303,379
1035,30.711832,-97.41274,408
1036,30.699874,-97.356277,89
1037,30.721099,-97.804395,1971
1038,30.713284,-97.917453,189
1039,30.707511,-97.937796,2363
1040,30.505476,-97.850632,1121
1041,30.502098,-97.831932,1591
1042,30.511753,-97.834159,787
1043,30.043099,-97.852821,1934
1044,30.521169,-97.847519,1786
1045,30.524123,-97.837526,1786
1046,30.550258,-97.847503,459
1047,30.536438,-97.857691,1826
1048,30.465145,-97.829934,1730
1049,30.740886,-97.717294,1958
1050,30.476281,-97.719732,499
1051,30.489708,-97.655412,1143
1052,30.587174,-97.415829,1163
1053,30.405887,-98.02832,712
1054,30.49147,-97.824934,866
1055,30.47081,-97.820694,860
1056,30.530568,-97.821047,2210
1057,30.539373,-97.783615,1743
1058,30.527955,-97.767089,74
1059,30.506117,-97.763655,1570
1060,30.491587,-97.764424,106
1061,30.48459,-97.794481,1022
1062,30.498519,-97.782491,1818
1063,30.488025,-97.78106,1733
1064,30.48333,-97.840841,1794
1065,30.545795,-97.825633,1489
1066,30.546888,-97.806481,1802
1067,30.600584,-97.804895,383
1068,30.628699,-97.811,1402
1069,30.508377,-97.815848,1709
1070,30.52396,-97.791741,2283
1071,30.507357,-97.806002,117
1072,30.511773,-97.789939,2042
1073,30.486395,-97.805868,273
1074,30.492048,-97.5281,1384
1075,30.905132,-97.800454,1491
1076,30.887022,-97.703803,486
1077,30.857003,-97.589002,1640
1078,30.837785,-97.539898,340
1079,30.670972,-97.244333,726
1080,30.794371,-97.425623,679
1081,30.826011,-97.51054,118
1082,30.747149,-97.300292,1054
1083,30.171221,-97.519633,2354
1084,30.136738,-97.560852,1006
1085,30.217666,-97.479311,2205
1086,30.32676,-97.419806,708
1087,30.359273,-97.397532,1573
1088,30.351976,-97.39802,1573
1089,30.397006,-97.36545,1349
1090,30.42561,-97.259456,2463
1091,30.529067,-97.185122,1907
1092,30.474429,-97.162178,1333
1093,30.609838,-97.218848,751
1094,29.934113,-98.150473,518
1095,29.82497,-97.918829,1751
1096,29.800449,-98.015358,1269
1097,29.812023,-98.018414,1841
1098,29.806018,-97.944241,936
1099,29.835521,-97.9049,1749
1100,29.930219,-97.813404,420
1101,30.0113,-97.687029,1388
1102,29.988874,-97.742832,821
1103,29.9607,-97.773983,135
1104,30.030532,-97.672595,1017
1105,30.102202,-97.609481,255
1106,29.994705,-98.236289,993
1107,30.106389,-98.270406,830
1108,30.270539,-98.206818,628
1109,30.15493,-98.251617,838
1110,30.193282,-98.236528,2082
1111,30.320581,-98.18806,656
1112,30.422055,-98.127277,160
1113,30.530257,-98.103332,179
1114,30.659689,-98.030267,1704
1115,30.709085,-98.002919,370
1116,30.840504,-97.903407,356
1117,29.869985,-97.892405,1762
1118,30.43398,-98.04384,109
1119,30.4147,-97.974328,2009
1120,30.406566,-97.85219,1521
1121,30.416801,-97.846884,1975
1122,30.407083,-97.761927,731
1123,30.409064,-97.764124,731
1124,30.408449,-97.758688,731
1125,30.408061,-97.744922,1106
1126,30.41402,-97.745725,505
1127,30.407847,-97.744691,1106
1128,30.415637,-97.745701,505
1129,30.412533,-97.731664,1460
1130,30.407919,-97.715814,2298
1131,30.40912,-97.716095,2298
1132,30.410378,-97.684787,1827
1133,30.407524,-97.677913,39
1134,30.415302,-97.676469,1138
1135,30.409447,-97.647814,1216
1136,30.231017,-97.516594,421
1137,30.236316,-97.520151,421
1138,30.401773,-97.634956,440
1139,30.413554,-97.623711,820
1140,30.395078,-97.589682,2384
1141,30.416815,-97.575833,1392
1142,30.30344,-97.526112,1446
1143,30.307684,-97.514671,471
1144,30.33638,-97.51792,1417
1145,30.334995,-97.509891,2054
1146,30.375385,-97.528483,2470
1147,30.397315,-97.519255,926
1148,30.408455,-97.512478,917
1149,30.409589,-98.109364,660
1150,30.385513,-98.086011,1386
1151,30.406921,-98.058975,1680
1152,30.407793,-97.874061,156
1153,30.439673,-97.873379,1176
1154,30.403618,-97.853717,1521
1155,30.410956,-97.791897,1319
1156,30.399573,-97.783123,477
1157,30.411092,-97.768154,731
1158,30.404545,-97.768691,731
1159,30.409917,-97.747504,505
1160,30.407781,-97.747856,1106
1161,30.414459,-97.746412,505
1162,30.407968,-97.745632,1106
1163,30.413568,-97.745912,505
1164,30.405556,-97.745455,1106
1165,30.406374,-97.724071,682
1166,30.408849,-97.7147,2298
1167,30.407206,-97.721641,682
1168,30.408731,-97.712834,2298
1169,30.407364,-97.714123,2298
1170,30.409801,-97.711471,1691
1171,30.408358,-97.715529,2298
1172,30.407968,-97.696596,1450
1173,30.412293,-97.67463,1138
1174,30.40787,-97.675483,39
1175,30.4133,-97.673628,1138
1176,30.403298,-97.675161,39
1177,30.414308,-97.672668,1138
1178,30.406589,-97.674045,39
1179,30.412976,-97.672042,1138
1180,30.407529,-97.673112,39
1181,30.403013,-97.605632,1130
1182,30.400877,-97.545066,881
1183,30.425266,-97.532488,190
1184,30.407188,-97.541096,881
1185,30.505154,-97.519605,186
1186,30.51811,-97.517307,1752
1187,30.539446,-97.527361,870
1188,30.537219,-97.513917,1545
1189,30.546126,-97.526327,870
1190,30.550371,-97.502511,1183
1191,30.593317,-97.519759,1987
1192,30.59844,-97.503766,2284
1193,30.637256,-97.519283,923
1194,30.637913,-97.503543,2029
1195,30.674133,-97.519584,2474
1196,30.655746,-97.51178,1770
1197,30.715859,-97.509234,2043
1198,30.736201,-97.517674,1251
1199,30.72774,-97.51612,1251
1200,30.786327,-97.570382,184
1201,30.813891,-97.514762,974
1202,30.753481,-97.522255,1534
1203,30.759103,-97.502626,219
1204,30.276789,-97.502484,1483
1205,30.294375,-97.524078,137
1206,30.350266,-97.500359,643
1207,30.410372,-97.51129,917
1208,30.397977,-97.470816,1099
1209,30.405153,-97.499596,1750
1210,30.418875,-97.427254,380
1211,30.415024,-97.460113,716
1212,30.399374,-97.381992,35
1213,30.410031,-97.37493,1735
1214,30.417783,-97.521358,1753
1215,30.443669,-97.517121,1052
1216,30.440796,-97.521724,1052
1217,30.493528,-97.493465,1031
1218,30.589415,-97.53659,854
1219,30.607574,-97.506741,533
1220,30.615287,-97.542575,470
1221,30.666963,-97.495278,2362
1222,30.687437,-97.492532,858
1223,30.690823,-97.524148,1923
1224,30.729133,-97.531196,14
1225,30.783688,-97.524716,733
1226,30.740209,-97.493845,1458
1227,30.766484,-97.479858,1775
1228,30.410299,-97.695637,1450
1229,30.412131,-97.702847,422
1230,30.408633,-97.70461,422
1231,30.410893,-97.709342,1691
1232,30.413835,-97.661196,753
1233,30.405328,-97.66238,1375
1234,30.42208,-97.625593,2356
1235,30.40409,-97.637802,440
1236,29.987074,-98.049768,316
1237,29.984562,-98.038465,1838
1238,30.026318,-98.043982,897
1239,30.03215,-98.039656,897
1240,30.052957,-98.049297,299
1241,30.047991,-98.025834,1081
1242,30.1098,-98.068304,228
1243,30.123192,-98.031115,113
1244,30.131643,-98.031699,113
1245,30.149237,-98.051563,538
1246,30.153385,-98.016194,387
1247,30.286319,-98.064664,209
1248,30.291368,-98.034598,864
1249,30.355722,-98.066735,15
1250,30.331214,-98.024116,1707
1251,30.37458,-98.041928,1523
1252,29.883707,-97.965652,2001
1253,29.893214,-97.964866,1564
1254,29.886653,-97.962478,654
1255,29.887965,-97.953982,2055
1256,29.884175,-97.948286,948
1257,29.884944,-97.949509,948
1258,29.885791,-97.945866,2351
1259,29.884912,-97.942571,513
1260,29.88521,-97.940536,2408
1261,29.884527,-97.923961,235
1262,29.885258,-97.929695,2477
1263,29.882201,-97.921188,235
1264,29.886173,-97.918068,1160
1265,29.883649,-97.922986,235
1266,29.882561,-97.921502,235
1267,29.887678,-97.917035,1160
1268,29.887809,-97.916563,1160
1269,29.884282,-97.908492,2422
1270,29.888212,-97.9054,1465
1271,29.882033,-97.895876,1986
1272,29.888655,-97.886721,2380
1273,29.940677,-98.022744,1503
1274,29.908608,-98.008721,548
1275,29.917247,-98.051817,1610
1276,29.885597,-97.946803,2351
1277,29.884687,-97.943954,513
1278,29.883846,-97.94376,513
1279,29.885079,-97.941552,513
1280,29.884391,-97.941438,2408
1281,29.885267,-97.940102,2408
1282,29.884481,-97.940026,2408
1283,29.883169,-97.93868,2408
1284,29.884754,-97.936819,149
1285,29.883316,-97.93731,149
1286,29.884907,-97.930244,2477
1287,29.88435,-97.931116,2477
1288,29.886723,-97.919149,1160
1289,29.883183,-97.922476,235
1290,29.888646,-97.916622,1160
1291,29.882931,-97.92178,235
1292,30.193978,-98.03592,1548
1293,30.194871,-98.049602,1679
1294,30.245989,-98.027316,485
1295,30.246378,-98.043262,79
1296,30.345872,-98.027208,442
1297,30.159975,-98.178438,1113
1298,30.129515,-98.173062,965
1299,30.143223,-98.135221,630
1300,30.157746,-98.131657,887
1301,30.144817,-98.089328,944
1302,30.16069,-98.090996,894
1303,30.167313,-98.085854,894
1304,30.13787,-98.157966,638
1305,29.967769,-98.189493,191
1306,29.981565,-98.147097,358
1307,30.035229,-98.179821,816
1308,30.058892,-98.162858,976
1309,30.089786,-98.19487,1008
1310,30.08205,-98.171247,1311
1311,30.104379,-98.17688,1672
1312,30.126281,-98.170259,965
1313,30.004317,-98.18761,491
1314,30.012098,-98.120381,1260
1315,30.019125,-98.130309,214
1316,29.999239,-98.101129,563
1317,30.02115,-98.101837,762
1318,30.009134,-98.077175,2110
1319,30.015618,-98.070197,443
1320,30.008634,-98.051193,1723
1321,30.020471,-98.153274,1009
1322,30.094404,-98.170976,11
1323,30.000072,-98.200099,1776
1324,30.101001,-98.223676,901
1325,30.047826,-98.198919,104
1326,30.097785,-98.239317,196
1327,30.096546,-98.216512,901
1328,30.099451,-98.18839,1881
1329,29.974506,-98.092413,67
1330,29.980102,-98.093545,67
1331,29.994609,-98.090602,795
1332,29.987964,-98.111264,2291
1333,30.002568,-98.105036,563
1334,29.941015,-98.091712,2154
1335,30.008008,-98.117772,1260
1336,29.938804,-98.081782,595
1337,29.981565,-98.139629,358
1338,29.986542,-98.120568,738
1339,29.92891,-98.069342,404
1340,29.925171,-98.064188,404
1341,29.985071,-98.089903,67
1342,29.985865,-98.075657,1416
1343,29.998843,-98.084241,795
1344,30.081168,-98.171429,1311
1345,30.072243,-98.140645,441
1346,30.107668,-98.131384,1365
1347,30.045394,-98.101753,28
1348,30.03475,-98.118658,1257
1349,30.06887,-98.125564,1526
1350,30.069955,-98.090106,1020
1351,30.102064,-98.096006,1117
1352,30.12629,-98.112328,637
1353,30.121344,-98.088327,462
1354,30.061194,-98.075962,642
1355,30.027515,-98.128455,2159
1356,30.116391,-98.137431,176
1357,30.129918,-98.135692,176
1358,30.123076,-98.135616,176
1359,30.048688,-98.097949,28
1360,30.058309,-98.049009,299
1361,30.055926,-98.092073,2335
1362,30.058932,-98.080648,642
1363,30.10984,-98.090537,2304
1364,30.131976,-98.08916,1936
1365,30.179424,-98.191269,258
1366,30.182829,-98.162832,2439
1367,30.257611,-98.169802,467
1368,30.22719,-98.169205,1427
1369,30.272555,-98.179416,1312
1370,30.300608,-98.166031,1437
1371,30.300407,-98.170914,1437
1372,30.162056,-98.141627,2027
1373,30.199549,-98.184398,687
1374,30.197855,-98.162057,1638
1375,30.198206,-98.179426,687
1376,30.200172,-98.194485,2118
1377,30.27055,-98.068497,1398
1378,30.280318,-98.155751,1077
1379,30.256065,-98.154836,1891
1380,30.255864,-98.132785,886
1381,30.285707,-98.103249,783
1382,30.256388,-98.109119,360
1383,30.173312,-98.240938,82
1384,30.178501,-98.232143,2104
1385,30.159139,-98.245775,838
1386,30.179132,-98.230195,2104
1387,30.188182,-98.214616,635
1388,30.193112,-98.214579,635
1389,30.189203,-98.109283,2236
1390,30.189269,-98.102602,1083
1391,30.221912,-98.151964,26
1392,30.205816,-98.144811,1474
1393,30.205308,-98.133052,413
1394,30.219776,-98.118518,1406
1395,30.20463,-98.11855,2161
1396,30.198217,-98.107129,128
1397,30.210052,-98.087482,566
1398,30.213293,-98.084826,566
1399,30.191588,-98.095033,1083
1400,30.246396,-98.12472,1952
1401,30.254291,-98.082014,571
1402,30.182808,-98.124873,985
1403,30.198168,-98.161836,1638
1404,30.191378,-98.162277,475
1405,30.18744,-98.115318,2236
1406,30.205647,-98.128349,413
1407,30.227215,-98.154469,26
1408,30.256152,-98.143003,1558
1409,30.233872,-98.124752,622
1410,30.167629,-98.086571,894
1411,30.179423,-98.087313,328
1412,30.159349,-98.068204,1050
1413,30.191384,-98.081811,1893
1414,30.191338,-98.087434,1893
1415,30.193977,-98.102295,128
1416,30.181782,-98.087413,328
1417,30.19133,-98.093042,1083
1418,30.189304,-98.099051,1083
1419,30.192514,-98.064321,33
1420,30.237465,-98.065915,1112
1421,30.249399,-98.058146,1905
1422,30.246189,-98.047347,79
1423,30.299922,-98.088865,1501
1424,30.368436,-98.072766,1796
1425,30.393322,-98.067956,386
1426,29.841741,-97.912779,1079
1427,29.848594,-97.905366,438
1428,29.869138,-97.91176,2111
1429,29.869205,-97.902758,1184
1430,29.883152,-97.909806,2422
1431,29.880615,-97.912757,2422
1432,29.878232,-97.907425,1585
1433,29.818075,-97.998524,24
1434,29.823262,-98.005313,1600
1435,29.817127,-97.99684,24
1436,29.818931,-97.994699,24
1437,29.823926,-97.980733,364
1438,29.82181,-98.007133,1600
1439,29.81739,-98.012155,1841
1440,29.819486,-97.994863,24
1441,29.818343,-97.996504,24
1442,29.814034,-98.000977,605
1443,29.820301,-97.993655,24
1444,29.814105,-98.000616,605
1445,29.822026,-97.99246,2256
1446,29.815446,-97.96404,1174
1447,29.830284,-97.96121,2190
1448,29.828849,-97.983841,869
1449,29.835607,-97.976302,1498
1450,29.834256,-97.978198,1498
1451,29.841971,-97.974684,114
1452,29.846351,-97.979676,908
1453,29.842559,-97.975355,114
1454,29.850844,-97.974942,1499
1455,29.813421,-97.967589,1174
1456,29.806774,-97.978529,692
1457,29.838967,-97.973318,114
1458,29.834027,-97.978787,1498
1459,29.840191,-97.972651,114
1460,29.836078,-97.976833,1498
1461,29.840025,-97.97189,114
1462,29.84932,-97.976323,1499
1463,29.820649,-97.955213,251
1464,29.825662,-97.942213,659
1465,29.810918,-98.003617,605
1466,29.797524,-97.994277,297
1467,29.780004,-97.992683,705
1468,29.80978,-98.005157,605
1469,29.810878,-98.004831,605
1470,29.804461,-97.982193,692
1471,29.816411,-97.996523,24
1472,29.80115,-97.994277,297
1473,29.810904,-98.003892,605
1474,29.815126,-97.999061,24
1475,29.815366,-97.999757,24
1476,29.812963,-98.00256,605
1477,29.817537,-97.997344,24
1478,29.862223,-97.998377,636
1479,29.85096,-97.984969,908
1480,29.860719,-97.996498,636
1481,29.850231,-97.984131,908
1482,29.824507,-97.988654,2256
1483,29.831786,-97.995633,1448
1484,29.847718,-97.981245,908
1485,29.821828,-97.992251,2256
1486,29.823465,-97.990057,2256
1487,29.834039,-97.992218,1245
1488,29.83723,-97.989055,1245
1489,29.835006,-97.9781,1498
1490,29.827288,-97.985579,869
1491,29.827121,-97.984705,869
1492,29.827685,-97.98604,869
1493,29.825198,-97.988915,2256
1494,29.829455,-97.984188,869
1495,29.830066,-97.982813,869
1496,29.830282,-97.98298,869
1497,29.82378,-97.990143,2256
1498,29.82846,-97.986415,869
1499,29.796368,-97.968037,1797
1500,29.846826,-97.963812,2457
1501,29.85373,-97.956148,425
1502,29.828217,-97.944615,659
1503,29.828578,-97.941912,659
1504,29.833369,-97.946962,659
1505,29.832843,-97.941569,659
1506,29.848735,-97.943496,512
1507,29.843343,-97.940454,512
1508,29.855146,-97.971213,378
1509,29.85336,-97.957648,425
1510,29.85126,-97.959659,425
1511,29.847441,-97.964333,2457
1512,29.853528,-97.957082,425
1513,29.853599,-97.956728,425
1514,29.84383,-97.967646,1810
1515,29.852997,-97.948412,1981
1516,29.859231,-97.95031,945
1517,29.865634,-97.943201,53
1518,29.854864,-97.939497,1061
1519,29.863038,-97.945704,1666
1520,29.865021,-97.943426,53
1521,29.856628,-97.939361,1061
1522,29.876116,-97.943103,1202
1523,29.869203,-97.940235,1509
1524,29.872973,-97.939549,1202
1525,29.87758,-97.945016,1811
1526,29.879629,-97.94301,1811
1527,29.876869,-97.944064,1811
1528,29.881903,-97.943378,1811
1529,29.883538,-97.943689,513
1530,29.882495,-97.943449,513
1531,29.845758,-97.940197,512
1532,29.854604,-97.930246,664
1533,29.860255,-97.940449,1061
1534,29.862253,-97.944222,1666
1535,29.866176,-97.943259,53
1536,29.865091,-97.944442,53
1537,29.866953,-97.941952,53
1538,29.861566,-97.948009,1666
1539,29.849604,-97.924394,2241
1540,29.882041,-97.945704,1811
1541,29.823166,-97.952518,251
1542,29.839462,-97.971821,114
1543,29.844947,-97.959837,2457
1544,29.839028,-97.953008,1357
1545,29.846832,-97.964546,2457
1546,29.842668,-97.968462,1810
1547,29.844076,-97.967651,1810
1548,29.843249,-97.968908,1810
1549,29.862841,-97.959953,904
1550,29.861112,-97.957928,904
1551,29.874544,-97.955576,286
1552,29.868395,-97.961723,2456
1553,29.867764,-97.961879,2456
1554,29.87309,-97.9555,286
1555,29.876557,-97.957934,286
1556,29.880121,-97.961806,2001
1557,29.857091,-97.969138,378
1558,29.859917,-97.966063,378
1559,29.865419,-97.962971,904
1560,29.881201,-97.962979,2001
1561,29.856668,-97.952744,945
1562,29.858371,-97.950815,945
1563,29.858727,-97.955116,945
1564,29.858642,-97.951706,945
1565,29.857214,-97.953331,945
1566,29.860948,-97.947894,1666
1567,29.857198,-97.952916,945
1568,29.862274,-97.947591,1666
1569,29.874772,-97.955843,286
1570,29.880348,-97.950762,948
1571,29.880895,-97.949407,948
1572,29.877075,-97.951105,1976
1573,29.87622,-97.952048,1976
1574,29.877722,-97.950392,1976
1575,29.873806,-97.95471,286
1576,29.879877,-97.94805,948
1577,29.878314,-97.94591,1811
1578,29.880721,-97.949175,948
1579,29.882637,-97.946433,948
1580,29.880975,-97.946805,948
1581,29.880625,-97.947202,948
1582,29.882953,-97.946819,948
1583,29.881193,-97.949803,948
1584,29.883234,-97.94931,948
1585,29.841662,-97.936114,512
1586,29.834243,-97.928599,163
1587,29.83758,-97.921594,163
1588,29.847286,-97.941906,512
1589,29.845039,-97.918815,2241
1590,29.868707,-97.939662,1509
1591,29.866108,-97.94225,53
1592,29.868541,-97.938929,1509
1593,29.867505,-97.938735,1509
1594,29.870902,-97.936456,561
1595,29.867945,-97.935361,2158
1596,29.868963,-97.931929,561
1597,29.866739,-97.942596,53
1598,29.868758,-97.939972,1509
1599,29.876506,-97.929006,516
1600,29.878542,-97.926102,516
1601,29.88122,-97.92453,235
1602,29.856022,-97.931812,664
1603,29.869094,-97.925668,2007
1604,29.872084,-97.91934,1321
1605,29.871191,-97.918273,1321
1606,29.870111,-97.928014,2007
1607,29.874672,-97.9286,516
1608,29.87846,-97.927101,516
1609,29.876501,-97.929761,516
1610,29.879317,-97.926499,516
1611,29.877335,-97.929068,516
1612,29.880004,-97.924818,235
1613,29.87679,-97.928989,516
1614,29.857879,-97.933204,664
1615,29.859559,-97.939136,1061
1616,29.86196,-97.938952,2158
1617,29.859356,-97.938419,1061
1618,29.860462,-97.935727,2158
1619,29.85872,-97.934025,664
1620,29.859132,-97.93763,1061
1621,29.866104,-97.937439,2158
1622,29.862164,-97.937389,2158
1623,29.857033,-97.93933,1061
1624,29.865529,-97.938682,2158
1625,29.865203,-97.938703,2158
1626,29.863338,-97.937733,2158
1627,29.866078,-97.938666,2158
1628,29.872465,-97.934293,561
1629,29.876948,-97.935627,2330
1630,29.874456,-97.934677,2330
1631,29.876274,-97.939969,1202
1632,29.875412,-97.93981,1202
1633,29.876448,-97.9387,1202
1634,29.875464,-97.938568,1202
1635,29.877058,-97.934952,2330
1636,29.872558,-97.935146,561
1637,29.871952,-97.936352,561
1638,29.873279,-97.934553,561
1639,29.874938,-97.934728,2330
1640,29.879132,-97.936033,2330
1641,29.883692,-97.935194,149
1642,29.871325,-97.936415,561
1643,29.87528,-97.931813,2330
1644,29.871376,-97.939427,1509
1645,29.871593,-97.939456,1509
1646,29.870143,-97.939265,1509
1647,29.869401,-97.940087,1509
1648,29.874302,-97.93838,1202
1649,29.874166,-97.939576,1202
1650,29.873541,-97.939562,1202
1651,29.870384,-97.937174,561
1652,29.88011,-97.939989,2408
1653,29.880182,-97.939324,2408
1654,29.88144,-97.943323,1811
1655,29.879804,-97.942005,1811
1656,29.882041,-97.941035,2408
1657,29.880037,-97.940663,2408
1658,29.88177,-97.939579,2408
1659,29.88305,-97.939784,2408
1660,29.880724,-97.93681,149
1661,29.882252,-97.939656,2408
1662,29.879754,-97.942292,1811
1663,29.878688,-97.940413,1202
1664,29.88265,-97.942749,513
1665,29.882348,-97.941092,2408
1666,29.882869,-97.941188,2408
1667,29.882698,-97.942407,513
1668,29.882965,-97.940445,2408
1669,29.876883,-97.936028,2330
1670,29.877932,-97.938963,1202
1671,29.883228,-97.938129,2408
1672,29.882553,-97.937165,149
1673,29.877473,-97.932861,2330
1674,29.878668,-97.930725,516
1675,29.877842,-97.929681,516
1676,29.882305,-97.931934,2477
1677,29.88393,-97.933255,149
1678,29.879275,-97.918292,2462
1679,29.88104,-97.920099,2462
1680,29.881947,-97.92016,2462
1681,29.882011,-97.917562,2462
1682,29.877475,-97.916194,599
1683,29.873535,-97.921075,1321
1684,29.872239,-97.922415,1321
1685,29.880316,-97.923785,235
1686,29.881773,-97.923014,235
1687,29.87959,-97.913879,599
1688,29.852885,-97.898439,438
1689,29.869256,-97.89591,1762
1690,29.870444,-97.895752,1762
1691,29.878486,-97.901872,305
1692,29.87339,-97.900478,305
1693,30.131698,-98.010044,2227
1694,30.147484,-97.983461,647
1695,30.152035,-97.971907,1979
1696,29.971708,-97.787475,1658
1697,29.963481,-97.777722,135
1698,30.008939,-97.764874,310
1699,30.027667,-97.785745,181
1700,30.033957,-97.778844,2390
1701,30.013464,-97.769916,310
1702,30.113119,-97.784722,529
1703,30.116689,-97.781607,529
1704,30.113119,-97.782165,529
1705,30.101967,-97.759692,770
1706,30.148253,-97.854836,1543
1707,30.145025,-97.852244,1543
1708,30.149554,-97.832825,1317
1709,30.140349,-97.832826,1916
1710,30.146979,-97.794565,208
1711,30.140553,-97.797024,914
1712,30.148136,-97.793388,208
1713,30.13889,-97.796827,914
1714,30.149231,-97.79128,208
1715,30.144042,-97.793174,208
1716,30.155776,-97.790058,1889
1717,30.145684,-97.793334,208
1718,30.164578,-97.77902,2046
1719,30.166859,-97.784401,784
1720,30.17234,-97.782741,784
1721,30.178169,-97.778888,1134
1722,30.178354,-97.779637,1134
1723,30.204722,-97.774484,987
1724,30.227454,-97.779953,831
1725,30.227656,-97.778749,831
1726,30.227437,-97.779343,831
1727,30.230105,-97.788895,40
1728,30.26528,-97.784538,911
1729,30.267711,-97.779086,1851
1730,30.265256,-97.783519,911
1731,30.267761,-97.778362,1851
1732,30.26533,-97.782286,911
1733,30.266689,-97.779575,1851
1734,30.268797,-97.777774,1851
1735,30.267535,-97.771498,86
1736,30.325587,-97.779934,1990
1737,30.311853,-97.782363,1043
1738,30.341,-97.77894,1239
1739,30.341546,-97.781731,1239
1740,30.399031,-97.782486,477
1741,30.392306,-97.777798,1525
1742,29.95748,-97.786545,2013
1743,30.044544,-97.794242,1177
1744,30.061135,-97.780788,811
1745,30.085718,-97.767393,1556
1746,30.092449,-97.781509,276
1747,30.145501,-97.765776,1013
1748,30.14972,-97.766207,1013
1749,30.153347,-97.711128,1067
1750,30.158266,-97.681272,1717
1751,30.137567,-97.584342,1575
1752,30.147217,-97.577793,95
1753,30.140648,-97.567176,1006
1754,30.159513,-97.555305,1393
1755,30.158348,-97.776137,2046
1756,30.157205,-97.781488,2046
1757,30.172017,-97.783811,784
1758,30.179544,-97.782873,1134
1759,30.18261,-97.774018,292
1760,30.171832,-97.781082,784
1761,30.183546,-97.77423,292
1762,30.17127,-97.782507,784
1763,30.187451,-97.780446,2270
1764,30.192997,-97.778594,652
1765,30.194254,-97.78212,652
1766,30.188994,-97.77993,2270
1767,30.206957,-97.778439,1741
1768,30.208275,-97.781155,1741
1769,30.211058,-97.778963,1741
1770,30.210002,-97.779795,1741
1771,30.154302,-97.735082,265
1772,30.142173,-97.728856,1231
1773,30.22782,-97.774012,1652
1774,30.227927,-97.780151,831
1775,30.246641,-97.777001,1674
1776,30.244055,-97.781187,949
1777,30.257205,-97.7808,2311
1778,30.247075,-97.784821,949
1779,30.260413,-97.770657,1463
1780,30.267311,-97.780537,1851
1781,30.145195,-97.699584,1028
1782,30.149434,-97.696636,210
1783,30.143977,-97.69652,1028
1784,30.152491,-97.670395,2140
1785,30.145534,-97.673128,2140
1786,30.153362,-97.668847,2140
1787,30.153831,-97.639306,495
1788,30.283155,-97.776483,2032
1789,30.288501,-97.78036,498
1790,30.293797,-97.783106,1756
1791,30.295908,-97.783359,1756
1792,30.357981,-97.785307,289
1793,30.38252,-97.771031,1834
1794,30.146457,-97.624194,1642
1795,30.294852,-97.781125,1756
1796,30.291665,-97.774304,2032
1797,30.297507,-97.780138,1756
1798,30.300641,-97.775754,1457
1799,30.228138,-97.778887,831
1800,30.228226,-97.781444,831
1801,30.223421,-97.781914,2396
1802,30.14862,-97.807197,962
1803,30.144604,-97.808804,962
1804,29.891123,-97.914054,2064
1805,29.896446,-97.909096,1465
1806,29.893021,-97.911456,1465
1807,29.895908,-97.909218,1465
1808,29.896952,-97.909541,1465
1809,29.904764,-97.912,1662
1810,29.915818,-97.910772,535
1811,29.918339,-97.90818,535
1812,29.956683,-97.903285,1639
1813,30.028014,-97.910045,757
1814,29.893886,-97.912702,2064
1815,29.900771,-97.905448,1132
1816,29.894057,-97.911678,1465
1817,30.016504,-97.897091,1933
1818,29.990932,-97.892708,701
1819,29.966324,-97.926509,1304
1820,30.011987,-97.891282,303
1821,30.020791,-97.889466,1426
1822,30.014425,-97.859689,822
1823,30.019364,-97.856183,822
1824,30.028356,-97.854691,1215
1825,30.014248,-97.85921,822
1826,30.019858,-97.855075,180
1827,30.016986,-97.847265,180
1828,30.014363,-97.812917,957
1829,30.01829,-97.80929,957
1830,30.028376,-97.926097,1359
1831,30.015748,-97.859108,822
1832,30.00581,-97.865017,484
1833,30.004704,-97.82677,1207
1834,30.095394,-97.895715,549
1835,30.09644,-97.930063,337
1836,30.018492,-97.871239,1420
1837,29.89864,-97.973549,2187
1838,29.925388,-97.947524,212
1839,29.956176,-97.969228,1431
1840,29.937726,-97.932325,1153
1841,29.969026,-97.989404,1394
1842,29.900238,-97.982998,127
1843,29.983412,-98.00407,202
1844,29.888059,-97.942108,1612
1845,29.892343,-97.941204,800
1846,29.884842,-97.943001,513
1847,29.886138,-97.944191,513
1848,29.887377,-97.944393,2351
1849,29.891347,-97.941083,1612
1850,29.892214,-97.944405,2351
1851,29.894504,-97.942072,800
1852,29.896304,-97.944082,896
1853,29.896828,-97.94477,896
1854,29.90526,-97.929784,1974
1855,29.917193,-97.933274,703
1856,29.921256,-97.93543,703
1857,29.887756,-97.961289,654
1858,29.891718,-97.95702,2055
1859,29.896152,-97.964475,1564
1860,29.900516,-97.958233,2242
1861,29.896785,-97.948392,896
1862,29.898021,-97.947013,896
1863,29.888057,-97.951664,2055
1864,29.889125,-97.950476,2055
1865,29.890261,-97.951863,2055
1866,29.895617,-97.949694,187
1867,29.893969,-97.951532,187
1868,29.891572,-97.953462,2055
1869,29.889994,-97.95523,2055
1870,29.890985,-97.952746,2055
1871,29.888145,-97.945395,2351
1872,29.888858,-97.946341,2351
1873,29.890193,-97.947309,2351
1874,29.897713,-97.947357,896
1875,29.888328,-97.93012,1276
1876,29.885608,-97.926853,2477
1877,29.89445,-97.923727,2030
1878,29.900543,-97.926663,1974
1879,29.891716,-97.926737,2030
1880,29.889409,-97.931367,1276
1881,29.891985,-97.926032,2030
1882,29.89425,-97.928245,2030
1883,29.898973,-97.918589,374
1884,29.903718,-97.91319,1662
1885,29.892871,-97.941268,800
1886,29.889904,-97.935206,2317
1887,29.891224,-97.936081,2317
1888,29.894618,-97.935685,2
1889,29.896258,-97.936477,2
1890,29.888698,-97.934407,2317
1891,29.887445,-97.935513,2317
1892,29.89017,-97.935888,2317
1893,29.888847,-97.933304,1276
1894,29.895579,-97.932475,2
1895,29.897822,-97.938325,800
1896,29.885398,-97.93914,2408
1897,29.88764,-97.939234,1612
1898,29.888443,-97.940612,1612
1899,29.890831,-97.940999,1612
1900,29.887845,-97.93802,2317
1901,29.89031,-97.936246,2317
1902,29.886562,-97.941802,1612
1903,29.885175,-97.940808,2408
1904,29.886157,-97.940243,1612
1905,29.886604,-97.940314,1612
1906,29.888282,-97.941299,1612
1907,29.887342,-97.941936,1612
1908,29.88561,-97.937555,2408
1909,29.886856,-97.937814,2317
1910,29.885949,-97.936406,2317
1911,29.8872,-97.937886,2317
1912,29.885461,-97.938676,2408
1913,29.889151,-97.93708,2317
1914,29.895984,-97.941451,800
1915,29.887415,-97.923324,235
1916,29.891811,-97.918543,1160
1917,29.896415,-97.921533,2030
1918,29.88842,-97.917542,1160
1919,29.892288,-97.922507,2030
1920,29.892966,-97.915739,2064
1921,29.892884,-97.917288,2064
1922,29.891351,-97.913416,2064
1923,29.892317,-97.921909,2030
1924,29.893086,-97.91346,2064
1925,29.891997,-97.914136,2064
1926,29.891126,-97.914385,2064
1927,29.885393,-97.925649,235
1928,29.886585,-97.924278,235
1929,29.890532,-97.915493,2064
1930,29.887113,-97.917196,1160
1931,29.896288,-97.915415,374
1932,30.03879,-97.948547,103
1933,30.047178,-97.988048,1949
1934,30.044053,-97.964363,1772
1935,30.084815,-98.013181,494
1936,30.075656,-98.001528,1021
1937,30.12097,-97.966499,65
1938,30.068102,-97.95782,1785
1939,30.059516,-97.989525,207
1940,30.117416,-98.027066,113
1941,30.124197,-98.031112,113
1942,30.131151,-98.015189,2227
1943,30.12078,-97.957285,65
1944,29.938037,-97.893994,2488
1945,29.950238,-97.884295,144
1946,29.94924,-97.87881,144
1947,29.950177,-97.878941,144
1948,29.957876,-97.876596,2171
1949,29.915845,-97.848869,1825
1950,29.926522,-97.83059,971
1951,29.947856,-97.880945,144
1952,29.942481,-97.882516,1477
1953,29.95831,-97.877762,2171
1954,29.959461,-97.877099,2171
1955,29.947617,-97.880283,144
1956,29.94602,-97.844755,1164
1957,29.987605,-97.836644,466
1958,29.997898,-97.850285,813
1959,29.992531,-97.842281,466
1960,29.940408,-97.846714,1164
1961,29.942311,-97.82705,1229
1962,29.952679,-97.837463,59
1963,29.955021,-97.83949,59
1964,29.963873,-97.849113,1208
1965,29.941387,-97.80234,1136
1966,29.953695,-97.808346,1367
1967,29.944065,-97.798207,1136
1968,29.914969,-97.896677,1423
1969,29.925772,-97.891058,727
1970,29.916378,-97.895242,1423
1971,29.922265,-97.892317,727
1972,29.893323,-97.88093,613
1973,29.90875,-97.859715,338
1974,29.916639,-97.878747,841
1975,29.918328,-97.876762,841
1976,29.917495,-97.895689,1423
1977,29.910342,-97.899412,696
1978,29.9187,-97.895591,1423
1979,29.946666,-97.879885,144
1980,29.928819,-97.864431,890
1981,29.92182,-97.856035,890
1982,29.899395,-97.905689,1132
1983,29.901008,-97.904288,1132
1984,29.900499,-97.905254,1132
1985,29.903743,-97.902465,1132
1986,29.895047,-97.899234,72
1987,29.900391,-97.889634,2012
1988,29.902267,-97.90481,1132
1989,29.900165,-97.906472,1132
1990,29.902384,-97.904131,1132
1991,29.894185,-97.900996,72
1992,29.895378,-97.904373,72
1993,29.902694,-97.902857,1132
1994,29.906661,-97.900582,696
1995,29.909831,-97.900124,696
1996,29.907766,-97.900401,696
1997,29.932,-97.888354,185
1998,29.932101,-97.888748,185
1999,29.93194,-97.88714,185
2000,29.942942,-97.88172,1477
2001,29.943195,-97.882564,1477
2002,29.944055,-97.88247,1477
2003,29.926976,-97.86222,890
2004,29.967815,-97.875762,2260
2005,29.969687,-97.89606,464
2006,29.980784,-97.89222,1852
2007,29.988604,-97.877025,38
2008,29.98734,-97.881341,1917
2009,29.980893,-97.88974,1852
2010,29.991005,-97.87655,38
2011,29.998405,-97.875004,1766
2012,29.955968,-97.877251,2171
2013,29.960048,-97.877361,2171
2014,29.961741,-97.879345,390
2015,29.977884,-97.8736,972
2016,29.983903,-97.872529,2459
2017,29.980909,-97.869032,972
2018,29.989237,-97.881134,1917
2019,29.98842,-97.874175,2459
2020,29.979466,-97.874473,972
2021,29.984511,-97.872966,2459
2022,29.976854,-97.873979,972
2023,29.984943,-97.873281,2459
2024,29.978504,-97.874173,972
2025,29.995007,-97.875758,1917
2026,29.993397,-97.880581,1917
2027,29.98998,-97.859024,1942
2028,29.97571,-97.893847,1852
2029,29.991391,-97.883102,1917
2030,29.990351,-97.888739,701
2031,29.98995,-97.885996,701
2032,29.989498,-97.882908,1917
2033,29.964168,-97.87511,390
2034,29.968051,-97.874544,2260
2035,29.967861,-97.875366,2260
2036,29.962752,-97.87637,390
2037,29.96523,-97.875565,390
2038,29.971791,-97.858385,1964
2039,29.973956,-97.874605,2260
2040,29.973379,-97.87508,2260
2041,29.999674,-97.872733,1261
2042,29.994143,-97.870195,1261
2043,29.999144,-97.868018,1261
2044,29.99763,-97.86942,1261
2045,29.999883,-97.868179,1261
2046,30.004292,-97.856041,2341
2047,29.999739,-97.86852,1261
2048,29.998763,-97.869521,1261
2049,30.003548,-97.866759,484
2050,30.005121,-97.865053,484
2051,30.009416,-97.862153,822
2052,30.012584,-97.860204,822
2053,30.013012,-97.861302,822
2054,30.007356,-97.864561,484
2055,29.988217,-97.872226,2459
2056,29.988055,-97.871805,2459
2057,29.988493,-97.87533,38
2058,29.992077,-97.873158,2459
2059,30.005926,-97.864224,484
2060,29.934329,-97.81764,420
2061,29.968192,-97.82357,839
2062,29.95593,-97.810699,1367
2063,29.971545,-97.818273,839
2064,29.976888,-97.808745,1849
2065,29.989278,-97.80845,2334
2066,29.993819,-97.813678,221
2067,29.984568,-97.817677,221
2068,29.961303,-97.832749,2328
2069,29.99912,-97.834605,2172
2070,30.000962,-97.821896,1207
2071,29.965926,-97.795661,2091
2072,29.964911,-97.794449,2091
2073,30.0323,-97.847014,1215
2074,30.041811,-97.842152,2257
2075,30.032835,-97.846357,1215
2076,30.035577,-97.844714,10
2077,30.035737,-97.846154,10
2078,30.056751,-97.844468,898
2079,30.079887,-97.874335,547
2080,30.085233,-97.874376,547
2081,30.057411,-97.859417,1665
2082,30.057888,-97.844172,898
2083,30.085233,-97.849017,1857
2084,30.071266,-97.84389,93
2085,30.038451,-97.84427,10
2086,30.032572,-97.847181,1215
2087,30.040561,-97.843567,10
2088,30.078846,-97.843981,497
2089,30.081515,-97.842408,497
2090,30.072526,-97.855312,93
2091,30.087256,-97.830648,2400
2092,30.07893,-97.823356,2247
2093,30.08137,-97.821978,167
2094,30.070274,-97.810744,606
2095,30.094569,-97.810998,481
2096,30.084451,-97.781297,2290
2097,30.086583,-97.848656,1857
2098,30.081757,-97.823239,167
2099,30.079485,-97.824447,2247
2100,30.08252,-97.822475,167
2101,30.076016,-97.825784,2247
2102,30.082232,-97.822216,167
2103,30.077746,-97.824566,2247
2104,30.092478,-97.848376,1857
2105,30.141052,-97.839895,233
2106,30.140901,-97.846645,233
2107,30.042635,-97.884639,1863
2108,30.049961,-97.874437,1506
2109,30.02744,-97.88916,1426
2110,30.027821,-97.874967,239
2111,30.034703,-97.874957,239
2112,30.019116,-97.899698,1933
2113,30.021271,-97.854719,180
2114,30.029776,-97.848174,1215
2115,30.029759,-97.849023,1215
2116,30.02232,-97.853646,180
2117,30.022693,-97.854123,180
2118,30.01694,-97.858252,822
2119,30.068251,-97.873629,2300
2120,30.104231,-97.874942,143
2121,30.092148,-97.874553,1711
2122,30.097269,-97.874777,1711
2123,30.095573,-97.891498,549
2124,30.114723,-97.874813,1385
2125,30.124805,-97.862555,801
2126,30.100671,-97.848911,1203
2127,30.100605,-97.860949,1036
2128,30.117934,-97.872072,1385
2129,30.048613,-97.838751,1135
2130,30.044463,-97.840432,2257
2131,30.04977,-97.837808,1135
2132,30.030178,-97.8244,1780
2133,30.024867,-97.789988,181
2134,30.058252,-97.821052,401
2135,30.046184,-97.80319,2074
2136,30.0519,-97.838021,1135
2137,30.046293,-97.840771,2257
2138,30.050612,-97.838215,1135
2139,30.046387,-97.840289,2257
2140,30.058509,-97.803453,646
2141,30.071613,-97.821368,916
2142,30.039995,-97.842572,10
2143,30.04291,-97.842069,2257
2144,30.041884,-97.842901,2257
2145,30.066202,-97.843692,93
2146,30.058164,-97.833704,719
2147,30.062222,-97.831705,719
2148,30.070839,-97.827419,916
2149,30.057803,-97.840129,898
2150,30.07068,-97.828798,916
2151,30.07683,-97.834637,1699
2152,30.077186,-97.82572,2247
2153,30.065182,-97.821221,401
2154,30.062529,-97.832814,719
2155,30.07175,-97.82791,916
2156,30.062354,-97.832455,719
2157,30.075844,-97.825589,2247
2158,30.057454,-97.834413,719
2159,30.057939,-97.836082,719
2160,30.076801,-97.835362,1699
2161,30.077202,-97.824359,2247
2162,30.077346,-97.821442,2247
2163,30.06067,-97.804117,646
2164,30.070329,-97.806658,606
2165,30.094963,-97.813585,481
2166,30.099335,-97.811285,481
2167,30.098435,-97.81269,481
2168,30.108909,-97.807884,702
2169,30.112057,-97.808283,702
2170,30.108447,-97.8089,702
2171,30.09896,-97.813399,481
2172,30.118369,-97.804675,42
2173,30.109649,-97.809274,702
2174,30.099359,-97.81391,481
2175,30.114252,-97.804835,1984
2176,30.112147,-97.805531,1984
2177,30.115732,-97.805049,42
2178,30.117582,-97.805905,42
2179,30.142797,-97.802155,2431
2180,30.140481,-97.822986,600
2181,30.112819,-97.795296,1181
2182,30.088967,-97.819233,1315
2183,30.097371,-97.814901,481
2184,30.086778,-97.820047,1315
2185,30.095201,-97.81455,481
2186,30.088498,-97.817877,1315
2187,30.095267,-97.815648,481
2188,30.08977,-97.817858,1315
2189,30.094513,-97.794342,1234
2190,30.100245,-97.781725,276
2191,30.109372,-97.806761,702
2192,30.112981,-97.792339,1181
2193,30.130465,-97.798256,1374
2194,30.129586,-97.799486,1374
2195,30.136987,-97.798363,914
2196,30.126556,-97.802268,1374
2197,30.138052,-97.796223,914
2198,30.138468,-97.795207,914
2199,30.129632,-97.800342,1374
2200,30.13634,-97.796009,914
2201,30.141058,-97.7951,914
2202,30.125677,-97.801787,1374
2203,30.136175,-97.791399,914
2204,30.290398,-98.020961,1518
2205,30.187541,-97.912924,2004
2206,30.182088,-97.89988,1390
2207,30.203564,-97.915917,2023
2208,30.218164,-97.894051,1172
2209,30.234304,-97.910849,834
2210,30.230046,-97.895393,706
2211,30.275312,-97.91381,295
2212,30.28033,-97.904212,1171
2213,30.307708,-97.927441,2376
2214,30.307834,-97.892772,2037
2215,30.289788,-97.917446,986
2216,30.181256,-97.90037,1390
2217,30.186433,-97.913792,2004
2218,30.201796,-97.918388,2023
2219,30.260021,-97.907067,2467
2220,30.251859,-97.918722,1316
2221,30.282704,-97.876244,678
2222,30.2734,-97.862617,206
2223,30.284143,-97.875022,678
2224,30.277539,-97.819556,1726
2225,30.27584,-97.815575,1726
2226,30.283842,-97.824162,848
2227,30.276482,-97.803384,953
2228,30.279916,-97.807103,953
2229,30.262313,-97.888867,755
2230,30.386976,-97.903719,1107
2231,30.281131,-97.842637,823
2232,30.269707,-97.850778,1713
2233,30.274195,-97.812513,501
2234,30.272939,-97.798176,1283
2235,30.215547,-98.02279,492
2236,30.196676,-98.013609,142
2237,30.179153,-97.965435,1187
2238,30.228909,-97.95054,645
2239,30.208494,-97.972777,1097
2240,30.215089,-97.964775,188
2241,30.196532,-97.997346,1141
2242,30.217079,-97.962868,188
2243,30.233343,-97.980853,1664
2244,30.221726,-97.955777,1003
2245,30.153427,-98.008778,387
2246,30.167389,-98.008567,1553
2247,30.178509,-98.002331,1228
2248,30.194559,-98.029824,1548
2249,30.153575,-97.994535,1793
2250,30.23749,-98.026025,485
2251,30.24336,-98.021496,485
2252,30.217224,-98.02376,492
2253,30.234439,-98.005382,1293
2254,30.232748,-97.991675,296
2255,30.231634,-97.999975,1293
2256,30.180144,-97.966104,1187
2257,30.174159,-97.929221,5
2258,30.161605,-97.952457,1291
2259,30.189131,-97.926918,704
2260,30.197962,-97.920828,2023
2261,30.194456,-97.923225,704
2262,30.193069,-97.924096,704
2263,30.225762,-97.946665,645
2264,30.230666,-97.931553,60
2265,30.241088,-97.94163,1139
2266,30.240527,-97.920292,1194
2267,30.246061,-97.92715,2127
2268,30.241424,-97.940784,1139
2269,30.223176,-97.952875,1003
2270,30.231228,-97.928424,60
2271,30.238639,-97.918139,1194
2272,30.303727,-97.997469,287
2273,30.306929,-97.970205,710
2274,30.315871,-97.97799,1288
2275,30.309794,-97.965369,710
2276,30.334263,-97.968559,1149
2277,30.357365,-97.978713,2015
2278,30.354141,-97.96117,2412
2279,30.354964,-97.986207,2015
2280,30.308263,-97.94502,376
2281,30.304819,-97.935671,145
2282,30.307893,-97.956127,376
2283,30.32185,-97.955313,891
2284,30.359059,-97.954035,695
2285,30.391435,-97.937119,554
2286,30.153247,-97.833034,1317
2287,30.183334,-97.849577,1813
2288,30.190407,-97.845121,713
2289,30.210837,-97.858899,1657
2290,30.218765,-97.838342,2003
2291,30.21052,-97.858555,1657
2292,30.217492,-97.838693,2003
2293,30.202866,-97.837208,1789
2294,30.214383,-97.850213,22
2295,30.208101,-97.888666,254
2296,30.219574,-97.843778,1668
2297,30.232333,-97.840227,956
2298,30.227366,-97.831071,744
2299,30.248549,-97.850943,624
2300,30.245545,-97.845201,2389
2301,30.169901,-97.859566,77
2302,30.176355,-97.835481,1779
2303,30.211092,-97.831757,2255
2304,30.21668,-97.845643,22
2305,30.211544,-97.825433,1001
2306,30.213668,-97.830107,2255
2307,30.218339,-97.805362,1959
2308,30.213589,-97.814537,375
2309,30.215206,-97.797393,1351
2310,30.213555,-97.794039,1351
2311,30.223141,-97.841448,1668
2312,30.224641,-97.85483,1754
2313,30.233736,-97.84074,956
2314,30.23635,-97.832664,244
2315,30.236609,-97.83963,2115
2316,30.237141,-97.831908,244
2317,30.237639,-97.83963,2115
2318,30.206976,-97.815059,2249
2319,30.208596,-97.80447,1667
2320,30.213597,-97.850916,22
2321,30.204062,-97.858604,782
2322,30.206944,-97.84541,1481
2323,30.23683,-97.837139,2115
2324,30.237161,-97.837182,2115
2325,30.23695,-97.842302,2115
2326,30.236655,-97.842259,2115
2327,30.174337,-97.888236,519
2328,30.180271,-97.878955,812
2329,30.199346,-97.867275,479
2330,30.180052,-97.878449,812
2331,30.185813,-97.874961,1529
2332,30.199122,-97.865671,479
2333,30.200434,-97.877747,357
2334,30.175337,-97.85482,1813
2335,30.190033,-97.89058,195
2336,30.188385,-97.89214,195
2337,30.157165,-97.859768,1823
2338,30.16629,-97.860619,77
2339,30.165113,-97.860279,77
2340,30.193757,-97.85882,1456
2341,30.199057,-97.871973,479
2342,30.198771,-97.852364,2403
2343,30.207564,-97.860569,1657
2344,30.20827,-97.861604,1657
2345,30.220789,-97.872676,872
2346,30.23047,-97.87927,261
2347,30.227623,-97.872836,872
2348,30.243252,-97.883117,108
2349,30.247218,-97.888438,1837
2350,30.240749,-97.880658,108
2351,30.236775,-97.877965,1396
2352,30.243905,-97.879527,108
2353,30.25574,-97.890434,755
2354,30.242347,-97.878275,108
2355,30.2569,-97.871023,1685
2356,30.245212,-97.864037,1795
2357,30.244091,-97.863216,1795
2358,30.240407,-97.8914,1451
2359,30.236802,-97.8836,108
2360,30.221946,-97.892219,1172
2361,30.236646,-97.900652,2464
2362,30.238761,-97.890584,1451
2363,30.260195,-97.902225,2275
2364,30.256776,-97.893795,755
2365,30.257265,-97.88907,755
2366,30.25114,-97.896549,755
2367,30.257047,-97.904199,435
2368,30.216061,-97.8624,2137
2369,30.220274,-97.85766,1169
2370,30.225608,-97.868584,872
2371,30.229763,-97.864518,2025
2372,30.227832,-97.861267,1169
2373,30.222852,-97.862833,1169
2374,30.227426,-97.860449,1169
2375,30.236052,-97.854532,333
2376,30.23514,-97.854813,333
2377,30.223181,-97.871649,872
2378,30.223243,-97.863618,1169
2379,30.217862,-97.852537,22
2380,30.223843,-97.855347,1754
2381,30.218741,-97.854334,22
2382,30.273753,-97.856936,206
2383,30.251431,-97.85779,624
2384,30.254374,-97.864878,1685
2385,30.249645,-97.853226,624
2386,30.173459,-97.823559,1998
2387,30.179605,-97.819921,930
2388,30.173662,-97.816884,1998
2389,30.173886,-97.809477,709
2390,30.176355,-97.832375,1779
2391,30.185679,-97.816079,2081
2392,30.185283,-97.810546,2081
2393,30.179238,-97.795686,16
2394,30.180182,-97.79517,16
2395,30.182422,-97.788699,1683
2396,30.172747,-97.785005,784
2397,30.199803,-97.80716,183
2398,30.191134,-97.812608,2081
2399,30.202665,-97.806668,183
2400,30.180485,-97.802237,2026
2401,30.180831,-97.807529,709
2402,30.178514,-97.808159,709
2403,30.177279,-97.803448,709
2404,30.202762,-97.812793,2249
2405,30.18864,-97.828925,248
2406,30.176355,-97.833872,1779
2407,30.1607,-97.802057,1702
2408,30.164189,-97.830006,493
2409,30.169231,-97.825103,1998
2410,30.187778,-97.827104,248
2411,30.194472,-97.830519,248
2412,30.199763,-97.820203,576
2413,30.201214,-97.838303,1789
2414,30.195122,-97.842094,713
2415,30.191706,-97.814837,2081
2416,30.197267,-97.816427,576
2417,30.195762,-97.821196,576
2418,30.189681,-97.824843,248
2419,30.198839,-97.819117,576
2420,30.172226,-97.799273,1894
2421,30.166962,-97.788279,784
2422,30.173904,-97.798642,1894
2423,30.174077,-97.790784,16
2424,30.163204,-97.788333,424
2425,30.155768,-97.790981,1889
2426,30.162464,-97.78959,424
2427,30.166939,-97.787129,784
2428,30.160891,-97.787557,424
2429,30.162002,-97.787985,424
2430,30.173786,-97.80677,709
2431,30.157098,-97.79141,1889
2432,30.149732,-97.793656,208
2433,30.156987,-97.788798,1889
2434,30.165459,-97.787076,784
2435,30.185486,-97.802486,2026
2436,30.183698,-97.792438,1683
2437,30.198722,-97.791851,1310
2438,30.192877,-97.790057,2092
2439,30.194474,-97.783017,652
2440,30.19698,-97.787501,2092
2441,30.199096,-97.793366,1310
2442,30.200171,-97.798499,183
2443,30.194362,-97.789132,2092
2444,30.207745,-97.794017,1880
2445,30.202191,-97.804482,183
2446,30.199384,-97.805942,183
2447,30.198903,-97.802201,183
2448,30.189777,-97.790227,2092
2449,30.182928,-97.786171,1683
2450,30.191804,-97.783996,652
2451,30.180322,-97.790013,1683
2452,30.183114,-97.781832,1134
2453,30.204353,-97.791199,1880
2454,30.21132,-97.789122,283
2455,30.210516,-97.786904,283
2456,30.198363,-97.790864,1310
2457,30.202228,-97.784275,2191
2458,30.205473,-97.790072,1880
2459,30.209203,-97.784479,283
2460,30.222801,-97.805243,1959
2461,30.22805,-97.809223,634
2462,30.233858,-97.821453,1799
2463,30.23245,-97.808305,2374
2464,30.232666,-97.818097,1799
2465,30.231455,-97.806939,2374
2466,30.238975,-97.819349,85
2467,30.244234,-97.808808,456
2468,30.240218,-97.82839,244
2469,30.238702,-97.82134,1047
2470,30.257974,-97.812264,2399
2471,30.218583,-97.806739,1959
2472,30.215003,-97.813629,375
2473,30.23355,-97.810437,1466
2474,30.236386,-97.825435,1047
2475,30.233955,-97.810455,1466
2476,30.233651,-97.818327,1799
2477,30.244695,-97.807022,456
2478,30.24515,-97.80612,456
2479,30.237759,-97.820834,1047
2480,30.243412,-97.782109,949
2481,30.245978,-97.807716,456
2482,30.249719,-97.806316,456
2483,30.251923,-97.802314,1656
2484,30.263752,-97.816613,788
2485,30.218206,-97.82717,2226
2486,30.233436,-97.826613,1047
2487,30.227029,-97.830077,744
2488,30.232864,-97.825502,1047
2489,30.23606,-97.829883,244
2490,30.235193,-97.825605,1047
2491,30.236837,-97.825746,1047
2492,30.236089,-97.824203,1047
2493,30.219506,-97.826329,2226
2494,30.236495,-97.830177,244
2495,30.236772,-97.830217,244
2496,30.231272,-97.827504,744
2497,30.222202,-97.835212,399
2498,30.221992,-97.834969,399
2499,30.231272,-97.826983,744
2500,30.219835,-97.836259,399
2501,30.220703,-97.836875,399
2502,30.217456,-97.834436,2003
2503,30.23648,-97.824848,1047
2504,30.237683,-97.823722,1047
2505,30.234639,-97.824175,1047
2506,30.236251,-97.822684,1047
2507,30.237186,-97.821308,1047
2508,30.237333,-97.822571,1047
2509,30.237105,-97.822005,1047
2510,30.234337,-97.820512,1799
2511,30.23579,-97.823091,1047
2512,30.260888,-97.814364,1718
2513,30.263578,-97.816797,788
2514,30.266143,-97.817979,788
2515,30.2716,-97.817588,501
2516,30.271717,-97.817882,501
2517,30.267828,-97.81834,788
2518,30.265414,-97.818023,788
2519,30.218078,-97.795323,1351
2520,30.227708,-97.808527,634
2521,30.232107,-97.800515,1581
2522,30.233286,-97.796057,2167
2523,30.232689,-97.798636,1581
2524,30.235575,-97.793702,2167
2525,30.23398,-97.797025,2167
2526,30.23697,-97.798816,507
2527,30.232953,-97.794725,2167
2528,30.220448,-97.793757,1351
2529,30.222744,-97.798451,776
2530,30.229003,-97.801013,1581
2531,30.230355,-97.789878,40
2532,30.223115,-97.799201,776
2533,30.230378,-97.788003,40
2534,30.229342,-97.78654,40
2535,30.234377,-97.796031,2167
2536,30.235927,-97.79778,507
2537,30.232603,-97.800213,1581
2538,30.235198,-97.794501,2167
2539,30.233339,-97.798214,1581
2540,30.232583,-97.793235,2167
2541,30.229617,-97.788557,40
2542,30.228047,-97.801512,1581
2543,30.228254,-97.789269,40
2544,30.229025,-97.799467,1581
2545,30.230386,-97.793822,2167
2546,30.230122,-97.797975,1581
2547,30.217546,-97.801713,1959
2548,30.225331,-97.803685,634
2549,30.231462,-97.804014,2374
2550,30.231804,-97.804853,2374
2551,30.232967,-97.800718,1581
2552,30.232413,-97.80632,2374
2553,30.232432,-97.807216,2374
2554,30.238041,-97.798967,507
2555,30.232875,-97.808476,1466
2556,30.233151,-97.807964,2374
2557,30.232009,-97.806884,2374
2558,30.237916,-97.79928,507
2559,30.225517,-97.790699,40
2560,30.236651,-97.792052,1901
2561,30.237902,-97.789945,1901
2562,30.233587,-97.785525,2220
2563,30.230721,-97.789249,40
2564,30.232393,-97.792418,2167
2565,30.236646,-97.78352,2220
2566,30.233574,-97.794596,2167
2567,30.23119,-97.791055,40
2568,30.233917,-97.795234,2167
2569,30.260056,-97.805347,2319
2570,30.261715,-97.80888,2399
2571,30.256001,-97.80054,1656
2572,30.260262,-97.794047,331
2573,30.258713,-97.79617,331
2574,30.260209,-97.79324,331
2575,30.260195,-97.810167,2399
2576,30.258993,-97.797666,331
2577,30.272563,-97.797651,1283
2578,30.270391,-97.791447,1283
2579,30.263095,-97.788804,627
2580,30.260676,-97.794025,331
2581,30.25742,-97.799849,2319
2582,30.26073,-97.792218,627
2583,30.262343,-97.789257,627
2584,30.266681,-97.805797,158
2585,30.262226,-97.791986,627
2586,30.263327,-97.789245,627
2587,30.24763,-97.804075,2420
2588,30.251005,-97.806613,980
2589,30.252168,-97.805827,980
2590,30.255017,-97.803706,1656
2591,30.258601,-97.802677,2319
2592,30.250175,-97.802627,1656
2593,30.253313,-97.801443,1656
2594,30.255686,-97.803534,2319
2595,30.256627,-97.802043,2319
2596,30.272874,-97.801035,1283
2597,30.274274,-97.80014,1283
2598,30.252789,-97.784927,2311
2599,30.264663,-97.78723,627
2600,30.26362,-97.787056,627
2601,30.266277,-97.782899,911
2602,30.264301,-97.788165,627
2603,30.263404,-97.789885,627
2604,30.264583,-97.784744,911
2605,30.265011,-97.786332,911
2606,30.289039,-97.86919,1586
2607,30.303022,-97.843429,941
2608,30.33747,-97.864691,2170
2609,30.341261,-97.881847,105
2610,30.35662,-97.832265,1828
2611,30.394252,-97.845181,29
2612,30.398789,-97.844551,29
2613,30.309888,-97.844822,941
2614,30.313104,-97.852347,580
2615,30.370289,-97.860451,2251
2616,30.312663,-97.881033,298
2617,30.316056,-97.872294,1732
2618,30.331027,-97.885542,2142
2619,30.322847,-97.87288,1732
2620,30.377304,-97.884445,1497
2621,30.377412,-97.879879,1497
2622,30.382368,-97.871525,2469
2623,30.394185,-97.868841,1156
2624,30.389427,-97.882163,288
2625,30.394712,-97.866069,1156
2626,30.283109,-97.810687,953
2627,30.298997,-97.81519,1494
2628,30.298207,-97.802389,1759
2629,30.314974,-97.826522,2232
2630,30.309577,-97.826156,874
2631,30.316063,-97.825211,2232
2632,30.309545,-97.825762,874
2633,30.321072,-97.816305,397
2634,30.290013,-97.819354,2358
2635,30.310491,-97.801552,1791
2636,30.308132,-97.796794,586
2637,30.313248,-97.79433,586
2638,30.322091,-97.815584,397
2639,30.305985,-97.782053,1043
2640,30.300892,-97.839075,941
2641,30.295865,-97.82877,2014
2642,30.283963,-97.832888,1659
2643,30.293077,-97.82808,44
2644,30.298267,-97.827853,2014
2645,30.295467,-97.827438,2014
2646,30.29285,-97.822481,2358
2647,30.299516,-97.818977,1494
2648,30.293223,-97.82844,44
2649,30.297657,-97.828157,2014
2650,30.281643,-97.842091,823
2651,30.284166,-97.83342,1659
2652,30.304314,-97.840649,941
2653,30.290327,-97.828309,44
2654,30.287733,-97.826976,848
2655,30.305178,-97.825485,874
2656,30.30455,-97.825413,874
2657,30.292344,-97.797985,326
2658,30.289988,-97.790063,1756
2659,30.304525,-97.794835,1759
2660,30.290906,-97.801329,326
2661,30.281367,-97.808305,953
2662,30.291352,-97.782574,1756
2663,30.303467,-97.786596,1043
2664,30.316944,-97.792957,586
2665,30.321771,-97.794192,1475
2666,30.333169,-97.792225,269
2667,30.332832,-97.800471,792
2668,30.328719,-97.790419,269
2669,30.323684,-97.794141,1475
2670,30.331043,-97.788907,269
2671,30.335185,-97.806284,792
2672,30.334512,-97.804247,792
2673,30.331682,-97.789923,269
2674,30.379096,-97.827727,514
2675,30.365612,-97.79694,1874
2676,30.364429,-97.828657,2476
2677,30.369555,-97.801644,1874
2678,30.377974,-97.796726,88
2679,30.37739,-97.805007,88
2680,30.387687,-97.824323,1273
2681,30.392014,-97.838754,2196
2682,30.359284,-97.79047,1248
2683,30.366071,-97.789691,2244
2684,30.35956,-97.792073,1248
2685,30.356715,-97.792832,289
2686,30.363111,-97.790418,1248
2687,30.356539,-97.792341,289
2688,30.385861,-97.798527,1204
2689,30.021253,-97.742644,1449
2690,30.009015,-97.72796,526
2691,30.024991,-97.699893,1850
2692,30.091222,-97.655379,1092
2693,30.099121,-97.636677,489
2694,30.126139,-97.640916,934
2695,30.110472,-97.65021,1012
2696,30.112969,-97.649334,1012
2697,29.994679,-97.749232,821
2698,29.97976,-97.764403,1007
2699,30.061381,-97.7375,584
2700,30.063897,-97.710553,2253
2701,30.079628,-97.754532,1514
2702,30.089855,-97.734261,418
2703,30.080573,-97.735104,2430
2704,30.088539,-97.71432,1285
2705,30.09333,-97.693648,1332
2706,30.120769,-97.714933,590
2707,30.112132,-97.694721,260
2708,30.069984,-97.685891,1347
2709,30.081814,-97.665963,668
2710,30.08621,-97.671268,668
2711,30.108393,-97.722686,1792
2712,30.089301,-97.693484,1332
2713,30.128798,-97.709943,1748
2714,30.032842,-97.767823,1387
2715,30.024813,-97.746917,1449
2716,30.076519,-97.748151,199
2717,30.074841,-97.735035,880
2718,30.046374,-97.755827,602
2719,30.058424,-97.746461,2264
2720,30.066423,-97.732168,880
2721,30.100159,-97.755922,770
2722,30.126941,-97.774975,1590
2723,30.111202,-97.749035,1250
2724,30.106093,-97.738208,1046
2725,30.133965,-97.755881,736
2726,30.114963,-97.746603,1250
2727,30.123976,-97.740532,2011
2728,30.113733,-97.719341,590
2729,30.093566,-97.761764,2424
2730,30.138118,-97.773374,734
2731,30.100934,-97.727371,1792
2732,30.135335,-97.733256,75
2733,30.058231,-97.703773,2047
2734,30.027369,-97.688502,309
2735,30.098475,-97.683197,2078
2736,30.106732,-97.674058,771
2737,30.115064,-97.694848,260
2738,30.12938,-97.683977,740
2739,30.135807,-97.680223,1409
2740,30.121538,-97.667553,1232
2741,30.097144,-97.684563,2078
2742,30.119328,-97.690349,260
2743,30.106856,-97.694471,2080
2744,30.129184,-97.69566,1057
2745,30.095123,-97.660082,1092
2746,30.138109,-97.678447,1409
2747,30.120507,-97.634975,934
2748,30.109931,-97.622726,1299
2749,30.141786,-97.615924,1968
2750,30.132645,-97.621771,448
2751,30.104783,-97.628491,1299
2752,30.274283,-97.771166,1768
2753,30.279042,-97.767623,612
2754,30.2773,-97.770504,1768
2755,30.278347,-97.772898,1768
2756,30.275636,-97.76678,2452
2757,30.278952,-97.767164,612
2758,30.275212,-97.765354,2452
2759,30.279888,-97.758443,2179
2760,30.276683,-97.751107,1953
2761,30.277965,-97.750506,1953
2762,30.27809,-97.744172,2198
2763,30.277798,-97.736099,1673
2764,30.278945,-97.724252,1218
2765,30.279808,-97.718872,1218
2766,30.277082,-97.716191,132
2767,30.280124,-97.716795,132
2768,30.190898,-97.647323,1783
2769,30.280604,-97.713907,132
2770,30.283767,-97.656039,1259
2771,30.278209,-97.768537,612
2772,30.276552,-97.76984,1768
2773,30.280874,-97.768257,612
2774,30.28204,-97.766402,612
2775,30.277098,-97.768748,2452
2776,30.278562,-97.74592,2198
2777,30.277598,-97.746279,2198
2778,30.277633,-97.742615,1467
2779,30.276069,-97.743195,1467
2780,30.276807,-97.739643,334
2781,30.276002,-97.736773,2366
2782,30.278717,-97.731664,454
2783,30.277162,-97.73278,1673
2784,30.278471,-97.73074,454
2785,30.275649,-97.731733,1078
2786,30.279502,-97.729157,454
2787,30.273559,-97.731662,1078
2788,30.280034,-97.729494,454
2789,30.278252,-97.728161,454
2790,30.274963,-97.729499,1078
2791,30.28001,-97.728054,454
2792,30.272944,-97.731,1078
2793,30.280392,-97.727442,454
2794,30.279509,-97.720765,1218
2795,30.276829,-97.72021,132
2796,30.275982,-97.70408,1074
2797,30.279486,-97.701825,760
2798,30.276636,-97.699985,542
2799,30.278268,-97.69086,542
2800,30.27744,-97.695931,542
2801,30.278712,-97.686804,426
2802,30.275847,-97.688679,1560
2803,30.282652,-97.653111,1259
2804,30.280765,-97.648133,1259
2805,30.292329,-97.653084,1941
2806,30.299934,-97.648122,937
2807,30.352318,-97.646396,473
2808,30.389402,-97.656381,447
2809,30.38679,-97.648404,853
2810,30.155885,-97.638011,495
2811,30.161242,-97.649013,1108
2812,30.18045,-97.64624,2045
2813,30.166537,-97.65984,978
2814,30.278334,-97.641634,805
2815,30.276595,-97.636962,805
2816,30.285972,-97.630927,446
2817,30.280296,-97.609429,2134
2818,30.27574,-97.59952,415
2819,30.28876,-97.574784,2413
2820,30.267849,-97.5478,1996
2821,30.302651,-97.653749,1168
2822,30.328642,-97.654765,1744
2823,30.333212,-97.652719,1211
2824,30.336064,-97.65136,1211
2825,30.377272,-97.658636,1954
2826,30.276726,-97.739351,334
2827,30.27895,-97.738418,334
2828,30.277378,-97.741699,1467
2829,30.279511,-97.740918,334
2830,30.275694,-97.735708,2366
2831,30.279407,-97.734201,1673
2832,30.283954,-97.656965,1259
2833,30.276671,-97.659168,55
2834,30.278136,-97.662454,55
2835,30.279302,-97.673771,1023
2836,30.279751,-97.680314,426
2837,30.274242,-97.680401,1023
2838,30.278018,-97.684679,426
2839,30.211935,-97.657026,629
2840,30.202928,-97.639066,169
2841,30.337559,-97.719007,998
2842,30.387485,-97.64909,853
2843,30.384563,-97.644702,853
2844,30.209457,-97.652986,629
2845,30.209191,-97.653118,629
2846,30.211133,-97.657961,629
2847,30.208625,-97.7725,987
2848,30.214937,-97.768502,663
2849,30.179253,-97.720695,921
2850,30.189539,-97.703901,1002
2851,30.212605,-97.745592,2145
2852,30.212424,-97.736708,1921
2853,30.205211,-97.716385,2079
2854,30.203097,-97.712016,2079
2855,30.21781,-97.774575,1777
2856,30.205546,-97.759339,1677
2857,30.212804,-97.754536,98
2858,30.209693,-97.756356,98
2859,30.213221,-97.753358,1888
2860,30.208861,-97.756035,98
2861,30.212735,-97.752689,1888
2862,30.210491,-97.754054,98
2863,30.212319,-97.7521,1888
2864,30.211787,-97.752395,1888
2865,30.209953,-97.74713,2145
2866,30.206682,-97.740275,730
2867,30.214518,-97.735299,1921
2868,30.208496,-97.723017,1210
2869,30.22924,-97.712447,1419
2870,30.230142,-97.714194,1419
2871,30.242277,-97.716967,262
2872,30.252756,-97.712431,1805
2873,30.25478,-97.718293,1069
2874,30.25639,-97.710716,1805
2875,30.261275,-97.717085,2404
2876,30.259778,-97.709095,509
2877,30.261683,-97.716147,2404
2878,30.263203,-97.712655,509
2879,30.270125,-97.714709,1361
2880,30.270516,-97.712249,2028
2881,30.158589,-97.728433,265
2882,30.172365,-97.700983,434
2883,30.172286,-97.721729,921
2884,30.214782,-97.710248,608
2885,30.23855,-97.719287,262
2886,30.253619,-97.711994,1805
2887,30.255881,-97.718546,1069
2888,30.273736,-97.715494,1361
2889,30.274602,-97.712717,2028
2890,30.274147,-97.715578,1361
2891,30.210789,-97.748887,2145
2892,30.208545,-97.744127,2145
2893,30.213391,-97.745062,892
2894,30.214327,-97.766695,663
2895,30.207615,-97.765238,1355
2896,30.205739,-97.769721,987
2897,30.213517,-97.733596,1921
2898,30.21865,-97.717933,372
2899,30.21391,-97.701229,1432
2900,30.211305,-97.712535,608
2901,30.212359,-97.711892,608
2902,30.216178,-97.665134,218
2903,30.212026,-97.714789,1747
2904,30.211582,-97.709216,608
2905,30.212058,-97.709253,608
2906,30.212438,-97.714752,1747
2907,30.215163,-97.698437,1432
2908,30.213843,-97.661824,629
2909,30.2136,-97.662104,629
2910,30.21491,-97.73356,1921
2911,30.212168,-97.717869,1747
2912,30.213182,-97.717795,1747
2913,30.212153,-97.70643,608
2914,30.213072,-97.70698,608
2915,30.215511,-97.698621,1432
2916,30.220985,-97.676929,1308
2917,30.186796,-97.773082,292
2918,30.177514,-97.769536,2085
2919,30.183475,-97.768677,2085
2920,30.159699,-97.759613,1277
2921,30.158249,-97.745726,2252
2922,30.184813,-97.756169,2130
2923,30.184613,-97.768251,2085
2924,30.173972,-97.741951,1774
2925,30.186753,-97.774095,292
2926,30.184933,-97.744809,1689
2927,30.200126,-97.741997,730
2928,30.179624,-97.74658,1689
2929,30.172862,-97.751399,877
2930,30.196782,-97.743914,281
2931,30.201675,-97.751597,2086
2932,30.193563,-97.749468,1303
2933,30.193815,-97.744422,281
2934,30.186709,-97.751639,2436
2935,30.169612,-97.745832,877
2936,30.170586,-97.752905,877
2937,30.180834,-97.750023,1689
2938,30.179624,-97.75661,141
2939,30.180521,-97.76206,141
2940,30.157315,-97.769031,394
2941,30.165894,-97.769101,1938
2942,30.160402,-97.769391,394
2943,30.170108,-97.768355,1938
2944,30.197649,-97.776586,2490
2945,30.188966,-97.767462,2199
2946,30.187447,-97.76254,2130
2947,30.192625,-97.768854,2199
2948,30.198488,-97.764091,1355
2949,30.190751,-97.771316,2199
2950,30.198881,-97.764733,1355
2951,30.197713,-97.762753,1355
2952,30.192532,-97.769871,2199
2953,30.200095,-97.763796,1355
2954,30.200477,-97.762512,1355
2955,30.195427,-97.764599,455
2956,30.203414,-97.759112,1677
2957,30.192255,-97.768212,2199
2958,30.193442,-97.75189,1303
2959,30.194952,-97.757931,1303
2960,30.200557,-97.753974,2086
2961,30.182765,-97.760827,141
2962,30.181699,-97.764201,2085
2963,30.187735,-97.773447,292
2964,30.18712,-97.771021,292
2965,30.186796,-97.772118,292
2966,30.185189,-97.772304,292
2967,30.190404,-97.77062,2199
2968,30.191645,-97.774397,2199
2969,30.18971,-97.769175,2199
2970,30.191283,-97.767944,2199
2971,30.193356,-97.766271,455
2972,30.192585,-97.76472,455
2973,30.201081,-97.769338,2490
2974,30.203904,-97.765663,1355
2975,30.193329,-97.754146,1303
2976,30.191947,-97.748455,281
2977,30.186275,-97.758745,2130
2978,30.205669,-97.758283,1677
2979,30.204917,-97.756918,1677
2980,30.202489,-97.758898,1677
2981,30.210792,-97.75301,98
2982,30.203236,-97.753715,2086
2983,30.165435,-97.74138,1774
2984,30.162431,-97.735733,265
2985,30.159963,-97.736012,265
2986,30.162941,-97.725755,1372
2987,30.166247,-97.736779,1774
2988,30.168772,-97.738198,1774
2989,30.194831,-97.737524,1504
2990,30.198516,-97.73521,1504
2991,30.183938,-97.744425,1689
2992,30.193114,-97.738624,1504
2993,30.189512,-97.740932,281
2994,30.187287,-97.74233,281
2995,30.188594,-97.745234,281
2996,30.184367,-97.744456,1689
2997,30.190794,-97.744502,281
2998,30.201952,-97.742026,730
2999,30.246417,-97.768935,211
3000,30.244162,-97.764886,2122
3001,30.215595,-97.749437,1888
3002,30.216208,-97.743861,892
3003,30.222241,-97.748085,476
3004,30.226878,-97.745301,1444
3005,30.223675,-97.748112,476
3006,30.222218,-97.746211,476
3007,30.244504,-97.757351,429
3008,30.246369,-97.756137,912
3009,30.229559,-97.744644,2443
3010,30.236584,-97.74855,1592
3011,30.233874,-97.741993,745
3012,30.245581,-97.753343,912
3013,30.244013,-97.75133,912
3014,30.244906,-97.750998,912
3015,30.234455,-97.741698,745
3016,30.244336,-97.757454,429
3017,30.243417,-97.763581,2122
3018,30.252084,-97.748325,2301
3019,30.256886,-97.746562,559
3020,30.25834,-97.748045,559
3021,30.258882,-97.745798,559
3022,30.260412,-97.745264,559
3023,30.268103,-97.747413,237
3024,30.267783,-97.746287,1538
3025,30.275468,-97.747072,1953
3026,30.275151,-97.745968,1467
3027,30.219391,-97.747937,476
3028,30.220853,-97.747121,476
3029,30.227688,-97.745702,1444
3030,30.226161,-97.744819,1444
3031,30.221709,-97.747469,476
3032,30.238012,-97.745263,745
3033,30.239417,-97.747327,1592
3034,30.244258,-97.745091,1671
3035,30.245881,-97.750651,912
3036,30.242209,-97.736312,2031
3037,30.246302,-97.735297,1019
3038,30.244603,-97.730201,658
3039,30.247625,-97.733949,1019
3040,30.241989,-97.739073,148
3041,30.243388,-97.736482,2031
3042,30.245383,-97.735998,1019
3043,30.249646,-97.735046,1019
3044,30.243739,-97.734619,2031
3045,30.244364,-97.733628,2031
3046,30.26374,-97.746417,2295
3047,30.264089,-97.747649,2295
3048,30.265967,-97.746952,2295
3049,30.269688,-97.745592,1538
3050,30.270073,-97.746957,237
3051,30.271522,-97.744895,237
3052,30.272419,-97.748213,237
3053,30.26867,-97.745963,1538
3054,30.269643,-97.749236,237
3055,30.247997,-97.749857,912
3056,30.244676,-97.741499,1671
3057,30.231102,-97.750867,1275
3058,30.24814,-97.761886,2122
3059,30.243776,-97.764056,2122
3060,30.214749,-97.750702,1888
3061,30.215717,-97.746356,892
3062,30.216605,-97.746448,892
3063,30.215896,-97.750057,1888
3064,30.215955,-97.738253,56
3065,30.215163,-97.749692,1888
3066,30.21567,-97.738473,56
3067,30.226916,-97.769235,1267
3068,30.229124,-97.767801,243
3069,30.222301,-97.763968,1647
3070,30.219675,-97.758024,1647
3071,30.224811,-97.766818,1267
3072,30.226014,-97.762072,2369
3073,30.229425,-97.759921,2369
3074,30.228159,-97.772839,1652
3075,30.231228,-97.763595,243
3076,30.237344,-97.762197,1945
3077,30.215975,-97.767869,663
3078,30.223341,-97.763346,1647
3079,30.220488,-97.758067,1647
3080,30.217623,-97.754222,717
3081,30.224466,-97.765626,1267
3082,30.227055,-97.761335,2369
3083,30.227403,-97.755667,1275
3084,30.236474,-97.762743,1945
3085,30.232191,-97.76542,243
3086,30.241908,-97.759332,429
3087,30.226803,-97.754404,1275
3088,30.220734,-97.761195,1647
3089,30.227326,-97.773819,1652
3090,30.220474,-97.772887,1777
3091,30.227575,-97.77301,1652
3092,30.226355,-97.769166,1267
3093,30.227121,-97.771768,1652
3094,30.226116,-97.769714,1267
3095,30.225108,-97.768011,1267
3096,30.225608,-97.767387,1267
3097,30.223715,-97.76601,1267
3098,30.224153,-97.76475,1267
3099,30.225515,-97.766549,1267
3100,30.226387,-97.76808,1267
3101,30.230372,-97.76703,243
3102,30.216303,-97.753438,717
3103,30.216093,-97.752553,1888
3104,30.217618,-97.75082,1888
3105,30.222102,-97.749075,476
3106,30.218656,-97.751083,476
3107,30.217349,-97.749986,1888
3108,30.216268,-97.753942,717
3109,30.218203,-97.75433,717
3110,30.215828,-97.752679,1888
3111,30.215324,-97.750381,1888
3112,30.217507,-97.748987,476
3113,30.215515,-97.752872,1888
3114,30.216563,-97.752281,1888
3115,30.234048,-97.757043,1945
3116,30.23655,-97.749671,1592
3117,30.238542,-97.753282,1592
3118,30.24062,-97.756728,429
3119,30.235642,-97.755709,1945
3120,30.239617,-97.747665,1592
3121,30.239536,-97.752609,1592
3122,30.241627,-97.752119,1592
3123,30.264656,-97.764502,1463
3124,30.255943,-97.761283,1463
3125,30.261799,-97.761214,594
3126,30.271128,-97.763498,1297
3127,30.266302,-97.755922,594
3128,30.272814,-97.761144,1297
3129,30.248643,-97.76842,211
3130,30.251061,-97.764882,2122
3131,30.262459,-97.752404,2295
3132,30.260728,-97.748355,559
3133,30.260731,-97.758134,594
3134,30.264263,-97.756722,594
3135,30.259477,-97.748904,559
3136,30.27479,-97.7625,1297
3137,30.2594,-97.753305,2059
3138,30.248227,-97.769715,211
3139,30.252865,-97.767484,1463
3140,30.255461,-97.771131,1674
3141,30.251596,-97.773734,1674
3142,30.272246,-97.772982,86
3143,30.269114,-97.775092,86
3144,30.274527,-97.771376,1768
3145,30.272073,-97.772771,86
3146,30.268661,-97.776954,1851
3147,30.266998,-97.770573,86
3148,30.275147,-97.768986,2452
3149,30.274037,-97.766178,2452
3150,30.275657,-97.76766,2452
3151,30.276461,-97.767721,2452
3152,30.27369,-97.765701,2452
3153,30.275266,-97.771121,1768
3154,30.247433,-97.759366,2122
3155,30.254656,-97.751991,2301
3156,30.258218,-97.749749,559
3157,30.267988,-97.755246,1360
3158,30.270135,-97.75433,1360
3159,30.272527,-97.760478,1297
3160,30.273364,-97.752701,1360
3161,30.26532,-97.751945,2295
3162,30.269553,-97.752925,1360
3163,30.269,-97.750614,237
3164,30.26872,-97.749576,237
3165,30.271281,-97.753752,1360
3166,30.265618,-97.748341,2295
3167,30.264429,-97.748791,2295
3168,30.267428,-97.748816,2295
3169,30.267777,-97.749757,237
3170,30.275697,-97.747864,1953
3171,30.273271,-97.747888,1953
3172,30.269871,-97.749152,237
3173,30.270614,-97.748878,237
3174,30.228297,-97.742712,1444
3175,30.230359,-97.741504,2443
3176,30.232103,-97.7367,2185
3177,30.215239,-97.734904,1921
3178,30.230568,-97.7327,1305
3179,30.231548,-97.742566,2443
3180,30.231308,-97.741794,2443
3181,30.231527,-97.735892,2185
3182,30.222423,-97.734428,1305
3183,30.229603,-97.730613,1305
3184,30.227057,-97.727271,714
3185,30.237979,-97.732728,2031
3186,30.233703,-97.722868,973
3187,30.242973,-97.729018,658
3188,30.239866,-97.731566,2031
3189,30.225227,-97.723983,714
3190,30.232282,-97.720065,1419
3191,30.235904,-97.728267,973
3192,30.237491,-97.730967,2031
3193,30.241534,-97.727952,2038
3194,30.237507,-97.725383,2038
3195,30.230786,-97.733625,1305
3196,30.22426,-97.741515,1444
3197,30.215068,-97.729893,1921
3198,30.215543,-97.733633,1921
3199,30.214656,-97.734,1921
3200,30.214118,-97.730187,1921
3201,30.215227,-97.733413,1921
3202,30.219415,-97.743776,892
3203,30.215486,-97.739626,56
3204,30.214796,-97.735151,1921
3205,30.21579,-97.735121,1921
3206,30.216303,-97.739133,56
3207,30.216699,-97.743772,892
3208,30.215777,-97.74392,892
3209,30.2263,-97.743882,1444
3210,30.215704,-97.734644,1921
3211,30.234424,-97.740886,745
3212,30.237959,-97.738734,148
3213,30.233297,-97.739706,2185
3214,30.232527,-97.737741,2185
3215,30.237483,-97.739947,148
3216,30.235517,-97.741125,745
3217,30.23864,-97.737457,148
3218,30.234153,-97.740107,2185
3219,30.237784,-97.737082,148
3220,30.234338,-97.73909,2185
3221,30.241126,-97.737859,148
3222,30.237736,-97.744974,745
3223,30.231238,-97.743695,2443
3224,30.23369,-97.741312,745
3225,30.243819,-97.742821,1671
3226,30.243436,-97.742037,1671
3227,30.239761,-97.735931,2031
3228,30.224843,-97.723539,714
3229,30.223308,-97.72218,714
3230,30.219776,-97.720171,372
3231,30.213466,-97.719567,1747
3232,30.214341,-97.724986,1210
3233,30.213179,-97.724969,1210
3234,30.238597,-97.725762,2038
3235,30.244446,-97.72341,2316
3236,30.23738,-97.716893,262
3237,30.24099,-97.726318,2038
3238,30.240026,-97.726834,2038
3239,30.244489,-97.72411,2316
3240,30.262435,-97.74181,1725
3241,30.259309,-97.736984,1603
3242,30.262292,-97.735939,25
3243,30.261136,-97.737225,25
3244,30.261503,-97.738556,25
3245,30.263117,-97.744226,1725
3246,30.261922,-97.73693,25
3247,30.262686,-97.734949,25
3248,30.258013,-97.736368,1603
3249,30.261274,-97.734654,25
3250,30.260557,-97.734895,25
3251,30.266039,-97.73278,809
3252,30.265185,-97.730157,1729
3253,30.254688,-97.730026,742
3254,30.255132,-97.731286,742
3255,30.260012,-97.730377,742
3256,30.260602,-97.732048,742
3257,30.259558,-97.723115,2427
3258,30.264178,-97.733534,291
3259,30.268289,-97.731956,809
3260,30.268219,-97.726867,1729
3261,30.269839,-97.73132,809
3262,30.272687,-97.730293,1078
3263,30.271992,-97.73057,1078
3264,30.272001,-97.731404,1078
3265,30.273985,-97.729822,1078
3266,30.274632,-97.732152,1078
3267,30.272534,-97.725722,2022
3268,30.271738,-97.730707,1078
3269,30.262296,-97.721809,2427
3270,30.260661,-97.722589,2427
3271,30.263777,-97.725985,1729
3272,30.259151,-97.727914,742
3273,30.259687,-97.732432,742
3274,30.258439,-97.728899,742
3275,30.265715,-97.741958,1725
3276,30.263406,-97.730909,1729
3277,30.261483,-97.734547,25
3278,30.253329,-97.743494,559
3279,30.257424,-97.738028,1603
3280,30.24904,-97.737261,1019
3281,30.253677,-97.737412,1603
3282,30.248151,-97.736441,1019
3283,30.255319,-97.736877,1603
3284,30.253005,-97.73648,1019
3285,30.253538,-97.735806,1603
3286,30.252937,-97.734868,1019
3287,30.256563,-97.735497,1603
3288,30.254135,-97.744043,559
3289,30.250375,-97.734429,1019
3290,30.24774,-97.735529,1019
3291,30.254487,-97.737626,1603
3292,30.257782,-97.737171,1603
3293,30.258846,-97.735457,1603
3294,30.256081,-97.734078,1603
3295,30.260211,-97.737573,25
3296,30.254915,-97.734552,1603
3297,30.269081,-97.74345,1538
3298,30.263283,-97.737973,25
3299,30.265681,-97.738673,291
3300,30.268686,-97.742113,1538
3301,30.270576,-97.741431,1122
3302,30.266163,-97.740418,1725
3303,30.270825,-97.738686,1122
3304,30.268341,-97.740772,1122
3305,30.269922,-97.739018,1122
3306,30.268034,-97.739711,1122
3307,30.272069,-97.739349,1122
3308,30.271784,-97.738346,1122
3309,30.275019,-97.73713,2366
3310,30.261952,-97.740066,25
3311,30.267027,-97.740092,291
3312,30.267616,-97.738174,291
3313,30.26906,-97.735775,291
3314,30.269638,-97.73793,1122
3315,30.269824,-97.735483,809
3316,30.270582,-97.733666,809
3317,30.269031,-97.734221,809
3318,30.272194,-97.732144,1078
3319,30.269277,-97.733254,809
3320,30.269176,-97.732426,809
3321,30.270216,-97.740084,1122
3322,30.27095,-97.742775,1538
3323,30.266163,-97.736837,291
3324,30.265003,-97.743505,1725
3325,30.267205,-97.744177,1538
3326,30.266818,-97.742828,1538
3327,30.267767,-97.74247,1538
3328,30.26276,-97.742929,1725
3329,30.26646,-97.74156,1538
3330,30.265988,-97.743145,1725
3331,30.264046,-97.741224,1725
3332,30.268102,-97.743829,1538
3333,30.263496,-97.745553,1725
3334,30.266364,-97.744489,1538
3335,30.267456,-97.745092,1538
3336,30.267373,-97.741155,1538
3337,30.272779,-97.742107,1467
3338,30.274555,-97.743757,1467
