id,lat,long
3427,30.223094,-97.69961
5305,30.577124,-97.691532
1888,29.894618,-97.935685
889,30.572072,-97.41793
340,30.306907,-97.770739
2257,30.174159,-97.929221
6459,30.349871,-97.519563
5884,30.540422,-97.816301
5508,30.774769,-97.754241
4268,30.324231,-97.69463
2085,30.038451,-97.84427
1322,30.094404,-98.170976
5961,30.488563,-97.632541
4997,30.45534,-97.769187
7149,30.72177,-97.53191
1249,30.355722,-98.066735
2393,30.179238,-97.795686
6685,30.16979,-97.623957
6617,30.070519,-97.718386
852,30.671293,-97.949297
4146,30.397182,-97.732347
7200,30.69988,-97.601771
2379,30.217862,-97.852537
886,30.539989,-97.216877
1435,29.817127,-97.99684
3246,30.261922,-97.73693
1407,30.227215,-98.154469
6339,30.332184,-97.617231
1347,30.045394,-98.101753
2612,30.398789,-97.844551
7196,30.619446,-97.565469
5174,30.475996,-97.699543
5815,30.639784,-97.290325
1419,30.192514,-98.064321
6696,30.434861,-97.568945
1212,30.399374,-97.381992
5580,30.844977,-97.595809
6707,30.344271,-97.974974
2007,29.988604,-97.877025
4476,30.404124,-97.67596
2541,30.229617,-97.788557
7056,30.84769,-97.796248
7285,30.117374,-97.80439
7228,30.678939,-97.858493
2643,30.293077,-97.82808
878,30.625071,-97.676133
6832,30.561384,-97.580235
969,30.728051,-97.451663
3987,30.351955,-97.749755
5599,30.249944,-97.485084
607,30.467008,-97.489938
5203,30.517438,-97.684648
4716,30.468463,-97.796917
1517,29.865634,-97.943201
983,30.493829,-97.35547
4335,30.280156,-97.661512
3203,30.215486,-97.739626
4646,30.454777,-97.979566
6046,30.115595,-97.664684
1962,29.952679,-97.837463
2270,30.231228,-97.928424
957,30.675787,-97.63588
7085,30.580002,-97.860812
666,29.896453,-98.064179
4492,30.262993,-97.62151
1937,30.12097,-97.966499
3657,30.312377,-97.716213
1330,29.980102,-98.093545
4054,30.349569,-97.722736
4812,30.782089,-97.852337
5526,30.716307,-97.662461
6542,30.34424,-97.580604
1986,29.895047,-97.899234
7026,30.351374,-97.462219
1058,30.527955,-97.767089
2732,30.135335,-97.733256
5780,30.639174,-97.421296
2338,30.16629,-97.860619
5470,30.784133,-97.665153
1295,30.246378,-98.043262
5843,30.459642,-97.216268
6884,30.46094,-97.59397
767,30.167197,-98.235175
582,30.03508,-97.739866
6943,30.293765,-97.570163
6257,30.239695,-97.816414
436,30.269571,-97.770276
425,30.269491,-97.693985
2679,30.37739,-97.805007
1036,30.699874,-97.356277
4573,30.596977,-97.76432
6674,30.345116,-97.670297
4669,30.484195,-97.852776
807,30.067665,-97.849967
5505,30.695887,-97.734306
606,30.145238,-97.583182
5989,30.380633,-97.638521
7450,30.552871,-97.518413
2862,30.210491,-97.754054
5774,30.563024,-97.387907
361,30.291737,-97.738284
5448,30.595109,-97.61868
5132,30.452635,-97.665576
1932,30.03879,-97.948547
1325,30.047826,-98.198919
2609,30.341261,-97.881847
1060,30.491587,-97.764424
7202,30.63348,-97.491618
2350,30.240749,-97.880658
1118,30.43398,-98.04384
981,30.488553,-97.410368
6289,30.323392,-97.670144
5567,30.777874,-97.624889
1941,30.124197,-98.031112
1459,29.840191,-97.972651
5033,30.430782,-97.70031
7171,30.572039,-97.288903
5859,30.504891,-97.808937
1081,30.826011,-97.51054
623,30.400775,-97.566228
7077,30.62811,-97.852532
6077,30.048895,-97.691515
3909,30.321757,-97.73908
4825,30.721292,-97.831363
4404,30.353257,-97.705262
3391,30.182739,-97.687376
5945,30.546267,-97.64096
1842,29.900238,-97.982998
1415,30.193977,-98.102295
4591,30.852156,-97.746004
6202,30.384604,-97.766459
6485,30.352275,-97.41145
2766,30.277082,-97.716191
4976,30.433749,-97.768517
5622,30.3965,-97.490808
1697,29.963481,-97.777722
7166,30.624678,-97.359752
1205,30.294375,-97.524078
7264,30.092301,-97.682491
763,30.277913,-98.137608
744,30.174555,-98.153721
530,30.179217,-97.759163
2236,30.196676,-98.013609
2120,30.104231,-97.874942
1951,29.947856,-97.880945
6561,30.304988,-97.934953
95,30.342242,-97.809077
3962,30.376586,-97.732738
6143,30.239097,-97.739022
906,29.882817,-97.936327
6849,30.482371,-97.586644
5241,30.495811,-97.664951
4687,30.455395,-97.826257
4605,30.675055,-97.669762
6523,30.176636,-97.529042
633,30.787235,-97.461624
1152,30.407793,-97.874061
7179,30.4626,-97.270295
2584,30.266681,-97.805797
5888,30.565069,-97.825239
1112,30.422055,-98.127277
6376,30.545637,-97.865456
550,30.11474,-97.761745
1587,29.83758,-97.921594
1031,30.658509,-97.527026
675,30.019846,-98.0279
5935,30.648186,-97.632816
2102,30.082232,-97.822216
4141,30.397831,-97.746338
2840,30.202928,-97.639066
4560,30.682241,-97.893854
175,30.429712,-97.632319
7049,30.795717,-97.885221
6741,30.609498,-97.710042
121,30.506262,-97.733466
4374,30.365679,-97.682373
1358,30.123076,-98.135616
429,30.252393,-97.675294
4493,30.248544,-97.560827
1113,30.530257,-98.103332
2116,30.02232,-97.853646
2133,30.024867,-97.789988
7067,30.654362,-98.016372
2445,30.202191,-97.804482
1200,30.786327,-97.570382
1999,29.93194,-97.88714
7447,30.51025,-97.522808
1867,29.893969,-97.951532
2240,30.215089,-97.964775
1038,30.713284,-97.917453
1183,30.425266,-97.532488
1305,29.967769,-98.189493
1033,30.723527,-97.294568
7287,30.420686,-97.930203
884,30.577103,-97.332716
2336,30.188385,-97.89214
1326,30.097785,-98.239317
3760,30.332243,-97.758571
4637,30.545899,-97.793087
7282,30.075896,-97.748536
5644,30.532268,-97.423996
6536,30.366735,-97.614736
1843,29.983412,-98.00407
4631,30.572379,-97.907746
765,30.291503,-98.177276
978,30.443943,-97.370321
846,30.276044,-97.858429
1939,30.059516,-97.989525
1712,30.148136,-97.793388
1247,30.286319,-98.064664
1782,30.149434,-97.696636
7301,30.245677,-97.768647
6810,29.929002,-97.94941
7101,30.5131,-97.854604
1315,30.019125,-98.130309
7063,30.62233,-97.903366
4694,30.430501,-97.802975
4787,30.582649,-97.835462
7418,30.217253,-97.668257
1203,30.759103,-97.502626
6890,30.419624,-97.590156
815,29.989355,-97.816935
6231,30.445279,-97.743061
5712,30.584071,-97.497158
202,30.400383,-97.71107
4629,30.511005,-97.911433
5999,30.315554,-97.634576
7187,30.458775,-97.325924
1242,30.1098,-98.068304
5612,30.307292,-97.487271
4830,30.840941,-97.864193
5251,30.480727,-97.672541
986,30.504025,-97.182869
2106,30.140901,-97.846645
5625,30.67949,-97.451116
1265,29.883649,-97.922986
104,30.579994,-97.799189
849,30.269483,-97.748407
5581,30.830155,-97.601763
2111,30.034703,-97.874957
4603,30.738582,-97.774019
5649,30.534141,-97.4563
5685,30.433967,-97.482584
3101,30.230372,-97.76703
2316,30.237141,-97.831908
4206,30.293827,-97.707533
298,30.300761,-97.67833
7343,29.862152,-98.014392
2405,30.18864,-97.828925
3685,30.293766,-97.759197
7155,30.685749,-97.280058
1463,29.820649,-97.955213
4893,30.539721,-97.613816
653,30.593637,-97.422708
74,30.210384,-97.884729
7314,30.102734,-97.614224
6009,30.227088,-97.616267
4375,30.37345,-97.677494
1365,30.179424,-98.191269
3421,30.240805,-97.689641
6427,30.11511,-97.694428
6280,30.230198,-97.879015
2885,30.23855,-97.719287
6840,30.543431,-97.574852
5460,30.583733,-97.548339
2985,30.159963,-97.736012
6580,30.551627,-97.732013
5633,30.602244,-97.247418
190,30.421041,-97.757609
2673,30.331682,-97.789923
4898,30.518637,-97.649818
962,30.688393,-97.56823
6038,30.137762,-97.648396
5853,30.486254,-97.805073
1019,30.727033,-97.485999
864,30.470096,-97.449694
7272,30.096113,-97.780599
9,30.488843,-98.053644
764,30.3165,-98.139466
5530,30.829191,-97.701924
647,30.63058,-97.608464
2997,30.190794,-97.744502
4253,30.341625,-97.696741
2455,30.210516,-97.786904
4864,30.554615,-97.691839
5279,30.601976,-97.687541
1569,29.874772,-97.955843
2272,30.303727,-97.997469
2624,30.389427,-97.882163
2687,30.356539,-97.792341
6547,30.507992,-97.774544
3323,30.266163,-97.736837
2966,30.185189,-97.772304
91,30.209985,-97.920445
5276,30.630822,-97.743478
6565,30.275587,-97.913174
2254,30.232748,-97.991675
1472,29.80115,-97.994277
2616,30.312663,-97.881033
1360,30.058309,-98.049009
4833,30.887819,-97.801274
4506,30.34856,-97.558961
5501,30.737033,-97.691671
1820,30.011987,-97.891282
4322,30.302693,-97.66126
771,29.876772,-97.898031
4625,30.447815,-97.790023
3628,30.310221,-97.756958
5998,30.329717,-97.647492
2734,30.027369,-97.688502
1698,30.008939,-97.764874
5346,30.631187,-97.69271
6559,30.534433,-97.78209
5116,30.43038,-97.670478
856,30.766585,-97.9192
6903,30.366128,-97.583354
1236,29.987074,-98.049768
848,30.174384,-97.984925
6989,30.480331,-97.552125
3843,30.29117,-97.721933
991,30.599844,-97.309353
929,30.526117,-97.8279
5575,30.751872,-97.549157
7162,30.653836,-97.368068
5101,30.449126,-97.695808
5018,30.480372,-97.738276
2657,30.292344,-97.797985
5330,30.663183,-97.691479
1416,30.181782,-98.087413
3397,30.157627,-97.665818
4367,30.376973,-97.709878
2573,30.258713,-97.79617
6515,30.186951,-97.556311
2375,30.236052,-97.854532
2829,30.279511,-97.740918
7129,30.755462,-97.612771
5917,30.686135,-97.658683
6712,30.09504,-97.922736
1973,29.90875,-97.859715
5393,30.464107,-97.625553
1078,30.837785,-97.539898
5463,30.542708,-97.546166
4589,30.819274,-97.777995
5476,30.715149,-97.647326
5631,30.526755,-97.250475
245,30.3645,-97.740699
984,30.522277,-97.308176
6473,30.351242,-97.483825
109,30.569989,-97.644672
6223,30.423781,-97.711722
953,30.605496,-97.646404
5635,30.665192,-97.467715
4583,30.705619,-97.777088
136,30.510451,-97.681971
4831,30.85079,-97.834573
6447,30.352021,-97.592137
1116,30.840504,-97.903407
6634,30.207247,-97.877408
1337,29.981565,-98.139629
5331,30.650391,-97.68032
1382,30.256388,-98.109119
7102,30.474478,-97.78753
3376,30.265864,-97.720123
5761,30.564661,-97.408785
1437,29.823926,-97.980733
6866,30.478894,-97.605691
7175,30.529689,-97.357151
4247,30.323886,-97.707461
5248,30.485664,-97.651505
4,30.531993,-97.967226
1115,30.709085,-98.002919
5809,30.573658,-97.377362
3230,30.219776,-97.720171
5608,30.380452,-97.46579
1931,29.896288,-97.915415
2308,30.213589,-97.814537
6564,30.308097,-97.950019
6072,30.082518,-97.693694
1557,29.857091,-97.969138
1034,30.718481,-97.340303
1210,30.418875,-97.427254
4554,30.474461,-97.770869
649,30.614327,-97.438935
1067,30.600584,-97.804895
753,30.019708,-98.232533
4822,30.707579,-97.85907
1425,30.393322,-98.067956
2245,30.153427,-98.008778
5628,30.660427,-97.32241
676,29.967048,-97.95913
2036,29.962752,-97.87637
6,30.460701,-97.882086
2,30.595955,-97.873341
5824,30.771277,-97.435181
2940,30.157315,-97.769031
4577,30.63684,-97.798583
6700,30.338148,-97.919886
2633,30.321072,-97.816305
6831,30.590226,-97.59319
2497,30.222202,-97.835212
5726,30.572446,-97.438948
2153,30.065182,-97.821221
7217,30.638072,-97.827323
4545,30.380946,-97.540065
1340,29.925171,-98.064188
10,30.405429,-97.968645
5574,30.684075,-97.545482
6018,30.195923,-97.626736
1035,30.711832,-97.41274
5436,30.64644,-97.582422
7223,30.754825,-97.721356
7332,30.315166,-98.093687
4076,30.371068,-97.71978
1406,30.205647,-98.128349
4539,30.321883,-97.542475
2818,30.27574,-97.59952
5638,30.492615,-97.27311
972,30.43632,-97.251463
6766,30.090731,-97.73372
7069,30.67025,-97.905648
1100,29.930219,-97.813404
1136,30.231017,-97.516594
5068,30.415192,-97.705608
4742,30.504523,-97.819604
2429,30.162002,-97.787985
1509,29.85336,-97.957648
4233,30.282364,-97.684392
7463,30.503925,-97.579577
6584,30.513947,-97.71653
3016,30.244336,-97.757454
1021,30.707529,-97.522309
5444,30.567682,-97.617527
5488,30.814755,-97.610253
6114,30.529592,-97.79809
6433,30.175929,-97.70774
67,30.249879,-97.909155
7076,30.64393,-97.856209
7123,30.809306,-97.549092
6715,29.85124,-97.902503
4853,30.541872,-97.692531
1235,30.40409,-97.637802
1345,30.072243,-98.140645
1296,30.345872,-98.027208
1319,30.015618,-98.070197
5536,30.733059,-97.611137
6886,30.252891,-97.602547
6002,30.289525,-97.628676
4481,30.390634,-97.658879
2750,30.132645,-97.621771
146,30.512273,-97.621085
5509,30.684291,-97.686928
7143,30.712262,-97.473808
655,30.417908,-97.324987
814,29.959885,-97.801203
2786,30.279502,-97.729157
2972,30.192585,-97.76472
2481,30.245978,-97.807716
3825,30.30082,-97.734006
4821,30.756328,-97.876023
4779,30.557829,-97.843843
4200,30.328765,-97.678082
628,30.408462,-97.527893
1353,30.121344,-98.088327
208,30.398609,-97.616178
2005,29.969687,-97.89606
6893,30.391138,-97.581299
1957,29.987605,-97.836644
1367,30.257611,-98.169802
5548,30.777046,-97.591018
7289,30.21803,-97.68266
1220,30.615287,-97.542575
7325,30.309644,-97.51669
3490,30.250804,-97.692771
6986,30.352589,-97.642447
7153,30.672918,-97.419748
743,30.190007,-98.168253
6136,30.219495,-97.748333
1156,30.399573,-97.783123
5673,30.640229,-97.389129
2329,30.199346,-97.867275
4868,30.538693,-97.668085
2183,30.097371,-97.814901
5206,30.512397,-97.701599
4835,30.828112,-97.809675
1832,30.00581,-97.865017
2251,30.24336,-98.021496
1076,30.887022,-97.703803
5682,30.474647,-97.403883
564,30.264,-97.537069
553,30.099935,-97.644403
8,30.434403,-98.083907
1313,30.004317,-98.18761
2235,30.215547,-98.02279
2408,30.164189,-97.830006
1935,30.084815,-98.013181
6032,30.15357,-97.638904
4442,30.35481,-97.682544
2088,30.078846,-97.843981
368,30.283673,-97.780701
6598,30.479092,-97.718603
5640,30.542725,-97.484727
2515,30.2716,-97.817588
5603,30.319001,-97.443682
7168,30.637115,-97.257052
4644,30.481116,-97.976926
1163,30.413568,-97.745912
5386,30.439292,-97.619696
2526,30.23697,-97.798816
752,30.115504,-98.192023
3456,30.261441,-97.708551
734,30.055404,-97.91209
4933,30.448854,-97.725605
1531,29.845758,-97.940197
1846,29.884842,-97.943001
23,30.374974,-97.834683
792,29.947011,-97.918627
1611,29.877335,-97.929068
5834,30.717641,-97.442871
1094,29.934113,-98.150473
6613,30.171652,-97.888239
5687,30.440519,-97.502735
3893,30.330256,-97.723583
7377,30.389727,-97.746005
5872,30.52695,-97.816116
6937,30.31879,-97.576736
4827,30.772247,-97.815611
2690,30.009015,-97.72796
7310,30.268203,-97.494741
6453,30.349435,-97.537993
6763,30.113679,-97.782154
7000,30.737999,-97.936347
5982,30.438496,-97.594112
5781,30.618199,-97.408342
1219,30.607574,-97.506741
7208,30.82,-97.856489
1811,29.918339,-97.90818
3520,30.349399,-97.77182
4594,30.66944,-97.737971
1245,30.149237,-98.051563
6729,30.596499,-97.572197
4415,30.350236,-97.713028
578,30.113558,-97.857472
2800,30.27744,-97.695931
6824,30.624707,-97.61968
93,30.179056,-97.914187
613,30.442805,-97.462556
819,30.017435,-97.826144
2080,30.085233,-97.874376
1274,29.908608,-98.008721
2123,30.095573,-97.891498
4944,30.47197,-97.671492
7080,30.618272,-97.852284
1017,30.681438,-97.518758
4284,30.31821,-97.702235
2285,30.391435,-97.937119
669,29.950139,-98.009999
7201,30.673463,-97.595344
5601,30.221099,-97.488372
5618,30.331992,-97.504609
3019,30.256886,-97.746562
5452,30.638751,-97.64192
1637,29.871952,-97.936352
5477,30.703994,-97.651333
1316,29.999239,-98.101129
32,30.332143,-97.858595
6879,30.471927,-97.591209
1398,30.213293,-98.084826
7001,30.458967,-97.753708
5692,30.484939,-97.479211
7231,30.707939,-97.81409
7066,30.632857,-97.987369
1401,30.254291,-98.082014
5847,30.479534,-97.180841
699,30.188322,-97.952201
5705,30.652886,-97.442878
6625,30.51248,-97.881373
2419,30.198839,-97.819117
193,30.419626,-97.687169
5926,30.67432,-97.648284
3999,30.39712,-97.757812
281,30.308832,-97.854872
3619,30.305028,-97.748933
4313,30.313183,-97.690581
5472,30.808492,-97.646445
2699,30.061381,-97.7375
6378,30.518272,-97.786954
2637,30.313248,-97.79433
586,30.081642,-97.956989
4006,30.355995,-97.730568
5148,30.499487,-97.681572
2728,30.113733,-97.719341
5822,30.763034,-97.467927
5485,30.773388,-97.660384
6517,30.189352,-97.58265
437,30.26379,-97.760172
1336,29.938804,-98.081782
138,30.516269,-97.659832
6968,30.356862,-98.164399
238,30.365978,-97.701017
1682,29.877475,-97.916194
602,30.145593,-97.817215
128,30.525447,-97.687699
6439,30.041147,-97.761506
19,30.367501,-97.984566
5511,30.702941,-97.69005
1465,29.810918,-98.003617
2094,30.070274,-97.810744
4819,30.700051,-97.944317
2905,30.212058,-97.709253
6806,29.841425,-97.984104
5287,30.60201,-97.663337
5829,30.742549,-97.431153
2774,30.28204,-97.766402
1972,29.893323,-97.88093
4754,30.480587,-97.832681
5027,30.531697,-97.733191
850,30.629693,-97.936611
686,30.183656,-98.035565
5110,30.461355,-97.696764
3660,30.310598,-97.72701
3935,30.374388,-97.755373
4803,30.574615,-97.789068
1409,30.233872,-98.124752
4326,30.286368,-97.670191
2385,30.249645,-97.853226
598,30.438973,-97.543138
5415,30.456997,-97.554561
2583,30.262343,-97.789257
1108,30.270539,-98.206818
2846,30.211133,-97.657961
1299,30.143223,-98.135221
43,30.272366,-98.013199
5737,30.573383,-97.40968
4628,30.557239,-97.945845
2520,30.227708,-97.808527
1387,30.188182,-98.214616
1478,29.862223,-97.998377
1352,30.12629,-98.112328
1304,30.13787,-98.157966
595,30.463281,-97.525215
7379,30.372322,-97.786244
4692,30.421551,-97.794047
1354,30.061194,-98.075962
1206,30.350266,-97.500359
184,30.419188,-97.836201
2238,30.228909,-97.95054
2163,30.06067,-97.804117
1694,30.147484,-97.983461
7352,30.43402,-97.896425
5817,30.734598,-97.355522
7353,30.363207,-98.037949
5795,30.632659,-97.33326
1765,30.194254,-97.78212
6168,30.441739,-97.667405
1857,29.887756,-97.961289
1026,30.69837,-97.627671
1111,30.320581,-98.18806
5597,30.36182,-97.405519
3038,30.244603,-97.730201
1503,29.828578,-97.941912
1149,30.409589,-98.109364
3647,30.318561,-97.748767
6352,30.574311,-97.382255
2894,30.214327,-97.766695
1602,29.856022,-97.931812
6682,30.563081,-97.883193
3913,30.3299,-97.739692
616,30.274879,-97.472702
2709,30.081814,-97.665963
6125,30.496184,-97.77416
7121,30.830661,-97.562261
5664,30.459585,-97.394344
4084,30.391019,-97.733849
4585,30.733725,-97.794622
1005,30.578301,-97.465299
5715,30.636384,-97.469742
876,30.852528,-97.680214
4725,30.446946,-97.80697
2221,30.282704,-97.876244
7015,30.792845,-97.426208
5796,30.597099,-97.3541
6680,30.371741,-97.624862
4150,30.405343,-97.723673
6374,30.553424,-97.765839
6734,30.734758,-97.638813
7257,30.564129,-97.542984
980,30.515092,-97.408642
1373,30.199549,-98.184398
4571,30.688883,-97.878742
4816,30.690112,-97.971308
1016,30.657724,-97.497322
4588,30.784815,-97.776718
1456,29.806774,-97.978529
5573,30.708926,-97.571769
5842,30.509827,-97.220281
2284,30.359059,-97.954035
1996,29.907766,-97.900401
742,30.139214,-98.214295
7184,30.425578,-97.381898
7189,30.452564,-97.298518
7188,30.481276,-97.321001
2030,29.990351,-97.888739
2173,30.109649,-97.809274
1855,29.917193,-97.933274
2262,30.193069,-97.924096
780,29.773576,-97.997444
2210,30.230046,-97.895393
5423,30.516488,-97.53651
1086,30.32676,-97.419806
2402,30.178514,-97.808159
2273,30.306929,-97.970205
7360,30.638409,-97.56754
1053,30.405887,-98.02832
2414,30.195122,-97.842094
3228,30.224843,-97.723539
4486,30.157766,-97.59934
1211,30.415024,-97.460113
6140,30.217522,-97.754822
5646,30.487698,-97.377489
2154,30.062529,-97.832814
6492,30.377096,-97.442616
445,30.247651,-97.650627
3863,30.286805,-97.725577
3637,30.283496,-97.749025
4826,30.764621,-97.842461
6710,30.045735,-97.975909
1079,30.670972,-97.244333
6404,29.92377,-97.89152
5789,30.465499,-97.360832
7173,30.576649,-97.230771
2998,30.201952,-97.742026
1123,30.409064,-97.764124
611,30.183483,-97.637009
1225,30.783688,-97.524716
548,30.1398,-97.779669
4621,30.441616,-97.781865
6499,30.132632,-97.753456
22,30.373525,-97.86814
1338,29.986542,-98.120568
7215,30.862218,-97.802719
2738,30.12938,-97.683977
5354,30.614243,-97.688693
409,30.256691,-97.729877
4515,30.32621,-97.605033
6343,30.229139,-97.82873
3015,30.234455,-97.741698
751,30.072636,-98.204517
100,30.17107,-97.842194
1002,30.509986,-97.55816
690,30.123464,-98.013422
7328,30.449467,-97.441091
1093,30.609838,-97.218848
5281,30.642587,-97.714358
5119,30.418543,-97.659683
5849,30.520289,-97.191544
2364,30.256776,-97.893795
5529,30.826802,-97.731906
1813,30.028014,-97.910045
7453,30.468915,-97.642391
3396,30.197945,-97.683804
4225,30.282635,-97.701336
987,30.565058,-97.259618
1317,30.02115,-98.101837
5432,30.60976,-97.577788
5800,30.620189,-97.292911
7120,30.836006,-97.633225
3583,30.340804,-97.702616
868,30.876242,-97.77401
933,30.65866,-97.776031
4638,30.529622,-97.844844
6765,30.101144,-97.759866
6048,30.104882,-97.671659
7456,30.465315,-97.466557
4595,30.682861,-97.717634
14,30.449261,-97.839977
5674,30.553811,-97.320574
2529,30.222744,-97.798451
7141,30.706557,-97.504814
5015,30.479351,-97.756071
7005,30.185978,-97.611815
6923,30.340167,-97.589596
48,30.308846,-97.703502
2321,30.204062,-97.858604
1381,30.285707,-98.103249
6441,30.169014,-97.784922
7211,30.811356,-97.873774
5672,30.637539,-97.351913
1042,30.511753,-97.834159
2518,30.265414,-97.818023
7043,30.59126,-97.858148
4462,30.395723,-97.672955
5845,30.465162,-97.234926
6190,30.332983,-97.80736
5308,30.566163,-97.667499
5398,30.487183,-97.623915
1343,29.998843,-98.084241
4449,30.388683,-97.710122
401,30.261466,-97.586183
860,30.668799,-97.659879
4842,30.841914,-97.791371
1851,29.894504,-97.942072
6752,30.126876,-97.860206
5718,30.553931,-97.426502
6422,30.164116,-97.693067
768,30.185976,-98.229548
2815,30.276595,-97.636962
5404,30.514058,-97.613415
621,30.332948,-97.468369
6774,30.078712,-97.702452
3319,30.269277,-97.733254
750,30.0445,-98.141486
1744,30.061135,-97.780788
2328,30.180271,-97.878955
1958,29.997898,-97.850285
24,30.351794,-97.845706
882,30.656402,-97.262914
1307,30.035229,-98.179821
667,29.955213,-98.126496
5290,30.548565,-97.743601
5691,30.520432,-97.473424
6664,30.414132,-97.630988
2697,29.994679,-97.749232
1822,30.014425,-97.859689
2650,30.281643,-97.842091
4820,30.726002,-97.875969
6650,30.357634,-97.616036
5813,30.55764,-97.30442
6365,30.513998,-97.754466
4546,30.367369,-97.528273
3886,30.335641,-97.729032
1107,30.106389,-98.270406
1724,30.227454,-97.779953
6673,30.381276,-97.724299
103,30.599148,-97.832171
6495,30.234545,-97.910859
3556,30.301662,-97.715228
4849,30.442467,-97.643076
7071,30.675385,-97.872958
1385,30.159139,-98.245775
2063,29.971545,-97.818273
603,30.199903,-97.523203
1974,29.916639,-97.878747
5992,30.33006,-97.640901
5,30.49655,-97.901257
5554,30.732696,-97.553484
668,29.956289,-98.065857
985,30.505589,-97.247565
6984,30.528303,-97.644217
6185,30.285199,-97.825145
5256,30.485102,-97.67568
4578,30.634317,-97.779071
523,30.166566,-97.569847
4906,30.621024,-97.644216
2809,30.38679,-97.648404
7451,30.592391,-97.535393
677,29.952026,-97.983606
5786,30.50493,-97.326034
7341,30.390101,-97.597729
1222,30.687437,-97.492532
4544,30.373788,-97.561842
4658,30.475713,-97.815704
5037,30.440922,-97.68752
5471,30.8064,-97.673961
16,30.33372,-98.076591
1248,30.291368,-98.034598
5450,30.558337,-97.642698
4755,30.493729,-97.826739
566,30.149404,-97.877778
7181,30.433644,-97.347097
1448,29.828849,-97.983841
1187,30.539446,-97.527361
5167,30.518864,-97.676235
2377,30.223181,-97.871649
924,30.570241,-97.845304
2655,30.305178,-97.825485
6629,30.468595,-97.715297
939,30.717388,-97.745749
531,30.170457,-97.748821
5540,30.734923,-97.587176
4576,30.688299,-97.832567
7269,30.072067,-97.73221
1182,30.400877,-97.545066
7357,30.735675,-97.815372
428,30.258971,-97.683975
6742,30.59155,-97.692337
5747,30.59042,-97.443232
1380,30.255864,-98.132785
1300,30.157746,-98.131657
5489,30.789934,-97.62124
5942,30.599089,-97.632599
2003,29.926976,-97.86222
2283,30.32185,-97.955313
6133,30.216113,-97.744266
863,30.880283,-97.824754
1410,30.167629,-98.086571
4738,30.45534,-97.791477
1862,29.898021,-97.947013
1238,30.026318,-98.043982
2082,30.057888,-97.844172
5861,30.500392,-97.806078
634,30.762333,-97.570963
1327,30.096546,-98.216512
6688,30.272976,-97.581045
1007,30.581783,-97.6213
1549,29.862841,-97.959953
4182,30.308319,-97.670495
7052,30.762024,-97.858218
556,30.061879,-97.67384
1484,29.847718,-97.981245
6721,30.577657,-97.806715
6364,30.523006,-97.774199
1730,30.265256,-97.783519
3012,30.245581,-97.753343
3980,30.36485,-97.763358
2198,30.138468,-97.795207
7350,30.366422,-97.894353
2148,30.070839,-97.827419
1148,30.408455,-97.512478
4101,30.399525,-97.718571
3439,30.22793,-97.682472
5750,30.586405,-97.432594
2849,30.179253,-97.720695
4250,30.330932,-97.704343
1193,30.637256,-97.519283
4482,30.182514,-97.540951
6493,30.373892,-97.397909
1147,30.397315,-97.519255
6726,30.761485,-97.739076
6814,29.927671,-97.905354
7320,30.136381,-97.598501
2387,30.179605,-97.819921
657,30.519091,-97.37656
577,30.130563,-97.947983
7313,30.036818,-97.709844
2694,30.126139,-97.640916
5794,30.605047,-97.32757
1098,29.806018,-97.944241
4520,30.299094,-97.64632
314,30.319513,-97.773295
7336,30.404023,-97.584014
4466,30.380967,-97.672507
2652,30.304314,-97.840649
4067,30.360706,-97.723791
4315,30.333629,-97.690475
1301,30.144817,-98.089328
1564,29.858642,-97.951706
3728,30.329318,-97.7642
4049,30.371937,-97.740588
720,29.881787,-97.947927
1778,30.247075,-97.784821
994,30.65527,-97.346524
6648,30.467055,-97.843518
3720,30.305452,-97.757922
2228,30.279916,-97.807103
7156,30.643249,-97.303448
5695,30.502642,-97.418595
2297,30.232333,-97.840227
1828,30.014363,-97.812917
5467,30.639212,-97.542974
4808,30.740692,-97.896759
5555,30.696421,-97.613327
859,30.642343,-97.674662
1802,30.14862,-97.807197
693,30.083197,-98.064494
950,30.610956,-97.746309
1298,30.129515,-98.173062
672,29.832913,-98.018237
4191,30.321602,-97.686339
5760,30.554754,-97.407594
7068,30.656798,-97.958937
6350,30.584596,-97.386364
1950,29.926522,-97.83059
2015,29.977884,-97.8736
3191,30.235904,-97.728267
1201,30.813891,-97.514762
4902,30.532051,-97.707078
1308,30.058892,-98.162858
5535,30.755718,-97.633313
3398,30.166184,-97.660261
7192,30.484205,-97.424007
2589,30.252168,-97.805827
6209,30.388404,-97.759726
3475,30.253645,-97.702862
5934,30.661981,-97.640347
4888,30.561894,-97.569248
1402,30.182808,-98.124873
7466,30.293874,-97.922855
2847,30.208625,-97.7725
576,30.42248,-97.862996
242,30.35801,-97.662114
250,30.354451,-97.69626
3523,30.344295,-97.75267
5819,30.749692,-97.473196
1106,29.994705,-98.236289
947,30.787546,-97.733844
4548,30.510388,-98.038942
4446,30.385886,-97.695512
6639,30.477516,-97.501189
3564,30.337808,-97.71447
4626,30.44215,-97.911725
4900,30.432226,-97.652867
2305,30.211544,-97.825433
2850,30.189539,-97.703901
2269,30.223176,-97.952875
6624,30.538408,-97.892095
5469,30.821903,-97.757842
1084,30.136738,-97.560852
2698,29.97976,-97.764403
1309,30.089786,-98.19487
1321,30.020471,-98.153274
5142,30.479026,-97.684181
6652,30.341855,-97.612919
2695,30.110472,-97.65021
6576,30.147911,-97.767159
5532,30.873512,-97.725051
590,30.001839,-97.785715
5607,30.370092,-97.424792
7316,30.030184,-97.674346
5190,30.484788,-97.694529
3282,30.248151,-97.736441
1350,30.069955,-98.090106
1936,30.075656,-98.001528
6121,30.480956,-97.793933
397,30.273431,-97.678189
6967,30.338124,-98.145034
5976,30.446855,-97.59328
735,29.886781,-97.991968
688,30.132727,-98.066773
1781,30.145195,-97.699584
501,30.207631,-97.603752
4570,30.662809,-97.879073
6638,30.494898,-97.497682
4939,30.498858,-97.721344
6245,30.476764,-97.765108
4791,30.565791,-97.865207
7132,30.78477,-97.545547
2127,30.100605,-97.860949
870,30.78796,-97.831057
3671,30.296545,-97.767827
3910,30.312042,-97.735101
4208,30.305753,-97.697286
973,30.472299,-97.262528
5519,30.693886,-97.66954
2639,30.305985,-97.782053
7236,30.606813,-97.450413
5706,30.642893,-97.457134
551,30.10091,-97.742406
2492,30.236089,-97.824203
4002,30.360664,-97.744671
6106,30.523829,-97.86524
1412,30.159349,-98.068204
629,30.419177,-97.556499
6667,30.439846,-97.519717
5456,30.643828,-97.615315
1082,30.747149,-97.300292
5838,30.698258,-97.330846
4165,30.312961,-97.70782
2744,30.129184,-97.69566
871,30.685782,-97.776485
3735,30.326857,-97.758853
5632,30.593247,-97.282749
1623,29.857033,-97.93933
5547,30.726256,-97.641778
4538,30.337437,-97.558221
674,29.997999,-98.058955
155,30.465101,-97.734708
4958,30.423917,-97.748784
1749,30.153347,-97.711128
6827,30.599563,-97.596762
3366,30.255577,-97.720672
638,30.7155,-97.453439
5839,30.719198,-97.320705
6684,30.389098,-97.987451
931,30.537807,-97.790202
3481,30.272223,-97.704477
6081,30.035459,-97.689033
207,30.385822,-97.629909
1378,30.280318,-98.155751
3361,30.273521,-97.732531
1426,29.841741,-97.912779
624,30.39936,-97.440864
1241,30.047991,-98.025834
4670,30.479756,-97.80205
1418,30.189304,-98.099051
6074,30.060984,-97.691764
305,30.35485,-97.821754
5784,30.476657,-97.335322
5939,30.637048,-97.627749
61,30.246756,-97.872037
5564,30.768228,-97.627666
5690,30.523104,-97.488414
5316,30.556942,-97.704972
2745,30.095123,-97.660082
5380,30.462814,-97.574393
580,30.079619,-97.796332
759,30.10241,-98.14819
970,30.75436,-97.408646
6782,30.207964,-97.972826
3677,30.286304,-97.764639
7327,30.40252,-97.46795
6483,30.35158,-97.451719
7157,30.616344,-97.304636
963,30.605618,-97.407175
6623,30.558551,-97.60942
5978,30.430628,-97.593076
4108,30.380724,-97.739492
4142,30.405927,-97.745147
2230,30.386976,-97.903719
6502,30.158663,-97.643716
4393,30.3734,-97.663247
828,30.040951,-97.895792
4582,30.7129,-97.797916
1420,30.237465,-98.065915
1297,30.159975,-98.178438
4699,30.455434,-97.80665
290,30.320679,-97.720953
615,30.254773,-97.510731
1351,30.102064,-98.096006
304,30.296238,-97.606829
4640,30.539524,-97.83799
5596,30.291006,-97.46401
6107,30.502457,-97.847334
3321,30.270216,-97.740084
5844,30.492348,-97.203126
975,30.445868,-97.232566
7062,30.659929,-97.94087
4343,30.320886,-97.659773
1022,30.767866,-97.516497
5675,30.53446,-97.29119
7226,30.654901,-97.835778
1181,30.403013,-97.605632
5422,30.498847,-97.562853
1983,29.901008,-97.904288
4813,30.803422,-97.850393
7003,30.183049,-97.780152
2138,30.050612,-97.838215
1967,29.944065,-97.798207
7210,30.822921,-97.826897
1175,30.4133,-97.673628
2268,30.241424,-97.940784
5791,30.575209,-97.310499
2241,30.196532,-97.997346
5401,30.507073,-97.613313
5247,30.492495,-97.654896
6504,30.394323,-97.549175
6846,30.49771,-97.582941
127,30.537873,-97.628339
977,30.43847,-97.286145
749,30.158316,-98.110565
7374,30.334174,-97.969506
192,30.421209,-97.724833
974,30.48328,-97.224474
6326,30.327193,-97.663498
6812,29.93177,-97.935906
845,30.012707,-97.90673
5558,30.676226,-97.610164
2623,30.394185,-97.868841
5952,30.496132,-97.632518
614,30.230896,-97.570828
5413,30.447385,-97.535671
1918,29.88842,-97.917542
781,29.786936,-97.976479
1015,30.603709,-97.521503
1052,30.587174,-97.415829
1956,29.94602,-97.844755
572,30.426107,-97.404165
3617,30.296499,-97.745016
5714,30.653853,-97.477581
4337,30.309099,-97.654129
81,30.225853,-97.862221
6538,30.356133,-97.600483
42,30.286234,-97.902792
2208,30.218164,-97.894051
5688,30.42537,-97.501759
1446,29.815446,-97.96404
594,30.48319,-97.56746
1153,30.439673,-97.873379
6691,30.042234,-97.790697
940,30.756782,-97.762274
7174,30.547076,-97.234691
4586,30.720897,-97.773644
2192,30.112981,-97.792339
4818,30.688541,-97.936631
661,30.544213,-97.502359
725,29.864351,-97.902071
29,30.321831,-97.89921
6970,30.356704,-97.995169
2237,30.179153,-97.965435
754,29.995598,-98.167437
7186,30.450452,-97.354343
4980,30.420125,-97.772972
766,30.24439,-98.18288
7267,30.319976,-98.006688
7045,30.779992,-97.920107
2266,30.240527,-97.920292
5627,30.675673,-97.342045
5696,30.490955,-97.400783
5499,30.766132,-97.705638
7178,30.471857,-97.381702
5615,30.305646,-97.503287
6608,30.113569,-97.949825
5698,30.603528,-97.488419
1632,29.875412,-97.93981
2126,30.100671,-97.848911
213,30.393237,-97.800872
5541,30.745166,-97.565924
6248,30.486989,-97.769827
1833,30.004704,-97.82677
1964,29.963873,-97.849113
7041,30.669427,-97.914126
3233,30.213179,-97.724969
2824,30.336064,-97.65136
4610,30.661745,-97.672155
4483,30.222104,-97.632903
5700,30.558773,-97.461336
2115,30.029759,-97.849023
4848,30.412924,-97.651448
4995,30.448963,-97.758657
3831,30.281547,-97.721187
658,30.548378,-97.339944
297,30.310034,-97.680821
4615,30.668111,-97.583107
4942,30.529987,-97.719633
5498,30.745366,-97.705643
5231,30.482207,-97.660016
3516,30.321176,-97.713427
6731,30.603666,-97.557217
5833,30.687888,-97.426275
2247,30.178509,-98.002331
1961,29.942311,-97.82705
4805,30.560418,-97.835783
6379,30.146025,-97.73016
6041,30.11947,-97.6633
4565,30.4565,-97.776623
2189,30.094513,-97.794342
6478,30.350821,-97.473066
6799,29.834296,-97.965667
4443,30.370957,-97.692104
6705,30.3235,-97.519516
1739,30.341546,-97.781731
4798,30.580474,-97.85324
4863,30.535583,-97.693068
3918,30.323413,-97.727517
691,30.103535,-97.972025
7054,30.75532,-97.807921
1488,29.83723,-97.989055
6335,30.337456,-97.599841
7109,30.532414,-97.807631
7436,30.361193,-97.790996
6195,30.348257,-97.79738
2726,30.114963,-97.746603
1198,30.736201,-97.517674
1025,30.791238,-97.642916
4338,30.326282,-97.673713
500,30.224758,-97.664314
5031,30.440033,-97.696581
4633,30.477924,-97.901209
1348,30.03475,-98.118658
588,30.028229,-97.982658
2803,30.282652,-97.653111
1314,30.012098,-98.120381
2044,29.99763,-97.86942
4824,30.732835,-97.845932
5484,30.754238,-97.662455
5807,30.567339,-97.348889
890,30.460507,-97.1884
7058,30.85645,-97.767488
3096,30.225608,-97.767387
5905,30.422732,-97.703336
7366,29.80524,-98.011374
6669,30.47881,-97.541125
7055,30.840134,-97.815851
4519,30.294123,-97.625719
2680,30.387687,-97.824323
3426,30.218036,-97.69035
3087,30.226803,-97.754404
1875,29.888328,-97.93012
2920,30.159699,-97.759613
4708,30.461121,-97.793506
135,30.520364,-97.690696
7344,30.560488,-97.683307
6451,30.345771,-97.569036
565,30.239086,-97.53474
2577,30.272563,-97.797651
3508,30.34484,-97.745437
6769,30.08996,-97.708192
362,30.285008,-97.735154
663,30.553467,-97.632417
2274,30.315871,-97.97799
6115,30.506985,-97.794274
4890,30.520135,-97.544642
2258,30.161605,-97.952457
4651,30.456943,-97.845607
2255,30.231634,-97.999975
1004,30.575191,-97.510374
5500,30.725787,-97.671934
3985,30.355174,-97.756664
3128,30.272814,-97.761144
6436,30.047053,-97.721963
2748,30.109931,-97.622726
5683,30.421953,-97.474698
5634,30.670731,-97.27318
6838,30.538146,-97.57641
2975,30.193329,-97.754146
1819,29.966324,-97.926509
483,30.226569,-97.732462
7169,30.539773,-97.265147
5385,30.426126,-97.615762
3417,30.222207,-97.677602
126,30.537547,-97.657977
2441,30.199096,-97.793366
1310,30.08205,-98.171247
1369,30.272555,-98.179416
6896,30.387571,-97.580694
6931,30.284269,-97.576214
2186,30.088498,-97.817877
2220,30.251859,-97.918722
2286,30.153247,-97.833034
7334,30.445402,-98.098789
1155,30.410956,-97.791897
4220,30.281676,-97.707297
1683,29.873535,-97.921075
4495,30.256684,-97.554974
7204,30.567886,-97.48939
5506,30.711626,-97.760492
26,30.292875,-97.964299
656,30.454708,-97.409402
4112,30.385299,-97.742632
5552,30.765104,-97.588043
4521,30.330815,-97.62313
4357,30.333725,-97.677994
5512,30.716327,-97.68201
6428,30.093237,-97.694117
1092,30.474429,-97.162178
6821,30.62144,-97.615487
5102,30.468777,-97.692961
3963,30.374806,-97.727672
6227,30.437275,-97.736129
5589,30.821856,-97.605013
5040,30.441813,-97.703667
7212,30.818978,-97.894708
679,30.030066,-98.080249
4574,30.576287,-97.783603
853,30.639453,-97.894479
5699,30.591685,-97.4754
5629,30.678105,-97.315701
562,30.30919,-97.550996
2708,30.069984,-97.685891
145,30.505463,-97.648706
1089,30.397006,-97.36545
6359,30.583257,-97.613219
507,30.21642,-97.7932
4876,30.635633,-97.654914
446,30.583031,-97.893907
21,30.351176,-97.937276
2953,30.200095,-97.763796
732,30.06917,-98.022446
1544,29.839028,-97.953008
692,30.156158,-97.922656
1830,30.028376,-97.926097
7298,30.269783,-97.75348
414,30.272163,-97.71745
7008,30.317908,-97.864335
6052,30.10023,-97.674669
4587,30.779696,-97.792564
1346,30.107668,-98.131384
6424,30.11623,-97.705409
1966,29.953695,-97.808346
159,30.467254,-97.654187
5821,30.725625,-97.46223
7044,30.593884,-97.883234
5661,30.610478,-97.389218
532,30.16781,-97.730989
521,30.168372,-97.676869
2199,30.129632,-97.800342
1233,30.405328,-97.66238
5667,30.562234,-97.37597
5609,30.306721,-97.453975
5676,30.427887,-97.451867
5358,30.619936,-97.687571
1028,30.715183,-97.599677
5009,30.505347,-97.737881
3431,30.232548,-97.698222
4802,30.566981,-97.813898
1074,30.492048,-97.5281
2124,30.114723,-97.874813
1150,30.385513,-98.086011
2714,30.032842,-97.767823
1101,30.0113,-97.687029
959,30.659924,-97.615333
2216,30.181256,-97.90037
4020,30.364196,-97.717298
1141,30.416815,-97.575833
1754,30.159513,-97.555305
1841,29.969026,-97.989404
960,30.68416,-97.648796
6525,30.235242,-97.876027
7112,30.560879,-97.798638
1377,30.27055,-98.068497
761,30.271372,-98.086092
755,30.1139,-98.246902
4537,30.305063,-97.563979
1068,30.628699,-97.811
4440,30.353104,-97.685992
64,30.267416,-97.928478
7082,30.602967,-97.846812
1394,30.219776,-98.118518
3791,30.29303,-97.735724
7042,30.695989,-97.910087
2739,30.135807,-97.680223
5275,30.618451,-97.696667
7158,30.630489,-97.304221
5307,30.582045,-97.675866
4880,30.4961,-97.645259
6301,30.285498,-97.664682
6807,29.905089,-97.995181
1342,29.985865,-98.075657
4542,30.338695,-97.525887
4810,30.774649,-97.876885
2870,30.230142,-97.714194
1836,30.018492,-97.871239
822,30.070587,-97.864712
36,30.298805,-97.888816
1976,29.917495,-97.895689
5826,30.704819,-97.470214
1023,30.804915,-97.569578
2109,30.02744,-97.88916
1368,30.22719,-98.169205
5648,30.504468,-97.372776
6309,30.274355,-97.668027
1012,30.544585,-97.60774
1839,29.956176,-97.969228
3441,30.214845,-97.701764
4216,30.297891,-97.686729
5818,30.722088,-97.417948
642,30.70538,-97.717715
3868,30.305839,-97.721792
1371,30.300407,-98.170914
988,30.62155,-97.263684
7016,30.810491,-97.500176
5292,30.609324,-97.661699
7358,30.634316,-97.727502
4947,30.472018,-97.663236
7164,30.631549,-97.362426
3209,30.2263,-97.743882
4097,30.390878,-97.721548
1142,30.30344,-97.526112
5572,30.69885,-97.549337
1483,29.831786,-97.995633
2689,30.021253,-97.742644
1228,30.410299,-97.695637
2362,30.238761,-97.890584
4602,30.677696,-97.53097
4894,30.532765,-97.605992
6129,30.511416,-97.79451
6938,30.32696,-97.582044
2340,30.193757,-97.85882
3697,30.300289,-97.77499
1226,30.740209,-97.493845
5728,30.57919,-97.42324
1129,30.412533,-97.731664
825,29.983051,-97.900371
6070,30.073714,-97.69251
451,30.258468,-97.76513
7454,30.323708,-97.477443
724,29.892753,-97.908106
2475,30.233955,-97.810455
3338,30.274555,-97.743757
4786,30.580861,-97.818602
685,30.177624,-98.067552
20,30.382464,-97.926677
178,30.440343,-97.825646
53,30.196482,-97.909655
6284,30.229333,-97.888014
1392,30.205816,-98.144811
2665,30.321771,-97.794192
4872,30.587911,-97.657458
2000,29.942942,-97.88172
7051,30.842139,-97.885558
7137,30.753661,-97.487775
748,30.220277,-98.100548
2322,30.206944,-97.84541
4788,30.643704,-97.871143
1204,30.276789,-97.502484
5620,30.363782,-97.477292
5150,30.507716,-97.685713
5626,30.480879,-97.250779
7013,30.513149,-97.864687
6330,30.329467,-97.632814
925,30.547881,-97.832053
3608,30.328185,-97.712913
1075,30.905132,-97.800454
5528,30.838704,-97.708974
4558,30.674549,-97.933511
2647,30.299516,-97.818977
4376,30.379405,-97.682053
5836,30.716776,-97.43482
2621,30.377412,-97.879879
6801,29.835802,-97.977166
1454,29.850844,-97.974942
1024,30.750264,-97.681406
1423,30.299922,-98.088865
990,30.660884,-97.299336
1273,29.940677,-98.022744
2990,30.198516,-97.73521
7127,30.759316,-97.603915
2108,30.049961,-97.874437
5740,30.567551,-97.435614
7311,30.284362,-97.519374
1647,29.869401,-97.940087
5909,30.464817,-97.805943
37,30.352597,-97.921387
934,30.658855,-97.849323
6713,29.892687,-98.006621
596,30.087585,-97.751571
5611,30.296791,-97.476401
90,30.194893,-97.937337
4817,30.682505,-97.959478
2204,30.290398,-98.020961
6219,30.388262,-97.751972
989,30.631593,-97.319296
1120,30.406566,-97.85219
7230,30.714988,-97.846004
1251,30.37458,-98.041928
583,30.044241,-97.823901
87,30.39592,-97.773059
1349,30.06887,-98.125564
7363,30.382586,-97.850854
524,30.204201,-97.575259
6607,30.190314,-97.872553
6310,30.260089,-97.675048
5296,30.632453,-97.764663
6672,30.476395,-97.527509
11,30.367501,-98.056627
1202,30.753481,-97.522255
5670,30.525988,-97.343815
125,30.530948,-97.677935
866,30.689129,-97.862864
3332,30.268102,-97.743829
4966,30.427641,-97.760103
116,30.550837,-97.664092
18,30.349621,-98.009337
3676,30.300963,-97.759886
1707,30.145025,-97.852244
7185,30.425158,-97.365509
1188,30.537219,-97.513917
4886,30.539912,-97.562729
5765,30.557954,-97.394416
2248,30.194559,-98.029824
816,29.953982,-97.862871
612,30.172582,-97.602786
4485,30.247968,-97.579125
746,30.212417,-98.172451
2246,30.167389,-98.008567
185,30.409079,-97.806945
231,30.370937,-97.748874
1745,30.085718,-97.767393
6438,30.018687,-97.714631
1408,30.256152,-98.143003
6835,30.566984,-97.581921
3494,30.271835,-97.686237
6737,30.667576,-97.723898
7165,30.623191,-97.394426
4765,30.513411,-97.82479
1253,29.893214,-97.964866
3522,30.34258,-97.762639
27,30.32358,-97.939978
5610,30.30059,-97.491576
736,29.908987,-97.972402
5291,30.606267,-97.676057
1059,30.506117,-97.763655
697,30.232619,-98.041958
5948,30.508417,-97.638151
1087,30.359273,-97.397532
6647,30.289047,-97.535343
1751,30.137567,-97.584342
4634,30.518785,-97.894821
324,30.289232,-97.674631
6743,30.604981,-97.718731
7133,30.763747,-97.543111
1001,30.517308,-97.502997
2521,30.232107,-97.800515
885,30.577643,-97.392433
176,30.446884,-97.613692
4823,30.703334,-97.827939
1432,29.878232,-97.907425
46,30.287223,-97.86426
569,30.560541,-97.747161
979,30.455046,-97.339311
604,30.114833,-97.680519
6577,30.129313,-97.778358
1041,30.502098,-97.831932
478,30.238356,-97.748602
499,30.200401,-97.668694
4800,30.58685,-97.809208
888,30.567615,-97.398214
4608,30.675304,-97.662512
5342,30.634549,-97.690125
627,30.389228,-97.501275
6596,30.47007,-97.699959
1438,29.82181,-98.007133
7180,30.433226,-97.329647
3529,30.342518,-97.724701
3287,30.256563,-97.735497
631,30.51116,-97.432012
581,30.054632,-97.768528
6583,30.507056,-97.714996
3872,30.297134,-97.726453
6494,30.417458,-97.537426
4897,30.663053,-97.651271
1275,29.917247,-98.051817
7250,30.292329,-97.663439
1898,29.888443,-97.940612
5373,30.483182,-97.613394
6640,30.462424,-97.503768
4183,30.310135,-97.661924
4885,30.517886,-97.571325
1010,30.571888,-97.562385
1018,30.684143,-97.475931
7182,30.445164,-97.319315
335,30.312617,-97.819504
5435,30.643892,-97.600963
4680,30.438159,-97.810385
6040,30.13062,-97.65459
7134,30.799024,-97.452087
7050,30.799574,-97.867794
673,29.979552,-98.108467
5802,30.650918,-97.326018
4604,30.673487,-97.701638
3892,30.330649,-97.731279
5797,30.595862,-97.323743
4120,30.384879,-97.735769
5210,30.515248,-97.68764
745,30.1517,-98.154464
5814,30.591588,-97.296832
5709,30.613923,-97.421837
689,30.142357,-98.017092
4553,30.471878,-97.783285
1374,30.197855,-98.162057
1812,29.956683,-97.903285
1077,30.857003,-97.589002
4368,30.375623,-97.700247
6959,30.149977,-97.631492
5390,30.460635,-97.619484
33,30.318718,-97.841425
5268,30.510172,-97.672495
5361,30.616411,-97.669379
6093,30.221766,-97.760622
793,29.928589,-97.917713
7046,30.762865,-97.901905
5831,30.702761,-97.486109
5095,30.456959,-97.69569
3074,30.228159,-97.772839
5642,30.531828,-97.446217
4630,30.649572,-97.910658
4647,30.472365,-97.991415
2593,30.253313,-97.801443
2289,30.210837,-97.858899
1696,29.971708,-97.787475
2651,30.284166,-97.83342
946,30.809086,-97.788775
4514,30.311584,-97.614485
1884,29.903718,-97.91319
6901,30.374754,-97.582244
2243,30.233343,-97.980853
2081,30.057411,-97.859417
1568,29.862274,-97.947591
2319,30.208596,-97.80447
2311,30.223141,-97.841448
4026,30.356775,-97.716701
13,30.416288,-97.888347
3225,30.243819,-97.742821
1311,30.104379,-98.17688
2831,30.279407,-97.734201
3141,30.251596,-97.773734
4815,30.815593,-97.808884
6003,30.259098,-97.613629
2956,30.203414,-97.759112
5421,30.49395,-97.550917
1293,30.194871,-98.049602
1151,30.406921,-98.058975
3900,30.315994,-97.743053
4662,30.527014,-97.854638
2395,30.182422,-97.788699
6643,30.333247,-97.549335
2355,30.2569,-97.871023
7114,30.564426,-97.788633
224,30.373993,-97.650303
5947,30.522964,-97.636275
2991,30.183938,-97.744425
4593,30.567858,-97.776853
5076,30.411825,-97.709906
6029,30.167774,-97.628837
591,29.979146,-97.846817
5557,30.710929,-97.613472
949,30.592574,-97.705395
6286,30.322761,-97.679194
605,30.131976,-97.668147
1,30.550045,-97.861763
2160,30.076801,-97.835362
4839,30.832592,-97.797071
1020,30.741662,-97.534252
2407,30.1607,-97.802057
7124,30.826595,-97.533557
1114,30.659689,-98.030267
5940,30.641476,-97.631742
5277,30.632714,-97.709984
1250,30.331214,-98.024116
5399,30.497348,-97.616894
6604,30.513432,-97.813313
4632,30.659744,-97.893731
2122,30.097269,-97.874777
5004,30.480842,-97.74819
2232,30.269707,-97.850778
30,30.653697,-97.705243
5538,30.703664,-97.589123
976,30.479296,-97.306116
1750,30.158266,-97.681272
6178,30.260719,-97.814645
6649,30.495014,-97.857845
5616,30.328852,-97.493179
5779,30.6353,-97.434196
5823,30.754321,-97.437996
1320,30.008634,-98.051193
626,30.362081,-97.455986
406,30.264483,-97.742416
6181,30.27583,-97.818425
1032,30.744464,-97.349428
5264,30.530219,-97.667632
3386,30.264512,-97.728091
7032,30.463754,-97.832707
400,30.275689,-97.620276
2617,30.316056,-97.872294
1063,30.488025,-97.78106
5117,30.421372,-97.672118
1213,30.410031,-97.37493
4901,30.545279,-97.708038
7118,30.812231,-97.634678
7083,30.596366,-97.812928
7312,30.252924,-97.531984
7106,30.532518,-97.787383
1770,30.210002,-97.779795
7203,30.602481,-97.567419
1057,30.539373,-97.783615
2822,30.328642,-97.654765
6164,30.335769,-97.694327
31,30.344763,-97.869942
2912,30.213182,-97.717795
2713,30.128798,-97.709943
1099,29.835521,-97.9049
1209,30.405153,-97.499596
1095,29.82497,-97.918829
1186,30.51811,-97.517307
1214,30.417783,-97.521358
2312,30.224641,-97.85483
600,30.144669,-97.747936
1790,30.293797,-97.783106
4829,30.704407,-97.872008
56,30.259205,-97.829376
366,30.300199,-97.799899
6156,30.322545,-97.70327
7457,30.461758,-97.439574
1690,29.870444,-97.895752
323,30.289535,-97.685312
6864,30.475538,-97.596566
5816,30.659009,-97.277782
589,30.002999,-97.878479
6392,30.358196,-97.632278
3153,30.275266,-97.771121
7138,30.735276,-97.448104
1196,30.655746,-97.51178
4940,30.525556,-97.708129
1934,30.044053,-97.964363
5442,30.551521,-97.614101
2983,30.165435,-97.74138
1227,30.766484,-97.479858
1323,30.000072,-98.200099
3090,30.220474,-97.772887
302,30.305169,-97.6301
2390,30.176355,-97.832375
2132,30.030178,-97.8244
6701,30.327907,-97.926668
4441,30.358347,-97.686153
2768,30.190898,-97.647323
5494,30.79354,-97.6039
1938,30.068102,-97.95782
4653,30.522306,-97.84176
28,30.343668,-97.905759
6733,30.62556,-97.468504
2293,30.202866,-97.837208
4846,30.543863,-97.760202
336,30.309044,-97.806541
2731,30.100934,-97.727371
2249,30.153575,-97.994535
6108,30.48711,-97.83847
2357,30.244091,-97.863216
1424,30.368436,-98.072766
1499,29.796368,-97.968037
6678,30.337594,-97.661678
2476,30.233651,-97.818327
4561,30.428919,-97.78237
6982,30.56115,-97.633481
1066,30.546888,-97.806481
4366,30.371583,-97.710858
5719,30.551583,-97.417691
2886,30.253619,-97.711994
69,30.244942,-97.985156
865,30.74618,-97.845772
7195,30.630489,-97.578627
698,30.256626,-98.041382
1548,29.843249,-97.968908
1526,29.879629,-97.94301
5366,30.654344,-97.671378
2287,30.183334,-97.849577
944,30.833925,-97.833141
630,30.417448,-97.486022
646,30.617408,-97.492335
6025,30.184097,-97.630291
1062,30.498519,-97.782491
803,30.012564,-97.752352
7065,30.64746,-97.944869
881,30.834316,-97.589673
5239,30.491186,-97.67587
97,30.152804,-97.866404
7177,30.503991,-97.348564
1949,29.915845,-97.848869
1047,30.536438,-97.857691
1132,30.410378,-97.684787
2610,30.35662,-97.832265
639,30.659308,-97.591075
729,30.207493,-98.032242
5623,30.321102,-97.430977
5799,30.605051,-97.2872
1000,30.526407,-97.530192
1793,30.38252,-97.771031
4601,30.659603,-97.538345
733,30.079967,-97.990787
2349,30.247218,-97.888438
1237,29.984562,-98.038465
6437,30.001733,-97.737802
5841,30.730477,-97.339793
1097,29.812023,-98.018414
4794,30.576412,-97.871701
107,30.627603,-97.663039
891,30.54927,-97.453586
6642,30.320335,-97.561742
993,30.621102,-97.369973
194,30.474927,-97.628126
3454,30.235846,-97.686276
2064,29.976888,-97.808745
2691,30.024991,-97.699893
1731,30.267761,-97.778362
2006,29.980784,-97.89222
7148,30.703303,-97.534306
542,30.160598,-97.815586
4985,30.437025,-97.77455
3394,30.196714,-97.704164
2097,30.086583,-97.848656
4643,30.492385,-97.979233
7407,30.252526,-97.680744
561,30.316307,-97.498617
3665,30.29079,-97.747289
5598,30.232037,-97.492005
2107,30.042635,-97.884639
1011,30.550444,-97.586759
6816,30.497605,-97.8136
5785,30.469994,-97.347971
5180,30.478788,-97.693841
7172,30.605108,-97.236646
917,29.87049,-97.955337
5643,30.546803,-97.434591
73,30.221875,-97.905353
4456,30.358514,-97.674798
5716,30.662943,-97.481661
2677,30.369555,-97.801644
7197,30.626963,-97.544171
4895,30.53657,-97.588612
4448,30.400335,-97.702582
6702,30.594222,-97.790588
5411,30.428613,-97.549755
2453,30.204353,-97.791199
1328,30.099451,-98.18839
4850,30.456432,-97.651139
4792,30.573004,-97.882665
7029,30.132056,-97.572831
998,30.581104,-97.381876
3742,30.321456,-97.756504
811,30.126275,-97.877768
3060,30.214749,-97.750702
1716,30.155776,-97.790058
3505,30.292468,-97.71492
1379,30.256065,-98.154836
4600,30.676805,-97.542356
1414,30.191338,-98.087434
2422,30.173904,-97.798642
887,30.549645,-97.386987
72,30.21593,-97.947086
3887,30.342578,-97.730718
5012,30.515794,-97.726182
758,30.067054,-98.102025
4811,30.806588,-97.889688
2561,30.237902,-97.789945
7259,30.556922,-97.559113
4504,30.343072,-97.542135
641,30.688991,-97.697896
1421,30.249399,-98.058146
6412,30.659281,-97.657317
1091,30.529067,-97.185122
160,30.460126,-97.635163
619,30.311798,-97.470836
643,30.688418,-97.290934
5739,30.570228,-97.413704
3826,30.305054,-97.742751
821,30.080607,-97.8601
6725,30.732529,-97.782304
546,30.118841,-97.815712
601,30.132946,-97.82476
831,29.991428,-97.879703
982,30.479036,-97.392374
617,30.297379,-97.511156
5965,30.487442,-97.62866
3199,30.214656,-97.734
5678,30.459601,-97.468147
1223,30.690823,-97.524148
6655,30.494409,-97.748649
140,30.499365,-97.699917
171,30.43446,-97.712671
133,30.468471,-97.609093
874,30.629455,-97.700115
4021,30.364044,-97.733895
5668,30.538495,-97.366042
4920,30.476011,-97.704179
5710,30.601042,-97.416459
2112,30.019116,-97.899698
1043,30.043099,-97.852821
5663,30.459272,-97.381999
1364,30.131976,-98.08916
7199,30.67681,-97.576202
2943,30.170108,-97.768355
6116,30.489661,-97.795001
209,30.420193,-97.603293
301,30.295066,-97.655743
2027,29.98998,-97.859024
869,30.840902,-97.747424
3759,30.337148,-97.755443
475,30.235703,-97.759859
5426,30.613673,-97.592889
6770,30.083311,-97.68937
6727,30.804112,-97.660227
1933,30.047178,-97.988048
4421,30.346353,-97.712488
5787,30.48948,-97.283439
1400,30.246396,-98.12472
3170,30.275697,-97.747864
4480,30.382004,-97.661142
6409,29.83148,-97.935092
3406,30.237691,-97.662404
6878,30.467336,-97.593872
1049,30.740886,-97.717294
2307,30.218339,-97.805362
12,30.421566,-97.941993
6687,30.176707,-97.617035
4924,30.478926,-97.713693
186,30.418049,-97.785683
2038,29.971791,-97.858385
5550,30.689383,-97.584807
7117,30.797612,-97.619815
6633,30.210873,-97.872184
2749,30.141786,-97.615924
51,30.205053,-97.932402
5820,30.740767,-97.46741
1037,30.721099,-97.804395
6736,30.656012,-97.720317
6197,30.3398,-97.8039
1878,29.900543,-97.926663
1121,30.416801,-97.846884
1572,29.877075,-97.951105
5355,30.607774,-97.685262
747,30.22956,-98.135289
1695,30.152035,-97.971907
225,30.371901,-97.636824
776,29.855514,-97.945814
4527,30.381294,-97.606003
5904,30.606005,-97.859398
6758,30.112507,-97.803083
779,29.807481,-97.955
1271,29.882033,-97.895876
1191,30.593317,-97.519759
7119,30.816166,-97.622291
824,29.973582,-97.882525
1736,30.325587,-97.779934
5924,30.681573,-97.652584
7232,30.675452,-97.904203
7368,29.877384,-97.994487
5465,30.640014,-97.555481
365,30.290736,-97.81223
2820,30.267849,-97.5478
35,30.304379,-97.919182
7305,30.173574,-97.81977
557,30.45357,-97.57921
5975,30.451919,-97.594529
1560,29.881201,-97.962979
5832,30.691783,-97.414603
6588,30.217647,-97.837748
2205,30.187541,-97.912924
4657,30.474667,-97.841321
5893,30.558882,-97.822451
726,29.867046,-97.923945
648,30.670268,-97.365601
1119,30.4147,-97.974328
687,30.204068,-98.063961
2727,30.123976,-97.740532
7395,29.9038,-97.893832
1742,29.95748,-97.786545
2649,30.297657,-97.828157
2279,30.354964,-97.986207
640,30.645536,-97.648227
7455,30.622793,-97.72452
635,30.714855,-97.635692
1030,30.652202,-97.567221
7104,30.471042,-97.791021
206,30.402956,-97.652095
3383,30.272903,-97.723513
2218,30.201796,-97.918388
4684,30.461285,-97.815652
6271,30.234158,-97.861587
2400,30.180485,-97.802237
1372,30.162056,-98.141627
3478,30.271154,-97.709813
1194,30.637913,-97.503543
1877,29.89445,-97.923727
456,30.241422,-97.733277
3691,30.285678,-97.774847
5711,30.553618,-97.48268
945,30.820892,-97.877474
243,30.340503,-97.634953
680,29.918913,-97.948067
2214,30.307834,-97.892772
3238,30.240026,-97.726834
6645,30.312647,-97.537075
169,30.442063,-97.755978
4198,30.31489,-97.67373
4567,30.508765,-97.789636
1197,30.715859,-97.509234
5651,30.547684,-97.408307
2812,30.18045,-97.64624
543,30.161894,-97.781648
2733,30.058231,-97.703773
4836,30.85163,-97.82009
5602,30.323531,-97.468935
6094,30.541417,-97.849713
4783,30.617735,-97.85978
7346,30.397364,-97.929315
938,30.70634,-97.676452
6704,30.333671,-97.510482
907,29.888777,-97.953068
6432,30.176458,-97.689641
961,30.580698,-97.634348
948,30.594021,-97.681147
3137,30.2594,-97.753305
5537,30.737231,-97.597092
4575,30.582212,-97.776335
3828,30.283109,-97.728001
560,30.371482,-97.546382
1925,29.891997,-97.914136
5428,30.574626,-97.587728
5468,30.788481,-97.765364
6292,30.316162,-97.662921
111,30.518674,-97.768768
5262,30.51797,-97.667501
3574,30.350669,-97.692827
435,30.274313,-97.785524
1003,30.477489,-97.481873
5445,30.571665,-97.609147
2135,30.046184,-97.80319
210,30.396551,-97.82942
999,30.511418,-97.468827
7161,30.641278,-97.366213
2735,30.098475,-97.683197
2853,30.205211,-97.716385
6430,30.106826,-97.694182
2398,30.191134,-97.812608
1110,30.193282,-98.236528
4163,30.307677,-97.711512
597,30.058818,-97.723985
2919,30.183475,-97.768677
2931,30.201675,-97.751597
25,30.221922,-97.974997
5395,30.431071,-97.602426
6711,30.105469,-97.942191
7319,30.105148,-97.76634
2072,29.964911,-97.794449
2438,30.192877,-97.790057
191,30.422727,-97.734935
5677,30.480151,-97.458798
113,30.542739,-97.739952
7229,30.694007,-97.85456
650,30.556867,-97.534104
105,30.589421,-97.756155
7372,29.80906,-97.987707
5680,30.520829,-97.44849
4636,30.538015,-97.800184
115,30.544608,-97.683218
844,29.9514,-97.81998
1384,30.178501,-98.232143
579,30.095669,-97.82522
1009,30.593494,-97.559051
3664,30.314457,-97.75495
5124,30.436285,-97.670095
5416,30.409512,-97.5607
1318,30.009134,-98.077175
1428,29.869138,-97.91176
3907,30.324701,-97.743632
5954,30.48637,-97.642852
6173,30.563078,-97.692814
2315,30.236609,-97.83963
7059,30.849521,-97.790239
3487,30.252294,-97.696181
1376,30.200172,-98.194485
756,29.996347,-98.122024
823,29.953701,-97.889945
167,30.453141,-97.704426
471,30.246241,-97.762422
842,29.909249,-97.869469
5020,30.493005,-97.725674
7145,30.716348,-97.486394
99,30.188004,-97.841393
2267,30.246061,-97.92715
6435,30.139307,-97.662533
841,29.932993,-97.839249
2977,30.186275,-97.758745
5323,30.622552,-97.679664
4599,30.674998,-97.621543
599,30.428163,-97.513846
2817,30.280296,-97.609429
303,30.28759,-97.640662
593,30.488497,-97.600807
2368,30.216061,-97.8624
534,30.143493,-97.687533
7356,30.726215,-97.817829
1784,30.152491,-97.670395
7078,30.615094,-97.84777
2618,30.331027,-97.885542
968,30.749076,-97.498686
6917,30.345564,-97.592243
2865,30.209953,-97.74713
873,30.637172,-97.681379
937,30.69345,-97.644873
57,30.247459,-97.825581
6337,30.333983,-97.606848
665,30.52616,-97.553431
570,30.565681,-97.707149
4764,30.532673,-97.835079
3594,30.383761,-97.713133
1334,29.941015,-98.091712
4460,30.345585,-97.677071
4882,30.546351,-97.620211
3716,30.300811,-97.752902
1626,29.863338,-97.937733
1355,30.027515,-98.128455
951,30.624548,-97.751006
1395,30.20463,-98.11855
161,30.452107,-97.799555
5429,30.581401,-97.565834
6690,30.267495,-97.604751
7108,30.527589,-97.806271
5837,30.725492,-97.44187
2566,30.233574,-97.794596
5671,30.650676,-97.393053
5793,30.586328,-97.319771
2608,30.33747,-97.864691
1953,29.95831,-97.877762
2069,29.99912,-97.834605
3400,30.221104,-97.684974
350,30.287942,-97.71165
6582,30.540828,-97.724646
5694,30.476119,-97.4378
7075,30.654477,-97.858048
7438,30.325254,-97.812413
3698,30.282583,-97.757484
3580,30.349585,-97.657745
5782,30.635541,-97.397963
4406,30.362796,-97.696762
3569,30.336083,-97.70113
5639,30.533141,-97.486528
3214,30.232527,-97.737741
935,30.678669,-97.678827
1837,29.89864,-97.973549
4922,30.479449,-97.724299
757,30.02551,-98.111827
1447,29.830284,-97.96121
513,30.201568,-97.781077
4838,30.839294,-97.802601
5274,30.600619,-97.74742
696,30.221504,-98.001452
6358,30.610813,-97.625676
2681,30.392014,-97.838754
544,30.134292,-97.724486
3810,30.280682,-97.745114
2967,30.190404,-97.77062
6654,30.503411,-97.752276
6399,30.132033,-97.855858
7222,30.764983,-97.665833
4735,30.466861,-97.800598
4557,30.664729,-97.922419
1085,30.217666,-97.479311
3975,30.359718,-97.766647
7154,30.673606,-97.282918
552,30.10704,-97.711796
3730,30.325279,-97.767106
5880,30.533257,-97.816432
4214,30.288941,-97.698191
7030,30.475562,-97.649801
559,30.384952,-97.572308
681,30.043596,-98.053382
6730,30.606128,-97.540181
3874,30.296455,-97.718585
4809,30.714984,-97.927233
5545,30.729721,-97.621427
5744,30.56778,-97.425581
2565,30.236646,-97.78352
4102,30.385977,-97.728418
7136,30.761821,-97.494025
6084,30.040994,-97.689019
4303,30.32943,-97.70401
662,30.518844,-97.603226
2485,30.218206,-97.82717
1942,30.131151,-98.015189
5681,30.474756,-97.425557
7116,30.540557,-97.771342
6662,30.49638,-97.738149
4308,30.31989,-97.693895
2631,30.316063,-97.825211
608,30.152791,-97.651583
5621,30.390154,-97.475746
5850,30.462315,-97.225714
1389,30.189203,-98.109283
4789,30.62678,-97.824635
854,30.561981,-97.854201
4673,30.504575,-97.856275
123,30.526432,-97.699474
1539,29.849604,-97.924394
1860,29.900516,-97.958233
5984,30.41233,-97.611378
7433,30.369521,-97.788405
5657,30.57937,-97.403112
6658,30.46922,-97.724282
2161,30.077202,-97.824359
7300,30.028153,-97.866025
2318,30.206976,-97.815059
1027,30.682848,-97.597727
2615,30.370289,-97.860451
2921,30.158249,-97.745726
2700,30.063897,-97.710553
3615,30.311536,-97.763949
2303,30.211092,-97.831757
1486,29.823465,-97.990057
2130,30.044463,-97.840432
5755,30.584765,-97.426844
5652,30.519539,-97.398686
2034,29.968051,-97.874544
5057,30.431209,-97.687203
620,30.345114,-97.524893
3991,30.365483,-97.750069
2719,30.058424,-97.746461
229,30.369183,-97.77245
7021,30.428419,-97.720638
4784,30.652987,-97.875071
5230,30.491586,-97.663415
157,30.460659,-97.68639
1766,30.188994,-97.77993
5321,30.58103,-97.692377
52,30.273341,-97.873192
5868,30.52022,-97.814932
54,30.172804,-97.901713
45,30.267169,-97.899068
4089,30.393403,-97.73965
3943,30.356797,-97.746959
5624,30.669976,-97.44985
4899,30.51926,-97.645867
3674,30.293738,-97.764745
670,29.868981,-97.990969
818,30.005026,-97.844911
6128,30.522606,-97.796082
1192,30.59844,-97.503766
359,30.284903,-97.743151
5594,30.84955,-97.592818
6988,30.458768,-97.565788
4030,30.357715,-97.738588
5461,30.544749,-97.534451
2096,30.084451,-97.781297
1332,29.987964,-98.111264
738,29.863587,-97.978738
5630,30.554154,-97.296592
549,30.122344,-97.793243
3166,30.265618,-97.748341
636,30.721902,-97.655039
7193,30.501187,-97.409357
1130,30.407919,-97.715814
5848,30.511166,-97.195357
2119,30.068251,-97.873629
453,30.251548,-97.750714
7150,30.704189,-97.514827
7167,30.629049,-97.372002
1363,30.10984,-98.090537
618,30.327288,-97.527973
5578,30.827265,-97.572919
5932,30.66607,-97.643756
3733,30.324755,-97.750368
5161,30.507397,-97.6784
6719,30.570244,-97.802456
450,30.254015,-97.779408
4061,30.367579,-97.727615
6264,30.431551,-97.764244
165,30.449527,-97.776564
4512,30.322023,-97.630316
3235,30.244446,-97.72341
703,29.887943,-97.936567
4431,30.364905,-97.707672
2591,30.258601,-97.802677
4867,30.549294,-97.675269
3566,30.343825,-97.707361
5376,30.472449,-97.620165
4677,30.449621,-97.819026
211,30.271191,-97.642884
4627,30.449426,-97.904401
5482,30.705095,-97.633283
4580,30.68251,-97.849655
2068,29.961303,-97.832749
3903,30.322612,-97.732742
1635,29.877058,-97.934952
4992,30.426655,-97.753306
6068,30.079508,-97.691073
645,30.707375,-97.44851
2065,29.989278,-97.80845
1361,30.055926,-98.092073
4777,30.630726,-97.904345
6332,30.348818,-97.628011
7280,30.072859,-97.727455
7330,30.382322,-97.392594
3468,30.261179,-97.697974
2046,30.004292,-97.856041
760,30.133525,-98.106678
4941,30.521186,-97.734846
6699,30.387592,-97.520817
7190,30.471719,-97.460888
5412,30.446717,-97.561327
6005,30.232521,-97.614488
4508,30.366481,-97.566501
182,30.430965,-97.790268
7152,30.649131,-97.441135
1871,29.888145,-97.945395
533,30.160499,-97.709547
4686,30.444068,-97.787057
1083,30.171221,-97.519633
5971,30.460458,-97.598686
1234,30.42208,-97.625593
7035,30.477821,-97.776844
2646,30.29285,-97.822481
7130,30.787696,-97.536638
4832,30.824251,-97.858053
3446,30.220717,-97.705957
1221,30.666963,-97.495278
1039,30.707511,-97.937796
70,30.250014,-97.943499
3633,30.334649,-97.749143
3362,30.272631,-97.736834
4314,30.33548,-97.683978
4399,30.359423,-97.704104
3082,30.227055,-97.761335
992,30.590803,-97.346743
7159,30.607593,-97.318995
183,30.432578,-97.745077
7011,30.485338,-97.684915
2557,30.232009,-97.806884
5025,30.481985,-97.743634
2213,30.307708,-97.927441
5381,30.467614,-97.584575
6987,30.442032,-97.575847
5131,30.463215,-97.667833
843,29.893191,-97.890449
4611,30.835002,-97.790807
220,30.395126,-97.69242
6746,30.633263,-97.641575
1140,30.395078,-97.589682
5382,30.496801,-97.592503
3510,30.340153,-97.738676
5524,30.698847,-97.651582
434,30.281114,-97.79798
2300,30.245545,-97.845201
1700,30.033957,-97.778844
5985,30.393899,-97.628423
519,30.183884,-97.735419
4385,30.375187,-97.672028
5614,30.31897,-97.512851
610,30.237554,-97.674932
489,30.222209,-97.784683
71,30.209143,-97.954558
5641,30.451534,-97.391454
6177,30.258221,-97.811886
2091,30.087256,-97.830648
883,30.631001,-97.410462
4533,30.394418,-97.644066
2342,30.198771,-97.852364
2875,30.261275,-97.717085
55,30.260857,-97.851746
5336,30.633116,-97.671605
877,30.831092,-97.612867
1659,29.88305,-97.939784
7294,30.316597,-97.73184
39,30.351189,-97.779089
625,30.367707,-97.520502
2278,30.354141,-97.96117
2819,30.28876,-97.574784
7321,30.151669,-97.586275
4523,30.352404,-97.615769
5684,30.435331,-97.495277
6159,30.321204,-97.699794
5317,30.546341,-97.693223
4359,30.335411,-97.66908
6954,30.245537,-97.80285
7291,30.449558,-97.72133
1430,29.883152,-97.909806
4525,30.364442,-97.628657
2729,30.093566,-97.761764
5708,30.595965,-97.4326
4870,30.536342,-97.651289
3270,30.260661,-97.722589
7170,30.5629,-97.285197
955,30.623878,-97.634323
2703,30.080573,-97.735104
2179,30.142797,-97.802155
7227,30.645148,-97.84736
3652,30.30663,-97.735245
5326,30.644358,-97.686516
4847,30.535557,-97.742113
517,30.19005,-97.752272
773,29.850705,-97.913015
227,30.347504,-97.604697
1366,30.182829,-98.162832
6457,30.348373,-97.548422
7214,30.825954,-97.783551
76,30.22221,-97.928999
6142,30.230046,-97.742536
812,30.103692,-97.899298
6112,30.514524,-97.803013
5403,30.531572,-97.61362
7018,30.247612,-97.690202
38,30.308173,-97.871556
5645,30.539331,-97.415994
6706,30.342613,-97.967036
522,30.128184,-97.613068
2756,30.275636,-97.76678
4596,30.666229,-97.665892
651,30.549309,-97.552697
5693,30.514495,-97.416679
1552,29.868395,-97.961723
1500,29.846826,-97.963812
7218,30.704594,-97.852185
2055,29.988217,-97.872226
4907,30.616557,-97.652146
398,30.271453,-97.658848
1681,29.882011,-97.917562
1090,30.42561,-97.259456
2361,30.236646,-97.900652
5568,30.77416,-97.627744
5388,30.436809,-97.614374
6567,30.259944,-97.907605
5854,30.489789,-97.802732
2622,30.382368,-97.871525
1146,30.375385,-97.528483
5227,30.529526,-97.691911
568,30.556527,-97.784048
7176,30.520885,-97.356753
1195,30.674133,-97.519584
7061,30.716159,-97.860061
2676,30.364429,-97.828657
1286,29.884907,-97.930244
5827,30.733141,-97.440918
108,30.575265,-97.671384
5748,30.576852,-97.430223
6434,30.197576,-97.691615
4951,30.418581,-97.747206
4790,30.60465,-97.816167
75,30.222138,-97.883969
5703,30.583673,-97.440749
6570,30.307674,-97.643279
7096,30.590137,-97.83477
1944,29.938037,-97.893994
4016,30.348959,-97.734995
515,30.198303,-97.771828
5662,30.589037,-97.380989
5504,30.700789,-97.739677
7144,30.709134,-97.456914
5383,30.442935,-97.627894
5907,30.459214,-97.821478
7220,30.739416,-97.801233
4275,30.318002,-97.708101
4746,30.522152,-97.824428
7060,30.75141,-97.780651
