id,lat,long
6982,30.56115,-97.633481
2318,30.206976,-97.815059
1509,29.85336,-97.957648
3669,30.285691,-97.763217
4787,30.582649,-97.835462
5753,30.587234,-97.420173
6529,30.387182,-97.648215
6970,30.356704,-97.995169
1364,30.131976,-98.08916
5541,30.745166,-97.565924
2087,30.040561,-97.843567
7035,30.477821,-97.776844
553,30.099935,-97.644403
6642,30.320335,-97.561742
5453,30.641717,-97.63095
942,30.83935,-97.791475
4084,30.391019,-97.733849
4311,30.321926,-97.692126
655,30.417908,-97.324987
3231,30.213466,-97.719567
5802,30.650918,-97.326018
630,30.417448,-97.486022
6097,30.466572,-97.668083
2269,30.223176,-97.952875
1304,30.13787,-98.157966
7068,30.656798,-97.958937
6576,30.147911,-97.767159
2013,29.960048,-97.877361
1279,29.885079,-97.941552
2656,30.30455,-97.825413
1307,30.035229,-98.179821
2365,30.257265,-97.88907
3544,30.285079,-97.712067
6363,30.005201,-98.081408
5484,30.754238,-97.662455
1002,30.509986,-97.55816
4829,30.704407,-97.872008
128,30.525447,-97.687699
5836,30.716776,-97.43482
6774,30.078712,-97.702452
2817,30.280296,-97.609429
6817,30.507128,-97.830759
523,30.166566,-97.569847
2812,30.18045,-97.64624
3987,30.351955,-97.749755
7174,30.547076,-97.234691
1424,30.368436,-98.072766
5492,30.816731,-97.608427
6754,30.113142,-97.807874
88,30.20472,-97.872225
5617,30.324821,-97.480321
2624,30.389427,-97.882163
5394,30.430017,-97.613252
5465,30.640014,-97.555481
5343,30.649881,-97.680663
1379,30.256065,-98.154836
7291,30.449558,-97.72133
6917,30.345564,-97.592243
1292,30.193978,-98.03592
5647,30.499596,-97.39926
2525,30.23398,-97.797025
1446,29.815446,-97.96404
3368,30.256435,-97.720152
4811,30.806588,-97.889688
1933,30.047178,-97.988048
1993,29.902694,-97.902857
2971,30.193356,-97.766271
2072,29.964911,-97.794449
642,30.70538,-97.717715
4337,30.309099,-97.654129
4,30.531993,-97.967226
4959,30.424096,-97.748686
3413,30.241969,-97.689965
5667,30.562234,-97.37597
145,30.505463,-97.648706
5318,30.581657,-97.693204
4592,30.539889,-97.779875
2315,30.236609,-97.83963
1228,30.410299,-97.695637
2125,30.124805,-97.862555
5639,30.533141,-97.486528
1783,30.143977,-97.69652
4680,30.438159,-97.810385
4406,30.362796,-97.696762
2677,30.369555,-97.801644
6485,30.352275,-97.41145
5525,30.700241,-97.651021
2018,29.989237,-97.881134
7221,30.74397,-97.776573
7258,30.558687,-97.569916
5787,30.48948,-97.283439
2218,30.201796,-97.918388
6867,30.473491,-97.594675
3168,30.267428,-97.748816
5601,30.221099,-97.488372
3645,30.312126,-97.746845
1385,30.159139,-98.245775
7016,30.810491,-97.500176
6701,30.327907,-97.926668
1274,29.908608,-98.008721
1694,30.147484,-97.983461
1394,30.219776,-98.118518
5635,30.665192,-97.467715
6971,30.064123,-97.734601
478,30.238356,-97.748602
1247,30.286319,-98.064664
5903,30.60608,-97.859094
1428,29.869138,-97.91176
4510,30.349038,-97.538265
6961,30.478887,-97.722983
5844,30.492348,-97.203126
5296,30.632453,-97.764663
6804,29.836393,-97.976513
1046,30.550258,-97.847503
4536,30.394636,-97.595064
884,30.577103,-97.332716
5831,30.702761,-97.486109
12,30.421566,-97.941993
1336,29.938804,-98.081782
6087,30.029653,-97.689573
2089,30.081515,-97.842408
1794,30.146457,-97.624194
5841,30.730477,-97.339793
6306,30.275481,-97.667238
5678,30.459601,-97.468147
5533,30.836097,-97.706166
3099,30.225515,-97.766549
5176,30.477106,-97.697408
4495,30.256684,-97.554974
4250,30.330932,-97.704343
7129,30.755462,-97.612771
7041,30.669427,-97.914126
7006,30.620736,-97.671194
2513,30.263578,-97.816797
9,30.488843,-98.053644
4754,30.480587,-97.832681
5549,30.693266,-97.574742
6672,30.476395,-97.527509
7164,30.631549,-97.362426
1465,29.810918,-98.003617
1757,30.172017,-97.783811
829,30.021565,-97.896007
3771,30.298117,-97.728457
6009,30.227088,-97.616267
2639,30.305985,-97.782053
971,30.570439,-97.411401
2638,30.322091,-97.815584
6729,30.596499,-97.572197
2723,30.111202,-97.749035
988,30.62155,-97.263684
1700,30.033957,-97.778844
5785,30.469994,-97.347971
2251,30.24336,-98.021496
3319,30.269277,-97.733254
2334,30.175337,-97.85482
4476,30.404124,-97.67596
1360,30.058309,-98.049009
934,30.658855,-97.849323
4954,30.443379,-97.775905
1327,30.096546,-98.216512
6105,30.516128,-97.869258
1246,30.153385,-98.016194
4457,30.344808,-97.674314
4076,30.371068,-97.71978
6547,30.507992,-97.774544
2609,30.341261,-97.881847
1184,30.407188,-97.541096
6168,30.441739,-97.667405
3441,30.214845,-97.701764
6339,30.332184,-97.617231
6202,30.384604,-97.766459
1359,30.048688,-98.097949
865,30.74618,-97.845772
2928,30.179624,-97.74658
856,30.766585,-97.9192
1227,30.766484,-97.479858
7445,30.284944,-97.522124
7449,30.547441,-97.518955
6278,30.231899,-97.877357
1822,30.014425,-97.859689
1335,30.008008,-98.117772
1191,30.593317,-97.519759
5961,30.488563,-97.632541
3501,30.221944,-97.676145
5854,30.489789,-97.802732
1404,30.191378,-98.162277
104,30.579994,-97.799189
6712,30.09504,-97.922736
3880,30.328885,-97.727752
903,29.874089,-97.937071
2582,30.26073,-97.792218
1838,29.925388,-97.947524
113,30.542739,-97.739952
1998,29.932101,-97.888748
4734,30.467894,-97.797175
15,30.398674,-97.83899
1212,30.399374,-97.381992
2094,30.070274,-97.810744
6536,30.366735,-97.614736
4214,30.288941,-97.698191
6822,30.622938,-97.614617
6476,30.351432,-97.474877
2220,30.251859,-97.918722
4646,30.454777,-97.979566
1255,29.887965,-97.953982
6968,30.356862,-98.164399
6609,30.17281,-97.886466
5217,30.509533,-97.686304
5925,30.67461,-97.648126
7357,30.735675,-97.815372
5016,30.476172,-97.766946
5637,30.435115,-97.258868
1712,30.148136,-97.793388
1337,29.981565,-98.139629
1881,29.891985,-97.926032
4202,30.32851,-97.678312
1950,29.926522,-97.83059
1414,30.191338,-98.087434
7208,30.82,-97.856489
4816,30.690112,-97.971308
1382,30.256388,-98.109119
333,30.29537,-97.712677
5106,30.450984,-97.695449
1586,29.834243,-97.928599
1273,29.940677,-98.022744
7334,30.445402,-98.098789
6936,30.290163,-97.572573
7293,30.34765,-97.712183
1480,29.860719,-97.996498
4893,30.539721,-97.613816
2459,30.209203,-97.784479
5701,30.565571,-97.44158
5876,30.538608,-97.815924
2697,29.994679,-97.749232
2096,30.084451,-97.781297
6222,30.424195,-97.71355
6055,30.094597,-97.681508
7123,30.809306,-97.549092
285,30.331953,-97.759891
1310,30.08205,-98.171247
6512,30.19243,-97.621126
3999,30.39712,-97.757812
1833,30.004704,-97.82677
1114,30.659689,-98.030267
5277,30.632714,-97.709984
2811,30.161242,-97.649013
7157,30.616344,-97.304636
1118,30.43398,-98.04384
4777,30.630726,-97.904345
7426,30.328976,-97.638192
5375,30.419243,-97.578894
7223,30.754825,-97.721356
624,30.39936,-97.440864
7175,30.529689,-97.357151
281,30.308832,-97.854872
5584,30.847089,-97.591999
643,30.688418,-97.290934
3017,30.243417,-97.763581
2274,30.315871,-97.97799
2829,30.279511,-97.740918
7215,30.862218,-97.802719
577,30.130563,-97.947983
4631,30.572379,-97.907746
4940,30.525556,-97.708129
2520,30.227708,-97.808527
4577,30.63684,-97.798583
961,30.580698,-97.634348
3113,30.215515,-97.752872
4040,30.367942,-97.741905
5472,30.808492,-97.646445
820,30.093477,-97.86188
6421,30.182452,-97.687031
3456,30.261441,-97.708551
1195,30.674133,-97.519584
5273,30.534694,-97.667672
5302,30.559715,-97.692738
5887,30.560225,-97.822467
5557,30.710929,-97.613472
6462,30.34922,-97.521536
4276,30.320402,-97.707975
6791,29.894229,-97.88193
5529,30.826802,-97.731906
649,30.614327,-97.438935
2507,30.237186,-97.821308
7188,30.481276,-97.321001
7195,30.630489,-97.578627
6195,30.348257,-97.79738
5758,30.55411,-97.407644
4724,30.451705,-97.809791
7136,30.761821,-97.494025
6352,30.574311,-97.382255
6003,30.259098,-97.613629
753,30.019708,-98.232533
1076,30.887022,-97.703803
4544,30.373788,-97.561842
2099,30.079485,-97.824447
6,30.460701,-97.882086
2306,30.213668,-97.830107
2403,30.177279,-97.803448
1356,30.116391,-98.137431
7015,30.792845,-97.426208
5274,30.600619,-97.74742
4385,30.375187,-97.672028
3684,30.29566,-97.758736
947,30.787546,-97.733844
5569,30.775898,-97.627189
4334,30.28123,-97.660393
5022,30.499992,-97.740616
2223,30.284143,-97.875022
6228,30.443701,-97.741828
817,29.993338,-97.863652
4796,30.564475,-97.864139
1371,30.300407,-98.170914
1130,30.407919,-97.715814
7170,30.5629,-97.285197
3143,30.269114,-97.775092
656,30.454708,-97.409402
5509,30.684291,-97.686928
2994,30.187287,-97.74233
605,30.131976,-97.668147
5958,30.485963,-97.648211
1198,30.736201,-97.517674
5979,30.430936,-97.593484
5418,30.454382,-97.556463
5468,30.788481,-97.765364
5642,30.531828,-97.446217
1709,30.140349,-97.832826
1935,30.084815,-98.013181
4995,30.448963,-97.758657
5821,30.725625,-97.46223
5699,30.591685,-97.4754
677,29.952026,-97.983606
4823,30.703334,-97.827939
1113,30.530257,-98.103332
5004,30.480842,-97.74819
5280,30.605336,-97.686652
7279,30.073847,-97.747685
953,30.605496,-97.646404
6521,30.175664,-97.528057
3188,30.239866,-97.731566
1790,30.293797,-97.783106
4584,30.714424,-97.766509
7051,30.842139,-97.885558
21,30.351176,-97.937276
1387,30.188182,-98.214616
1208,30.397977,-97.470816
7453,30.468915,-97.642391
1963,29.955021,-97.83949
615,30.254773,-97.510731
7000,30.737999,-97.936347
610,30.237554,-97.674932
1320,30.008634,-98.051193
2369,30.220274,-97.85766
62,30.245081,-97.858211
6458,30.349086,-97.555105
5561,30.679606,-97.606532
2246,30.167389,-98.008567
532,30.16781,-97.730989
2146,30.058164,-97.833704
2243,30.233343,-97.980853
7072,30.672574,-97.879278
810,30.142626,-97.856741
6517,30.189352,-97.58265
5636,30.663398,-97.364777
7257,30.564129,-97.542984
1537,29.866953,-97.941952
7320,30.136381,-97.598501
6667,30.439846,-97.519717
7152,30.649131,-97.441135
3885,30.323963,-97.735579
6565,30.275587,-97.913174
986,30.504025,-97.182869
6215,30.388591,-97.747739
6831,30.590226,-97.59319
2208,30.218164,-97.894051
5843,30.459642,-97.216268
5614,30.31897,-97.512851
5534,30.728232,-97.642808
5512,30.716327,-97.68201
5552,30.765104,-97.588043
4634,30.518785,-97.894821
5675,30.53446,-97.29119
6113,30.516629,-97.794348
24,30.351794,-97.845706
1724,30.227454,-97.779953
6410,30.276716,-97.80913
5604,30.32804,-97.426761
646,30.617408,-97.492335
2239,30.208494,-97.972777
4979,30.433175,-97.766563
4058,30.349009,-97.726714
870,30.78796,-97.831057
2272,30.303727,-97.997469
4317,30.293381,-97.673043
1330,29.980102,-98.093545
576,30.42248,-97.862996
6736,30.656012,-97.720317
1139,30.413554,-97.623711
3791,30.29303,-97.735724
2006,29.980784,-97.89222
5633,30.602244,-97.247418
7411,30.251368,-97.683482
545,30.123992,-97.702255
5240,30.489776,-97.675302
499,30.200401,-97.668694
7153,30.672918,-97.419748
2814,30.278334,-97.641634
2285,30.391435,-97.937119
4897,30.663053,-97.651271
1766,30.188994,-97.77993
1739,30.341546,-97.781731
330,30.307788,-97.737685
6639,30.477516,-97.501189
7189,30.452564,-97.298518
1981,29.92182,-97.856035
1079,30.670972,-97.244333
1407,30.227215,-98.154469
1185,30.505154,-97.519605
806,30.038809,-97.873747
173,30.431584,-97.679807
4314,30.33548,-97.683978
6715,29.85124,-97.902503
4591,30.852156,-97.746004
2635,30.310491,-97.801552
4644,30.481116,-97.976926
1412,30.159349,-98.068204
4688,30.455006,-97.824879
274,30.341089,-97.750211
6188,30.335009,-97.805752
7163,30.598462,-97.349552
5694,30.476119,-97.4378
6899,30.370834,-97.582899
7319,30.105148,-97.76634
6860,30.482092,-97.610513
694,30.046219,-97.956417
4122,30.384545,-97.734841
5673,30.640229,-97.389129
1491,29.827121,-97.984705
1107,30.106389,-98.270406
7314,30.102734,-97.614224
1423,30.299922,-98.088865
3275,30.265715,-97.741958
6048,30.104882,-97.671659
2765,30.279808,-97.718872
99,30.188004,-97.841393
5458,30.546239,-97.545455
1149,30.409589,-98.109364
1158,30.404545,-97.768691
5269,30.516475,-97.670822
752,30.115504,-98.192023
2257,30.174159,-97.929221
4883,30.534992,-97.60082
6110,30.497393,-97.847197
6483,30.35158,-97.451719
6986,30.352589,-97.642447
6493,30.373892,-97.397909
5308,30.566163,-97.667499
4693,30.422111,-97.78731
4511,30.290951,-97.627772
1275,29.917247,-98.051817
6074,30.060984,-97.691764
1296,30.345872,-98.027208
2690,30.009015,-97.72796
2650,30.281643,-97.842091
4614,30.674731,-97.585937
2187,30.095267,-97.815648
1420,30.237465,-98.065915
5941,30.599674,-97.63058
4162,30.310559,-97.709705
1502,29.828217,-97.944615
10,30.405429,-97.968645
6029,30.167774,-97.628837
5985,30.393899,-97.628423
2800,30.27744,-97.695931
780,29.773576,-97.997444
1380,30.255864,-98.132785
7352,30.43402,-97.896425
1207,30.410372,-97.51129
4546,30.367369,-97.528273
1484,29.847718,-97.981245
5360,30.632687,-97.689824
6669,30.47881,-97.541125
6187,30.284031,-97.823918
3594,30.383761,-97.713133
3793,30.285269,-97.73366
5634,30.670731,-97.27318
4638,30.529622,-97.844844
1115,30.709085,-98.002919
6402,29.921921,-97.893013
4373,30.366049,-97.681247
6623,30.558551,-97.60942
5823,30.754321,-97.437996
840,29.894799,-97.945184
7210,30.822921,-97.826897
4742,30.504523,-97.819604
593,30.488497,-97.600807
124,30.529538,-97.693185
6938,30.32696,-97.582044
2214,30.307834,-97.892772
5611,30.296791,-97.476401
7177,30.503991,-97.348564
5801,30.645128,-97.302222
2590,30.255017,-97.803706
2,30.595955,-97.873341
2331,30.185813,-97.874961
1305,29.967769,-98.189493
1349,30.06887,-98.125564
1753,30.140648,-97.567176
2192,30.112981,-97.792339
631,30.51116,-97.432012
6693,30.459104,-97.616753
7179,30.4626,-97.270295
5772,30.563014,-97.388966
7004,30.211863,-97.712189
1082,30.747149,-97.300292
7400,30.337158,-97.695763
6564,30.308097,-97.950019
6386,30.165848,-97.696766
2578,30.270391,-97.791447
4659,30.475362,-97.809721
1925,29.891997,-97.914136
1016,30.657724,-97.497322
1039,30.707511,-97.937796
1662,29.879754,-97.942292
7121,30.830661,-97.562261
591,29.979146,-97.846817
1238,30.026318,-98.043982
4179,30.304233,-97.681103
5111,30.424826,-97.672301
1094,29.934113,-98.150473
6567,30.259944,-97.907605
3460,30.25587,-97.701428
812,30.103692,-97.899298
5489,30.789934,-97.62124
794,30.501019,-97.716276
1941,30.124197,-98.031112
2939,30.180521,-97.76206
3246,30.261922,-97.73693
7134,30.799024,-97.452087
1226,30.740209,-97.493845
2255,30.231634,-97.999975
1698,30.008939,-97.764874
3175,30.230359,-97.741504
458,30.228055,-97.720917
3975,30.359718,-97.766647
7216,30.633795,-97.826607
6542,30.34424,-97.580604
2892,30.208545,-97.744127
1108,30.270539,-98.206818
1206,30.350266,-97.500359
1075,30.905132,-97.800454
4849,30.442467,-97.643076
1363,30.10984,-98.090537
1410,30.167629,-98.086571
1129,30.412533,-97.731664
1354,30.061194,-98.075962
68,30.238308,-97.892018
4755,30.493729,-97.826739
7214,30.825954,-97.783551
5676,30.427887,-97.451867
5643,30.546803,-97.434591
7229,30.694007,-97.85456
5401,30.507073,-97.613313
5711,30.553618,-97.48268
1225,30.783688,-97.524716
2694,30.126139,-97.640916
1253,29.893214,-97.964866
6812,29.93177,-97.935906
1248,30.291368,-98.034598
568,30.556527,-97.784048
6893,30.391138,-97.581299
4798,30.580474,-97.85324
594,30.48319,-97.56746
6253,30.496395,-97.773523
7451,30.592391,-97.535393
1092,30.474429,-97.162178
1313,30.004317,-98.18761
764,30.3165,-98.139466
2106,30.140901,-97.846645
5754,30.577677,-97.42774
4582,30.7129,-97.797916
1553,29.867764,-97.961879
2715,30.024813,-97.746917
5537,30.737231,-97.597092
6412,30.659281,-97.657317
1271,29.882033,-97.895876
2194,30.129586,-97.799486
4006,30.355995,-97.730568
23,30.374974,-97.834683
4764,30.532673,-97.835079
6418,30.198005,-97.684306
815,29.989355,-97.816935
5065,30.412904,-97.707876
6638,30.494898,-97.497682
699,30.188322,-97.952201
6891,30.421331,-97.592718
6963,30.367302,-97.981346
1078,30.837785,-97.539898
2850,30.189539,-97.703901
6209,30.388404,-97.759726
2712,30.089301,-97.693484
7083,30.596366,-97.812928
401,30.261466,-97.586183
1602,29.856022,-97.931812
3494,30.271835,-97.686237
4737,30.446217,-97.789756
2236,30.196676,-98.013609
5583,30.828043,-97.603747
2418,30.189681,-97.824843
1200,30.786327,-97.570382
5033,30.430782,-97.70031
4812,30.782089,-97.852337
1419,30.192514,-98.064321
1032,30.744464,-97.349428
1053,30.405887,-98.02832
1038,30.713284,-97.917453
3579,30.341644,-97.662746
6552,30.523132,-97.773649
1321,30.020471,-98.153274
4810,30.774649,-97.876885
3723,30.308504,-97.757933
792,29.947011,-97.918627
5834,30.717641,-97.442871
6882,30.464663,-97.592898
7066,30.632857,-97.987369
5794,30.605047,-97.32757
4808,30.740692,-97.896759
6767,30.088953,-97.734376
3398,30.166184,-97.660261
4142,30.405927,-97.745147
5814,30.591588,-97.296832
5706,30.642893,-97.457134
994,30.65527,-97.346524
4836,30.85163,-97.82009
5631,30.526755,-97.250475
1966,29.953695,-97.808346
7080,30.618272,-97.852284
5402,30.5257,-97.629185
3633,30.334649,-97.749143
1841,29.969026,-97.989404
5188,30.479359,-97.685253
5132,30.452635,-97.665576
2840,30.202928,-97.639066
1979,29.946666,-97.879885
2119,30.068251,-97.873629
751,30.072636,-98.204517
2409,30.169231,-97.825103
2806,30.299934,-97.648122
6041,30.11947,-97.6633
1830,30.028376,-97.926097
2560,30.236651,-97.792052
5646,30.487698,-97.377489
7466,30.293874,-97.922855
5198,30.518073,-97.689224
4349,30.324318,-97.672454
7149,30.72177,-97.53191
453,30.251548,-97.750714
1355,30.027515,-98.128455
4671,30.481923,-97.804055
2501,30.220703,-97.836875
769,30.191844,-98.103685
5519,30.693886,-97.66954
5413,30.447385,-97.535671
4610,30.661745,-97.672155
5245,30.480946,-97.669564
3877,30.308504,-97.716731
2055,29.988217,-97.872226
112,30.527329,-97.737027
5641,30.451534,-97.391454
5535,30.755718,-97.633313
5661,30.610478,-97.389218
4628,30.557239,-97.945845
4633,30.477924,-97.901209
862,30.668363,-97.686088
1611,29.877335,-97.929068
2709,30.081814,-97.665963
5336,30.633116,-97.671605
2610,30.35662,-97.832265
5849,30.520289,-97.191544
5508,30.774769,-97.754241
2445,30.202191,-97.804482
4482,30.182514,-97.540951
1298,30.129515,-98.173062
1233,30.405328,-97.66238
2634,30.290013,-97.819354
7310,30.268203,-97.494741
877,30.831092,-97.612867
614,30.230896,-97.570828
586,30.081642,-97.956989
3574,30.350669,-97.692827
2979,30.204917,-97.756918
1401,30.254291,-98.082014
1772,30.142173,-97.728856
734,30.055404,-97.91209
2264,30.230666,-97.931553
4453,30.358571,-97.670468
7272,30.096113,-97.780599
1332,29.987964,-98.111264
2668,30.328719,-97.790419
1384,30.178501,-98.232143
2222,30.2734,-97.862617
665,30.52616,-97.553431
6744,30.630232,-97.641384
1004,30.575191,-97.510374
1447,29.830284,-97.96121
1251,30.37458,-98.041928
2235,30.215547,-98.02279
2426,30.162464,-97.78959
7001,30.458967,-97.753708
1112,30.422055,-98.127277
933,30.65866,-97.776031
7298,30.269783,-97.75348
2344,30.20827,-97.861604
3961,30.37493,-97.729481
760,30.133525,-98.106678
2348,30.243252,-97.883117
4438,30.355683,-97.684078
6362,30.026858,-98.101147
6741,30.609498,-97.710042
1236,29.987074,-98.049768
4417,30.35443,-97.703913
3765,30.295841,-97.743612
5275,30.618451,-97.696667
6115,30.506985,-97.794274
1295,30.246378,-98.043262
4532,30.362644,-97.629357
868,30.876242,-97.77401
5715,30.636384,-97.469742
1744,30.061135,-97.780788
7313,30.036818,-97.709844
2707,30.112132,-97.694721
4593,30.567858,-97.776853
4792,30.573004,-97.882665
1426,29.841741,-97.912779
5688,30.42537,-97.501759
1376,30.200172,-98.194485
7266,30.336108,-97.970426
2310,30.213555,-97.794039
742,30.139214,-98.214295
7332,30.315166,-98.093687
5038,30.440216,-97.697764
7280,30.072859,-97.727455
520,30.179088,-97.714023
1101,30.0113,-97.687029
7181,30.433644,-97.347097
850,30.629693,-97.936611
6838,30.538146,-97.57641
2456,30.198363,-97.790864
5536,30.733059,-97.611137
5292,30.609324,-97.661699
5478,30.714604,-97.645662
1014,30.612544,-97.569962
1398,30.213293,-98.084826
5096,30.458307,-97.696078
1300,30.157746,-98.131657
2783,30.277162,-97.73278
5574,30.684075,-97.545482
116,30.550837,-97.664092
2617,30.316056,-97.872294
5295,30.594977,-97.763822
876,30.852528,-97.680214
781,29.786936,-97.976479
1425,30.393322,-98.067956
4773,30.52827,-97.803678
1003,30.477489,-97.481873
1328,30.099451,-98.18839
1497,29.82378,-97.990143
1220,30.615287,-97.542575
6698,30.414325,-97.519409
612,30.172582,-97.602786
5446,30.58093,-97.612277
4537,30.305063,-97.563979
5682,30.474647,-97.403883
7076,30.64393,-97.856209
2336,30.188385,-97.89214
3025,30.275468,-97.747072
5795,30.632659,-97.33326
6694,30.439292,-97.570088
627,30.389228,-97.501275
6644,30.329771,-97.547187
715,29.896727,-97.936225
2999,30.246417,-97.768935
747,30.22956,-98.135289
2771,30.278209,-97.768537
1697,29.963481,-97.777722
5435,30.643892,-97.600963
5945,30.546267,-97.64096
522,30.128184,-97.613068
5847,30.479534,-97.180841
7343,29.862152,-98.014392
6835,30.566984,-97.581921
5624,30.669976,-97.44985
4446,30.385886,-97.695512
1197,30.715859,-97.509234
4858,30.546142,-97.69453
1136,30.231017,-97.516594
5573,30.708926,-97.571769
2825,30.377272,-97.658636
1193,30.637256,-97.519283
2920,30.159699,-97.759613
676,29.967048,-97.95913
4652,30.473235,-97.846112
7363,30.382586,-97.850854
3562,30.330352,-97.715566
1025,30.791238,-97.642916
1470,29.804461,-97.982193
2886,30.253619,-97.711994
1106,29.994705,-98.236289
963,30.605618,-97.407175
6338,30.335409,-97.602213
7230,30.714988,-97.846004
4548,30.510388,-98.038942
3379,30.269488,-97.71867
7358,30.634316,-97.727502
4898,30.518637,-97.649818
6181,30.27583,-97.818425
2682,30.359284,-97.79047
7118,30.812231,-97.634678
213,30.393237,-97.800872
7067,30.654362,-98.016372
4579,30.660277,-97.947207
2496,30.231272,-97.827504
4483,30.222104,-97.632903
1784,30.152491,-97.670395
155,30.465101,-97.734708
3115,30.234048,-97.757043
3125,30.261799,-97.761214
6684,30.389098,-97.987451
1545,29.846832,-97.964546
6376,30.545637,-97.865456
6492,30.377096,-97.442616
5080,30.420687,-97.704598
7457,30.461758,-97.439574
6000,30.314471,-97.63529
7182,30.445164,-97.319315
4497,30.346027,-97.613586
4585,30.733725,-97.794622
2124,30.114723,-97.874813
7184,30.425578,-97.381898
5807,30.567339,-97.348889
1560,29.881201,-97.962979
248,30.355442,-97.7182
1210,30.418875,-97.427254
6704,30.333671,-97.510482
2652,30.304314,-97.840649
4530,30.378277,-97.635707
2237,30.179153,-97.965435
1049,30.740886,-97.717294
1828,30.014363,-97.812917
7312,30.252924,-97.531984
7143,30.712262,-97.473808
1316,29.999239,-98.101129
5813,30.55764,-97.30442
939,30.717388,-97.745749
1531,29.845758,-97.940197
6886,30.252891,-97.602547
804,30.067731,-97.825872
3431,30.232548,-97.698222
657,30.519091,-97.37656
1036,30.699874,-97.356277
6300,30.285615,-97.665361
4462,30.395723,-97.672955
970,30.75436,-97.408646
5007,30.512404,-97.75711
1811,29.918339,-97.90818
5983,30.404393,-97.607354
1111,30.320581,-98.18806
883,30.631001,-97.410462
2241,30.196532,-97.997346
6499,30.132632,-97.753456
2116,30.02232,-97.853646
987,30.565058,-97.259618
1689,29.869256,-97.89591
980,30.515092,-97.408642
5511,30.702941,-97.69005
2376,30.23514,-97.854813
5613,30.313634,-97.483197
735,29.886781,-97.991968
557,30.45357,-97.57921
606,30.145238,-97.583182
1778,30.247075,-97.784821
4452,30.400311,-97.707452
882,30.656402,-97.262914
1743,30.044544,-97.794242
755,30.1139,-98.246902
2628,30.298207,-97.802389
7173,30.576649,-97.230771
495,30.199342,-97.739267
3984,30.353015,-97.758006
7105,30.530137,-97.784205
3956,30.377127,-97.738548
5644,30.532268,-97.423996
945,30.820892,-97.877474
4601,30.659603,-97.538345
7360,30.638409,-97.56754
2451,30.180322,-97.790013
3037,30.246302,-97.735297
2283,30.32185,-97.955313
4604,30.673487,-97.701638
5658,30.586548,-97.380104
1803,30.144604,-97.808804
193,30.419626,-97.687169
317,30.318928,-97.741563
4990,30.427203,-97.756272
5824,30.771277,-97.435181
4788,30.643704,-97.871143
4813,30.803422,-97.850393
2608,30.33747,-97.864691
5722,30.572654,-97.420423
7366,29.80524,-98.011374
5572,30.69885,-97.549337
2329,30.199346,-97.867275
7350,30.366422,-97.894353
4172,30.321047,-97.684731
2258,30.161605,-97.952457
5845,30.465162,-97.234926
28,30.343668,-97.905759
1431,29.880615,-97.912757
1368,30.22719,-98.169205
351,30.285307,-97.701787
4208,30.305753,-97.697286
5786,30.50493,-97.326034
1120,30.406566,-97.85219
863,30.880283,-97.824754
2966,30.185189,-97.772304
4760,30.520525,-97.829851
1124,30.408449,-97.758688
5839,30.719198,-97.320705
1241,30.047991,-98.025834
5538,30.703664,-97.589123
1975,29.918328,-97.876762
4870,30.536342,-97.651289
2286,30.153247,-97.833034
5420,30.501635,-97.580851
43,30.272366,-98.013199
1297,30.159975,-98.178438
3782,30.294917,-97.719603
2040,29.973379,-97.87508
5416,30.409512,-97.5607
779,29.807481,-97.955
2739,30.135807,-97.680223
6068,30.079508,-97.691073
7102,30.474478,-97.78753
6261,30.39649,-97.746479
4595,30.682861,-97.717634
871,30.685782,-97.776485
650,30.556867,-97.534104
5290,30.548565,-97.743601
5626,30.480879,-97.250779
1116,30.840504,-97.903407
999,30.511418,-97.468827
4626,30.44215,-97.911725
6967,30.338124,-98.145034
4708,30.461121,-97.793506
891,30.54927,-97.453586
7222,30.764983,-97.665833
763,30.277913,-98.137608
691,30.103535,-97.972025
5289,30.556464,-97.707434
4656,30.460705,-97.838284
1958,29.997898,-97.850285
1033,30.723527,-97.294568
890,30.460507,-97.1884
4800,30.58685,-97.809208
5532,30.873512,-97.725051
1516,29.859231,-97.95031
2629,30.314974,-97.826522
1573,29.87622,-97.952048
6077,30.048895,-97.691515
6581,30.530997,-97.72323
6608,30.113569,-97.949825
3863,30.286805,-97.725577
1308,30.058892,-98.162858
666,29.896453,-98.064179
5504,30.700789,-97.739677
359,30.284903,-97.743151
693,30.083197,-98.064494
5997,30.329549,-97.650959
4946,30.518784,-97.718423
1219,30.607574,-97.506741
5309,30.592913,-97.68961
2249,30.153575,-97.994535
640,30.645536,-97.648227
3670,30.293801,-97.769587
5526,30.716307,-97.662461
6504,30.394323,-97.549175
583,30.044241,-97.823901
1023,30.804915,-97.569578
5241,30.495811,-97.664951
4815,30.815593,-97.808884
2293,30.202866,-97.837208
514,30.209973,-97.775986
4030,30.357715,-97.738588
1942,30.131151,-98.015189
1819,29.966324,-97.926509
1967,29.944065,-97.798207
6814,29.927671,-97.905354
4996,30.45592,-97.776371
3461,30.263791,-97.696283
4654,30.420247,-97.845343
6808,29.90446,-97.993896
7236,30.606813,-97.450413
7050,30.799574,-97.867794
6577,30.129313,-97.778358
2198,30.138468,-97.795207
6852,30.485832,-97.58483
3565,30.342831,-97.705712
5615,30.305646,-97.503287
4980,30.420125,-97.772972
733,30.079967,-97.990787
3604,30.366433,-97.711165
2213,30.307708,-97.927441
1381,30.285707,-98.103249
2416,30.197267,-97.816427
1342,29.985865,-98.075657
108,30.575265,-97.671384
7418,30.217253,-97.668257
5784,30.476657,-97.335322
3234,30.238597,-97.725762
4596,30.666229,-97.665892
2084,30.071266,-97.84389
6374,30.553424,-97.765839
2569,30.260056,-97.805347
2622,30.382368,-97.871525
6629,30.468595,-97.715297
6292,30.316162,-97.662921
5437,30.651648,-97.577847
6769,30.08996,-97.708192
7070,30.665448,-97.905751
4821,30.756328,-97.876023
6035,30.133494,-97.650461
692,30.156158,-97.922656
1641,29.883692,-97.935194
6538,30.356133,-97.600483
3442,30.218938,-97.689427
754,29.995598,-98.167437
749,30.158316,-98.110565
4637,30.545899,-97.793087
1438,29.82181,-98.007133
16,30.33372,-98.076591
501,30.207631,-97.603752
5424,30.495909,-97.563138
6765,30.101144,-97.759866
3715,30.304075,-97.753333
6645,30.312647,-97.537075
679,30.030066,-98.080249
3920,30.317393,-97.720878
5867,30.519892,-97.814475
7101,30.5131,-97.854604
1340,29.925171,-98.064188
70,30.250014,-97.943499
7130,30.787696,-97.536638
667,29.955213,-98.126496
7045,30.779992,-97.920107
2308,30.213589,-97.814537
7052,30.762024,-97.858218
668,29.956289,-98.065857
978,30.443943,-97.370321
4285,30.32062,-97.700657
750,30.0445,-98.141486
6726,30.761485,-97.739076
5554,30.732696,-97.553484
5358,30.619936,-97.687571
7235,30.595035,-97.835945
2597,30.274274,-97.80014
5627,30.675673,-97.342045
5460,30.583733,-97.548339
7026,30.351374,-97.462219
7017,30.250878,-97.691026
2546,30.230122,-97.797975
766,30.24439,-98.18288
3751,30.320991,-97.754159
3510,30.340153,-97.738676
2063,29.971545,-97.818273
5791,30.575209,-97.310499
5908,30.461729,-97.815819
4827,30.772247,-97.815611
5482,30.705095,-97.633283
1378,30.280318,-98.155751
661,30.544213,-97.502359
1235,30.40409,-97.637802
3935,30.374388,-97.755373
4150,30.405343,-97.723673
2810,30.155885,-97.638011
2698,29.97976,-97.764403
5672,30.637539,-97.351913
758,30.067054,-98.102025
541,30.164418,-97.745521
1242,30.1098,-98.068304
491,30.219174,-97.770121
5500,30.725787,-97.671934
6026,30.179829,-97.630996
1365,30.179424,-98.191269
4900,30.432226,-97.652867
5612,30.307292,-97.487271
8,30.434403,-98.083907
1749,30.153347,-97.711128
1093,30.609838,-97.218848
4023,30.362383,-97.719797
1843,29.983412,-98.00407
603,30.199903,-97.523203
109,30.569989,-97.644672
1487,29.834039,-97.992218
2163,30.06067,-97.804117
13,30.416288,-97.888347
1201,30.813891,-97.514762
984,30.522277,-97.308176
985,30.505589,-97.247565
940,30.756782,-97.762274
11,30.367501,-98.056627
4924,30.478926,-97.713693
7336,30.404023,-97.584014
7238,30.492758,-97.718957
7138,30.735276,-97.448104
2230,30.386976,-97.903719
2273,30.306929,-97.970205
1020,30.741662,-97.534252
819,30.017435,-97.826144
787,29.859848,-97.970835
160,30.460126,-97.635163
621,30.332948,-97.468369
2355,30.2569,-97.871023
5687,30.440519,-97.502735
5548,30.777046,-97.591018
5842,30.509827,-97.220281
6473,30.351242,-97.483825
6451,30.345771,-97.569036
6394,30.469124,-97.622313
4822,30.707579,-97.85907
4825,30.721292,-97.831363
5679,30.477638,-97.448598
2748,30.109931,-97.622726
5891,30.564769,-97.826268
3435,30.22465,-97.703324
6515,30.186951,-97.556311
175,30.429712,-97.632319
828,30.040951,-97.895792
658,30.548378,-97.339944
720,29.881787,-97.947927
1755,30.158348,-97.776137
6620,30.262367,-97.727775
5697,30.484513,-97.402695
2371,30.229763,-97.864518
572,30.426107,-97.404165
521,30.168372,-97.676869
7120,30.836006,-97.633225
4161,30.312061,-97.687829
5159,30.510871,-97.67944
1393,30.205308,-98.133052
1860,29.900516,-97.958233
1128,30.415637,-97.745701
6635,30.214616,-97.875712
4599,30.674998,-97.621543
6513,30.185545,-97.611935
2299,30.248549,-97.850943
1153,30.439673,-97.873379
2121,30.092148,-97.874553
37,30.352597,-97.921387
506,30.219912,-97.800719
138,30.516269,-97.659832
6923,30.340167,-97.589596
4607,30.675336,-97.664613
5469,30.821903,-97.757842
476,30.243373,-97.754573
924,30.570241,-97.845304
2836,30.279751,-97.680314
2339,30.165113,-97.860279
5576,30.753627,-97.543636
1684,29.872239,-97.922415
5596,30.291006,-97.46401
2745,30.095123,-97.660082
688,30.132727,-98.066773
2706,30.120769,-97.714933
1019,30.727033,-97.485999
2533,30.230378,-97.788003
4850,30.456432,-97.651139
483,30.226569,-97.732462
5779,30.6353,-97.434196
5387,30.447165,-97.617447
1222,30.687437,-97.492532
6294,30.305292,-97.660667
3020,30.25834,-97.748045
18,30.349621,-98.009337
2271,30.238639,-97.918139
1809,29.904764,-97.912
5685,30.433967,-97.482584
3070,30.219675,-97.758024
304,30.296238,-97.606829
4629,30.511005,-97.911433
1135,30.409447,-97.647814
4538,30.337437,-97.558221
1087,30.359273,-97.397532
1009,30.593494,-97.559051
6311,30.258544,-97.676281
4886,30.539912,-97.562729
7169,30.539773,-97.265147
744,30.174555,-98.153721
5607,30.370092,-97.424792
3177,30.215239,-97.734904
556,30.061879,-97.67384
6248,30.486989,-97.769827
5599,30.249944,-97.485084
2278,30.354141,-97.96117
2495,30.236772,-97.830217
1812,29.956683,-97.903285
951,30.624548,-97.751006
5499,30.766132,-97.705638
157,30.460659,-97.68639
4984,30.434873,-97.770067
2364,30.256776,-97.893795
445,30.247651,-97.650627
5423,30.516488,-97.53651
805,30.01983,-97.868262
7042,30.695989,-97.910087
654,30.589385,-97.4345
1010,30.571888,-97.562385
4376,30.379405,-97.682053
4571,30.688883,-97.878742
2217,30.186433,-97.913792
588,30.028229,-97.982658
1008,30.603935,-97.594838
5501,30.737033,-97.691671
2700,30.063897,-97.710553
6439,30.041147,-97.761506
974,30.48328,-97.224474
4865,30.537337,-97.691299
4642,30.536792,-97.806164
1960,29.940408,-97.846714
6832,30.561384,-97.580235
5838,30.698258,-97.330846
5411,30.428613,-97.549755
1194,30.637913,-97.503543
5819,30.749692,-97.473196
2086,30.032572,-97.847181
4830,30.840941,-97.864193
6624,30.538408,-97.892095
5298,30.561484,-97.680063
596,30.087585,-97.751571
5471,30.8064,-97.673961
4801,30.568503,-97.801464
6283,30.229019,-97.884888
180,30.426198,-97.80419
6438,30.018687,-97.714631
3437,30.231294,-97.68355
64,30.267416,-97.928478
5952,30.496132,-97.632518
669,29.950139,-98.009999
4643,30.492385,-97.979233
1018,30.684143,-97.475931
4558,30.674549,-97.933511
7058,30.85645,-97.767488
618,30.327288,-97.527973
1245,30.149237,-98.051563
368,30.283673,-97.780701
1100,29.930219,-97.813404
848,30.174384,-97.984925
2973,30.201081,-97.769338
3752,30.337477,-97.757025
4881,30.49598,-97.65395
886,30.539989,-97.216877
2653,30.290327,-97.828309
5777,30.583139,-97.410716
1028,30.715183,-97.599677
7192,30.484205,-97.424007
7093,30.559553,-97.838477
6170,30.501748,-97.681902
2478,30.24515,-97.80612
4147,30.383302,-97.723823
1369,30.272555,-98.179416
975,30.445868,-97.232566
4560,30.682241,-97.893854
7316,30.030184,-97.674346
1060,30.491587,-97.764424
7022,30.428272,-97.721068
2406,30.176355,-97.833872
613,30.442805,-97.462556
121,30.506262,-97.733466
5799,30.605051,-97.2872
5181,30.48926,-97.696343
1472,29.80115,-97.994277
2321,30.204062,-97.858604
977,30.43847,-97.286145
524,30.204201,-97.575259
1730,30.265256,-97.783519
1325,30.047826,-98.198919
816,29.953982,-97.862871
5409,30.519427,-97.61343
5139,30.48056,-97.675007
5858,30.502986,-97.808189
4443,30.370957,-97.692104
178,30.440343,-97.825646
7373,29.897971,-97.87454
5629,30.678105,-97.315701
616,30.274879,-97.472702
6322,30.326901,-97.666114
5024,30.480572,-97.740615
600,30.144669,-97.747936
566,30.149404,-97.877778
5494,30.79354,-97.6039
5608,30.380452,-97.46579
26,30.292875,-97.964299
5015,30.479351,-97.756071
2340,30.193757,-97.85882
7294,30.316597,-97.73184
1883,29.898973,-97.918589
5118,30.431371,-97.671
4580,30.68251,-97.849655
4574,30.576287,-97.783603
243,30.340503,-97.634953
1150,30.385513,-98.086011
979,30.455046,-97.339311
7089,30.578565,-97.865171
2265,30.241088,-97.94163
3307,30.272069,-97.739349
5037,30.440922,-97.68752
5931,30.666555,-97.64208
4021,30.364044,-97.733895
6177,30.258221,-97.811886
2731,30.100934,-97.727371
590,30.001839,-97.785715
4820,30.726002,-97.875969
3942,30.359421,-97.745953
3520,30.349399,-97.77182
2553,30.232432,-97.807216
4647,30.472365,-97.991415
6143,30.239097,-97.739022
1183,30.425266,-97.532488
925,30.547881,-97.832053
7267,30.319976,-98.006688
560,30.371482,-97.546382
1024,30.750264,-97.681406
1204,30.276789,-97.502484
7308,30.306289,-97.520277
4521,30.330815,-97.62313
42,30.286234,-97.902792
5470,30.784133,-97.665153
2126,30.100671,-97.848911
1089,30.397006,-97.36545
1223,30.690823,-97.524148
5948,30.508417,-97.638151
6625,30.51248,-97.881373
4935,30.471908,-97.690427
5206,30.512397,-97.701599
990,30.660884,-97.299336
6382,30.157334,-97.729342
761,30.271372,-98.086092
5718,30.553931,-97.426502
5832,30.691783,-97.414603
3296,30.254915,-97.734552
1477,29.817537,-97.997344
6685,30.16979,-97.623957
3236,30.23738,-97.716893
7150,30.704189,-97.514827
5716,30.662943,-97.481661
125,30.530948,-97.677935
5916,30.685338,-97.656395
2304,30.21668,-97.845643
685,30.177624,-98.067552
4485,30.247968,-97.579125
6200,30.371615,-97.785562
991,30.599844,-97.309353
7054,30.75532,-97.807921
4919,30.473346,-97.700339
5974,30.450987,-97.592719
74,30.210384,-97.884729
5,30.49655,-97.901257
580,30.079619,-97.796332
852,30.671293,-97.949297
2793,30.280392,-97.727442
1736,30.325587,-97.779934
2138,30.050612,-97.838215
3478,30.271154,-97.709813
732,30.06917,-98.022446
7056,30.84769,-97.796248
4576,30.688299,-97.832567
7180,30.433226,-97.329647
2695,30.110472,-97.65021
1740,30.399031,-97.782486
4594,30.66944,-97.737971
5231,30.482207,-97.660016
4110,30.3864,-97.743353
517,30.19005,-97.752272
2081,30.057411,-97.859417
3406,30.237691,-97.662404
1402,30.182808,-98.124873
976,30.479296,-97.306116
6121,30.480956,-97.793933
2030,29.990351,-97.888739
675,30.019846,-98.0279
1416,30.181782,-98.087413
1959,29.992531,-97.842281
1152,30.407793,-97.874061
4578,30.634317,-97.779071
4587,30.779696,-97.792564
7193,30.501187,-97.409357
446,30.583031,-97.893907
4818,30.688541,-97.936631
6447,30.352021,-97.592137
5874,30.526828,-97.817147
1175,30.4133,-97.673628
7185,30.425158,-97.365509
7046,30.762865,-97.901905
3093,30.227121,-97.771768
2621,30.377412,-97.879879
1250,30.331214,-98.024116
5555,30.696421,-97.613327
5564,30.768228,-97.627666
5733,30.561181,-97.412434
1855,29.917193,-97.933274
1345,30.072243,-98.140645
6688,30.272976,-97.581045
1626,29.863338,-97.937733
973,30.472299,-97.262528
7043,30.59126,-97.858148
1211,30.415024,-97.460113
2123,30.095573,-97.891498
746,30.212417,-98.172451
2049,30.003548,-97.866759
3618,30.303716,-97.746655
2240,30.215089,-97.964775
5709,30.613923,-97.421837
6702,30.594222,-97.790588
2133,30.024867,-97.789988
3140,30.255461,-97.771131
4451,30.378407,-97.706304
1373,30.199549,-98.184398
982,30.479036,-97.392374
7127,30.759316,-97.603915
6640,30.462424,-97.503768
1961,29.942311,-97.82705
5603,30.319001,-97.443682
2189,30.094513,-97.794342
4092,30.396168,-97.733467
2680,30.387687,-97.824323
4182,30.308319,-97.670495
681,30.043596,-98.053382
633,30.787235,-97.461624
5818,30.722088,-97.417948
1357,30.129918,-98.135692
5742,30.567963,-97.435492
542,30.160598,-97.815586
2011,29.998405,-97.875004
3924,30.339042,-97.723383
5966,30.487159,-97.62689
2262,30.193069,-97.924096
5363,30.629838,-97.656164
6018,30.195923,-97.626736
3701,30.2884,-97.75249
6680,30.371741,-97.624862
4527,30.381294,-97.606003
254,30.333871,-97.675748
1196,30.655746,-97.51178
4653,30.522306,-97.84176
5119,30.418543,-97.659683
4481,30.390634,-97.658879
6124,30.493896,-97.781133
30,30.653697,-97.705243
7168,30.637115,-97.257052
4833,30.887819,-97.801274
1745,30.085718,-97.767393
481,30.218675,-97.746881
4156,30.289917,-97.679542
1202,30.753481,-97.522255
1147,30.397315,-97.519255
3697,30.300289,-97.77499
1964,29.963873,-97.849113
7186,30.450452,-97.354343
2846,30.211133,-97.657961
1005,30.578301,-97.465299
3448,30.221328,-97.683421
5335,30.640803,-97.677856
3642,30.30906,-97.72931
3136,30.27479,-97.7625
4630,30.649572,-97.910658
6713,29.892687,-98.006621
867,30.575118,-97.820445
6057,30.090227,-97.684361
4700,30.455257,-97.791952
748,30.220277,-98.100548
1813,30.028014,-97.910045
4872,30.587911,-97.657458
5456,30.643828,-97.615315
3741,30.322292,-97.769829
946,30.809086,-97.788775
531,30.170457,-97.748821
4826,30.764621,-97.842461
1265,29.883649,-97.922986
7137,30.753661,-97.487775
7024,30.465685,-97.80317
7144,30.709134,-97.456914
1326,30.097785,-98.239317
736,29.908987,-97.972402
4492,30.262993,-97.62151
4885,30.517886,-97.571325
1901,29.89031,-97.936246
1022,30.767866,-97.516497
1319,30.015618,-98.070197
1421,30.249399,-98.058146
2216,30.181256,-97.90037
5680,30.520829,-97.44849
