id,lat,long
6263,30.431771,-97.764169
1830,30.028376,-97.926097
665,30.52616,-97.553431
7301,30.245677,-97.768647
772,29.850646,-97.932248
5898,30.5779,-97.833488
297,30.310034,-97.680821
5536,30.733059,-97.611137
1110,30.193282,-98.236528
5795,30.632659,-97.33326
6478,30.350821,-97.473066
2707,30.112132,-97.694721
5245,30.480946,-97.669564
68,30.238308,-97.892018
943,30.84407,-97.797976
1377,30.27055,-98.068497
7006,30.620736,-97.671194
3927,30.331677,-97.722701
1354,30.061194,-98.075962
5701,30.565571,-97.44158
2840,30.202928,-97.639066
2022,29.976854,-97.873979
7003,30.183049,-97.780152
7143,30.712262,-97.473808
4501,30.342182,-97.570596
4626,30.44215,-97.911725
977,30.43847,-97.286145
5853,30.486254,-97.805073
2165,30.094963,-97.813585
4462,30.395723,-97.672955
3297,30.269081,-97.74345
4818,30.688541,-97.936631
209,30.420193,-97.603293
1870,29.890985,-97.952746
6700,30.338148,-97.919886
368,30.283673,-97.780701
1489,29.835006,-97.9781
124,30.529538,-97.693185
1410,30.167629,-98.086571
428,30.258971,-97.683975
881,30.834316,-97.589673
3945,30.352191,-97.749012
5682,30.474647,-97.403883
647,30.63058,-97.608464
6077,30.048895,-97.691515
6613,30.171652,-97.888239
4785,30.638304,-97.832758
4586,30.720897,-97.773644
6670,30.471894,-97.50215
6515,30.186951,-97.556311
7438,30.325254,-97.812413
2316,30.237141,-97.831908
4646,30.454777,-97.979566
5080,30.420687,-97.704598
713,29.888441,-97.926399
3190,30.232282,-97.720065
5924,30.681573,-97.652584
674,29.997999,-98.058955
986,30.504025,-97.182869
2236,30.196676,-98.013609
1337,29.981565,-98.139629
6860,30.482092,-97.610513
3951,30.373997,-97.739991
5884,30.540422,-97.816301
6688,30.272976,-97.581045
1031,30.658509,-97.527026
1371,30.300407,-98.170914
6439,30.041147,-97.761506
6356,30.573871,-97.381476
5428,30.574626,-97.587728
4810,30.774649,-97.876885
7334,30.445402,-98.098789
4566,30.463153,-97.779733
4371,30.352414,-97.678628
3898,30.319163,-97.738862
743,30.190007,-98.168253
1822,30.014425,-97.859689
1322,30.094404,-98.170976
5817,30.734598,-97.355522
5015,30.479351,-97.756071
2064,29.976888,-97.808745
7170,30.5629,-97.285197
1120,30.406566,-97.85219
617,30.297379,-97.511156
2997,30.190794,-97.744502
599,30.428163,-97.513846
18,30.349621,-98.009337
3834,30.292142,-97.722255
99,30.188004,-97.841393
6650,30.357634,-97.616036
1087,30.359273,-97.397532
5564,30.768228,-97.627666
2539,30.233339,-97.798214
1020,30.741662,-97.534252
4322,30.302693,-97.66126
2650,30.281643,-97.842091
6040,30.13062,-97.65459
2080,30.085233,-97.874376
7307,29.942808,-97.87517
5101,30.449126,-97.695808
4795,30.551599,-97.855188
1938,30.068102,-97.95782
6432,30.176458,-97.689641
2198,30.138468,-97.795207
51,30.205053,-97.932402
5319,30.591954,-97.691457
7069,30.67025,-97.905648
1941,30.124197,-98.031112
569,30.560541,-97.747161
3063,30.215896,-97.750057
1191,30.593317,-97.519759
1227,30.766484,-97.479858
3417,30.222207,-97.677602
1707,30.145025,-97.852244
947,30.787546,-97.733844
4898,30.518637,-97.649818
1806,29.893021,-97.911456
6765,30.101144,-97.759866
1072,30.511773,-97.789939
3570,30.34344,-97.703885
5330,30.663183,-97.691479
990,30.660884,-97.299336
7061,30.716159,-97.860061
4656,30.460705,-97.838284
109,30.569989,-97.644672
2146,30.058164,-97.833704
2661,30.281367,-97.808305
5549,30.693266,-97.574742
2369,30.220274,-97.85766
6067,30.079998,-97.692053
4674,30.512101,-97.85779
1438,29.82181,-98.007133
6202,30.384604,-97.766459
609,30.165474,-97.640056
5779,30.6353,-97.434196
2458,30.205473,-97.790072
3460,30.25587,-97.701428
5785,30.469994,-97.347971
2675,30.365612,-97.79694
1146,30.375385,-97.528483
4138,30.400346,-97.745409
4286,30.31453,-97.707302
5115,30.423772,-97.67
1136,30.231017,-97.516594
1839,29.956176,-97.969228
4536,30.394636,-97.595064
5190,30.484788,-97.694529
1116,30.840504,-97.903407
3710,30.30183,-97.755075
2275,30.309794,-97.965369
3540,30.371924,-97.715503
3188,30.239866,-97.731566
6608,30.113569,-97.949825
5530,30.829191,-97.701924
4803,30.574615,-97.789068
971,30.570439,-97.411401
532,30.16781,-97.730989
5150,30.507716,-97.685713
5500,30.725787,-97.671934
1326,30.097785,-98.239317
1389,30.189203,-98.109283
6886,30.252891,-97.602547
7016,30.810491,-97.500176
4,30.531993,-97.967226
797,29.871145,-97.9443
5639,30.533141,-97.486528
4591,30.852156,-97.746004
2,30.595955,-97.873341
5829,30.742549,-97.431153
666,29.896453,-98.064179
6566,30.260125,-97.906248
5295,30.594977,-97.763822
1753,30.140648,-97.567176
2238,30.228909,-97.95054
753,30.019708,-98.232533
5626,30.480879,-97.250779
6404,29.92377,-97.89152
7066,30.632857,-97.987369
7284,30.073656,-97.732522
7168,30.637115,-97.257052
1478,29.862223,-97.998377
4894,30.532765,-97.605992
7350,30.366422,-97.894353
3465,30.275018,-97.698563
4739,30.446597,-97.7889
11,30.367501,-98.056627
6816,30.497605,-97.8136
6529,30.387182,-97.648215
6989,30.480331,-97.552125
1728,30.26528,-97.784538
5648,30.504468,-97.372776
5357,30.619463,-97.694186
2824,30.336064,-97.65136
1367,30.257611,-98.169802
6307,30.275811,-97.667803
3374,30.269041,-97.721462
5306,30.558124,-97.69107
1315,30.019125,-98.130309
6744,30.630232,-97.641384
6584,30.513947,-97.71653
7327,30.40252,-97.46795
5671,30.650676,-97.393053
1698,30.008939,-97.764874
6339,30.332184,-97.617231
6864,30.475538,-97.596566
1736,30.325587,-97.779934
1200,30.786327,-97.570382
650,30.556867,-97.534104
1346,30.107668,-98.131384
2467,30.244234,-97.808808
6462,30.34922,-97.521536
7008,30.317908,-97.864335
7210,30.822921,-97.826897
1559,29.865419,-97.962971
7360,30.638409,-97.56754
1967,29.944065,-97.798207
5793,30.586328,-97.319771
4356,30.322776,-97.670457
2249,30.153575,-97.994535
4548,30.510388,-98.038942
5385,30.426126,-97.615762
5966,30.487159,-97.62689
2914,30.213072,-97.70698
4594,30.66944,-97.737971
151,30.454371,-97.816014
6372,30.540793,-97.790415
7457,30.461758,-97.439574
2894,30.214327,-97.766695
5716,30.662943,-97.481661
7071,30.675385,-97.872958
1689,29.869256,-97.89591
7291,30.449558,-97.72133
7185,30.425158,-97.365509
2691,30.024991,-97.699893
5751,30.590354,-97.429884
6797,29.830315,-97.941762
2391,30.185679,-97.816079
2091,30.087256,-97.830648
2255,30.231634,-97.999975
4825,30.721292,-97.831363
7063,30.62233,-97.903366
6002,30.289525,-97.628676
202,30.400383,-97.71107
2110,30.027821,-97.874967
856,30.766585,-97.9192
285,30.331953,-97.759891
1274,29.908608,-98.008721
1332,29.987964,-98.111264
7104,30.471042,-97.791021
6812,29.93177,-97.935906
4136,30.387862,-97.735454
4494,30.255091,-97.555928
5561,30.679606,-97.606532
6961,30.478887,-97.722983
3680,30.286278,-97.763423
5623,30.321102,-97.430977
5377,30.438686,-97.566483
5050,30.439962,-97.669378
870,30.78796,-97.831057
4375,30.37345,-97.677494
1186,30.51811,-97.517307
4760,30.520525,-97.829851
5492,30.816731,-97.608427
1444,29.814105,-98.000616
681,30.043596,-98.053382
4006,30.355995,-97.730568
6727,30.804112,-97.660227
2329,30.199346,-97.867275
5425,30.601915,-97.622051
1392,30.205816,-98.144811
3789,30.281091,-97.728794
5382,30.496801,-97.592503
7314,30.102734,-97.614224
2355,30.2569,-97.871023
2940,30.157315,-97.769031
5613,30.313634,-97.483197
562,30.30919,-97.550996
3802,30.291578,-97.737599
7015,30.792845,-97.426208
631,30.51116,-97.432012
1223,30.690823,-97.524148
7272,30.096113,-97.780599
1939,30.059516,-97.989525
180,30.426198,-97.80419
7266,30.336108,-97.970426
5,30.49655,-97.901257
2285,30.391435,-97.937119
991,30.599844,-97.309353
1082,30.747149,-97.300292
4304,30.332062,-97.702825
1950,29.926522,-97.83059
2181,30.112819,-97.795296
5834,30.717641,-97.442871
7124,30.826595,-97.533557
7320,30.136381,-97.598501
6049,30.107364,-97.668284
7466,30.293874,-97.922855
2030,29.990351,-97.888739
6684,30.389098,-97.987451
1353,30.121344,-98.088327
5636,30.663398,-97.364777
5651,30.547684,-97.408307
1423,30.299922,-98.088865
3018,30.252084,-97.748325
1382,30.256388,-98.109119
6901,30.374754,-97.582244
1750,30.158266,-97.681272
2251,30.24336,-98.021496
2644,30.298267,-97.827853
817,29.993338,-97.863652
7001,30.458967,-97.753708
2727,30.123976,-97.740532
305,30.35485,-97.821754
6547,30.507992,-97.774544
2424,30.163204,-97.788333
1118,30.43398,-98.04384
2266,30.240527,-97.920292
7258,30.558687,-97.569916
5633,30.602244,-97.247418
6542,30.34424,-97.580604
5478,30.714604,-97.645662
6108,30.48711,-97.83847
5699,30.591685,-97.4754
2319,30.208596,-97.80447
5670,30.525988,-97.343815
1067,30.600584,-97.804895
1220,30.615287,-97.542575
6494,30.417458,-97.537426
2239,30.208494,-97.972777
1114,30.659689,-98.030267
2221,30.282704,-97.876244
3317,30.269031,-97.734221
945,30.820892,-97.877474
2204,30.290398,-98.020961
1828,30.014363,-97.812917
1886,29.889904,-97.935206
2286,30.153247,-97.833034
6827,30.599563,-97.596762
5514,30.695982,-97.686799
3438,30.238965,-97.689002
7223,30.754825,-97.721356
644,30.708185,-97.434506
2514,30.266143,-97.817979
1972,29.893323,-97.88093
6968,30.356862,-98.164399
6025,30.184097,-97.630291
2948,30.198488,-97.764091
6588,30.217647,-97.837748
6596,30.47007,-97.699959
160,30.460126,-97.635163
6009,30.227088,-97.616267
2083,30.085233,-97.849017
1113,30.530257,-98.103332
6412,30.659281,-97.657317
4794,30.576412,-97.871701
3209,30.2263,-97.743882
1310,30.08205,-98.171247
6560,30.5343,-97.782482
1293,30.194871,-98.049602
5776,30.592425,-97.412811
5972,30.453979,-97.593993
4357,30.333725,-97.677994
1724,30.227454,-97.779953
7290,30.507604,-97.673949
745,30.1517,-98.154464
4855,30.538996,-97.666118
4833,30.887819,-97.801274
4844,30.48454,-97.650617
6231,30.445279,-97.743061
4430,30.365189,-97.701594
5468,30.788481,-97.765364
1336,29.938804,-98.081782
2262,30.193069,-97.924096
5843,30.459642,-97.216268
1038,30.713284,-97.917453
6526,30.23481,-97.876511
6426,30.144143,-97.696975
7180,30.433226,-97.329647
4892,30.54647,-97.613963
669,29.950139,-98.009999
3938,30.394125,-97.747009
3201,30.215227,-97.733413
3977,30.357226,-97.761172
2623,30.394185,-97.868841
6521,30.175664,-97.528057
1566,29.860948,-97.947894
3128,30.272814,-97.761144
6691,30.042234,-97.790697
886,30.539989,-97.216877
5839,30.719198,-97.320705
1043,30.043099,-97.852821
4054,30.349569,-97.722736
6936,30.290163,-97.572573
5595,30.848384,-97.594301
5600,30.272989,-97.504777
5678,30.459601,-97.468147
1323,30.000072,-98.200099
7077,30.62811,-97.852532
1225,30.783688,-97.524716
5009,30.505347,-97.737881
1817,30.016504,-97.897091
5343,30.649881,-97.680663
5504,30.700789,-97.739677
951,30.624548,-97.751006
6451,30.345771,-97.569036
5774,30.563024,-97.387907
1543,29.844947,-97.959837
742,30.139214,-98.214295
1115,30.709085,-98.002919
4268,30.324231,-97.69463
4585,30.733725,-97.794622
2922,30.184813,-97.756169
2639,30.305985,-97.782053
1094,29.934113,-98.150473
5787,30.48948,-97.283439
96,30.166515,-97.868659
780,29.773576,-97.997444
1373,30.199549,-98.184398
4232,30.308811,-97.711673
7402,30.285284,-97.663601
7336,30.404023,-97.584014
4823,30.703334,-97.827939
5598,30.232037,-97.492005
5469,30.821903,-97.757842
1963,29.955021,-97.83949
108,30.575265,-97.671384
1076,30.887022,-97.703803
1149,30.409589,-98.109364
6704,30.333671,-97.510482
1307,30.035229,-98.179821
7167,30.629049,-97.372002
5484,30.754238,-97.662455
4972,30.425646,-97.752839
5525,30.700241,-97.651021
2122,30.097269,-97.874777
6055,30.094597,-97.681508
4925,30.474693,-97.767314
7147,30.727206,-97.491715
5891,30.564769,-97.826268
6733,30.62556,-97.468504
7282,30.075896,-97.748536
6,30.460701,-97.882086
6195,30.348257,-97.79738
777,29.832686,-97.918297
1349,30.06887,-98.125564
1400,30.246396,-98.12472
1605,29.871191,-97.918273
972,30.43632,-97.251463
1398,30.213293,-98.084826
7208,30.82,-97.856489
4577,30.63684,-97.798583
624,30.39936,-97.440864
1009,30.593494,-97.559051
5634,30.670731,-97.27318
1833,30.004704,-97.82677
3075,30.231228,-97.763595
2393,30.179238,-97.795686
1976,29.917495,-97.895689
5647,30.499596,-97.39926
1570,29.880348,-97.950762
627,30.389228,-97.501275
956,30.6491,-97.637474
409,30.256691,-97.729877
4543,30.38719,-97.553175
598,30.438973,-97.543138
5132,30.452635,-97.665576
4871,30.547028,-97.636558
992,30.590803,-97.346743
6562,30.308998,-97.945282
74,30.210384,-97.884729
4376,30.379405,-97.682053
7158,30.630489,-97.304221
5832,30.691783,-97.414603
1342,29.985865,-98.075657
499,30.200401,-97.668694
4848,30.412924,-97.651448
1314,30.012098,-98.120381
2279,30.354964,-97.986207
3722,30.307536,-97.75811
524,30.204201,-97.575259
1935,30.084815,-98.013181
7065,30.64746,-97.944869
4634,30.518785,-97.894821
4644,30.481116,-97.976926
2635,30.310491,-97.801552
1385,30.159139,-98.245775
227,30.347504,-97.604697
1446,29.815446,-97.96404
934,30.658855,-97.849323
1484,29.847718,-97.981245
2697,29.994679,-97.749232
5537,30.737231,-97.597092
4695,30.412155,-97.792001
5641,30.451534,-97.391454
4896,30.665946,-97.644186
375,30.279904,-97.743468
5985,30.393899,-97.628423
4631,30.572379,-97.907746
2799,30.278268,-97.69086
5723,30.567752,-97.419312
7024,30.465685,-97.80317
4942,30.529987,-97.719633
331,30.304357,-97.731148
661,30.544213,-97.502359
591,29.979146,-97.846817
1206,30.350266,-97.500359
4638,30.529622,-97.844844
5624,30.669976,-97.44985
243,30.340503,-97.634953
5552,30.765104,-97.588043
2258,30.161605,-97.952457
5489,30.789934,-97.62124
5238,30.490226,-97.676392
5554,30.732696,-97.553484
5401,30.507073,-97.613313
6483,30.35158,-97.451719
1448,29.828849,-97.983841
5334,30.63292,-97.683571
2734,30.027369,-97.688502
1416,30.181782,-98.087413
1228,30.410299,-97.695637
2124,30.114723,-97.874813
6842,30.532516,-97.576163
6363,30.005201,-98.081408
4614,30.674731,-97.585937
4016,30.348959,-97.734995
3135,30.259477,-97.748904
2237,30.179153,-97.965435
210,30.396551,-97.82942
1697,29.963481,-97.777722
5555,30.696421,-97.613327
6018,30.195923,-97.626736
4492,30.262993,-97.62151
6712,30.09504,-97.922736
4474,30.400589,-97.676574
5318,30.581657,-97.693204
2689,30.021253,-97.742644
7179,30.4626,-97.270295
6273,30.235156,-97.858078
3543,30.282226,-97.717243
5867,30.519892,-97.814475
1837,29.89864,-97.973549
3433,30.223624,-97.700876
576,30.42248,-97.862996
7441,30.274944,-97.817679
7202,30.63348,-97.491618
2476,30.233651,-97.818327
7169,30.539773,-97.265147
5674,30.553811,-97.320574
1812,29.956683,-97.903285
1246,30.153385,-98.016194
5709,30.613923,-97.421837
1772,30.142173,-97.728856
5692,30.484939,-97.479211
192,30.421209,-97.724833
6143,30.239097,-97.739022
7141,30.706557,-97.504814
5999,30.315554,-97.634576
2731,30.100934,-97.727371
5574,30.684075,-97.545482
865,30.74618,-97.845772
3732,30.329313,-97.752634
396,30.283335,-97.680221
7000,30.737999,-97.936347
7236,30.606813,-97.450413
500,30.224758,-97.664314
6565,30.275587,-97.913174
7134,30.799024,-97.452087
2622,30.382368,-97.871525
1560,29.881201,-97.962979
4214,30.288941,-97.698191
1158,30.404545,-97.768691
6967,30.338124,-98.145034
1213,30.410031,-97.37493
6893,30.391138,-97.581299
1242,30.1098,-98.068304
1351,30.102064,-98.096006
6359,30.583257,-97.613219
2629,30.314974,-97.826522
999,30.511418,-97.468827
1150,30.385513,-98.086011
7229,30.694007,-97.85456
2609,30.341261,-97.881847
520,30.179088,-97.714023
6726,30.761485,-97.739076
5336,30.633116,-97.671605
4510,30.349038,-97.538265
1108,30.270539,-98.206818
4914,30.471264,-97.670375
1932,30.03879,-97.948547
3896,30.317586,-97.728383
6988,30.458768,-97.565788
6485,30.352275,-97.41145
5573,30.708926,-97.571769
7137,30.753661,-97.487775
2815,30.276595,-97.636962
7196,30.619446,-97.565469
2003,29.926976,-97.86222
2163,30.06067,-97.804117
65,30.237106,-97.93101
5535,30.755718,-97.633313
135,30.520364,-97.690696
933,30.65866,-97.776031
1250,30.331214,-98.024116
5024,30.480572,-97.740615
5285,30.618022,-97.688082
4813,30.803422,-97.850393
6763,30.113679,-97.782154
1609,29.876501,-97.929761
763,30.277913,-98.137608
1784,30.152491,-97.670395
5458,30.546239,-97.545455
891,30.54927,-97.453586
2595,30.256627,-97.802043
6938,30.32696,-97.582044
7005,30.185978,-97.611815
4150,30.405343,-97.723673
2085,30.038451,-97.84427
5786,30.50493,-97.326034
6536,30.366735,-97.614736
6297,30.312175,-97.662266
1119,30.4147,-97.974328
751,30.072636,-98.204517
6032,30.15357,-97.638904
7463,30.503925,-97.579577
828,30.040951,-97.895792
976,30.479296,-97.306116
5288,30.607257,-97.665452
4111,30.382093,-97.740562
4603,30.738582,-97.774019
5685,30.433967,-97.482584
1626,29.863338,-97.937733
4621,30.441616,-97.781865
3369,30.257768,-97.723926
2235,30.215547,-98.02279
616,30.274879,-97.472702
1765,30.194254,-97.78212
7450,30.552871,-97.518413
1921,29.892884,-97.917288
1092,30.474429,-97.162178
2695,30.110472,-97.65021
2123,30.095573,-97.891498
1401,30.254291,-98.082014
1148,30.408455,-97.512478
4595,30.682861,-97.717634
5842,30.509827,-97.220281
2669,30.323684,-97.794141
3542,30.377865,-97.710497
6986,30.352589,-97.642447
4808,30.740692,-97.896759
6743,30.604981,-97.718731
6120,30.485326,-97.536642
1841,29.969026,-97.989404
6715,29.85124,-97.902503
4571,30.688883,-97.878742
5679,30.477638,-97.448598
2851,30.212605,-97.745592
5464,30.620096,-97.543473
3974,30.374072,-97.726007
1738,30.341,-97.77894
6914,30.350438,-97.592569
2257,30.174159,-97.929221
534,30.143493,-97.687533
1305,29.967769,-98.189493
2967,30.190404,-97.77062
6362,30.026858,-98.101147
3486,30.254167,-97.692279
2775,30.277098,-97.768748
1407,30.227215,-98.154469
2430,30.173786,-97.80677
6817,30.507128,-97.830759
597,30.058818,-97.723985
4002,30.360664,-97.744671
1151,30.406921,-98.058975
4628,30.557239,-97.945845
4703,30.46096,-97.793945
7321,30.151669,-97.586275
4441,30.358347,-97.686153
6125,30.496184,-97.77416
114,30.540723,-97.693987
2839,30.211935,-97.657026
1128,30.415637,-97.745701
5799,30.605051,-97.2872
1036,30.699874,-97.356277
6199,30.37193,-97.785878
1422,30.246189,-98.047347
522,30.128184,-97.613068
1124,30.408449,-97.758688
6643,30.333247,-97.549335
1238,30.026318,-98.043982
7235,30.595035,-97.835945
1205,30.294375,-97.524078
2176,30.112147,-97.805531
6577,30.129313,-97.778358
2125,30.124805,-97.862555
5393,30.464107,-97.625553
5534,30.728232,-97.642808
890,30.460507,-97.1884
111,30.518674,-97.768768
5754,30.577677,-97.42774
4985,30.437025,-97.77455
16,30.33372,-98.076591
7123,30.809306,-97.549092
2390,30.176355,-97.832375
946,30.809086,-97.788775
5247,30.492495,-97.654896
5031,30.440033,-97.696581
2272,30.303727,-97.997469
6821,30.62144,-97.615487
3523,30.344295,-97.75267
2343,30.207564,-97.860569
4313,30.313183,-97.690581
2841,30.337559,-97.719007
2297,30.232333,-97.840227
2728,30.113733,-97.719341
1954,29.959461,-97.877099
688,30.132727,-98.066773
6769,30.08996,-97.708192
3697,30.300289,-97.77499
2208,30.218164,-97.894051
7120,30.836006,-97.633225
1192,30.59844,-97.503766
4587,30.779696,-97.792564
714,29.893447,-97.938495
5643,30.546803,-97.434591
113,30.542739,-97.739952
304,30.296238,-97.606829
2634,30.290013,-97.819354
7393,29.884167,-97.939961
1712,30.148136,-97.793388
2690,30.009015,-97.72796
4781,30.568872,-97.848488
983,30.493829,-97.35547
6188,30.335009,-97.805752
2308,30.213589,-97.814537
12,30.421566,-97.941993
7121,30.830661,-97.562261
7078,30.615094,-97.84777
6672,30.476395,-97.527509
5947,30.522964,-97.636275
5820,30.740767,-97.46741
2278,30.354141,-97.96117
5676,30.427887,-97.451867
507,30.21642,-97.7932
541,30.164418,-97.745521
667,29.955213,-98.126496
2216,30.181256,-97.90037
1235,30.40409,-97.637802
2850,30.189539,-97.703901
3099,30.225515,-97.766549
6736,30.656012,-97.720317
2072,29.964911,-97.794449
7165,30.623191,-97.394426
31,30.344763,-97.869942
4792,30.573004,-97.882665
4836,30.85163,-97.82009
5938,30.636992,-97.628174
5642,30.531828,-97.446217
5280,30.605336,-97.686652
935,30.678669,-97.678827
1091,30.529067,-97.185122
4939,30.498858,-97.721344
1053,30.405887,-98.02832
3640,30.307847,-97.742342
2021,29.984511,-97.872966
4253,30.341625,-97.696741
1973,29.90875,-97.859715
2248,30.194559,-98.029824
1776,30.244055,-97.781187
6667,30.439846,-97.519717
4553,30.471878,-97.783285
7464,30.072423,-97.82723
415,30.274171,-97.70587
6398,30.161805,-97.860066
7173,30.576649,-97.230771
6679,30.371034,-97.62523
3907,30.324701,-97.743632
4280,30.322574,-97.706824
1275,29.917247,-98.051817
7312,30.252924,-97.531984
7172,30.605108,-97.236646
6492,30.377096,-97.442616
253,30.337807,-97.664499
884,30.577103,-97.332716
2624,30.389427,-97.882163
2745,30.095123,-97.660082
2130,30.044463,-97.840432
2553,30.232432,-97.807216
4816,30.690112,-97.971308
4658,30.475713,-97.815704
1406,30.205647,-98.128349
290,30.320679,-97.720953
5711,30.553618,-97.48268
7116,30.540557,-97.771342
5498,30.745366,-97.705643
429,30.252393,-97.675294
1958,29.997898,-97.850285
1983,29.901008,-97.904288
1111,30.320581,-98.18806
588,30.028229,-97.982658
5553,30.745678,-97.551252
1298,30.129515,-98.173062
176,30.446884,-97.613692
7343,29.862152,-98.014392
5519,30.693886,-97.66954
6335,30.337456,-97.599841
868,30.876242,-97.77401
930,30.532518,-97.804664
5818,30.722088,-97.417948
2924,30.173972,-97.741951
1942,30.131151,-98.015189
5675,30.53446,-97.29119
594,30.48319,-97.56746
6638,30.494898,-97.497682
6198,30.353781,-97.794354
1079,30.670972,-97.244333
1039,30.707511,-97.937796
1297,30.159975,-98.178438
4827,30.772247,-97.815611
2382,30.273753,-97.856936
213,30.393237,-97.800872
980,30.515092,-97.408642
5794,30.605047,-97.32757
7192,30.484205,-97.424007
6705,30.3235,-97.519516
6718,30.562828,-97.79936
4264,30.336173,-97.693107
4482,30.182514,-97.540951
5416,30.409512,-97.5607
6418,30.198005,-97.684306
7113,30.569254,-97.77802
7127,30.759316,-97.603915
1770,30.210002,-97.779795
1171,30.408358,-97.715529
6386,30.165848,-97.696766
1762,30.17127,-97.782507
6883,30.464635,-97.594457
572,30.426107,-97.404165
7149,30.72177,-97.53191
7049,30.795717,-97.885221
602,30.145593,-97.817215
1754,30.159513,-97.555305
5847,30.479534,-97.180841
1299,30.143223,-98.135221
7152,30.649131,-97.441135
2318,30.206976,-97.815059
2370,30.225608,-97.868584
5437,30.651648,-97.577847
7451,30.592391,-97.535393
1731,30.267761,-97.778362
4655,30.445155,-97.831847
1241,30.047991,-98.025834
5983,30.404393,-97.607354
2825,30.377272,-97.658636
760,30.133525,-98.106678
5629,30.678105,-97.315701
4485,30.247968,-97.579125
1359,30.048688,-98.097949
4924,30.478926,-97.713693
1016,30.657724,-97.497322
5169,30.527232,-97.677023
6664,30.414132,-97.630988
1744,30.061135,-97.780788
5838,30.698258,-97.330846
1855,29.917193,-97.933274
5188,30.479359,-97.685253
3125,30.261799,-97.761214
876,30.852528,-97.680214
970,30.75436,-97.408646
863,30.880283,-97.824754
1107,30.106389,-98.270406
53,30.196482,-97.909655
7067,30.654362,-98.016372
6074,30.060984,-97.691764
5608,30.380452,-97.46579
4906,30.621024,-97.644216
4508,30.366481,-97.566501
2328,30.180271,-97.878955
6473,30.351242,-97.483825
779,29.807481,-97.955
6832,30.561384,-97.580235
6365,30.513998,-97.754466
3935,30.374388,-97.755373
1387,30.188182,-98.214616
6286,30.322761,-97.679194
4579,30.660277,-97.947207
7366,29.80524,-98.011374
1966,29.953695,-97.808346
166,30.452449,-97.763846
4900,30.432226,-97.652867
1327,30.096546,-98.216512
3469,30.265362,-97.695233
1025,30.791238,-97.642916
445,30.247651,-97.650627
1414,30.191338,-98.087434
2610,30.35662,-97.832265
7292,30.268269,-97.753861
1316,29.999239,-98.101129
4654,30.420247,-97.845343
9,30.488843,-98.053644
1222,30.687437,-97.492532
1106,29.994705,-98.236289
5316,30.556942,-97.704972
1237,29.984562,-98.038465
1838,29.925388,-97.947524
1308,30.058892,-98.162858
4640,30.539524,-97.83799
6084,30.040994,-97.689019
6041,30.11947,-97.6633
5993,30.329965,-97.642367
5422,30.498847,-97.562853
7368,29.877384,-97.994487
6561,30.304988,-97.934953
5472,30.808492,-97.646445
2145,30.066202,-97.843692
621,30.332948,-97.468369
4560,30.682241,-97.893854
3398,30.166184,-97.660261
643,30.688418,-97.290934
6690,30.267495,-97.604751
36,30.298805,-97.888816
974,30.48328,-97.224474
1047,30.536438,-97.857691
1210,30.418875,-97.427254
4028,30.356393,-97.715739
5611,30.296791,-97.476401
5139,30.48056,-97.675007
2931,30.201675,-97.751597
754,29.995598,-98.167437
2827,30.27895,-97.738418
5037,30.440922,-97.68752
2105,30.141052,-97.839895
3664,30.314457,-97.75495
5485,30.773388,-97.660384
1945,29.950238,-97.884295
69,30.244942,-97.985156
5423,30.516488,-97.53651
145,30.505463,-97.648706
2283,30.32185,-97.955313
1033,30.723527,-97.294568
5821,30.725625,-97.46223
2028,29.97571,-97.893847
4035,30.356587,-97.736352
5079,30.413647,-97.706616
2409,30.169231,-97.825103
693,30.083197,-98.064494
2652,30.304314,-97.840649
5668,30.538495,-97.366042
2269,30.223176,-97.952875
5631,30.526755,-97.250475
749,30.158316,-98.110565
4582,30.7129,-97.797916
5532,30.873512,-97.725051
1447,29.830284,-97.96121
767,30.167197,-98.235175
4197,30.308384,-97.652307
7453,30.468915,-97.642391
734,30.055404,-97.91209
7037,30.457934,-97.822767
7455,30.622793,-97.72452
3447,30.220055,-97.686137
7215,30.862218,-97.802719
979,30.455046,-97.339311
5296,30.632453,-97.764663
5703,30.583673,-97.440749
5441,30.556066,-97.624359
615,30.254773,-97.510731
2246,30.167389,-98.008567
3530,30.350592,-97.708959
6499,30.132632,-97.753456
6984,30.528303,-97.644217
4755,30.493729,-97.826739
6710,30.045735,-97.975909
806,30.038809,-97.873747
4798,30.580474,-97.85324
603,30.199903,-97.523203
501,30.207631,-97.603752
2654,30.287733,-97.826976
590,30.001839,-97.785715
448,30.267841,-97.795414
1409,30.233872,-98.124752
157,30.460659,-97.68639
6714,29.933982,-97.900794
2492,30.236089,-97.824203
6849,30.482371,-97.586644
871,30.685782,-97.776485
750,30.0445,-98.141486
2531,30.230355,-97.789878
4830,30.840941,-97.864193
2611,30.394252,-97.845181
668,29.956289,-98.065857
481,30.218675,-97.746881
883,30.631001,-97.410462
7454,30.323708,-97.477443
155,30.465101,-97.734708
3556,30.301662,-97.715228
7316,30.030184,-97.674346
7153,30.672918,-97.419748
5712,30.584071,-97.497158
5687,30.440519,-97.502735
2628,30.298207,-97.802389
7130,30.787696,-97.536638
1937,30.12097,-97.966499
1412,30.159349,-98.068204
5529,30.826802,-97.731906
6493,30.373892,-97.397909
1499,29.796368,-97.968037
1040,30.505476,-97.850632
242,30.35801,-97.662114
2416,30.197267,-97.816427
5583,30.828043,-97.603747
6624,30.538408,-97.892095
5627,30.675673,-97.342045
5612,30.307292,-97.487271
4815,30.815593,-97.808884
2364,30.256776,-97.893795
3242,30.262292,-97.735939
1749,30.153347,-97.711128
1695,30.152035,-97.971907
1557,29.857091,-97.969138
3814,30.292005,-97.742581
3178,30.230568,-97.7327
1554,29.87309,-97.9555
2694,30.126139,-97.640916
3191,30.235904,-97.728267
1470,29.804461,-97.982193
5802,30.650918,-97.326018
545,30.123992,-97.702255
6971,30.064123,-97.734601
5231,30.482207,-97.660016
7052,30.762024,-97.858218
1699,30.027667,-97.785745
5214,30.514954,-97.685935
1340,29.925171,-98.064188
5110,30.461355,-97.696764
4670,30.479756,-97.80205
2322,30.206944,-97.84541
815,29.989355,-97.816935
1271,29.882033,-97.895876
2299,30.248549,-97.850943
43,30.272366,-98.013199
2748,30.109931,-97.622726
4650,30.666847,-97.916857
5572,30.69885,-97.549337
961,30.580698,-97.634348
1175,30.4133,-97.673628
3539,30.363776,-97.713526
5277,30.632714,-97.709984
2990,30.198516,-97.73521
7093,30.559553,-97.838477
5845,30.465162,-97.234926
1848,29.887377,-97.944393
4725,30.446946,-97.80697
1646,29.870143,-97.939265
5706,30.642893,-97.457134
6687,30.176707,-97.617035
2582,30.26073,-97.792218
3835,30.285868,-97.723461
4788,30.643704,-97.871143
5824,30.771277,-97.435181
2698,29.97976,-97.764403
1431,29.880615,-97.912757
6374,30.553424,-97.765839
5976,30.446855,-97.59328
2063,29.971545,-97.818273
5893,30.558882,-97.822451
7087,30.600357,-97.860978
1319,30.015618,-98.070197
1022,30.767866,-97.516497
1531,29.845758,-97.940197
1245,30.149237,-98.051563
963,30.605618,-97.407175
1419,30.192514,-98.064321
6552,30.523132,-97.773649
2336,30.188385,-97.89214
239,30.374479,-97.696226
1936,30.075656,-98.001528
7178,30.471857,-97.381702
792,29.947011,-97.918627
580,30.079619,-97.796332
5274,30.600619,-97.74742
6209,30.388404,-97.759726
5548,30.777046,-97.591018
1358,30.123076,-98.135616
1509,29.85336,-97.957648
6795,29.841851,-97.913185
5004,30.480842,-97.74819
1365,30.179424,-98.191269
5830,30.71939,-97.47725
658,30.548378,-97.339944
1147,30.397315,-97.519255
1819,29.966324,-97.926509
2268,30.241424,-97.940784
1028,30.715183,-97.599677
1811,29.918339,-97.90818
583,30.044241,-97.823901
1112,30.422055,-98.127277
1380,30.255864,-98.132785
987,30.565058,-97.259618
6281,30.228679,-97.888093
3600,30.338773,-97.710022
5837,30.725492,-97.44187
13,30.416288,-97.888347
6224,30.426204,-97.716268
4364,30.328076,-97.676095
5948,30.508417,-97.638151
1201,30.813891,-97.514762
6128,30.522606,-97.796082
764,30.3165,-98.139466
1497,29.82378,-97.990143
3431,30.232548,-97.698222
6774,30.078712,-97.702452
1420,30.237465,-98.065915
3505,30.292468,-97.71492
1142,30.30344,-97.526112
5601,30.221099,-97.488372
1100,29.930219,-97.813404
7418,30.217253,-97.668257
7214,30.825954,-97.783551
5607,30.370092,-97.424792
3308,30.271784,-97.738346
6815,30.502185,-97.812843
5456,30.643828,-97.615315
5033,30.430782,-97.70031
1193,30.637256,-97.519283
5844,30.492348,-97.203126
7133,30.763747,-97.543111
281,30.308832,-97.854872
3366,30.255577,-97.720672
5371,30.66338,-97.672031
6634,30.207247,-97.877408
3205,30.21579,-97.735121
2306,30.213668,-97.830107
758,30.067054,-98.102025
476,30.243373,-97.754573
848,30.174384,-97.984925
1372,30.162056,-98.141627
1251,30.37458,-98.041928
4048,30.364478,-97.734807
6322,30.326901,-97.666114
1328,30.099451,-98.18839
4561,30.428919,-97.78237
3283,30.255319,-97.736877
1884,29.903718,-97.91319
1021,30.707529,-97.522309
1680,29.881947,-97.92016
4472,30.379816,-97.672884
7156,30.643249,-97.303448
985,30.505589,-97.247565
2194,30.129586,-97.799486
4962,30.424368,-97.769131
5942,30.599089,-97.632599
4487,30.177262,-97.639538
1195,30.674133,-97.519584
5652,30.519539,-97.398686
7351,30.257357,-97.913636
2230,30.386976,-97.903719
5482,30.705095,-97.633283
850,30.629693,-97.936611
1487,29.834039,-97.992218
2822,30.328642,-97.654765
988,30.62155,-97.263684
5496,30.707392,-97.692129
1325,30.047826,-98.198919
546,30.118841,-97.815712
1183,30.425266,-97.532488
5368,30.651745,-97.677266
7157,30.616344,-97.304636
614,30.230896,-97.570828
5672,30.637539,-97.351913
6673,30.381276,-97.724299
2943,30.170108,-97.768355
5526,30.716307,-97.662461
1368,30.22719,-98.169205
692,30.156158,-97.922656
2726,30.114963,-97.746603
5926,30.67432,-97.648284
2700,30.063897,-97.710553
2018,29.989237,-97.881134
4734,30.467894,-97.797175
7357,30.735675,-97.815372
995,30.584139,-97.4234
2441,30.199096,-97.793366
630,30.417448,-97.486022
185,30.409079,-97.806945
4826,30.764621,-97.842461
1010,30.571888,-97.562385
4820,30.726002,-97.875969
6999,30.839077,-97.79333
7058,30.85645,-97.767488
1956,29.94602,-97.844755
5874,30.526828,-97.817147
5784,30.476657,-97.335322
1219,30.607574,-97.506741
1381,30.285707,-98.103249
324,30.289232,-97.674631
1078,30.837785,-97.539898
5506,30.711626,-97.760492
6602,30.498808,-97.804338
1999,29.93194,-97.88714
1253,29.893214,-97.964866
1153,30.439673,-97.873379
6944,30.300794,-97.564053
7038,30.250307,-97.684979
3189,30.225227,-97.723983
5413,30.447385,-97.535671
975,30.445868,-97.232566
766,30.24439,-98.18288
3079,30.220488,-97.758067
5494,30.79354,-97.6039
646,30.617408,-97.492335
1321,30.020471,-98.153274
822,30.070587,-97.864712
978,30.443943,-97.370321
2241,30.196532,-97.997346
3751,30.320991,-97.754159
5323,30.622552,-97.679664
634,30.762333,-97.570963
2529,30.222744,-97.798451
6840,30.543431,-97.574852
4652,30.473235,-97.846112
303,30.28759,-97.640662
1949,29.915845,-97.848869
4917,30.476245,-97.703571
5569,30.775898,-97.627189
6070,30.073714,-97.69251
6623,30.558551,-97.60942
6517,30.189352,-97.58265
5807,30.567339,-97.348889
795,29.89784,-97.928405
6729,30.596499,-97.572197
5813,30.55764,-97.30442
6121,30.480956,-97.793933
3074,30.228159,-97.772839
2127,30.100605,-97.860949
642,30.70538,-97.717715
5363,30.629838,-97.656164
175,30.429712,-97.632319
6361,30.402435,-97.657118
2242,30.217079,-97.962868
2991,30.183938,-97.744425
1745,30.085718,-97.767393
622,30.35486,-97.554176
80,30.224841,-97.835974
7054,30.75532,-97.807921
7435,30.362221,-97.790286
4789,30.62678,-97.824635
5375,30.419243,-97.578894
6629,30.468595,-97.715297
5658,30.586548,-97.380104
5917,30.686135,-97.658683
7195,30.630489,-97.578627
3685,30.293766,-97.759197
93,30.179056,-97.914187
7076,30.64393,-97.856209
4800,30.58685,-97.809208
1374,30.197855,-98.162057
7212,30.818978,-97.894708
1782,30.149434,-97.696636
761,30.271372,-98.086092
5290,30.548565,-97.743601
1329,29.974506,-98.092413
358,30.285682,-97.747977
662,30.518844,-97.603226
5733,30.561181,-97.412434
5501,30.737033,-97.691671
4812,30.782089,-97.852337
5027,30.531697,-97.733191
4146,30.397182,-97.732347
6652,30.341855,-97.612919
1005,30.578301,-97.465299
7174,30.547076,-97.234691
5205,30.516649,-97.698067
4821,30.756328,-97.876023
6538,30.356133,-97.600483
1843,29.983412,-98.00407
5148,30.499487,-97.681572
5697,30.484513,-97.402695
2350,30.240749,-97.880658
5742,30.567963,-97.435492
853,30.639453,-97.894479
1034,30.718481,-97.340303
42,30.286234,-97.902792
48,30.308846,-97.703502
3741,30.322292,-97.769829
7042,30.695989,-97.910087
1198,30.736201,-97.517674
2274,30.315871,-97.97799
4542,30.338695,-97.525887
940,30.756782,-97.762274
7046,30.762865,-97.901905
4403,30.360618,-97.693354
7324,30.311881,-97.563502
2709,30.081814,-97.665963
97,30.152804,-97.866404
7332,30.315166,-98.093687
6668,30.430285,-97.498451
4555,30.45312,-97.77596
4102,30.385977,-97.728418
4872,30.587911,-97.657458
984,30.522277,-97.308176
5063,30.42399,-97.685878
5718,30.553931,-97.426502
4481,30.390634,-97.658879
3912,30.338302,-97.738981
7257,30.564129,-97.542984
748,30.220277,-98.100548
4532,30.362644,-97.629357
4850,30.456432,-97.651139
6807,29.905089,-97.995181
1394,30.219776,-98.118518
3495,30.26997,-97.681979
834,29.898203,-97.896467
732,30.06917,-98.022446
6923,30.340167,-97.589596
6713,29.892687,-98.006621
4630,30.649572,-97.910658
7186,30.450452,-97.354343
556,30.061879,-97.67384
4446,30.385886,-97.695512
7189,30.452564,-97.298518
1360,30.058309,-98.049009
7026,30.351374,-97.462219
5667,30.562234,-97.37597
1740,30.399031,-97.782486
6250,30.4839,-97.768571
6625,30.51248,-97.881373
3770,30.295394,-97.731474
3574,30.350669,-97.692827
115,30.544608,-97.683218
656,30.454708,-97.409402
1249,30.355722,-98.066735
7352,30.43402,-97.896425
2038,29.971791,-97.858385
5378,30.446089,-97.583206
6582,30.540828,-97.724646
1093,30.609838,-97.218848
1461,29.840025,-97.97189
46,30.287223,-97.86426
1378,30.280318,-98.155751
7181,30.433644,-97.347097
21,30.351176,-97.937276
957,30.675787,-97.63588
1425,30.393322,-98.067956
4791,30.565791,-97.865207
1395,30.20463,-98.11855
560,30.371482,-97.546382
273,30.347874,-97.76121
5131,30.463215,-97.667833
3233,30.213179,-97.724969
29,30.321831,-97.89921
7375,30.388924,-97.74555
1,30.550045,-97.861763
577,30.130563,-97.947983
4633,30.477924,-97.901209
5557,30.710929,-97.613472
697,30.232619,-98.041958
2787,30.273559,-97.731662
1129,30.412533,-97.731664
7293,30.34765,-97.712183
6428,30.093237,-97.694117
5952,30.496132,-97.632518
1024,30.750264,-97.681406
639,30.659308,-97.591075
4486,30.157766,-97.59934
628,30.408462,-97.527893
4124,30.377659,-97.734652
4538,30.337437,-97.558221
245,30.3645,-97.740699
5230,30.491586,-97.663415
3173,30.270614,-97.748878
2189,30.094513,-97.794342
1472,29.80115,-97.994277
4580,30.68251,-97.849655
6227,30.437275,-97.736129
6903,30.366128,-97.583354
4653,30.522306,-97.84176
3644,30.312844,-97.717204
5609,30.306721,-97.453975
1862,29.898021,-97.947013
6151,30.319822,-97.712749
5599,30.249944,-97.485084
6818,30.506964,-97.822037
2049,30.003548,-97.866759
675,30.019846,-98.0279
5673,30.640229,-97.389129
5471,30.8064,-97.673961
1369,30.272555,-98.179416
100,30.17107,-97.842194
441,30.242798,-97.723846
4629,30.511005,-97.911433
5269,30.516475,-97.670822
551,30.10091,-97.742406
3140,30.255461,-97.771131
5953,30.487576,-97.643269
2096,30.084451,-97.781297
3042,30.245383,-97.735998
1226,30.740209,-97.493845
3615,30.311536,-97.763949
819,30.017435,-97.826144
4456,30.358514,-97.674798
691,30.103535,-97.972025
4514,30.311584,-97.614485
655,30.417908,-97.324987
752,30.115504,-98.192023
32,30.332143,-97.858595
1273,29.940677,-98.022744
2929,30.172862,-97.751399
6382,30.157334,-97.729342
4783,30.617735,-97.85978
64,30.267416,-97.928478
24,30.351794,-97.845706
882,30.656402,-97.262914
5848,30.511166,-97.195357
76,30.22221,-97.928999
27,30.32358,-97.939978
6654,30.503411,-97.752276
5499,30.766132,-97.705638
6337,30.333983,-97.606848
4457,30.344808,-97.674314
3875,30.297427,-97.718933
4578,30.634317,-97.779071
3670,30.293801,-97.769587
5084,30.41504,-97.688076
2880,30.270516,-97.712249
2356,30.245212,-97.864037
7325,30.309644,-97.51669
7136,30.761821,-97.494025
2617,30.316056,-97.872294
1075,30.905132,-97.800454
5646,30.487698,-97.377489
2777,30.277598,-97.746279
4754,30.480587,-97.832681
1402,30.182808,-98.124873
523,30.166566,-97.569847
7204,30.567886,-97.48939
5635,30.665192,-97.467715
5944,30.558836,-97.6411
3900,30.315994,-97.743053
2575,30.260195,-97.810167
1313,30.004317,-98.18761
7231,30.707939,-97.81409
5541,30.745166,-97.565924
3595,30.390596,-97.713615
679,30.030066,-98.080249
7051,30.842139,-97.885558
7267,30.319976,-98.006688
2116,30.02232,-97.853646
7184,30.425578,-97.381898
5814,30.591588,-97.296832
7188,30.481276,-97.321001
7176,30.520885,-97.356753
7045,30.779992,-97.920107
568,30.556527,-97.784048
4870,30.536342,-97.651289
613,30.442805,-97.462556
5831,30.702761,-97.486109
1089,30.397006,-97.36545
6607,30.190314,-97.872553
2811,30.161242,-97.649013
1296,30.345872,-98.027208
140,30.499365,-97.699917
5512,30.716327,-97.68201
2069,29.99912,-97.834605
23,30.374974,-97.834683
6106,30.523829,-97.86524
885,30.577643,-97.392433
5040,30.441813,-97.703667
338,30.316334,-97.798815
593,30.488497,-97.600807
5426,30.613673,-97.592889
5460,30.583733,-97.548339
2554,30.238041,-97.798967
3981,30.351867,-97.77188
2340,30.193757,-97.85882
939,30.717388,-97.745749
1018,30.684143,-97.475931
565,30.239086,-97.53474
2218,30.201796,-97.918388
5715,30.636384,-97.469742
7166,30.624678,-97.359752
1004,30.575191,-97.510374
601,30.132946,-97.82476
959,30.659924,-97.615333
289,30.325264,-97.730682
6948,30.248003,-97.803793
2803,30.282652,-97.653111
7447,30.51025,-97.522808
8,30.434403,-98.083907
4786,30.580861,-97.818602
3437,30.231294,-97.68355
52,30.273341,-97.873192
5780,30.639174,-97.421296
467,30.236384,-97.787768
564,30.264,-97.537069
561,30.316307,-97.498617
5123,30.429253,-97.674878
1202,30.753481,-97.522255
4647,30.472365,-97.991415
633,30.787235,-97.461624
4180,30.300804,-97.684753
5171,30.53399,-97.68908
2597,30.274274,-97.80014
1023,30.804915,-97.569578
1214,30.417783,-97.521358
6081,30.035459,-97.689033
7313,30.036818,-97.709844
1090,30.42561,-97.259456
3633,30.334649,-97.749143
6576,30.147911,-97.767159
5465,30.640014,-97.555481
699,30.188322,-97.952201
22,30.373525,-97.86814
2768,30.190898,-97.647323
921,29.883181,-97.956601
6311,30.258544,-97.676281
7182,30.445164,-97.319315
6203,30.382216,-97.770828
2920,30.159699,-97.759613
4483,30.222104,-97.632903
28,30.343668,-97.905759
4583,30.705619,-97.777088
755,30.1139,-98.246902
4073,30.368661,-97.71951
1012,30.544585,-97.60774
7190,30.471719,-97.460888
5777,30.583139,-97.410716
2739,30.135807,-97.680223
2094,30.070274,-97.810744
672,29.832913,-98.018237
6645,30.312647,-97.537075
2460,30.222801,-97.805243
2082,30.057888,-97.844172
919,29.877414,-97.937005
19,30.367501,-97.984566
4774,30.53082,-97.793404
605,30.131976,-97.668147
3166,30.265618,-97.748341
595,30.463281,-97.525215
2795,30.276829,-97.72021
6394,30.469124,-97.622313
104,30.579994,-97.799189
994,30.65527,-97.346524
4224,30.290135,-97.710146
5119,30.418543,-97.659683
2160,30.076801,-97.835362
1934,30.044053,-97.964363
26,30.292875,-97.964299
4191,30.321602,-97.686339
5163,30.504526,-97.67718
6976,30.24053,-97.817515
5102,30.468777,-97.692961
574,30.479701,-97.776675
4308,30.31989,-97.693895
7144,30.709134,-97.456914
1961,29.942311,-97.82705
1418,30.189304,-98.099051
677,29.952026,-97.983606
676,29.967048,-97.95913
7050,30.799574,-97.867794
3090,30.220474,-97.772887
6831,30.590226,-97.59319
1209,30.405153,-97.499596
2334,30.175337,-97.85482
5765,30.557954,-97.394416
4632,30.659744,-97.893731
5680,30.520829,-97.44849
2719,30.058424,-97.746461
6741,30.609498,-97.710042
5989,30.380633,-97.638521
2673,30.331682,-97.789923
657,30.519091,-97.37656
4680,30.438159,-97.810385
5571,30.706254,-97.564518
6702,30.594222,-97.790588
4382,30.366673,-97.683664
543,30.161894,-97.781648
1248,30.291368,-98.034598
4849,30.442467,-97.643076
5961,30.488563,-97.632541
3910,30.312042,-97.735101
6438,30.018687,-97.714631
3562,30.330352,-97.715566
756,29.996347,-98.122024
5435,30.643892,-97.600963
649,30.614327,-97.438935
1162,30.407968,-97.745632
5596,30.291006,-97.46401
4790,30.60465,-97.816167
567,30.562892,-97.81444
4831,30.85079,-97.834573
550,30.11474,-97.761745
2598,30.252789,-97.784927
2443,30.194362,-97.789132
5791,30.575209,-97.310499
989,30.631593,-97.319296
1188,30.537219,-97.513917
816,29.953982,-97.862871
2869,30.22924,-97.712447
1247,30.286319,-98.064664
829,30.021565,-97.896007
1081,30.826011,-97.51054
953,30.605496,-97.646404
5528,30.838704,-97.708974
3154,30.247433,-97.759366
2153,30.065182,-97.821221
746,30.212417,-98.172451
4576,30.688299,-97.832567
1101,30.0113,-97.687029
1211,30.415024,-97.460113
30,30.653697,-97.705243
1751,30.137567,-97.584342
6879,30.471927,-97.591209
2886,30.253619,-97.711994
1606,29.870111,-97.928014
1424,30.368436,-98.072766
116,30.550837,-97.664092
5388,30.436809,-97.614374
1836,30.018492,-97.871239
7226,30.654901,-97.835778
7311,30.284362,-97.519374
612,30.172582,-97.602786
2906,30.212438,-97.714752
6437,30.001733,-97.737802
3759,30.337148,-97.755443
2621,30.377412,-97.879879
1803,30.144604,-97.808804
5399,30.497348,-97.616894
4186,30.316825,-97.662419
1068,30.628699,-97.811
3694,30.28296,-97.766998
128,30.525447,-97.687699
2749,30.141786,-97.615924
6970,30.356704,-97.995169
2378,30.223243,-97.863618
6343,30.229139,-97.82873
1196,30.655746,-97.51178
600,30.144669,-97.747936
521,30.168372,-97.676869
382,30.266557,-97.738381
1612,29.880004,-97.924818
2975,30.193329,-97.754146
4599,30.674998,-97.621543
2247,30.178509,-98.002331
1974,29.916639,-97.878747
2304,30.21668,-97.845643
6720,30.551799,-97.795273
4902,30.532051,-97.707078
1304,30.13787,-98.157966
4877,30.638104,-97.644312
5901,30.584136,-97.836345
2651,30.284166,-97.83342
1544,29.839028,-97.953008
2647,30.299516,-97.818977
20,30.382464,-97.926677
1694,30.147484,-97.983461
1212,30.399374,-97.381992
793,29.928589,-97.917713
5509,30.684291,-97.686928
2817,30.280296,-97.609429
5165,30.508403,-97.678612
7187,30.458775,-97.325924
7328,30.449467,-97.441091
446,30.583031,-97.893907
4691,30.422286,-97.79351
2002,29.944055,-97.88247
2939,30.180521,-97.76206
2400,30.180485,-97.802237
7230,30.714988,-97.846004
6029,30.167774,-97.628837
4901,30.545279,-97.708038
6996,30.24485,-97.691044
4182,30.308319,-97.670495
6038,30.137762,-97.648396
6649,30.495014,-97.857845
183,30.432578,-97.745077
759,30.10241,-98.14819
2896,30.205739,-97.769721
7363,30.382586,-97.850854
7250,30.292329,-97.663439
4208,30.305753,-97.697286
2445,30.202191,-97.804482
6653,30.499691,-97.762725
7200,30.69988,-97.601771
553,30.099935,-97.644403
5374,30.425315,-97.592436
5750,30.586405,-97.432594
2011,29.998405,-97.875004
5264,30.530219,-97.667632
2135,30.046184,-97.80319
5632,30.593247,-97.282749
7148,30.703303,-97.534306
5538,30.703664,-97.589123
4604,30.673487,-97.701638
5620,30.363782,-97.477292
5453,30.641717,-97.63095
37,30.352597,-97.921387
5415,30.456997,-97.554561
5298,30.561484,-97.680063
1320,30.008634,-98.051193
7068,30.656798,-97.958937
1152,30.407793,-97.874061
4966,30.427641,-97.760103
4225,30.282635,-97.701336
5621,30.390154,-97.475746
729,30.207493,-98.032242
1345,30.072243,-98.140645
1469,29.810878,-98.004831
5622,30.3965,-97.490808
5731,30.589989,-97.420653
4676,30.52077,-97.853647
4811,30.806588,-97.889688
3087,30.226803,-97.754404
1602,29.856022,-97.931812
6048,30.104882,-97.671659
3888,30.340329,-97.72611
6369,30.521843,-97.786954
5308,30.566163,-97.667499
2422,30.173904,-97.798642
5444,30.567682,-97.617527
4980,30.420125,-97.772972
2806,30.299934,-97.648122
2405,30.18864,-97.828925
2431,30.157098,-97.79141
4835,30.828112,-97.809675
7406,30.252848,-97.680029
398,30.271453,-97.658848
685,30.177624,-98.067552
3441,30.214845,-97.701764
982,30.479036,-97.392374
4885,30.517886,-97.571325
1011,30.550444,-97.586759
581,30.054632,-97.768528
2966,30.185189,-97.772304
7213,30.850121,-97.788271
626,30.362081,-97.455986
1463,29.820649,-97.955213
566,30.149404,-97.877778
1002,30.509986,-97.55816
2132,30.030178,-97.8244
56,30.259205,-97.829376
5383,30.442935,-97.627894
5360,30.632687,-97.689824
2315,30.236609,-97.83963
7193,30.501187,-97.409357
1957,29.987605,-97.836644
586,30.081642,-97.956989
7060,30.75141,-97.780651
2401,30.180831,-97.807529
6450,30.348164,-97.558751
5189,30.477853,-97.693704
1813,30.028014,-97.910045
548,30.1398,-97.779669
6701,30.327907,-97.926668
582,30.03508,-97.739866
7161,30.641278,-97.366213
4824,30.732835,-97.845932
4829,30.704407,-97.872008
973,30.472299,-97.262528
944,30.833925,-97.833141
1350,30.069955,-98.090106
5508,30.774769,-97.754241
1301,30.144817,-98.089328
5467,30.639212,-97.542974
841,29.932993,-97.839249
4701,30.457609,-97.80047
5822,30.763034,-97.467927
4738,30.45534,-97.791477
607,30.467008,-97.489938
5841,30.730477,-97.339793
1379,30.256065,-98.154836
1309,30.089786,-98.19487
4570,30.662809,-97.879073
3033,30.239417,-97.747327
6495,30.234545,-97.910859
6682,30.563081,-97.883193
6127,30.513704,-97.812259
4938,30.510864,-97.707405
5789,30.465499,-97.360832
5816,30.659009,-97.277782
5470,30.784133,-97.665153
6766,30.090731,-97.73372
2971,30.193356,-97.766271
1077,30.857003,-97.589002
7216,30.633795,-97.826607
33,30.318718,-97.841425
4588,30.784815,-97.776718
3655,30.309607,-97.722473
4558,30.674549,-97.933511
55,30.260857,-97.851746
5698,30.603528,-97.488419
7082,30.602967,-97.846812
705,29.88051,-97.945474
7044,30.593884,-97.883234
2998,30.201952,-97.742026
812,30.103692,-97.899298
4455,30.372294,-97.665463
169,30.442063,-97.755978
2849,30.179253,-97.720695
4817,30.682505,-97.959478
4285,30.32062,-97.700657
5815,30.639784,-97.290325
4527,30.381294,-97.606003
948,30.594021,-97.681147
6937,30.31879,-97.576736
401,30.261466,-97.586183
596,30.087585,-97.751571
1099,29.835521,-97.9049
733,30.079967,-97.990787
5644,30.532268,-97.423996
475,30.235703,-97.759859
4592,30.539889,-97.779875
7138,30.735276,-97.448104
5781,30.618199,-97.408342
1933,30.047178,-97.988048
4978,30.433846,-97.768417
687,30.204068,-98.063961
138,30.516269,-97.659832
4602,30.677696,-97.53097
790,29.813303,-97.980242
4764,30.532673,-97.835079
73,30.221875,-97.905353
5661,30.610478,-97.389218
5800,30.620189,-97.292911
2182,30.088967,-97.819233
1567,29.857198,-97.952916
7353,30.363207,-98.037949
3386,30.264512,-97.728091
1234,30.42208,-97.625593
4204,30.332674,-97.685902
3224,30.23369,-97.741312
5616,30.328852,-97.493179
2108,30.049961,-97.874437
1197,30.715859,-97.509234
229,30.369183,-97.77245
6731,30.603666,-97.557217
1032,30.744464,-97.349428
359,30.284903,-97.743151
1086,30.32676,-97.419806
888,30.567615,-97.398214
127,30.537873,-97.628339
7055,30.840134,-97.815851
7177,30.503991,-97.348564
6737,30.667576,-97.723898
949,30.592574,-97.705395
2633,30.321072,-97.816305
4895,30.53657,-97.588612
811,30.126275,-97.877768
3991,30.365483,-97.750069
5859,30.504891,-97.808937
6770,30.083311,-97.68937
71,30.209143,-97.954558
2878,30.263203,-97.712655
6580,30.551627,-97.732013
7119,30.816166,-97.622291
573,30.494096,-97.797771
4669,30.484195,-97.852776
6332,30.348818,-97.628011
2081,30.057411,-97.859417
2205,30.187541,-97.912924
869,30.840902,-97.747424
4597,30.674023,-97.662287
6693,30.459104,-97.616753
1066,30.546888,-97.806481
5836,30.716776,-97.43482
4886,30.539912,-97.562729
5879,30.534834,-97.816432
4325,30.286181,-97.6689
5335,30.640803,-97.677856
1860,29.900516,-97.958233
5020,30.493005,-97.725674
744,30.174555,-98.153721
604,30.114833,-97.680519
1535,29.866176,-97.943259
5432,30.60976,-97.577788
5700,30.558773,-97.461336
1049,30.740886,-97.717294
6140,30.217522,-97.754822
5833,30.687888,-97.426275
1331,29.994609,-98.090602
1348,30.03475,-98.118658
1790,30.293797,-97.783106
7358,30.634316,-97.727502
1964,29.963873,-97.849113
781,29.786936,-97.976479
925,30.547881,-97.832053
25,30.221922,-97.974997
1178,30.406589,-97.674045
4215,30.292024,-97.689005
1194,30.637913,-97.503543
4513,30.2983,-97.623014
6219,30.388262,-97.751972
4907,30.616557,-97.652146
7155,30.685749,-97.280058
4809,30.714984,-97.927233
3236,30.23738,-97.716893
2254,30.232748,-97.991675
7295,30.302643,-97.737777
1623,29.857033,-97.93933
1441,29.818343,-97.996504
4601,30.659603,-97.538345
1189,30.546126,-97.526327
5411,30.428613,-97.549755
5663,30.459272,-97.381999
7218,30.704594,-97.852185
738,29.863587,-97.978738
1001,30.517308,-97.502997
874,30.629455,-97.700115
2138,30.050612,-97.838215
5819,30.749692,-97.473196
1236,29.987074,-98.049768
3727,30.306906,-97.750247
2395,30.182422,-97.788699
1290,29.888646,-97.916622
6959,30.149977,-97.631492
3676,30.300963,-97.759886
2987,30.166247,-97.736779
5603,30.319001,-97.443682
686,30.183656,-98.035565
2854,30.203097,-97.712016
2909,30.2136,-97.662104
35,30.304379,-97.919182
2956,30.203414,-97.759112
146,30.512273,-97.621085
4075,30.362729,-97.728826
1300,30.157746,-98.131657
7118,30.812231,-97.634678
2115,30.029759,-97.849023
606,30.145238,-97.583182
6636,30.208481,-97.864505
5305,30.577124,-97.691532
6658,30.46922,-97.724282
400,30.275689,-97.620276
2293,30.202866,-97.837208
3698,30.282583,-97.757484
641,30.688991,-97.697896
5578,30.827265,-97.572919
5796,30.597099,-97.3541
5823,30.754321,-97.437996
4945,30.52214,-97.711732
6436,30.047053,-97.721963
6003,30.259098,-97.613629
542,30.160598,-97.815586
3500,30.229647,-97.670773
1000,30.526407,-97.530192
6846,30.49771,-97.582941
7025,30.486396,-97.673061
2092,30.07893,-97.823356
1182,30.400877,-97.545066
4437,30.355249,-97.683366
390,30.283713,-97.710834
747,30.22956,-98.135289
4635,30.546577,-97.851843
3391,30.182739,-97.687376
5719,30.551583,-97.417691
7287,30.420686,-97.930203
4545,30.380946,-97.540065
2679,30.37739,-97.805007
57,30.247459,-97.825581
2057,29.988493,-97.87533
4846,30.543863,-97.760202
887,30.549645,-97.386987
3639,30.300207,-97.745863
821,30.080607,-97.8601
4575,30.582212,-97.776335
1386,30.179132,-98.230195
5094,30.456738,-97.696797
6174,30.254089,-97.808566
1637,29.871952,-97.936352
10,30.405429,-97.968645
6409,29.83148,-97.935092
2862,30.210491,-97.754054
3999,30.39712,-97.757812
3804,30.287024,-97.733445
6330,30.329467,-97.632814
1996,29.907766,-97.900401
2349,30.247218,-97.888438
2126,30.100671,-97.848911
5421,30.49395,-97.550917
5760,30.554754,-97.407594
5615,30.305646,-97.503287
3458,30.253098,-97.697273
2107,30.042635,-97.884639
5028,30.514762,-97.734888
2035,29.967861,-97.875366
406,30.264483,-97.742416
6699,30.387592,-97.520817
4643,30.492385,-97.979233
5502,30.758192,-97.731007
608,30.152791,-97.651583
1035,30.711832,-97.41274
1287,29.88435,-97.931116
4448,30.400335,-97.702582
3892,30.330649,-97.731279
625,30.367707,-97.520502
90,30.194893,-97.937337
436,30.269571,-97.770276
4401,30.35748,-97.699778
6124,30.493896,-97.781133
4515,30.32621,-97.605033
