id,lat,long
2160,30.076801,-97.835362
5107,30.451349,-97.695766
347,30.293084,-97.731181
5658,30.586548,-97.380104
1553,29.867764,-97.961879
940,30.756782,-97.762274
1420,30.237465,-98.065915
6893,30.391138,-97.581299
5859,30.504891,-97.808937
5519,30.693886,-97.66954
2355,30.2569,-97.871023
517,30.19005,-97.752272
1011,30.550444,-97.586759
1202,30.753481,-97.522255
1316,29.999239,-98.101129
239,30.374479,-97.696226
7005,30.185978,-97.611815
6427,30.11511,-97.694428
4570,30.662809,-97.879073
6485,30.352275,-97.41145
2013,29.960048,-97.877361
3978,30.353906,-97.759903
145,30.505463,-97.648706
6300,30.285615,-97.665361
470,30.251311,-97.772077
6564,30.308097,-97.950019
1142,30.30344,-97.526112
5843,30.459642,-97.216268
5353,30.619526,-97.688513
4563,30.445967,-97.779272
755,30.1139,-98.246902
5692,30.484939,-97.479211
7353,30.363207,-98.037949
6398,30.161805,-97.860066
7119,30.816166,-97.622291
1942,30.131151,-98.015189
3502,30.220479,-97.673241
969,30.728051,-97.451663
5898,30.5779,-97.833488
5838,30.698258,-97.330846
2624,30.389427,-97.882163
4259,30.327962,-97.694146
2476,30.233651,-97.818327
1886,29.889904,-97.935206
749,30.158316,-98.110565
6081,30.035459,-97.689033
7051,30.842139,-97.885558
5467,30.639212,-97.542974
4590,30.844098,-97.784946
4592,30.539889,-97.779875
6332,30.348818,-97.628011
5784,30.476657,-97.335322
6763,30.113679,-97.782154
2242,30.217079,-97.962868
4079,30.391899,-97.746047
2639,30.305985,-97.782053
128,30.525447,-97.687699
5975,30.451919,-97.594529
1446,29.815446,-97.96404
5745,30.567724,-97.432797
3220,30.234338,-97.73909
7171,30.572039,-97.288903
746,30.212417,-98.172451
1697,29.963481,-97.777722
4615,30.668111,-97.583107
589,30.002999,-97.878479
4554,30.474461,-97.770869
4634,30.518785,-97.894821
1149,30.409589,-98.109364
335,30.312617,-97.819504
7067,30.654362,-98.016372
1934,30.044053,-97.964363
3475,30.253645,-97.702862
3304,30.268341,-97.740772
5080,30.420687,-97.704598
4823,30.703334,-97.827939
1310,30.08205,-98.171247
4510,30.349038,-97.538265
6478,30.350821,-97.473066
2422,30.173904,-97.798642
7395,29.9038,-97.893832
81,30.225853,-97.862221
401,30.261466,-97.586183
6734,30.734758,-97.638813
5681,30.474756,-97.425557
1175,30.4133,-97.673628
4644,30.481116,-97.976926
7269,30.072067,-97.73221
1214,30.417783,-97.521358
6923,30.340167,-97.589596
6094,30.541417,-97.849713
603,30.199903,-97.523203
3441,30.214845,-97.701764
4578,30.634317,-97.779071
7447,30.51025,-97.522808
954,30.633028,-97.636136
605,30.131976,-97.668147
1237,29.984562,-98.038465
777,29.832686,-97.918297
3533,30.346392,-97.71365
5251,30.480727,-97.672541
646,30.617408,-97.492335
2895,30.207615,-97.765238
4975,30.425138,-97.751199
5944,30.558836,-97.6411
5373,30.483182,-97.613394
2570,30.261715,-97.80888
758,30.067054,-98.102025
3646,30.317184,-97.745801
764,30.3165,-98.139466
5178,30.475276,-97.701299
1441,29.818343,-97.996504
2120,30.104231,-97.874942
7161,30.641278,-97.366213
2262,30.193069,-97.924096
1156,30.399573,-97.783123
1023,30.804915,-97.569578
989,30.631593,-97.319296
4652,30.473235,-97.846112
7257,30.564129,-97.542984
4557,30.664729,-97.922419
2882,30.172365,-97.700983
7000,30.737999,-97.936347
7077,30.62811,-97.852532
1828,30.014363,-97.812917
1293,30.194871,-98.049602
2117,30.022693,-97.854123
6547,30.507992,-97.774544
1386,30.179132,-98.230195
67,30.249879,-97.909155
2175,30.114252,-97.804835
6326,30.327193,-97.663498
7152,30.649131,-97.441135
5528,30.838704,-97.708974
1235,30.40409,-97.637802
507,30.21642,-97.7932
32,30.332143,-97.858595
1084,30.136738,-97.560852
7264,30.092301,-97.682491
3962,30.376586,-97.732738
1479,29.85096,-97.984969
4663,30.470209,-97.790016
4864,30.554615,-97.691839
6831,30.590226,-97.59319
2682,30.359284,-97.79047
1323,30.000072,-98.200099
7177,30.503991,-97.348564
4813,30.803422,-97.850393
1213,30.410031,-97.37493
1275,29.917247,-98.051817
2285,30.391435,-97.937119
2329,30.199346,-97.867275
6929,30.287756,-97.574522
798,29.868781,-97.942805
5504,30.700789,-97.739677
1418,30.189304,-98.099051
4225,30.282635,-97.701336
428,30.258971,-97.683975
2987,30.166247,-97.736779
4163,30.307677,-97.711512
1961,29.942311,-97.82705
2611,30.394252,-97.845181
7179,30.4626,-97.270295
5368,30.651745,-97.677266
121,30.506262,-97.733466
3796,30.287673,-97.742861
2651,30.284166,-97.83342
1379,30.256065,-98.154836
5564,30.768228,-97.627666
5610,30.30059,-97.491576
971,30.570439,-97.411401
2786,30.279502,-97.729157
5872,30.52695,-97.816116
6168,30.441739,-97.667405
9,30.488843,-98.053644
4801,30.568503,-97.801464
553,30.099935,-97.644403
792,29.947011,-97.918627
5926,30.67432,-97.648284
2405,30.18864,-97.828925
1091,30.529067,-97.185122
5420,30.501635,-97.580851
7154,30.673606,-97.282918
4442,30.35481,-97.682544
6029,30.167774,-97.628837
7134,30.799024,-97.452087
7145,30.716348,-97.486394
2714,30.032842,-97.767823
5583,30.828043,-97.603747
7172,30.605108,-97.236646
1360,30.058309,-98.049009
1211,30.415024,-97.460113
1766,30.188994,-97.77993
661,30.544213,-97.502359
5167,30.518864,-97.676235
1267,29.887678,-97.917035
5418,30.454382,-97.556463
2,30.595955,-97.873341
2255,30.231634,-97.999975
1201,30.813891,-97.514762
6003,30.259098,-97.613629
3177,30.215239,-97.734904
2278,30.354141,-97.96117
577,30.130563,-97.947983
3687,30.291811,-97.760395
1860,29.900516,-97.958233
4101,30.399525,-97.718571
1021,30.707529,-97.522309
5005,30.480886,-97.746779
2306,30.213668,-97.830107
1250,30.331214,-98.024116
4394,30.374144,-97.669794
7249,30.302524,-97.660488
5573,30.708926,-97.571769
5999,30.315554,-97.634576
5965,30.487442,-97.62866
7101,30.5131,-97.854604
4724,30.451705,-97.809791
6613,30.171652,-97.888239
6009,30.227088,-97.616267
615,30.254773,-97.510731
3136,30.27479,-97.7625
6807,29.905089,-97.995181
5797,30.595862,-97.323743
2201,30.141058,-97.7951
6190,30.332983,-97.80736
4872,30.587911,-97.657458
2112,30.019116,-97.899698
4820,30.726002,-97.875969
5501,30.737033,-97.691671
5641,30.451534,-97.391454
5555,30.696421,-97.613327
7381,30.235268,-97.798261
4004,30.351919,-97.733041
6231,30.445279,-97.743061
1999,29.93194,-97.88714
980,30.515092,-97.408642
745,30.1517,-98.154464
653,30.593637,-97.422708
7352,30.43402,-97.896425
2091,30.087256,-97.830648
3369,30.257768,-97.723926
1337,29.981565,-98.139629
1548,29.843249,-97.968908
1381,30.285707,-98.103249
5506,30.711626,-97.760492
6283,30.229019,-97.884888
1016,30.657724,-97.497322
6356,30.573871,-97.381476
2597,30.274274,-97.80014
6536,30.366735,-97.614736
5276,30.630822,-97.743478
985,30.505589,-97.247565
1351,30.102064,-98.096006
6664,30.414132,-97.630988
3573,30.342898,-97.697812
765,30.291503,-98.177276
113,30.542739,-97.739952
1692,29.87339,-97.900478
2728,30.113733,-97.719341
1654,29.88144,-97.943323
4068,30.369109,-97.718914
4962,30.424368,-97.769131
733,30.079967,-97.990787
107,30.627603,-97.663039
29,30.321831,-97.89921
5404,30.514058,-97.613415
2241,30.196532,-97.997346
1075,30.905132,-97.800454
796,29.837992,-97.945905
5832,30.691783,-97.414603
551,30.10091,-97.742406
2768,30.190898,-97.647323
5649,30.534141,-97.4563
2279,30.354964,-97.986207
6426,30.144143,-97.696975
1838,29.925388,-97.947524
4816,30.690112,-97.971308
5988,30.38162,-97.639769
4670,30.479756,-97.80205
6074,30.060984,-97.691764
288,30.330061,-97.735351
3075,30.231228,-97.763595
2697,29.994679,-97.749232
3028,30.220853,-97.747121
2138,30.050612,-97.838215
7196,30.619446,-97.565469
7357,30.735675,-97.815372
7045,30.779992,-97.920107
5321,30.58103,-97.692377
5231,30.482207,-97.660016
6849,30.482371,-97.586644
6397,30.149191,-97.846914
6414,30.331096,-97.617324
5942,30.599089,-97.632599
5616,30.328852,-97.493179
5978,30.430628,-97.593076
4628,30.557239,-97.945845
5295,30.594977,-97.763822
5594,30.84955,-97.592818
6667,30.439846,-97.519717
3843,30.29117,-97.721933
818,30.005026,-97.844911
5393,30.464107,-97.625553
4508,30.366481,-97.566501
1406,30.205647,-98.128349
1248,30.291368,-98.034598
1118,30.43398,-98.04384
5526,30.716307,-97.662461
4811,30.806588,-97.889688
1716,30.155776,-97.790058
5209,30.511535,-97.686816
1973,29.90875,-97.859715
3236,30.23738,-97.716893
1330,29.980102,-98.093545
7055,30.840134,-97.815851
5485,30.773388,-97.660384
815,29.989355,-97.816935
3722,30.307536,-97.75811
4792,30.573004,-97.882665
1245,30.149237,-98.051563
677,29.952026,-97.983606
7064,30.621782,-97.911674
1448,29.828849,-97.983841
869,30.840902,-97.747424
2315,30.236609,-97.83963
5463,30.542708,-97.546166
1092,30.474429,-97.162178
6209,30.388404,-97.759726
5817,30.734598,-97.355522
5702,30.600356,-97.447852
4495,30.256684,-97.554974
5917,30.686135,-97.658683
2815,30.276595,-97.636962
655,30.417908,-97.324987
5622,30.3965,-97.490808
6565,30.275587,-97.913174
6523,30.176636,-97.529042
5893,30.558882,-97.822451
5819,30.749692,-97.473196
1319,30.015618,-98.070197
7190,30.471719,-97.460888
4189,30.312053,-97.684323
4892,30.54647,-97.613963
5603,30.319001,-97.443682
1357,30.129918,-98.135692
4870,30.536342,-97.651289
1317,30.02115,-98.101837
750,30.0445,-98.141486
1113,30.530257,-98.103332
274,30.341089,-97.750211
846,30.276044,-97.858429
658,30.548378,-97.339944
4314,30.33548,-97.683978
4380,30.399134,-97.679034
5608,30.380452,-97.46579
7083,30.596366,-97.812928
2453,30.204353,-97.791199
5552,30.765104,-97.588043
7276,30.098863,-97.781687
2018,29.989237,-97.881134
6494,30.417458,-97.537426
4600,30.676805,-97.542356
2153,30.065182,-97.821221
2264,30.230666,-97.931553
6447,30.352021,-97.592137
2237,30.179153,-97.965435
7332,30.315166,-98.093687
2673,30.331682,-97.789923
272,30.34417,-97.558384
539,30.170566,-97.77519
6818,30.506964,-97.822037
5476,30.715149,-97.647326
1082,30.747149,-97.300292
972,30.43632,-97.251463
5421,30.49395,-97.550917
7052,30.762024,-97.858218
7374,30.334174,-97.969506
7277,30.076142,-97.750473
465,30.250663,-97.791535
521,30.168372,-97.676869
2749,30.141786,-97.615924
5675,30.53446,-97.29119
600,30.144669,-97.747936
471,30.246241,-97.762422
1683,29.873535,-97.921075
5347,30.632738,-97.692409
1123,30.409064,-97.764124
6598,30.479092,-97.718603
6684,30.389098,-97.987451
4286,30.31453,-97.707302
821,30.080607,-97.8601
6821,30.62144,-97.615487
1425,30.393322,-98.067956
7451,30.592391,-97.535393
5472,30.808492,-97.646445
6046,30.115595,-97.664684
4588,30.784815,-97.776718
2610,30.35662,-97.832265
2880,30.270516,-97.712249
5781,30.618199,-97.408342
2840,30.202928,-97.639066
7355,30.576209,-97.784719
4580,30.68251,-97.849655
1206,30.350266,-97.500359
1822,30.014425,-97.859689
3660,30.310598,-97.72701
3043,30.249646,-97.735046
5799,30.605051,-97.2872
1298,30.129515,-98.173062
1049,30.740886,-97.717294
4914,30.471264,-97.670375
7343,29.862152,-98.014392
2250,30.23749,-98.026025
3307,30.272069,-97.739349
7065,30.64746,-97.944869
5477,30.703994,-97.651333
1039,30.707511,-97.937796
6777,30.079072,-97.700441
1162,30.407968,-97.745632
6181,30.27583,-97.818425
5532,30.873512,-97.725051
1790,30.293797,-97.783106
7130,30.787696,-97.536638
4694,30.430501,-97.802975
7256,30.242025,-97.690252
4604,30.673487,-97.701638
7195,30.630489,-97.578627
3942,30.359421,-97.745953
614,30.230896,-97.570828
5575,30.751872,-97.549157
5884,30.540422,-97.816301
2967,30.190404,-97.77062
122,30.516396,-97.710151
5759,30.562482,-97.388583
2824,30.336064,-97.65136
1336,29.938804,-98.081782
7138,30.735276,-97.448104
751,30.072636,-98.204517
1400,30.246396,-98.12472
4120,30.384879,-97.735769
2855,30.21781,-97.774575
304,30.296238,-97.606829
2905,30.212058,-97.709253
602,30.145593,-97.817215
4995,30.448963,-97.758657
3495,30.26997,-97.681979
964,30.547251,-97.412218
6711,30.105469,-97.942191
780,29.773576,-97.997444
6874,30.472577,-97.592612
4654,30.420247,-97.845343
1106,29.994705,-98.236289
2349,30.247218,-97.888438
588,30.028229,-97.982658
1509,29.85336,-97.957648
6483,30.35158,-97.451719
4567,30.508765,-97.789636
5682,30.474647,-97.403883
2245,30.153427,-98.008778
5625,30.67949,-97.451116
6700,30.338148,-97.919886
2183,30.097371,-97.814901
5063,30.42399,-97.685878
7174,30.547076,-97.234691
3391,30.182739,-97.687376
6170,30.501748,-97.681902
3160,30.273364,-97.752701
4822,30.707579,-97.85907
2415,30.191706,-97.814837
2409,30.169231,-97.825103
760,30.133525,-98.106678
2274,30.315871,-97.97799
6751,30.127813,-97.859344
4298,30.334184,-97.703324
4738,30.45534,-97.791477
1038,30.713284,-97.917453
6726,30.761485,-97.739076
1521,29.856628,-97.939361
7121,30.830661,-97.562261
6968,30.356862,-98.164399
6944,30.300794,-97.564053
4726,30.465814,-97.801656
743,30.190007,-98.168253
4677,30.449621,-97.819026
2107,30.042635,-97.884639
1780,30.267311,-97.780537
4546,30.367369,-97.528273
961,30.580698,-97.634348
7217,30.638072,-97.827323
5796,30.597099,-97.3541
7215,30.862218,-97.802719
6737,30.667576,-97.723898
6953,30.246425,-97.802971
2553,30.232432,-97.807216
5537,30.737231,-97.597092
99,30.188004,-97.841393
2940,30.157315,-97.769031
2020,29.979466,-97.874473
175,30.429712,-97.632319
1811,29.918339,-97.90818
5712,30.584071,-97.497158
6020,30.191935,-97.627633
6974,30.225875,-97.840938
5847,30.479534,-97.180841
5690,30.523104,-97.488414
6038,30.137762,-97.648396
7454,30.323708,-97.477443
675,30.019846,-98.0279
6459,30.349871,-97.519563
2839,30.211935,-97.657026
5684,30.435331,-97.495277
7186,30.450452,-97.354343
6899,30.370834,-97.582899
5601,30.221099,-97.488372
6286,30.322761,-97.679194
281,30.308832,-97.854872
924,30.570241,-97.845304
5277,30.632714,-97.709984
5394,30.430017,-97.613252
6937,30.31879,-97.576736
4888,30.561894,-97.569248
12,30.421566,-97.941993
1210,30.418875,-97.427254
6002,30.289525,-97.628676
1966,29.953695,-97.808346
5648,30.504468,-97.372776
1094,29.934113,-98.150473
2381,30.218741,-97.854334
1037,30.721099,-97.804395
1983,29.901008,-97.904288
6493,30.373892,-97.397909
4863,30.535583,-97.693068
2385,30.249645,-97.853226
5823,30.754321,-97.437996
5558,30.676226,-97.610164
5452,30.638751,-97.64192
1743,30.044544,-97.794242
3729,30.327292,-97.760149
1688,29.852885,-97.898439
5815,30.639784,-97.290325
6639,30.477516,-97.501189
5308,30.566163,-97.667499
298,30.300761,-97.67833
5279,30.601976,-97.687541
4633,30.477924,-97.901209
7321,30.151669,-97.586275
2993,30.189512,-97.740932
5596,30.291006,-97.46401
1385,30.159139,-98.245775
5818,30.722088,-97.417948
2565,30.236646,-97.78352
3251,30.266039,-97.73278
932,30.52354,-97.78296
870,30.78796,-97.831057
860,30.668799,-97.659879
803,30.012564,-97.752352
3893,30.330256,-97.723583
1951,29.947856,-97.880945
6517,30.189352,-97.58265
7433,30.369521,-97.788405
3824,30.302585,-97.744311
5636,30.663398,-97.364777
4653,30.522306,-97.84176
4755,30.493729,-97.826739
7366,29.80524,-98.011374
5033,30.430782,-97.70031
5787,30.48948,-97.283439
430,30.292047,-97.826542
5715,30.636384,-97.469742
5125,30.434788,-97.667906
618,30.327288,-97.527973
1964,29.963873,-97.849113
1941,30.124197,-98.031112
1108,30.270539,-98.206818
5985,30.393899,-97.628423
8,30.434403,-98.083907
812,30.103692,-97.899298
4993,30.427678,-97.757112
1273,29.940677,-98.022744
1410,30.167629,-98.086571
5554,30.732696,-97.553484
5129,30.455969,-97.664981
3604,30.366433,-97.711165
366,30.300199,-97.799899
1421,30.249399,-98.058146
6404,29.92377,-97.89152
7310,30.268203,-97.494741
1327,30.096546,-98.216512
2680,30.387687,-97.824323
5496,30.707392,-97.692129
1195,30.674133,-97.519584
5338,30.633059,-97.675734
5673,30.640229,-97.389129
6622,30.561158,-97.607713
4646,30.454777,-97.979566
7082,30.602967,-97.846812
1311,30.104379,-98.17688
1307,30.035229,-98.179821
5535,30.755718,-97.633313
1141,30.416815,-97.575833
138,30.516269,-97.659832
946,30.809086,-97.788775
6256,30.480136,-97.766647
2862,30.210491,-97.754054
1226,30.740209,-97.493845
7069,30.67025,-97.905648
6629,30.468595,-97.715297
1843,29.983412,-98.00407
2126,30.100671,-97.848911
1315,30.019125,-98.130309
4829,30.704407,-97.872008
6500,30.125125,-97.753429
6515,30.186951,-97.556311
7314,30.102734,-97.614224
1635,29.877058,-97.934952
1078,30.837785,-97.539898
7076,30.64393,-97.856209
987,30.565058,-97.259618
988,30.62155,-97.263684
1242,30.1098,-98.068304
1745,30.085718,-97.767393
1166,30.408849,-97.7147
4146,30.397182,-97.732347
7015,30.792845,-97.426208
3442,30.218938,-97.689427
5413,30.447385,-97.535671
1119,30.4147,-97.974328
7203,30.602481,-97.567419
1115,30.709085,-98.002919
236,30.374445,-97.714456
6278,30.231899,-97.877357
7189,30.452564,-97.298518
638,30.7155,-97.453439
6840,30.543431,-97.574852
5700,30.558773,-97.461336
1398,30.213293,-98.084826
1193,30.637256,-97.519283
2956,30.203414,-97.759112
3230,30.219776,-97.720171
1053,30.405887,-98.02832
6438,30.018687,-97.714631
4868,30.538693,-97.668085
2073,30.0323,-97.847014
1387,30.188182,-98.214616
1,30.550045,-97.861763
1247,30.286319,-98.064664
52,30.273341,-97.873192
1062,30.498519,-97.782491
5703,30.583673,-97.440749
7149,30.72177,-97.53191
575,30.474974,-97.690281
7111,30.539922,-97.793478
5489,30.789934,-97.62124
962,30.688393,-97.56823
6672,30.476395,-97.527509
5839,30.719198,-97.320705
4658,30.475713,-97.815704
2732,30.135335,-97.733256
445,30.247651,-97.650627
7176,30.520885,-97.356753
2199,30.129632,-97.800342
952,30.603434,-97.659525
3463,30.273119,-97.698853
5618,30.331992,-97.504609
763,30.277913,-98.137608
1885,29.892871,-97.941268
1361,30.055926,-98.092073
6725,30.732529,-97.782304
231,30.370937,-97.748874
2238,30.228909,-97.95054
6986,30.352589,-97.642447
35,30.304379,-97.919182
6632,30.211877,-97.876247
2214,30.307834,-97.892772
16,30.33372,-98.076591
3019,30.256886,-97.746562
6436,30.047053,-97.721963
295,30.307248,-97.690083
2248,30.194559,-98.029824
2257,30.174159,-97.929221
7066,30.632857,-97.987369
5290,30.548565,-97.743601
5802,30.650918,-97.326018
6678,30.337594,-97.661678
882,30.656402,-97.262914
6835,30.566984,-97.581921
2746,30.138109,-97.678447
864,30.470096,-97.449694
22,30.373525,-97.86814
186,30.418049,-97.785683
1353,30.121344,-98.088327
5718,30.553931,-97.426502
7328,30.449467,-97.441091
2829,30.279511,-97.740918
4825,30.721292,-97.831363
3237,30.24099,-97.726318
7046,30.762865,-97.901905
4470,30.393151,-97.653868
1468,29.80978,-98.005157
576,30.42248,-97.862996
1181,30.403013,-97.605632
5853,30.486254,-97.805073
4026,30.356775,-97.716701
5383,30.442935,-97.627894
3810,30.280682,-97.745114
2133,30.024867,-97.789988
4979,30.433175,-97.766563
691,30.103535,-97.972025
2665,30.321771,-97.794192
1935,30.084815,-98.013181
233,30.368742,-97.732737
250,30.354451,-97.69626
1784,30.152491,-97.670395
1972,29.893323,-97.88093
1695,30.152035,-97.971907
1182,30.400877,-97.545066
1373,30.199549,-98.184398
742,30.139214,-98.214295
6063,30.081789,-97.691642
6582,30.540828,-97.724646
1470,29.804461,-97.982193
5240,30.489776,-97.675302
159,30.467254,-97.654187
876,30.852528,-97.680214
1401,30.254291,-98.082014
6654,30.503411,-97.752276
5471,30.8064,-97.673961
6766,30.090731,-97.73372
4783,30.617735,-97.85978
155,30.465101,-97.734708
1739,30.341546,-97.781731
1574,29.877722,-97.950392
2709,30.081814,-97.665963
7022,30.428272,-97.721068
663,30.553467,-97.632417
4798,30.580474,-97.85324
323,30.289535,-97.685312
2163,30.06067,-97.804117
4832,30.824251,-97.858053
1402,30.182808,-98.124873
7136,30.761821,-97.494025
5947,30.522964,-97.636275
565,30.239086,-97.53474
2517,30.267828,-97.81834
6202,30.384604,-97.766459
38,30.308173,-97.871556
5464,30.620096,-97.543473
970,30.75436,-97.408646
2308,30.213589,-97.814537
2695,30.110472,-97.65021
5499,30.766132,-97.705638
884,30.577103,-97.332716
586,30.081642,-97.956989
1963,29.955021,-97.83949
735,29.886781,-97.991968
557,30.45357,-97.57921
2216,30.181256,-97.90037
5842,30.509827,-97.220281
1854,29.90526,-97.929784
1147,30.397315,-97.519255
5821,30.725625,-97.46223
6743,30.604981,-97.718731
7109,30.532414,-97.807631
6418,30.198005,-97.684306
3439,30.22793,-97.682472
4376,30.379405,-97.682053
1308,30.058892,-98.162858
4538,30.337437,-97.558221
2609,30.341261,-97.881847
2922,30.184813,-97.756169
4108,30.380724,-97.739492
999,30.511418,-97.468827
53,30.196482,-97.909655
1830,30.028376,-97.926097
5294,30.56076,-97.771623
3556,30.301662,-97.715228
6542,30.34424,-97.580604
6077,30.048895,-97.691515
5716,30.662943,-97.481661
2316,30.237141,-97.831908
7291,30.449558,-97.72133
185,30.409079,-97.806945
1320,30.008634,-98.051193
6959,30.149977,-97.631492
852,30.671293,-97.949297
747,30.22956,-98.135289
6694,30.439292,-97.570088
944,30.833925,-97.833141
6465,30.356521,-97.482049
11,30.367501,-98.056627
1058,30.527955,-97.767089
1086,30.32676,-97.419806
6690,30.267495,-97.604751
667,29.955213,-98.126496
853,30.639453,-97.894479
3682,30.284426,-97.765156
5711,30.553618,-97.48268
1305,29.967769,-98.189493
7360,30.638409,-97.56754
1064,30.48333,-97.840841
2766,30.277082,-97.716191
2321,30.204062,-97.858604
4890,30.520135,-97.544642
5813,30.55764,-97.30442
7058,30.85645,-97.767488
2833,30.276671,-97.659168
2235,30.215547,-98.02279
7311,30.284362,-97.519374
4374,30.365679,-97.682373
4631,30.572379,-97.907746
5848,30.511166,-97.195357
976,30.479296,-97.306116
2319,30.208596,-97.80447
1189,30.546126,-97.526327
2688,30.385861,-97.798527
2268,30.241424,-97.940784
4049,30.371937,-97.740588
2699,30.061381,-97.7375
2935,30.169612,-97.745832
3487,30.252294,-97.696181
4,30.531993,-97.967226
43,30.272366,-98.013199
1832,30.00581,-97.865017
1757,30.172017,-97.783811
841,29.932993,-97.839249
1238,30.026318,-98.043982
1332,29.987964,-98.111264
5994,30.328656,-97.642347
2283,30.32185,-97.955313
1087,30.359273,-97.397532
6680,30.371741,-97.624862
6052,30.10023,-97.674669
6495,30.234545,-97.910859
7173,30.576649,-97.230771
2028,29.97571,-97.893847
1980,29.928819,-97.864431
5699,30.591685,-97.4754
3123,30.264656,-97.764502
6133,30.216113,-97.744266
3074,30.228159,-97.772839
2847,30.208625,-97.7725
7267,30.319976,-98.006688
2080,30.085233,-97.874376
6889,30.250288,-97.605432
7157,30.616344,-97.304636
1857,29.887756,-97.961289
2849,30.179253,-97.720695
501,30.207631,-97.603752
1816,29.894057,-97.911678
6769,30.08996,-97.708192
3248,30.258013,-97.736368
5845,30.465162,-97.234926
5631,30.526755,-97.250475
1754,30.159513,-97.555305
4687,30.455395,-97.826257
7167,30.629049,-97.372002
631,30.51116,-97.432012
3981,30.351867,-97.77188
766,30.24439,-98.18288
2247,30.178509,-98.002331
1111,30.320581,-98.18806
3078,30.223341,-97.763346
5934,30.661981,-97.640347
1112,30.422055,-98.127277
734,30.055404,-97.91209
981,30.488553,-97.410368
1107,30.106389,-98.270406
46,30.287223,-97.86426
5607,30.370092,-97.424792
779,29.807481,-97.955
3398,30.166184,-97.660261
5460,30.583733,-97.548339
4907,30.616557,-97.652146
7001,30.458967,-97.753708
5330,30.663183,-97.691479
5509,30.684291,-97.686928
1318,30.009134,-98.077175
871,30.685782,-97.776485
2106,30.140901,-97.846645
943,30.84407,-97.797976
1349,30.06887,-98.125564
5247,30.492495,-97.654896
3898,30.319163,-97.738862
1939,30.059516,-97.989525
478,30.238356,-97.748602
5426,30.613673,-97.592889
1136,30.231017,-97.516594
2063,29.971545,-97.818273
5086,30.416261,-97.691191
5627,30.675673,-97.342045
1036,30.699874,-97.356277
5416,30.409512,-97.5607
1219,30.607574,-97.506741
548,30.1398,-97.779669
6439,30.041147,-97.761506
2838,30.278018,-97.684679
3431,30.232548,-97.698222
676,29.967048,-97.95913
6596,30.47007,-97.699959
3912,30.338302,-97.738981
1200,30.786327,-97.570382
2132,30.030178,-97.8244
7290,30.507604,-97.673949
7093,30.559553,-97.838477
736,29.908987,-97.972402
6,30.460701,-97.882086
4548,30.510388,-98.038942
6110,30.497393,-97.847197
3529,30.342518,-97.724701
6650,30.357634,-97.616036
7153,30.672918,-97.419748
5572,30.69885,-97.549337
2094,30.070274,-97.810744
7336,30.404023,-97.584014
6607,30.190314,-97.872553
1068,30.628699,-97.811
5706,30.642893,-97.457134
5018,30.480372,-97.738276
1439,29.81739,-98.012155
5406,30.491332,-97.645052
2430,30.173786,-97.80677
594,30.48319,-97.56746
7300,30.028153,-97.866025
7464,30.072423,-97.82723
1365,30.179424,-98.191269
6712,30.09504,-97.922736
301,30.295066,-97.655743
754,29.995598,-98.167437
2621,30.377412,-97.879879
6970,30.356704,-97.995169
590,30.001839,-97.785715
6193,30.350477,-97.796373
1876,29.885608,-97.926853
5826,30.704819,-97.470214
863,30.880283,-97.824754
4827,30.772247,-97.815611
7295,30.302643,-97.737777
4835,30.828112,-97.809675
1346,30.107668,-98.131384
1967,29.944065,-97.798207
5281,30.642587,-97.714358
1101,30.0113,-97.687029
2623,30.394185,-97.868841
7214,30.825954,-97.783551
6359,30.583257,-97.613219
1374,30.197855,-98.162057
2451,30.180322,-97.790013
2850,30.189539,-97.703901
753,30.019708,-98.232533
1028,30.715183,-97.599677
4885,30.517886,-97.571325
1165,30.406374,-97.724071
3846,30.288233,-97.724666
1944,29.938037,-97.893994
865,30.74618,-97.845772
1321,30.020471,-98.153274
26,30.292875,-97.964299
1079,30.670972,-97.244333
4626,30.44215,-97.911725
2638,30.322091,-97.815584
7127,30.759316,-97.603915
2652,30.304314,-97.840649
5683,30.421953,-97.474698
647,30.63058,-97.608464
5646,30.487698,-97.377489
1116,30.840504,-97.903407
135,30.520364,-97.690696
7238,30.492758,-97.718957
2744,30.129184,-97.69566
5728,30.57919,-97.42324
6336,30.336464,-97.602645
1487,29.834039,-97.992218
5751,30.590354,-97.429884
6311,30.258544,-97.676281
5545,30.729721,-97.621427
3381,30.267497,-97.719366
7013,30.513149,-97.864687
6025,30.184097,-97.630291
5274,30.600619,-97.74742
109,30.569989,-97.644672
5111,30.424826,-97.672301
3264,30.272001,-97.731404
2239,30.208494,-97.972777
4450,30.382191,-97.709561
613,30.442805,-97.462556
688,30.132727,-98.066773
666,29.896453,-98.064179
5599,30.249944,-97.485084
2072,29.964911,-97.794449
668,29.956289,-98.065857
1907,29.887342,-97.941936
1709,30.140349,-97.832826
868,30.876242,-97.77401
1018,30.684143,-97.475931
4591,30.852156,-97.746004
7182,30.445164,-97.319315
1407,30.227215,-98.154469
1340,29.925171,-98.064188
6561,30.304988,-97.934953
7123,30.809306,-97.549092
2236,30.196676,-98.013609
892,29.861169,-97.937891
4901,30.545279,-97.708038
1198,30.736201,-97.517674
6151,30.319822,-97.712749
5760,30.554754,-97.407594
2363,30.260195,-97.902225
1297,30.159975,-98.178438
4565,30.4565,-97.776623
1459,29.840191,-97.972651
560,30.371482,-97.546382
1833,30.004704,-97.82677
2217,30.186433,-97.913792
3987,30.351955,-97.749755
4178,30.286261,-97.676871
5492,30.816731,-97.608427
2413,30.201214,-97.838303
1208,30.397977,-97.470816
6812,29.93177,-97.935906
6197,30.3398,-97.8039
5494,30.79354,-97.6039
591,29.979146,-97.846817
4791,30.565791,-97.865207
1447,29.830284,-97.96121
1354,30.061194,-98.075962
7050,30.799574,-97.867794
572,30.426107,-97.404165
6492,30.377096,-97.442616
4894,30.532765,-97.605992
3568,30.344633,-97.704491
685,30.177624,-98.067552
2208,30.218164,-97.894051
4480,30.382004,-97.661142
1120,30.406566,-97.85219
5508,30.774769,-97.754241
7297,30.361274,-97.742983
6575,30.222336,-97.730339
5379,30.46383,-97.59658
5181,30.48926,-97.696343
1233,30.405328,-97.66238
390,30.283713,-97.710834
4453,30.358571,-97.670468
1342,29.985865,-98.075657
2626,30.283109,-97.810687
933,30.65866,-97.776031
4812,30.782089,-97.852337
1052,30.587174,-97.415829
1562,29.858371,-97.950815
1033,30.723527,-97.294568
5028,30.514762,-97.734888
1819,29.966324,-97.926509
5031,30.440033,-97.696581
6409,29.83148,-97.935092
4739,30.446597,-97.7889
1194,30.637913,-97.503543
5836,30.716776,-97.43482
6220,30.388457,-97.751989
7120,30.836006,-97.633225
4764,30.532673,-97.835079
1034,30.718481,-97.340303
254,30.333871,-97.675748
6364,30.523006,-97.774199
2698,29.97976,-97.764403
4249,30.329182,-97.705906
4482,30.182514,-97.540951
7316,30.030184,-97.674346
1076,30.887022,-97.703803
7156,30.643249,-97.303448
146,30.512273,-97.621085
69,30.244942,-97.985156
4624,30.435898,-97.772922
108,30.575265,-97.671384
5780,30.639174,-97.421296
4587,30.779696,-97.792564
4392,30.383331,-97.673659
23,30.374974,-97.834683
176,30.446884,-97.613692
2406,30.176355,-97.833872
6742,30.59155,-97.692337
1554,29.87309,-97.9555
6999,30.839077,-97.79333
4601,30.659603,-97.538345
4810,30.774649,-97.876885
104,30.579994,-97.799189
5661,30.610478,-97.389218
4789,30.62678,-97.824635
5668,30.538495,-97.366042
5935,30.648186,-97.632816
3758,30.335561,-97.753604
4595,30.682861,-97.717634
1300,30.157746,-98.131657
6729,30.596499,-97.572197
6669,30.47881,-97.541125
4193,30.319049,-97.665932
566,30.149404,-97.877778
1099,29.835521,-97.9049
2647,30.299516,-97.818977
2886,30.253619,-97.711994
5037,30.440922,-97.68752
368,30.283673,-97.780701
1191,30.593317,-97.519759
5904,30.606005,-97.859398
2124,30.114723,-97.874813
2927,30.200126,-97.741997
947,30.787546,-97.733844
5807,30.567339,-97.348889
6383,30.149401,-97.731083
1328,30.099451,-98.18839
6272,30.235546,-97.858114
959,30.659924,-97.615333
1744,30.061135,-97.780788
3174,30.228297,-97.742712
3024,30.267783,-97.746287
939,30.717388,-97.745749
1499,29.796368,-97.968037
1047,30.536438,-97.857691
823,29.953701,-97.889945
2650,30.281643,-97.842091
5422,30.498847,-97.562853
5096,30.458307,-97.696078
1128,30.415637,-97.745701
5371,30.66338,-97.672031
670,29.868981,-97.990969
2694,30.126139,-97.640916
3975,30.359718,-97.766647
1153,30.439673,-97.873379
6422,30.164116,-97.693067
1870,29.890985,-97.952746
697,30.232619,-98.041958
6005,30.232521,-97.614488
1974,29.916639,-97.878747
4196,30.311912,-97.650264
1314,30.012098,-98.120381
4774,30.53082,-97.793404
5469,30.821903,-97.757842
202,30.400383,-97.71107
1389,30.189203,-98.109283
621,30.332948,-97.468369
5626,30.480879,-97.250779
6967,30.338124,-98.145034
1908,29.88561,-97.937555
5629,30.678105,-97.315701
5323,30.622552,-97.679664
6343,30.229139,-97.82873
7060,30.75141,-97.780651
1414,30.191338,-98.087434
890,30.460507,-97.1884
2287,30.183334,-97.849577
1241,30.047991,-98.025834
1937,30.12097,-97.966499
974,30.48328,-97.224474
7062,30.659929,-97.94087
7334,30.445402,-98.098789
2139,30.046387,-97.840289
1751,30.137567,-97.584342
4560,30.682241,-97.893854
692,30.156158,-97.922656
1698,30.008939,-97.764874
624,30.39936,-97.440864
1557,29.857091,-97.969138
2230,30.386976,-97.903719
7078,30.615094,-97.84777
3233,30.213179,-97.724969
2419,30.198839,-97.819117
4908,30.428277,-97.647199
6428,30.093237,-97.694117
1325,30.047826,-98.198919
5644,30.532268,-97.423996
5786,30.50493,-97.326034
2189,30.094513,-97.794342
2919,30.183475,-97.768677
6644,30.329771,-97.547187
945,30.820892,-97.877474
5142,30.479026,-97.684181
5436,30.64644,-97.582422
4710,30.460829,-97.794397
2104,30.092478,-97.848376
4292,30.320676,-97.701459
850,30.629693,-97.936611
1110,30.193282,-98.236528
1295,30.246378,-98.043262
60,30.24144,-97.879541
6638,30.494898,-97.497682
4407,30.364998,-97.701203
1776,30.244055,-97.781187
6247,30.486722,-97.770898
977,30.43847,-97.286145
5010,30.479048,-97.756502
2822,30.328642,-97.654765
687,30.204068,-98.063961
3709,30.300144,-97.756231
3868,30.305839,-97.721792
13,30.416288,-97.888347
5891,30.564769,-97.826268
5482,30.705095,-97.633283
66,30.244016,-97.915824
4808,30.740692,-97.896759
4821,30.756328,-97.876023
693,30.083197,-98.064494
7042,30.695989,-97.910087
642,30.70538,-97.717715
5598,30.232037,-97.492005
1497,29.82378,-97.990143
5667,30.562234,-97.37597
5945,30.546267,-97.64096
6502,30.158663,-97.643716
2336,30.188385,-97.89214
934,30.658855,-97.849323
795,29.89784,-97.928405
21,30.351176,-97.937276
1749,30.153347,-97.711128
6673,30.381276,-97.724299
4647,30.472365,-97.991415
1001,30.517308,-97.502997
1143,30.307684,-97.514671
979,30.455046,-97.339311
2920,30.159699,-97.759613
633,30.787235,-97.461624
2258,30.161605,-97.952457
2019,29.98842,-97.874175
4898,30.518637,-97.649818
3041,30.243388,-97.736482
4446,30.385886,-97.695512
7169,30.539773,-97.265147
2123,30.095573,-97.891498
64,30.267416,-97.928478
2145,30.066202,-97.843692
7344,30.560488,-97.683307
3055,30.247997,-97.749857
3615,30.311536,-97.763949
794,30.501019,-97.716276
252,30.338319,-97.690935
994,30.65527,-97.346524
5907,30.459214,-97.821478
5131,30.463215,-97.667833
886,30.539989,-97.216877
4477,30.402029,-97.673979
3653,30.327789,-97.745204
6652,30.341855,-97.612919
963,30.605618,-97.407175
7466,30.293874,-97.922855
7235,30.595035,-97.835945
679,30.030066,-98.080249
7312,30.252924,-97.531984
2745,30.095123,-97.660082
3137,30.2594,-97.753305
3448,30.221328,-97.683421
7168,30.637115,-97.257052
5,30.49655,-97.901257
5500,30.725787,-97.671934
5470,30.784133,-97.665153
1841,29.969026,-97.989404
4680,30.438159,-97.810385
511,30.211162,-97.783613
5529,30.826802,-97.731906
4629,30.511005,-97.911433
2446,30.199384,-97.805942
6604,30.513432,-97.813313
2197,30.138052,-97.796223
7185,30.425158,-97.365509
5674,30.553811,-97.320574
1472,29.80115,-97.994277
1150,30.385513,-98.086011
5844,30.492348,-97.203126
6257,30.239695,-97.816414
773,29.850705,-97.913015
7071,30.675385,-97.872958
975,30.445868,-97.232566
3468,30.261179,-97.697974
1024,30.750264,-97.681406
2772,30.276552,-97.76984
7229,30.694007,-97.85456
991,30.599844,-97.309353
761,30.271372,-98.086092
5401,30.507073,-97.613313
6227,30.437275,-97.736129
4191,30.321602,-97.686339
3765,30.295841,-97.743612
6625,30.51248,-97.881373
5722,30.572654,-97.420423
1326,30.097785,-98.239317
672,29.832913,-98.018237
524,30.204201,-97.575259
4831,30.85079,-97.834573
2700,30.063897,-97.710553
5824,30.771277,-97.435181
7193,30.501187,-97.409357
1369,30.272555,-98.179416
984,30.522277,-97.308176
1765,30.194254,-97.78212
556,30.061879,-97.67384
1269,29.884282,-97.908492
6560,30.5343,-97.782482
616,30.274879,-97.472702
3446,30.220717,-97.705957
4527,30.381294,-97.606003
4356,30.322776,-97.670457
7054,30.75532,-97.807921
7155,30.685749,-97.280058
1392,30.205816,-98.144811
1371,30.300407,-98.170914
5791,30.575209,-97.310499
1188,30.537219,-97.513917
1135,30.409447,-97.647814
3745,30.321342,-97.755108
4483,30.222104,-97.632903
3087,30.226803,-97.754404
2500,30.219835,-97.836259
4571,30.688883,-97.878742
400,30.275689,-97.620276
2307,30.218339,-97.805362
2146,30.058164,-97.833704
582,30.03508,-97.739866
6624,30.538408,-97.892095
4522,30.334312,-97.621131
4585,30.733725,-97.794622
1100,29.930219,-97.813404
6710,30.045735,-97.975909
5423,30.516488,-97.53651
7178,30.471857,-97.381702
5441,30.556066,-97.624359
1424,30.368436,-98.072766
2689,30.021253,-97.742644
4514,30.311584,-97.614485
7201,30.673463,-97.595344
727,29.880741,-97.917204
6203,30.382216,-97.770828
5435,30.643892,-97.600963
5785,30.469994,-97.347971
1531,29.845758,-97.940197
4833,30.887819,-97.801274
1394,30.219776,-98.118518
3485,30.25011,-97.691111
925,30.547881,-97.832053
990,30.660884,-97.299336
332,30.299796,-97.723839
1382,30.256388,-98.109119
1648,29.874302,-97.93838
71,30.209143,-97.954558
1958,29.997898,-97.850285
752,30.115504,-98.192023
290,30.320679,-97.720953
5557,30.710929,-97.613472
4185,30.309724,-97.661109
1378,30.280318,-98.155751
881,30.834316,-97.589673
2362,30.238761,-97.890584
4018,30.361714,-97.729101
4607,30.675336,-97.664613
2540,30.232583,-97.793235
51,30.205053,-97.932402
4576,30.688299,-97.832567
4630,30.649572,-97.910658
2595,30.256627,-97.802043
2877,30.261683,-97.716147
4902,30.532051,-97.707078
2221,30.282704,-97.876244
3114,30.216563,-97.752281
4849,30.442467,-97.643076
4671,30.481923,-97.804055
5547,30.726256,-97.641778
1996,29.907766,-97.900401
1839,29.956176,-97.969228
580,30.079619,-97.796332
4830,30.840941,-97.864193
748,30.220277,-98.100548
562,30.30919,-97.550996
5913,30.484895,-97.650956
2690,30.009015,-97.72796
1377,30.27055,-98.068497
6842,30.532516,-97.576163
3122,30.241627,-97.752119
3399,30.206832,-97.662192
7180,30.433226,-97.329647
848,30.174384,-97.984925
18,30.349621,-98.009337
2127,30.100605,-97.860949
7453,30.468915,-97.642391
3129,30.248643,-97.76842
7275,30.093959,-97.781551
6713,29.892687,-98.006621
2492,30.236089,-97.824203
2443,30.194362,-97.789132
1736,30.325587,-97.779934
681,30.043596,-98.053382
7032,30.463754,-97.832707
6187,30.284031,-97.823918
816,29.953982,-97.862871
1428,29.869138,-97.91176
5676,30.427887,-97.451867
5952,30.496132,-97.632518
4532,30.362644,-97.629357
2365,30.257265,-97.88907
1151,30.406921,-98.058975
7358,30.634316,-97.727502
4520,30.299094,-97.64632
3974,30.374072,-97.726007
3178,30.230568,-97.7327
1367,30.257611,-98.169802
7089,30.578565,-97.865171
5688,30.42537,-97.501759
7324,30.311881,-97.563502
6827,30.599563,-97.596762
6034,30.149476,-97.641321
6538,30.356133,-97.600483
4760,30.520525,-97.829851
6041,30.11947,-97.6633
4375,30.37345,-97.677494
3586,30.352576,-97.712893
1452,29.846351,-97.979676
887,30.549645,-97.386987
5657,30.57937,-97.403112
5612,30.307292,-97.487271
6890,30.419624,-97.590156
3406,30.237691,-97.662404
1223,30.690823,-97.524148
1503,29.828578,-97.941912
7204,30.567886,-97.48939
2677,30.369555,-97.801644
6406,29.881555,-97.894471
5230,30.491586,-97.663415
1724,30.227454,-97.779953
7113,30.569254,-97.77802
6647,30.289047,-97.535343
5680,30.520829,-97.44849
6576,30.147911,-97.767159
598,30.438973,-97.543138
4754,30.480587,-97.832681
7188,30.481276,-97.321001
2750,30.132645,-97.621771
1345,30.072243,-98.140645
6745,30.625277,-97.64241
2111,30.034703,-97.874957
1812,29.956683,-97.903285
6897,30.387571,-97.580077
6704,30.333671,-97.510482
33,30.318718,-97.841425
1089,30.397006,-97.36545
6307,30.275811,-97.667803
6451,30.345771,-97.569036
564,30.264,-97.537069
2273,30.306929,-97.970205
732,30.06917,-98.022446
957,30.675787,-97.63588
2726,30.114963,-97.746603
5361,30.616411,-97.669379
4583,30.705619,-97.777088
1956,29.94602,-97.844755
570,30.565681,-97.707149
4818,30.688541,-97.936631
4786,30.580861,-97.818602
7184,30.425578,-97.381898
3670,30.293801,-97.769587
5647,30.499596,-97.39926
2328,30.180271,-97.878955
657,30.519091,-97.37656
1227,30.766484,-97.479858
1347,30.045394,-98.101753
4457,30.344808,-97.674314
4826,30.764621,-97.842461
2770,30.283767,-97.656039
30,30.653697,-97.705243
978,30.443943,-97.370321
5429,30.581401,-97.565834
5609,30.306721,-97.453975
6222,30.424195,-97.71355
6688,30.272976,-97.581045
5671,30.650676,-97.393053
6412,30.659281,-97.657317
4487,30.177262,-97.639538
5119,30.418543,-97.659683
3882,30.32302,-97.727768
1423,30.299922,-98.088865
634,30.762333,-97.570963
3999,30.39712,-97.757812
1957,29.987605,-97.836644
5709,30.613923,-97.421837
2619,30.322847,-97.87288
4485,30.247968,-97.579125
42,30.286234,-97.902792
2081,30.057411,-97.859417
6687,30.176707,-97.617035
1478,29.862223,-97.998377
2635,30.310491,-97.801552
5816,30.659009,-97.277782
7181,30.433644,-97.347097
5548,30.777046,-97.591018
4942,30.529987,-97.719633
1408,30.256152,-98.143003
4632,30.659744,-97.893731
523,30.166566,-97.569847
1412,30.159349,-98.068204
759,30.10241,-98.14819
5672,30.637539,-97.351913
7320,30.136381,-97.598501
203,30.412333,-97.7016
1813,30.028014,-97.910045
2186,30.088498,-97.817877
1095,29.82497,-97.918829
1827,30.016986,-97.847265
7231,30.707939,-97.81409
607,30.467008,-97.489938
4862,30.54473,-97.6932
28,30.343668,-97.905759
3385,30.264371,-97.727658
3727,30.306906,-97.750247
612,30.172582,-97.602786
1005,30.578301,-97.465299
1919,29.892288,-97.922507
4733,30.469975,-97.797871
7148,30.703303,-97.534306
1304,30.13787,-98.157966
5337,30.640308,-97.671928
157,30.460659,-97.68639
568,30.556527,-97.784048
1040,30.505476,-97.850632
7026,30.351374,-97.462219
6070,30.073714,-97.69251
3608,30.328185,-97.712913
7044,30.593884,-97.883234
2289,30.210837,-97.858899
6817,30.507128,-97.830759
4097,30.390878,-97.721548
2734,30.027369,-97.688502
856,30.766585,-97.9192
2168,30.108909,-97.807884
5541,30.745166,-97.565924
1296,30.345872,-98.027208
7129,30.755462,-97.612771
5687,30.440519,-97.502735
4617,30.471985,-97.783326
6017,30.196809,-97.62618
2600,30.26362,-97.787056
5275,30.618451,-97.696667
446,30.583031,-97.893907
1093,30.609838,-97.218848
1196,30.655746,-97.51178
756,29.996347,-98.122024
669,29.950139,-98.009999
5390,30.460635,-97.619484
2286,30.153247,-97.833034
4817,30.682505,-97.959478
20,30.382464,-97.926677
5698,30.603528,-97.488419
4866,30.535737,-97.681304
4530,30.378277,-97.635707
7230,30.714988,-97.846004
74,30.210384,-97.884729
2269,30.223176,-97.952875
2192,30.112981,-97.792339
4464,30.396128,-97.67138
5399,30.497348,-97.616894
57,30.247459,-97.825581
2796,30.275982,-97.70408
2048,29.998763,-97.869521
1750,30.158266,-97.681272
1059,30.506117,-97.763655
2713,30.128798,-97.709943
6245,30.476764,-97.765108
3935,30.374388,-97.755373
516,30.192167,-97.76229
1705,30.101967,-97.759692
1416,30.181782,-98.087413
4182,30.308319,-97.670495
5794,30.605047,-97.32757
699,30.188322,-97.952201
358,30.285682,-97.747977
6938,30.32696,-97.582044
3505,30.292468,-97.71492
5800,30.620189,-97.292911
949,30.592574,-97.705395
7223,30.754825,-97.721356
3574,30.350669,-97.692827
1020,30.741662,-97.534252
1004,30.575191,-97.510374
4846,30.543863,-97.760202
3143,30.269114,-97.775092
656,30.454708,-97.409402
7003,30.183049,-97.780152
6801,29.835802,-97.977166
6529,30.387182,-97.648215
3886,30.335641,-97.729032
3741,30.322292,-97.769829
31,30.344763,-97.869942
2377,30.223181,-97.871649
649,30.614327,-97.438935
4543,30.38719,-97.553175
19,30.367501,-97.984566
160,30.460126,-97.635163
4214,30.288941,-97.698191
2249,30.153575,-97.994535
2943,30.170108,-97.768355
5822,30.763034,-97.467927
5381,30.467614,-97.584575
3697,30.300289,-97.77499
1132,30.410378,-97.684787
6662,30.49638,-97.738149
110,30.522036,-97.803089
5512,30.716327,-97.68201
3600,30.338773,-97.710022
4168,30.313856,-97.69229
5456,30.643828,-97.615315
6365,30.513998,-97.754466
37,30.352597,-97.921387
5205,30.516649,-97.698067
1463,29.820649,-97.955213
595,30.463281,-97.525215
651,30.549309,-97.552697
5814,30.591588,-97.296832
24,30.351794,-97.845706
2034,29.968051,-97.874544
1222,30.687437,-97.492532
1933,30.047178,-97.988048
7350,30.366422,-97.894353
5632,30.593247,-97.282749
1862,29.898021,-97.947013
6577,30.129313,-97.778358
5924,30.681573,-97.652584
581,30.054632,-97.768528
1376,30.200172,-98.194485
6645,30.312647,-97.537075
628,30.408462,-97.527893
1299,30.143223,-98.135221
27,30.32358,-97.939978
2272,30.303727,-97.997469
6176,30.257784,-97.812577
4824,30.732835,-97.845932
7187,30.458775,-97.325924
4788,30.643704,-97.871143
593,30.488497,-97.600807
4924,30.478926,-97.713693
7313,30.036818,-97.709844
873,30.637172,-97.681379
260,30.351559,-97.727219
561,30.316307,-97.498617
199,30.407812,-97.737938
7158,30.630489,-97.304221
845,30.012707,-97.90673
604,30.114833,-97.680519
5795,30.632659,-97.33326
116,30.550837,-97.664092
2731,30.100934,-97.727371
5733,30.561181,-97.412434
245,30.3645,-97.740699
5834,30.717641,-97.442871
1114,30.659689,-98.030267
1602,29.856022,-97.931812
1025,30.791238,-97.642916
5831,30.702761,-97.486109
5948,30.508417,-97.638151
2387,30.179605,-97.819921
1081,30.826011,-97.51054
4800,30.58685,-97.809208
5269,30.516475,-97.670822
2267,30.246061,-97.92715
4594,30.66944,-97.737971
1019,30.727033,-97.485999
1183,30.425266,-97.532488
4536,30.394636,-97.595064
6815,30.502185,-97.812843
362,30.285008,-97.735154
4692,30.421551,-97.794047
208,30.398609,-97.616178
4577,30.63684,-97.798583
1022,30.767866,-97.516497
7294,30.316597,-97.73184
536,30.180777,-97.806741
5984,30.41233,-97.611378
3382,30.273537,-97.719529
87,30.39592,-97.773059
1938,30.068102,-97.95782
5078,30.414552,-97.707196
1030,30.652202,-97.567221
2991,30.183938,-97.744425
2356,30.245212,-97.864037
4815,30.815593,-97.808884
4411,30.35837,-97.688887
1368,30.22719,-98.169205
4422,30.348228,-97.711238
178,30.440343,-97.825646
2931,30.201675,-97.751597
7124,30.826595,-97.533557
7236,30.606813,-97.450413
6989,30.480331,-97.552125
1803,30.144604,-97.808804
2649,30.297657,-97.828157
2087,30.040561,-97.843567
3189,30.225227,-97.723983
7043,30.59126,-97.858148
1936,30.075656,-98.001528
578,30.113558,-97.857472
4486,30.157766,-97.59934
1343,29.998843,-98.084241
953,30.605496,-97.646404
3076,30.237344,-97.762197
2092,30.07893,-97.823356
1204,30.276789,-97.502484
1066,30.546888,-97.806481
1155,30.410956,-97.791897
6040,30.13062,-97.65459
5571,30.706254,-97.564518
885,30.577643,-97.392433
1836,30.018492,-97.871239
5829,30.742549,-97.431153
1249,30.355722,-98.066735
5901,30.584136,-97.836345
5779,30.6353,-97.434196
173,30.431584,-97.679807
5619,30.350742,-97.48392
569,30.560541,-97.747161
937,30.69345,-97.644873
626,30.362081,-97.455986
2841,30.337559,-97.719007
5462,30.557792,-97.54407
2204,30.290398,-98.020961
2108,30.049961,-97.874437
1044,30.521169,-97.847519
7041,30.669427,-97.914126
1837,29.89864,-97.973549
767,30.167197,-98.235175
3339,30.27337,-97.74421
7226,30.654901,-97.835778
891,30.54927,-97.453586
6640,30.462424,-97.503768
3194,30.237507,-97.725383
819,30.017435,-97.826144
793,29.928589,-97.917713
2909,30.2136,-97.662104
5296,30.632453,-97.764663
6950,30.251437,-97.806536
7200,30.69988,-97.601771
1611,29.877335,-97.929068
5514,30.695982,-97.686799
567,30.562892,-97.81444
6394,30.469124,-97.622313
1694,30.147484,-97.983461
2950,30.198881,-97.764733
4492,30.262993,-97.62151
7166,30.624678,-97.359752
4110,30.3864,-97.743353
2467,30.244234,-97.808808
4449,30.388683,-97.710122
2030,29.990351,-97.888739
1986,29.895047,-97.899234
5789,30.465499,-97.360832
5283,30.607559,-97.684462
828,30.040951,-97.895792
6861,30.476753,-97.600424
4599,30.674998,-97.621543
2631,30.316063,-97.825211
4080,30.399251,-97.745793
59,30.25396,-97.895281
1884,29.903718,-97.91319
986,30.504025,-97.182869
6943,30.293765,-97.570163
2434,30.165459,-97.787076
1031,30.658509,-97.527026
5425,30.601915,-97.622051
6580,30.551627,-97.732013
88,30.20472,-97.872225
1689,29.869256,-97.89591
888,30.567615,-97.398214
7250,30.292329,-97.663439
698,30.256626,-98.041382
1981,29.92182,-97.856035
610,30.237554,-97.674932
5569,30.775898,-97.627189
3522,30.34258,-97.762639
6727,30.804112,-97.660227
744,30.174555,-98.153721
7363,30.382586,-97.850854
5611,30.296791,-97.476401
5411,30.428613,-97.549755
2986,30.162941,-97.725755
5678,30.459601,-97.468147
599,30.428163,-97.513846
573,30.494096,-97.797771
4777,30.630726,-97.904345
2541,30.229617,-97.788557
7210,30.822921,-97.826897
2243,30.233343,-97.980853
6833,30.561905,-97.57868
897,29.862569,-97.930338
641,30.688991,-97.697896
4025,30.362701,-97.718471
640,30.645536,-97.648227
5623,30.321102,-97.430977
3864,30.283785,-97.720124
5403,30.531572,-97.61362
1178,30.406589,-97.674045
4850,30.456432,-97.651139
4683,30.446941,-97.800091
7212,30.818978,-97.894708
1415,30.193977,-98.102295
1539,29.849604,-97.924394
983,30.493829,-97.35547
7165,30.623191,-97.394426
500,30.224758,-97.664314
6125,30.496184,-97.77416
5792,30.583098,-97.336918
5868,30.52022,-97.814932
5670,30.525988,-97.343815
6917,30.345564,-97.592243
1707,30.145025,-97.852244
4208,30.305753,-97.697286
6685,30.16979,-97.623957
3366,30.255577,-97.720672
1301,30.144817,-98.089328
5343,30.649881,-97.680663
5040,30.441813,-97.703667
2912,30.213182,-97.717795
1313,30.004317,-98.18761
2340,30.193757,-97.85882
1274,29.908608,-98.008721
5465,30.640014,-97.555481
1855,29.917193,-97.933274
1889,29.896258,-97.936477
6321,30.328316,-97.667117
1668,29.882965,-97.940445
2655,30.305178,-97.825485
2657,30.292344,-97.797985
5316,30.556942,-97.704972
5524,30.698847,-97.651582
4561,30.428919,-97.78237
3225,30.243819,-97.742821
5444,30.567682,-97.617527
6331,30.330706,-97.632857
5863,30.499148,-97.805596
5530,30.829191,-97.701924
55,30.260857,-97.851746
689,30.142357,-98.017092
5982,30.438496,-97.594112
3657,30.312377,-97.716213
5398,30.487183,-97.623915
5841,30.730477,-97.339793
3100,30.226387,-97.76808
854,30.561981,-97.854201
1152,30.407793,-97.874061
3331,30.264046,-97.741224
4603,30.738582,-97.774019
674,29.997999,-98.058955
3854,30.282253,-97.725751
4836,30.85163,-97.82009
5165,30.508403,-97.678612
1419,30.192514,-98.064321
2703,30.080573,-97.735104
1148,30.408455,-97.512478
1035,30.711832,-97.41274
5685,30.433967,-97.482584
1289,29.883183,-97.922476
4252,30.337415,-97.699435
738,29.863587,-97.978738
147,30.481309,-97.698393
5696,30.490955,-97.400783
6715,29.85124,-97.902503
5538,30.703664,-97.589123
7202,30.63348,-97.491618
2082,30.057888,-97.844172
5640,30.542725,-97.484727
7068,30.656798,-97.958937
2817,30.280296,-97.609429
1519,29.863038,-97.945704
5498,30.745366,-97.705643
2300,30.245545,-97.845201
630,30.417448,-97.486022
4432,30.37087,-97.709336
7292,30.268269,-97.753861
1700,30.033957,-97.778844
3688,30.305227,-97.76447
597,30.058818,-97.723985
4876,30.635633,-97.654914
7287,30.420686,-97.930203
3698,30.282583,-97.757484
973,30.472299,-97.262528
2119,30.068251,-97.873629
4542,30.338695,-97.525887
7346,30.397364,-97.929315
7199,30.67681,-97.576202
5203,30.517438,-97.684648
1322,30.094404,-98.170976
635,30.714855,-97.635692
1000,30.526407,-97.530192
2027,29.98998,-97.859024
2853,30.205211,-97.716385
5820,30.740767,-97.46741
4054,30.349569,-97.722736
4012,30.358987,-97.736949
5638,30.492615,-97.27311
5833,30.687888,-97.426275
5264,30.530219,-97.667632
3652,30.30663,-97.735245
1372,30.162056,-98.141627
2301,30.169901,-97.859566
4752,30.505585,-97.798293
1009,30.593494,-97.559051
25,30.221922,-97.974997
6430,30.106826,-97.694182
5027,30.531697,-97.733191
627,30.389228,-97.501275
2966,30.185189,-97.772304
2869,30.22924,-97.712447
6437,30.001733,-97.737802
4448,30.400335,-97.702582
5635,30.665192,-97.467715
1060,30.491587,-97.764424
2939,30.180521,-97.76206
3349,30.264355,-97.736052
6084,30.040994,-97.689019
6701,30.327907,-97.926668
4886,30.539912,-97.562729
4328,30.29052,-97.672613
1621,29.866104,-97.937439
7118,30.812231,-97.634678
1438,29.82181,-98.007133
4784,30.652987,-97.875071
6706,30.342613,-97.967036
3433,30.223624,-97.700876
1225,30.783688,-97.524716
542,30.160598,-97.815586
2748,30.109931,-97.622726
5663,30.459272,-97.381999
4515,30.32621,-97.605033
6736,30.656012,-97.720317
1212,30.399374,-97.381992
1083,30.171221,-97.519633
757,30.02551,-98.111827
7450,30.552871,-97.518413
2407,30.1607,-97.802057
6848,30.493739,-97.584262
4651,30.456943,-97.845607
6106,30.523829,-97.86524
7137,30.753661,-97.487775
2038,29.971791,-97.858385
2322,30.206944,-97.84541
1350,30.069955,-98.090106
3417,30.222207,-97.677602
596,30.087585,-97.751571
1129,30.412533,-97.731664
7035,30.477821,-97.776844
4980,30.420125,-97.772972
4602,30.677696,-97.53097
3650,30.311823,-97.738268
258,30.350866,-97.738792
1197,30.715859,-97.509234
1251,30.37458,-98.041928
639,30.659308,-97.591075
6988,30.458768,-97.565788
174,30.43806,-97.654831
686,30.183656,-98.035565
6318,30.252222,-97.680694
127,30.537873,-97.628339
4558,30.674549,-97.933511
7049,30.795717,-97.885221
550,30.11474,-97.761745
583,30.044241,-97.823901
210,30.396551,-97.82942
7457,30.461758,-97.439574
6048,30.104882,-97.671659
2088,30.078846,-97.843981
4638,30.529622,-97.844844
4669,30.484195,-97.852776
6173,30.563078,-97.692814
1002,30.509986,-97.55816
6139,30.219069,-97.75614
5642,30.531828,-97.446217
4417,30.35443,-97.703913
450,30.254015,-97.779408
2122,30.097269,-97.874777
1409,30.233872,-98.124752
1560,29.881201,-97.962979
1950,29.926522,-97.83059
4895,30.53657,-97.588612
5395,30.431071,-97.602426
619,30.311798,-97.470836
2246,30.167389,-98.008567
409,30.256691,-97.729877
2617,30.316056,-97.872294
2000,29.942942,-97.88172
643,30.688418,-97.290934
824,29.973582,-97.882525
982,30.479036,-97.392374
7133,30.763747,-97.543111
2727,30.123976,-97.740532
224,30.373993,-97.650303
1932,30.03879,-97.948547
5432,30.60976,-97.577788
3356,30.272046,-97.734673
2109,30.02744,-97.88916
5484,30.754238,-97.662455
6410,30.276716,-97.80913
111,30.518674,-97.768768
1309,30.089786,-98.19487
781,29.786936,-97.976479
546,30.118841,-97.815712
729,30.207493,-98.032242
3874,30.296455,-97.718585
1276,29.885597,-97.946803
325,30.325211,-97.753043
2820,30.267849,-97.5478
56,30.259205,-97.829376
6567,30.259944,-97.907605
3454,30.235846,-97.686276
4339,30.327082,-97.674774
452,30.254583,-97.756802
4102,30.385977,-97.728418
4662,30.527014,-97.854638
5747,30.59042,-97.443232
3115,30.234048,-97.757043
5748,30.576852,-97.430223
3456,30.261441,-97.708551
5694,30.476119,-97.4378
6682,30.563081,-97.883193
3664,30.314457,-97.75495
1943,30.12078,-97.957285
5578,30.827265,-97.572919
2544,30.229025,-97.799467
10,30.405429,-97.968645
5643,30.546803,-97.434591
243,30.340503,-97.634953
7170,30.5629,-97.285197
5550,30.689383,-97.584807
2064,29.976888,-97.808745
883,30.631001,-97.410462
948,30.594021,-97.681147
1356,30.116391,-98.137431
97,30.152804,-97.866404
6608,30.113569,-97.949825
1236,29.987074,-98.049768
2990,30.198516,-97.73521
2725,30.133965,-97.755881
1253,29.893214,-97.964866
7162,30.653836,-97.368068
5652,30.519539,-97.398686
1338,29.986542,-98.120568
1209,30.405153,-97.499596
5453,30.641717,-97.63095
5961,30.488563,-97.632541
878,30.625071,-97.676133
5540,30.734923,-97.587176
5620,30.363782,-97.477292
5574,30.684075,-97.545482
6424,30.11623,-97.705409
6458,30.349086,-97.555105
1098,29.806018,-97.944241
7141,30.706557,-97.504814
7059,30.849521,-97.790239
2691,30.024991,-97.699893
1184,30.407188,-97.541096
5428,30.574626,-97.587728
115,30.544608,-97.683218
5126,30.452085,-97.666344
6432,30.176458,-97.689641
2637,30.313248,-97.79433
2735,30.098475,-97.683197
4481,30.390634,-97.658879
1032,30.744464,-97.349428
328,30.311422,-97.745119
209,30.420193,-97.603293
7455,30.622793,-97.72452
6946,30.256804,-97.601372
2333,30.200434,-97.877747
2520,30.227708,-97.808527
395,30.280929,-97.693411
1012,30.544585,-97.60774
1380,30.255864,-98.132785
6380,30.138344,-97.70388
6378,30.518272,-97.786954
843,29.893191,-97.890449
4236,30.322029,-97.694297
4946,30.518784,-97.718423
4513,30.2983,-97.623014
73,30.221875,-97.905353
3580,30.349585,-97.657745
541,30.164418,-97.745521
2892,30.208545,-97.744127
140,30.499365,-97.699917
520,30.179088,-97.714023
709,29.881815,-97.932862
2210,30.230046,-97.895393
6741,30.609498,-97.710042
385,30.277326,-97.734167
5382,30.496801,-97.592503
2618,30.331027,-97.885542
2578,30.270391,-97.791447
4621,30.441616,-97.781865
6730,30.606128,-97.540181
4575,30.582212,-97.776335
3728,30.329318,-97.7642
4224,30.290135,-97.710146
968,30.749076,-97.498686
48,30.308846,-97.703502
7305,30.173574,-97.81977
7356,30.726215,-97.817829
2560,30.236651,-97.792052
7278,30.074718,-97.747273
3760,30.332243,-97.758571
7016,30.810491,-97.500176
4582,30.7129,-97.797916
6032,30.15357,-97.638904
7029,30.132056,-97.572831
5714,30.653853,-97.477581
3792,30.285001,-97.730451
1976,29.917495,-97.895689
6705,30.3235,-97.519516
5305,30.577124,-97.691532
228,30.360871,-97.581717
673,29.979552,-98.108467
6961,30.478887,-97.722983
124,30.529538,-97.693185
4234,30.300884,-97.690249
3802,30.291578,-97.737599
2232,30.269707,-97.850778
36,30.298805,-97.888816
4643,30.492385,-97.979233
78,30.229226,-97.850001
6731,30.603666,-97.557217
2096,30.084451,-97.781297
5386,30.439292,-97.619696
5536,30.733059,-97.611137
171,30.43446,-97.712671
5849,30.520289,-97.191544
7228,30.678939,-97.858493
5029,30.445468,-97.695641
1550,29.861112,-97.957928
7192,30.484205,-97.424007
938,30.70634,-97.676452
4493,30.248544,-97.560827
4186,30.316825,-97.662419
606,30.145238,-97.583182
5677,30.480151,-97.458798
2818,30.27574,-97.59952
513,30.201568,-97.781077
5710,30.601042,-97.416459
1444,29.814105,-98.000616
6702,30.594222,-97.790588
1925,29.891997,-97.914136
1074,30.492048,-97.5281
7112,30.560879,-97.798638
5553,30.745678,-97.551252
696,30.221504,-98.001452
1454,29.850844,-97.974942
2083,30.085233,-97.849017
6824,30.624707,-97.61968
4697,30.467492,-97.796187
183,30.432578,-97.745077
811,30.126275,-97.877768
5468,30.788481,-97.765364
6984,30.528303,-97.644217
7132,30.78477,-97.545547
5102,30.468777,-97.692961
5633,30.602244,-97.247418
662,30.518844,-97.603226
7232,30.675452,-97.904203
5727,30.57238,-97.439098
1820,30.011987,-97.891282
623,30.400775,-97.566228
5634,30.670731,-97.27318
2574,30.260209,-97.79324
2616,30.312663,-97.881033
601,30.132946,-97.82476
1742,29.95748,-97.786545
844,29.9514,-97.81998
5445,30.571665,-97.609147
1352,30.12629,-98.112328
7304,30.201092,-97.801208
935,30.678669,-97.678827
100,30.17107,-97.842194
784,29.836644,-97.955373
4659,30.475362,-97.809721
191,30.422727,-97.734935
650,30.556867,-97.534104
2304,30.21668,-97.845643
1027,30.682848,-97.597727
543,30.161894,-97.781648
2929,30.172862,-97.751399
1500,29.846826,-97.963812
2622,30.382368,-97.871525
499,30.200401,-97.668694
7371,29.819746,-97.975514
2738,30.12938,-97.683977
3192,30.237491,-97.730967
7211,30.811356,-97.873774
6814,29.927671,-97.905354
3884,30.325571,-97.739362
1294,30.245989,-98.027316
7259,30.556922,-97.559113
4837,30.853411,-97.800416
4684,30.461285,-97.815652
822,30.070587,-97.864712
126,30.537547,-97.657977
5288,30.607257,-97.665452
1090,30.42561,-97.259456
4089,30.393403,-97.73965
303,30.28759,-97.640662
4586,30.720897,-97.773644
4627,30.449426,-97.904401
1949,29.915845,-97.848869
5793,30.586328,-97.319771
1234,30.42208,-97.625593
1712,30.148136,-97.793388
555,30.079091,-97.708895
1063,30.488025,-97.78106
4200,30.328765,-97.678082
645,30.707375,-97.44851
1102,29.988874,-97.742832
6374,30.553424,-97.765839
552,30.10704,-97.711796
665,30.52616,-97.553431
133,30.468471,-97.609093
6649,30.495014,-97.857845
522,30.128184,-97.613068
5639,30.533141,-97.486528
549,30.122344,-97.793243
125,30.530948,-97.677935
6721,30.577657,-97.806715
3077,30.215975,-97.767869
6806,29.841425,-97.984104
998,30.581104,-97.381876
825,29.983051,-97.900371
6617,30.070519,-97.718386
7418,30.217253,-97.668257
6121,30.480956,-97.793933
6720,30.551799,-97.795273
6569,30.23685,-97.878215
90,30.194893,-97.937337
951,30.624548,-97.751006
4280,30.322574,-97.706824
5932,30.66607,-97.643756
3492,30.269486,-97.692553
741,29.842171,-97.996419
1842,29.900238,-97.982998
5837,30.725492,-97.44187
7143,30.712262,-97.473808
1426,29.841741,-97.912779
2218,30.201796,-97.918388
1010,30.571888,-97.562385
1603,29.869094,-97.925668
4264,30.336173,-97.693107
992,30.590803,-97.346743
706,29.87795,-97.943205
636,30.721902,-97.655039
229,30.369183,-97.77245
3773,30.30048,-97.733303
7208,30.82,-97.856489
4084,30.391019,-97.733849
5624,30.669976,-97.44985
1186,30.51811,-97.517307
6661,30.488238,-97.758097
5880,30.533257,-97.816432
