id,lat,long
3809,30.282227,-97.744542
5952,30.496132,-97.632518
1517,29.865634,-97.943201
5749,30.588197,-97.42625
7235,30.595035,-97.835945
2289,30.210837,-97.858899
6428,30.093237,-97.694117
1367,30.257611,-98.169802
940,30.756782,-97.762274
4462,30.395723,-97.672955
4542,30.338695,-97.525887
4554,30.474461,-97.770869
5917,30.686135,-97.658683
1043,30.043099,-97.852821
1242,30.1098,-98.068304
3501,30.221944,-97.676145
5845,30.465162,-97.234926
2860,30.208861,-97.756035
6209,30.388404,-97.759726
5548,30.777046,-97.591018
4266,30.326825,-97.687624
36,30.298805,-97.888816
644,30.708185,-97.434506
6822,30.622938,-97.614617
824,29.973582,-97.882525
5641,30.451534,-97.391454
1712,30.148136,-97.793388
9,30.488843,-98.053644
4571,30.688883,-97.878742
5629,30.678105,-97.315701
1420,30.237465,-98.065915
6362,30.026858,-98.101147
7441,30.274944,-97.817679
6924,30.335385,-97.587765
1074,30.492048,-97.5281
7322,30.140966,-97.591679
5225,30.534557,-97.690531
868,30.876242,-97.77401
1322,30.094404,-98.170976
6629,30.468595,-97.715297
6372,30.540793,-97.790415
2230,30.386976,-97.903719
6712,30.09504,-97.922736
1491,29.827121,-97.984705
1816,29.894057,-97.911678
3913,30.3299,-97.739692
4755,30.493729,-97.826739
5348,30.618972,-97.689152
5791,30.575209,-97.310499
6864,30.475538,-97.596566
1087,30.359273,-97.397532
6302,30.286848,-97.664816
5395,30.431071,-97.602426
2064,29.976888,-97.808745
7149,30.72177,-97.53191
2463,30.23245,-97.808305
4076,30.371068,-97.71978
2818,30.27574,-97.59952
19,30.367501,-97.984566
1739,30.341546,-97.781731
7275,30.093959,-97.781551
2220,30.251859,-97.918722
6025,30.184097,-97.630291
1214,30.417783,-97.521358
6835,30.566984,-97.581921
5658,30.586548,-97.380104
7068,30.656798,-97.958937
5254,30.485489,-97.674074
4831,30.85079,-97.834573
3000,30.244162,-97.764886
769,30.191844,-98.103685
51,30.205053,-97.932402
6439,30.041147,-97.761506
5033,30.430782,-97.70031
1841,29.969026,-97.989404
3227,30.239761,-97.735931
1143,30.307684,-97.514671
5581,30.830155,-97.601763
6433,30.175929,-97.70774
1365,30.179424,-98.191269
7024,30.465685,-97.80317
5574,30.684075,-97.545482
2106,30.140901,-97.846645
1101,30.0113,-97.687029
6319,30.250723,-97.686436
4810,30.774649,-97.876885
5642,30.531828,-97.446217
6376,30.545637,-97.865456
2236,30.196676,-98.013609
1194,30.637913,-97.503543
1281,29.885267,-97.940102
7134,30.799024,-97.452087
15,30.398674,-97.83899
7182,30.445164,-97.319315
2092,30.07893,-97.823356
5608,30.380452,-97.46579
2966,30.185189,-97.772304
4979,30.433175,-97.766563
3316,30.270582,-97.733666
3670,30.293801,-97.769587
351,30.285307,-97.701787
3568,30.344633,-97.704491
2375,30.236052,-97.854532
4532,30.362644,-97.629357
1323,30.000072,-98.200099
5944,30.558836,-97.6411
1425,30.393322,-98.067956
2000,29.942942,-97.88172
6521,30.175664,-97.528057
7426,30.328976,-97.638192
27,30.32358,-97.939978
7257,30.564129,-97.542984
5533,30.836097,-97.706166
1360,30.058309,-98.049009
4228,30.308695,-97.709155
5534,30.728232,-97.642808
1201,30.813891,-97.514762
988,30.62155,-97.263684
605,30.131976,-97.668147
4941,30.521186,-97.734846
4595,30.682861,-97.717634
4126,30.384612,-97.736118
7329,30.453961,-97.469466
7216,30.633795,-97.826607
5757,30.557868,-97.407969
1381,30.285707,-98.103249
6941,30.297637,-97.567921
4825,30.721292,-97.831363
1340,29.925171,-98.064188
1860,29.900516,-97.958233
7282,30.075896,-97.748536
5295,30.594977,-97.763822
5132,30.452635,-97.665576
4644,30.481116,-97.976926
6999,30.839077,-97.79333
6902,30.366298,-97.582811
2593,30.253313,-97.801443
2453,30.204353,-97.791199
986,30.504025,-97.182869
3622,30.310768,-97.75751
6005,30.232521,-97.614488
1226,30.740209,-97.493845
1136,30.231017,-97.516594
6613,30.171652,-97.888239
7161,30.641278,-97.366213
755,30.1139,-98.246902
7044,30.593884,-97.883234
2638,30.322091,-97.815584
4355,30.323016,-97.669486
4035,30.356587,-97.736352
2048,29.998763,-97.869521
694,30.046219,-97.956417
1942,30.131151,-98.015189
7099,30.536207,-97.836581
6478,30.350821,-97.473066
107,30.627603,-97.663039
6409,29.83148,-97.935092
541,30.164418,-97.745521
7152,30.649131,-97.441135
3232,30.214341,-97.724986
5841,30.730477,-97.339793
5562,30.764075,-97.630044
4411,30.35837,-97.688887
7352,30.43402,-97.896425
5305,30.577124,-97.691532
3150,30.275657,-97.76766
1030,30.652202,-97.567221
2176,30.112147,-97.805531
5077,30.412824,-97.708511
1950,29.926522,-97.83059
5217,30.509533,-97.686304
2254,30.232748,-97.991675
1038,30.713284,-97.917453
756,29.996347,-98.122024
1371,30.300407,-98.170914
1299,30.143223,-98.135221
1128,30.415637,-97.745701
5558,30.676226,-97.610164
6843,30.50182,-97.582941
99,30.188004,-97.841393
2124,30.114723,-97.874813
7108,30.527589,-97.806271
1212,30.399374,-97.381992
1605,29.871191,-97.918273
3379,30.269488,-97.71867
5190,30.484788,-97.694529
7177,30.503991,-97.348564
3853,30.282091,-97.726769
7169,30.539773,-97.265147
7051,30.842139,-97.885558
6552,30.523132,-97.773649
7433,30.369521,-97.788405
1248,30.291368,-98.034598
5412,30.446717,-97.561327
7223,30.754825,-97.721356
2496,30.231272,-97.827504
1454,29.850844,-97.974942
4596,30.666229,-97.665892
4630,30.649572,-97.910658
4805,30.560418,-97.835783
5383,30.442935,-97.627894
4898,30.518637,-97.649818
5861,30.500392,-97.806078
223,30.383394,-97.660601
551,30.10091,-97.742406
1330,29.980102,-98.093545
5025,30.481985,-97.743634
2698,29.97976,-97.764403
5815,30.639784,-97.290325
5696,30.490955,-97.400783
2350,30.240749,-97.880658
4585,30.733725,-97.794622
4739,30.446597,-97.7889
2745,30.095123,-97.660082
5613,30.313634,-97.483197
1188,30.537219,-97.513917
1110,30.193282,-98.236528
22,30.373525,-97.86814
4803,30.574615,-97.789068
7196,30.619446,-97.565469
4688,30.455006,-97.824879
1410,30.167629,-98.086571
4494,30.255091,-97.555928
3166,30.265618,-97.748341
1472,29.80115,-97.994277
793,29.928589,-97.917713
1936,30.075656,-98.001528
7313,30.036818,-97.709844
6073,30.058237,-97.690933
3826,30.305054,-97.742751
1149,30.409589,-98.109364
5985,30.393899,-97.628423
6893,30.391138,-97.581299
3435,30.22465,-97.703324
4634,30.518785,-97.894821
3758,30.335561,-97.753604
5511,30.702941,-97.69005
1155,30.410956,-97.791897
518,30.191559,-97.741838
5942,30.599089,-97.632599
6746,30.633263,-97.641575
6441,30.169014,-97.784922
5721,30.5734,-97.428283
560,30.371482,-97.546382
1114,30.659689,-98.030267
5532,30.873512,-97.725051
2238,30.228909,-97.95054
1820,30.011987,-97.891282
3098,30.224153,-97.76475
1359,30.048688,-98.097949
1937,30.12097,-97.966499
4292,30.320676,-97.701459
7143,30.712262,-97.473808
1996,29.907766,-97.900401
2744,30.129184,-97.69566
951,30.624548,-97.751006
1404,30.191378,-98.162277
1025,30.791238,-97.642916
1320,30.008634,-98.051193
846,30.276044,-97.858429
6807,29.905089,-97.995181
2605,30.265011,-97.786332
4894,30.532765,-97.605992
945,30.820892,-97.877474
6842,30.532516,-97.576163
4336,30.302674,-97.656988
5541,30.745166,-97.565924
1962,29.952679,-97.837463
6236,30.458875,-97.75412
6517,30.189352,-97.58265
2617,30.316056,-97.872294
2398,30.191134,-97.812608
1438,29.82181,-98.007133
2643,30.293077,-97.82808
5603,30.319001,-97.443682
1009,30.593494,-97.559051
5111,30.424826,-97.672301
2138,30.050612,-97.838215
7344,30.560488,-97.683307
848,30.174384,-97.984925
2749,30.141786,-97.615924
5093,30.458208,-97.69716
2090,30.072526,-97.855312
5343,30.649881,-97.680663
882,30.656402,-97.262914
5823,30.754321,-97.437996
4511,30.290951,-97.627772
4827,30.772247,-97.815611
4628,30.557239,-97.945845
1251,30.37458,-98.041928
1044,30.521169,-97.847519
5759,30.562482,-97.388583
1575,29.873806,-97.95471
1093,30.609838,-97.218848
1831,30.015748,-97.859108
939,30.717388,-97.745749
100,30.17107,-97.842194
4570,30.662809,-97.879073
6458,30.349086,-97.555105
2768,30.190898,-97.647323
6255,30.499183,-97.775875
3296,30.254915,-97.734552
7163,30.598462,-97.349552
6262,30.397615,-97.745974
7045,30.779992,-97.920107
7311,30.284362,-97.519374
6700,30.338148,-97.919886
883,30.631001,-97.410462
6339,30.332184,-97.617231
5699,30.591685,-97.4754
1562,29.858371,-97.950815
5931,30.666555,-97.64208
777,29.832686,-97.918297
4407,30.364998,-97.701203
16,30.33372,-98.076591
2636,30.308132,-97.796794
7130,30.787696,-97.536638
6909,30.351176,-97.592177
1828,30.014363,-97.812917
5785,30.469994,-97.347971
5281,30.642587,-97.714358
6774,30.078712,-97.702452
2799,30.278268,-97.69086
1382,30.256388,-98.109119
4053,30.346675,-97.720609
5787,30.48948,-97.283439
4591,30.852156,-97.746004
7343,29.862152,-98.014392
630,30.417448,-97.486022
6730,30.606128,-97.540181
1446,29.815446,-97.96404
95,30.342242,-97.809077
5601,30.221099,-97.488372
159,30.467254,-97.654187
6670,30.471894,-97.50215
4783,30.617735,-97.85978
5205,30.516649,-97.698067
764,30.3165,-98.139466
7314,30.102734,-97.614224
6473,30.351242,-97.483825
2565,30.236646,-97.78352
1028,30.715183,-97.599677
2274,30.315871,-97.97799
3985,30.355174,-97.756664
6422,30.164116,-97.693067
4798,30.580474,-97.85324
2865,30.209953,-97.74713
2072,29.964911,-97.794449
1692,29.87339,-97.900478
933,30.65866,-97.776031
7466,30.293874,-97.922855
751,30.072636,-98.204517
75,30.222138,-97.883969
1321,30.020471,-98.153274
6622,30.561158,-97.607713
1838,29.925388,-97.947524
6404,29.92377,-97.89152
709,29.881815,-97.932862
5644,30.532268,-97.423996
569,30.560541,-97.747161
1094,29.934113,-98.150473
2306,30.213668,-97.830107
1407,30.227215,-98.154469
5264,30.530219,-97.667632
4146,30.397182,-97.732347
4157,30.313454,-97.69127
6231,30.445279,-97.743061
3456,30.261441,-97.708551
548,30.1398,-97.779669
767,30.167197,-98.235175
4670,30.479756,-97.80205
5983,30.404393,-97.607354
6434,30.197576,-97.691615
1016,30.657724,-97.497322
6394,30.469124,-97.622313
4800,30.58685,-97.809208
2902,30.216178,-97.665134
3779,30.294177,-97.718183
4816,30.690112,-97.971308
4657,30.474667,-97.841321
2163,30.06067,-97.804117
6961,30.478887,-97.722983
536,30.180777,-97.806741
2703,30.080573,-97.735104
4280,30.322574,-97.706824
3120,30.239617,-97.747665
6792,29.892204,-97.882143
1078,30.837785,-97.539898
3895,30.312454,-97.731185
886,30.539989,-97.216877
1419,30.192514,-98.064321
1723,30.204722,-97.774484
2217,30.186433,-97.913792
984,30.522277,-97.308176
934,30.658855,-97.849323
5833,30.687888,-97.426275
2285,30.391435,-97.937119
3595,30.390596,-97.713615
1957,29.987605,-97.836644
7267,30.319976,-98.006688
5484,30.754238,-97.662455
1113,30.530257,-98.103332
1052,30.587174,-97.415829
7232,30.675452,-97.904203
1118,30.43398,-98.04384
5976,30.446855,-97.59328
6634,30.207247,-97.877408
5508,30.774769,-97.754241
665,30.52616,-97.553431
2815,30.276595,-97.636962
6831,30.590226,-97.59319
4759,30.516557,-97.827138
1981,29.92182,-97.856035
126,30.537547,-97.657977
675,30.019846,-98.0279
5768,30.568413,-97.41163
753,30.019708,-98.232533
2904,30.211582,-97.709216
5516,30.701994,-97.653009
890,30.460507,-97.1884
6029,30.167774,-97.628837
2823,30.333212,-97.652719
6887,30.253642,-97.604347
5288,30.607257,-97.665452
2007,29.988604,-97.877025
5594,30.84955,-97.592818
1227,30.766484,-97.479858
5458,30.546239,-97.545455
1698,30.008939,-97.764874
2881,30.158589,-97.728433
4680,30.438159,-97.810385
602,30.145593,-97.817215
2239,30.208494,-97.972777
5413,30.447385,-97.535671
1082,30.747149,-97.300292
1246,30.153385,-98.016194
1152,30.407793,-97.874061
1834,30.095394,-97.895715
5711,30.553618,-97.48268
1158,30.404545,-97.768691
2251,30.24336,-98.021496
5798,30.614793,-97.309366
5637,30.435115,-97.258868
5471,30.8064,-97.673961
6710,30.045735,-97.975909
4457,30.344808,-97.674314
5679,30.477638,-97.448598
4376,30.379405,-97.682053
1356,30.116391,-98.137431
4833,30.887819,-97.801274
1345,30.072243,-98.140645
1298,30.129515,-98.173062
2610,30.35662,-97.832265
828,30.040951,-97.895792
6048,30.104882,-97.671659
5465,30.640014,-97.555481
6087,30.029653,-97.689573
6621,30.261347,-97.724769
6715,29.85124,-97.902503
4580,30.68251,-97.849655
5549,30.693266,-97.574742
5834,30.717641,-97.442871
6035,30.133494,-97.650461
5453,30.641717,-97.63095
658,30.548378,-97.339944
2450,30.191804,-97.783996
4558,30.674549,-97.933511
97,30.152804,-97.866404
272,30.34417,-97.558384
5400,30.496873,-97.613129
572,30.426107,-97.404165
6174,30.254089,-97.808566
5690,30.523104,-97.488414
4533,30.394418,-97.644066
7117,30.797612,-97.619815
2732,30.135335,-97.733256
6018,30.195923,-97.626736
193,30.419626,-97.687169
6968,30.356862,-98.164399
6483,30.35158,-97.451719
10,30.405429,-97.968645
5687,30.440519,-97.502735
6741,30.609498,-97.710042
5241,30.495811,-97.664951
7236,30.606813,-97.450413
5600,30.272989,-97.504777
1353,30.121344,-98.088327
4299,30.334558,-97.702153
5280,30.605336,-97.686652
2689,30.021253,-97.742644
6536,30.366735,-97.614736
2165,30.094963,-97.813585
7179,30.4626,-97.270295
6173,30.563078,-97.692814
713,29.888441,-97.926399
742,30.139214,-98.214295
5,30.49655,-97.901257
763,30.277913,-98.137608
1021,30.707529,-97.522309
606,30.145238,-97.583182
7022,30.428272,-97.721068
1192,30.59844,-97.503766
4048,30.364478,-97.734807
483,30.226569,-97.732462
6682,30.563081,-97.883193
3685,30.293766,-97.759197
1620,29.859132,-97.93763
4476,30.404124,-97.67596
121,30.506262,-97.733466
6763,30.113679,-97.782154
2621,30.377412,-97.879879
7176,30.520885,-97.356753
4583,30.705619,-97.777088
1861,29.896785,-97.948392
7247,30.315925,-97.663048
2670,30.331043,-97.788907
5891,30.564769,-97.826268
1401,30.254291,-98.082014
7181,30.433644,-97.347097
5118,30.431371,-97.671
2365,30.257265,-97.88907
298,30.300761,-97.67833
6565,30.275587,-97.913174
3398,30.166184,-97.660261
1813,30.028014,-97.910045
1182,30.400877,-97.545066
2315,30.236609,-97.83963
2307,30.218339,-97.805362
2521,30.232107,-97.800515
688,30.132727,-98.066773
434,30.281114,-97.79798
643,30.688418,-97.290934
7063,30.62233,-97.903366
1211,30.415024,-97.460113
7383,30.53401,-97.783377
2840,30.202928,-97.639066
7052,30.762024,-97.858218
2609,30.341261,-97.881847
7066,30.632857,-97.987369
8,30.434403,-98.083907
4829,30.704407,-97.872008
4813,30.803422,-97.850393
6849,30.482371,-97.586644
5360,30.632687,-97.689824
5500,30.725787,-97.671934
3751,30.320991,-97.754159
1503,29.828578,-97.941912
4914,30.471264,-97.670375
2278,30.354141,-97.96117
1060,30.491587,-97.764424
6638,30.494898,-97.497682
1295,30.246378,-98.043262
234,30.365825,-97.723827
7170,30.5629,-97.285197
2006,29.980784,-97.89222
6193,30.350477,-97.796373
3880,30.328885,-97.727752
5874,30.526828,-97.817147
963,30.605618,-97.407175
1292,30.193978,-98.03592
2237,30.179153,-97.965435
401,30.261466,-97.586183
5618,30.331992,-97.504609
976,30.479296,-97.306116
1023,30.804915,-97.569578
1414,30.191338,-98.087434
7104,30.471042,-97.791021
2262,30.193069,-97.924096
2036,29.962752,-97.87637
5421,30.49395,-97.550917
5881,30.540632,-97.815294
5448,30.595109,-97.61868
5487,30.815035,-97.611181
7139,30.73258,-97.464609
1336,29.938804,-98.081782
989,30.631593,-97.319296
1726,30.227437,-97.779343
2378,30.223243,-97.863618
5636,30.663398,-97.364777
7377,30.389727,-97.746005
1327,30.096546,-98.216512
12,30.421566,-97.941993
670,29.868981,-97.990969
1108,30.270539,-98.206818
6499,30.132632,-97.753456
5814,30.591588,-97.296832
2235,30.215547,-98.02279
3299,30.265681,-97.738673
5231,30.482207,-97.660016
2086,30.032572,-97.847181
1273,29.940677,-98.022744
4654,30.420247,-97.845343
7136,30.761821,-97.494025
4482,30.182514,-97.540951
2194,30.129586,-97.799486
2885,30.23855,-97.719287
1440,29.819486,-97.994863
5961,30.488563,-97.632541
1139,30.413554,-97.623711
6801,29.835802,-97.977166
4820,30.726002,-97.875969
2221,30.282704,-97.876244
6595,30.469974,-97.698732
6986,30.352589,-97.642447
6966,30.311282,-98.088111
3174,30.228297,-97.742712
7083,30.596366,-97.812928
2614,30.313104,-97.852347
6706,30.342613,-97.967036
7214,30.825954,-97.783551
1680,29.881947,-97.92016
1812,29.956683,-97.903285
6929,30.287756,-97.574522
4985,30.437025,-97.77455
5215,30.517264,-97.686491
3584,30.352809,-97.713816
2697,29.994679,-97.749232
2268,30.241424,-97.940784
1115,30.709085,-98.002919
2707,30.112132,-97.694721
1017,30.681438,-97.518758
2731,30.100934,-97.727371
6607,30.190314,-97.872553
516,30.192167,-97.76229
6245,30.476764,-97.765108
4539,30.321883,-97.542475
7269,30.072067,-97.73221
3431,30.232548,-97.698222
7234,30.668359,-97.696225
1789,30.288501,-97.78036
7000,30.737999,-97.936347
3472,30.260441,-97.698452
1699,30.027667,-97.785745
4892,30.54647,-97.613963
4787,30.582649,-97.835462
627,30.389228,-97.501275
3123,30.264656,-97.764502
2127,30.100605,-97.860949
7173,30.576649,-97.230771
5847,30.479534,-97.180841
2650,30.281643,-97.842091
5604,30.32804,-97.426761
4837,30.853411,-97.800416
190,30.421041,-97.757609
2356,30.245212,-97.864037
903,29.874089,-97.937071
4333,30.284509,-97.65972
4938,30.510864,-97.707405
2210,30.230046,-97.895393
3770,30.295394,-97.731474
6540,30.34332,-97.579821
5612,30.307292,-97.487271
7299,30.20127,-97.801723
3597,30.40504,-97.716
5646,30.487698,-97.377489
1967,29.944065,-97.798207
7221,30.74397,-97.776573
3983,30.347745,-97.750984
1755,30.158348,-97.776137
4555,30.45312,-97.77596
5970,30.461982,-97.597717
2145,30.066202,-97.843692
6128,30.522606,-97.796082
6737,30.667576,-97.723898
961,30.580698,-97.634348
1059,30.506117,-97.763655
985,30.505589,-97.247565
1398,30.213293,-98.084826
5557,30.710929,-97.613472
1694,30.147484,-97.983461
5706,30.642893,-97.457134
374,30.276649,-97.744971
5575,30.751872,-97.549157
1938,30.068102,-97.95782
1395,30.20463,-98.11855
531,30.170457,-97.748821
7225,30.698542,-97.825317
1307,30.035229,-98.179821
6041,30.11947,-97.6633
6338,30.335409,-97.602213
1833,30.004704,-97.82677
1318,30.009134,-98.077175
6987,30.442032,-97.575847
639,30.659308,-97.591075
3113,30.215515,-97.752872
5504,30.700789,-97.739677
1355,30.027515,-98.128455
1206,30.350266,-97.500359
2834,30.278136,-97.662454
4,30.531993,-97.967226
1354,30.061194,-98.075962
7360,30.638409,-97.56754
7113,30.569254,-97.77802
6687,30.176707,-97.617035
5041,30.435727,-97.682627
4490,30.261929,-97.620468
7167,30.629049,-97.372002
1424,30.368436,-98.072766
2729,30.093566,-97.761764
5080,30.420687,-97.704598
4546,30.367369,-97.528273
2677,30.369555,-97.801644
5563,30.769181,-97.628247
4577,30.63684,-97.798583
4224,30.290135,-97.710146
2198,30.138468,-97.795207
1400,30.246396,-98.12472
4364,30.328076,-97.676095
6581,30.530997,-97.72323
2632,30.309545,-97.825762
676,29.967048,-97.95913
1337,29.981565,-98.139629
2258,30.161605,-97.952457
790,29.813303,-97.980242
1053,30.405887,-98.02832
5038,30.440216,-97.697764
667,29.955213,-98.126496
5142,30.479026,-97.684181
7336,30.404023,-97.584014
2507,30.237186,-97.821308
1031,30.658509,-97.527026
876,30.852528,-97.680214
4815,30.815593,-97.808884
5782,30.635541,-97.397963
4485,30.247968,-97.579125
977,30.43847,-97.286145
5849,30.520289,-97.191544
884,30.577103,-97.332716
3575,30.341332,-97.691756
1576,29.879877,-97.94805
2340,30.193757,-97.85882
4780,30.552154,-97.841105
1247,30.286319,-98.064664
4508,30.366481,-97.566501
1254,29.886653,-97.962478
7120,30.836006,-97.633225
1886,29.889904,-97.935206
5908,30.461729,-97.815819
5394,30.430017,-97.613252
1238,30.026318,-98.043982
7121,30.830661,-97.562261
1232,30.413835,-97.661196
5717,30.553573,-97.426967
2393,30.179238,-97.795686
1983,29.901008,-97.904288
5599,30.249944,-97.485084
4530,30.378277,-97.635707
2336,30.188385,-97.89214
3406,30.237691,-97.662404
5536,30.733059,-97.611137
6,30.460701,-97.882086
4178,30.286261,-97.676871
4453,30.358571,-97.670468
7291,30.449558,-97.72133
5966,30.487159,-97.62689
6310,30.260089,-97.675048
4587,30.779696,-97.792564
1250,30.331214,-98.024116
3666,30.290506,-97.744096
2748,30.109931,-97.622726
5652,30.519539,-97.398686
6374,30.553424,-97.765839
6063,30.081789,-97.691642
747,30.22956,-98.135289
3542,30.377865,-97.710497
760,30.133525,-98.106678
3697,30.300289,-97.77499
655,30.417908,-97.324987
6462,30.34922,-97.521536
1941,30.124197,-98.031112
3442,30.218938,-97.689427
1107,30.106389,-98.270406
1305,29.967769,-98.189493
1793,30.38252,-97.771031
7357,30.735675,-97.815372
6751,30.127813,-97.859344
2501,30.220703,-97.836875
7015,30.792845,-97.426208
5624,30.669976,-97.44985
6426,30.144143,-97.696975
4991,30.427409,-97.756126
6795,29.841851,-97.913185
4561,30.428919,-97.78237
7258,30.558687,-97.569916
6817,30.507128,-97.830759
290,30.320679,-97.720953
980,30.515092,-97.408642
1183,30.425266,-97.532488
26,30.292875,-97.964299
624,30.39936,-97.440864
1032,30.744464,-97.349428
6492,30.377096,-97.442616
5537,30.737231,-97.597092
5633,30.602244,-97.247418
5913,30.484895,-97.650956
1531,29.845758,-97.940197
1035,30.711832,-97.41274
6055,30.094597,-97.681508
1122,30.407083,-97.761927
1500,29.846826,-97.963812
4901,30.545279,-97.708038
7454,30.323708,-97.477443
3607,30.328501,-97.715821
1387,30.188182,-98.214616
4900,30.432226,-97.652867
5308,30.566163,-97.667499
745,30.1517,-98.154464
5409,30.519427,-97.61343
4811,30.806588,-97.889688
4864,30.554615,-97.691839
1309,30.089786,-98.19487
2739,30.135807,-97.680223
2674,30.379096,-97.827727
1754,30.159513,-97.555305
1040,30.505476,-97.850632
5794,30.605047,-97.32757
734,30.055404,-97.91209
1744,30.061135,-97.780788
5611,30.296791,-97.476401
808,30.08096,-97.83664
5837,30.725492,-97.44187
1447,29.830284,-97.96121
1308,30.058892,-98.162858
6937,30.31879,-97.576736
4037,30.362398,-97.74395
3604,30.366433,-97.711165
1222,30.687437,-97.492532
501,30.207631,-97.603752
2991,30.183938,-97.744425
7457,30.461758,-97.439574
6860,30.482092,-97.610513
4724,30.451705,-97.809791
6421,30.182452,-97.687031
6031,30.152612,-97.63704
6733,30.62556,-97.468504
3641,30.315116,-97.741269
6493,30.373892,-97.397909
4631,30.572379,-97.907746
5692,30.484939,-97.479211
5362,30.627912,-97.673911
258,30.350866,-97.738792
6812,29.93177,-97.935906
7046,30.762865,-97.901905
7208,30.82,-97.856489
5290,30.548565,-97.743601
3480,30.270986,-97.705257
4626,30.44215,-97.911725
7184,30.425578,-97.381898
7129,30.755462,-97.612771
4566,30.463153,-97.779733
5842,30.509827,-97.220281
4182,30.308319,-97.670495
4646,30.454777,-97.979566
7192,30.484205,-97.424007
5519,30.693886,-97.66954
6000,30.314471,-97.63529
7061,30.716159,-97.860061
780,29.773576,-97.997444
3490,30.250804,-97.692771
6144,30.277214,-97.729393
1297,30.159975,-98.178438
2433,30.156987,-97.788798
7065,30.64746,-97.944869
564,30.264,-97.537069
18,30.349621,-98.009337
7453,30.468915,-97.642391
65,30.237106,-97.93101
1072,30.511773,-97.789939
4662,30.527014,-97.854638
7005,30.185978,-97.611815
4995,30.448963,-97.758657
668,29.956289,-98.065857
5634,30.670731,-97.27318
3950,30.371962,-97.747241
693,30.083197,-98.064494
3018,30.252084,-97.748325
1376,30.200172,-98.194485
2228,30.279916,-97.807103
1402,30.182808,-98.124873
5485,30.773388,-97.660384
6436,30.047053,-97.721963
6718,30.562828,-97.79936
306,30.339491,-97.799011
4286,30.31453,-97.707302
155,30.465101,-97.734708
5431,30.601672,-97.574378
1198,30.736201,-97.517674
3574,30.350669,-97.692827
2386,30.173459,-97.823559
1973,29.90875,-97.859715
2257,30.174159,-97.929221
1076,30.887022,-97.703803
4360,30.329883,-97.667088
815,29.989355,-97.816935
2030,29.990351,-97.888739
970,30.75436,-97.408646
749,30.158316,-98.110565
4142,30.405927,-97.745147
470,30.251311,-97.772077
5416,30.409512,-97.5607
7081,30.614034,-97.849275
666,29.896453,-98.064179
4510,30.349038,-97.538265
5802,30.650918,-97.326018
6546,30.507563,-97.775555
891,30.54927,-97.453586
583,30.044241,-97.823901
1116,30.840504,-97.903407
6967,30.338124,-98.145034
1191,30.593317,-97.519759
5529,30.826802,-97.731906
7447,30.51025,-97.522808
5923,30.679385,-97.651149
2,30.595955,-97.873341
947,30.787546,-97.733844
2585,30.262226,-97.791986
5446,30.58093,-97.612277
4656,30.460705,-97.838284
7054,30.75532,-97.807921
5839,30.719198,-97.320705
6561,30.304988,-97.934953
2304,30.21668,-97.845643
1225,30.783688,-97.524716
3522,30.34258,-97.762639
3084,30.236474,-97.762743
7067,30.654362,-98.016372
7193,30.501187,-97.409357
5716,30.662943,-97.481661
584,30.064542,-97.813059
987,30.565058,-97.259618
1697,29.963481,-97.777722
2111,30.034703,-97.874957
1120,30.406566,-97.85219
1917,29.896415,-97.921533
522,30.128184,-97.613068
6356,30.573871,-97.381476
5501,30.737033,-97.691671
5573,30.708926,-97.571769
1332,29.987964,-98.111264
999,30.511418,-97.468827
2116,30.02232,-97.853646
863,30.880283,-97.824754
3218,30.234153,-97.740107
6684,30.389098,-97.987451
1036,30.699874,-97.356277
489,30.222209,-97.784683
3961,30.37493,-97.729481
7123,30.809306,-97.549092
2204,30.290398,-98.020961
2269,30.223176,-97.952875
7118,30.812231,-97.634678
6633,30.210873,-97.872184
1780,30.267311,-97.780537
2598,30.252789,-97.784927
1964,29.963873,-97.849113
6667,30.439846,-97.519717
6325,30.327959,-97.655206
1393,30.205308,-98.133052
4559,30.667956,-97.911038
5131,30.463215,-97.667833
1061,30.48459,-97.794481
5800,30.620189,-97.292911
1784,30.152491,-97.670395
2299,30.248549,-97.850943
744,30.174555,-98.153721
6608,30.113569,-97.949825
982,30.479036,-97.392374
7450,30.552871,-97.518413
4375,30.37345,-97.677494
1208,30.397977,-97.470816
1709,30.140349,-97.832826
7443,30.261191,-97.814602
865,30.74618,-97.845772
978,30.443943,-97.370321
6127,30.513704,-97.812259
6566,30.260125,-97.906248
2241,30.196532,-97.997346
1819,29.966324,-97.926509
2329,30.199346,-97.867275
2122,30.097269,-97.874777
5745,30.567724,-97.432797
5189,30.477853,-97.693704
6170,30.501748,-97.681902
2411,30.194472,-97.830519
7029,30.132056,-97.572831
1316,29.999239,-98.101129
1039,30.707511,-97.937796
1027,30.682848,-97.597727
3162,30.269553,-97.752925
663,30.553467,-97.632417
603,30.199903,-97.523203
6672,30.476395,-97.527509
5380,30.462814,-97.574393
2334,30.175337,-97.85482
5779,30.6353,-97.434196
6645,30.312647,-97.537075
2624,30.389427,-97.882163
3237,30.24099,-97.726318
3413,30.241969,-97.689965
1111,30.320581,-98.18806
1351,30.102064,-98.096006
521,30.168372,-97.676869
2690,30.009015,-97.72796
844,29.9514,-97.81998
3868,30.305839,-97.721792
431,30.28751,-97.822447
6983,30.532678,-97.645259
2419,30.198839,-97.819117
7324,30.311881,-97.563502
5844,30.492348,-97.203126
4836,30.85163,-97.82009
956,30.6491,-97.637474
4582,30.7129,-97.797916
1106,29.994705,-98.236289
1487,29.834039,-97.992218
1553,29.867764,-97.961879
6726,30.761485,-97.739076
4548,30.510388,-98.038942
4483,30.222104,-97.632903
1193,30.637256,-97.519283
1200,30.786327,-97.570382
2700,30.063897,-97.710553
594,30.48319,-97.56746
754,29.995598,-98.167437
38,30.308173,-97.871556
750,30.0445,-98.141486
6294,30.305292,-97.660667
7156,30.643249,-97.303448
5813,30.55764,-97.30442
3669,30.285691,-97.763217
4808,30.740692,-97.896759
781,29.786936,-97.976479
576,30.42248,-97.862996
4812,30.782089,-97.852337
5627,30.675673,-97.342045
2842,30.387485,-97.64909
7058,30.85645,-97.767488
2961,30.182765,-97.760827
779,29.807481,-97.955
1235,30.40409,-97.637802
6083,30.042,-97.690878
5526,30.716307,-97.662461
1210,30.418875,-97.427254
1153,30.439673,-97.873379
1079,30.670972,-97.244333
1740,30.399031,-97.782486
3007,30.244504,-97.757351
1236,29.987074,-98.049768
4830,30.840941,-97.864193
5786,30.50493,-97.326034
4150,30.405343,-97.723673
5554,30.732696,-97.553484
7239,30.49044,-97.720869
746,30.212417,-98.172451
3741,30.322292,-97.769829
1385,30.159139,-98.245775
2694,30.126139,-97.640916
1314,30.012098,-98.120381
973,30.472299,-97.262528
3710,30.30183,-97.755075
692,30.156158,-97.922656
2455,30.210516,-97.786904
7097,30.553844,-97.857462
5688,30.42537,-97.501759
339,30.30976,-97.788871
3520,30.349399,-97.77182
2146,30.058164,-97.833704
2709,30.081814,-97.665963
1301,30.144817,-98.089328
897,29.862569,-97.930338
1202,30.753481,-97.522255
5486,30.77733,-97.625764
6515,30.186951,-97.556311
6650,30.357634,-97.616036
2074,30.041811,-97.842152
590,30.001839,-97.785715
1004,30.575191,-97.510374
975,30.445868,-97.232566
28,30.343668,-97.905759
1476,29.812963,-98.00256
979,30.455046,-97.339311
1811,29.918339,-97.90818
2987,30.166247,-97.736779
1033,30.723527,-97.294568
4055,30.352313,-97.722864
4147,30.383302,-97.723823
5746,30.585419,-97.435536
5316,30.556942,-97.704972
5838,30.698258,-97.330846
1245,30.149237,-98.051563
6188,30.335009,-97.805752
6696,30.434861,-97.568945
597,30.058818,-97.723985
2627,30.298997,-97.81519
2024,29.978504,-97.874173
5402,30.5257,-97.629185
6318,30.252222,-97.680694
4658,30.475713,-97.815704
672,29.832913,-98.018237
6009,30.227088,-97.616267
4907,30.616557,-97.652146
714,29.893447,-97.938495
2208,30.218164,-97.894051
2695,30.110472,-97.65021
567,30.562892,-97.81444
6248,30.486989,-97.769827
870,30.78796,-97.831057
2769,30.280604,-97.713907
4946,30.518784,-97.718423
2279,30.354964,-97.986207
2079,30.079887,-97.874335
2623,30.394185,-97.868841
3229,30.223308,-97.72218
7042,30.695989,-97.910087
944,30.833925,-97.833141
4536,30.394636,-97.595064
1112,30.422055,-98.127277
7076,30.64393,-97.856209
4924,30.478926,-97.713693
4486,30.157766,-97.59934
6901,30.374754,-97.582244
5478,30.714604,-97.645662
3975,30.359718,-97.766647
3797,30.280378,-97.737823
5667,30.562234,-97.37597
5468,30.788481,-97.765364
7316,30.030184,-97.674346
6766,30.090731,-97.73372
5247,30.492495,-97.654896
641,30.688991,-97.697896
5435,30.643892,-97.600963
2682,30.359284,-97.79047
1412,30.159349,-98.068204
5506,30.711626,-97.760492
180,30.426198,-97.80419
5469,30.821903,-97.757842
2112,30.019116,-97.899698
615,30.254773,-97.510731
4777,30.630726,-97.904345
679,30.030066,-98.080249
2302,30.176355,-97.835481
5555,30.696421,-97.613327
6738,30.614046,-97.702439
4472,30.379816,-97.672884
1147,30.397315,-97.519255
4903,30.508417,-97.645613
1197,30.715859,-97.509234
4610,30.661745,-97.672155
1749,30.153347,-97.711128
4763,30.531101,-97.840061
924,30.570241,-97.845304
7363,30.382586,-97.850854
5819,30.749692,-97.473196
621,30.332948,-97.468369
661,30.544213,-97.502359
3249,30.261274,-97.734654
1357,30.129918,-98.135692
2266,30.240527,-97.920292
5375,30.419243,-97.578894
5464,30.620096,-97.543473
7451,30.592391,-97.535393
7153,30.672918,-97.419748
1100,29.930219,-97.813404
766,30.24439,-98.18288
1271,29.882033,-97.895876
4447,30.39811,-97.704036
5784,30.476657,-97.335322
7229,30.694007,-97.85456
2349,30.247218,-97.888438
2665,30.321771,-97.794192
677,29.952026,-97.983606
5499,30.766132,-97.705638
140,30.499365,-97.699917
6769,30.08996,-97.708192
5015,30.479351,-97.756071
566,30.149404,-97.877778
5482,30.705095,-97.633283
4204,30.332674,-97.685902
758,30.067054,-98.102025
5592,30.821978,-97.607158
4578,30.634317,-97.779071
4607,30.675336,-97.664613
6838,30.538146,-97.57641
1837,29.89864,-97.973549
517,30.19005,-97.752272
7189,30.452564,-97.298518
43,30.272366,-98.013199
2839,30.211935,-97.657026
2608,30.33747,-97.864691
1008,30.603935,-97.594838
642,30.70538,-97.717715
4446,30.385886,-97.695512
5498,30.745366,-97.705643
5022,30.499992,-97.740616
657,30.519091,-97.37656
1233,30.405328,-97.66238
42,30.286234,-97.902792
5843,30.459642,-97.216268
1960,29.940408,-97.846714
2706,30.120769,-97.714933
5698,30.603528,-97.488419
1150,30.385513,-98.086011
2135,30.046184,-97.80319
4821,30.756328,-97.876023
5224,30.526608,-97.690407
732,30.06917,-98.022446
6438,30.018687,-97.714631
6813,29.928867,-97.904346
6108,30.48711,-97.83847
816,29.953982,-97.862871
303,30.28759,-97.640662
4543,30.38719,-97.553175
2849,30.179253,-97.720695
994,30.65527,-97.346524
7145,30.716348,-97.486394
5596,30.291006,-97.46401
4170,30.320168,-97.686875
4091,30.392147,-97.734457
787,29.859848,-97.970835
4553,30.471878,-97.783285
5857,30.488565,-97.804227
1974,29.916639,-97.878747
6815,30.502185,-97.812843
850,30.629693,-97.936611
304,30.296238,-97.606829
3067,30.226916,-97.769235
7194,30.628721,-97.582445
4443,30.370957,-97.692104
5807,30.567339,-97.348889
580,30.079619,-97.796332
29,30.321831,-97.89921
616,30.274879,-97.472702
2943,30.170108,-97.768355
2189,30.094513,-97.794342
2569,30.260056,-97.805347
618,30.327288,-97.527973
691,30.103535,-97.972025
7077,30.62811,-97.852532
681,30.043596,-98.053382
7334,30.445402,-98.098789
6284,30.229333,-97.888014
6669,30.47881,-97.541125
7350,30.366422,-97.894353
6680,30.371741,-97.624862
5682,30.474647,-97.403883
2308,30.213589,-97.814537
6564,30.308097,-97.950019
37,30.352597,-97.921387
4373,30.366049,-97.681247
2877,30.261683,-97.716147
907,29.888777,-97.953068
761,30.271372,-98.086092
5405,30.508417,-97.625453
4643,30.492385,-97.979233
5473,30.696144,-97.652555
1613,29.87679,-97.928989
634,30.762333,-97.570963
5945,30.546267,-97.64096
2148,30.070839,-97.827419
6975,30.243861,-97.810043
1241,30.047991,-98.025834
4208,30.305753,-97.697286
7095,30.58304,-97.792711
7366,29.80524,-98.011374
1378,30.280318,-98.155751
556,30.061879,-97.67384
2456,30.198363,-97.790864
5165,30.508403,-97.678612
491,30.219174,-97.770121
1092,30.474429,-97.162178
7174,30.547076,-97.234691
5251,30.480727,-97.672541
6526,30.23481,-97.876511
4868,30.538693,-97.668085
4693,30.422111,-97.78731
5007,30.512404,-97.75711
7087,30.600357,-97.860978
5460,30.583733,-97.548339
871,30.685782,-97.776485
7137,30.753661,-97.487775
2273,30.306929,-97.970205
990,30.660884,-97.299336
5422,30.498847,-97.562853
5675,30.53446,-97.29119
959,30.659924,-97.615333
455,30.245798,-97.737968
3657,30.312377,-97.716213
974,30.48328,-97.224474
4940,30.525556,-97.708129
494,30.211973,-97.741725
5631,30.526755,-97.250475
4734,30.467894,-97.797175
3579,30.341644,-97.662746
160,30.460126,-97.635163
1843,29.983412,-98.00407
1068,30.628699,-97.811
7190,30.471719,-97.460888
4655,30.445155,-97.831847
4236,30.322029,-97.694297
297,30.310034,-97.680821
6693,30.459104,-97.616753
2688,30.385861,-97.798527
4417,30.35443,-97.703913
5657,30.57937,-97.403112
614,30.230896,-97.570828
1325,30.047826,-98.198919
2628,30.298207,-97.802389
119,30.500992,-97.793977
6168,30.441739,-97.667405
588,30.028229,-97.982658
2338,30.16629,-97.860619
3128,30.272814,-97.761144
748,30.220277,-98.100548
5799,30.605051,-97.2872
5572,30.69885,-97.549337
7016,30.810491,-97.500176
7374,30.334174,-97.969506
568,30.556527,-97.784048
3437,30.231294,-97.68355
1005,30.578301,-97.465299
1944,29.938037,-97.893994
2027,29.98998,-97.859024
5335,30.640803,-97.677856
4853,30.541872,-97.692531
1024,30.750264,-97.681406
1209,30.405153,-97.499596
495,30.199342,-97.739267
4629,30.511005,-97.911433
2246,30.167389,-98.008567
4527,30.381294,-97.606003
1651,29.870384,-97.937174
4792,30.573004,-97.882665
6876,30.46854,-97.594099
5101,30.449126,-97.695808
1839,29.956176,-97.969228
3441,30.214845,-97.701764
4579,30.660277,-97.947207
3903,30.322612,-97.732742
1920,29.892966,-97.915739
6832,30.561384,-97.580235
759,30.10241,-98.14819
7293,30.34765,-97.712183
7127,30.759316,-97.603915
3464,30.273317,-97.697651
792,29.947011,-97.918627
6713,29.892687,-98.006621
5672,30.637539,-97.351913
5274,30.600619,-97.74742
2182,30.088967,-97.819233
2850,30.189539,-97.703901
1219,30.607574,-97.506741
3070,30.219675,-97.758024
1748,30.14972,-97.766207
4614,30.674731,-97.585937
6624,30.538408,-97.892095
2068,29.961303,-97.832749
3133,30.260731,-97.758134
3802,30.291578,-97.737599
6580,30.551627,-97.732013
2452,30.183114,-97.781832
1010,30.571888,-97.562385
7180,30.433226,-97.329647
1326,30.097785,-98.239317
5824,30.771277,-97.435181
7144,30.709134,-97.456914
445,30.247651,-97.650627
6742,30.59155,-97.692337
7319,30.105148,-97.76634
4794,30.576412,-97.871701
5535,30.755718,-97.633313
1089,30.397006,-97.36545
6538,30.356133,-97.600483
2841,30.337559,-97.719007
1369,30.272555,-98.179416
6920,30.341063,-97.590096
2216,30.181256,-97.90037
6625,30.51248,-97.881373
5169,30.527232,-97.677023
1151,30.406921,-98.058975
7011,30.485338,-97.684915
7185,30.425158,-97.365509
2054,30.007356,-97.864561
581,30.054632,-97.768528
1836,30.018492,-97.871239
3366,30.255577,-97.720672
650,30.556867,-97.534104
3997,30.39489,-97.754694
562,30.30919,-97.550996
6358,30.610813,-97.625676
2286,30.153247,-97.833034
4633,30.477924,-97.901209
5494,30.79354,-97.6039
4592,30.539889,-97.779875
5781,30.618199,-97.408342
4669,30.484195,-97.852776
5411,30.428613,-97.549755
7200,30.69988,-97.601771
5879,30.534834,-97.816432
4725,30.446946,-97.80697
1075,30.905132,-97.800454
13,30.416288,-97.888347
5893,30.558882,-97.822451
4103,30.38369,-97.742412
206,30.402956,-97.652095
633,30.787235,-97.461624
6451,30.345771,-97.569036
185,30.409079,-97.806945
5685,30.433967,-97.482584
2322,30.206944,-97.84541
696,30.221504,-98.001452
1416,30.181782,-98.087413
2272,30.303727,-97.997469
1478,29.862223,-97.998377
56,30.259205,-97.829376
5668,30.538495,-97.366042
5423,30.516488,-97.53651
1463,29.820649,-97.955213
1976,29.917495,-97.895689
1707,30.145025,-97.852244
5661,30.610478,-97.389218
1018,30.684143,-97.475931
3912,30.338302,-97.738981
577,30.130563,-97.947983
3571,30.340601,-97.700162
4980,30.420125,-97.772972
5512,30.716327,-97.68201
4647,30.472365,-97.991415
7226,30.654901,-97.835778
669,29.950139,-98.009999
5816,30.659009,-97.277782
1377,30.27055,-98.068497
3332,30.268102,-97.743829
4520,30.299094,-97.64632
1986,29.895047,-97.899234
5712,30.584071,-97.497158
64,30.267416,-97.928478
656,30.454708,-97.409402
1001,30.517308,-97.502997
1296,30.345872,-98.027208
1430,29.883152,-97.909806
7071,30.675385,-97.872958
1373,30.199549,-98.184398
7006,30.620736,-97.671194
1386,30.179132,-98.230195
157,30.460659,-97.68639
1310,30.08205,-98.171247
5083,30.413006,-97.690253
6227,30.437275,-97.736129
1020,30.741662,-97.534252
6502,30.158663,-97.643716
7358,30.634316,-97.727502
2754,30.2773,-97.770504
6577,30.129313,-97.778358
6271,30.234158,-97.861587
11,30.367501,-98.056627
1012,30.544585,-97.60774
1945,29.950238,-97.884295
499,30.200401,-97.668694
1300,30.157746,-98.131657
108,30.575265,-97.671384
1013,30.559709,-97.615336
2381,30.218741,-97.854334
4788,30.643704,-97.871143
7213,30.850121,-97.788271
3083,30.227403,-97.755667
5609,30.306721,-97.453975
6412,30.659281,-97.657317
21,30.351176,-97.937276
1084,30.136738,-97.560852
30,30.653697,-97.705243
5715,30.636384,-97.469742
7204,30.567886,-97.48939
285,30.331953,-97.759891
2596,30.272874,-97.801035
5648,30.504468,-97.372776
5836,30.716776,-97.43482
4249,30.329182,-97.705906
7210,30.822921,-97.826897
6094,30.541417,-97.849713
4849,30.442467,-97.643076
2967,30.190404,-97.77062
2104,30.092478,-97.848376
5671,30.650676,-97.393053
116,30.550837,-97.664092
1830,30.028376,-97.926097
4442,30.35481,-97.682544
523,30.166566,-97.569847
2181,30.112819,-97.795296
2293,30.202866,-97.837208
2242,30.217079,-97.962868
2495,30.236772,-97.830217
2870,30.230142,-97.714194
6727,30.804112,-97.660227
6383,30.149401,-97.731083
1544,29.839028,-97.953008
735,29.886781,-97.991968
3907,30.324701,-97.743632
500,30.224758,-97.664314
4818,30.688541,-97.936631
46,30.287223,-97.86426
176,30.446884,-97.613692
5269,30.516475,-97.670822
5374,30.425315,-97.592436
1958,29.997898,-97.850285
243,30.340503,-97.634953
3843,30.29117,-97.721933
7188,30.481276,-97.321001
191,30.422727,-97.734935
7166,30.624678,-97.359752
69,30.244942,-97.985156
1349,30.06887,-98.125564
3711,30.303889,-97.758616
5415,30.456997,-97.554561
5406,30.491332,-97.645052
5680,30.520829,-97.44849
7231,30.707939,-97.81409
4514,30.311584,-97.614485
2726,30.114963,-97.746603
2911,30.212168,-97.717869
853,30.639453,-97.894479
600,30.144669,-97.747936
6659,30.483881,-97.781931
1196,30.655746,-97.51178
7147,30.727206,-97.491715
2328,30.180271,-97.878955
2108,30.049961,-97.874437
4487,30.177262,-97.639538
704,29.881756,-97.942358
4847,30.535557,-97.742113
6938,30.32696,-97.582044
5538,30.703664,-97.589123
7186,30.450452,-97.354343
3556,30.301662,-97.715228
946,30.809086,-97.788775
7215,30.862218,-97.802719
1276,29.885597,-97.946803
5727,30.57238,-97.439098
5676,30.427887,-97.451867
3652,30.30663,-97.735245
1461,29.840025,-97.97189
631,30.51116,-97.432012
1389,30.189203,-98.109283
949,30.592574,-97.705395
4872,30.587911,-97.657458
389,30.281893,-97.719348
1930,29.887113,-97.917196
73,30.221875,-97.905353
856,30.766585,-97.9192
5238,30.490226,-97.676392
925,30.547881,-97.832053
4357,30.333725,-97.677994
4786,30.580861,-97.818602
4017,30.359302,-97.729689
524,30.204201,-97.575259
4586,30.720897,-97.773644
593,30.488497,-97.600807
6643,30.333247,-97.549335
1484,29.847718,-97.981245
2954,30.200477,-97.762512
604,30.114833,-97.680519
2109,30.02744,-97.88916
935,30.678669,-97.678827
612,30.172582,-97.602786
628,30.408462,-97.527893
4826,30.764621,-97.842461
6652,30.341855,-97.612919
2931,30.201675,-97.751597
752,30.115504,-98.192023
2407,30.1607,-97.802057
1803,30.144604,-97.808804
2255,30.231634,-97.999975
2640,30.300892,-97.839075
4959,30.424096,-97.748686
4521,30.330815,-97.62313
1275,29.917247,-98.051817
1228,30.410299,-97.695637
6897,30.387571,-97.580077
7168,30.637115,-97.257052
1022,30.767866,-97.516497
1999,29.93194,-97.88714
76,30.22221,-97.928999
6151,30.319822,-97.712749
6222,30.424195,-97.71355
685,30.177624,-98.067552
1368,30.22719,-98.169205
1884,29.903718,-97.91319
794,30.501019,-97.716276
1689,29.869256,-97.89591
1421,30.249399,-98.058146
109,30.569989,-97.644672
1509,29.85336,-97.957648
561,30.316307,-97.498617
885,30.577643,-97.392433
646,30.617408,-97.492335
5489,30.789934,-97.62124
699,30.188322,-97.952201
6765,30.101144,-97.759866
74,30.210384,-97.884729
3473,30.251497,-97.707531
224,30.373993,-97.650303
4817,30.682505,-97.959478
874,30.629455,-97.700115
1855,29.917193,-97.933274
553,30.099935,-97.644403
6424,30.11623,-97.705409
591,29.979146,-97.846817
889,30.572072,-97.41793
5626,30.480879,-97.250779
1304,30.13787,-98.157966
1189,30.546126,-97.526327
5607,30.370092,-97.424792
3702,30.283513,-97.751976
5296,30.632453,-97.764663
3252,30.265185,-97.730157
5829,30.742549,-97.431153
7026,30.351374,-97.462219
3631,30.309049,-97.7504
6070,30.073714,-97.69251
2091,30.087256,-97.830648
888,30.567615,-97.398214
736,29.908987,-97.972402
819,30.017435,-97.826144
4791,30.565791,-97.865207
5670,30.525988,-97.343815
6818,30.506964,-97.822037
546,30.118841,-97.815712
4557,30.664729,-97.922419
7187,30.458775,-97.325924
565,30.239086,-97.53474
2377,30.223181,-97.871649
6989,30.480331,-97.552125
3989,30.35472,-97.747993
4774,30.53082,-97.793404
4754,30.480587,-97.832681
6015,30.195775,-97.624984
4621,30.441616,-97.781865
1342,29.985865,-98.075657
514,30.209973,-97.775986
209,30.420193,-97.603293
3990,30.367775,-97.753554
55,30.260857,-97.851746
481,30.218675,-97.746881
507,30.21642,-97.7932
2920,30.159699,-97.759613
586,30.081642,-97.956989
4719,30.455925,-97.792581
400,30.275689,-97.620276
363,30.286926,-97.730248
1374,30.197855,-98.162057
1343,29.998843,-98.084241
2699,30.061381,-97.7375
582,30.03508,-97.739866
1394,30.219776,-98.118518
71,30.209143,-97.954558
7287,30.420686,-97.930203
6701,30.327907,-97.926668
6954,30.245537,-97.80285
59,30.25396,-97.895281
2207,30.203564,-97.915917
5178,30.475276,-97.701299
2538,30.235198,-97.794501
5683,30.421953,-97.474698
881,30.834316,-97.589673
1532,29.854604,-97.930246
2283,30.32185,-97.955313
5674,30.553811,-97.320574
4886,30.539912,-97.562729
2355,30.2569,-97.871023
3617,30.296499,-97.745016
5793,30.586328,-97.319771
5456,30.643828,-97.615315
6202,30.384604,-97.766459
3396,30.197945,-97.683804
4824,30.732835,-97.845932
4601,30.659603,-97.538345
2531,30.230355,-97.789878
3021,30.258882,-97.745798
3448,30.221328,-97.683421
6806,29.841425,-97.984104
6286,30.322761,-97.679194
1099,29.835521,-97.9049
4368,30.375623,-97.700247
5780,30.639174,-97.421296
5832,30.691783,-97.414603
7050,30.799574,-97.867794
5831,30.702761,-97.486109
5436,30.64644,-97.582422
964,30.547251,-97.412218
5620,30.363782,-97.477292
1175,30.4133,-97.673628
3887,30.342578,-97.730718
858,30.639299,-97.6662
3495,30.26997,-97.681979
4642,30.536792,-97.806164
6485,30.352275,-97.41145
2532,30.223115,-97.799201
3307,30.272069,-97.739349
4216,30.297891,-97.686729
1379,30.256065,-98.154836
1878,29.900543,-97.926663
957,30.675787,-97.63588
3934,30.377409,-97.753217
595,30.463281,-97.525215
5818,30.722088,-97.417948
599,30.428163,-97.513846
3953,30.374437,-97.739669
578,30.113558,-97.857472
6495,30.234545,-97.910859
649,30.614327,-97.438935
5795,30.632659,-97.33326
7395,29.9038,-97.893832
729,30.207493,-98.032242
5172,30.514782,-97.656975
6691,30.042234,-97.790697
2362,30.238761,-97.890584
2005,29.969687,-97.89606
24,30.351794,-97.845706
6705,30.3235,-97.519516
25,30.221922,-97.974997
175,30.429712,-97.632319
1129,30.412533,-97.731664
1939,30.059516,-97.989525
5930,30.671253,-97.646967
4850,30.456432,-97.651139
2063,29.971545,-97.818273
6879,30.471927,-97.591209
1293,30.194871,-98.049602
7138,30.735276,-97.448104
3600,30.338773,-97.710022
3205,30.21579,-97.735121
4541,30.30054,-97.527943
446,30.583031,-97.893907
5663,30.459272,-97.381999
1313,30.004317,-98.18761
626,30.362081,-97.455986
4264,30.336173,-97.693107
1274,29.908608,-98.008721
1148,30.408455,-97.512478
7124,30.826595,-97.533557
7013,30.513149,-97.864687
2410,30.187778,-97.827104
4197,30.308384,-97.652307
313,30.309286,-97.779878
1626,29.863338,-97.937733
6340,30.348483,-97.585201
5635,30.665192,-97.467715
697,30.232619,-98.041958
5640,30.542725,-97.484727
1049,30.740886,-97.717294
995,30.584139,-97.4234
